svm_type c_svc
kernel_type rbf
gamma 0.0078125
nr_class 4
total_sv 66
rho 0.279417 -0.318321 1.17026 -0.244698 -0.299502 0.521661
label 1 0 2 3
nr_sv 23 11 10 22
SV
0 2.185864875386056 0 1:-0.858902 2:-0.889414 3:-0.949276 4:0.937447 5:-0.891519 6:0.888311 7:-0.0630745 8:0.825211 9:-0.918628 10:0.0325918 11:-0.719774 12:-0.526704 13:0.637972 14:-0.62549 15:0.566345 16:0.730311 17:0.136128 18:0.490912 19:-0.783129 20:-0.863597 21:-0.487899 22:0.0270148 23:0.318324 24:-0.72505 25:0.702357 26:0.287568 27:1 
0 8 0 1:-0.858902 2:-0.889414 3:-0.949276 4:0.943675 5:-0.900806 6:0.891512 7:-0.0484968 8:0.825211 9:-0.919038 10:0.0292949 11:-0.745787 12:-0.566198 13:0.694821 14:-0.69599 15:0.667912 16:0.727481 17:0.138184 18:0.490912 19:-0.792855 20:-0.868389 21:-0.514609 22:-0.0325143 23:0.473056 24:-0.968657 25:0.707756 26:0.298933 27:1 
0 6.186898536337108 0 1:-0.858902 2:-0.889414 3:-0.949276 4:0.933945 5:-0.883741 6:0.875839 7:-0.0533238 8:0.825211 9:-0.919038 10:0.0288854 11:-0.752389 12:-0.542365 13:0.679892 14:-0.684579 15:0.665499 16:0.715044 17:0.13797 18:0.490912 19:-0.788333 20:-0.867969 21:-0.497586 22:-0.0111705 23:0.414951 24:-0.900235 25:0.751299 26:0.303446 27:1 
0 0 8 1:-0.858902 2:-0.889414 3:-0.949276 4:0.785266 5:-0.643621 6:0.722487 7:-0.271958 8:0.825211 9:-0.918287 10:0.0675023 11:-0.245962 12:-0.0821483 13:0.202861 14:-0.294433 15:0.373978 16:0.685288 17:0.139536 18:0.500604 19:-0.689578 20:-0.65648 21:-0.142602 22:0.0423818 23:-0.279199 24:0.278794 25:0.945401 26:0.308646 27:1 
0 5.135667828764575 0 1:-0.858902 2:-0.889414 3:-0.949276 4:0.797622 5:-0.652538 6:0.689138 7:-0.176253 8:0.825211 9:-0.917361 10:0.0699062 11:-0.279255 12:-0.178463 13:0.211023 14:-0.239377 15:0.280155 16:0.621462 17:0.121647 18:0.497155 19:-0.666249 20:-0.780134 21:-0.296957 22:0.0475237 23:-0.0498355 24:-0.0966326 25:0.811432 26:0.304718 27:1 
0 8 0 1:-0.858902 2:-0.889414 3:-0.949276 4:0.808289 5:-0.668182 6:0.693502 7:-0.149354 8:0.825211 9:-0.91746 10:0.0615979 11:-0.404864 12:-0.19066 13:0.249847 14:-0.261478 15:0.269688 16:0.625426 17:0.119108 18:0.494883 19:-0.67734 20:-0.746724 21:-0.282439 22:-0.064402 23:0.117523 24:-0.272767 25:0.727573 26:0.303876 27:1 
0 8 0 1:-0.858902 2:-0.889414 3:-0.949276 4:0.784941 5:-0.625866 6:0.650196 7:-0.151385 8:0.825211 9:-0.917506 10:0.0632998 11:-0.41948 12:-0.161144 13:0.20586 14:-0.204507 15:0.228426 16:0.563305 17:0.110912 18:0.494736 19:-0.65156 20:-0.682307 21:-0.272397 22:-0.0508006 23:0.0480579 24:-0.173497 25:0.790587 26:0.30469 27:1 
0 8 8 1:-0.858902 2:-0.889414 3:-0.949276 4:0.77802 5:-0.612095 6:0.632192 7:-0.143226 8:0.825211 9:-0.917789 10:0.0565801 11:-0.528834 12:-0.133911 13:0.223218 14:-0.225822 15:0.267687 16:0.528789 17:0.111797 18:0.49263 19:-0.664632 20:-0.694204 21:-0.209718 22:-0.079017 23:0.0314638 24:-0.140309 25:0.831135 26:0.305041 27:1 
0 0 8 1:-0.858902 2:-0.889414 3:-0.949276 4:0.782193 5:-0.622232 6:0.650696 7:-0.160993 8:0.825211 9:-0.919038 10:0.0410076 11:-0.57913 12:-0.216555 13:0.344931 14:-0.355435 15:0.359477 16:0.608001 17:0.12899 18:0.49155 19:-0.668813 20:-0.758435 21:-0.15674 22:-0.0409958 23:-0.0697214 24:-0.0280724 25:0.908359 26:0.307282 27:1 
0 0 8 1:-0.858902 2:-0.889414 3:-0.949276 4:0.760921 5:-0.586731 6:0.623987 7:-0.18428 8:0.825211 9:-0.919038 10:0.0405637 11:-0.555661 12:-0.200912 13:0.321185 14:-0.325796 15:0.312406 16:0.612841 17:0.130374 18:0.492205 19:-0.661805 20:-0.768876 21:-0.0826959 22:-0.0527358 23:-0.148336 24:0.128519 25:0.903642 26:0.305644 27:1 
0 0 8 1:-0.858902 2:-0.889414 3:-0.949276 4:0.747975 5:-0.564619 6:0.605592 7:-0.194814 8:0.825211 9:-0.919038 10:0.0425471 11:-0.523496 12:-0.184973 13:0.287561 14:-0.282832 15:0.249083 16:0.62125 17:0.125618 18:0.495079 19:-0.651721 20:-0.795648 21:-0.129414 22:0.0232698 23:-0.220486 24:0.202016 25:0.89184 26:0.304606 27:1 
0 0 8 1:-0.858902 2:-0.889414 3:-0.949276 4:0.777246 5:-0.615099 6:0.64918 7:-0.174321 8:0.825211 9:-0.919038 10:0.043393 11:-0.603313 12:-0.22519 13:0.338951 14:-0.328232 15:0.274959 16:0.653429 17:0.120277 18:0.496846 19:-0.671166 20:-0.83084 21:-0.148159 22:0.0215927 23:-0.173928 24:0.12496 25:0.866455 26:0.301325 27:1 
0 8 8 1:-0.858902 2:-0.889414 3:-0.946745 4:0.680419 5:-0.458122 6:0.538952 7:-0.292673 8:0.825211 9:-0.91575 10:0.0830667 11:-0.421525 12:-0.062842 13:0.0617637 14:-0.0294678 15:0.0268107 16:0.537837 17:0.0742046 18:0.526661 19:-0.525909 20:-0.820829 21:-0.167096 22:0.0389722 23:-0.258739 24:0.275645 25:0.918232 26:0.302628 27:1 
0 0 8 1:-0.858902 2:-0.889414 3:-0.949061 4:0.950714 5:-0.910555 6:0.891352 7:-0.025117 8:0.825211 9:-0.919038 10:0.0216916 11:-0.814797 12:-0.661105 13:0.795455 14:-0.788154 15:0.740386 16:0.756836 17:0.141454 18:0.548863 19:-0.737799 20:-0.249873 21:0.0845499 22:-0.452056 23:0.0752398 24:0.235499 25:0.75812 26:0.252784 27:0.967499 
0 0 8 1:-0.858902 2:-0.889414 3:-0.943219 4:0.885839 5:-0.810186 6:0.824694 7:-0.105674 8:0.825211 9:-0.918816 10:0.0388886 11:-0.667313 12:-0.524928 13:0.635312 14:-0.657288 15:0.716738 16:0.666668 17:0.115864 18:0.563926 19:-0.661488 20:-0.342221 21:0.0212064 22:-0.407041 23:0.068798 24:0.244538 25:0.691173 26:0.255021 27:0.966035 
8 0 8 1:-0.858902 2:-0.889414 3:-0.946215 4:0.728188 5:-0.525878 6:0.547335 7:-0.152227 8:0.825211 9:-0.912814 10:0.0629342 11:-0.257481 12:-0.272448 13:0.242131 14:-0.283597 15:0.569841 16:0.440968 17:0.00255221 18:0.598594 19:-0.544184 20:0.081799 21:-0.0111285 22:-0.543698 23:0.109772 24:0.345528 25:0.709268 26:0.25756 27:0.966508 
0 0 8 1:-0.858902 2:-0.88895 3:-0.934147 4:0.755539 5:-0.596209 6:0.646664 7:-0.199464 8:0.825211 9:-0.913928 10:0.0908443 11:-0.354016 12:-0.497093 13:0.416094 14:-0.435412 15:0.679072 16:0.462635 17:0.0609474 18:0.603538 19:-0.399991 20:-0.267356 21:-0.130753 22:-0.401145 23:0.0876271 24:0.276464 25:0.699953 26:0.244904 27:0.957585 
2.620499661185268 0 8 1:-0.862043 2:-0.700626 3:-1 4:0.773108 5:-0.64866 6:0.709414 7:-0.157105 8:0.826748 9:-0.887582 10:0.0815621 11:-0.224421 12:-0.364031 13:0.255027 14:-0.275997 15:0.4862 16:0.493119 17:0.102583 18:0.627592 19:-0.379571 20:-0.189948 21:-0.26325 22:-0.418436 23:0.172551 24:0.260647 25:0.655683 26:0.199718 27:0.905452 
0 0 8 1:-0.861078 2:-0.739865 3:-0.98707 4:0.885248 5:-0.840637 6:0.884597 7:-0.113514 8:0.826637 9:-0.89806 10:0.0320477 11:-0.616724 12:-0.41929 13:0.49782 14:-0.500171 15:0.502073 16:0.701946 17:0.13509 18:0.592812 19:-0.52735 20:-0.386586 21:-0.223092 22:-0.330519 23:0.131562 24:0.21398 25:0.628231 26:0.195578 27:0.912141 
0 8 8 1:-0.858902 2:-0.885131 3:-0.925172 4:0.959462 5:-0.957276 6:0.956379 7:-0.0380557 8:0.825211 9:-0.912142 10:0.0195892 11:-0.820111 12:-0.192772 13:0.386619 14:-0.352111 15:0.167403 16:0.759379 17:0.141789 18:0.599403 19:-0.487667 20:-0.314501 21:-0.181418 22:-0.386552 23:0.13736 24:0.274734 25:0.596835 26:0.166589 27:0.925956 
8 0 0 1:-0.858902 2:-0.889414 3:-0.949276 4:0.450904 5:-0.137232 6:0.518062 7:-1 8:0.825211 9:-0.916146 10:0.263417 11:0.0124914 12:-0.425665 13:-0.0546942 14:0.052771 15:0.524758 16:0.40706 17:-0.311057 18:0.612941 19:0.50605 20:-0.564616 21:-0.551988 22:-0.172166 23:0.0125705 24:0.268346 25:0.779597 26:0.263202 27:0.978586 
0 0 8 1:-0.85933 2:-0.850946 3:-0.953713 4:0.943146 5:-0.918778 6:0.930186 7:-0.0730092 8:0.825634 9:-0.911767 10:0.0258747 11:-0.755515 12:-0.437346 13:0.603111 14:-0.620547 15:0.599144 16:0.739931 17:0.138382 18:0.571432 19:-0.597983 20:-0.46243 21:-0.140912 22:-0.283482 23:0.0531897 24:0.223084 25:0.660979 26:0.22683 27:0.944622 
0 0 6.09364586561737 1:-0.858902 2:-0.862687 3:-0.903013 4:0.879539 5:-0.866522 6:0.933722 7:-0.164456 8:0.823564 9:-0.888295 10:0.0661521 11:-0.416509 12:-0.185513 13:0.325139 14:-0.444893 15:0.602601 16:0.748831 17:0.127801 18:0.649432 19:-0.494815 20:-0.433372 21:-0.32123 22:-0.403344 23:0.300155 24:0.140315 25:0.508107 26:0.0769281 27:0.875878 
-0 0 8 1:-0.858902 2:-0.732866 3:0.0941448 4:-0.239099 5:0.0130735 6:0.374529 7:-0.0235706 8:0.825211 9:-0.843732 10:0.685847 11:0.390937 12:-0.43714 13:-0.950518 14:0.960042 15:0.47084 16:0.219409 17:-0.769253 18:0.391175 19:-0.230176 20:0.632381 21:-0.597996 22:-0.719148 23:0.50069 24:0.672371 25:0.127187 26:-0.404614 27:0.817044 
-1.326776784595524 7.596947429803729 8 1:-0.744482 2:-0.35733 3:-0.0716586 4:-0.215181 5:-0.0914551 6:0.552697 7:-0.0235706 8:0.825211 9:-0.361177 10:0.0833874 11:0.0972965 12:-0.226122 13:-0.829661 14:0.891912 15:0.297415 16:-0.497727 17:-0.353513 18:0.773165 19:-0.758039 20:0.585771 21:-0.740979 22:-0.607794 23:0.568079 24:0.656688 25:-0.569066 26:-0.119523 27:0.690699 
-8 0 8 1:-0.81925 2:-0.596949 3:-0.00837139 4:-0.165961 5:-0.0942029 6:0.494561 7:-0.0235706 8:0.825211 9:-0.775483 10:0.690993 11:0.417017 12:-0.669293 13:-0.915609 14:0.980767 15:0.485324 16:0.141096 17:-0.819717 18:0.453547 19:-0.211731 20:0.153555 21:-0.544816 22:-0.730704 23:0.548092 24:0.69763 25:0.136899 26:-0.362904 27:0.650026 
-7.247989430547474 0 3.16250512057624 1:-0.82073 2:-0.536721 3:-0.0317061 4:-0.236433 5:0.0292077 6:0.372823 7:-0.0235706 8:0.825211 9:-0.799823 10:0.722123 11:-0.129487 12:-0.350435 13:-0.961816 14:0.931202 15:0.84061 16:-0.253425 17:-0.815934 18:0.422634 19:0.093024 20:0.172529 21:-0.577815 22:-0.744066 23:0.574342 24:0.609269 25:0.209033 26:-0.522148 27:0.793462 
-0 0 8 1:-0.779797 2:-0.338852 3:-0.170796 4:-0.146012 5:-0.104841 6:0.52697 7:-0.0263971 8:0.825211 9:-0.42065 10:0.167325 11:0.618649 12:-0.467993 13:-0.877544 14:0.978037 15:0.274645 16:-0.483903 17:-0.45804 18:0.751567 19:-0.74688 20:0.49595 21:-0.771623 22:-0.595022 23:0.652181 24:0.429402 25:-0.489045 26:-0.116314 27:0.705436 
-0 0 6.019772507224164 1:-0.818008 2:-0.456192 3:0.0256925 4:-0.345031 5:0.119589 6:0.323646 7:-0.0235706 8:0.825211 9:-0.737218 10:0.773185 11:-0.359269 12:-0.444004 13:-0.985349 14:0.987682 15:0.663527 16:0.198137 17:-0.849116 18:0.363005 19:-0.258489 20:0.260908 21:-0.618176 22:-0.684702 23:0.507274 24:0.699989 25:0.485714 26:-0.394975 27:0.568332 
-0 2.09912439853771 0 1:0.503889 2:-1 3:-0.580182 4:-0.706327 5:0.506623 6:0.812439 7:1 8:-0.970451 9:1 10:-0.915749 11:-0.203375 12:-0.910622 13:-0.927024 14:0.937626 15:0.752225 16:0.953402 17:0.347262 18:-0.783783 19:-1 20:-0.594793 21:-0.603426 22:-0.661512 23:0.701372 24:0.87338 25:0.225555 26:1 27:-0.929553 
-0 6.392164469323383 0 1:-0.751131 2:-0.261775 3:0.64304 4:-0.744494 5:0.0264023 6:0.733544 7:-0.0235706 8:0.825211 9:-0.857936 10:0.794292 11:0.0343128 12:-0.401663 13:-0.957102 14:0.881363 15:0.9296 16:0.12551 17:-1 18:0.43194 19:0.207773 20:-0.133361 21:-0.555205 22:-0.718485 23:0.590244 24:0.495649 25:-0.0430301 26:-0.2295 27:0.794963 
-0.1117563449580544 0 1.575287806603196 1:0.503198 2:-0.639439 3:-0.607494 4:-0.678073 5:0.447619 6:0.764015 7:0.845138 8:-0.348456 9:0.818116 10:-1 11:0.265235 12:-0.937428 13:-1 14:0.982333 15:0.95608 16:0.813925 17:0.32007 18:-0.937754 19:-0.869034 20:-0.623487 21:-0.663538 22:-0.697926 23:0.836768 24:0.581604 25:0.978466 26:0.472589 27:-0.858543 
-1.933977101084215 0 0 1:0.535518 2:-0.71876 3:-0.729218 4:-0.62014 5:0.417505 6:0.886049 7:0.88931 8:-1 9:0.932422 10:-0.792133 11:-0.0439524 12:-1 13:-0.869206 14:0.909986 15:0.7153 16:0.495985 17:1 18:-1 19:-0.979345 20:-0.565114 21:-0.624103 22:-0.643437 23:0.671881 24:0.960723 25:0.0310039 26:0.933709 27:-0.8486 
-0 0 2.566147863333658 1:-0.646493 2:0.384319 3:-0.14843 4:-0.467879 5:0.0182665 6:0.64305 7:-0.0280675 8:0.825211 9:-0.0586407 10:-0.12243 11:0.52757 12:-0.53201 13:-0.867083 14:0.957448 15:0.412385 16:-0.603901 17:-0.340247 18:0.839364 19:-0.400697 20:0.382079 21:-0.877571 22:-0.625118 23:0.614755 24:0.567124 25:0.267263 26:-0.255353 27:0.508072 
-5.508431240487739 -0 0 1:-0.858902 2:-0.889414 3:0.0308026 4:0.199687 5:-0.634259 6:0.983686 7:-0.0254636 8:0.825211 9:-0.919038 10:0.0228967 11:-0.814859 12:0.102126 13:0.198012 14:-0.205455 15:0.0201404 16:0.768937 17:0.141454 18:0.506791 19:-0.760818 20:-0.855138 21:-0.565963 22:-0.157273 23:0.653889 24:-0.891962 25:0.0925622 26:0.252132 27:0.989233 
-8 -0 0 1:-0.858902 2:-0.888925 3:-0.190427 4:0.377578 5:-0.71247 6:0.980697 7:-0.0280506 8:0.825211 9:-0.918551 10:0.0244509 11:-0.833633 12:0.0956057 13:0.1812 14:-0.163438 15:-0.0638317 16:0.76768 17:0.142567 18:0.505069 19:-0.770498 20:-0.827403 21:-0.551572 22:-0.0809612 23:0.52509 24:-0.853473 25:0.396276 26:0.264681 27:0.99099 
-8 -0 1.301437571511157 1:-0.854566 2:-0.892149 3:-0.366332 4:0.519336 5:-0.778474 6:0.987766 7:-0.0188117 8:0.808048 9:-0.909644 10:0.0140706 11:-0.816578 12:0.354822 13:-0.0264437 14:0.0391667 15:-0.307095 16:0.772236 17:0.137139 18:0.511527 19:-0.759642 20:-0.837801 21:-0.493363 22:-0.0793064 23:0.460908 24:-0.817244 25:0.594011 26:0.26211 27:0.993767 
-8 -0 8 1:-0.858902 2:-0.889108 3:-0.417162 4:0.562203 5:-0.796319 6:0.980825 7:-0.029637 8:0.825211 9:-0.917262 10:0.0289347 11:-0.823327 12:0.122033 13:0.145037 14:-0.12046 15:-0.126304 16:0.77306 17:0.141974 18:0.510864 19:-0.766246 20:-0.780984 21:-0.521153 22:-0.0357766 23:0.393725 24:-0.713274 25:0.57396 26:0.261731 27:0.98819 
-8 -8 8 1:-0.858902 2:-0.889414 3:-0.321299 4:0.485914 5:-0.763126 6:0.980619 7:-0.0235706 8:0.825211 9:-0.919038 10:0.0216916 11:-0.584353 12:0.461441 13:-0.125473 14:0.0855922 15:-0.276171 16:0.758384 17:0.141454 18:0.542821 19:-0.677944 20:-0.884144 21:-0.371657 22:-0.172037 23:0.361325 24:-0.348145 25:0.344748 26:0.158243 27:0.963929 
-8 -0 8 1:-0.858902 2:-0.889414 3:-0.556396 4:0.678585 5:-0.852191 6:0.982287 7:-0.0235706 8:0.825211 9:-0.919038 10:0.0216916 11:-0.809634 12:0.431978 13:-0.0614111 14:0.0494941 15:-0.299569 16:0.776669 17:0.141454 18:0.503965 19:-0.769782 20:-0.810138 21:-0.461261 22:0.0033211 23:0.273727 24:-0.58175 25:0.698312 26:0.252896 27:0.991276 
-0 -8 0 1:-0.817553 2:-0.844106 3:1 4:-0.636936 5:-0.237379 6:0.97822 7:0.00240242 8:0.789491 9:-0.891879 10:0.00240742 11:-0.61634 12:0.33323 13:0.0442235 14:-0.152889 15:0.124467 16:0.745991 17:0.141454 18:0.518012 19:-0.741455 20:-0.921666 21:-0.681706 22:-0.27485 23:0.886279 24:-0.70252 25:-1 26:0.151172 27:0.982573 
-8 -0 8 1:-0.853902 2:-0.891592 3:-0.132163 4:0.328036 5:-0.689979 6:0.983835 7:-0.020448 8:0.813942 9:-0.914258 10:0.0182326 11:-0.668375 12:0.250046 13:0.0558826 14:-0.0856944 15:-0.0784791 16:0.765013 17:0.137979 18:0.528067 19:-0.709654 20:-0.858556 21:-0.441887 22:-0.186995 23:0.495757 24:-0.564865 25:0.201573 26:0.194123 27:0.979893 
-0 -0.0882362976648223 0 1:-0.825078 2:-0.872009 3:0.601466 4:-0.312336 5:-0.381796 6:1 7:-0.0257728 8:0.751557 9:-0.885855 10:0.00691722 11:-0.688856 12:0.287138 13:0.062128 14:-0.14859 15:0.115545 16:0.7325 17:0.125958 18:0.535425 19:-0.753957 20:-0.873233 21:-0.598091 22:-0.24331 23:0.744593 24:-0.664913 25:-0.561722 26:0.18966 27:0.98414 
-8 -0 8 1:-0.858902 2:-0.889414 3:-0.605675 4:0.711244 5:-0.859999 6:0.981426 7:-0.0463028 8:0.825211 9:-0.90808 10:0.0694195 11:-0.815217 12:0.178558 13:0.0460683 14:-0.0239377 15:-0.214187 16:0.77206 17:0.141454 18:0.535275 19:-0.668424 20:-0.807828 21:-0.386442 22:-0.102912 23:0.26698 24:-0.364658 25:0.610221 26:0.185824 27:0.976107 
-8 -0 -0 1:-0.858902 2:-0.889414 3:-0.947448 4:0.77784 5:-0.596779 6:0.563571 7:-0.0235706 8:0.825211 9:-0.919038 10:0.0216916 11:-0.84584 12:-0.342082 13:0.568941 14:-0.581016 15:0.491488 16:0.783345 17:0.133427 18:0.506743 19:-0.760764 20:-0.704163 21:0.696069 22:-0.647278 23:-0.118591 24:0.57507 25:0.927647 26:0.294425 27:0.989574 
-8 -0 -0 1:-0.858902 2:-0.889414 3:-0.949276 4:0.772839 5:-0.585617 6:0.551203 7:-0.0235706 8:0.825211 9:-0.919038 10:0.0216916 11:-0.84584 12:0.0493037 13:0.315189 14:-0.387221 15:0.322358 16:0.776669 17:0.141454 18:0.534495 19:-0.715293 20:-0.664434 21:0.606385 22:-0.671628 23:-0.0291946 24:0.5076 25:0.849302 26:0.286106 27:0.970788 
-8 -0 -0 1:-0.858902 2:-0.889414 3:-0.918842 4:0.805641 5:-0.688263 6:0.679469 7:0.029811 8:0.781316 9:-0.919038 10:0.0425726 11:-0.896796 12:-0.242978 13:0.506107 14:-0.580112 15:0.641642 16:0.906192 17:-0.0242705 18:0.4983 19:-0.766698 20:-0.599271 21:0.37162 22:-0.381974 23:-0.215837 24:0.565012 25:0.875997 26:0.29648 27:0.984922 
-8 -0 -8 1:-0.916856 2:-0.889414 3:-0.939214 4:0.833936 5:-0.721531 6:0.710884 7:-0.00125205 8:0.839419 9:-0.901725 10:0.00473777 11:-0.908858 12:-0.248476 13:0.347402 14:-0.242848 15:-0.032509 16:0.856142 17:0.063036 18:0.583198 19:-0.739911 20:-0.510881 21:0.319482 22:-0.561042 23:0.00998093 24:0.494021 25:0.651184 26:0.285731 27:0.935715 
-8 -0 -0 1:-0.858902 2:-0.889414 3:-0.94797 4:0.80583 5:-0.647259 6:0.616093 7:-0.0235706 8:0.825211 9:-0.919038 10:0.0216916 11:-0.84584 12:-0.197134 13:0.461403 14:-0.482848 15:0.380046 16:0.785464 17:0.13749 18:0.538602 19:-0.735576 20:-0.695079 21:0.626293 22:-0.653677 23:-0.0748623 24:0.575117 25:0.848871 26:0.284552 27:0.969514 
-8 -0 -0 1:-0.858902 2:-0.889414 3:-0.949276 4:0.825011 5:-0.680788 6:0.650601 7:-0.0235706 8:0.825211 9:-0.919038 10:0.0216916 11:-0.84584 12:-0.420368 13:0.576984 14:-0.532143 15:0.355087 16:0.776669 17:0.141454 18:0.506545 19:-0.730711 20:-0.820931 21:0.518665 22:-0.446866 23:-0.20762 24:0.562851 25:0.940028 26:0.282312 27:0.991626 
-8 -2.433898398421797 -8 1:-1 2:-0.889414 3:-0.904885 4:0.81324 5:-0.763417 6:0.811129 7:0.0380926 8:1 9:-1 10:-0.0169481 11:-1 12:-0.190113 13:0.239926 14:-0.139672 15:-0.0405758 16:1 17:-0.116912 18:0.547876 19:-0.749527 20:-0.479237 21:0.0978713 22:-0.409602 23:0.0132947 24:0.401218 25:0.586693 26:0.258728 27:0.938474 
-8 -0 -0 1:-0.858902 2:-0.889414 3:-0.948111 4:0.838925 5:-0.70747 6:0.678922 7:-0.0235706 8:0.825211 9:-0.919038 10:0.0216916 11:-0.84584 12:-0.030147 13:0.337248 14:-0.369147 15:0.251226 16:0.788619 17:0.135196 18:0.554369 19:-0.689563 20:-0.705741 21:0.549029 22:-0.649224 23:-0.0231767 24:0.53449 25:0.805519 26:0.259293 27:0.955587 
-8 -0 -0 1:-0.858902 2:-0.889414 3:-0.949276 4:0.795339 5:-0.626662 6:0.594074 7:-0.0235706 8:0.825211 9:-0.919038 10:0.0216916 11:-0.84584 12:-0.130327 13:0.338472 14:-0.289529 15:0.0474829 16:0.780405 17:0.148468 18:0.590704 19:-0.726694 20:-0.456618 21:0.523682 22:-0.744486 23:0.0497333 24:0.55724 25:0.699221 26:0.289716 27:0.93785 
-8 -0 -0 1:-0.858902 2:-0.889414 3:-0.942434 4:0.826287 5:-0.693659 6:0.669739 7:-0.0076713 8:0.814013 9:-0.919038 10:0.0277287 11:-0.867687 12:-0.165445 13:0.430758 14:-0.457611 15:0.372533 16:0.812813 17:0.102375 18:0.531714 19:-0.71477 20:-0.724173 21:0.435067 22:-0.491579 23:-0.114171 24:0.531913 25:0.839994 26:0.255236 27:0.968173 
-8 -0 -8 1:-0.943709 2:-0.889414 3:-0.924657 4:0.820044 5:-0.723778 6:0.730734 7:0.0340755 8:0.832871 9:-0.890615 10:-0.00299233 11:-0.958259 12:-0.264969 13:0.381816 14:-0.330975 15:0.200254 16:0.920789 17:-0.0318133 18:0.543147 19:-0.764375 20:-0.576269 21:0.255365 22:-0.407761 23:-0.098381 24:0.487972 25:0.73835 26:0.279275 27:0.956814 
-1.225162357966434 -0 -0 1:-0.858902 2:-0.889414 3:-0.949276 4:0.759246 5:-0.56082 6:0.525304 7:-0.0235706 8:0.825211 9:-0.919038 10:0.0216916 11:-0.84584 12:-0.137047 13:0.414128 14:-0.434823 15:0.316632 16:0.776669 17:0.141862 18:0.54638 19:-0.746812 20:-0.581575 21:0.720255 22:-0.80182 23:0.0192767 24:0.547078 25:0.821549 26:0.297346 27:0.964031 
-8 -0 -0 1:-0.858902 2:-0.889414 3:-0.949276 4:0.749121 5:-0.54235 6:0.506014 7:-0.0235706 8:0.825211 9:-0.919038 10:0.0216916 11:-0.84584 12:-0.315646 13:0.563576 14:-0.590519 15:0.520103 16:0.776669 17:0.141454 18:0.512082 19:-0.770736 20:-0.684753 21:0.81671 22:-0.77791 23:-0.0508372 24:0.562771 25:0.924358 26:0.298526 27:0.988543 
-8 -0 -6.03716517581345 1:-0.858902 2:-0.889414 3:-0.949276 4:0.853988 5:-0.733652 6:0.70582 7:-0.0235706 8:0.825211 9:-0.919038 10:0.0216916 11:-0.84584 12:0.039087 13:0.322276 14:-0.393179 15:0.328397 16:0.776669 17:0.141454 18:0.540707 19:-0.644575 20:-0.704475 21:0.498807 22:-0.574592 23:-0.0784033 24:0.524325 25:0.883656 26:0.250924 27:0.977758 
-1.118625386416948 -0 -0 1:-0.858902 2:-0.889414 3:-0.949276 4:0.743667 5:-0.532402 6:0.495624 7:-0.0235706 8:0.825211 9:-0.919038 10:0.0216916 11:-0.84584 12:-0.0235718 13:0.293628 14:-0.284286 15:0.0891109 16:0.776669 17:0.141454 18:0.581206 19:-0.743013 20:-0.406145 21:0.544124 22:-0.756885 23:0.0570376 24:0.517388 25:0.73377 26:0.302528 27:0.94932 
-5.76315428709466 -8 -0 1:-0.860104 2:-0.770121 3:-0.184705 4:-0.120246 5:0.127071 6:0.136943 7:-0.0235706 8:0.825211 9:-0.843183 10:0.412786 11:0.840464 12:-0.366996 13:-0.763379 14:0.780948 15:0.463487 16:-0.273317 17:-0.493882 18:0.444588 19:-0.579642 20:0.698041 21:-0.2318 22:-0.716161 23:0.354937 24:0.520138 25:0.319003 26:-0.188185 27:0.938765 
-0 -8 -0 1:-0.858902 2:-0.722752 3:-0.576427 4:0.183801 5:-0.0152643 6:0.146348 7:-0.0235706 8:0.825211 9:-0.898829 10:0.173703 11:0.253023 12:0.345148 13:-0.688221 14:0.71327 15:-0.339782 16:0.249054 17:-0.140706 18:0.449677 19:-0.712592 20:0.291271 21:0.170114 22:-0.714365 23:0.171872 24:0.472368 25:0.572421 26:0.108091 27:0.979043 
-5.986703834139329 -2.889814899315459 -0 1:-0.838533 2:-0.778528 3:-0.934707 4:0.273623 5:0.221676 6:-0.213705 7:-0.0625711 8:0.805229 9:-0.916939 10:0.075181 11:0.509942 12:0.538341 13:-0.715089 14:0.677379 15:-0.199758 16:-0.160966 17:0.047322 18:0.740167 19:0.252089 20:0.633536 21:-0.581989 22:-0.728969 23:0.435046 24:0.429856 25:0.366427 26:0.117092 27:0.887303 
-0 -8 -0 1:-0.935005 2:-0.808342 3:-0.575865 4:0.128232 5:0.103068 6:0.0240698 7:0.00146312 8:0.840915 9:-0.928882 10:0.183496 11:0.651168 12:0.103233 13:-0.691847 14:0.732381 15:-0.0584931 16:-0.206701 17:-0.127655 18:0.46984 19:-0.648867 20:0.650698 21:-0.0696495 22:-0.653909 23:0.19809 24:0.409743 25:0.587796 26:0.142544 27:0.966434 
-0 -0 -6.631491640997693 1:-0.84557 2:-0.941646 3:-0.92124 4:0.442298 5:-0.0582492 6:0.0540991 7:0.0465305 8:0.80108 9:-0.952857 10:0.0410857 11:-0.182467 12:0.602987 13:-0.51361 14:0.539915 15:-0.586107 16:0.394107 17:0.0888159 18:0.529282 19:-0.727142 20:0.147548 21:0.154385 22:-0.548296 23:0.0128276 24:0.403816 25:0.830744 26:0.27781 27:0.987368 
-8 -8 -0 1:-0.832132 2:-0.21281 3:-0.905996 4:0.162725 5:0.104984 6:0.0516899 7:-0.045118 8:0.82539 9:-0.843719 10:0.146648 11:0.519473 12:0.289508 13:-0.758854 14:0.724022 15:0.0560564 16:-0.101128 17:-0.144376 18:0.606561 19:0.0513817 20:0.533266 21:-0.511974 22:-0.727106 23:0.447633 24:0.454806 25:0.273021 26:0.00891216 27:0.888885 
-0 -8 -4.632780754700015 1:-0.832011 2:0.20998 3:-0.669707 4:-0.107462 5:0.113633 6:0.245321 7:-0.0277429 8:0.826131 9:-0.611446 10:0.204351 11:0.060464 12:0.0327893 13:-0.796239 14:0.753325 15:0.298523 16:0.160148 17:-0.313687 18:0.394474 19:-0.202884 20:0.346148 21:-0.491543 22:-0.699697 23:0.490234 24:0.526242 25:0.22935 26:-0.229149 27:0.790348 
