svm_type c_svc
kernel_type rbf
gamma 0.5
nr_class 4
total_sv 229
rho -0.223734 -0.202676 0.220697 -0.0223361 0.458109 0.482956
label 1 3 2 4
nr_sv 58 31 63 77
SV
0.286684475033252 0.3684128446158499 0.7637555505911385 1:-1 2:-0.995172 3:-0.972808 4:-0.777463 5:0.163572 6:-0.334618 7:-0.771349 8:-0.974226 9:-1 10:-0.74713 11:-0.774002 12:-0.276521 13:-0.306577 14:-0.511444 15:-0.134903 16:-0.469548 17:-0.63875 18:-0.460271 19:-0.772478 20:-0.629297 21:-0.629592 22:-0.380784 23:-0.390283 24:-0.492855 25:-0.582986 26:-0.134326 27:0.586159 
0.249984929508431 0 0 1:-1 2:-1 3:-0.99931 4:-0.988194 5:0.941089 6:-0.941024 7:-1 8:-1 9:-1 10:-1 11:-0.995593 12:-0.512616 13:-0.462539 14:-0.230168 15:0.591924 16:-0.803277 17:-0.99365 18:-0.987536 19:-0.845646 20:-0.754258 21:-0.683179 22:-0.368651 23:0.120503 24:-0.0123987 25:-0.561057 26:-0.735531 27:-0.764545 
0.1552013656076356 0 1.401169968219337 1:-1 2:-1 3:-0.99941 4:-0.976194 5:0.939379 6:-0.948526 7:-1 8:-1 9:-1 10:-1 11:-0.995886 12:-0.463696 13:-0.433877 14:-0.260782 15:0.506576 16:-0.627435 17:-0.994096 18:-0.988584 19:-0.867478 20:-0.758786 21:-0.699541 22:-0.371043 23:0.133395 24:-4.21248e-05 25:-0.557573 26:-0.716231 27:-0.77677 
0.2209813273048096 0.4665982726011227 0.1296233489230679 1:-1 2:-0.999916 3:-0.997573 4:-0.96049 5:0.812288 6:-0.813657 7:-1 8:-1 9:-1 10:-0.999521 11:-0.997916 12:-0.924618 13:-0.138081 14:-0.172159 15:0.29522 16:-0.823672 17:-0.992956 18:-0.999703 19:-0.0872358 20:0.605221 21:-0.141562 22:-0.174173 23:-0.696217 24:-0.788623 25:-0.888727 26:-0.896248 27:-0.892123 
0.1315176300521319 0.1807308169431861 0.2641257345491144 1:-1 2:-1 3:-1 4:-0.76907 5:0.686053 6:-0.817674 7:-1 8:-1 9:-1 10:-1 11:-0.973185 12:-0.526782 13:-0.290606 14:-0.0165334 15:-0.215676 16:-0.537185 17:-0.952847 18:-1 19:1 20:0.622519 21:-0.110444 22:-0.492722 23:-0.826332 24:-0.859776 25:-0.925704 26:-0.912017 27:-0.915196 
0.1613158259817842 0 0.3458408877333481 1:-1 2:-1 3:-1 4:-0.991402 5:0.963484 6:-0.964318 7:-0.999861 8:-1 9:-1 10:-1 11:-0.999806 12:-0.9674 13:-0.311419 14:0.2511 15:-0.285702 16:-0.954354 17:-0.999658 18:-1 19:0.82144 20:0.657576 21:-0.262493 22:-0.522338 23:-0.723685 24:-0.769868 25:-0.872426 26:-0.878735 27:-0.906763 
0 0 0.01513086086747539 1:-1 2:-1 3:-1 4:-0.997152 5:0.820539 6:-0.79295 7:-1 8:-1 9:-1 10:-0.996834 11:-0.962027 12:-0.733804 13:-0.331256 14:0.346577 15:-0.631089 16:-0.880701 17:-0.998271 18:-1 19:-0.89038 20:-0.813241 21:-0.787812 22:-0.554171 23:-0.0163097 24:0.164947 25:-0.36872 26:-0.535432 27:-0.759031 
0.10271034464548 0 0.06336240963837415 1:-1 2:-1 3:-1 4:-0.99193 5:0.964455 6:-0.96503 7:-0.999858 8:-1 9:-1 10:-1 11:-0.999817 12:-0.925883 13:-0.297869 14:0.15463 15:-0.11926 16:-0.955846 17:-0.999678 18:-1 19:0.882023 20:0.469604 21:-0.209942 22:-0.496158 23:-0.73221 24:-0.769278 25:-0.867606 26:-0.874439 27:-0.904521 
0 5.08981079954091 0 1:-1 2:-1 3:-1 4:-0.994553 5:0.547315 6:-0.477578 7:-0.997542 8:-0.999767 9:-1 10:-0.999481 11:-0.985788 12:-0.634084 13:-0.202004 14:-0.0423644 15:-0.134491 16:-0.675709 17:-0.971808 18:-0.986421 19:-0.888729 20:-0.76057 21:-0.719504 22:-0.42536 23:0.109821 24:-0.00668848 25:-0.521232 26:-0.615434 27:-0.701741 
0 0 1.058427847948541 1:-1 2:-1 3:-0.999971 4:-0.992792 5:0.490831 6:-0.413444 7:-0.997015 8:-0.999532 9:-1 10:-0.999335 11:-0.984341 12:-0.448412 13:-0.240975 14:-0.0790171 15:-0.118345 16:-0.64207 17:-0.968296 18:-0.984236 19:-0.895772 20:-0.778598 21:-0.718033 22:-0.441754 23:0.0233661 24:0.00936574 25:-0.472497 26:-0.548391 27:-0.689372 
0.5966473794622856 0 0.806709515924407 1:-1 2:-1 3:-1 4:-0.987702 5:0.991587 6:-0.999978 7:-1 8:-1 9:-1 10:-0.999955 11:-1 12:-0.999629 13:-0.65334 14:0.271597 15:0.0950235 16:-0.969365 17:-1 18:-1 19:-0.958839 20:-0.948642 21:-0.974437 22:-0.83168 23:-0.215951 24:0.532041 25:0.0511488 26:-0.613104 27:-0.714837 
0 0.8374600456755189 0 1:-1 2:-1 3:-1 4:-0.988019 5:0.991795 6:-0.999976 7:-1 8:-1 9:-1 10:-0.999959 11:-1 12:-0.999641 13:-0.602881 14:0.293196 15:-0.00935118 16:-0.968535 17:-1 18:-1 19:-0.959056 20:-0.948919 21:-0.976388 22:-0.821847 23:-0.128812 24:0.547486 25:-0.0193292 26:-0.664405 27:-0.713329 
0 0.513537963539198 0 1:-1 2:-0.985169 3:-0.889589 4:-0.493567 5:0.470932 6:-0.845422 7:-0.992536 8:-0.997914 9:-1 10:-0.974202 11:-0.803058 12:-0.498969 13:-0.485031 14:0.0729053 15:-0.413403 16:-0.554209 17:-0.806148 18:-0.931242 19:-0.737235 20:-0.462537 21:-0.395845 22:-0.183523 23:-0.0716663 24:-0.3999 25:-0.71636 26:-0.720278 27:-0.808205 
0.5456140656241537 0 0 1:-1 2:-0.958154 3:-0.719496 4:0.146949 5:0.0147567 6:-0.907577 7:-0.994075 8:-0.999399 9:-1 10:-0.969063 11:-0.691954 12:-0.126213 13:-0.403497 14:-0.178462 15:-0.351107 16:-0.474387 17:-0.68592 18:-0.890456 19:-0.711895 20:-0.411849 21:-0.258996 22:-0.0744991 23:-0.138547 24:-0.508816 25:-0.790975 26:-0.781923 27:-0.873919 
0 0.6174447677222987 0 1:-1 2:-0.997619 3:-0.985637 4:-0.946059 5:0.436981 6:-0.418431 7:-0.953135 8:-0.993236 9:-1 10:-0.992125 11:-0.929626 12:-0.458097 13:-0.349804 14:-0.0404469 15:-0.21993 16:-0.500115 17:-0.924695 18:-0.954798 19:-0.874887 20:-0.762807 21:-0.715728 22:-0.433753 23:0.112926 24:-0.0205897 25:-0.539976 26:-0.566597 27:-0.688267 
1.359561847690297 7.531028263183945 5.656357194936993 1:-1 2:-0.892798 3:-0.596501 4:-0.0922665 5:0.073067 6:-0.858106 7:-0.989881 8:-0.997239 9:-1 10:-0.926601 11:-0.567707 12:-0.28776 13:-0.480189 14:-0.157524 15:-0.414546 16:-0.423809 17:-0.615143 18:-0.878582 19:-0.751611 20:-0.557453 21:-0.499783 22:-0.27076 23:-0.0580902 24:-0.263884 25:-0.624884 26:-0.661177 27:-0.832981 
0.2654939768072785 1.579531727146095 1.446716479427571 1:-1 2:-1 3:-0.993292 4:-0.977171 5:0.011498 6:0.0553047 7:-0.855446 8:-0.980951 9:-1 10:-0.980991 11:-0.725469 12:-0.015985 13:-0.304742 14:-0.295561 15:-0.28003 16:-0.20361 17:-0.790759 18:-0.988736 19:-0.862798 20:-0.766397 21:-0.768997 22:-0.494375 23:0.0518863 24:0.0634727 25:-0.509764 26:-0.530291 27:-0.588136 
0 0 0.7690263380111575 1:-1 2:-1 3:-0.992413 4:-0.964576 5:0.175405 6:-0.324563 7:-0.486957 8:-0.980895 9:-1 10:-0.977865 11:-0.769341 12:-0.2401 13:-0.370539 14:-0.15953 15:-0.322155 16:-0.261219 17:-0.823188 18:-0.974915 19:-0.791262 20:-0.715403 21:-0.719006 22:-0.378219 23:0.0885101 24:-0.0863979 25:-0.605038 26:-0.54558 27:-0.636673 
0.323329535163338 0 0.4540734241243409 1:-1 2:-1 3:-1 4:-0.999912 5:0.999861 6:-0.999914 7:-1 8:-1 9:-1 10:-1 11:-1 12:-0.999766 13:-0.7819 14:0.789186 15:-0.811956 16:-1 17:-1 18:-1 19:0.219176 20:0.341829 21:-0.233931 22:-0.429404 23:-0.60771 24:-0.652396 25:-0.796987 26:-0.805154 27:-0.84137 
0.3121702768238597 0.04722040226971378 0.4490580066610175 1:-1 2:-1 3:-1 4:-0.999924 5:0.999931 6:-0.999991 7:-1 8:-1 9:-1 10:-1 11:-1 12:-0.99997 13:-0.848643 14:0.831327 15:-0.82115 16:-1 17:-1 18:-1 19:-0.879689 20:-0.839764 21:-0.864653 22:-0.773002 23:-0.571349 24:-0.16592 25:-0.139468 26:0.371276 27:0.437765 
0.05912113814371579 8 0 1:-0.999861 2:-0.995535 3:-0.999255 4:-0.999515 5:0.379826 6:-0.357236 7:-0.83675 8:-0.999778 9:-1 10:-0.997288 11:-0.973383 12:-0.685697 13:0.116674 14:0.197476 15:-0.81889 16:-0.961917 17:-0.995877 18:-0.999437 19:-0.784876 20:-0.543245 21:-0.418041 22:-0.067715 23:0.0886153 24:-0.410852 25:-0.762193 26:-0.85505 27:-0.920911 
0.5271685285003209 0.5186593929051763 0.8223166127400804 1:-0.988841 2:-0.193614 3:-0.998503 4:-0.981802 5:-0.968961 6:0.0216609 7:1 8:-0.683437 9:-0.918696 10:-0.979795 11:-0.898202 12:0.131751 13:-0.176154 14:-0.557155 15:0.290234 16:-0.341887 17:-0.956368 18:-0.965312 19:-0.912355 20:-0.60385 21:-0.583856 22:-0.317162 23:0.693013 24:-0.3391 25:-0.884983 26:-0.754494 27:-0.892949 
0.4226996136850614 0.6379274316374767 0.7232474707200336 1:-0.822797 2:-0.473821 3:-0.998363 4:-0.980333 5:-0.778268 6:0.0442249 7:0.436455 8:-0.695218 9:-0.921492 10:-0.978674 11:-0.875278 12:0.698084 13:-0.513029 14:-0.536283 15:0.303087 16:-0.47233 17:-0.679334 18:-0.965309 19:-0.89309 20:-0.723068 21:-0.441178 22:-0.462368 23:0.43612 24:-0.111111 25:-0.835326 26:-0.730408 27:-0.877711 
0 2.502049612678114 0 1:-0.994205 2:-0.992351 3:-1 4:-0.997668 5:-0.121994 6:0.268652 7:-0.93005 8:-1 9:-0.999731 10:-0.99677 11:-0.953984 12:-0.63258 13:-0.0819288 14:0.0596372 15:-0.479906 16:-0.8483 17:-0.899995 18:-0.936932 19:-0.565202 20:-0.0537957 21:0.08241 22:-0.128033 23:-0.517045 24:-0.712761 25:-0.836455 26:-0.816219 27:-0.826829 
0 7.473464990664415 0 1:-0.999662 2:-0.998396 3:-1 4:-0.991648 5:0.554664 6:-0.490706 7:-0.993686 8:-1 9:-1 10:-0.9991 11:-0.989679 12:-0.829236 13:-0.218483 14:0.242041 15:-0.440434 16:-0.972526 17:-0.991244 18:-0.997819 19:-0.787914 20:-0.585883 21:-0.364727 22:-0.0868062 23:0.0115265 24:-0.460232 25:-0.737199 26:-0.760764 27:-0.826205 
0 2.488884541146102 0 1:-0.999583 2:-0.99889 3:-1 4:-0.995298 5:0.426835 6:-0.344485 7:-0.981582 8:-1 9:-1 10:-0.999323 11:-0.982724 12:-0.773426 13:-0.113246 14:0.233335 15:-0.594567 16:-0.959979 17:-0.969199 18:-0.994015 19:-0.697331 20:-0.436167 21:-0.223304 22:-0.0879804 23:-0.219477 24:-0.514058 25:-0.752168 26:-0.781736 27:-0.816399 
0.141504043819415 0 0.2211201351632578 1:-0.9918 2:-0.988967 3:-1 4:-0.998232 5:-0.315715 6:0.490571 7:-0.92524 8:-1 9:-0.99884 10:-0.989902 11:-0.94849 12:-0.642965 13:-0.111294 14:0.0270619 15:-0.430875 16:-0.812578 17:-0.886002 18:-0.898055 19:-0.57911 20:0.0386142 21:0.0941579 22:-0.193308 23:-0.515309 24:-0.70434 25:-0.837373 26:-0.814609 27:-0.829925 
0 2.68635932294817 0 1:-0.999853 2:-0.999114 3:-1 4:-0.990113 5:0.725297 6:-0.68893 7:-0.997403 8:-1 9:-1 10:-0.999499 11:-0.995558 12:-0.942624 13:-0.465038 14:0.431343 15:-0.475515 16:-0.992299 17:-0.996803 18:-0.9991 19:-0.703755 20:-0.126217 21:-0.138916 22:0.174078 23:-0.391125 24:-0.716514 25:-0.845197 26:-0.902651 27:-0.92224 
0 4.056782923409436 0 1:-0.999492 2:-0.99845 3:-1 4:-0.998469 5:0.37555 6:-0.283155 7:-0.979773 8:-1 9:-1 10:-0.998927 11:-0.964216 12:-0.662121 13:-0.262257 14:0.235407 15:-0.521711 16:-0.915956 17:-0.94972 18:-0.989195 19:-0.493084 20:-0.0415718 21:0.0693618 22:-0.120335 23:-0.517834 24:-0.730804 25:-0.842237 26:-0.831223 27:-0.841565 
0 0.4300262298721584 0 1:-0.998007 2:-0.803976 3:-0.891808 4:-0.954127 5:0.674151 6:-0.772807 7:-0.954225 8:-0.982971 9:-0.998857 10:-0.935967 11:-0.87699 12:-0.856359 13:-0.604169 14:-0.108242 15:0.399503 16:-0.746828 17:-0.834189 18:-0.952978 19:-0.196379 20:0.33614 21:0.0596765 22:-0.362824 23:-0.645544 24:-0.774258 25:-0.805265 26:-0.830583 27:-0.812263 
0.04292378171906937 0 0.251520745780584 1:-0.998249 2:-0.827509 3:-0.885886 4:-0.952069 5:0.63574 6:-0.728369 7:-0.95287 8:-0.983874 9:-0.998926 10:-0.939701 11:-0.875239 12:-0.829094 13:-0.579529 14:-0.15673 15:0.416426 16:-0.667739 17:-0.831444 18:-0.950618 19:-0.0996806 20:0.476523 21:-0.000139002 22:-0.370826 23:-0.747627 24:-0.727467 25:-0.833769 26:-0.815987 27:-0.801416 
0.3357933828418101 0 0.3767999989054039 1:-0.992762 2:-0.991977 3:-1 4:-0.998655 5:-0.402337 6:0.608379 7:-0.95772 8:-1 9:-0.998033 10:-0.997916 11:-0.94794 12:-0.725024 13:-0.47234 14:0.123708 15:-0.153335 16:-0.801954 17:-0.867339 18:-0.944611 19:-0.765088 20:-0.354943 21:0.0283787 22:-0.0780216 23:-0.344292 24:-0.659739 25:-0.791416 26:-0.792587 27:-0.774651 
0 3.784173609588206 0 1:-0.994801 2:-0.994711 3:-1 4:-0.998779 5:-0.2804 6:0.473183 7:-0.967891 8:-1 9:-0.999289 10:-0.998445 11:-0.946834 12:-0.684081 13:-0.462383 14:0.120159 15:-0.167285 16:-0.813594 17:-0.883986 18:-0.934574 19:-0.749229 20:-0.398542 21:-0.0632726 22:-0.0589305 23:-0.328138 24:-0.60926 25:-0.785987 26:-0.754947 27:-0.765299 
0 0.5666471241122716 0 1:-0.993648 2:-0.994839 3:-1 4:-0.998426 5:-0.0943989 6:0.252719 7:-0.962554 8:-1 9:-0.999122 10:-0.998612 11:-0.945744 12:-0.642396 13:-0.459571 14:0.0786578 15:-0.112399 16:-0.751248 17:-0.898919 18:-0.965361 19:-0.744184 20:-0.4036 21:-0.135912 22:-0.0871106 23:-0.253943 24:-0.596108 25:-0.762092 26:-0.769249 27:-0.738417 
0 0.2469187904217728 0 1:-0.998084 2:-0.998295 3:-1 4:-0.996644 5:0.28597 6:-0.178207 7:-0.985287 8:-1 9:-0.999908 10:-0.997979 11:-0.942223 12:-0.527839 13:-0.468787 14:-0.0864666 15:0.229768 16:-0.741213 17:-0.963032 18:-0.994402 19:-0.493319 20:0.168311 21:-0.0847955 22:-0.148603 23:-0.492261 24:-0.69197 25:-0.828517 26:-0.846583 27:-0.853725 
0.2544587600574801 0.4447616075423968 0.3372802433562186 1:-0.999759 2:-0.989755 3:-0.991513 4:-0.995493 5:0.970071 6:-0.975149 7:-0.999036 8:-1 9:-1 10:-0.998492 11:-0.995583 12:-0.950246 13:-0.753676 14:0.73197 15:-0.755836 16:-0.995389 17:-0.998548 18:-0.999941 19:-0.90259 20:-0.897071 21:-0.902748 22:-0.832154 23:-0.693744 24:-0.0749774 25:0.104338 26:0.471157 27:0.0386074 
0.09563722243919033 0 0 1:-0.980897 2:-0.995522 3:-1 4:-0.991087 5:-0.233391 6:0.406165 7:-0.973905 8:-0.998941 9:-0.99468 10:-0.999495 11:-0.950475 12:0.127788 13:-0.180723 14:-0.532536 15:-0.132478 16:0.133934 17:-0.58992 18:-0.984275 19:-0.836962 20:-0.595616 21:-0.331097 22:-0.159735 23:-0.150071 24:-0.333904 25:-0.658911 26:-0.751861 27:-0.816529 
0 2.760854232525535 0 1:-0.999539 2:-0.999844 3:-0.999457 4:-0.977496 5:0.413523 6:-0.338231 7:-0.991973 8:-1 9:-1 10:-0.999057 11:-0.951111 12:-0.582379 13:-0.102508 14:-0.314427 15:0.16299 16:-0.573017 17:-0.856675 18:-0.997619 19:-0.705461 20:-0.524879 21:-0.340334 22:-0.0107459 23:-0.128023 24:-0.555668 25:-0.770785 26:-0.727002 27:-0.682102 
0 0.2881523150206371 0 1:-0.999557 2:-0.999854 3:-0.999471 4:-0.977413 5:0.374765 6:-0.298467 7:-0.980776 8:-1 9:-1 10:-0.999057 11:-0.951331 12:-0.465037 13:-0.13812 14:-0.336467 15:0.195922 16:-0.573623 17:-0.852543 18:-0.997523 19:-0.705311 20:-0.499324 21:-0.340648 22:0.0325246 23:-0.169119 24:-0.56882 25:-0.768376 26:-0.7419 27:-0.701233 
0 0.4516148176596567 0 1:-1 2:-0.999901 3:-0.999785 4:-0.998121 5:0.995655 6:-0.996585 7:-0.999918 8:-1 9:-1 10:-0.999973 11:-0.999922 12:-0.999325 13:-0.982956 14:0.991779 15:-0.999195 16:-0.996947 17:-0.999267 18:-0.999903 19:-0.958323 20:-0.929768 21:-0.812648 22:-0.272456 23:0.444697 24:0.030943 25:-0.601068 26:-0.801205 27:-0.931321 
0 0.2523220963648272 0.200471180049201 1:-1 2:-1 3:-1 4:-0.998988 5:0.996626 6:-0.996873 7:-0.999968 8:-1 9:-1 10:-1 11:-0.999973 12:-0.999696 13:-1 14:0.998413 15:-0.992082 16:-0.997855 17:-0.999676 18:-0.999962 19:-0.941955 20:-0.902137 21:-0.863335 22:-0.373391 23:0.487741 24:0.140701 25:-0.617471 26:-0.811078 27:-0.900399 
0.4222330430184222 0 0.5300527335017462 1:-1 2:-1 3:-1 4:-0.999301 5:0.994638 6:-0.994375 7:-0.999872 8:-1 9:-1 10:-0.999942 11:-0.999606 12:-0.996542 13:-0.997518 14:1 15:-1 16:-0.99751 17:-0.99996 18:-1 19:-0.933621 20:-0.814709 21:-0.829736 22:-0.324207 23:0.629816 24:-0.0253638 25:-0.705749 26:-0.835688 27:-0.897916 
0.2998046719432041 0.6025260453726435 0.7377079942939355 1:-1 2:-0.999462 3:-0.995546 4:-0.599072 5:0.510221 6:-0.75983 7:-0.979916 8:-1 9:-1 10:-0.957179 11:-0.732947 12:0.361313 13:-0.35984 14:-0.240108 15:-0.436546 16:-0.427205 17:-0.713113 18:-0.99073 19:-0.820672 20:-0.779736 21:-0.826239 22:-0.719599 23:-0.600922 24:-0.407997 25:-0.270589 26:0.644859 27:0.715566 
0.07601216932978616 0 0 1:-1 2:-0.999411 3:-0.994757 4:-0.567719 5:0.440933 6:-0.722115 7:-0.943244 8:-1 9:-1 10:-0.819579 11:-0.57636 12:-0.0851176 13:-0.397327 14:-0.311033 15:-0.442767 16:-0.414985 17:-0.387795 18:-0.980142 19:-0.804992 20:-0.746147 21:-0.803461 22:-0.714076 23:-0.633757 24:-0.431727 25:-0.289333 26:0.478539 27:1 
0.1525991049909084 0.1005003473016403 0.7973126804664886 1:-1 2:-0.999348 3:-0.994352 4:-0.546387 5:0.43705 6:-0.728181 7:-0.956832 8:-1 9:-1 10:-0.914494 11:-0.389005 12:-0.18683 13:-0.422748 14:-0.317447 15:-0.390854 16:-0.353347 17:-0.406021 18:-0.992672 19:-0.797799 20:-0.739136 21:-0.799394 22:-0.723034 23:-0.622865 24:-0.436829 25:-0.298595 26:0.546579 27:0.90818 
0 0.8779655069840752 0 1:-0.999756 2:-0.999882 3:-0.970179 4:-0.881794 5:0.650901 6:-0.70319 7:-0.9963 8:-0.999513 9:-0.999816 10:-0.984371 11:-0.923412 12:-0.605691 13:0.147874 14:-0.362717 15:0.0934226 16:-0.811631 17:-0.9068 18:-0.980103 19:-0.309019 20:-0.369258 21:-0.207565 22:0.0578346 23:-0.405595 24:-0.711853 25:-0.783134 26:-0.793174 27:-0.832123 
0 0 0.934413043920751 1:-0.999791 2:-0.999636 3:-0.986518 4:-0.874687 5:0.769463 6:-0.842211 7:-0.99147 8:-0.998702 9:-0.999475 10:-0.967877 11:-0.804085 12:-0.642071 13:-0.0166389 14:-0.0272889 15:-0.431835 16:-0.882937 17:-0.919569 18:-0.985365 19:-0.717747 20:-0.617857 21:-0.619593 22:-0.301462 23:-0.0333587 24:-0.308068 25:-0.573009 26:-0.487804 27:-0.683221 
0.7367243255478073 0.9134898649220342 0.9290503678490651 1:-1 2:-0.999609 3:-0.997594 4:-0.629816 5:0.666986 6:-0.908978 7:-0.996955 8:-1 9:-1 10:-0.991866 11:-0.841833 12:-0.389208 13:-0.561684 14:-0.314978 15:0.627188 16:-0.656355 17:-0.93426 18:-0.997045 19:-0.901324 20:-0.878381 21:-0.887122 22:-0.874046 23:-0.511152 24:-0.171116 25:-0.0629479 26:0.572372 27:0.24636 
0.3502288400273867 0.3000659714405775 0.6054843141118263 1:-0.998862 2:-0.999592 3:-0.999945 4:-0.998529 5:0.145614 6:-0.0231436 7:-0.96341 8:-0.999866 9:-0.99966 10:-0.996677 11:-0.87152 12:0.914537 13:-0.201028 14:-0.58724 15:-0.25245 16:0.127192 17:-0.857615 18:-0.998784 19:-0.645469 20:-0.104998 21:-0.14914 22:-0.180871 23:-0.302933 24:-0.581364 25:-0.74153 26:-0.85513 27:-0.916671 
0.2231680927979893 0 0.2564007041918354 1:-0.999989 2:-0.999884 3:-0.998967 4:-0.999476 5:0.995123 6:-0.995756 7:-0.998991 8:-0.999981 9:-0.999985 10:-0.999659 11:-0.99912 12:-0.995063 13:-0.917084 14:0.925681 15:-0.94344 16:-0.995363 17:-0.998489 18:-0.999338 19:-0.787108 20:-0.612491 21:-0.248728 22:0.164815 23:-0.0884522 24:-0.546915 25:-0.828953 26:-0.886002 27:-0.929562 
0 0 0.8641281568563542 1:-0.99638 2:-0.999678 3:-1 4:-0.997592 5:-0.0848539 6:0.137392 7:-0.743339 8:-0.999951 9:-0.9997 10:-0.991834 11:-0.192981 12:0.19059 13:-0.425794 14:-0.557023 15:-0.148304 16:-0.144686 17:-0.557519 18:-0.973512 19:-0.576634 20:-0.0628676 21:-0.328811 22:-0.138731 23:-0.283095 24:-0.51696 25:-0.765166 26:-0.832673 27:-0.879233 
0.4079133559888166 0.09481084334378463 0.5017632897197265 1:-1 2:-1 3:-1 4:-0.991599 5:0.277072 6:-0.189529 7:-0.946076 8:-1 9:-1 10:-0.996415 11:-0.820956 12:0.0628525 13:-0.170999 14:-0.463749 15:-0.14126 16:-0.136238 17:-0.679453 18:-0.994049 19:0.71528 20:0.671568 21:-0.18806 22:-0.490287 23:-0.787777 24:-0.781134 25:-0.881582 26:-0.872803 27:-0.88664 
0.03869651620168362 0 0.7121134772814482 1:-0.99905 2:-0.99907 3:-1 4:-0.991214 5:-0.00837792 6:0.0555204 7:-0.766232 8:-1 9:-1 10:-0.995025 11:-0.496755 12:0.242925 13:-0.295761 14:-0.559425 15:-0.234017 16:-0.101079 17:-0.437081 18:-0.950968 19:0.124082 20:0.402026 21:-0.181917 22:-0.345951 23:-0.619918 24:-0.708103 25:-0.839842 26:-0.830209 27:-0.86357 
0 5.736542234678704 0 1:-0.999955 2:-0.999413 3:-0.9998 4:-0.998414 5:0.538417 6:-0.464907 7:-0.996332 8:-0.999973 9:-0.999918 10:-0.999457 11:-0.998598 12:-0.974773 13:-0.357028 14:-0.003684 15:0.0146157 16:-0.546623 17:-0.874107 18:-0.995556 19:-0.789471 20:-0.634064 21:-0.427502 22:-0.126163 23:0.00989526 24:-0.399806 25:-0.673571 26:-0.73731 27:-0.82839 
0 0.1554728707688057 0 1:-1 2:-0.999912 3:-0.999597 4:-0.997481 5:0.491801 6:-0.410236 7:-0.998343 8:-1 9:-1 10:-0.999906 11:-0.997184 12:-0.920171 13:-0.481595 14:0.271134 15:-0.234017 16:-0.805137 17:-0.99336 18:-0.999874 19:-0.784425 20:-0.418953 21:-0.346746 22:-0.0152686 23:-0.0903465 24:-0.494493 25:-0.772646 26:-0.794588 27:-0.878518 
0 0.6388068334381465 0 1:-1 2:-0.999892 3:-0.999764 4:-0.997622 5:0.419786 6:-0.333998 7:-0.981995 8:-0.999957 9:-0.999927 10:-0.999599 11:-0.996496 12:-0.902872 13:-0.625794 14:0.142464 15:0.160658 16:-0.779835 17:-0.956132 18:-0.998909 19:-0.848009 20:-0.612614 21:-0.528569 22:-0.27824 23:-0.0533544 24:-0.238609 25:-0.597902 26:-0.649686 27:-0.67863 
0 1.786516884617514 0 1:-1 2:-0.999918 3:-0.999937 4:-0.998052 5:0.0779667 6:0.0606424 7:-0.972856 8:-0.999886 9:-0.999807 10:-0.999176 11:-0.990411 12:-0.871704 13:-0.318526 14:-0.0743886 15:-0.0456216 16:-0.399266 17:-0.809806 18:-0.997166 19:-0.787248 20:-0.434068 21:-0.283164 22:-0.126337 23:-0.19985 24:-0.458968 25:-0.701638 26:-0.751176 27:-0.80221 
0.09304516443982452 0 0 1:-0.978063 2:-0.977574 3:-0.996576 4:-0.960161 5:-0.226758 6:0.22037 7:-0.691115 8:-0.974125 9:-0.98982 10:-0.98808 11:-0.575512 12:0.5047 13:-0.0289394 14:-0.502011 15:-0.246504 16:-0.586585 17:-0.88686 18:-0.97161 19:-0.191061 20:0.0403824 21:-0.244916 22:-0.285372 23:-0.456689 24:-0.599571 25:-0.775393 26:-0.773216 27:-0.791532 
-0.6728189217475872 0.5484127366290006 0.4037865516737432 1:-1 2:-1 3:-1 4:0.328909 5:0.0923882 6:-0.9997 7:-0.999844 8:-0.999323 9:-1 10:-1 11:-0.999813 12:-0.94232 13:-0.574023 14:0.0378616 15:0.268829 16:-0.620233 17:-0.990101 18:-0.99924 19:-0.9035 20:-0.904305 21:-0.943884 22:-0.918417 23:-0.625548 24:0.124928 25:0.275726 26:0.207358 27:-0.414237 
-0 0.1735039292833889 0.3553042582734349 1:-1 2:-1 3:-1 4:0.610178 5:-0.0994141 6:-0.999819 7:-1 8:-0.999634 9:-0.999765 10:-1 11:-0.999602 12:-0.653087 13:-0.484328 14:-0.133522 15:0.428913 16:-0.707428 17:-0.975349 18:-1 19:-0.936514 20:-0.89102 21:-0.978459 22:-0.967449 23:-0.675748 24:0.0810715 25:0.35917 26:0.440828 27:-0.485508 
-0.6462563930576992 0.7911749251667084 0.9196974320017685 1:-0.989674 2:-0.996224 3:-1 4:0.349597 5:-0.321747 6:-0.97352 7:-1 8:-0.467 9:-0.365122 10:-0.96448 11:-0.466812 12:0.0120827 13:0.416414 14:-0.400626 15:-0.779491 16:-0.717413 17:-0.842317 18:-1 19:-0.969538 20:-0.898831 21:-0.861187 22:-0.39631 23:0.396865 24:0.0767654 25:-0.469012 26:-0.736003 27:-0.950814 
-0 0.2556167380425263 0 1:-0.980007 2:-0.902746 3:-0.961827 4:0.520519 5:-0.407167 6:-0.868538 7:-0.705245 8:-0.771465 9:-0.916412 10:-0.928143 11:-0.808653 12:-0.172318 13:-0.521854 14:-0.495553 15:0.203789 16:-0.161036 17:-0.634554 18:-0.713925 19:-0.880345 20:-0.796742 21:-0.79795 22:-0.631014 23:-0.16733 24:0.212735 25:-0.221016 26:-0.502631 27:-0.784483 
-0.5147165459949119 0.3370345240824262 0.6453763398857704 1:-1 2:-1 3:-1 4:0.938342 5:-0.325606 6:-0.999969 7:-1 8:-0.996517 9:-0.995653 10:-0.999804 11:-0.996157 12:-0.832346 13:0.0509548 14:0.041366 15:-0.35097 16:-0.937452 17:-0.99192 18:-1 19:-0.956991 20:-0.916037 21:-1 22:-1 23:-0.643123 24:0.117626 25:0.360979 26:0.469645 27:-0.484611 
-0.03417848302092886 0.08900607851837675 0.08287541955809997 1:-1 2:-1 3:-1 4:0.78452 5:-0.24467 6:-1 7:-1 8:-0.964583 9:-0.952476 10:-0.99861 11:-0.967395 12:-0.288004 13:1 14:-0.490704 15:-0.733511 16:-0.81647 17:-0.897779 18:-1 19:-0.874643 20:-0.658888 21:-0.76454 22:-0.477197 23:0.0741973 24:-0.0268148 25:-0.437963 26:-0.50601 27:-0.869254 
-0 0 0.8806238037316815 1:-0.973288 2:-0.896232 3:-0.954143 4:0.581465 5:-0.531738 6:-0.856521 7:-0.711773 8:-0.614291 9:-0.850435 10:-0.889451 11:-0.742238 12:0.376658 13:-0.313684 14:-0.667995 15:-0.107643 16:-0.154892 17:-0.520356 18:-0.638619 19:-0.886234 20:-0.808428 21:-0.808819 22:-0.682504 23:-0.282253 24:0.260383 25:-0.168621 26:-0.383841 27:-0.747729 
-0.7503808168684319 0.366685789369443 0.6800878548793355 1:-1 2:-1 3:-1 4:0.710774 5:-0.198863 6:-1 7:-1 8:-0.960168 9:-0.942993 10:-0.998379 11:-0.964417 12:0.511915 13:0.722792 14:-0.493327 15:-0.78342 16:-0.844408 17:-0.8319 18:-1 19:-0.714643 20:-0.530053 21:-0.642506 22:-0.2154 23:-0.0152047 24:-0.203271 25:-0.615296 26:-0.712211 27:-0.910249 
-0.456604819918552 0 0 1:-0.983219 2:-0.953901 3:-0.990798 4:0.623383 5:-0.510522 6:-0.924549 7:-0.685858 8:-0.531077 9:-0.84555 10:-0.966615 11:-0.775947 12:0.410396 13:-0.439266 14:-0.673372 15:0.0528528 16:0.0434783 17:-0.552465 18:-0.664808 19:-0.857162 20:-0.810896 21:-0.796152 22:-0.599094 23:-0.193061 24:0.256217 25:-0.230234 26:-0.58129 27:-0.80853 
-0.07886256127749114 0 0.2095866602254942 1:-0.995202 2:-0.98188 3:-0.996816 4:0.728753 5:-0.380589 6:-0.956837 7:-0.794944 8:-0.827884 9:-0.934887 10:-0.988157 11:-0.899043 12:-0.340847 13:-0.664476 14:-0.530993 15:0.5251 16:0.119427 17:-0.816328 18:-0.631438 19:-0.808499 20:-0.744425 21:-0.768208 22:-0.456366 23:0.0550962 24:0.143416 25:-0.458516 26:-0.736581 27:-0.896075 
-0.2630829310409268 0 0.2106849478243195 1:-1 2:-1 3:-1 4:0.732918 5:-0.209772 6:-1 7:-1 8:-0.965092 9:-0.951148 10:-0.998549 11:-0.968522 12:0.27463 13:0.802178 14:-0.462956 15:-0.756211 16:-0.884388 17:-0.936423 18:-1 19:-0.941771 20:-0.907027 21:-0.970653 22:-0.863452 23:-0.646333 24:0.170657 25:0.409317 26:-0.0620439 27:-0.518829 
-0.1570992772966818 0.7360817342866872 1.954850551206161 1:-0.977896 2:-0.868313 3:-0.972141 4:0.516252 5:-0.539804 6:-0.850053 7:-0.660067 8:-0.532301 9:-0.831058 10:-0.915925 11:-0.72059 12:0.575835 13:-0.276744 14:-0.707689 15:-0.19331 16:-0.091522 17:-0.496292 18:-0.636032 19:-0.882211 20:-0.78694 21:-0.773531 22:-0.64306 23:-0.281253 24:0.252332 25:-0.172502 26:-0.494332 27:-0.817101 
-0 0.01192817178339433 0.04979117560993733 1:-0.997916 2:-0.990835 3:-0.999203 4:0.366696 5:-0.0164438 6:-0.985852 7:-0.9267 8:-0.924936 9:-0.951671 10:-0.996461 11:-0.932927 12:-0.49528 13:-0.765961 14:-0.46311 15:0.811559 16:0.0571319 17:-0.929005 18:-0.848577 19:-0.876688 20:-0.865711 21:-0.908851 22:-0.751475 23:-0.344345 24:0.124413 25:0.0405198 26:-0.170374 27:-0.565363 
-0.1612895996868801 0 0.1040610070906913 1:-0.999891 2:-1 3:-1 4:0.200007 5:0.168749 6:-0.998445 7:-0.989958 8:-0.984635 9:-0.993794 10:-1 11:-0.98378 12:-0.66834 13:-0.856566 14:-0.257762 15:1 16:-0.498537 17:-0.984254 18:-0.977101 19:-0.909643 20:-0.919835 21:-0.9404 22:-0.814968 23:-0.212952 24:0.245592 25:0.0690109 26:-0.301064 27:-0.700947 
-0.03126490593996357 0 0.1438043622464666 1:-1 2:-1 3:-1 4:0.858028 5:-0.27765 6:-0.999977 7:-1 8:-0.988298 9:-0.982594 10:-0.999373 11:-0.986211 12:-0.534272 13:0.820687 14:-0.304465 15:-0.689616 16:-0.924497 17:-0.977179 18:-1 19:-0.945446 20:-0.876098 21:-0.964129 22:-0.745213 23:-0.475159 24:0.222143 25:0.245735 26:-0.255197 27:-0.740146 
-0.289886824893994 0.4822425668792021 0.4984853835913208 1:-0.999883 2:-1 3:-1 4:0.16073 5:0.195281 6:-0.998419 7:-0.989703 8:-0.984625 9:-0.993271 10:-1 11:-0.98083 12:-0.669072 13:-0.839638 14:-0.309799 15:0.978 16:-0.297094 17:-0.983168 18:-0.976653 19:-0.906285 20:-0.916498 21:-0.898009 22:-0.847571 23:-0.196008 24:0.255702 25:-0.0300023 26:-0.161044 27:-0.719532 
-1.046906454712573 0.7417167423491177 1.340460800330993 1:-0.999805 2:-1 3:-1 4:0.0629105 5:0.252435 6:-0.996752 7:-0.982439 8:-0.974465 9:-0.98696 10:-1 11:-0.840993 12:-0.713002 13:-0.7259 14:-0.587835 15:0.628285 16:1 17:-0.937771 18:-0.953295 19:-0.688956 20:-0.631411 21:-0.551303 22:-0.439711 23:-0.0293595 24:-0.0800792 25:-0.532566 26:-0.736946 27:-0.883165 
-0.5982870505299839 0.4259663803408888 0.5260205612555882 1:-1 2:-1 3:-1 4:0.306291 5:0.105492 6:-0.999363 7:-0.997347 8:-0.99728 9:-0.998754 10:-1 11:-0.996149 12:-0.87585 13:-0.862704 14:-0.0615833 15:0.730922 16:-0.530477 17:-0.991672 18:-0.993846 19:-0.75117 20:-0.800163 21:-0.710285 22:-0.463281 23:-0.087926 24:0.0329556 25:-0.350197 26:-0.634877 27:-0.836297 
-0.06948876494039921 0.224534910663824 0 1:-0.999817 2:-1 3:-1 4:0.0780456 5:0.244832 6:-0.99739 7:-0.984397 8:-0.977881 9:-0.988031 10:-1 11:-0.835982 12:-0.722788 13:-0.740216 14:-0.5719 15:0.757313 16:0.780091 17:-0.981382 18:-0.960676 19:-0.643322 20:-0.628182 21:-0.540183 22:-0.374914 23:-0.0727713 24:-0.154827 25:-0.531111 26:-0.728203 27:-0.880244 
-0 0.2890301203791048 0.1311004100963392 1:-1 2:-1 3:-1 4:0.326674 5:0.0930816 6:-0.99976 7:-0.999749 8:-0.997088 9:-0.999442 10:-0.998824 11:-0.976677 12:0.230832 13:0.189578 14:-0.24229 15:-0.382072 16:-0.994087 17:-0.998203 18:-1 19:-0.949092 20:-0.933573 21:-0.99957 22:-0.912685 23:-0.682589 24:0.32137 25:0.418887 26:-0.0105471 27:-0.665572 
-0.8923132654227287 0.8451432689326865 2.439213792125114 1:-0.985691 2:-0.911194 3:-0.940232 4:-0.0846482 5:-0.441418 6:-0.711359 7:-0.583579 8:0.081109 9:-0.890036 10:-0.17303 11:-0.314053 12:-0.235964 13:-0.481126 14:-0.771495 15:-0.760071 16:0.405043 17:0.0430103 18:-0.952608 19:-0.839925 20:-0.711082 21:-0.746214 22:-0.581612 23:-0.51915 24:0.108546 25:-0.154464 26:-0.296252 27:-0.622445 
-0.1577921259440695 0.4671631801116213 0.882354324343638 1:-0.987274 2:-0.920501 3:-0.942166 4:-0.0824135 5:-0.338318 6:-0.725458 7:-0.256187 8:-0.58099 9:-0.985436 10:-0.00667261 11:-0.476702 12:-0.286337 13:-0.428098 14:-0.36113 15:-0.595166 16:-0.812587 17:-0.923368 18:-0.918759 19:-0.851404 20:-0.583085 21:-0.69682 22:-0.734472 23:-0.554721 24:0.143603 25:-0.128442 26:-0.320933 27:-0.559238 
-0.4841971259792784 0.437319185077029 0.0553556828009187 1:-0.987833 2:-0.984801 3:-1 4:0.635234 5:-0.236049 6:-0.989424 7:-1 8:-0.82133 9:-0.850569 10:-1 11:-0.996882 12:-0.767187 13:-0.387799 14:0.106605 15:-0.106636 16:-0.871929 17:-0.851457 18:-1 19:-0.841304 20:-0.707423 21:-0.701034 22:-0.483764 23:-0.0264654 24:0.119405 25:-0.404621 26:-0.737337 27:-0.915415 
-0.1974187788509184 0 0 1:-0.989967 2:-0.9875 3:-1 4:0.656024 5:-0.238776 6:-0.991315 7:-1 8:-0.834541 9:-0.864118 10:-1 11:-0.996887 12:-0.772694 13:-0.374718 14:0.137615 15:-0.173917 16:-0.881085 17:-0.861637 18:-1 19:-0.847521 20:-0.622332 21:-0.699792 22:-0.525425 23:-0.0808222 24:0.131762 25:-0.393948 26:-0.705914 27:-0.907337 
-0.09420470454495647 0 0 1:-0.99996 2:-0.999288 3:-0.999088 4:0.513611 5:-0.0594774 6:-0.981577 7:-0.981239 8:-0.992433 9:-0.999846 10:-0.921051 11:-0.959616 12:-0.441654 13:0.643718 14:-0.162747 15:-0.884127 16:-0.956243 17:-0.99326 18:-0.998111 19:-0.794441 20:-0.613475 21:-0.677162 22:-0.584003 23:-0.166751 24:0.025654 25:-0.315707 26:-0.550614 27:-0.837052 
-1.1097360765603 1.063535997337936 8 1:-0.976189 2:-0.854878 3:-0.810803 4:-0.0583734 5:-0.411789 6:-0.636631 7:-0.435674 8:-0.647347 9:-0.967176 10:0.158384 11:-0.351117 12:-0.289406 13:-0.373156 14:-0.564803 15:-0.645684 16:-0.621906 17:-0.75647 18:-0.929855 19:-0.673144 20:-0.300658 21:-0.50059 22:-0.475066 23:-0.49605 24:-0.107507 25:-0.444888 26:-0.5788 27:-0.766184 
-0.005300583155512106 0 0 1:-0.995032 2:-0.902171 3:-0.960679 4:0.165843 5:-0.287657 6:-0.808527 7:-0.561455 8:-0.622323 9:-0.992295 10:-0.0738805 11:-0.593954 12:-0.539414 13:-0.301149 14:-0.312223 15:-0.557432 16:-0.864769 17:-0.935365 18:-0.931815 19:-0.896241 20:-0.640168 21:-0.759751 22:-0.618446 23:-0.232527 24:0.395931 25:-0.409516 26:-0.62247 27:-0.792624 
-0 0 0.3980086250168876 1:-0.989486 2:-0.985363 3:-1 4:0.770807 5:-0.372477 6:-0.989713 7:-1 8:-0.780616 9:-0.754093 10:-1 11:-0.998499 12:-0.813282 13:-0.482922 14:0.132568 15:-0.0718753 16:-0.813619 17:-0.82525 18:-1 19:-0.910662 20:-0.955292 21:-0.851636 22:-0.733819 23:0.0263654 24:0.46099 25:-0.223001 26:-0.675203 27:-0.921542 
-0 0.2975003592988035 0 1:-0.997017 2:-0.951907 3:-0.951308 4:0.171362 5:-0.0520355 6:-0.86612 7:-0.828874 8:-0.875985 9:-0.993876 10:-0.393298 11:-0.715446 12:-0.404756 13:0.126397 14:-0.274204 15:-0.786224 16:-0.901156 17:-0.954673 18:-0.945546 19:-0.908818 20:-0.837981 21:-0.857685 22:-0.805222 23:-0.439693 24:0.259025 25:0.000429351 26:-0.132876 27:-0.630209 
-0.2011331508150531 0.9902892370090693 1.387209674435441 1:-0.999644 2:-0.997032 3:-0.99319 4:0.0507889 5:0.227059 6:-0.961682 7:-0.964464 8:-0.984183 9:-0.99959 10:-0.827423 11:-0.900537 12:0.53417 13:0.303406 14:-0.303672 15:-0.768775 16:-0.975845 17:-0.949659 18:-0.995224 19:-0.884134 20:-0.893988 21:-0.930114 22:-0.848553 23:-0.377338 24:0.292585 25:0.0536186 26:-0.118077 27:-0.655753 
-0.4777245729968063 0 0 1:-0.999764 2:-0.997516 3:-0.993404 4:0.0529559 5:0.230595 6:-0.974581 7:-0.94895 8:-0.984693 9:-0.999671 10:-0.803527 11:-0.903976 12:0.495961 13:0.320627 14:-0.325822 15:-0.745453 16:-0.977576 17:-0.949512 18:-0.995528 19:-0.918489 20:-0.871293 21:-0.936844 22:-0.868727 23:-0.439851 24:0.333961 25:0.10178 26:-0.251417 27:-0.474245 
-0.6814343724484093 -0 0 1:-1 2:-1 3:-1 4:-1 5:0.085085 6:0.0671932 7:-1 8:-1 9:-1 10:-1 11:-1 12:-0.990206 13:-0.225512 14:0.134023 15:-0.11336 16:-0.990747 17:-1 18:-1 19:-0.637761 20:0.19422 21:0.192401 22:-0.0706722 23:-0.597765 24:-0.7921 25:-0.894844 26:-0.907552 27:-0.910553 
-0 -0.2211713519791441 0 1:-1 2:-1 3:-1 4:-1 5:0.242289 6:-0.116176 7:-1 8:-1 9:-1 10:-1 11:-1 12:-0.968537 13:0.450152 14:0.0129563 15:-0.662196 16:-0.992748 17:-1 18:-1 19:-0.819969 20:-0.478258 21:0.200292 22:0.316196 23:-0.386283 24:-0.859369 25:-0.918109 26:-0.910016 27:-0.963684 
-7.796156091813747 -0 0 1:-1 2:-1 3:-1 4:-0.979497 5:0.305083 6:-0.205812 7:-1 8:-0.999797 9:-1 10:-1 11:-0.999679 12:-0.983231 13:-0.306929 14:0.0706793 15:0.0937885 16:-0.963246 17:-0.996925 18:-0.99979 19:-0.574468 20:-0.0140487 21:0.0722764 22:-0.051755 23:-0.480421 24:-0.730397 25:-0.87468 26:-0.884979 27:-0.908281 
-0 -0.01485932646464934 0 1:-1 2:-1 3:-1 4:-1 5:0.120376 6:0.0260281 7:-1 8:-1 9:-1 10:-1 11:-1 12:-0.96945 13:0.455228 14:0.0103776 15:-0.662338 16:-0.992812 17:-1 18:-1 19:-0.94503 20:-0.699066 21:-0.079908 22:0.405259 23:-0.0767705 24:-0.81085 25:-0.828455 26:-0.954666 27:-0.969253 
-3.285433282040417 -0 0 1:-0.999047 2:-0.969107 3:-0.997146 4:-0.612718 5:0.256087 6:-0.457143 7:-0.992906 8:-0.984113 9:-0.999357 10:-0.992463 11:-0.943004 12:-0.713002 13:-0.588315 14:-0.162549 15:0.212159 16:-0.368904 17:-0.659357 18:-0.918723 19:-0.894515 20:-0.757287 21:-0.462028 22:-0.0307068 23:0.0236818 24:-0.335636 25:-0.667634 26:-0.727224 27:-0.904187 
-0.005711437027024429 -0.3193569491207106 0.4076065334958978 1:-1 2:-1 3:-1 4:-0.991168 5:0.285346 6:-0.173435 7:-1 8:-1 9:-1 10:-1 11:-0.999852 12:-0.976873 13:-0.233439 14:0.0442532 15:0.0679922 16:-0.975744 17:-0.99965 18:-1 19:-0.470802 20:0.129717 21:0.225851 22:-0.157605 23:-0.584873 24:-0.791496 25:-0.893504 26:-0.902438 27:-0.915023 
-0.3588473186335752 -0 0 1:-0.996725 2:-0.91797 3:-0.991527 4:-0.486321 5:0.205704 6:-0.52896 7:-0.978035 8:-0.958102 9:-0.997382 10:-0.979898 11:-0.871535 12:-0.51287 13:-0.490888 14:-0.186352 15:-0.151231 16:-0.289935 17:-0.590468 18:-0.779347 19:-0.906257 20:-0.814586 21:-0.623898 22:-0.220314 23:-0.0226241 24:-0.215768 25:-0.494857 26:-0.511027 27:-0.798815 
-6.544453303588572 -0 0 1:-1 2:-1 3:-1 4:-0.999989 5:0.226065 6:-0.0972516 7:-1 8:-1 9:-1 10:-1 11:-1 12:-0.941568 13:-0.0519392 14:-0.0731103 15:0.0641044 16:-0.939875 17:-1 18:-1 19:-0.855812 20:-0.651715 21:-0.432165 22:-0.122379 23:-0.0645626 24:-0.374157 25:-0.660701 26:-0.672063 27:-0.724943 
-0 -0 1.691717875970862 1:-0.994597 2:-0.867573 3:-0.984461 4:-0.357419 5:0.208662 6:-0.655259 7:-0.969903 8:-0.951592 9:-0.996263 10:-0.963478 11:-0.778873 12:-0.287292 13:-0.408065 14:-0.23559 15:-0.190154 16:-0.448573 17:-0.70483 18:-0.7527 19:-0.906829 20:-0.834398 21:-0.769504 22:-0.517597 23:-0.181485 24:-0.0567233 25:-0.276323 26:-0.135491 27:-0.695979 
-0 -0 8 1:-0.992389 2:-0.793851 3:-0.980567 4:-0.254182 5:0.216589 6:-0.768165 7:-0.970824 8:-0.940494 9:-0.99183 10:-0.949963 11:-0.661295 12:0.132768 13:-0.312591 14:-0.444684 15:-0.154021 16:-0.444929 17:-0.719562 18:-0.716276 19:-0.883224 20:-0.799687 21:-0.838538 22:-0.689157 23:-0.47779 24:-0.0155815 25:-0.0595078 26:0.176229 27:-0.551304 
-0 -0 1.561508715325216 1:-0.993713 2:-0.878302 3:-0.983792 4:-0.39121 5:0.287935 6:-0.70834 7:-0.98181 8:-0.96681 9:-0.997168 10:-0.965618 11:-0.76829 12:-0.279152 13:-0.38901 14:-0.190716 15:-0.166462 16:-0.55589 17:-0.805957 18:-0.822217 19:-0.903481 20:-0.820244 21:-0.759917 22:-0.511857 23:-0.149229 24:-0.0415584 25:-0.294626 26:-0.239543 27:-0.685263 
-0.9157576066992017 -1.502763920626256 8 1:-0.993381 2:-0.81014 3:-0.984146 4:-0.204747 5:0.225395 6:-0.80533 7:-0.980013 8:-0.946168 9:-0.994168 10:-0.959182 11:-0.711758 12:0.189777 13:-0.216062 14:-0.4952 15:-0.153747 16:-0.326262 17:-0.798094 18:-0.752037 19:-0.897235 20:-0.81211 21:-0.86902 22:-0.738038 23:-0.51394 24:-0.121642 25:0.0675996 26:0.310085 27:-0.462618 
-0 -0 8 1:-0.991849 2:-0.797162 3:-0.980916 4:-0.21223 5:0.225926 6:-0.802796 7:-0.979562 8:-0.952795 9:-0.993732 10:-0.95287 11:-0.641071 12:0.205833 13:-0.286819 14:-0.470824 15:-0.139431 16:-0.438042 17:-0.750322 18:-0.753568 19:-0.868688 20:-0.798595 21:-0.843475 22:-0.726774 23:-0.490945 24:-0.0175473 25:-0.0213139 26:0.208159 27:-0.567691 
-0 -0.05091741075941181 8 1:-0.992956 2:-0.807199 3:-0.978387 4:-0.297928 5:0.279776 6:-0.786135 7:-0.981321 8:-0.976715 9:-0.996502 10:-0.950006 11:-0.628029 12:0.0611249 13:-0.276471 14:-0.372194 15:-0.1843 16:-0.571455 17:-0.785241 18:-0.803923 19:-0.831241 20:-0.733416 21:-0.747663 22:-0.592049 23:-0.153754 24:0.0440953 25:-0.316501 26:-0.338926 27:-0.744907 
-0 -0 0.6102647470630715 1:-0.995332 2:-0.890006 3:-0.981377 4:-0.453274 5:0.37042 6:-0.745774 7:-0.987386 8:-0.98049 9:-0.997705 10:-0.968453 11:-0.747864 12:-0.248311 13:-0.327703 14:-0.14538 15:-0.215905 16:-0.709502 17:-0.874554 18:-0.863219 19:-0.914119 20:-0.83203 21:-0.748528 22:-0.536602 23:-0.015152 24:0.0512097 25:-0.362413 26:-0.389115 27:-0.780126 
-2.239622959475153 -0 8 1:-0.988958 2:-0.842395 3:-0.97665 4:-0.360872 5:0.325606 6:-0.783302 7:-0.983104 8:-0.981342 9:-0.996798 10:-0.95339 11:-0.628605 12:0.0315533 13:-0.300486 14:-0.334969 15:-0.185626 16:-0.572223 17:-0.81642 18:-0.830651 19:-0.851235 20:-0.734638 21:-0.738345 22:-0.566913 23:-0.112605 24:0.0480737 25:-0.320647 26:-0.42631 27:-0.790088 
-0 -0 8 1:-0.988346 2:-0.791766 3:-0.968659 4:-0.252286 5:0.241041 6:-0.792454 7:-0.978353 8:-0.968565 9:-0.993318 10:-0.938834 11:-0.467855 12:0.0644784 13:-0.314504 14:-0.43146 15:-0.166874 16:-0.557605 17:-0.745578 18:-0.774287 19:-0.860341 20:-0.767604 21:-0.791892 22:-0.661325 23:-0.266888 24:0.0378702 25:-0.218414 26:-0.136461 27:-0.599607 
-0 -0.1160920874916226 0 1:-0.997624 2:-0.922649 3:-0.988473 4:-0.533825 5:0.482603 6:-0.792441 7:-0.996243 8:-0.994663 9:-0.998965 10:-0.977556 11:-0.752128 12:-0.274701 13:-0.357692 14:0.0554055 15:-0.393827 16:-0.902675 17:-0.950417 18:-0.933054 19:-0.950792 20:-0.829285 21:-0.779431 22:-0.387438 23:0.390288 24:-0.0701097 25:-0.543548 26:-0.611574 27:-0.895922 
-0 -0 8 1:-0.993078 2:-0.857208 3:-0.969258 4:-0.46929 5:0.424431 6:-0.808734 7:-0.985487 8:-0.98416 9:-0.997177 10:-0.953412 11:-0.472352 12:0.120472 13:-0.304703 14:-0.420749 15:-0.104715 16:-0.59767 17:-0.832301 18:-0.845318 19:-0.869907 20:-0.79512 21:-0.822665 22:-0.616184 23:-0.234842 24:0.133166 25:-0.184454 26:-0.345926 27:-0.723447 
-0 -0 4.222128720165696 1:-0.997429 2:-0.932568 3:-0.976653 4:-0.544762 5:0.481077 6:-0.786316 7:-0.995739 8:-0.994048 9:-0.998929 10:-0.972293 11:-0.64816 12:-0.226625 13:-0.417867 14:-0.00542517 15:-0.30267 16:-0.888561 17:-0.934859 18:-0.928648 19:-0.947841 20:-0.854425 21:-0.786534 22:-0.483329 23:0.320355 24:0.0345002 25:-0.508971 26:-0.552945 27:-0.85552 
-0 -0 8 1:-0.992905 2:-0.854704 3:-0.966106 4:-0.444098 5:0.404694 6:-0.808443 7:-0.984849 8:-0.983441 9:-0.996998 10:-0.9454 11:-0.429679 12:0.0194604 13:-0.306109 14:-0.427184 15:-0.0841789 16:-0.591731 17:-0.824803 18:-0.84472 19:-0.878029 20:-0.787094 21:-0.782193 22:-0.679198 23:-0.211952 24:0.136021 25:-0.211887 26:-0.31525 27:-0.68313 
-0 -0 1.190026051009825 1:-0.99672 2:-0.935184 3:-0.948256 4:-0.610923 5:0.527092 6:-0.804257 7:-0.991332 8:-0.990042 9:-0.998599 10:-0.840498 11:-0.37664 12:-0.2094 13:-0.5413 14:-0.272176 15:0.0479588 16:-0.833904 17:-0.909739 18:-0.905106 19:-0.9576 20:-0.945936 21:-0.923733 22:-0.740429 23:-0.0962926 24:0.152262 25:-0.0825742 26:-0.0794763 27:-0.76751 
-0.6154537282976492 -0.4793231522295825 0.4320747527305704 1:-0.997528 2:-0.950334 3:-0.944782 4:-0.671118 5:0.585657 6:-0.82131 7:-0.993207 8:-0.992254 9:-0.999029 10:-0.840224 11:-0.315088 12:-0.214522 13:-0.587027 14:-0.292299 15:0.141859 16:-0.863216 17:-0.920813 18:-0.9256 19:-0.966622 20:-0.961947 21:-0.953623 22:-0.756433 23:-0.290672 24:0.15582 25:0.0661442 26:0.0260966 27:-0.715709 
-0 -0.2108538764121638 0.2014945490202813 1:-0.995108 2:-1 3:-1 4:-1 5:0.138773 6:0.00214317 7:-1 8:-1 9:-1 10:-1 11:-0.999185 12:-0.897983 13:0.0387715 14:-0.307749 15:0.372289 16:-0.842181 17:-1 18:-1 19:-0.969952 20:-0.960612 21:-0.762105 22:0.0769258 23:1 24:-0.423817 25:-0.918696 26:-0.977333 27:-0.969238 
-0.6722235601150897 -0 0.4471325239278356 1:-0.999461 2:-0.996112 3:-0.976669 4:-0.921667 5:0.306539 6:-0.269622 7:-0.992193 8:-0.998989 9:-1 10:-0.931896 11:-0.847405 12:-0.239744 13:-0.127147 14:-0.492313 15:0.00743475 16:-0.503674 17:-0.554463 18:-0.843836 19:-0.983101 20:-0.985427 21:-0.938566 22:-0.436188 23:0.898127 24:0.240256 25:-0.795302 26:-0.890662 27:-0.946739 
-0 -0.3856141518333742 0.2946947522961915 1:-0.999423 2:-0.996817 3:-0.974316 4:-0.925205 5:0.438298 6:-0.422071 7:-0.991206 8:-0.998819 9:-1 10:-0.909893 11:-0.855568 12:-0.595132 13:0.0498614 14:-0.47532 15:-0.0275093 16:-0.472151 17:-0.7121 18:-0.846759 19:-0.984211 20:-0.989326 21:-0.974065 22:-0.581742 23:0.996843 24:0.258932 25:-0.707945 26:-0.893322 27:-0.949829 
-0.5778877431476497 -0.1839862393620144 0 1:-0.999752 2:-0.998142 3:-0.986368 4:-0.937679 5:0.59749 6:-0.589265 7:-0.995764 8:-0.999461 9:-1 10:-0.994871 11:-0.976449 12:-0.951816 13:-0.3623 14:0.0149399 15:0.133718 16:-0.842335 17:-0.922499 18:-0.989429 19:-0.96538 20:-0.929983 21:-0.840484 22:-0.271238 23:0.729847 24:-0.0331335 25:-0.772438 26:-0.818078 27:-0.840784 
-2.303436771682743 -0 0 1:-0.99916 2:-0.99241 3:-0.953332 4:-0.852397 5:0.55545 6:-0.63167 7:-0.98439 8:-0.996523 9:-0.999857 10:-0.983316 11:-0.944728 12:-0.903629 13:-0.265068 14:-0.0206769 15:-0.0257255 16:-0.777617 17:-0.879608 18:-0.968013 19:-0.88088 20:-0.752882 21:-0.535071 22:0.0874933 23:0.26342 24:-0.412865 25:-0.795783 26:-0.828217 27:-0.924494 
-0.8671680075991213 -0 0 1:-1 2:-0.99925 3:-1 4:-0.999991 5:0.2599 6:-0.136853 7:-1 8:-1 9:-1 10:-1 11:-1 12:-0.918227 13:0.102812 14:-0.269003 15:0.241157 16:-0.869599 17:-1 18:-1 19:-0.933431 20:-0.830915 21:-0.698618 22:-0.386046 23:-0.0929249 24:-0.0692672 25:-0.419748 26:-0.4391 27:-0.581152 
-2.026738912586317 -0 0 1:-0.999459 2:-0.994213 3:-0.983562 4:-0.953667 5:0.454337 6:-0.412581 7:-0.994176 8:-0.999341 9:-1 10:-0.996631 11:-0.984323 12:-0.898908 13:-0.100126 14:-0.0216467 15:-0.0528025 16:-0.911789 17:-0.974425 18:-0.987435 19:-0.916841 20:-0.826318 21:-0.660509 22:-0.100331 23:0.165178 24:-0.261309 25:-0.638654 26:-0.633801 27:-0.750902 
-2.886080516119871 -0 0 1:-0.992623 2:-0.962043 3:-0.777768 4:-0.697064 5:0.494135 6:-0.810864 7:-0.923473 8:-0.98554 9:-0.995194 10:-0.949303 11:-0.849677 12:-0.725807 13:-0.380965 14:0.00834989 15:-0.332034 16:-0.570858 17:-0.745359 18:-0.904467 19:-0.93679 20:-0.852918 21:-0.819764 22:-0.513379 23:0.246055 24:0.0997936 25:-0.467513 26:-0.506775 27:-0.874724 
-0 -0 5.836047225225657 1:-0.986898 2:-0.931221 3:-0.72857 4:-0.565687 5:0.343287 6:-0.792492 7:-0.899716 8:-0.963439 9:-0.989687 10:-0.890015 11:-0.719283 12:-0.560022 13:-0.338285 14:-0.171916 15:-0.327872 16:-0.493945 17:-0.675503 18:-0.839733 19:-0.923358 20:-0.854886 21:-0.854694 22:-0.619229 23:-0.0395153 24:0.146037 25:-0.306137 26:-0.226042 27:-0.781179 
-2.307348390922427 -0 0 1:-0.990986 2:-0.928976 3:-0.829628 4:-0.653687 5:0.374372 6:-0.681516 7:-0.942219 8:-0.980497 9:-0.992987 10:-0.923137 11:-0.769777 12:-0.658259 13:-0.334966 14:0.0229625 15:-0.399727 16:-0.719768 17:-0.828716 18:-0.899234 19:-0.87168 20:-0.698005 21:-0.647079 22:-0.18722 23:0.0770388 24:-0.209449 25:-0.588239 26:-0.638061 27:-0.878497 
-0 -0 6.171396421301662 1:-0.966975 2:-0.811559 3:-0.764302 4:-0.485305 5:0.28047 6:-0.797469 7:-0.902949 8:-0.962506 9:-0.987915 10:-0.84653 11:-0.561762 12:-0.492058 13:-0.436805 14:-0.15953 15:-0.33144 16:-0.608627 17:-0.76426 18:-0.777472 19:-0.864477 20:-0.806921 21:-0.806824 22:-0.681242 23:-0.300354 24:0.24138 25:-0.261504 26:-0.179544 27:-0.717321 
-1.995455976999426 -0 0 1:-0.997738 2:-0.979265 3:-0.969073 4:-0.860266 5:0.388747 6:-0.424389 7:-0.990558 8:-0.995751 9:-0.998602 10:-0.96917 11:-0.94862 12:-0.836116 13:-0.174279 14:0.261128 15:-0.659433 16:-0.890617 17:-0.962225 18:-0.962559 19:-0.768933 20:-0.498132 21:-0.111026 22:0.106019 23:-0.180117 24:-0.626756 25:-0.840689 26:-0.86141 27:-0.924648 
-0.1195156045675059 -0.8424140450742778 1.804571110600045 1:-0.870432 2:-0.928135 3:-1 4:-0.537618 5:-0.261218 6:-0.472132 7:-1 8:-0.416889 9:-0.250893 10:-0.981639 11:-0.815882 12:-0.0028149 13:-0.0971578 14:-0.474328 15:-0.0144281 16:-0.493544 17:-0.647507 18:-1 19:-0.976928 20:-0.896171 21:-0.69973 22:-0.232273 23:0.372081 24:-0.0854618 25:-0.570672 26:-0.825042 27:-0.96177 
-0 -0.4049721614787644 0 1:-0.98697 2:-0.739172 3:-0.784264 4:-0.517133 5:0.305453 6:-0.781145 7:-0.927012 8:-0.966746 9:-0.990025 10:-0.804196 11:-0.698397 12:-0.580245 13:-0.350351 14:-0.0804276 15:-0.415369 16:-0.71935 17:-0.79491 18:-0.825771 19:-0.852426 20:-0.731655 21:-0.794946 22:-0.614793 23:-0.221582 24:0.253034 25:-0.332158 26:-0.36994 27:-0.834776 
-2.302769800456933 -0 0 1:-0.998551 2:-0.987806 3:-0.982245 4:-0.909034 5:0.383801 6:-0.369367 7:-0.993681 8:-0.997264 9:-0.999061 10:-0.982612 11:-0.962188 12:-0.869986 13:-0.171117 14:0.273889 15:-0.624421 16:-0.921531 17:-0.969876 18:-0.97833 19:-0.842523 20:-0.643605 21:-0.324641 22:0.140157 23:0.0148416 24:-0.539567 25:-0.814492 26:-0.833953 27:-0.900461 
-0 -0 0.9846753649708435 1:-0.97772 2:-0.774176 3:-0.776766 4:-0.487811 5:0.221813 6:-0.725215 7:-0.908016 8:-0.954065 9:-0.982541 10:-0.796738 11:-0.621422 12:-0.51411 13:-0.381551 14:-0.135704 15:-0.428268 16:-0.614456 17:-0.767681 18:-0.80389 19:-0.853739 20:-0.718194 21:-0.74178 22:-0.572088 23:-0.136231 24:0.0737698 25:-0.347418 26:-0.368188 27:-0.808114 
-8 -0 0 1:-0.997421 2:-0.977438 3:-0.969394 4:-0.852059 5:0.382461 6:-0.423931 7:-0.99102 8:-0.995309 9:-0.998403 10:-0.970588 11:-0.935912 12:-0.80626 13:-0.164322 14:0.257381 15:-0.688349 16:-0.885062 17:-0.959649 18:-0.960445 19:-0.737403 20:-0.469586 21:-0.115196 22:0.108846 23:-0.209058 24:-0.63541 25:-0.840583 26:-0.859355 27:-0.920777 
-3.912815379711824 -0 0 1:-0.996227 2:-0.963693 3:-0.965084 4:-0.766757 5:0.332702 6:-0.444311 7:-0.983093 8:-0.992269 9:-0.997206 10:-0.959196 11:-0.904614 12:-0.730349 13:-0.17057 14:0.226348 15:-0.72284 16:-0.838315 17:-0.923636 18:-0.96098 19:-0.900508 20:-0.864397 21:-0.741408 22:-0.326816 23:0.121608 24:-0.0350525 25:-0.515586 26:-0.621812 27:-0.698593 
-0 -1.01753438452423 8 1:-0.961686 2:-0.75966 3:-0.729838 4:-0.317126 5:-0.0535609 6:-0.655232 7:-0.795998 8:-0.9029 9:-0.955145 10:-0.71897 11:-0.522348 12:-0.299558 13:-0.412868 14:-0.336071 15:-0.433482 16:-0.478577 17:-0.588187 18:-0.68528 19:-0.847437 20:-0.677901 21:-0.701622 22:-0.544647 23:-0.281779 24:-0.000322957 25:-0.337848 26:-0.254441 27:-0.71247 
-0 -0.03186750578323709 0 1:-0.969773 2:-0.786031 3:-1 4:-0.998116 5:0.307695 6:-0.253717 7:-1 8:-0.992617 9:-0.992008 10:-0.999623 11:-0.995164 12:-0.859489 13:-0.50354 14:-0.300652 15:0.921102 16:-0.749575 17:-0.996051 18:-1 19:-0.970814 20:-0.912908 21:-0.430058 22:0.485364 23:0.191436 24:-0.554919 25:-0.901989 26:-0.939775 27:-0.974847 
-4.379486646845551 -0 0 1:-0.977384 2:-0.94936 3:-0.902048 4:-0.662386 5:0.236119 6:-0.462643 7:-0.977237 8:-0.987135 9:-0.99351 10:-0.881179 11:-0.856182 12:-0.299619 13:-0.134176 14:0.0305883 15:-0.73631 16:-0.783172 17:-0.868579 18:-0.918805 19:-0.583602 20:-0.415386 21:0.0599456 22:-0.0368386 23:-0.458847 24:-0.622787 25:-0.777903 26:-0.842358 27:-0.925399 
-3.13774671769687 -0 0 1:-0.996661 2:-0.972823 3:-0.976722 4:-0.864292 5:0.343194 6:-0.368532 7:-0.98809 8:-0.993357 9:-0.997588 10:-0.966323 11:-0.936592 12:-0.740186 13:-0.121485 14:0.223417 15:-0.710399 16:-0.874233 17:-0.946372 18:-0.966645 19:-0.865818 20:-0.711813 21:-0.480143 22:0.0907114 23:0.137973 24:-0.459249 25:-0.776606 26:-0.794099 27:-0.85141 
-0 -0.04107239707075043 0.689721863075471 1:-0.992223 2:-0.905369 3:-0.917141 4:-0.640347 5:0.221189 6:-0.458195 7:-0.975963 8:-0.985006 9:-0.992102 10:-0.875485 11:-0.838876 12:-0.264194 13:-0.185135 14:0.0318226 15:-0.715728 16:-0.77626 17:-0.867731 18:-0.917135 19:-0.535727 20:-0.414325 21:0.0941131 22:-0.0423616 23:-0.4549 24:-0.669255 25:-0.790327 26:-0.841033 27:-0.922036 
-1.155382816030179 -0.2532094642475038 0.499866357004731 1:-0.692274 2:-0.728101 3:-1 4:-0.919219 5:-0.170782 6:-0.0178867 7:-1 8:-0.847537 9:-0.837614 10:-0.995955 11:-0.926773 12:-0.480118 13:-0.537981 14:-0.451627 15:0.496788 16:0.248709 17:-0.939317 18:-1 19:-0.983347 20:-0.846299 21:-0.367596 22:0.381385 23:0.228165 24:-0.614877 25:-0.853303 26:-0.958417 27:-0.980689 
-0.7208877962130296 -0 0 1:-0.956292 2:-0.754102 3:-0.851212 4:-0.552109 5:-0.0216208 6:-0.406435 7:-0.872358 8:-0.914967 9:-0.96544 10:-0.773136 11:-0.651973 12:-0.284731 13:-0.350468 14:-0.189416 15:-0.542888 16:-0.517882 17:-0.726039 18:-0.787192 19:-0.851442 20:-0.573121 21:-0.530991 22:-0.292808 23:-0.122392 24:-0.239826 25:-0.559778 26:-0.554812 27:-0.767016 
-0 -0 0.07351638579504496 1:-0.796853 2:-0.843932 3:-1 4:-0.548114 5:-0.205519 6:-0.340873 7:-1 8:-0.695051 9:-0.614242 10:-0.988869 11:-0.810132 12:-0.126508 13:-0.246364 14:-0.472455 15:0.153706 16:-0.162393 17:-0.878121 18:-1 19:-0.969163 20:-0.857431 21:-0.52014 22:0.0690979 23:0.217272 24:-0.347946 25:-0.68786 26:-0.853832 27:-0.960775 
-2.640574423469388 -0.7076197841003674 4.332688571125161 1:-0.931619 2:-0.586504 3:-0.761924 4:-0.449516 5:-0.346222 6:-0.303616 7:-0.720167 8:-0.848387 9:-0.933478 10:-0.637034 11:-0.505525 12:-0.0729638 13:-0.442741 14:-0.451142 15:-0.440754 16:-0.369313 17:-0.580233 18:-0.63364 19:-0.808565 20:-0.409828 21:-0.457992 22:-0.329773 23:-0.290251 24:-0.2783 25:-0.543989 26:-0.508785 27:-0.796019 
-0.1308481241885898 -0.2920195957856138 0.4259802753154918 1:-1 2:-0.999624 3:-1 4:-1 5:-0.709257 6:0.993692 7:-1 8:-1 9:-1 10:-1 11:-1 12:-0.99996 13:-0.886184 14:0.872322 15:-0.862296 16:-0.999886 17:-1 18:-1 19:-0.926077 20:-0.63301 21:0.524704 22:0.437658 23:-0.625653 24:-0.89085 25:-0.959227 26:-0.973765 27:-0.965484 
-0 -0.0200959314107051 0.08343413758596908 1:-1 2:-1 3:-1 4:-0.999971 5:-0.691947 6:0.973527 7:-1 8:-1 9:-1 10:-1 11:-1 12:-0.999925 13:-0.822218 14:0.870669 15:-0.933748 16:-0.999971 17:-1 18:-1 19:-0.947136 20:-0.918436 21:-0.207296 22:0.711719 23:-0.069772 24:-0.748014 25:-0.955743 26:-0.965654 27:-0.942684 
-0.9982099734717367 -0 0 1:-1 2:-1 3:-1 4:-1 5:-0.6763 6:0.955303 7:-1 8:-1 9:-1 10:-1 11:-1 12:-0.999719 13:-0.84983 14:0.861236 15:-0.88238 16:-0.999118 17:-1 18:-1 19:-0.952336 20:-0.810258 21:-0.0725095 22:0.559772 23:-0.214636 24:-0.755274 25:-0.888679 26:-0.93976 27:-0.912589 
-0.2213010744067998 -0.332351177379122 0.3599222489956525 1:-0.987156 2:-0.940888 3:-1 4:-1 5:-0.484267 6:0.714136 7:-1 8:-1 9:-1 10:-1 11:-1 12:-1 13:-0.627196 14:0.505156 15:-0.40485 16:-0.997718 17:-1 18:-1 19:-0.983618 20:-0.93169 21:-0.418265 22:0.460489 23:0.503527 24:-0.737595 25:-0.976101 26:-0.90242 27:-0.984833 
-0 -0.5023435636510142 0.7148547326173744 1:-1 2:-0.999446 3:-1 4:-0.998967 5:-0.502178 6:0.751122 7:-0.999893 8:-1 9:-0.999725 10:-0.999946 11:-0.99912 12:-0.996541 13:-0.80358 14:0.879154 15:-0.977392 16:-0.996759 17:-0.999264 18:-1 19:-0.98635 20:-0.906781 21:-0.242809 22:1 23:-0.215793 24:-0.857197 25:-0.968419 26:-0.951416 27:-0.986362 
-0.9450721416202783 -0 0 1:-1 2:-1 3:-1 4:-0.999922 5:-0.354473 6:0.579857 7:-1 8:-1 9:-1 10:-1 11:-1 12:-0.99219 13:-0.623967 14:0.658929 15:-0.735057 16:-0.991096 17:-0.999501 18:-1 19:-0.854593 20:-0.120451 21:0.649581 22:0.0185215 23:-0.699059 24:-0.88419 25:-0.941312 26:-0.956714 27:-0.955272 
-0 -0.01784804396023465 0.02298549739141747 1:-0.946562 2:-0.967987 3:-1 4:-0.998754 5:-0.458821 6:0.656068 7:-1 8:-0.998538 9:-0.970817 10:-1 11:-1 12:-0.995186 13:-0.810797 14:0.448887 15:-0.0898505 16:-0.977587 17:-0.99233 18:-1 19:-0.979734 20:-0.931744 21:-0.317242 22:0.779429 23:0.163231 24:-0.856799 25:-0.97207 26:-0.967315 27:-0.98164 
-0.4851161368567989 -0.6213597347177927 0.8549268230839676 1:-1 2:-1 3:-1 4:-0.999956 5:-0.307371 6:0.524943 7:-1 8:-1 9:-1 10:-1 11:-1 12:-0.993259 13:-0.588784 14:0.655712 15:-0.768093 16:-0.992928 17:-0.999645 18:-1 19:-0.862245 20:0.0118599 21:0.978074 22:-0.154517 23:-0.863029 24:-0.935675 25:-0.960497 26:-0.977471 27:-0.968598 
-0 -0.2680497728375102 0.3838040724422684 1:-1 2:-0.999548 3:-0.999452 4:-0.999526 5:0.277442 6:-0.15815 7:-0.999514 8:-1 9:-1 10:-0.996515 11:-0.997901 12:-0.935419 13:-0.120119 14:-0.205307 15:0.420451 16:-0.957634 17:-1 18:-1 19:-0.778592 20:-0.742019 21:0.408257 22:0.504107 23:-0.631231 24:-0.85511 25:-0.963651 26:-0.938712 27:-0.970203 
-0 -0 0.5184461187447373 1:-0.996579 2:-0.578019 3:-0.983263 4:-0.921257 5:0.0130927 6:-0.102589 7:-0.790764 8:-0.992003 9:-0.998587 10:-0.342664 11:-0.862314 12:-0.771902 13:-0.630988 14:-0.486913 15:0.59883 16:-0.556752 17:-0.973226 18:-0.996281 19:-0.905188 20:-0.745686 21:-0.521126 22:0.371382 23:0.301991 24:-0.591661 25:-0.863218 26:-0.970436 27:-0.984338 
-0 -0.06960472173457752 0.3337069347216418 1:-0.98085 2:-0.912003 3:-1 4:-1 5:0.307764 6:-0.218429 7:-1 8:-1 9:-0.999208 10:-1 11:-1 12:-0.751496 13:0.56109 14:-0.304619 15:-0.252084 16:-0.958316 17:-0.994322 18:-1 19:-0.735565 20:-0.364345 21:0.255086 22:0.0862757 23:-0.420013 24:-0.752915 25:-0.910739 26:-0.930392 27:-0.949257 
-0 -0.5412123389395151 0.7420452642061215 1:-0.998044 2:-0.868059 3:-0.913705 4:-0.861942 5:0.254446 6:-0.323296 7:-0.968143 8:-0.995793 9:-0.999341 10:-0.662221 11:-0.793362 12:-0.794685 13:-0.48714 14:-0.642869 15:0.785716 16:-0.0979221 17:-0.981401 18:-0.997144 19:-0.900442 20:-0.816762 21:-0.3806 22:0.686452 23:0.0840373 24:-0.752723 25:-0.950574 26:-0.967747 27:-0.980536 
-0.7991357298702434 -0.125373486567089 0.3122256606363346 1:-0.82232 2:-0.629948 3:-1 4:-0.955235 5:-0.0106891 6:-0.0381323 7:-1 8:-0.972347 9:-0.95941 10:-1 11:-1 12:-0.0771404 13:0.458977 14:-0.337261 15:-0.450085 16:-0.830345 17:-0.967887 18:-1 19:-0.878244 20:-0.697298 21:-0.156404 22:0.239179 23:-0.115131 24:-0.571956 25:-0.851411 26:-0.892966 27:-0.937671 
-0 -0 -0.06931727622956572 1:-0.898535 2:-0.108928 3:-0.911805 4:0.0780456 5:-0.281926 6:-0.803615 7:-0.843935 8:-0.79467 9:-0.898248 10:-0.578836 11:-0.266298 12:0.536507 13:-0.274909 14:-0.707953 15:-0.639876 16:-0.667713 17:-0.589637 18:-0.221922 19:-0.612524 20:-0.556276 21:-0.48642 22:-0.298636 23:-0.158332 24:-0.274462 25:-0.563924 26:-0.665784 27:-0.87911 
-0.0953987184129657 -0 -0.0814250601728868 1:-0.965763 2:-0.166903 3:-0.940187 4:0.365917 5:-0.337139 6:-0.828204 7:-0.888205 8:-0.899301 9:-0.962922 10:-0.727796 11:-0.245055 12:0.614552 13:-0.304937 14:-0.631695 15:-0.677024 16:-0.553808 17:-0.472976 18:-0.421865 19:-0.509008 20:-0.387271 21:-0.487003 22:-0.365564 23:-0.185695 24:-0.27741 25:-0.563792 26:-0.79385 27:-0.844062 
-0 -0.5766666028023014 -0 1:-0.98403 2:-0.513452 3:-0.941228 4:0.476536 5:-0.303766 6:-0.834129 7:-0.943389 8:-0.943356 9:-0.979524 10:-0.822523 11:-0.29951 12:0.434175 13:-0.327781 14:-0.676965 15:-0.397989 16:-0.462807 17:-0.513149 18:-0.392941 19:-0.661787 20:-0.506335 21:-0.684081 22:-0.605139 23:-0.34766 24:0.0392743 25:-0.275352 26:-0.568073 27:-0.803055 
-0 -2.158113851231287 -0 1:-0.991242 2:-0.663385 3:-0.978928 4:0.128394 5:-0.0357419 6:-0.801847 7:-0.961071 8:-0.963596 9:-0.98835 10:-0.884595 11:-0.587075 12:0.328794 13:-0.294472 14:-0.609787 15:-0.223635 16:-0.277911 17:-0.569697 18:-0.658175 19:-0.655373 20:-0.57788 21:-0.738139 22:-0.631927 23:-0.314088 24:0.20768 25:-0.339568 26:-0.542885 27:-0.852242 
-0 -0 -8 1:-0.992389 2:-0.793851 3:-0.980567 4:-0.254182 5:0.216589 6:-0.768165 7:-0.970824 8:-0.940494 9:-0.99183 10:-0.949963 11:-0.661295 12:0.132768 13:-0.312591 14:-0.444684 15:-0.154021 16:-0.444929 17:-0.719562 18:-0.716276 19:-0.883224 20:-0.799687 21:-0.838538 22:-0.689157 23:-0.47779 24:-0.0155815 25:-0.0595078 26:0.176229 27:-0.551304 
-0.008148287611685028 -0.1101688150635905 -0.3069954889008964 1:-0.871799 2:0.11391 3:-0.952812 4:-0.313368 5:-0.144389 6:-0.719231 7:-0.870758 8:-0.805902 9:-0.775483 10:-0.29622 11:-0.55023 12:0.860373 13:-0.0445199 14:-0.826507 15:-0.746125 16:-0.743508 17:-0.58473 18:-0.448561 19:-0.572292 20:-0.597238 21:-0.358943 22:-0.0997656 23:-0.117078 24:-0.525806 25:-0.626446 26:-0.794988 27:-0.860293 
-0.3513318160094485 -0 -0 1:-0.961064 2:-0.166016 3:-0.956145 4:0.408885 5:-0.353641 6:-0.830363 7:-0.897843 8:-0.906125 9:-0.964782 10:-0.77238 11:-0.118279 12:0.51974 13:-0.295136 14:-0.657481 15:-0.591933 16:-0.573751 17:-0.551398 18:-0.390738 19:-0.460626 20:-0.42658 21:-0.441447 22:-0.371087 23:-0.208006 24:-0.278487 25:-0.568687 26:-0.807049 27:-0.86846 
-0 -0.7582604017635244 -8 1:-0.993381 2:-0.81014 3:-0.984146 4:-0.204747 5:0.225395 6:-0.80533 7:-0.980013 8:-0.946168 9:-0.994168 10:-0.959182 11:-0.711758 12:0.189777 13:-0.216062 14:-0.4952 15:-0.153747 16:-0.326262 17:-0.798094 18:-0.752037 19:-0.897235 20:-0.81211 21:-0.86902 22:-0.738038 23:-0.51394 24:-0.121642 25:0.0675996 26:0.310085 27:-0.462618 
-0.2887827309239197 -0.02946302914390378 -0 1:-0.843462 2:0.0592757 3:-0.921328 4:-0.445588 5:-0.0951385 6:-0.697314 7:-0.897921 8:-0.777796 9:-0.749336 10:-0.477513 11:0.169481 12:0.858239 13:-0.183261 14:-0.866466 15:-0.734668 16:-0.779801 17:-0.48405 18:-0.532768 19:-0.48741 20:-0.298121 21:-0.0780247 22:-0.106898 23:-0.519518 24:-0.612115 25:-0.677756 26:-0.770334 27:-0.927964 
-0 -0 -8 1:-0.991849 2:-0.797162 3:-0.980916 4:-0.21223 5:0.225926 6:-0.802796 7:-0.979562 8:-0.952795 9:-0.993732 10:-0.95287 11:-0.641071 12:0.205833 13:-0.286819 14:-0.470824 15:-0.139431 16:-0.438042 17:-0.750322 18:-0.753568 19:-0.868688 20:-0.798595 21:-0.843475 22:-0.726774 23:-0.490945 24:-0.0175473 25:-0.0213139 26:0.208159 27:-0.567691 
-0 -0 -0.1533216773460442 1:-0.91256 2:0.241109 3:-0.873598 4:0.0909799 5:-0.42806 6:-0.827656 7:-0.815346 8:-0.541532 9:-0.874554 10:-0.767003 11:-0.237328 12:0.36111 13:-0.393422 14:-0.699071 15:-0.537399 16:-0.562017 17:-0.451065 18:0.0149449 19:-0.691685 20:-0.576896 21:-0.592151 22:-0.492635 23:-0.335821 24:-0.170507 25:-0.325366 26:-0.404973 27:-0.782688 
-0 -0 -8 1:-0.992956 2:-0.807199 3:-0.978387 4:-0.297928 5:0.279776 6:-0.786135 7:-0.981321 8:-0.976715 9:-0.996502 10:-0.950006 11:-0.628029 12:0.0611249 13:-0.276471 14:-0.372194 15:-0.1843 16:-0.571455 17:-0.785241 18:-0.803923 19:-0.831241 20:-0.733416 21:-0.747663 22:-0.592049 23:-0.153754 24:0.0440953 25:-0.316501 26:-0.338926 27:-0.744907 
-0 -0 -8 1:-0.988958 2:-0.842395 3:-0.97665 4:-0.360872 5:0.325606 6:-0.783302 7:-0.983104 8:-0.981342 9:-0.996798 10:-0.95339 11:-0.628605 12:0.0315533 13:-0.300486 14:-0.334969 15:-0.185626 16:-0.572223 17:-0.81642 18:-0.830651 19:-0.851235 20:-0.734638 21:-0.738345 22:-0.566913 23:-0.112605 24:0.0480737 25:-0.320647 26:-0.42631 27:-0.790088 
-0.1107153843831346 -0 -0.01344097060075267 1:-0.784999 2:-0.600266 3:-0.979684 4:-0.683304 5:-0.832603 6:-0.777148 7:-0.947358 8:0.916508 9:0.992859 10:-0.673789 11:-0.685915 12:-0.530705 13:-0.514044 14:-0.717254 15:-0.429228 16:-0.683415 17:-0.0554162 18:0.935471 19:-0.909323 20:-0.794666 21:-0.593676 22:-0.786474 23:-0.831141 24:-0.224708 25:0.301703 26:0.289984 27:-0.719767 
-0 -0 -0.2774050905215218 1:-0.839035 2:-0.0143089 3:-0.916976 4:-0.111736 5:-0.426118 6:-0.772646 7:-0.822274 8:-0.386074 9:-0.661315 10:-0.665551 11:-0.291238 12:0.278492 13:-0.367416 14:-0.722125 15:-0.490837 16:-0.539984 17:-0.438677 18:-0.118618 19:-0.740254 20:-0.61632 21:-0.554128 22:-0.464325 23:-0.375075 24:-0.193676 25:-0.313502 26:-0.396969 27:-0.72874 
-0 -0 -8 1:-0.988346 2:-0.791766 3:-0.968659 4:-0.252286 5:0.241041 6:-0.792454 7:-0.978353 8:-0.968565 9:-0.993318 10:-0.938834 11:-0.467855 12:0.0644784 13:-0.314504 14:-0.43146 15:-0.166874 16:-0.557605 17:-0.745578 18:-0.774287 19:-0.860341 20:-0.767604 21:-0.791892 22:-0.661325 23:-0.266888 24:0.0378702 25:-0.218414 26:-0.136461 27:-0.599607 
-0.6225850057491058 -0.4852001102308325 -0.4570292391818461 1:-0.734332 2:-0.629579 3:-0.98025 4:-0.687049 5:-0.858488 6:-0.795851 7:-0.945051 8:1 9:1 10:-0.70298 11:-0.715135 12:-0.574757 13:-0.572618 14:-0.777269 15:-0.227248 16:-0.675377 17:-0.0244014 18:1 19:-0.920141 20:-0.817192 21:-0.674642 22:-0.815798 23:-0.897432 24:-0.247408 25:0.480633 26:0.336678 27:-0.713056 
-0 -0 -0.2311526541955481 1:-0.704118 2:0.136585 3:-0.950111 4:-0.345229 5:-0.334828 6:-0.549071 7:-0.913227 8:-0.770615 9:-0.782598 10:-0.537061 11:0.290717 12:0.590671 13:-0.203019 14:-0.790207 15:-0.673763 16:-0.680394 17:-0.706782 18:-0.589919 19:-0.713499 20:-0.18134 21:-0.0155637 22:-0.14982 23:-0.545302 24:-0.588478 25:-0.664878 26:-0.778001 27:-0.89342 
-5.376620599697957 -0.616625948534165 -8 1:-0.992943 2:-0.849593 3:-0.979599 4:-0.444132 5:0.341738 6:-0.729771 7:-0.984649 8:-0.983298 9:-0.996674 10:-0.951461 11:-0.651187 12:-0.174778 13:-0.32411 14:-0.196976 15:-0.216637 16:-0.72947 17:-0.854103 18:-0.86679 19:-0.87333 20:-0.767851 21:-0.695488 22:-0.413226 23:0.0620947 24:-0.0583147 25:-0.469012 26:-0.538678 27:-0.821666 
-0.1425258541918858 -0.1680868989210559 -0 1:-0.973604 2:-0.535462 3:-0.942963 4:0.446265 5:-0.289691 6:-0.804777 7:-0.977251 8:-0.958667 9:-0.980662 10:-0.856238 11:0.121547 12:0.167115 13:-0.408261 14:-0.664248 15:-0.342829 16:-0.500883 17:-0.4587 18:-0.553175 19:-0.870639 20:-0.821244 21:-0.916541 22:-0.888462 23:-0.713898 24:-0.252557 25:0.0219962 26:1 27:0.0873137 
-0 -0 -8 1:-0.993078 2:-0.857208 3:-0.969258 4:-0.46929 5:0.424431 6:-0.808734 7:-0.985487 8:-0.98416 9:-0.997177 10:-0.953412 11:-0.472352 12:0.120472 13:-0.304703 14:-0.420749 15:-0.104715 16:-0.59767 17:-0.832301 18:-0.845318 19:-0.869907 20:-0.79512 21:-0.822665 22:-0.616184 23:-0.234842 24:0.133166 25:-0.184454 26:-0.345926 27:-0.723447 
-0 -0 -0.0944976983816168 1:-0.31429 2:0.103459 3:-0.972093 4:-0.514729 5:-0.518033 6:-0.467792 7:-0.918495 8:-0.680601 9:-0.627306 10:-0.220341 11:-0.267193 12:-0.00475586 13:-0.393305 14:-0.679455 15:-0.456076 16:-0.566549 17:-0.753414 18:-0.530893 19:-0.858597 20:-0.461206 21:-0.00574391 22:0.00464886 23:-0.500312 24:-0.498753 25:-0.680178 26:-0.827372 27:-0.952243 
-0 -0 -0.6521375950917078 1:-0.775304 2:-0.217797 3:-0.904181 4:-0.219679 5:-0.591758 6:-0.740261 7:-0.619443 8:-0.169209 9:-0.475187 10:-0.652066 11:-0.419827 12:0.0974036 13:-0.387721 14:-0.754171 15:-0.403386 16:-0.490438 17:-0.284123 18:-0.0414773 19:-0.810112 20:-0.668691 21:-0.563051 22:-0.530557 23:-0.451848 24:-0.191944 25:-0.217179 26:-0.171094 27:-0.748704 
-0 -0 -8 1:-0.992905 2:-0.854704 3:-0.966106 4:-0.444098 5:0.404694 6:-0.808443 7:-0.984849 8:-0.983441 9:-0.996998 10:-0.9454 11:-0.429679 12:0.0194604 13:-0.306109 14:-0.427184 15:-0.0841789 16:-0.591731 17:-0.824803 18:-0.84472 19:-0.878029 20:-0.787094 21:-0.782193 22:-0.679198 23:-0.211952 24:0.136021 25:-0.211887 26:-0.31525 27:-0.68313 
-0 -0 -0.02732952450029236 1:-0.414822 2:0.179749 3:-0.978899 4:-0.653789 5:-0.544796 6:-0.409508 7:-0.939225 8:-0.539863 9:-0.414478 10:-0.0131766 11:-0.369076 12:-0.29719 13:-0.352225 14:-0.710885 15:-0.564613 16:-0.570679 17:-0.756497 18:-0.308496 19:-0.908855 20:-0.48813 21:-0.0784731 22:-0.10194 23:-0.561194 24:-0.39419 25:-0.558764 26:-0.733504 27:-0.94269 
-0.1731656875545277 -0.3473347933099333 -0 1:-0.857905 2:-0.274398 3:-0.914382 4:-0.255434 5:-0.674128 6:-0.815744 7:-0.72 8:0.369638 9:-0.170316 10:-0.70417 11:-0.425251 12:-0.0228444 13:-0.433564 14:-0.77295 15:-0.46806 16:-0.321005 17:-0.193323 18:0.187242 19:-0.832338 20:-0.734 21:-0.684287 22:-0.560781 23:-0.38039 24:-0.116587 25:-0.174134 26:-0.168417 27:-0.68244 
-1.356073091875786 -0 -0.6444100771449192 1:-0.981904 2:-0.688736 3:-0.951926 4:-0.12125 5:0.108566 6:-0.788254 7:-0.964758 8:-0.947974 9:-0.98711 10:-0.878891 11:-0.264835 12:0.0421218 13:-0.390103 14:-0.49163 15:-0.271111 16:-0.513129 17:-0.598112 18:-0.678156 19:-0.889601 20:-0.84194 21:-0.879001 22:-0.737603 23:-0.415172 24:-0.152206 25:-0.178412 26:0.257254 27:0.248389 
-0.5729471841607757 -0.3308635315809645 -0.3005828790938277 1:-0.387207 2:0.0699039 3:-0.989753 4:-0.611126 5:-0.773114 6:-0.618946 7:-0.964252 8:-0.27469 9:0.523681 10:-0.337942 11:-0.662921 12:-0.5655 13:-0.337738 14:-0.694531 15:-0.540463 16:-0.655246 17:-0.882344 18:0.828686 19:-0.959737 20:-0.655905 21:-0.209449 22:-0.310769 23:-0.390861 24:-0.149866 25:-0.523613 26:-0.604788 27:-0.975746 
-0 -0 -0.1478550996825911 1:-0.207737 2:-0.0876127 3:-0.978202 4:-0.682085 5:-0.68818 6:-0.473345 7:-0.867046 8:-0.242644 9:-0.25608 10:-0.30205 11:-0.543125 12:-0.345013 13:-0.433057 14:-0.663168 15:-0.293797 16:-0.475402 17:-0.568839 18:-0.348336 19:-0.926195 20:-0.626814 21:-0.205772 22:-0.0504938 23:-0.506153 24:-0.385484 25:-0.461956 26:-0.706083 27:-0.95454 
-0.2491019069304907 -0.1455799712987532 -0.07794086346940395 1:-0.270454 2:0.457458 3:-0.989726 4:-0.834939 5:-0.441349 6:-0.223227 7:-0.957367 8:-0.826192 9:-0.84937 10:0.467781 11:-0.421835 12:-0.569666 13:-0.374327 14:-0.694906 15:-0.576075 16:-0.449605 17:-0.877938 18:-0.85051 19:-0.96111 20:-0.468795 21:-0.0149808 22:0.149377 23:-0.595976 24:-0.451526 25:-0.674991 26:-0.919693 27:-0.978568 
-0.235492706221282 -0.1503980170085342 -0.1186523749630112 1:0.466363 2:0.00437546 3:-0.99288 4:-0.883135 5:-0.69442 6:-0.227028 7:-0.917821 8:-0.832078 9:-0.753722 10:-0.117337 11:-0.683169 12:-0.523236 13:-0.481165 14:-0.564604 15:-0.0729731 16:-0.38673 17:-0.915742 18:-0.805724 19:-0.979476 20:-0.577503 21:0.300374 22:0.466316 23:-0.712372 24:-0.713762 25:-0.872815 26:-0.946335 27:-0.992931 
-0 -0 -0.1594522022537912 1:-0.411892 2:-0.186652 3:-0.955786 4:-0.526681 5:-0.721345 6:-0.631077 7:-0.765206 8:0.0965999 9:-0.212962 10:-0.54858 11:-0.543436 12:-0.178924 13:-0.448286 14:-0.67734 15:-0.283735 16:-0.464309 17:-0.373428 18:-0.182279 19:-0.898417 20:-0.70896 21:-0.455975 22:-0.26315 23:-0.469318 24:-0.229014 25:-0.251845 26:-0.514024 27:-0.918648 
-0 -0 -0.3089141575355501 1:0.622342 2:-0.149505 3:-0.992537 4:-0.896719 5:-0.730728 6:-0.223362 7:-0.886945 8:-0.862218 9:-0.765762 10:-0.227423 11:-0.742619 12:-0.464133 13:-0.459883 14:-0.563216 15:0.0434765 16:-0.365038 17:-0.927324 18:-0.872243 19:-0.988221 20:-0.719201 21:-0.070985 22:0.747944 23:-0.55309 24:-0.651216 25:-0.89125 26:-0.962145 27:-0.996169 
-0.233404428273815 -0 -0 1:0.672797 2:-0.109978 3:-0.993165 4:-0.898998 5:-0.755665 6:-0.242475 7:-0.855825 8:-0.85541 9:-0.764071 10:-0.299063 11:-0.75493 12:-0.452091 13:-0.456057 14:-0.567382 15:0.109751 16:-0.358049 17:-0.914183 18:-0.877018 19:-0.989939 20:-0.798303 21:-0.168421 22:0.812132 23:-0.467477 24:-0.649419 25:-0.887863 26:-0.961717 27:-0.996621 
-0.05500065342663362 -0.1975733419919231 -0 1:0.71837 2:0.0032816 3:-0.992562 4:-0.896787 5:-0.750026 6:-0.26291 7:-0.904236 8:-0.877971 9:-0.765182 10:-0.352251 11:-0.772282 12:-0.439774 13:-0.491318 14:-0.535578 15:0.148949 16:-0.340265 17:-0.921938 18:-0.902739 19:-0.991706 20:-0.749007 21:-0.259713 22:0.830702 23:-0.413593 24:-0.633154 25:-0.899489 26:-0.97221 27:-0.997113 
-0.5471183802850187 -0.3974966660139688 -0.3722857952832435 1:1 2:0.101463 3:-0.992346 4:-0.908682 5:-0.757445 6:-0.341789 7:-0.974036 8:-0.925942 9:-0.7924 10:-0.810652 11:-0.930484 12:-0.212073 13:-0.345197 14:-0.5168 15:0.402796 16:-0.313692 17:-0.955084 18:-0.967043 19:-0.999368 20:-0.989753 21:-0.600357 22:0.416479 23:0.973637 24:-0.861573 25:-0.936368 26:-0.997996 27:-0.999804 
-0.208500275193686 -0.09320865873092803 -0.1435165302480239 1:0.520671 2:-0.0940281 3:-0.982474 4:-0.688505 5:-0.75585 6:-0.488469 7:-0.971429 8:-0.768613 9:-0.332534 10:-0.801378 11:-0.882881 12:-0.165672 13:-0.367298 14:-0.500314 15:0.290829 16:-0.292921 17:-0.907111 18:-0.947689 19:-0.997928 20:-0.973501 21:-0.671974 22:0.145376 23:0.695118 24:-0.416609 25:-0.797582 26:-0.977908 27:-0.997503 
-0 -0 -0.4799435503092982 1:-0.217285 2:-0.449682 3:-0.908767 4:-0.317465 5:-0.734403 6:-0.722061 7:-0.966128 8:-0.665269 9:0.347639 10:-0.739031 11:-0.707968 12:-0.245374 13:-0.303922 14:-0.511334 15:-0.047817 16:-0.077783 17:-0.877127 18:-0.892511 19:-0.988894 20:-0.906634 21:-0.692322 22:-0.203963 23:-0.0424094 24:0.263519 25:-0.525333 26:-0.908682 27:-0.99045 
-0.07646681150056162 -0 -0.490088675973093 1:0.167263 2:-0.200222 3:-0.948437 4:-0.520045 5:-0.748732 6:-0.587082 7:-0.96335 8:-0.752749 9:-0.0183251 10:-0.785865 11:-0.770049 12:-0.141507 13:-0.367728 14:-0.485018 15:0.138841 16:-0.273311 17:-0.888593 18:-0.931546 19:-0.995075 20:-0.955115 21:-0.704003 22:-0.0226181 23:0.231795 24:-0.0493281 25:-0.586708 26:-0.936911 27:-0.994338 
-0.3241037773730687 -0.4164126065265916 -0.01973700485087552 1:-0.303711 2:-0.434974 3:-0.922073 4:-0.253877 5:-0.737153 6:-0.772106 7:-0.977706 8:-0.675103 9:0.492892 10:-0.839352 11:-0.736962 12:-0.135725 13:-0.268973 14:-0.498683 15:-0.0433347 16:-0.0448436 17:-0.885911 18:-0.931878 19:-0.990994 20:-0.959213 21:-0.817746 22:-0.26515 23:0.0119475 24:0.422657 25:-0.497415 26:-0.923944 27:-0.98833 
-0 -0.04817810652368521 -0 1:-0.453342 2:-0.563843 3:-0.881613 4:-0.164455 5:-0.726984 6:-0.84364 7:-0.978946 8:-0.660065 9:0.649397 10:-0.852417 11:-0.62427 12:-0.215721 13:-0.237695 14:-0.463198 15:-0.105859 16:-0.168853 17:-0.89579 18:-0.921505 19:-0.986762 20:-0.952332 21:-0.844291 22:-0.366172 23:-0.114499 24:0.54758 25:-0.407267 26:-0.889284 27:-0.977815 
-0.4128204172708822 -0.3389574355902135 -0.3242883595979457 1:-0.693327 2:-0.775536 3:-0.935681 4:0.0109027 5:-0.731051 6:-0.902118 7:-0.978418 8:-0.636773 9:0.896584 10:-0.87482 11:-0.541615 12:0.136934 13:-0.422904 14:-0.406423 15:0.0872022 16:-0.621897 17:-0.946043 18:-0.94286 19:-0.993363 20:-0.983573 21:-0.942991 22:-0.728209 23:-0.449691 24:1 25:-0.0590668 26:-0.897359 27:-0.99052 
-0.5506808231880509 -0.2769998516991398 -0.3135709323743426 1:-0.78731 2:-0.843518 3:-0.887615 4:0.0442202 5:-0.6041 6:-0.950187 7:-0.917832 8:-0.756173 9:0.699185 10:-0.696948 11:-0.319975 12:0.606727 13:-0.593314 14:-0.463683 15:-0.0581081 16:-0.731339 17:-0.949548 18:-0.918626 19:-0.990521 20:-0.969705 21:-0.957057 22:-0.982357 23:-0.944159 24:0.166772 25:0.989503 26:-0.0691591 27:-0.982615 
-0.0006071631110031259 -0.07800684120043898 -0.05847265790296362 1:-0.754123 2:-0.815506 3:-0.861082 4:0.0343672 5:-0.611195 6:-0.946315 7:-0.976293 8:-0.748602 9:0.708684 10:-0.781008 11:-0.387425 12:0.539251 13:-0.580545 14:-0.392692 15:-0.0504241 16:-0.809728 17:-0.932892 18:-0.894288 19:-0.988332 20:-0.953677 21:-0.932221 22:-0.916386 23:-0.93092 24:0.169908 25:1 26:-0.325033 27:-0.980441 
-0 -0 -0.1572602547973339 1:0.0758464 2:-0.499202 3:-0.474155 4:-0.176407 5:-0.84268 6:-0.83005 7:-0.918161 8:-0.658905 9:-0.267129 10:-0.527796 11:-0.483729 12:-0.0355978 13:-0.447934 14:-0.514926 15:-0.50369 16:-0.426582 17:-0.63096 18:-0.411358 19:-0.96144 20:-0.606179 21:-0.451894 22:-0.519989 23:-0.558457 24:0.0182119 25:-0.17753 26:-0.505121 27:-0.94767 
-0.1681293275138938 -1.708723389660024 -0 1:-0.79726 2:-0.840148 3:-0.495449 4:0.30321 5:-0.710991 6:-0.861896 7:-0.961076 8:-0.40174 9:-0.427117 10:0.0688218 11:-0.542899 12:0.190387 13:-0.179434 14:-0.67432 15:-0.690544 16:-0.518829 17:-0.876999 18:-0.872211 19:-0.898389 20:-0.92956 21:-0.913088 22:-0.749518 23:-0.508468 24:0.368035 25:0.23268 26:-0.39551 27:-0.929526 
-0.5824052165189231 -0.3587980205485122 -0.3676355548928454 1:0.976074 2:-0.234723 3:-0.472921 4:-0.517201 5:-0.970833 6:-0.704242 7:-0.922949 8:-0.82531 9:-0.6229 10:-0.717607 11:-0.696529 12:-0.444916 13:-0.424271 14:-0.522287 15:-0.609203 16:-0.247335 17:-0.320739 18:0.181264 19:-0.971892 20:-0.364353 21:-0.0911626 22:-0.23523 23:-0.616866 24:-0.337415 25:-0.456355 26:-0.732116 27:-0.953265 
-0.1538336054798212 -0.4740053301603528 -8 1:-0.98498 2:-0.902374 3:-0.678746 4:-0.415081 5:0.219617 6:-0.808039 7:-0.892614 8:-0.956493 9:-0.97902 10:-0.844733 11:-0.572749 12:-0.44138 13:-0.394047 14:-0.234334 15:-0.339993 16:-0.461663 17:-0.658381 18:-0.84228 19:-0.877156 20:-0.800286 21:-0.802873 22:-0.601181 23:-0.128391 24:0.0784036 25:-0.279895 26:-0.250376 27:-0.776016 
-0 -0.3516686067355655 -7.040803057619399 1:-0.979476 2:-0.893394 3:-0.636733 4:-0.241552 5:0.0551325 6:-0.805351 7:-0.855457 8:-0.941446 9:-0.969834 10:-0.777053 11:-0.47769 12:-0.377877 13:-0.366361 14:-0.360425 15:-0.379602 16:-0.391364 17:-0.562509 18:-0.780674 19:-0.892433 20:-0.805799 21:-0.853407 22:-0.659542 23:-0.246524 24:0.0798077 25:-0.210387 26:-0.0207753 27:-0.677238 
-0 -0.07352373968754491 -0 1:-0.956189 2:-0.837531 3:-0.589191 4:-0.136995 5:-0.0425598 6:-0.822459 7:-0.87908 8:-0.919963 9:-0.95068 10:-0.724708 11:-0.358711 12:-0.215731 13:-0.405059 14:-0.403337 15:-0.387698 16:-0.409216 17:-0.622139 18:-0.799853 19:-0.813207 20:-0.710836 21:-0.733552 22:-0.589178 23:-0.232579 24:0.0148888 25:-0.258328 26:-0.310207 27:-0.795199 
-2.386808948490911 -0 -5.137859292758346 1:-0.98895 2:-0.885191 3:-0.668301 4:-0.481411 5:0.277373 6:-0.822116 7:-0.901817 8:-0.955876 9:-0.98491 10:-0.870739 11:-0.492156 12:-0.253453 13:-0.397444 14:-0.261729 15:-0.313282 16:-0.514332 17:-0.723986 18:-0.863768 19:-0.800931 20:-0.694861 21:-0.654209 22:-0.566739 23:-0.12476 24:0.123805 25:-0.426144 26:-0.543793 27:-0.869202 
-0.431154272265275 -0.1430440891039091 -0.1965430614565451 1:-0.907726 2:-0.73289 3:-0.257879 4:0.659172 5:-0.772213 6:-0.944841 7:-0.970598 8:-0.680211 9:-0.695028 10:-0.593342 11:1 12:0.941568 13:-0.45387 14:-0.829945 15:-0.71071 16:-0.673533 17:-0.569934 18:-0.913066 19:-0.791675 20:-0.847929 21:-0.880562 22:-0.771027 23:-0.467792 24:0.216152 25:0.136666 26:-0.253765 27:-0.848094 
-0 -0.8480585417657842 -0 1:-0.948175 2:-0.746814 3:-0.467448 4:0.708979 5:-0.694813 6:-0.87283 7:-0.849058 8:-0.808008 9:-0.933449 10:-0.454051 11:0.14209 12:0.0384635 13:-0.504672 14:-0.692128 15:-0.57463 16:-0.174289 17:-0.474344 18:-0.733243 19:-0.729479 20:-0.66078 21:-0.831221 22:-0.729644 23:-0.284674 24:-0.0338356 25:-0.0253714 26:-0.266341 27:-0.779762 
-0.145486094216903 -0 -0 1:-0.929753 2:-0.682528 3:-0.327569 4:0.472845 5:-0.599917 6:-0.85933 7:-0.859749 8:-0.876597 9:-0.920751 10:-0.424036 11:-0.111898 12:-0.11784 13:-0.555827 14:-0.679125 15:-0.476887 16:-0.13291 17:-0.350677 18:-0.657839 19:-0.765725 20:-0.65589 21:-0.741838 22:-0.666065 23:-0.340188 24:-0.0182962 25:-0.118519 26:-0.293628 27:-0.778383 
-0 -0 -2.306903629862931 1:-0.979575 2:-0.835965 3:-0.666691 4:-0.346719 5:0.153056 6:-0.812678 7:-0.88345 8:-0.946792 9:-0.979968 10:-0.760754 11:-0.433056 12:-0.267039 13:-0.453479 14:-0.314251 15:-0.349735 16:-0.446218 17:-0.708515 18:-0.8033 19:-0.807646 20:-0.728273 21:-0.733063 22:-0.61014 23:-0.309668 24:0.110699 25:-0.248405 26:-0.32273 27:-0.798711 
-0.5645809835572765 -0.2774232034424401 -0.3331431701391167 1:-0.944189 2:-0.155033 3:1 4:0.0566466 5:-0.898356 6:-0.932626 7:-0.95322 8:-0.809867 9:-0.777673 10:-0.483583 11:0.393277 12:0.896143 13:-0.376826 14:-0.847159 15:-0.686547 16:-0.403618 17:-0.582249 18:-0.813405 19:-0.910363 20:-0.708822 21:-0.743883 22:-0.791167 23:-0.472686 24:0.0527075 25:-0.00301075 26:0.0236063 27:-0.782558 
-0.2977588255346524 -0.299804262540977 -0 1:-0.975124 2:-0.89506 3:-0.622306 4:0.505587 5:-0.487248 6:-0.847134 7:-0.708768 8:-0.938855 9:-0.972203 10:-0.390986 11:-0.159598 12:-0.272943 13:-0.591713 14:-0.756728 15:-0.469752 16:-0.0375048 17:0.000957811 18:-0.595242 19:-0.856496 20:-0.668291 21:-0.914375 22:-0.812859 23:-0.654279 24:-0.151738 25:-0.014169 26:0.755323 27:-0.386509 
-0.7089934840951408 -0.481320665078072 -0.4788086379778107 1:-0.484093 2:1 3:0.825521 4:-0.231327 5:-1 6:-0.851425 7:-0.950865 8:-0.923197 9:-0.90925 10:-0.746619 11:-0.467691 12:-0.227488 13:-0.572461 14:-0.758646 15:-0.564247 16:-0.0522678 17:0.664128 18:-0.148344 19:-0.910826 20:-0.159813 21:-0.125061 22:-0.527556 23:-0.538304 24:-0.33016 25:-0.446167 26:-0.564952 27:-0.900371 
-0.6004118144134515 -0 -0.5700256932814044 1:-0.994395 2:-0.224597 3:-0.959571 4:-0.919462 5:0.390919 6:-0.658575 7:-0.768278 8:-0.92759 9:-0.987745 10:-0.822687 11:-0.607112 12:-0.314344 13:-0.595422 14:-0.502936 15:0.0501543 16:0.39523 17:-0.723859 18:-0.987685 19:-0.782709 20:-0.561758 21:-0.659868 22:-0.489896 23:-0.0908727 24:0.139625 25:-0.621436 26:-0.701903 27:-0.653633 
-0 -0.1187868454848275 -0 1:-0.994771 2:-0.287923 3:-0.916344 4:-0.83907 5:0.253961 6:-0.686908 7:-0.618417 8:-0.799611 9:-0.98919 10:-0.802279 11:-0.608458 12:-0.202165 13:-0.514044 14:-0.680249 15:-0.47922 16:0.502411 17:0.564607 18:-0.934935 19:-0.261275 20:-0.165426 21:-0.218237 22:-0.327164 23:-0.330401 24:-0.421758 25:-0.848994 26:-0.773527 27:-0.887219 
-0.3357154579506538 -0.345027913494605 -0 1:-0.993374 2:-0.289017 3:-0.910815 4:-0.858783 5:0.297318 6:-0.631401 7:-0.723417 8:-0.92698 9:-0.987874 10:-0.82288 11:-0.588172 12:-0.24765 13:-0.496433 14:-0.62819 15:-0.111073 16:0.810385 17:-0.651193 18:-0.978268 19:-0.310857 20:-0.261756 21:-0.461176 22:-0.105897 23:0.007159 24:-0.603409 25:-0.862305 26:-0.796856 27:-0.868747 
-1.662983514158331 -0 -0.8665664169748156 1:-0.984584 2:-0.430214 3:-0.863636 4:-0.783446 5:0.0449865 6:-0.479869 7:-0.632659 8:-0.834827 9:-0.971199 10:-0.754506 11:-0.526185 12:-0.105645 13:-0.450863 14:-0.598392 15:-0.33176 16:0.265947 17:-0.228059 18:-0.942706 19:-0.523591 20:-0.239999 21:-0.387595 22:-0.183697 23:-0.212163 24:-0.514105 25:-0.756967 26:-0.68447 27:-0.772401 
-0 -0 -0.05320887123550828 1:-0.990385 2:-0.289431 3:-0.917027 4:-0.892009 5:0.201382 6:-0.573225 7:-0.671505 8:-0.764784 9:-0.983971 10:-0.793154 11:-0.611112 12:-0.266389 13:-0.503228 14:-0.617413 15:-0.160059 16:0.306993 17:-0.0555986 18:-0.979146 19:-0.694151 20:-0.464858 21:-0.639905 22:-0.463238 23:-0.268993 24:-0.104418 25:-0.493843 26:-0.542743 27:-0.568537 
-0.4813491925597246 -0.1343102500866385 -0.2680257004915724 1:-0.987914 2:-0.756674 3:-0.711657 4:-0.137469 5:-0.377145 6:-0.451185 7:-0.737453 8:-0.869288 9:-0.968816 10:-0.444319 11:-0.016808 12:0.260302 13:-0.573516 14:-1 15:-0.541653 16:-0.291914 17:1 18:-0.742792 19:-0.28412 20:-0.35219 21:-0.584035 22:-0.378393 23:-0.286357 24:-0.321735 25:-0.566835 26:-0.669173 27:-0.696825 
-0 -0.3222808373451125 -0 1:-0.96201 2:-0.649534 3:-0.798407 4:-0.488352 5:-0.55136 6:-0.507798 7:-0.409755 8:0.186209 9:-0.890844 10:-0.425818 11:-0.220839 12:0.283573 13:-0.462109 14:-0.952753 15:-0.431789 16:0.0162563 17:0.159225 18:-0.725046 19:-0.587147 20:-0.461775 21:-0.611612 22:-0.637015 23:-0.634494 24:-0.279002 25:-0.389405 26:-0.0270011 27:0.0415337 
-0.5550297422355676 -0.3356161785039346 -0.2668322746025685 1:-0.89452 2:-0.418744 3:-0.796558 4:-0.672733 5:-0.702231 6:-0.51664 7:-0.0688963 8:0.240149 9:-0.710975 10:-0.146388 11:-0.235188 12:-0.0111885 13:-0.658654 14:-0.978648 15:-0.475378 16:0.361778 17:0.136602 18:-0.672268 19:-0.690147 20:-0.489829 21:-0.625557 22:-0.700508 23:-0.783567 24:-0.583283 25:-0.283247 26:0.517317 27:0.567041 
-0.01492156897653115 -0 -0.1077294747339864 1:-0.92736 2:-0.505913 3:-0.808329 4:-0.723092 5:-0.669714 6:-0.266549 7:-0.300111 8:0.0828567 9:-0.823257 10:-0.449666 11:-0.453825 12:0.314466 13:-0.486554 14:-0.933335 15:-0.412351 16:0.0707002 17:0.389099 18:-0.778569 19:-0.659349 20:-0.220241 21:-0.354279 22:-0.48733 23:-0.693534 24:-0.46084 25:-0.564056 26:-0.13124 27:-0.142132 
-0.1620792526832862 -0 -0.01619427413838513 1:-0.922689 2:-0.462306 3:-0.807242 4:-0.712125 5:-0.712678 6:-0.362358 7:-0.135284 8:0.242453 9:-0.841932 10:-0.277287 11:-0.320613 12:-0.0830852 13:-0.554968 14:-0.937876 15:-0.404164 16:0.629731 17:-0.172953 18:-0.777644 19:-0.52135 20:-0.0399573 21:-0.362888 22:-0.617663 23:-0.877937 24:-0.697053 25:-0.45856 26:0.178275 27:0.124822 
-0.001486377662015436 -0.02685689938913383 -0 1:-0.954617 2:-0.232313 3:-0.808198 4:-0.84252 5:-0.609208 6:0.0212835 7:-0.341137 8:-0.678591 9:-0.877053 10:-0.590316 11:-0.726675 12:0.104212 13:-0.478393 14:-0.940124 15:-0.272437 16:0.878995 17:0.143079 18:-0.880113 19:-0.239621 20:0.701628 21:0.105682 22:-0.328947 23:-0.968317 24:-0.824012 25:-0.83436 26:-0.678583 27:-0.805851 
-0 -0 -2.092810844465294 1:-0.958057 2:-0.546475 3:-0.888514 4:-0.735843 5:-0.377815 6:-0.0184798 7:-0.586377 8:-0.851017 9:-0.979231 10:-0.0251728 11:-0.29986 12:-0.323622 13:-0.493583 14:-0.696316 15:-0.259905 16:-0.465845 17:-0.588534 18:-0.894321 19:-0.548378 20:-0.26437 21:-0.3541 22:-0.142253 23:-0.250681 24:-0.546166 25:-0.719611 26:-0.709614 27:-0.80697 
-0 -0.1151113023896634 -0.1714075892674663 1:-0.905132 2:-0.257724 3:-0.81325 4:-0.854947 5:-0.601396 6:-0.00243971 7:-0.302285 8:-0.663656 9:-0.919275 10:-0.586173 11:-0.735631 12:-0.176485 13:-0.373468 14:-0.875899 15:-0.336608 16:0.928062 17:-0.0608894 18:-0.859338 19:-0.313755 20:0.859617 21:0.161372 22:-0.405877 23:-0.947001 24:-0.876832 25:-0.802253 26:-0.743963 27:-0.806697 
-0.3932277323292332 -0 -0 1:-0.95045 2:-0.678226 3:-0.840773 4:-0.661753 5:-0.556121 6:0.0429309 7:-0.448049 8:-0.787027 9:-0.987699 10:1 11:-0.55279 12:-0.487546 13:-0.711776 14:-0.794328 15:-0.543025 16:-0.60442 17:-0.625596 18:-0.743692 19:-0.0695861 20:-0.260526 21:-0.459876 22:-0.279762 23:-0.310773 24:-0.638452 25:-0.64306 26:-0.574957 27:-0.777161 
-0.6684012168622083 -0.07928737135488129 -0.1459750738175272 1:-0.880219 2:-0.313348 3:-0.848748 4:-0.854981 5:-0.531576 6:-0.0258933 7:-0.378038 8:-0.677383 9:-0.92449 10:-0.485896 11:-0.623057 12:-0.0929831 13:-0.472028 14:-0.867369 15:-0.0120497 16:0.311345 17:-0.355959 18:-0.764902 19:0.0860066 20:0.956178 21:0.176976 22:-0.571653 23:-0.968459 24:-0.853336 25:-0.862644 26:-0.787722 27:-0.844192 
-0.8090060176785236 -0 -0 1:-0.956038 2:-0.61765 3:-0.845773 4:-0.742727 5:-0.356252 6:-0.0348165 7:-0.599002 8:-0.875842 9:-0.971872 10:-0.0269072 11:-0.229142 12:-0.238413 13:-0.548329 14:-0.716439 15:-0.26082 16:-0.440986 17:-0.563512 18:-0.889514 19:-0.500146 20:-0.0196609 21:-0.251866 22:-0.100983 23:-0.358553 24:-0.642258 25:-0.786949 26:-0.789919 27:-0.858225 
-0.08126746444885852 -0 -0.3353594338140705 1:-0.909755 2:-0.50714 3:-0.797298 4:-0.706538 5:-0.736806 6:-0.296661 7:-0.264939 8:-0.424214 9:-0.232231 10:-0.198227 11:-0.555692 12:-0.0629135 13:-0.650462 14:-0.878852 15:-0.276371 16:-0.0559372 17:-0.21808 18:-0.23016 19:-0.583508 20:-0.171345 21:-0.454316 22:-0.633667 23:-0.753363 24:-0.449935 25:-0.408855 26:0.106499 27:-0.290059 
-0.2279389034869709 -0.179883504089183 -0.1018973383748117 1:-0.929042 2:-0.327435 3:-0.806525 4:-0.794647 5:-0.551383 6:-0.073825 7:-0.304905 8:-0.723848 9:-0.898962 10:-0.5109 11:-0.668672 12:0.0240333 13:-0.414626 14:-0.88088 15:-0.404118 16:0.871229 17:-0.12592 18:-0.880727 19:-0.144227 20:1 21:0.0944718 22:-0.370521 23:-1 24:-0.894445 25:-0.854476 26:-0.759305 27:-0.83462 
-0 -7.901613188176248 -0.8647112053377417 1:-0.962794 2:-0.7766 3:-0.853345 4:-0.246225 5:-0.477079 6:-0.472348 7:-0.398941 8:-0.58149 9:-0.915772 10:0.204442 11:-0.332091 12:-0.280077 13:-0.461016 14:-0.662463 15:-0.596529 16:-0.469454 17:-0.606997 18:-0.857061 19:-0.631871 20:-0.311367 21:-0.463866 22:-0.480285 23:-0.507416 24:-0.245817 25:-0.445373 26:-0.448412 27:-0.673037 
