svm_type c_svc
kernel_type rbf
gamma 0.03125
nr_class 13
total_sv 451
rho 0.308199 0.135746 1.06661 0.199374 0.691514 6.03159 0.703658 0.888622 -20.0592 -9.82192 -22.4833 -4.9688 0.187888 1.80091 -0.339772 -1.19896 -0.513788 -0.450665 -0.192601 -0.41367 -0.334167 -0.334082 -0.335473 1.84746 -0.102143 -1.51335 -1.2468 -0.845804 -0.506535 -0.877692 -0.503506 -0.57596 -0.19781 -2.06988 -3.02764 -1.50961 -1.62919 -1.27178 -1.19806 -1.72461 -1.24905 -0.930954 6.48136 -1.29678 -8.92834 -0.857408 -0.164968 0.143462 -0.307088 -0.384346 -2.18022 -13.9616 -0.993119 -1.38563 -0.85592 -2.22734 -0.277094 -2.79478 27.0288 -9.91849 -21.0205 -11.9704 -8.01718 34.5955 -4.26229 -5.44562 -6.12099 3.60559 -22.8115 -8.11483 -9.1304 2.28415 3.02913 -24.4437 13.0856 -11.4882 12.4985 51.4723
label 10 20 21 22 30 31 40 41 42 50 51 52 53
nr_sv 39 11 16 10 37 39 42 54 51 27 25 46 54
SV
0 0 0 0 0 0 0 0 0 0 2048 2048 1:-0.969608 2:-0.673139 3:-0.999211 4:-0.962468 5:-1 6:-0.71444 7:-0.909502 8:-1 9:-1 10:-1 11:-0.048062 12:-1 13:-0.991463 14:-1 15:-0.996054 16:-0.999575 17:-1 18:-0.951143 20:-1 21:-0.90709 
0 0 0 0 0 0 0 0 1873.727899098229 2048 2048 2048 1:-1 2:-0.925566 3:-1 4:-0.972704 5:-1 6:-0.692888 7:-0.746606 8:-1 9:-0.973684 10:-1 11:-0.203101 12:-1 13:-1 14:-1 15:-1 16:-1 17:-1 18:-0.921198 20:-1 21:-0.748865 
0 0 0 0 0 0 0 0 0 0 0 2048 1:-0.989126 2:-0.906149 3:-1 4:-1 5:-1 6:-0.703664 7:-1 8:-1 9:-1 10:-1 11:-0.792248 12:-1 13:-1 14:-1 15:-1 16:-1 17:-1 18:-1 20:-1 21:-0.831994 
0 0 0 0 0 0 0 0 2048 2048 2048 2048 1:-0.979925 2:-0.724919 3:-1 4:-0.932329 5:-1 6:-0.741379 7:-0.520362 8:-1 9:-0.565789 10:-1 11:-0.237209 12:-1 13:-1 14:-1 15:-1 16:-0.962585 17:-1 18:-0.918046 20:-1 21:-0.901153 
0 0 0 0 0 0 0 0 0 0 0 2048 1:-0.946187 2:-0.902913 3:-0.99487 4:-0.953938 5:-1 6:-0.716595 7:-1 8:-1 9:-1 10:-1 11:-0.869767 12:-1 13:-0.994955 14:-1 15:-1 16:-0.985119 17:-1 18:-0.982664 20:-1 21:-0.870066 
0 0 0 0 0 0 0 0 0 1913.203436717467 2048 2048 1:-0.973512 2:-0.831715 3:-1 4:-0.982371 5:-1 6:-0.682112 7:-0.638009 8:-1 9:-0.657895 10:-1 11:-0.355039 12:-1 13:-1 14:-1 15:-1 16:-1 17:-1 18:-0.925926 20:-1 21:-0.871813 
0 0 0 0 0 0 0 0 0 2048 2048 2048 1:-0.986059 2:-0.679612 3:-1 4:-1 5:-1 6:-0.677802 7:-0.9819 8:-1 9:-1 10:-1 11:-0.460465 12:-1 13:-1 14:-1 15:-1 16:-0.998724 17:-1 18:-0.951143 20:-1 21:-0.88788 
0 0 0 0 0 0 0 0 0 208.7504359295662 0 1982.291636686301 1:-0.984107 2:-0.81877 3:-0.995659 4:-1 5:-1 6:-0.553879 7:-0.040724 8:-1 9:-1 10:-1 11:-0.389147 12:-1 13:-1 14:-1 15:-0.998309 16:-1 17:-1 18:-1 20:-1 21:-0.874607 
0 0 0 0 0 0 0 0 2048 2048 712.0365073756407 2048 1:-0.985222 2:-0.669903 3:-0.988951 4:-1 5:-1 6:-0.8125 7:-0.438914 8:-0.855932 9:-1 10:-1 11:-0.463566 12:-0.998118 13:-1 14:-1 15:-0.965614 16:-1 17:-1 18:-1 20:-1 21:-0.873908 
0 0 0 0 0 0 0 0 0 0 2048 2048 1:-0.95734 2:-0.79288 3:-1 4:-0.943702 5:-1 6:-0.557112 7:-0.755656 8:-1 9:-0.75 10:-1 11:-0.40155 12:-1 13:-1 14:-1 15:-1 16:-0.988946 17:-1 18:-0.943262 20:-1 21:-0.817324 
0 0 0 0 0 0 0 0 2048 2048 2048 2048 1:-0.961244 2:-0.822006 3:-1 4:-0.968723 5:-1 6:-0.640086 7:-1 8:-1 9:-0.855263 10:-1 11:-0.689922 12:-1 13:-1 14:-1 15:-1 16:-1 17:-1 18:-0.93223 20:-1 21:-0.803353 
0 0 0 0 0 0 0 0 0 0 0 2048 1:-0.986616 2:-1 3:-1 4:-1 5:-1 6:-0.627155 7:-0.927602 8:-1 9:-1 10:-1 11:-0.826357 12:-1 13:-1 14:-1 15:-1 16:-1 17:-1 18:-1 20:-1 21:-0.766678 
0 0 0 0 0 0 0 0 0 0 0 2048 1:-0.964311 2:-0.517799 3:-1 4:-0.964743 5:-1 6:-0.841595 7:-0.475113 8:-1 9:-0.355263 10:-1 11:-0.609302 12:-1 13:-1 14:-1 15:-1 16:-0.972364 17:-1 18:-0.978723 20:-1 21:-0.967517 
0 0 0 0 0 0 0 0 2048 2048 2048 2048 1:-0.974906 2:-0.961165 3:-1 4:-0.916406 5:-1 6:-0.688578 7:-1 8:-1 9:-0.842105 10:-1 11:-0.745736 12:-1 13:-1 14:-1 15:-1 16:-0.952381 17:-1 18:-0.888889 20:-1 21:-0.842473 
4.985945591081996 25.6830444394541 0 19.73202310743441 105.2442888608379 1262.953936414669 584.3391485553879 2048 2048 983.9456572116703 2048 2048 1:-0.973512 2:-0.906149 3:-0.993686 4:-0.926642 5:-1 6:-0.734914 7:-1 8:-1 9:-1 10:-1 11:-0.817054 12:-0.995129 13:-0.945673 14:-1 15:-0.89177 16:-0.997024 17:-1 18:-0.888889 20:-1 21:-0.929445 
0 73.37333397207415 0 0 108.099669356354 0 323.5060568123898 2048 2048 2048 2048 2048 1:-0.966541 2:-1 3:-1 4:-0.89764 5:-1 6:-0.756466 7:-1 8:-1 9:-1 10:-1 11:-1 12:-1 13:-1 14:-1 15:-1 16:-0.935374 17:-1 18:-0.891253 20:-1 21:-0.893468 
13.24642728305146 0 4.839645629184824 105.9830317869107 0 0 55.33059466188625 405.6625958802027 2048 2048 1058.165270915633 1686.167348270827 1:-0.972675 2:-1 3:-0.986584 4:-0.978959 5:-1 6:-0.511853 7:-1 8:-1 9:-1 10:-1 11:-1 12:-0.998672 13:-0.968956 14:-1 15:-1 16:-0.986395 17:-1 18:-0.907801 20:-1 21:-0.770171 
1.622791057502854 0 0 0 0 0 0 0 1205.709057197557 2048 2048 2048 1:-0.989684 2:-0.783172 3:-1 4:-0.959625 5:-1 6:-0.534483 7:-0.665158 8:-1 9:-0.539474 10:-1 11:0.0294574 12:-1 13:-1 14:-1 15:-1 16:-1 17:-1 18:-0.858156 20:-1 21:-0.821865 
0.2232305325878871 0 0 0 0 0 0 0 1122.373942395119 1527.085143436997 2048 0 1:-0.962359 2:-0.909385 3:-1 4:-0.994882 5:-1 6:-0.451509 7:-0.99095 8:-1 9:-0.723684 10:-1 11:-0.705426 12:-1 13:-1 14:-1 15:-1 16:-1 17:-1 18:-0.947991 20:-1 21:-0.631156 
0 0 0 0 0 0 0 0 247.3088384489182 815.9114598966239 0 2048 1:-0.949254 2:-0.656958 3:-0.996646 4:-0.994882 5:-1 6:-0.780172 7:-0.628959 8:-0.881356 9:-1 10:-1 11:-0.817054 12:-1 13:-1 14:-1 15:-1 16:-1 17:-1 18:-0.990544 20:-1 21:-0.968564 
0 1.367916335627851 0 0 2.391157386851043 469.5628478200639 28.72198626311476 979.360501736838 0 70.36955790661763 1691.483068254342 2048 1:-0.968772 2:-0.854369 3:-0.993884 4:-0.918681 5:-1 6:-0.837284 7:-0.882353 8:-1 9:0.171053 10:-1 11:-0.748837 12:-1 13:-0.995343 14:-1 15:-1 16:-0.965136 17:-1 18:-0.871552 20:-1 21:-0.903947 
0 0 0 0 0 0 0 0 2048 2048 0 0 1:-0.962916 2:-0.537217 3:-1 4:-0.977822 5:-1 6:-0.715517 7:-0.574661 8:-1 9:-0.342105 10:-1 11:-0.593798 12:-1 13:-1 14:-1 15:-1 16:-0.991497 17:-1 18:-0.938534 20:-1 21:-0.885784 
0.2222181277382419 0 2.095604177539885 0 0 0 0 0 0 0 0 0 1:-0.972675 2:-0.640777 3:-0.99487 4:-0.96588 5:-0.113402 6:-0.851293 7:-0.873303 8:-0.974576 9:-0.736842 10:1 11:-0.6 12:-1 13:-0.993791 14:-1 15:-0.993236 16:-0.991922 17:-1 18:-0.982664 20:-0.625 21:-0.974852 
0 0 0 0 0 0 0 0 0 0 1126.064764718321 0 1:-0.979925 2:-0.566343 3:-1 4:-0.998294 5:-1 6:-0.632543 7:-0.710407 8:-1 9:-0.105263 10:-1 11:-0.125581 12:-1 13:-1 14:-1 15:-1 16:-1 17:-1 18:-0.950355 20:-1 21:-0.847014 
0 1.808611778044149 10.23129020240043 0 0 0 3.2428158526914 164.6594746265949 2048 1387.672338248448 818.6405047773934 1071.713732666283 1:-0.973791 2:-0.320388 3:-0.993095 4:-0.952232 5:-1 6:-0.854526 7:-0.0769231 8:-0.542373 9:-0.276316 10:-1 11:-0.488372 12:-1 13:-0.991463 14:-1 15:-0.980271 16:-0.999575 17:-1 18:-0.955083 20:-1 21:-0.974852 
0 0 0 0 0 0 0 0 2048 2048 2048 2048 1:-0.943399 2:-0.631068 3:-0.979678 4:-0.963605 5:-1 6:-0.639009 7:-0.99095 8:-0.949153 9:-0.894737 10:-1 11:-0.631008 12:-0.998229 13:-0.999224 14:-1 15:-0.976888 16:-0.990646 17:-1 18:-0.892041 20:-1 21:-0.922459 
0 0 0 0 0 0 0 0 0 0 0 2048 1:-0.976021 2:-0.932039 3:-1 4:-0.985783 5:-1 6:-0.616379 7:-0.9819 8:-1 9:-1 10:-1 11:-0.736434 12:-1 13:-1 14:-1 15:-1 16:-1 17:-1 18:-0.974783 20:-1 21:-0.852951 
0 0 0 0 0 0 0 0 1249.641485965324 0 0 2048 1:-0.960965 2:-0.87055 3:-1 4:-0.956213 5:-1 6:-0.802802 7:-0.972851 8:-1 9:-0.631579 10:-1 11:-0.860465 12:-1 13:-1 14:-1 15:-1 16:-0.987245 17:-1 18:-0.962963 20:-1 21:-0.96088 
0 0 0 0 0 0 0 0 514.0050707243696 407.3417671346111 973.5535913222045 2048 1:-0.989962 2:-0.744337 3:-0.994673 4:-0.985215 5:-1 6:-0.758621 7:-0.457014 8:-0.855932 9:-0.828947 10:-1 11:-0.153488 12:-0.999889 13:-0.995343 14:-1 15:-0.987599 16:-1 17:-1 18:-0.992908 20:-1 21:-0.92665 
0 0 0 0 0 0 0 0 1709.696171755767 606.9443506745441 2048 2048 1:-0.989962 2:-0.744337 3:-0.994673 4:-0.985215 5:-1 6:-0.758621 7:-0.457014 8:-0.855932 9:-0.828947 10:-1 11:-0.153488 12:-0.999889 13:-0.995343 14:-1 15:-0.987599 16:-1 17:-1 18:-0.992908 20:-1 21:-0.92665 
0 0 0 0 0 526.9486380003177 0 0 2048 0 0 2048 1:-0.961244 2:-0.967638 3:-0.993884 4:-0.945977 5:-1 6:-0.885776 7:-1 8:-1 9:-0.868421 10:-1 11:-0.91938 12:-0.999668 13:-0.989523 14:-1 15:-1 16:-0.977041 17:-1 18:-0.99212 20:-1 21:-0.964722 
0 0 0 0 0 0 0 0 0 0 0 2048 1:-0.990799 2:-0.841424 3:-1 4:-1 5:-1 6:-0.742457 7:-0.800905 8:-1 9:-1 10:-1 11:-0.643411 12:-1 13:-1 14:-1 15:-1 16:-1 17:-1 18:-1 20:-1 21:-0.873559 
0 0 0 0 0 0 0 0 0 0 0 2048 1:-0.990799 2:-0.841424 3:-1 4:-1 5:-1 6:-0.742457 7:-0.800905 8:-1 9:-1 10:-1 11:-0.643411 12:-1 13:-1 14:-1 15:-1 16:-1 17:-1 18:-1 20:-1 21:-0.873559 
0 0 0 0 0 0 0 1.190120880341849 6.070814609168442 0 0 0.4934227508717005 1:-0.982155 2:-0.857605 3:-0.953832 4:-0.935741 5:-0.979381 6:-0.948276 7:-1 8:-0.855932 9:-0.736842 10:-0.375 11:-0.950388 12:-0.969335 13:-0.964688 14:-0.794872 15:-1 16:-0.997874 17:-0.785714 18:-0.949567 20:-1 21:-1 
0 2.732394795511613 0 0 5.653390887576808 45.76188806276163 15.85924264707528 17.51797512661989 42.36661375919425 41.11539604880269 15.20097054135272 74.46459466258938 1:-0.982155 2:-0.857605 3:-0.953832 4:-0.935741 5:-0.979381 6:-0.948276 7:-1 8:-0.855932 9:-0.736842 10:-0.375 11:-0.950388 12:-0.969335 13:-0.964688 14:-0.794872 15:-1 16:-0.997874 17:-0.785714 18:-0.949567 20:-1 21:-1 
0 0 0 0 0 0 0 0 708.507617352386 1532.662654937029 0 0 1:-0.972396 2:-0.990291 3:-1 4:-0.887404 5:-1 6:-0.570043 7:-1 8:-1 9:-0.802632 10:-1 11:-0.956589 12:-1 13:-1 14:-1 15:-1 16:-0.929847 17:-1 18:-0.947203 20:-1 21:-0.896612 
0 0 0 0 0 0 0 0 2048 0 0 580.2692286278 1:-0.955109 2:-0.592233 3:-0.998422 4:-0.968155 5:-1 6:-0.724138 7:-0.891403 8:-1 9:-0.828947 10:-1 11:-0.581395 12:-0.999889 13:-0.989135 14:-1 15:-0.978579 16:-0.998724 17:-1 18:-0.986604 20:-1 21:-0.952497 
0 0 0.1344420028267655 0 0 0 0 0 1732.876796546281 1823.63946624841 2048 0 1:-0.950648 2:-0.420712 3:-1 4:-0.981234 5:-1 6:-0.577586 7:-0.954751 8:-1 9:-0.921053 10:-1 11:-0.404651 12:-1 13:-1 14:-1 15:-1 16:-1 17:-1 18:-0.985816 20:-1 21:-0.854349 
0 0 0 0 0 0 -0 -0 964.941010928724 1182.305383257547 1053.006271581892 0 1:-0.982155 2:-0.873786 3:-0.999803 4:-1 5:-1 6:-0.702586 7:-1 8:-1 9:-0.289474 10:-1 11:-0.885271 12:-1 13:-1 14:-1 15:-0.985344 16:-0.993622 17:-1 18:-0.93223 20:-1 21:-0.895215 
-0 0 31.16265316926627 0 0 0 0 0 0 0 0 0 1:-0.539941 2:-1 3:0.148861 4:-0.829969 5:-1 6:-0.224138 7:-1 8:-1 9:-1 10:-1 11:-1 12:0.396878 13:-0.836632 14:-1 15:-0.257046 16:-0.96216 17:-1 18:-0.651694 20:-1 21:-0.687391 
-4.004164064806724 7.247960506896494 0 39.79667694270697 49.13015219654476 6.80430295689456 17.75737771179314 8.777362244002118 3.411492457949838 5.610911161962907 5.543141117516454 5.608979454813571 1:-0.625819 2:-0.789644 3:-0.83723 4:-0.800398 5:-1 6:-0.455819 7:-0.701357 8:-1 9:-1 10:-1 11:-0.674419 12:-0.157312 13:-0.354676 14:-1 15:-0.59301 16:-0.862245 17:-1 18:-0.189913 20:-1 21:-0.545582 
-0 25.43847904514404 0 0 0 0 0 0 0 0 0 0 1:-0.486965 2:-1 3:-0.705041 4:-0.609895 5:-1 6:-0.425647 7:-1 8:-0.652542 9:-1 10:-1 11:-0.869767 12:-0.152884 13:-0.287932 14:-1 15:-0.341601 16:-0.464711 17:-1 18:-0.0338849 20:-1 21:-0.595529 
-0 0 0 0 14.85556233191025 0 0 0 0 0 0 0 1:-0.368186 2:-0.770227 3:-0.652165 4:-0.715098 5:-1 6:0.46444 7:-1 8:-1 9:-1 10:-1 11:-0.699225 12:-0.128861 13:-0.292588 14:-1 15:-0.460541 16:-0.631378 17:-1 18:-0.316785 20:-1 21:-0.409012 
-6.276259756717912 8.519582960119672 65.81762091376577 9.350202896569028 33.24872362176694 5.609870050713669 10.69906774473946 4.310197983092467 8.221407787761763 8.058551600122758 6.729047487603647 5.878116871926854 1:-0.518193 2:-1 3:-0.684719 4:-0.92323 5:-1 6:0.044181 7:-1 8:-1 9:-1 10:-1 11:-0.76124 12:0.0043175 13:-1 14:-1 15:-0.22097 16:-1 17:-1 18:-0.903073 20:-1 21:-0.0943067 
-0 4.990890634818784 0 0 0 0 0.05176899396291443 0 0 0 0 0 1:-0.551931 2:-1 3:-0.640722 4:-0.90617 5:-1 6:-0.0387931 7:-0.954751 8:-1 9:-0.0131579 10:-1 11:-0.44186 12:0.0835824 13:-0.734963 14:-1 15:-0.293687 16:-1 17:-1 18:-0.781718 20:-1 21:-0.0241006 
-10.02018877043781 1.859597504784112 0 56.62216305304508 7.479025732771368 25.14517470822851 16.94504463602386 14.59477924732933 9.252845946580473 7.313230648181978 8.806401634355172 8.435345137516618 1:-0.850272 2:-1 3:-0.48249 4:-0.633779 5:-1 6:-0.65194 7:-1 8:-1 9:-1 10:-1 11:-1 12:-0.306985 13:-0.139309 14:-1 15:-0.691657 16:-0.331207 17:-1 18:-0.739953 20:-1 21:-0.90709 
-0 0 0 0 28.37997670809968 0 0 0 0 0 0 0 1:-0.657326 2:-0.825243 3:-0.393312 4:-0.348877 5:-1 6:-0.273707 7:-1 8:-1 9:-0.473684 10:-1 11:-0.813953 12:-0.26215 13:0.0706248 14:-1 15:-0.63867 16:-0.5625 17:-1 18:-0.636722 20:-1 21:-0.85854 
-0 0 69.11615857157271 0 0 0 0 0 0 0 0 0 1:0.0185418 2:-1 3:0.131696 4:-0.826557 5:-1 6:0.425647 7:-1 8:-1 9:-1 10:-1 11:-1 12:0.725894 13:-0.632518 14:-1 15:0.0231116 16:-0.701105 17:-1 18:-0.388495 20:-1 21:-0.266154 
-0 0 115.5379136818311 0 0 0 0 0 0 0 0 0 1:-0.164366 2:-0.705502 3:0.11828 4:-0.827694 5:-1 6:0.411638 7:-1 8:-1 9:-1 10:-1 11:-0.696124 12:0.253183 13:-0.547924 14:-1 15:-0.127396 16:-0.901361 17:-1 18:-0.687943 20:-1 21:-0.374083 
-0 3.827532648280791 0 0 11.82634034810098 0 0 0 0 0 0 0 1:-0.0517217 2:-0.508091 3:-0.0515932 4:0.110037 5:-1 6:0.184267 7:-0.60181 8:-0.881356 9:-0.171053 10:-1 11:-0.581395 12:-0.200266 13:-0.00853706 14:-1 15:-0.602029 16:-0.516156 17:-1 18:1 20:-1 21:-0.523577 
-0 -0 0 0 43.02864724161645 0 0 11.8040723006296 0 0 22.51980867317797 10.62731170993713 1:-0.55695 2:-0.990291 3:-0.834862 4:-0.827694 5:-1 6:-0.996767 7:-1 8:-0.423729 9:-0.644737 10:-1 11:-0.913178 12:-0.831396 13:-0.740784 14:-1 15:-0.95885 16:-0.820153 17:-1 18:-0.941686 20:-1 21:-0.994062 
-28.86357297306564 -0 0 0 42.76094656685738 23.99255335970991 0 0 41.61942396781244 32.32924771345787 7.43820013936444 31.58636741906753 1:-0.513174 2:-1 3:-0.867811 4:-0.881717 5:-1 6:-1 7:-1 8:-1 9:-1 10:-1 11:-1 12:-0.780804 13:-0.762127 14:-1 15:-0.983089 16:-0.943452 17:-1 18:-0.899921 20:-1 21:-0.99511 
-12.04411990017104 -0 0 177.2536297444266 283.8420061186632 69.33757220883138 193.1463261501633 35.4088894169333 0 6.999937911661518 0 0 1:-0.582044 2:-0.967638 3:-0.905692 4:-0.832812 5:-1 6:-0.534483 7:-1 8:-1 9:-1 10:-1 11:-0.813953 12:-0.949297 13:-0.660846 14:-1 15:-0.925592 16:-0.760629 17:-1 18:-0.588652 20:-1 21:-0.850856 
-5.266077112395283 -0 8.007811022020361 0 0 38.3461295594203 3.228106089198467 8.016323430051997 19.2371348875883 21.27631438064897 1.983842084891633 20.75295533022907 1:-0.538269 2:-0.669903 3:-0.89346 4:-0.867501 5:-1 6:-0.807112 7:-0.520362 8:-0.0423729 9:-0.671053 10:-1 11:-0.578295 12:-0.905458 13:-0.779589 14:-1 15:-0.899098 16:-0.959184 17:-1 18:-0.698976 20:-1 21:-0.890674 
-53.81500038090921 -0 0 0 0 0.1885992733822942 0 0 8.260855251561384 20.16704381443007 25.42877978190739 0 1:-0.569776 2:-1 3:-0.899379 4:-0.862951 5:-1 6:-0.828664 7:-1 8:-1 9:-1 10:-1 11:-1 12:-0.875789 13:-0.764455 14:-1 15:-0.948703 16:-0.755952 17:-1 18:-0.708432 20:-1 21:-0.915124 
-4.9765309541707 -0 0 0 0 31.38198798130587 139.4435856451459 7.903292400562443 19.05605021971183 19.48710402773099 40.9220634171683 26.75291139978747 1:-0.545797 2:-1 3:-0.8978 4:-0.872619 5:-1 6:-0.756466 7:-1 8:-1 9:-0.776316 10:-1 11:-0.882171 12:-0.8697 13:-0.825378 14:-1 15:-0.894025 16:-0.891156 17:-1 18:-0.51773 20:-1 21:-0.864129 
-0 -13.75327940989529 18.05098855006411 0 11.94757797904296 0 0 0 0 0 0 0 1:0.243552 2:-0.935275 3:-0.527671 4:-0.735001 5:-1 6:-0.0517241 7:-1 8:-0.0169492 9:-0.210526 10:-1 11:-0.0542636 12:-0.562382 13:-0.316259 14:-1 15:-0.00901917 16:-0.522109 17:-1 18:-0.457841 20:-1 21:-0.0852253 
-0 -1.609444633490788 0.6278122473898037 58.45220904737467 47.07259621529352 0 0 0 0 0 0 0 1:0.102468 2:-0.802589 3:-0.719838 4:-0.284049 5:-1 6:0.329741 7:-0.773756 8:-0.745763 9:0.0657895 10:-1 11:-0.652713 12:-0.751467 13:-0.421032 14:-1 15:-0.556933 16:-0.639031 17:-1 18:-0.470449 20:-1 21:-0.257772 
-0 -0 0 17.49672440006319 0 0 40.66441788860341 4.885541828591721 0 0 17.09451528976696 0 1:-0.516799 2:-0.796117 3:-0.877281 4:-0.756042 5:-1 6:-0.469828 7:-1 8:-0.533898 9:-0.131579 10:-1 11:-0.848062 12:-0.944537 13:-0.927823 14:-1 15:-0.922773 16:-0.635629 17:-1 18:-0.437352 20:-1 21:-0.699267 
-0 -0 0 0 0 103.5311251488933 0 208.091201292077 8.724208315718696 0 0 20.90185324062568 1:-0.609368 2:-1 3:-0.927197 4:-0.745237 5:-1 6:-0.917026 7:-1 8:-1 9:-1 10:-1 11:-1 12:-0.945976 13:-0.79123 14:-1 15:-0.952086 16:-0.466412 17:-1 18:-0.732072 20:-1 21:-0.979043 
-0 -11.17052876260837 11.90987637462454 0 0 0 0 0 0 0 0 0 1:-0.115293 2:-1 3:-0.7226 4:-0.735001 5:-1 6:-0.655172 7:-1 8:-1 9:-1 10:-1 11:-1 12:-0.777261 13:-0.512224 14:-1 15:-0.555242 16:-0.738946 17:-1 18:-0.721828 20:-1 21:-0.849808 
-0 -0 0 80.88553949825875 0 0 0 0 0 0 0 0 1:-0.493936 2:-0.970874 3:-0.924435 4:-0.757748 5:-1 6:-0.549569 7:-1 8:-1 9:-0.578947 10:-1 11:-0.953488 12:-0.929149 13:-0.661234 14:-1 15:-0.937993 16:-0.781888 17:-1 18:-0.417652 20:-1 21:-0.593084 
-0 -0 0 0 0 0 20.11150469833774 0 4.246260772800128 0 0 0 1:-0.348947 2:-0.472492 3:-0.839006 4:-0.783338 5:-1 6:-0.517241 7:-1 8:-1 9:0.0263158 10:-1 11:-0.652713 12:-0.900476 13:-0.743112 14:-1 15:-0.796505 16:-0.903486 17:-1 18:-0.638298 20:-1 21:-0.451275 
-0 -25.35079049404943 0 69.88051987725372 159.249188989088 0 0 0 0 0 0 0 1:-0.372647 2:-1 3:-0.86426 4:-0.816889 5:-1 6:-0.413793 7:-1 8:-1 9:-1 10:-1 11:-1 12:-0.870807 13:-0.764455 14:-1 15:-0.702931 16:-0.793367 17:-1 18:0.0583136 20:-1 21:-0.545232 
-0 -0 5.681121300448545 0 10.96935425915966 0 0 0 0 0 0 0 1:-0.508156 2:-0.0744337 3:-0.925027 4:-0.683253 5:-1 6:-0.65194 7:-0.248869 8:-0.101695 9:-0.671053 10:-1 11:-0.327132 12:-0.986051 13:-0.850213 14:-1 15:-0.918828 16:-0.589286 17:-1 18:-0.166273 20:-1 21:-0.809291 
-0 -0 0 39.44316649795422 0 0 -0 0 0 0 0 0 1:-0.427576 2:-0.760518 3:-0.883792 4:-0.700881 5:-1 6:-0.304957 7:-1 8:-0.966102 9:-0.947368 10:-1 11:-0.708527 12:-0.956825 13:-0.951882 14:-1 15:-0.884442 16:-0.500425 17:-1 18:-0.0890465 20:-1 21:-0.691582 
-4.691511228442402 -0 -18.58197615305993 7.820072376259495 15.68572882504024 8.309816858505442 8.476287826018909 7.18565908927719 6.400564406511587 3.386841885980133 5.788144170313188 6.430545287025083 1:0.0135229 2:-0.805825 3:-0.338463 4:-0.891953 5:-1 6:-0.53556 7:-0.927602 8:0.0338983 9:-1 10:-1 11:-0.510078 12:0.0769401 13:-0.827707 14:-1 15:-0.310034 16:-1 17:-1 18:-0.940898 20:-1 21:-0.61474 
-0 -105.7608171276586 -0 6.141712992583085 9.080006361343079 0 1.107545837173659 0 0 0 0 0 1:0.112226 2:-0.909385 3:0.221861 4:-0.879443 5:-1 6:0.259698 7:-1 8:-0.855932 9:-0.960526 10:-1 11:-0.792248 12:0.0406288 13:-0.744276 14:-1 15:-0.487599 16:-0.783163 17:-1 18:-0.440504 20:-1 21:-0.533357 
-6.401422608924986 -0.9279895275962479 -8.878408146880389 6.506131853551119 7.408572522868557 3.320742837363591 6.708618030354192 2.81287302854776 4.71110917765158 7.472734787066907 3.848828114705237 5.089235078553957 1:-0.260839 2:1 3:-0.900562 4:-0.908445 5:-1 6:-0.186422 7:0.266968 8:0.271186 9:0.105263 10:-1 11:-0.807752 12:-0.951511 13:-0.836244 14:-1 15:-0.763247 16:-0.882228 17:-1 18:-0.794326 20:-1 21:-0.671324 
-5.487208788150175 -3.549957144394349 -6.070959137854813 6.318018898963754 7.483540998094105 5.749528273186451 7.631400920746668 15.10439514811511 4.740566230320888 4.696875580710976 6.693257168227219 5.047986325046772 1:-0.538269 2:-1 3:-0.906679 4:-0.82087 5:0.0309278 6:-0.525862 7:-1 8:-1 9:-1 10:-1 11:-1 12:-0.97642 13:-0.902988 14:-1 15:-0.905862 16:-0.877126 17:-1 18:-0.660362 20:1 21:-0.650017 
-0 -4.546501548264847 -0 0 0 0 0 0 0 0 0 0 1:-0.248013 2:-1 3:0.0638256 4:-0.891385 5:-1 6:-0.0334052 7:-1 8:-0.686441 9:-0.921053 10:-1 11:-0.184496 12:1 13:-0.876989 14:-1 15:0.588501 16:-1 17:-1 18:-0.828211 20:-1 21:0.252882 
-0 -37.24679266527777 -0 0 0 0 0 0 0 0 0 0 1:-0.301826 2:-0.864078 3:0.299596 4:-0.756042 5:-1 6:0.155172 7:-1 8:-0.991525 9:-1 10:-1 11:-0.494574 12:0.684712 13:-0.887466 14:-1 15:0.476888 16:-0.923044 17:-1 18:-0.699764 20:-1 21:0.172896 
-0 -0 -9.861742070871099 0 5.962081929269472 0 0 0 0 0 0 0 1:0.749338 2:-0.990291 3:-0.433363 4:-0.397782 5:-1 6:0.435345 7:-1 8:-0.516949 9:-1 10:-1 11:-0.820155 12:-0.0192627 13:-0.414047 14:-1 15:-0.197858 16:-0.540391 17:-1 18:-0.261623 20:-1 21:0.207475 
-0 -11.29069761287668 -0 0 0 0 0 0 0 0 0 0 1:0.296807 2:-0.200647 3:0.600474 4:-0.528007 5:-1 6:-0.244612 7:-1 8:-0.728814 9:-0.973684 10:-1 11:-0.40155 12:0.539245 13:-0.147846 14:-1 15:-0.119504 16:-0.730867 17:-1 18:-0.0338849 20:-1 21:-0.173594 
-0.7208393864343462 -118.3115907103674 -0 4.312557061999955 8.361692891392993 2.738140886802752 3.977238690822425 0.575159031517322 0.503146147235349 2.971784045571863 1.604896509762219 0.1218454255729086 1:-0.2416 2:-1 3:-0.101707 4:-0.956213 5:-1 6:0.176724 7:-1 8:-1 9:-1 10:-1 11:-1 12:0.162515 13:-0.998836 14:-1 15:0.078354 16:-1 17:-1 18:-0.911742 20:-1 21:-0.0387705 
-0 -0 -0.8845239858811179 0 0 0 0 0 0 0 0 0 1:0.237139 2:-0.864078 3:0.651376 4:-0.844754 5:-1 6:0.0226293 7:-1 8:0.101695 9:-1 10:-1 11:0.795349 12:0.266467 13:-0.679084 14:-1 15:0.27903 16:-0.864796 17:-1 18:0.391647 20:-1 21:0.327279 
-0 -0 -0 -0 2048 0 0 0 0 0 0 0 1:-0.854454 2:-0.886731 3:-0.639736 4:-0.753767 5:-1 6:-0.519397 7:-1 8:-0.983051 9:-0.986842 10:-1 11:-0.696124 12:-0.570132 13:-0.726038 14:-1 15:-0.883315 16:-0.872024 17:-1 18:-0.725768 20:-1 21:-0.709046 
-0 -0 -0 -0 2048 0 0 0 0 0 0 0 1:-0.807612 2:-1 3:-0.816908 4:-0.652545 5:-1 6:-0.520474 7:-1 8:-1 9:-1 10:-1 11:-1 12:-0.821654 13:-0.612728 14:-1 15:-0.666291 16:-0.635204 17:-1 18:-0.824271 20:-1 21:-0.779951 
-0 -0 -0 -0.5833152031793177 0 0 0 0 0 0 0 0 1:-0.831312 2:-1 3:-0.734438 4:-0.893659 5:-1 6:0.15625 7:-1 8:-1 9:-1 10:-1 11:-1 12:-0.677626 13:-0.615056 14:-1 15:-0.626832 16:-0.811224 17:-1 18:-0.817967 20:-1 21:-0.515543 
-0 -35.0755210622297 -0 -0 0 0 0 0 0 0 0 0 1:-0.816534 2:-0.951456 3:-0.774687 4:-0.783907 5:-1 6:-0.662716 7:-1 8:-1 9:-1 10:-1 11:-0.810853 12:-0.670541 13:-0.312379 14:-1 15:-0.931229 16:-0.650935 17:-1 18:-0.883373 20:-1 21:-0.874258 
-0 -3.124665632492632 -0 -0 0 0 0 0 0 0 0 0 1:-0.726474 2:-0.433657 3:-0.835849 4:-0.562695 5:-1 6:0.193966 7:-1 8:-1 9:-1 10:-1 11:-0.531783 12:-0.785896 13:-0.263873 14:-1 15:-0.849493 16:-0.620748 17:-1 18:-0.276596 20:-1 21:-0.293049 
-0 -16.32440176729192 -0 -0 0 0 0 0 0 0 0 0 1:-0.747944 2:-1 3:-0.808425 4:-0.574069 5:-1 6:-0.359914 7:-1 8:-1 9:-1 10:-1 11:-1 12:-0.761098 13:-0.447808 14:-1 15:-0.70575 16:-0.588435 17:-1 18:-0.070134 20:-1 21:-0.732099 
-51.15304731463281 -0 -0 -0 0 95.45806388982916 131.0389435125022 50.51222568795775 4.317846246851105 18.50239850151865 40.36743551624765 14.37403673736385 1:-0.846368 2:-1 3:-0.7445 4:-0.782769 5:-1 6:-0.505388 7:-1 8:-1 9:-1 10:-1 11:-1 12:-0.775711 13:-0.708964 14:-1 15:-0.933484 16:-0.756378 17:-1 18:-0.829787 20:-1 21:-0.754803 
-7.102306855973949 -0 -0 -0 0 0 232.7428467680894 0 0 0 0 0 1:-0.767461 2:-1 3:-0.88833 4:-0.881149 5:-1 6:0.203664 7:-1 8:-1 9:-1 10:-1 11:-1 12:-0.931916 13:-0.708964 14:-1 15:-0.721533 16:-0.892432 17:-1 18:-0.602049 20:-1 21:-0.480265 
-0 -0 -0 -0 1549.468678356781 19.16467847889119 1108.573421363982 98.96358566024075 0 0.2004392017579368 23.84437135255314 0 1:-0.809285 2:-0.737864 3:-0.908454 4:-0.766847 5:-1 6:-0.212284 7:-1 8:-1 9:-0.697368 10:-1 11:-0.714729 12:-0.842688 13:-0.866899 14:-1 15:-0.728861 16:-0.856718 17:-1 18:-0.27502 20:-1 21:-0.673769 
-0 -0 -103.2411516856398 -1.334474437577323 2048 6.060904861520294 0 0 0 0 0 0 1:-0.609647 2:-0.614887 3:-0.7883 4:-0.578049 5:-1 6:-0.206897 7:-1 8:-0.728814 9:0.0263158 10:-1 11:-0.472868 12:-0.886195 13:-0.563834 14:-1 15:-0.733935 16:-0.862245 17:-1 18:-0.161545 20:-1 21:-0.645826 
-0 -0 -0 -1.360453405506934 0 0 148.6908293159755 0 0 0 0 0 1:-0.59013 2:-0.944984 3:-0.833087 4:-0.535399 5:-1 6:0.327586 7:-1 8:-0.610169 9:-0.934211 10:-1 11:-0.764341 12:-0.897819 13:-0.781917 14:-1 15:-0.698422 16:-0.772109 17:-1 18:-0.49803 20:-1 21:-0.44394 
-0 -0 -13.36836006197631 -0 0 0 0 0 0 0 0 0 1:-0.645337 2:-1 3:-0.858735 4:-0.626386 5:-1 6:-0.0290948 7:-1 8:-1 9:-1 10:-1 11:-1 12:-0.889073 13:-0.68995 14:-1 15:-0.892334 16:-0.601616 17:-1 18:-0.171001 20:-1 21:-0.722319 
-0 -0 -0 -0 455.7309754581178 0 0 0 0 0 0 0 1:-0.834379 2:-0.721683 3:-0.839006 4:-0.448394 5:-1 6:-0.515086 7:-1 8:-0.830508 9:-0.842105 10:-1 11:-0.937984 12:-0.850105 13:-0.540939 14:-1 15:-0.724915 16:-0.649235 17:-1 18:-0.249803 20:-1 21:-0.842124 
-0 -0 -0 -0 0 17.01785325429043 0 0 0 0 0 0 1:-0.796459 2:-0.789644 3:-0.789681 4:-0.729883 5:-1 6:-0.387931 7:-0.963801 8:-1 9:-0.644737 10:-1 11:-0.497674 12:-0.70641 13:-0.569655 14:-1 15:-0.846674 16:-0.821854 17:-1 18:-0.576832 20:-1 21:-0.756549 
-0 -0 -30.00648716281164 -0 2048 16.21235293953645 257.3292162249842 108.105791034352 0 0 0 34.72938330140513 1:-0.772201 2:-1 3:-0.839598 4:-0.673585 5:-1 6:-0.876078 7:-1 8:-1 9:-1 10:-1 11:-1 12:-0.658696 13:-0.8052 14:-1 15:-0.945321 16:-0.840561 17:-1 18:-0.650118 20:-1 21:-0.915124 
-0 -0 -13.59674297368402 -0 0 0 0 0 0 0 0 0 1:-0.795065 2:-1 3:-0.799941 4:-0.839636 5:-1 6:-0.724138 7:-1 8:-1 9:-1 10:-1 11:-1 12:-0.575446 13:-0.844005 14:-1 15:-0.873732 16:-0.915391 17:-1 18:-0.747045 20:-1 21:-0.903947 
-0 -0 -0 -0 2048 0 0 0 0 0 0 0 1:-0.838004 2:-1 3:-0.739371 4:-0.753199 5:-1 6:-0.470905 7:-1 8:-1 9:-1 10:-1 11:-1 12:-0.694786 13:-0.591773 14:-1 15:-0.757046 16:-0.872449 17:-1 18:-0.525611 20:-1 21:-0.739434 
-67.45970072373831 -0 -0 -0 0 0 0 0 47.61055661946141 41.95282204162915 44.90426348702938 40.65070870668784 1:-0.880942 2:-1 3:-0.762652 4:-0.869775 5:-1 6:-0.543103 7:-1 8:-1 9:-1 10:-1 11:-1 12:-0.627477 13:-0.895615 14:-1 15:-0.868658 16:-0.892857 17:-1 18:-0.687943 20:-1 21:-0.829549 
-0 -0 -0 -0 768.2862990550867 0 0 0 0 0 0 0 1:-0.805939 2:-1 3:-0.738384 4:-0.574637 5:-1 6:-0.894397 7:-1 8:-1 9:-1 10:-1 11:-1 12:-0.668991 13:-0.591385 14:-1 15:-0.861894 16:-0.679422 17:-1 18:-0.643026 20:-1 21:-0.938875 
-0 -27.86705630631018 -0 -0 0 0 0 0 0 0 0 0 1:-0.802314 2:-1 3:-0.750025 4:-0.589423 5:-1 6:-0.563578 7:-1 8:-1 9:-1 10:-1 11:-1 12:-0.580649 13:-0.493209 14:-1 15:-0.874859 16:-0.801871 17:-1 18:-0.579196 20:-1 21:-0.869368 
-0 -0 -0 -0 1971.439534008982 0 0 0 0 0 0 0 1:-0.766625 2:-1 3:-0.648219 4:-0.859539 5:-1 6:-0.301724 7:-1 8:-1 9:-1 10:-1 11:-1 12:-0.563379 13:-0.83896 14:-1 15:-0.864713 16:-0.933673 17:-1 18:-0.730496 20:-1 21:-0.740831 
-0 -0 -0 -0 0 0 150.9873008139196 0 0 0 0 0 1:-0.829639 2:-1 3:-0.846108 4:-0.611032 5:-1 6:-0.452586 7:-1 8:-1 9:-1 10:-1 11:-1 12:-0.867707 13:-0.461001 14:-1 15:-0.852875 16:-0.877126 17:-1 18:-0.565012 20:-1 21:-0.859937 
-0 -0 -0 -0 1220.272680203332 0 0 0 0 0 0 0 1:-0.81291 2:-0.877023 3:-0.895827 4:-0.700313 5:-1 6:-0.292026 7:-1 8:-1 9:-1 10:-1 11:-0.916279 12:-0.915089 13:-0.684905 14:-1 15:-0.777903 16:-0.790391 17:-1 18:-0.216706 20:-1 21:-0.706601 
-0 -0 -48.97727505695816 -0 745.8906239777371 0 0 0 8.161263990548914 0 24.61002354161526 0 1:-0.795065 2:-1 3:-0.799941 4:-0.839636 5:-1 6:-0.724138 7:-1 8:-1 9:-1 10:-1 11:-1 12:-0.575446 13:-0.844005 14:-1 15:-0.873732 16:-0.915391 17:-1 18:-0.747045 20:-1 21:-0.903947 
-0 -0 -16.79762235593003 -0 1362.189053709661 0 0 0 0 0 0 0 1:-0.602119 2:-0.964401 3:-0.823814 4:-0.833949 5:-1 6:0.211207 7:-1 8:-1 9:-1 10:-1 11:-0.469767 12:-0.75346 13:-0.567326 14:-1 15:-0.674183 16:-0.804422 17:-1 18:-0.830575 20:-1 21:-0.220049 
-0 -0 -0 -0 2048 0 0 0 0 0 0 0 1:-0.838004 2:-1 3:-0.739371 4:-0.753199 5:-1 6:-0.470905 7:-1 8:-1 9:-1 10:-1 11:-1 12:-0.694786 13:-0.591773 14:-1 15:-0.757046 16:-0.872449 17:-1 18:-0.525611 20:-1 21:-0.739434 
-0 -0 -0 -12.28912793726238 2048 0 0 0 0 0 0 0 1:-0.766625 2:-1 3:-0.648219 4:-0.859539 5:-1 6:-0.301724 7:-1 8:-1 9:-1 10:-1 11:-1 12:-0.563379 13:-0.83896 14:-1 15:-0.864713 16:-0.933673 17:-1 18:-0.730496 20:-1 21:-0.740831 
-0 -0 -0 -0 2048 344.7962703607524 36.18815519704228 0 11.99102880716429 0 0 0 1:-0.87676 2:-1 3:-0.829535 4:-0.788456 5:-1 6:-0.601293 7:-1 8:-1 9:-1 10:-1 11:-1 12:-0.708403 13:-0.757858 14:-1 15:-0.661218 16:-0.789116 17:-1 18:-0.80063 20:-1 21:-0.803353 
-0 -0 -0 -0 0 0 364.0738726102126 0 0 0 0 0 1:-0.855291 2:-1 3:-0.760087 4:-0.723628 5:-1 6:-0.627155 7:-1 8:-1 9:-1 10:-1 11:-1 12:-0.673088 13:-0.785797 14:-1 15:-0.853439 16:-0.846514 17:-1 18:-0.761229 20:-1 21:-0.815578 
-0 -0 -0 -0 0 0 0 0 37.57002717394715 48.29039591846121 0 22.14427370264832 1:-0.826014 2:-0.87055 3:-0.887343 4:-0.869207 5:-1 6:-0.190733 7:-1 8:-1 9:-1 10:-1 11:-0.631008 12:-0.745378 13:-0.638727 14:-1 15:-0.816798 16:-0.872024 17:-1 18:-0.6974 20:-1 21:-0.640936 
-0 -0 -0 -0 0 61.38235927574507 0 54.38964482723404 0 0 0 0 1:-0.793671 2:-1 3:-0.892276 4:-0.501279 5:-1 6:-0.807112 7:-1 8:-1 9:-1 10:-1 11:-1 12:-0.818001 13:-0.528522 14:-1 15:-1 16:-0.372449 17:-1 18:-0.799054 20:-1 21:-0.962277 
-0 -0 -0 -0 221.2069226362879 0 0 0 0 0 0 0 1:-0.706399 2:-1 3:-0.881622 4:-0.517202 5:-1 6:-0.429957 7:-1 8:-1 9:-1 10:-1 11:-1 12:-0.729326 13:-0.816065 14:-1 15:-0.856821 16:-0.628401 17:-1 18:-0.0992908 20:-1 21:-0.615089 
-0 -15.51970900318301 -0 -0 2048 0 0 0 0 0 0 0 1:-0.730657 2:-1 3:-0.706225 4:-0.635485 5:-1 6:-0.454741 7:-1 8:-1 9:-1 10:-1 11:-1 12:-0.682719 13:-0.642608 14:-1 15:-0.601466 16:-0.795493 17:-1 18:-0.55792 20:-1 21:-0.230877 
-0 -0 -215.7820080438737 -0 2048 0 0 0 0 0 0 0 1:-0.56643 2:-1 3:-0.901549 4:-0.517771 5:-1 6:-0.307112 7:-1 8:-1 9:-1 10:-1 11:-1 12:-0.864497 13:-0.649981 14:-1 15:-0.803269 16:-0.619048 17:-1 18:-0.315997 20:-1 21:-0.530213 
-0 -0 -0 -0 9.220107138507281 0 0 0 0 0 0 0 1:-0.697477 2:-0.656958 3:-0.760481 4:-0.793574 5:-1 6:-0.294181 7:-0.257919 8:-0.347458 9:-0.763158 10:-1 11:-0.342636 12:-0.691907 13:-0.728754 14:-1 15:-0.651071 16:-0.885204 17:-1 18:-0.468873 20:-1 21:-0.404471 
-0 -0 -0 -0 2048 0 0 0 0 0 0 0 1:-0.522097 2:-1 3:-0.894051 4:-0.439864 5:-1 6:-0.0840517 7:-1 8:-1 9:-1 10:-1 11:-1 12:-0.854755 13:-0.636011 14:-1 15:-0.796505 16:-0.582483 17:-1 18:-0.215918 20:-1 21:-0.478519 
-0 -7.857689120813646 -1.642141724457434 -15.53112219983146 176.0792528645035 8.622352277420733 26.74470264750428 0 0 4.498480287486921 0 0 1:-0.697477 2:-0.656958 3:-0.760481 4:-0.793574 5:-1 6:-0.294181 7:-0.257919 8:-0.347458 9:-0.763158 10:-1 11:-0.342636 12:-0.691907 13:-0.728754 14:-1 15:-0.651071 16:-0.885204 17:-1 18:-0.468873 20:-1 21:-0.404471 
-0 -0 -0 -0 -2048 0 0 0 0 0 0 0 1:-0.688554 2:-0.854369 3:-0.689652 4:-0.557577 5:-1 6:-0.181034 7:-1 8:-0.915254 9:-0.776316 10:-1 11:-0.702326 12:-0.622827 13:-0.799379 14:-1 15:-0.756483 16:-0.804847 17:-1 18:-0.388495 20:-1 21:-0.495983 
-0 -0 -0 -0 -2048 0 0 0 0 0 0 0 1:-0.794786 2:-1 3:-0.706619 4:-0.617856 5:-1 6:-0.358836 7:-1 8:-1 9:-1 10:-1 11:-1 12:-0.594598 13:-0.664726 14:-1 15:-0.754791 16:-0.840136 17:-1 18:-0.582348 20:-1 21:-0.660147 
-0 -0 -0 -0 -2048 0 0 0 0 0 0 0 1:-0.848878 2:-1 3:-0.618625 4:-0.793005 5:-1 6:-0.264009 7:-1 8:-1 9:-1 10:-1 11:-1 12:-0.585963 13:-0.700427 14:-1 15:-0.736753 16:-0.894983 17:-1 18:-0.602837 20:-1 21:-0.581209 
-0 -0 -0 -0 -1221.854951508794 0 0 0 0 0 0 0 1:-0.83187 2:-0.864078 3:-0.783171 4:-0.926642 5:-1 6:-0.295259 7:-1 8:-1 9:-1 10:-1 11:-0.962791 12:-0.653271 13:-0.901048 14:-1 15:-0.720406 16:-0.980867 17:-1 18:-0.744681 20:-1 21:-0.482012 
-0 -44.54789216061607 -0 -0 -2048 0 0 0 0 0 0 0 1:-0.831312 2:-0.847896 3:-0.732663 4:-0.897071 5:-1 6:-0.358836 7:-1 8:-1 9:-1 10:-1 11:-0.965891 12:-0.533599 13:-0.795887 14:-1 15:-0.681511 16:-0.947279 17:-1 18:-0.676123 20:-1 21:-0.65875 
-0 -0 -128.0900145966426 -0 -38.74911450531511 0 0 0 0 0 0 0 1:-0.418096 2:-0.983819 3:-0.809411 4:-0.560421 5:-1 6:-0.515086 7:-1 8:-0.542373 9:-0.947368 10:-1 11:-0.693023 12:-0.668106 13:-0.502134 14:-1 15:-0.771702 16:-0.823554 17:-1 18:-0.281324 20:-1 21:-0.604261 
-0 -0 -1.040929901505997 -0 -0 0 0 0 0 0 0 0 1:-0.411404 2:-0.983819 3:-0.781395 4:-0.749787 5:-1 6:-0.354526 7:-1 8:-0.59322 9:-0.960526 10:-1 11:-0.910078 12:-0.672977 13:-0.620101 14:-1 15:-0.621195 16:-0.878827 17:-1 18:-0.733649 20:-1 21:-0.489696 
-24.79656945059278 -0 -124.0993104957733 -0 -449.0272949375662 84.62171919039658 549.1813012161126 94.13497673667869 18.54415936762872 18.84910651457691 29.77840001224398 10.95901546049313 1:-0.768298 2:-0.579288 3:-0.923449 4:-0.750924 5:-1 6:-0.601293 7:-1 8:-1 9:-1 10:-1 11:-0.928682 12:-0.929591 13:-0.797439 14:-1 15:-0.857384 16:-0.617347 17:-1 18:-0.345154 20:-1 21:-0.784143 
-0 -0 -0 -0 -2048 2.220390642919942 905.062558929847 0 0 0 0 0 1:-0.783354 2:-0.851133 3:-0.88833 4:-0.670742 5:-1 6:-0.570043 7:-1 8:-1 9:-0.855263 10:-1 11:-0.996899 12:-0.903354 13:-0.575475 14:-1 15:-0.767756 16:-0.697704 17:-1 18:-0.489362 20:-1 21:-0.817674 
-0 -0 -34.26239641874946 -1.430892572811043 -0 0 0 0 0 0 0 0 1:-0.290395 2:-1 3:-0.569695 4:-0.861245 5:-1 6:0.320043 7:-1 8:-1 9:-1 10:-1 11:-1 12:-0.586073 13:-0.718277 14:-1 15:-0.674746 16:-0.835884 17:-1 18:-0.388495 20:-1 21:-0.554663 
-0 -0 -0 -12.62118603985159 -0 0 0 0 0 0 0 0 1:-0.181096 2:-0.951456 3:-0.661241 4:-0.733864 5:-1 6:0.586207 7:-1 8:-0.915254 9:-1 10:-1 11:-0.807752 12:-0.66091 13:-0.596042 14:-1 15:-0.340474 16:-0.826531 17:-1 18:-0.884949 20:-1 21:-0.299686 
-0 -30.05808416316236 -0 -0 -0 0 0 0 0 0 0 0 1:-0.22738 2:-0.944984 3:-0.52412 4:-0.220927 5:-1 6:-0.018319 7:-1 8:-0.991525 9:-0.828947 10:-1 11:-0.764341 12:-0.61541 13:-0.429181 14:-1 15:-0.759301 16:-0.582058 17:-1 18:-0.154452 20:-1 21:-0.632553 
-0 -46.50741117715415 -0 -0 -0 0 0 0 0 0 0 0 1:-0.686045 2:-0.97411 3:-0.650784 4:-0.540517 5:-1 6:-0.101293 7:-1 8:-1 9:-1 10:-1 11:-0.789147 12:-0.588509 13:-0.131936 14:-1 15:-0.336528 16:-0.876276 17:-1 18:-0.269504 20:-1 21:-0.0880196 
-0 -4.736606447932123 -0 -0 -225.0365445672687 0 0 0 0 0 0 0 1:-0.458804 2:-0.883495 3:-0.521555 4:-0.859539 5:-1 6:-0.288793 7:-1 8:0.0677966 9:-0.184211 10:-1 11:-0.0821705 12:-0.55419 13:-0.750873 14:-1 15:-0.543968 16:-0.897959 17:-1 18:-0.663515 20:-1 21:-0.466643 
-0 -0 -0 -0 -1642.651036434619 0 0 0 0 0 0 0 1:-0.51903 2:-0.961165 3:-0.801914 4:-0.257322 5:-1 6:-0.420259 7:-1 8:-1 9:-0.986842 10:-1 11:-0.83876 12:-0.781689 13:-0.545596 14:-1 15:-0.883315 16:-0.565901 17:-1 18:-0.27108 20:-1 21:-0.676912 
-0 -0 -0.9521722711816152 -0 -26.42974169911943 0 0 0 0 0 0 0 1:-0.448766 2:-0.925566 3:-0.769754 4:-0.39039 5:-1 6:0.0280172 7:-1 8:-1 9:0.0263158 10:-1 11:-0.420155 12:-0.727665 13:-0.687233 14:-1 15:-0.639797 16:-0.668367 17:-1 18:-0.0874704 20:-1 21:-0.451624 
-0 -0.1273451289751261 -0 -11.05700205540669 -0 0 0 0 0 0 0 0 1:-0.281193 2:-0.148867 3:-0.712736 4:-0.730452 5:-1 6:-0.376078 7:-1 8:-0.940678 9:-1 10:-1 11:-0.497674 12:-0.653493 13:-0.638339 14:-1 15:-0.557497 16:-0.807398 17:-1 18:-0.416864 20:-1 21:-0.434509 
-0 -0 -56.65316855568404 -0 -0 0 0 0 0 0 0 0 1:-0.258609 2:-1 3:-0.770741 4:-0.624111 5:-1 6:-0.207974 7:-1 8:-1 9:-1 10:-1 11:-1 12:-0.62958 13:-0.680248 14:-1 15:-0.514092 16:-0.879252 17:-1 18:-0.236407 20:-1 21:-0.378275 
-0 -0 -0 -0 -2048 0 0 0 0 0 0 0 1:-0.783354 2:-1 3:-0.844727 4:-0.876599 5:-1 6:-0.734914 7:-1 8:-1 9:-1 10:-1 11:-1 12:-0.746485 13:-0.672099 14:-1 15:-0.886133 16:-0.845663 17:-1 18:-0.787234 20:-1 21:-0.930143 
-190.9564527071448 -0 -0 -0 -2048 982.2381095753722 874.5245400500359 519.5816758434823 167.3899986061507 139.6188282130727 168.5672655340261 197.8461193928393 1:-0.841628 2:-1 3:-0.868206 4:-0.888541 5:-1 6:-0.831897 7:-1 8:-1 9:-1 10:-1 11:-1 12:-0.690025 13:-0.896391 14:-1 15:-0.88106 16:-0.991497 17:-1 18:-0.850276 20:-1 21:-0.898708 
-0 -0 -0 -0 -0 63.26049889585802 2048 0 0 0 0 0 1:-0.815419 2:-0.964401 3:-0.81533 4:-0.881717 5:-1 6:-0.548491 7:-1 8:-1 9:-0.986842 10:-1 11:-0.677519 12:-0.767962 13:-0.869616 14:-1 15:-0.616122 16:-0.933248 17:-1 18:-0.643814 20:-1 21:-0.69752 
-0 -0 -0 -0 -0 0 1448.071580867375 0 0 0 0 0 1:-0.724523 2:-0.993528 3:-0.82046 4:-0.779357 5:-1 6:-0.375 7:-1 8:-1 9:-0.855263 10:-1 11:-0.851163 12:-0.820325 13:-0.796275 14:-1 15:-0.643179 16:-0.846939 17:-1 18:-0.71316 20:-1 21:-0.50716 
-0 -0 -0 -28.75519992096647 -0 0 0 0 0 0 0 0 1:-0.436777 2:-0.964401 3:-0.537141 4:-0.861245 5:-1 6:-0.283405 7:-1 8:-0.186441 9:-0.657895 10:-1 11:-0.603101 12:-0.592494 13:-0.754754 14:-1 15:-0.531003 16:-0.898384 17:-1 18:-0.635934 20:-1 21:-0.418093 
-0 -0 -0 -0 -2048 0 0 0 0 0 0 0 1:-0.51903 2:-0.961165 3:-0.801914 4:-0.257322 5:-1 6:-0.420259 7:-1 8:-1 9:-0.986842 10:-1 11:-0.83876 12:-0.781689 13:-0.545596 14:-1 15:-0.883315 16:-0.565901 17:-1 18:-0.27108 20:-1 21:-0.676912 
-0 -0 -56.08699386617055 -0 -104.0454578536261 0 0 0 0 0 0 0 1:-0.448766 2:-0.925566 3:-0.769754 4:-0.39039 5:-1 6:0.0280172 7:-1 8:-1 9:0.0263158 10:-1 11:-0.420155 12:-0.727665 13:-0.687233 14:-1 15:-0.639797 16:-0.668367 17:-1 18:-0.0874704 20:-1 21:-0.451624 
-0 -0 -197.6853312640137 -0 -2048 0 0 0 0 0 0 0 1:-0.783354 2:-1 3:-0.844727 4:-0.876599 5:-1 6:-0.734914 7:-1 8:-1 9:-1 10:-1 11:-1 12:-0.746485 13:-0.672099 14:-1 15:-0.886133 16:-0.845663 17:-1 18:-0.787234 20:-1 21:-0.930143 
-0 -0 -0 -0 -697.2236486444455 0 0 0 0 0 0 0 1:-0.709745 2:-0.993528 3:-0.817106 4:-0.771396 5:-1 6:-0.373922 7:-1 8:-0.90678 9:-0.986842 10:-1 11:-0.851163 12:-0.800731 13:-0.756306 14:-1 15:-0.635851 16:-0.861395 17:-1 18:-0.630418 20:-1 21:-0.534404 
-0 -0 -0 -0 -6.33053720052667 0 0 0 0 0 0 0 1:-0.701659 2:-0.957929 3:-0.748841 4:-0.756042 5:-1 6:-0.59375 7:-1 8:-0.245763 9:-0.986842 10:-1 11:-0.668217 12:-0.703199 13:-0.476911 14:-1 15:-0.55186 16:-0.861395 17:-1 18:0.169425 20:-1 21:-0.375131 
-0 -0 -0 -0 -58.47538925102614 0 0.01943652022197445 0.08161854215710354 0 0 0 0 1:-0.797574 2:-0.880259 3:-0.796784 4:-0.881149 5:-1 6:-0.409483 7:-1 8:-0.567797 9:-0.0526316 10:-1 11:0.156589 12:-0.738182 13:-0.901824 14:-1 15:-0.391206 16:-0.951956 17:-1 18:-0.756501 20:-1 21:-0.338456 
-0 -0 -0 -0 -2048 0 0 0 0 0 0 0 1:-0.796459 2:-0.983819 3:-0.8102 4:-0.696332 5:-1 6:-0.266164 7:-1 8:-1 9:-1 10:-1 11:-0.83876 12:-0.836599 13:-0.716337 14:-1 15:-0.714769 16:-0.72534 17:-1 18:-0.471237 20:-1 21:-0.509256 
-0 -0 -0 -0 -0.7216713089000635 0 0 0 0 0 0 0 1:-0.522933 2:-0.990291 3:-0.714314 4:-0.852147 5:-1 6:0.595905 7:-1 8:-1 9:-1 10:-1 11:-0.789147 12:-0.720248 13:-0.911525 14:-1 15:-0.560879 16:-0.860544 17:-1 18:-0.76911 20:-1 21:-0.0838282 
-0 -18.94244186135413 -0 -0.1173429389726546 -221.3353033495054 0 0 0 0 0 0 0 1:-0.533807 2:-0.262136 3:-0.569695 4:-0.598521 5:-1 6:0.15625 7:-0.493213 8:-0.957627 9:-0.0394737 10:-1 11:-0.379845 12:-0.582641 13:-0.54482 14:-1 15:-0.63867 16:-0.905187 17:-1 18:-0.0961387 20:-1 21:-0.477122 
-0 -0 -0 -0 -528.4246972907117 0 0 0 0 0 0 0 1:-0.683257 2:-0.996764 3:-0.675644 4:-0.719647 5:-1 6:-0.0409483 7:-1 8:-0.957627 9:-0.947368 10:-1 11:-0.80155 12:-0.680062 13:-0.698875 14:-1 15:-0.47407 16:-0.865646 17:-1 18:-0.337273 20:-1 21:-0.516242 
-0 -0 -0 -0 -736.3849231080148 0 113.6771238282636 1.56521469448057 0 0 7.885760866770706 0 1:-0.841907 2:-0.770227 3:-0.846898 4:-0.657094 5:-1 6:-0.247845 7:-1 8:-0.957627 9:0.828947 10:-1 11:-0.643411 12:-0.854423 13:-0.322468 14:-1 15:-0.725479 16:-0.826956 17:-1 18:-0.265563 20:-1 21:-0.640936 
-0 -0 -0 -0 -2048 0 0 0 0 0 0 0 1:-0.708908 2:-1 3:-0.746473 4:-0.691214 5:-1 6:-0.243534 7:-1 8:-1 9:-1 10:-1 11:-1 12:-0.821986 13:-0.629414 14:-1 15:-0.772266 16:-0.77466 17:-1 18:-0.542159 20:-1 21:-0.630108 
-0 -0 -0 -0 -213.4553044145739 0 87.4236801377578 0 0 0 0 0 1:-0.701659 2:-0.957929 3:-0.748841 4:-0.756042 5:-1 6:-0.59375 7:-1 8:-0.245763 9:-0.986842 10:-1 11:-0.668217 12:-0.703199 13:-0.476911 14:-1 15:-0.55186 16:-0.861395 17:-1 18:0.169425 20:-1 21:-0.375131 
-5.635484333882184 -0 -0 -0 -0 56.08165810918995 66.88490910711134 9.106244850787132 16.88222404681881 19.79678552320594 10.97772147117676 2.431622096344861 1:-0.797574 2:-0.880259 3:-0.796784 4:-0.881149 5:-1 6:-0.409483 7:-1 8:-0.567797 9:-0.0526316 10:-1 11:0.156589 12:-0.738182 13:-0.901824 14:-1 15:-0.391206 16:-0.951956 17:-1 18:-0.756501 20:-1 21:-0.338456 
-0 -0 -0 -0 -2048 0 0 0 0 0 0 0 1:-0.796459 2:-0.983819 3:-0.8102 4:-0.696332 5:-1 6:-0.266164 7:-1 8:-1 9:-1 10:-1 11:-0.83876 12:-0.836599 13:-0.716337 14:-1 15:-0.714769 16:-0.72534 17:-1 18:-0.471237 20:-1 21:-0.509256 
-0 -0 -0 -0 -261.6385113349803 0 0 0 0 0 0 0 1:-0.522933 2:-0.990291 3:-0.714314 4:-0.852147 5:-1 6:0.595905 7:-1 8:-1 9:-1 10:-1 11:-0.789147 12:-0.720248 13:-0.911525 14:-1 15:-0.560879 16:-0.860544 17:-1 18:-0.76911 20:-1 21:-0.0838282 
-0 -0 -0 -0 -0 -29.25851995471544 0 0 0 0 0 0 1:-0.961522 2:-0.961165 3:-0.815725 4:-0.793574 5:-1 6:-0.923491 7:-1 8:-0.881356 9:-0.526316 10:-1 11:-0.789147 12:-0.802723 13:-0.67986 14:-1 15:-0.936866 16:-0.827381 17:-1 18:-0.840032 20:-1 21:-0.947607 
-0 -0 -0 -0 -0 -0 0 2048 0 0 0 0 1:-0.955388 2:-0.770227 3:-0.95403 4:-0.79528 5:-1 6:-0.842672 7:-1 8:-1 9:-1 10:-1 11:-0.84186 12:-0.964021 13:-0.828871 14:-1 15:-0.932356 16:-0.701956 17:-1 18:-0.808511 20:-1 21:-0.852951 
-0 -0 -0 -0 -0 -99.36956048417467 0 0 0 0 0 0 1:-0.949254 2:-0.909385 3:-0.905495 4:-0.665624 5:-1 6:-0.764009 7:-1 8:-0.79661 9:-1 10:-1 11:-0.807752 12:-0.931031 13:-0.634459 14:-1 15:-0.945321 16:-0.839286 17:-1 18:-0.646966 20:-1 21:-0.894516 
-0 -0 -91.32070748160061 -0 -0 -0 0 2048 0 0 0 0 1:-0.909104 2:-0.893204 3:-0.940219 4:-0.818027 5:-1 6:-0.969828 7:-0.791855 8:-0.737288 9:-0.973684 10:-1 11:-0.711628 12:-0.970442 13:-0.820334 14:-1 15:-0.950395 16:-0.711735 17:-1 18:-0.765169 20:-1 21:-0.992316 
-0 -0 -0 -2.312825864726073 -0 -0 471.4343608810019 2048 125.8536782278956 341.0123839043328 281.0625754468677 221.8666488975314 1:-0.945629 2:-0.592233 3:-0.971589 4:-0.937447 5:-1 6:-0.907328 7:-0.511312 8:-0.661017 9:-0.0131579 10:-1 11:-0.792248 12:-0.982951 13:-0.89057 14:-1 15:-0.947012 16:-0.892857 17:-1 18:-0.676123 20:-1 21:-0.922808 
-0 -0 -0 -0 -0 -0 1825.851518301705 0 0 0 0 0 1:-0.959571 2:-0.954693 3:-0.82776 4:-0.952232 5:-1 6:-0.65194 7:-1 8:-0.966102 9:-1 10:-1 11:-0.6 12:-0.852651 13:-0.853318 14:-1 15:-0.710259 16:-0.969388 17:-1 18:-0.983452 20:-1 21:-0.771219 
-0 -15.90653372118693 -28.34676858817938 -0 -129.2351453125141 -0 0 0 0 0 0 0 1:-0.910498 2:-0.990291 3:-0.858341 4:-0.732727 5:-1 6:-0.800647 7:-1 8:-1 9:-1 10:-1 11:-0.857364 12:-0.910218 13:-0.665891 14:-1 15:-0.801578 16:-0.717262 17:-1 18:-0.791174 20:-1 21:-0.870066 
-0 -17.92812350870138 -0 -0 -204.3067643040922 -0 0 0 0 0 0 0 1:-0.922487 2:-0.938511 3:-0.876887 4:-0.876031 5:-1 6:-0.65194 7:-1 8:-1 9:-0.855263 10:-1 11:-0.941085 12:-0.92151 13:-0.703531 14:-1 15:-0.730552 16:-0.6875 17:-1 18:-0.826635 20:-1 21:-0.79986 
-0 -0 -50.12204803882086 -0 -167.162952428629 -0 2048 2048 0 0 0 0 1:-0.827966 2:-1 3:-0.859722 4:-0.853284 5:-1 6:-0.567888 7:-1 8:-1 9:-1 10:-1 11:-1 12:-0.925717 13:-0.837796 14:-1 15:-0.748591 16:-0.993622 17:-1 18:-0.908589 20:-1 21:-0.73664 
-0 -0 -0 -0 -0 -0 1010.746029487788 1220.467458734321 0 0 0 0 1:-0.963753 2:-1 3:-0.939627 4:-0.861814 5:-1 6:-0.856681 7:-1 8:-1 9:-1 10:-1 11:-1 12:-0.932913 13:-0.875049 14:-1 15:-0.906426 16:-0.941327 17:-1 18:-0.79275 20:-1 21:-0.898358 
-0 -0 -0 -0 -0 -0 2048 0 0 0 539.098666119949 0 1:-0.979925 2:-0.967638 3:-0.954424 4:-0.956781 5:-1 6:-0.835129 7:-0.99095 8:-0.915254 9:-0.197368 10:-1 11:-0.736434 12:-0.901804 13:-0.946449 14:-1 15:-0.865276 16:-0.986395 17:-1 18:-0.893617 20:-1 21:-0.860985 
-297.6578066220573 -0 -0 -0 -0 -0 0 2048 0 0 0 0 1:-0.946466 2:-0.97411 3:-0.956003 4:-0.968155 5:-1 6:-0.929957 7:-1 8:-1 9:-1 10:-1 11:-0.925581 12:-0.883206 13:-0.942181 14:-1 15:-0.934611 16:-0.985969 17:-1 18:-0.940898 20:-1 21:-0.963674 
-0 -0 -0 -0 -0 -0 0 1030.873845303821 0 0 0 0 1:-0.947302 2:-1 3:-0.931933 4:-0.984646 5:-1 6:-0.952586 7:-1 8:-0.720339 9:-1 10:-1 11:-0.848062 12:-0.862504 13:-0.989523 14:-1 15:-0.92841 16:-1 17:-1 18:-0.976359 20:-1 21:-0.985679 
-329.2990796206112 -0 -0 -0 -0 -0 0 2048 0 0 0 0 1:-0.951764 2:-1 3:-0.937062 4:-0.993176 5:-1 6:-0.940733 7:-1 8:-1 9:-0.723684 10:-1 11:-0.931783 12:-0.88387 13:-0.975165 14:-1 15:-0.914882 16:-1 17:-1 18:-1 20:-1 21:-0.976947 
-0 -0 -0 -0 -0 -0 0 199.9380514212293 0 0 0 0 1:-0.973791 2:-0.957929 3:-0.982441 4:-0.922661 5:-1 6:-0.961207 7:-1 8:-1 9:-0.789474 10:-1 11:-0.987597 12:-0.932027 13:-0.910749 14:-1 15:-0.927847 16:-0.939626 17:-1 18:-0.884161 20:-1 21:-0.971359 
-0 -0 -0 -0 -0 -0 0 2048 0 0 0 0 1:-0.943957 2:-1 3:-0.891092 4:-0.989195 5:-1 6:-0.882543 7:-1 8:-1 9:-1 10:-1 11:-1 12:-0.831396 13:-0.972061 14:-1 15:-0.899662 16:-1 17:-1 18:-0.981087 20:-1 21:-0.932588 
-0 -3.724690485948435 -0 -0 -23.53231297698159 -34.33248319072489 0 0 0 0 0 0 1:-0.887077 2:-0.857605 3:-0.928973 4:-0.565539 5:-1 6:-0.633621 7:-0.882353 8:-1 9:-1 10:-1 11:-0.550388 12:-0.963799 13:-0.740396 14:-1 15:-0.81398 16:-0.640731 17:-1 18:-0.648542 20:-1 21:-0.747468 
-0 -0 -0 -0 -0 -0 969.6720837617258 460.915954113002 0 0 0 0 1:-0.894326 2:-0.996764 3:-0.888724 4:-0.673017 5:-1 6:-0.769397 7:-1 8:-1 9:-0.342105 10:-1 11:-0.823256 12:-0.953282 13:-0.772992 14:-1 15:-0.908117 16:-0.752126 17:-1 18:-0.681639 20:-1 21:-0.906741 
-0 -0 -0 -0 -0 -0 0 549.4376765536401 0 0 0 0 1:-0.967099 2:-1 3:-0.937457 4:-0.924367 5:-1 6:-0.840517 7:-1 8:-1 9:-1 10:-1 11:-1 12:-0.925717 13:-0.798215 14:-1 15:-0.885006 16:-0.83631 17:-1 18:-0.814027 20:-1 21:-0.857143 
-0 -0 -0 -0 -0 -0 0 2048 210.4276097405107 0 172.2910850670636 100.0128525862161 1:-0.958734 2:-0.909385 3:-0.984019 4:-0.891385 5:-1 6:-0.818966 7:-0.791855 8:-1 9:-0.710526 10:-1 11:-0.75814 12:-0.999779 13:-0.899107 14:-1 15:-0.857384 16:-0.786565 17:-1 18:-0.843184 20:-1 21:-0.913378 
-406.5304677136293 -0 -0 -0 -0 -0 0 2048 134.0051766915441 478.866969979677 301.7142339543873 518.0693680293381 1:-0.950091 2:-0.773463 3:-0.996843 4:-0.873756 5:-1 6:-0.814655 7:-0.954751 8:-0.991525 9:0.289474 10:-1 11:-0.444961 12:-1 13:-0.993403 14:-1 15:-0.998873 16:-0.708333 17:-1 18:-0.728132 20:-1 21:-0.945512 
-0.5048613259090768 -0 -0 -0 -0 -0 0 2048 0 271.6032902005701 220.2978774756265 1704.037330873301 1:-0.985222 2:-0.951456 3:-0.978692 4:-0.995451 5:-1 6:-0.908405 7:-1 8:-0.855932 9:-1 10:-1 11:-0.906977 12:-0.919185 13:-0.975165 14:-1 15:-0.916009 16:-1 17:-1 18:-0.947991 20:-1 21:-0.953545 
-45.42241229329948 -0 -0 -0 -0 -0 317.6397330896539 0 0 0 0 0 1:-0.9763 2:-1 3:-0.955805 4:-0.934035 5:-1 6:-0.846983 7:-1 8:-1 9:-1 10:-1 11:-0.869767 12:-0.943319 13:-0.86884 14:-1 15:-0.915445 16:-0.946854 17:-1 18:-0.785658 20:-1 21:-0.932588 
-0 -0 -0 -0 -0 -0 0 1623.878249311111 0 0 0 0 1:-0.947302 2:-1 3:-0.931933 4:-0.984646 5:-1 6:-0.952586 7:-1 8:-0.720339 9:-1 10:-1 11:-0.848062 12:-0.862504 13:-0.989523 14:-1 15:-0.92841 16:-1 17:-1 18:-0.976359 20:-1 21:-0.985679 
-0 -0 -0 -0 -0 -0 0 2048 0 0 0 0 1:-0.973791 2:-0.957929 3:-0.982441 4:-0.922661 5:-1 6:-0.961207 7:-1 8:-1 9:-0.789474 10:-1 11:-0.987597 12:-0.932027 13:-0.910749 14:-1 15:-0.927847 16:-0.939626 17:-1 18:-0.884161 20:-1 21:-0.971359 
-0 -0 -0.7936470773120684 -0 -0 -0 2048 2045.040514442395 0 0 0 0 1:-0.894326 2:-0.996764 3:-0.888724 4:-0.673017 5:-1 6:-0.769397 7:-1 8:-1 9:-0.342105 10:-1 11:-0.823256 12:-0.953282 13:-0.772992 14:-1 15:-0.908117 16:-0.752126 17:-1 18:-0.681639 20:-1 21:-0.906741 
-338.0503552599432 -0 -0 -0 -0 -0 0 2048 1313.801954243994 2048 2048 2048 1:-0.985222 2:-0.951456 3:-0.978692 4:-0.995451 5:-1 6:-0.908405 7:-1 8:-0.855932 9:-1 10:-1 11:-0.906977 12:-0.919185 13:-0.975165 14:-1 15:-0.916009 16:-1 17:-1 18:-0.947991 20:-1 21:-0.953545 
-0 -0 -75.10927984382622 -0 -0 -55.9309491631449 0 2048 0 96.31347003754766 0 0 1:-0.926948 2:-0.928803 3:-0.969222 4:-0.744669 5:-1 6:-0.787716 7:-1 8:-1 9:-0.75 10:-1 11:-0.975194 12:-0.975645 13:-0.792782 14:-1 15:-0.998873 16:-0.739796 17:-1 18:-0.603625 20:-1 21:-0.891373 
-676.2562480575178 -0 -0 -0 -0 -0 0 2048 745.3674084680773 145.0931411573876 0 0 1:-0.955946 2:-0.893204 3:-0.976916 4:-0.968155 5:-1 6:-0.713362 7:-1 8:-1 9:-0.960526 10:-1 11:-1 12:-0.970774 13:-0.851378 14:-1 15:-0.790304 16:-0.982143 17:-1 18:-0.946414 20:-1 21:-0.866574 
-0 -0 -0 -0 -0 -0.4491915104566105 0 3.676904288819108 0 0 0 0 1:-0.899624 2:-1 3:-0.798757 4:-0.973273 5:-1 6:-0.84375 7:-1 8:-1 9:-1 10:-1 11:-1 12:-0.79431 13:-0.987971 14:-1 15:-0.834837 16:-1 17:-1 18:-0.933806 20:-1 21:-0.917918 
-0 -0 -0 -0 -0 -1.169417432291974 0 0 0 0 0 0 1:-0.925554 2:-0.906149 3:-0.828352 4:-0.955644 5:-1 6:-0.800647 7:-1 8:-0.974576 9:-0.552632 10:-1 11:-0.869767 12:-0.793646 13:-0.924719 14:-1 15:-0.85513 16:-1 17:-1 18:-0.903861 20:-1 21:-0.944813 
-0 -0 -0 -0 -0 -0 11.3603952751679 121.1194685939034 0 4.617183020390965 7.483924219640889 69.03172129824569 1:-0.959571 2:-0.990291 3:-0.940219 4:-0.769121 5:-1 6:-0.702586 7:-1 8:-0.813559 9:-1 10:-1 11:-0.733333 12:-0.962028 13:-0.88863 14:-1 15:-0.935175 16:-0.856293 17:-1 18:-0.787234 20:-1 21:-0.948655 
-0 -0 -0 -0 -0 -0 2048 366.4424119352123 0 0 0 0 1:-0.886798 2:-0.838188 3:-0.853014 4:-0.973841 5:-1 6:-0.679957 7:-1 8:-0.635593 9:-1 10:-1 11:-0.779845 12:-0.871361 13:-0.82305 14:-1 15:-0.728298 16:-0.980017 17:-1 18:-0.85658 20:-1 21:-0.584701 
-0 -0 -0 -0 -0 -3.109549840711489 2048 0 0 0 0 0 1:-0.901854 2:-1 3:-0.868403 4:-0.968155 5:-1 6:-0.578664 7:-1 8:-1 9:-1 10:-1 11:-0.823256 12:-0.866822 13:-0.913465 14:-1 15:-0.6646 16:-1 17:-1 18:-0.890465 20:-1 21:-0.597625 
-0 -0 -0 -0 -0 -676.8431335904838 1000.509712231523 171.3531725734467 0 0 0 0 1:-0.899624 2:-1 3:-0.798757 4:-0.973273 5:-1 6:-0.84375 7:-1 8:-1 9:-1 10:-1 11:-1 12:-0.79431 13:-0.987971 14:-1 15:-0.834837 16:-1 17:-1 18:-0.933806 20:-1 21:-0.917918 
-0 -0 -0 -0 -0 -51.1354874974741 0 0 0 0 0 0 1:-0.925554 2:-0.906149 3:-0.828352 4:-0.955644 5:-1 6:-0.800647 7:-1 8:-0.974576 9:-0.552632 10:-1 11:-0.869767 12:-0.793646 13:-0.924719 14:-1 15:-0.85513 16:-1 17:-1 18:-0.903861 20:-1 21:-0.944813 
-163.6470054865636 -0 -0 -0 -0 -0 189.4303818826081 2048 0 16.6977528648064 209.571302794582 232.0485537347121 1:-0.959571 2:-0.990291 3:-0.940219 4:-0.769121 5:-1 6:-0.702586 7:-1 8:-0.813559 9:-1 10:-1 11:-0.733333 12:-0.962028 13:-0.88863 14:-1 15:-0.935175 16:-0.856293 17:-1 18:-0.787234 20:-1 21:-0.948655 
-0 -0 -0 -17.80540299113216 -0 -0 2048 545.3345874269759 0 0 0 0 1:-0.886798 2:-0.838188 3:-0.853014 4:-0.973841 5:-1 6:-0.679957 7:-1 8:-0.635593 9:-1 10:-1 11:-0.779845 12:-0.871361 13:-0.82305 14:-1 15:-0.728298 16:-0.980017 17:-1 18:-0.85658 20:-1 21:-0.584701 
-0 -0 -0 -0 -0 -145.5929572946421 2048 218.8504894449143 0 0 0 0 1:-0.901854 2:-1 3:-0.868403 4:-0.968155 5:-1 6:-0.578664 7:-1 8:-1 9:-1 10:-1 11:-0.823256 12:-0.866822 13:-0.913465 14:-1 15:-0.6646 16:-1 17:-1 18:-0.890465 20:-1 21:-0.597625 
-47.85907391828056 -0 -0 -0 -0 -0 0 0 252.6062121637652 0 0 0 1:-0.936149 2:-0.825243 3:-0.906481 4:-0.985215 5:-1 6:-0.797414 7:-0.809955 8:-1 9:-1 10:-1 11:-0.668217 12:-0.924388 13:-0.884362 14:-1 15:-0.773957 16:-0.985544 17:-1 18:-0.940898 20:-1 21:-0.752707 
-0 -0 -0 -0 -0 -0 1385.402434224264 0 0 0 0 0 1:-0.931409 2:-0.993528 3:-0.920687 4:-0.915837 5:-1 6:-0.875 7:-0.972851 8:-1 9:-0.684211 10:-1 11:-0.764341 12:-0.891398 13:-0.878929 14:-1 15:-0.8292 16:-0.98852 17:-1 18:-0.910165 20:-1 21:-0.90255 
-0 -0 -21.08551650180384 -0 -44.47766031576898 -91.23112645491641 1876.734971237414 0 0 0 0 0 1:-0.920257 2:-0.747573 3:-0.868008 4:-0.647995 5:-1 6:-0.743534 7:-0.846154 8:-0.79661 9:-1 10:-1 11:-0.770543 12:-0.937784 13:-0.728366 14:-1 15:-0.857384 16:-0.772109 17:-1 18:-0.524823 20:-1 21:-0.904645 
-452.6138884073195 -0 -0 -0 -0 -0 -2048 2048 306.5155997043594 542.9986990681746 930.0744484363545 1205.018618531399 1:-0.974069 2:-0.951456 3:-0.9489 4:-0.936878 5:-1 6:-0.912716 7:-1 8:-0.881356 9:-1 10:-1 11:-0.978295 12:-0.919407 13:-0.934808 14:-1 15:-0.868658 16:-0.978316 17:-1 18:-0.855792 20:-1 21:-0.910583 
-0 -0 -0 -0 -0 -0 -68.09801374186817 0 0 0 0 0 1:-0.795065 2:-0.783172 3:-0.85913 4:-0.947114 5:-1 6:-0.724138 7:-1 8:-0.440678 9:-1 10:-1 11:-0.246512 12:-0.883095 13:-0.944121 14:-1 15:-0.779594 16:-0.989371 17:-1 18:-0.910954 20:-1 21:-0.791128 
-0 -0 -0 -2.203019590490437 -15.97067843009457 -0 -0 0 0 100.0883531176483 13.30870855883583 0 1:-0.778335 2:-0.572816 3:-0.818684 4:-0.860108 5:-1 6:-0.716595 7:-0.131222 8:-0.677966 9:0.0263158 10:-1 11:-0.804651 12:-0.912875 13:-0.890182 14:-1 15:-0.869222 16:-0.872024 17:-1 18:-0.846336 20:-1 21:-0.746071 
-0 -0 -37.50918373130273 -0 -0 -0 -0 0 0 0 0 0 1:-0.837725 2:-1 3:-0.852225 4:-0.869775 5:-1 6:-0.627155 7:-1 8:-0.830508 9:-1 10:-1 11:-0.885271 12:-0.940662 13:-0.885138 14:-1 15:-0.848365 16:-0.895833 17:-1 18:-0.475965 20:-1 21:-0.709745 
-0 -18.31528128626632 -54.93816098697942 -0 -163.3168820083166 -1716.621439563446 -0 0 0 0 0 0 1:-0.826851 2:-0.935275 3:-0.87156 4:-0.700313 5:-1 6:-0.752155 7:-1 8:-1 9:-1 10:-1 11:-0.72093 12:-0.898373 13:-0.67792 14:-1 15:-0.831454 16:-0.706633 17:-1 18:-0.408195 20:-1 21:-0.597276 
-0 -0 -0 -0 -0 -0 -2048 0 0 0 0 0 1:-0.930852 2:-0.912621 3:-0.865246 4:-0.726471 5:-1 6:-0.705819 7:-0.945701 8:-1 9:-0.197368 10:-1 11:-0.776744 12:-0.852984 13:-0.72759 14:-1 15:-0.781849 16:-0.882653 17:-1 18:-0.717888 20:-1 21:-0.813832 
-0 -0 -0 -0 -360.1531483555004 -356.5250433980647 -0 0 0 0 0 0 1:-0.912728 2:-0.847896 3:-0.888922 4:-0.802104 5:-1 6:-0.586207 7:-1 8:-0.881356 9:-1 10:-1 11:-0.804651 12:-0.860179 13:-0.895615 14:-1 15:-0.765502 16:-0.839286 17:-1 18:-0.597321 20:-1 21:-0.723716 
-0 -0 -3.267994609108233 -0 -0 -0 -0 0 0 0 0 0 1:-0.731772 2:-0.68932 3:-0.855776 4:-0.860677 5:-1 6:-0.431034 7:-1 8:-0.915254 9:0.328947 10:-1 11:-0.413953 12:-0.888409 13:-0.935584 14:-1 15:-0.807779 16:-0.906037 17:-1 18:-0.72104 20:-1 21:-0.832344 
-100.0882433357411 -0 -0 -0 -0 -0 -2048 0 78.73811280956032 0 0 0 1:-0.851945 2:-0.954693 3:-0.856762 4:-0.921524 5:-1 6:-0.575431 7:-1 8:-1 9:-1 10:-1 11:-0.863566 12:-0.912986 13:-0.85099 14:-1 15:-0.807215 16:-0.982143 17:-1 18:-0.850276 20:-1 21:-0.876703 
-0 -0 -0 -0 -0 -0 -466.8830883450987 0 0 0 0 0 1:-0.960128 2:-0.909385 3:-0.87807 4:-0.967017 5:-1 6:-0.519397 7:-1 8:-0.991525 9:-0.684211 10:-1 11:-0.79845 12:-0.922506 13:-0.945673 14:-1 15:-0.617813 16:-0.987245 17:-1 18:-0.927502 20:-1 21:-0.676912 
-0 -0 -0 -0 -0 -0 -0 485.321575917298 112.5367115940281 0 0 0 1:-0.859473 2:-0.673139 3:-0.935287 4:-0.869207 5:-1 6:-0.436422 7:-0.674208 8:-0.881356 9:-0.328947 10:-1 11:-0.522481 12:-0.948965 13:-0.882809 14:-1 15:-0.857948 16:-0.889031 17:-1 18:-0.726556 20:-1 21:-0.626266 
-0 -9.906280987269625 -0 -0 -106.4411353877333 -581.517691199718 -0 0 0 0 0 0 1:-0.806775 2:-0.967638 3:-0.872743 4:-0.861814 5:-1 6:0.0818966 7:-0.909502 8:-0.915254 9:-0.934211 10:-1 11:-0.736434 12:-0.896712 13:-0.758246 14:-1 15:-0.696731 16:-0.969813 17:-1 18:-0.794326 20:-1 21:-0.603213 
-0 -0 -0 -0 -0 -0 -2048 0 0 0 0 0 1:-0.901854 2:-0.89644 3:-0.858341 4:-0.938584 5:-1 6:-0.799569 7:-1 8:-1 9:-1 10:-1 11:-0.64031 12:-0.844681 13:-0.732635 14:-1 15:-0.648816 16:-0.99915 17:-1 18:-0.8684 20:-1 21:-0.671673 
-0 -0 -0 -0 -0 -0 -390.8241101334464 0 0 0 0 0 1:-0.931409 2:-0.967638 3:-0.891684 4:-0.944271 5:-1 6:-0.72306 7:-1 8:-0.779661 9:-0.736842 10:-1 11:-0.39845 12:-0.845898 13:-0.859915 14:-1 15:-0.770011 16:-0.974065 17:-1 18:-0.887313 20:-1 21:-0.713936 
-0 -0 -0 -0 -1154.808141430341 -156.0329520384984 -0 0 0 0 0 0 1:-0.818207 2:-0.97411 3:-0.872941 4:-0.625817 5:-1 6:-0.107759 7:-1 8:-0.991525 9:-0.907895 10:-1 11:-0.80155 12:-0.904461 13:-0.818393 14:-1 15:-0.822435 16:-0.873724 17:-1 18:-0.316785 20:-1 21:-0.699267 
-0 -13.12671338034055 -134.2983924256828 -6.795338448011952 -552.4413206196159 -1910.899625638927 -0 0 0 0 0 0 1:-0.70389 2:-0.915858 3:-0.738187 4:-0.88911 5:-1 6:-0.484914 7:-1 8:-0.974576 9:-0.684211 10:-1 11:-0.872868 12:-0.820215 13:-0.836244 14:-1 15:-0.677565 16:-0.923469 17:-1 18:-0.699764 20:-1 21:-0.738037 
-0 -0.5971148430776938 -0.8757850883699876 -4.144396126006915 -0.2646363332415802 -6.717668379336401 -0 0 0 0 0 0 1:-0.687439 2:-0.990291 3:-0.729703 4:-0.829969 5:1 6:-0.391164 7:-1 8:-0.754237 9:-0.697368 10:-1 11:-0.686822 12:-0.846563 13:-0.864183 14:-1 15:-0.636415 16:-0.881803 17:0.0714286 18:-0.643814 20:-0.9875 21:-0.745721 
-0 -0 -0 -0 -0 -0 -1024.386045567417 0 0 0 0 0 1:-0.897114 2:-0.996764 3:-0.848279 4:-0.923799 5:-1 6:-0.5625 7:-1 8:-0.610169 9:-1 10:-1 11:-0.956589 12:-0.881767 13:-0.886302 14:-1 15:-0.705186 16:-1 17:-1 18:-0.945626 20:-1 21:-0.730003 
-0 -0 -0 -0 -102.9733458893693 -0 -51.4104103705509 0 0 0 0 0 1:-0.794228 2:-0.815534 3:-0.83506 4:-0.777651 5:-1 6:-0.68319 7:-0.864253 8:-1 9:-0.434211 10:-1 11:-1 12:-0.866157 13:-0.901436 14:-1 15:-0.844419 16:-0.937925 17:-1 18:-0.757289 20:-1 21:-0.778554 
-0 -0 -0 -0 -0 -0 -594.4616845631828 0 0 0 0 0 1:-0.793392 2:-0.699029 3:-0.780014 4:-0.847597 5:-1 6:-0.448276 7:-1 8:-0.805085 9:-0.842105 10:-1 11:-0.550388 12:-0.877781 13:-0.873108 14:-1 15:-0.803833 16:-0.970663 17:-1 18:-0.825847 20:-1 21:-0.743975 
-0 -0 -159.8293114263332 -0 -0 -0 -800.9226573564616 0 0 0 0 0 1:-0.837725 2:-0.964401 3:-0.929565 4:-0.652545 5:-1 6:-0.628233 7:-0.936652 8:-0.983051 9:-0.736842 10:-1 11:-0.786047 12:-0.951733 13:-0.806364 14:-1 15:-0.96956 16:-0.785714 17:-1 18:-0.590229 20:-1 21:-0.851904 
-0 -0 -5.875112203672423 -0 -0 -0 -0 0 0 0 0 0 1:-0.801199 2:-0.961165 3:-0.92917 4:-0.852715 5:-1 6:-0.5 7:-0.837104 8:-0.711864 9:-0.75 10:-1 11:-0.872868 12:-0.962028 13:-0.753201 14:-1 15:-0.847802 16:-0.927296 17:-1 18:-0.814027 20:-1 21:-0.754104 
-0 -0 -0 -0 -0 -0 -229.3392701790135 461.1192723891716 0 0 0 0 1:-0.900181 2:-0.977346 3:-0.936273 4:-0.788456 5:-1 6:-0.801724 7:-1 8:-0.974576 9:1 10:-1 11:-0.83876 12:-0.959482 13:-0.676368 14:-1 15:-0.931229 16:-0.728741 17:-1 18:-0.572892 20:-1 21:-0.643381 
-238.3055182856042 -0 -0 -0 -0 -0 -2048 2048 0 0 0 0 1:-0.897951 2:-0.964401 3:-0.940811 4:-0.832812 5:-1 6:-0.705819 7:-1 8:-1 9:-1 10:-1 11:-0.922481 12:-0.975977 13:-0.859527 14:-1 15:-0.932356 16:-0.919643 17:-1 18:-0.733649 20:-1 21:-0.80964 
-71.58395907037576 -0 -0 -0 -0 -0 -0 2048 200.0144462889349 142.1977614603703 766.2049652969156 0 1:-0.926948 2:-1 3:-0.985795 4:-0.902189 5:-1 6:-0.540948 7:-1 8:-1 9:-1 10:-1 11:-1 12:-0.994908 13:-0.980986 14:-1 15:-0.937993 16:-0.935374 17:-1 18:-0.598897 20:-1 21:-0.758645 
-0 -0 -0 -0 -0 -0 -0 0 0.04111353258964876 0 0 0 1:-0.919141 2:-0.932039 3:-0.890106 4:-0.994882 5:-1 6:-0.404095 7:-1 8:-1 9:-1 10:-1 11:-0.875969 12:-0.899037 13:-0.994179 14:-1 15:-0.665727 16:-1 17:-1 18:-0.958235 20:-1 21:-0.623472 
-0 -0 -0 -0 -0 -1160.356424427825 -0 0 0 0 0 0 1:-0.886798 2:-0.915858 3:-0.813949 4:-0.853284 5:-1 6:-0.740302 7:-1 8:-1 9:-1 10:-1 11:-0.925581 12:-0.833278 13:-0.85875 14:-1 15:-0.61274 16:-0.982143 17:-1 18:-0.706856 20:-1 21:-0.792525 
-0 -0 -0 -0 -0 -55.40672196445892 -0 0 0 0 0 0 1:-0.793671 2:-1 3:-0.875308 4:-0.960762 5:-1 6:-0.59806 7:-1 8:-1 9:-1 10:-1 11:-1 12:-0.849994 13:-0.972837 14:-1 15:-0.68602 16:-0.997449 17:-1 18:-0.93617 20:-1 21:-0.688788 
-0 -0 -0 -0 -0 -0 -346.6147339944372 0 0 0 0 0 1:-0.93364 2:-0.919094 3:-0.892868 4:-0.895365 5:-1 6:-0.756466 7:-0.954751 8:-0.754237 9:-0.710526 10:-1 11:-0.91938 12:-0.906897 13:-0.733799 14:-1 15:-0.853439 16:-0.875 17:-1 18:-0.628054 20:-1 21:-0.696822 
-63.02807580640707 -0 -0 -0 -0 -0 -0 0 234.9224975182973 0 0 0 1:-0.919141 2:-0.932039 3:-0.890106 4:-0.994882 5:-1 6:-0.404095 7:-1 8:-1 9:-1 10:-1 11:-0.875969 12:-0.899037 13:-0.994179 14:-1 15:-0.665727 16:-1 17:-1 18:-0.958235 20:-1 21:-0.623472 
-0 -0 -0 -0 -0 -148.7675640464492 -0 0 0 0 0 0 1:-0.793671 2:-1 3:-0.875308 4:-0.960762 5:-1 6:-0.59806 7:-1 8:-1 9:-1 10:-1 11:-1 12:-0.849994 13:-0.972837 14:-1 15:-0.68602 16:-0.997449 17:-1 18:-0.93617 20:-1 21:-0.688788 
-0 -0 -0 -0 -0 -0 -1587.003673166119 0 0 0 0 0 1:-0.886798 2:-1 3:-0.845319 4:-0.934603 5:-1 6:-0.716595 7:-1 8:-1 9:-1 10:-1 11:-1 12:-0.855419 13:-0.967016 14:-1 15:-0.669109 16:-1 17:-1 18:-0.938534 20:-1 21:-0.626615 
-0 -0 -0 -0 -0 -0 -42.26205988273812 0 0 0 0 0 1:-0.893211 2:-1 3:-0.867416 4:-1 5:-1 6:-0.721983 7:-1 8:-1 9:-1 10:-1 11:-1 12:-0.888741 13:-0.963912 14:-1 15:-0.700676 16:-0.980867 17:-1 18:-0.907801 20:-1 21:-0.632903 
-0 -0 -0 -0 -0 -0 -0 0 0 0 0.06042883262470408 0 1:-0.885961 2:-0.809061 3:-0.859722 4:-0.882286 5:-1 6:-0.451509 7:-0.963801 8:-0.322034 9:-0.421053 10:-1 11:-0.44186 12:-0.89793 13:-0.928599 14:-1 15:-0.891206 16:-0.907313 17:-1 18:-0.869976 20:-1 21:-0.918268 
-0 -0 -0 -0 -0 -0 -0 535.5626693168417 0 0 0 0 1:-0.887355 2:-0.990291 3:-0.920292 4:-0.912425 5:-1 6:-0.503233 7:-1 8:-0.70339 9:-0.986842 10:-1 11:-0.516279 12:-0.95129 13:-0.927823 14:-1 15:-0.813416 16:-0.961735 17:-1 18:-0.867612 20:-1 21:-0.717779 
-0 -0 -0 -0 -0 -0 -0 230.5135978564471 0 0 0 0 1:-0.863098 2:-0.97411 3:-0.896419 4:-0.869775 5:-1 6:-0.540948 7:-1 8:-1 9:-1 10:-1 11:-0.84186 12:-0.939112 13:-0.958479 14:-1 15:-0.859076 16:-0.920068 17:-1 18:-0.71316 20:-1 21:-0.798114 
-0 -0 -0 -0 -0 -0 -1708.95046417348 0 0 0 0 0 1:-0.8815 2:-0.79288 3:-0.865049 4:-0.773102 5:-1 6:-0.867457 7:-0.764706 8:-0.466102 9:-0.644737 10:-1 11:-0.544186 12:-0.937452 13:-0.696934 14:-1 15:-0.888388 16:-0.846088 17:-1 18:-0.680851 20:-1 21:-0.743276 
-85.38015988709797 -0 -0 -0 -0 -0 -1632.873406705703 2048 335.4025300069928 431.7287027763397 326.9484696715849 288.4382777919802 1:-0.933919 2:-0.970874 3:-0.909243 4:-0.972135 5:-1 6:-0.8125 7:-0.9819 8:-0.737288 9:-0.473684 10:-1 11:-0.534884 12:-0.957711 13:-0.986806 14:-1 15:-0.855693 16:-0.988095 17:-1 18:-0.858156 20:-1 21:-0.887181 
-0 -0 -0 -0 -0 -0 -0 203.6133413572345 0 0 0 0 1:-0.944235 2:-0.873786 3:-0.962711 4:-0.869775 5:-1 6:-0.794181 7:-0.692308 8:-1 9:-0.355263 10:-1 11:-0.68062 12:-0.976973 13:-0.837796 14:-1 15:-0.87655 16:-0.910714 17:-1 18:-0.488574 20:-1 21:-0.598323 
-0 -0 -0 -0 -0 -0 -0 1749.139250179975 0 0 0 0 1:-0.935592 2:-0.92233 3:-0.923251 4:-0.815183 5:-1 6:-0.784483 7:-1 8:-1 9:-1 10:-1 11:-0.937984 12:-0.936123 13:-0.853706 14:-1 15:-0.899662 16:-0.924745 17:-1 18:-0.539795 20:-1 21:-0.817674 
-0 -0 -0 -0 -0 -0 -0 2048 0 0 0 0 1:-0.937544 2:-0.996764 3:-0.915951 4:-0.923799 5:-1 6:-0.641164 7:-1 8:-0.864407 9:-0.710526 10:-1 11:-0.962791 12:-0.92306 13:-0.958867 14:-1 15:-0.861894 16:-0.957058 17:-1 18:-0.744681 20:-1 21:-0.70241 
-0 -3.507868589565192 -0 -0 -0 -0 -0 0 0 0 0 0 1:-0.861146 2:-0.899676 3:-0.881819 4:-0.913563 5:-1 6:-0.678879 7:-0.909502 8:-0.694915 9:-1 10:-1 11:-0.43876 12:-0.810141 13:-0.702367 14:-1 15:-0.70575 16:-0.922194 17:-1 18:-0.767533 20:-1 21:-0.530912 
-0 -0 -0 -0 -0 -0 -2048 0 0 0 0 0 1:-0.886798 2:-1 3:-0.845319 4:-0.934603 5:-1 6:-0.716595 7:-1 8:-1 9:-1 10:-1 11:-1 12:-0.855419 13:-0.967016 14:-1 15:-0.669109 16:-1 17:-1 18:-0.938534 20:-1 21:-0.626615 
-0 -0 -0 -0 -0 -0 -114.7520021933399 0 0 0 0 0 1:-0.893211 2:-1 3:-0.867416 4:-1 5:-1 6:-0.721983 7:-1 8:-1 9:-1 10:-1 11:-1 12:-0.888741 13:-0.963912 14:-1 15:-0.700676 16:-0.980867 17:-1 18:-0.907801 20:-1 21:-0.632903 
-0 -0 -0 -4.321713902588072 -0 -0 -0 0 0 0 0 0 1:-0.798968 2:-0.838188 3:-0.826181 4:-0.873756 5:-1 6:-0.552802 7:-0.746606 8:-0.118644 9:-0.210526 10:-1 11:-0.665116 12:-0.852873 13:-0.883974 14:-1 15:-0.800451 16:-0.917092 17:-1 18:-0.677699 20:-1 21:-0.651415 
-0 -0 -0 -0 -0 -0 -0 0 0 0 266.8537101658166 0 1:-0.885961 2:-0.809061 3:-0.859722 4:-0.882286 5:-1 6:-0.451509 7:-0.963801 8:-0.322034 9:-0.421053 10:-1 11:-0.44186 12:-0.89793 13:-0.928599 14:-1 15:-0.891206 16:-0.907313 17:-1 18:-0.869976 20:-1 21:-0.918268 
-0 -0 -0 -0 -0 -0 -0 1104.641334375374 0 0 0 0 1:-0.887355 2:-0.990291 3:-0.920292 4:-0.912425 5:-1 6:-0.503233 7:-1 8:-0.70339 9:-0.986842 10:-1 11:-0.516279 12:-0.95129 13:-0.927823 14:-1 15:-0.813416 16:-0.961735 17:-1 18:-0.867612 20:-1 21:-0.717779 
-0 -0 -0 -0 -0 -0 -0 650.859759499801 0 0 0 0 1:-0.863098 2:-0.97411 3:-0.896419 4:-0.869775 5:-1 6:-0.540948 7:-1 8:-1 9:-1 10:-1 11:-0.84186 12:-0.939112 13:-0.958479 14:-1 15:-0.859076 16:-0.920068 17:-1 18:-0.71316 20:-1 21:-0.798114 
-0 -0 -0 -0 -0 -0 -0 2048 0 0 0 0 1:-0.863098 2:-0.97411 3:-0.896419 4:-0.869775 5:-1 6:-0.540948 7:-1 8:-1 9:-1 10:-1 11:-0.84186 12:-0.939112 13:-0.958479 14:-1 15:-0.859076 16:-0.920068 17:-1 18:-0.71316 20:-1 21:-0.798114 
-0 -0 -0 -10.43662323801848 -0 -0 -0 0 0 0 0 0 1:-0.860867 2:-0.760518 3:-0.868995 4:-0.86352 5:-1 6:-0.247845 7:-0.429864 8:-0.347458 9:-0.947368 10:-1 11:-0.534884 12:-0.909886 13:-0.8052 14:-1 15:-0.666855 16:-0.852891 17:-1 18:-0.601261 20:-1 21:-0.504017 
-0 -0 -0 -0 -0 -0 -0 1167.018504430006 0 0 0 0 1:-0.944235 2:-0.873786 3:-0.962711 4:-0.869775 5:-1 6:-0.794181 7:-0.692308 8:-1 9:-0.355263 10:-1 11:-0.68062 12:-0.976973 13:-0.837796 14:-1 15:-0.87655 16:-0.910714 17:-1 18:-0.488574 20:-1 21:-0.598323 
-0 -0 -0 -0 -0 -0 -0 1732.325827472282 0 0 0 0 1:-0.935592 2:-0.92233 3:-0.923251 4:-0.815183 5:-1 6:-0.784483 7:-1 8:-1 9:-1 10:-1 11:-0.937984 12:-0.936123 13:-0.853706 14:-1 15:-0.899662 16:-0.924745 17:-1 18:-0.539795 20:-1 21:-0.817674 
-0 -0 -0 -0 -0 -0 -0 2048 0 0 0 0 1:-0.937544 2:-0.996764 3:-0.915951 4:-0.923799 5:-1 6:-0.641164 7:-1 8:-0.864407 9:-0.710526 10:-1 11:-0.962791 12:-0.92306 13:-0.958867 14:-1 15:-0.861894 16:-0.957058 17:-1 18:-0.744681 20:-1 21:-0.70241 
-0 -0 -0 -0 -0 -0 -2048 0 0 0 0 0 1:-0.967656 2:-1 3:-0.858538 4:-0.916406 5:-1 6:-0.556034 7:-1 8:-1 9:-0.842105 10:-1 11:-0.872868 12:-0.878999 13:-0.87078 14:-1 15:-0.749154 16:-0.859694 17:-1 18:-0.846336 20:-1 21:-0.720224 
-0 -0 -0 -0 -0 -0 -0 -0 0 0 15.42151341008442 0 1:-0.924997 2:-0.902913 3:-0.985203 4:-0.931191 5:-1 6:-0.790948 7:-1 8:-0.847458 9:-0.434211 10:-1 11:-0.922481 12:-1 13:-0.974389 14:-1 15:-0.976888 16:-0.876701 17:-1 18:-0.565012 20:-1 21:-0.845966 
-0 -0 -0 -19.07324115406332 -0 -0 -0 -0 0 0 0 1.772238536156084 1:-0.956225 2:-0.990291 3:-0.997041 4:-0.93176 5:0.0309278 6:-0.614224 7:-1 8:-1 9:-1 10:-1 11:-0.888372 12:-1 13:-0.997672 14:-1 15:-0.988726 16:-0.953656 17:-1 18:-0.610717 20:-0.3125 21:-0.706601 
-0 -0 -0 -0 -2.331533076618021 -0 -0 -0 0 0 0 0 1:-0.933082 2:-0.886731 3:-0.952451 4:-0.860677 5:-1 6:-0.58944 7:-1 8:-1 9:-1 10:-1 11:-0.863566 12:-0.98594 13:-0.892123 14:-1 15:-0.948703 16:-0.853741 17:-1 18:-0.691883 20:-1 21:-0.814879 
-818.1036441661664 -0 -0 -0 -0 -0 -0 -0 1010.297333102766 1501.797321204769 2048 2048 1:-0.947302 2:-0.89644 3:-0.982243 4:-0.884561 5:-1 6:-0.707974 7:-0.927602 8:-0.847458 9:-0.697368 10:-1 11:-0.891473 12:-0.992472 13:-0.993015 14:-1 15:-0.988162 16:-0.875 17:-1 18:-0.828211 20:-1 21:-0.841076 
-0 -1.167668627791766 -0 -0 -0 -0 -0 -0 0 0 0 0 1:-0.957898 2:-0.938511 3:-0.982835 4:-0.944839 5:-1 6:-0.294181 7:-1 8:-1 9:-0.986842 10:-1 11:-0.745736 12:-1 13:-0.999224 14:-1 15:-0.922773 16:-0.954507 17:-1 18:-0.72104 20:-1 21:-0.116661 
-521.8422999312468 -0 -0 -0 -0 -0 -0 -0 0 0 0 0 1:-0.937544 2:-0.987055 3:-0.99487 4:-0.884561 5:-1 6:-0.442888 7:-1 8:-1 9:-1 10:-1 11:-0.87907 12:-0.999557 13:-0.982926 14:-1 15:-1 16:-0.897109 17:-1 18:-0.702916 20:-1 21:-0.726511 
-0 -0 -0 -0 -0 -0 -0 -0 429.1452698380251 1270.747003811051 1251.942388114178 118.9716025429468 1:-0.958455 2:-0.980583 3:-0.982243 4:-0.993745 5:-1 6:-0.41056 7:-1 8:-0.822034 9:-1 10:-1 11:-0.683721 12:-0.991365 13:-1 14:-1 15:-0.988162 16:-0.988095 17:-1 18:-0.904649 20:-1 21:-0.477471 
-0 -0 -0 -0 -93.72705478125606 -0 -0 -899.9909513091542 0 0 0 0 1:-0.918305 2:-0.954693 3:-0.978495 4:-0.726471 5:-1 6:-0.392241 7:-1 8:-0.872881 9:-0.934211 10:-1 11:-0.649612 12:-0.989262 13:-1 14:-1 15:-0.968997 16:-0.837585 17:-1 18:-0.631994 20:-1 21:-0.779602 
-0 -0 -0 -0 -0 -0 -0 -114.5217024338161 0 0 0 0 1:-0.950927 2:-0.880259 3:-0.967446 4:-0.753199 5:-1 6:-0.665948 7:-1 8:-0.864407 9:-1 10:-1 11:-0.882171 12:-0.996568 13:-0.987194 14:-1 15:-0.970688 16:-0.856718 17:-1 18:-0.57368 20:-1 21:-0.812435 
-0 -0 -0 -0 -0 -0 -0 -1226.223814189749 0 0 0 0 1:-0.939495 2:-0.977346 3:-0.957778 4:-0.84646 5:-1 6:-0.802802 7:-1 8:-1 9:-0.986842 10:-1 11:-0.84186 12:-0.995793 13:-0.916958 14:-1 15:-0.932356 16:-0.814626 17:-1 18:-0.381403 20:-1 21:-0.829549 
-0 -0.5012335388312639 -0.6804466120984068 -0 -1.210143255435903 -1.734326105992806 -0 -0 0 0 0 0 1:-0.907709 2:-0.815534 3:-0.95916 4:-0.624111 5:-0.42268 6:-0.632543 7:-0.972851 8:-1 9:-0.75 10:-1 11:-0.677519 12:-0.994022 13:-0.96624 14:0.333333 15:-0.968433 16:-0.794643 17:1 18:-0.401891 20:-1 21:-0.789032 
-747.5901796166473 -0 -0 -0.6595957335945172 -0 -0 -1380.345618522643 -24.71712115167435 388.922690652327 557.3310271143741 436.4932116500221 131.7110745797907 1:-0.971281 2:-0.569579 3:-0.996843 4:-0.773102 5:-1 6:-0.696121 7:-0.728507 8:-1 9:0.315789 10:-1 11:-0.792248 12:-1 13:-0.988747 14:-1 15:-0.947576 16:-0.895833 17:-1 18:-0.725768 20:-1 21:-0.885435 
-0 -0.4273782277522458 -0 -5.570383809142782 -0 -0 -0 -0 0 0 0 0 1:-0.955667 2:-0.967638 3:-0.93943 4:-0.911288 5:-1 6:-0.679957 7:-0.782805 8:0.364407 9:-0.828947 10:-1 11:-0.330233 12:-0.973652 13:-0.962359 14:-1 15:-0.861894 16:-0.97449 17:-1 18:-0.555556 20:-1 21:-0.682501 
-0 -0 -0 -0 -0 -0 -0 -1773.224673665962 0 0 0 0 1:-0.907431 2:-0.851133 3:-0.971787 4:-0.841342 5:-1 6:-0.4375 7:-1 8:-0.822034 9:-0.802632 10:-1 11:-0.745736 12:-0.994575 13:-0.973225 14:-1 15:-0.980834 16:-0.96131 17:-1 18:-0.672971 20:-1 21:-0.673769 
-0 -7.92944822309083 -0 -0 -49.7116837419997 -46.95284611800379 -0 -2048 0 0 0 0 1:-0.969887 2:-1 3:-0.968038 4:-0.902758 5:-1 6:-0.77694 7:-1 8:-1 9:-1 10:-1 11:-1 12:-0.989372 13:-0.861855 14:-1 15:-0.841037 16:-0.792092 17:-1 18:-0.35461 20:-1 21:-0.49738 
-0 -0 -0 -0.3748656006567629 -0 -0 -0 -0 0 0 0 1.622575323336231 1:-0.9526 2:-0.951456 3:-0.977508 4:-0.789025 5:-0.938144 6:-0.636853 7:-1 8:-1 9:-0.921053 10:-1 11:-0.587597 12:-1 13:-0.965076 14:1 15:-1 16:-0.912415 17:-1 18:-0.618597 20:-0.7875 21:-0.663989 
-238.4859553382797 -0 -0 -0 -0 -0 -0 -613.1026765011858 1643.333688356044 259.7389015422942 480.8374231136215 0 1:-0.89572 2:-0.906149 3:-0.973562 4:-0.900483 5:-1 6:-0.385776 7:-0.9819 8:-0.991525 9:-0.815789 10:-1 11:-0.553488 12:-0.995904 13:-0.981762 14:-1 15:-0.892897 16:-0.999575 17:-1 18:-0.897557 20:-1 21:-0.651764 
-288.3799057313514 -0 -0 -0 -0 -0 -2048 -0 20.7090932571573 0 0 0 1:-0.94786 2:-1 3:-0.94377 4:-0.967586 5:-1 6:-0.887931 7:-1 8:-1 9:-1 10:-1 11:-1 12:-0.940219 13:-0.912301 14:-1 15:-0.919391 16:-0.994898 17:-1 18:-0.970843 20:-1 21:-0.938177 
-2048 -0 -0 -0 -0 -0 -2048 -0 2048 1660.720552099905 2048 2048 1:-0.93364 2:-0.996764 3:-0.956397 4:-0.956781 5:-1 6:-0.846983 7:-1 8:-1 9:-1 10:-1 11:-0.860465 12:-0.94199 13:-0.934808 14:-1 15:-0.917136 16:-1 17:-1 18:-0.944838 20:-1 21:-0.947258 
-0 -0 -0 -0 -0 -0 -1958.500158274582 -0 0 0 0 0 1:-0.953436 2:-0.524272 3:-0.973759 4:-0.820301 5:-1 6:-0.926724 7:-0.556561 8:-0.347458 9:-0.618421 10:-1 11:-0.75814 12:-0.994908 13:-0.948778 14:-1 15:-0.944758 16:-0.724915 17:-1 18:-0.680851 20:-1 21:-0.937478 
-0 -0 -0 -0 -0 -0 -2048 -2048 11.3758325610394 0 0 0 1:-0.940332 2:-1 3:-0.917924 4:-0.996019 5:-1 6:-0.772629 7:-1 8:-1 9:-1 10:-1 11:-1 12:-0.896601 13:-0.993403 14:-1 15:-0.777339 16:-0.987245 17:-1 18:-0.963751 20:-1 21:-0.877751 
-0 -3.081596403903648 -0 -0 -0 -0 -0 -1279.920230455012 0 0 0 0 1:-0.945908 2:-1 3:-0.960935 4:-0.936878 5:-1 6:-0.615302 7:-1 8:-1 9:-1 10:-1 11:-1 12:-0.973984 13:-0.82111 14:-1 15:-0.825817 16:-0.928997 17:-1 18:-0.783294 20:-1 21:-0.715683 
-0 -0 -0 -0 -0 -0 -0 -13.70854665779065 0 0 0 0 1:-0.950927 2:-0.983819 3:-0.984019 4:-0.853853 5:-1 6:-0.65625 7:-0.638009 8:-1 9:0.131579 10:-1 11:-0.72093 12:-0.992472 13:-0.925883 14:-1 15:-0.950395 16:-0.803571 17:-1 18:-0.643814 20:-1 21:-0.829549 
-0 -0 -0 -0 -0 -0 -2048 -2048 0 0 0 0 1:-0.943399 2:-0.932039 3:-0.979087 4:-0.9147 5:-1 6:-0.804957 7:-0.963801 8:-1 9:-0.0263158 10:-1 11:-0.835659 12:-0.980294 13:-0.831199 14:-1 15:-0.911499 16:-0.951956 17:-1 18:-0.646178 20:-1 21:-0.705204 
-0 -0 -0 -0 -0 -0 -2048 -0 0 0 0 0 1:-0.946466 2:-0.906149 3:-0.972773 4:-0.812909 5:-1 6:-0.991379 7:-1 8:-0.838983 9:-0.921053 10:-1 11:-0.885271 12:-0.976198 13:-0.855258 14:-1 15:-0.983089 16:-0.752551 17:-1 18:-0.863672 20:-1 21:-0.978694 
-0 -0 -51.56724199497307 -0 -0 -22.2720656259119 -2048 -0 0 0 0 0 1:-0.894326 2:-0.873786 3:-0.953832 4:-0.843048 5:-1 6:-0.880388 7:-1 8:-0.754237 9:-1 10:-1 11:-0.764341 12:-0.946862 13:-0.783081 14:-1 15:-0.960541 16:-0.762755 17:-1 18:-0.876281 20:-1 21:-0.93678 
-0 -3.70967373110923 -0 -0 -0 -0 -356.3342838860486 -352.9222179370954 0 0 0 0 1:-0.936707 2:-0.97411 3:-0.960541 4:-0.909582 5:-1 6:-0.514009 7:-1 8:-1 9:-1 10:-1 11:-0.72093 12:-0.964132 13:-0.861079 14:-1 15:-0.892334 16:-0.969813 17:-1 18:-0.870764 20:-1 21:-0.798812 
-0 -0 -0 -0 -19.8382104148955 -0 -0 -0 0 0 0 0 1:-0.95734 2:-1 3:-0.966657 4:-0.820301 5:-1 6:-0.753233 7:-1 8:-1 9:-1 10:-1 11:-1 12:-0.997454 13:-0.959643 14:-1 15:-0.967869 16:-0.816752 17:-1 18:-0.228526 20:-1 21:-0.784492 
-0 -0 -0 -0 -0 -0 -0 -2048 0 0 0 0 1:-0.87202 2:-0.880259 3:-0.930749 4:-0.836793 5:-1 6:-0.576509 7:-0.918552 8:-0.652542 9:-0.315789 10:-1 11:-0.541085 12:-0.955607 13:-0.900272 14:-1 15:-0.864149 16:-1 17:-1 18:-0.492514 20:-1 21:-0.698219 
-0 -0 -0 -0 -0 -0 -607.104120624739 -0 0 0 0 0 1:-0.958176 2:-0.951456 3:-0.979678 4:-0.793574 5:-1 6:-0.84806 7:-0.855204 8:-0.805085 9:0.684211 10:-1 11:-0.603101 12:-0.995793 13:-0.844393 14:-1 15:-0.976888 16:-0.698554 17:-1 18:-0.412136 20:-1 21:-0.935033 
-0 -0 -0 -0 -0 -0 -0 -0 0 0 733.6950395614662 0 1:-0.969329 2:-0.76699 3:-0.981849 4:-0.868069 5:-1 6:-0.62069 7:-0.9819 8:-0.889831 9:-0.697368 10:-1 11:-0.572093 12:-1 13:-0.906092 14:-1 15:-0.993799 16:-0.889031 17:-1 18:-0.360914 20:-1 21:-0.845267 
-0 -0 -0 -0 -0 -0 -291.7277614264098 -1524.496164253185 0 0 0 0 1:-0.927506 2:-0.928803 3:-0.975141 4:-0.792437 5:-1 6:-0.552802 7:-0.773756 8:-0.542373 9:-0.815789 10:-1 11:-0.444961 12:-0.992029 13:-0.904152 14:-1 15:-0.976888 16:-0.901361 17:-1 18:-0.568952 20:-1 21:-0.816975 
-258.4343407336939 -0 -0 -0 -0 -0 -0 -0 0 0 436.4154231493786 666.4943691273994 1:-0.954831 2:-1 3:-0.981454 4:-0.927211 5:-1 6:-0.773707 7:-1 8:-1 9:-1 10:-1 11:-1 12:-0.993911 13:-0.953434 14:-1 15:-0.956032 16:-0.893282 17:-1 18:-0.798266 20:-1 21:-0.872861 
-743.5543427332112 -0 -0 -0 -0 -0 -2048 -0 271.6791113227922 0 0 0 1:-0.94786 2:-1 3:-0.94377 4:-0.967586 5:-1 6:-0.887931 7:-1 8:-1 9:-1 10:-1 11:-1 12:-0.940219 13:-0.912301 14:-1 15:-0.919391 16:-0.994898 17:-1 18:-0.970843 20:-1 21:-0.938177 
-0 -0 -0 -0 -0 -0 -21.58014670532393 -0 0 0 0 0 1:-0.912728 2:-1 3:-0.934892 4:-1 5:-1 6:-0.823276 7:-1 8:-1 9:-1 10:-1 11:-1 12:-0.883206 13:-1 14:-1 15:-0.78805 16:-1 17:-1 18:-1 20:-1 21:-0.864478 
-0 -0 -0 -0 -0 -0 -2048 -0 0 0 0 0 1:-0.918305 2:-1 3:-0.933314 4:-0.978391 5:-1 6:-0.823276 7:-1 8:-1 9:-1 10:-1 11:-1 12:-0.885531 13:-0.964688 14:-1 15:-0.832582 16:-0.987245 17:-1 18:-0.939322 20:-1 21:-0.916172 
-0 -0 -0 -0 -0 -0 -2048 -0 0 0 0 0 1:-0.944514 2:-0.932039 3:-0.989149 4:-0.860108 5:-1 6:-0.827586 7:-1 8:-0.915254 9:-0.697368 10:-1 11:-0.454264 12:-0.984612 13:-0.88475 14:-1 15:-0.918828 16:-0.757228 17:-1 18:-0.393223 20:-1 21:-0.817674 
-0 -0 -0 -0 -0 -0 -51.21989609042865 -1467.368571682886 0 0 0 0 1:-0.903527 2:-1 3:-0.896616 4:-0.945977 5:-1 6:-0.817888 7:-1 8:-1 9:-1 10:-1 11:-1 12:-0.923281 13:-0.909197 14:-1 15:-0.834273 16:-0.968537 17:-1 18:-1 20:-1 21:-0.909885 
-0 -0 -0 -0 -0 -2.173358715939232 -2048 -0 0 0 0 0 1:-0.904921 2:-0.938511 3:-0.915951 4:-1 5:-1 6:-0.809267 7:-1 8:-0.805085 9:-1 10:-1 11:-0.820155 12:-0.852541 13:-1 14:-1 15:-0.897971 16:-1 17:-1 18:-1 20:-1 21:-0.904296 
-0 -0 -0 -0 -0 -0 -2048 -0 0 0 0 0 1:-0.916911 2:-0.996764 3:-0.930946 4:-0.939153 5:-1 6:-0.883621 7:-1 8:-1 9:-1 10:-1 11:-0.848062 12:-0.909997 13:-0.927047 14:-1 15:-0.916573 16:-0.990646 17:-1 18:-0.838455 20:-1 21:-0.955292 
-0 -0 -0 -0 -0 -0 -0 -2048 0 0 0 0 1:-0.902412 2:-1 3:-0.909243 4:-0.936309 5:-1 6:-0.775862 7:-1 8:-1 9:-1 10:-1 11:-1 12:-0.898594 13:-0.977105 14:-1 15:-0.890079 16:-0.982143 17:-1 18:-0.838455 20:-1 21:-0.899057 
-0 -0 -0 -0 -0 -0 -2048 -0 0 0 0 0 1:-0.935313 2:-0.967638 3:-0.933708 4:-0.923799 5:-1 6:-0.834052 7:-0.782805 8:-1 9:-0.486842 10:-1 11:-0.897674 12:-0.97332 13:-0.897943 14:-1 15:-0.920519 16:-0.724915 17:-1 18:-0.967691 20:-1 21:-0.972057 
-0 -0 -0.1226438340344901 -0 -0 -1.231587052225123 -2048 -42.08207994255624 0 0 0 0 1:-0.899902 2:-0.89644 3:-0.964684 4:-0.695195 5:-1 6:-0.807112 7:-1 8:-1 9:-0.723684 10:-1 11:-1 12:-0.969224 13:-0.742336 14:-1 15:-0.923337 16:-0.720663 17:-1 18:-0.794326 20:-1 21:-0.94656 
-0 -0 -0.3910075824757844 -0 -0 -0 -0 -0 0 0 0 0 1:-0.921372 2:-1 3:-0.972773 4:-0.824282 5:-1 6:-0.832974 7:-1 8:-1 9:-1 10:-1 11:-1 12:-0.999557 13:-0.914241 14:-1 15:-0.921646 16:-0.490646 17:-1 18:-0.720252 20:-1 21:-0.95145 
-0 -0 -0 -0 -0 -0 -0 -0 0 0 0 213.301119682468 1:-0.919699 2:-0.757282 3:-0.970405 4:-0.926073 5:-1 6:-0.720905 7:-0.972851 8:-0.957627 9:-0.394737 10:-1 11:-0.311628 12:-0.989372 13:-0.977881 14:-1 15:-0.984216 16:-0.872874 17:-1 18:-0.548463 20:-1 21:-0.603912 
-0 -0 -0 -0 -0 -0 -1842.516798612618 -693.0708961798331 0 0 0 0 1:-0.903527 2:-1 3:-0.896616 4:-0.945977 5:-1 6:-0.817888 7:-1 8:-1 9:-1 10:-1 11:-1 12:-0.923281 13:-0.909197 14:-1 15:-0.834273 16:-0.968537 17:-1 18:-1 20:-1 21:-0.909885 
-0 -0 -0 -0 -0 -39.88227455865918 -2048 -120.4546168752783 0 0 0 0 1:-0.904921 2:-0.938511 3:-0.915951 4:-1 5:-1 6:-0.809267 7:-1 8:-0.805085 9:-1 10:-1 11:-0.820155 12:-0.852541 13:-1 14:-1 15:-0.897971 16:-1 17:-1 18:-1 20:-1 21:-0.904296 
-0 -0 -0 -0 -0 -0 -2048 -0 0 0 0 0 1:-0.916911 2:-0.996764 3:-0.930946 4:-0.939153 5:-1 6:-0.883621 7:-1 8:-1 9:-1 10:-1 11:-0.848062 12:-0.909997 13:-0.927047 14:-1 15:-0.916573 16:-0.990646 17:-1 18:-0.838455 20:-1 21:-0.955292 
-0 -0 -0 -0 -0 -423.4568027834 -0 -2048 0 0 0 0 1:-0.902412 2:-1 3:-0.909243 4:-0.936309 5:-1 6:-0.775862 7:-1 8:-1 9:-1 10:-1 11:-1 12:-0.898594 13:-0.977105 14:-1 15:-0.890079 16:-0.982143 17:-1 18:-0.838455 20:-1 21:-0.899057 
-0 -10.86534072194494 -65.71079408456228 -0 -145.1526219395793 -86.76646970745379 -2048 -222.3108695592477 0 0 0 0 1:-0.899902 2:-0.89644 3:-0.964684 4:-0.695195 5:-1 6:-0.807112 7:-1 8:-1 9:-0.723684 10:-1 11:-1 12:-0.969224 13:-0.742336 14:-1 15:-0.923337 16:-0.720663 17:-1 18:-0.794326 20:-1 21:-0.94656 
-0 -0 -157.637186560702 -0 -0 -0 -0 -0 0 0 0 0 1:-0.921372 2:-1 3:-0.972773 4:-0.824282 5:-1 6:-0.832974 7:-1 8:-1 9:-1 10:-1 11:-1 12:-0.999557 13:-0.914241 14:-1 15:-0.921646 16:-0.490646 17:-1 18:-0.720252 20:-1 21:-0.95145 
-509.3852512700774 -0 -0 -0 -0 -0 -0 -0 -0 499.185553826327 1597.21582066826 1926.322800464648 1:-0.979646 2:-0.71521 3:-0.980665 4:-0.983509 5:-1 6:-0.742457 7:-0.457014 8:-0.983051 9:-1 10:-1 11:0.262016 12:-1 13:-0.957703 14:-1 15:-0.935175 16:-0.981718 17:-1 18:-0.963751 20:-1 21:-0.735592 
-2048 -0 -0 -0 -0 -0 -0 -0 -0 2048 2048 2048 1:-0.965147 2:-0.618123 3:-0.990727 4:-0.976685 5:-1 6:-0.653017 7:-0.447964 8:-1 9:-1 10:-1 11:-0.423256 12:-0.997675 13:-0.985254 14:-1 15:-0.970124 16:-0.969813 17:-1 18:-0.956659 20:-1 21:-0.869368 
-2048 -0 -0 -0 -0 -0 -0 -0 -559.5973195660337 2048 2048 2048 1:-0.965147 2:-0.957929 3:-0.997435 4:-0.925505 5:-1 6:-0.639009 7:-1 8:-1 9:-0.671053 10:-1 11:-0.751938 12:-1 13:-0.98409 14:-1 15:-0.994363 16:-0.974915 17:-1 18:-0.931442 20:-1 21:-0.842473 
-2048 -0 -0 -0 -0 -0 -0 -0 -0 2048 2048 2048 1:-0.9763 2:-0.834951 3:-0.998224 4:-0.939721 5:-1 6:-0.700431 7:-1 8:-1 9:-0.631579 10:-1 11:-0.581395 12:-0.999668 13:-0.985642 14:-1 15:-1 16:-0.97534 17:-1 18:-0.950355 20:-1 21:-0.914425 
-2048 -0 -0 -0 -0 -0 -0 -0 -0 2048 2048 2048 1:-0.968772 2:-0.789644 3:-0.997238 4:-0.963605 5:-1 6:-0.761853 7:-0.837104 8:-1 9:-0.75 10:-1 11:-0.826357 12:-1 13:-0.999612 14:-1 15:-0.988162 16:-0.996173 17:-1 18:-0.91647 20:-1 21:-0.926301 
-2048 -0 -0 -0 -0 -0 -0 -0 -0 507.9643691076236 29.61569468849637 2048 1:-0.969051 2:-0.928803 3:-0.994278 4:-0.985215 5:-1 6:-0.701509 7:-0.900452 8:-1 9:-1 10:-1 11:-0.823256 12:-0.998893 13:-1 14:-1 15:-0.971251 16:-0.996599 17:-1 18:-0.970055 20:-1 21:-0.886832 
-1921.971380051946 -0 -26.27949233590541 -0 -0 -0 -0 -0 -31.10698865253474 2048 2048 2048 1:-0.982434 2:-0.838188 3:-0.992503 4:-0.924936 5:-1 6:-0.786638 7:-1 8:-1 9:-0.934211 10:-1 11:-0.618605 12:-1 13:-0.979045 14:-1 15:-0.979707 16:-0.977466 17:-1 18:-0.828999 20:-1 21:-0.904296 
-2048 -0 -0 -0 -0 -0 -0 -0 -0 2048 2048 2048 1:-0.956782 2:-0.588997 3:-1 4:-0.891385 5:-1 6:-0.614224 7:-0.574661 8:-1 9:-0.565789 10:-1 11:-0.11938 12:-1 13:-1 14:-1 15:-1 16:-0.967262 17:-1 18:-0.92041 20:-1 21:-0.815229 
-1455.474806717278 -0 -0 -0 -0 -0 -0 -0 -2048 0 0 2048 1:-0.973233 2:-0.902913 3:-0.988754 4:-0.965311 5:-1 6:-0.719828 7:-1 8:-1 9:-1 10:-1 11:-0.820155 12:-1 13:-0.986418 14:-1 15:-0.941375 16:-0.995748 17:-1 18:-0.973207 20:-1 21:-0.77576 
-2048 -0 -0 -0 -0 -0 -0 -0 -0 2048 2048 2048 1:-0.961522 2:-0.686084 3:-1 4:-0.938584 5:-1 6:-0.544181 7:-1 8:-1 9:-0.868421 10:-1 11:-0.696124 12:-1 13:-1 14:-1 15:-1 16:-1 17:-1 18:-0.888101 20:-1 21:-0.869019 
-2048 -0 -0 -0 -0 -0 -0 -0 -0 2048 2048 1208.200414686627 1:-0.975464 2:-0.893204 3:-0.993686 4:-0.945408 5:-1 6:-0.701509 7:-1 8:-1 9:-0.75 10:-1 11:-0.962791 12:-0.998339 13:-0.99612 14:-1 15:-0.978579 16:-0.980867 17:-1 18:-0.930654 20:-1 21:-0.849459 
-0 -0 -0 -0 -0 -0 -486.1028600914179 -0 -0 142.6855389696786 2048 2048 1:-0.979088 2:-0.84466 3:-0.982638 4:-0.977822 5:-1 6:-0.884698 7:-1 8:-0.983051 9:-0.710526 10:-1 11:-0.665116 12:-0.996457 13:-0.995731 14:-1 15:-0.948703 16:-0.991497 17:-1 18:-0.927502 20:-1 21:-0.950052 
-2048 -0 -0 -0 -0 -0 -0 -0 -0 2048 2048 0 1:-0.96682 2:-0.799353 3:-0.992108 4:-0.968723 5:-1 6:-0.578664 7:-1 8:-1 9:-0.828947 10:-1 11:-0.832558 12:-1 13:-0.992239 14:-1 15:-0.975197 16:-0.991497 17:-1 18:-0.903861 20:-1 21:-0.800559 
-2048 -0 -0 -0 -0 -0 -0 -0 -0 703.2888423114746 0 1976.41253657372 1:-0.974069 2:-0.508091 3:-0.979678 4:-0.973273 5:-1 6:-0.741379 7:-0.040724 8:-0.771186 9:-0.697368 10:-1 11:-0.336434 12:-0.99214 13:-0.993791 14:-1 15:-0.956032 16:-1 17:-1 18:-0.98424 20:-1 21:-0.896961 
-0 -2.1834451817819 -10.20726074811433 -0 -24.37341398800007 -30.04688986537157 -0 -503.2429226931112 -2048 2048 2048 237.5672245104687 1:-0.965705 2:-0.951456 3:-0.972576 4:-0.911288 5:-1 6:-0.515086 7:-1 8:-1 9:-0.592105 10:-1 11:-0.717829 12:-0.994575 13:-1 14:-1 15:-0.94363 16:-0.995323 17:-1 18:-0.79275 20:-1 21:-0.821167 
-0 -0 -64.65718033117304 -3.619103820979995 -0 -30.65834585180501 -1134.552899462383 -205.9155045730108 -465.9240964547498 0 0 2048 1:-0.962638 2:-0.783172 3:-0.979087 4:-0.932897 5:-1 6:-0.90625 7:-0.819005 8:-0.838983 9:-0.789474 10:-1 11:-1 12:-1 13:-0.967404 14:-1 15:-0.966742 16:-0.974915 17:-1 18:-0.93223 20:-1 21:-0.973804 
-0 -0 -0 -0 -4.169330136848185 -70.1319683378799 -0 -0 -0 0 768.7276925485427 2048 1:-0.979925 2:-0.857605 3:-0.981059 4:-0.951663 5:-1 6:-0.802802 7:-1 8:-1 9:-1 10:-1 11:-0.897674 12:-0.996679 13:-0.994179 14:-1 15:-0.953213 16:-0.977891 17:-1 18:-0.910165 20:-1 21:-0.927 
-1148.211217154832 -0 -0 -0 -0 -0 -0 -0 -0 2048 2048 2048 1:-0.984386 2:-0.838188 3:-0.985005 4:-0.943702 5:-1 6:-0.934267 7:-0.466063 8:-0.864407 9:-0.486842 10:-1 11:-0.869767 12:-0.998893 13:-0.973225 14:-1 15:-0.985908 16:-0.928146 17:-1 18:-0.858156 20:-1 21:-0.946909 
-2048 -0 -0 -0 -0 -0 -0 -0 -0 2048 2048 2048 1:-0.991356 2:-0.932039 3:-0.990332 4:-0.954507 5:-1 6:-0.821121 7:-1 8:-1 9:-0.828947 10:-1 11:-0.652713 12:-0.999779 13:-0.985254 14:-1 15:-0.975761 16:-0.973214 17:-1 18:-0.918834 20:-1 21:-0.912679 
-0 -3.816691670295705 -0 -0 -35.68698066539791 -71.97917796554167 -1161.406279981985 -444.4157919570946 -265.0980826642929 0 0 0 1:-0.983271 2:-0.977346 3:-0.973168 4:-0.994882 5:-1 6:-0.657328 7:-1 8:-1 9:-1 10:-1 11:-0.829457 12:-0.992693 13:-0.992239 14:-1 15:-0.829763 16:-0.991922 17:-1 18:-0.955083 20:-1 21:-0.841425 
-0 -0 -0 -6.391717032891689 -0 -0 -0 -114.5967922315459 -405.7365317525403 0 1670.718258130684 0 1:-0.969887 2:-0.851133 3:-0.949887 4:-1 5:-1 6:-0.633621 7:-0.628959 8:-0.677966 9:-1 10:-1 11:-0.491473 12:-0.972102 13:-1 14:-1 15:-0.827508 16:-1 17:-1 18:-1 20:-1 21:-0.807894 
-2048 -14.71290192483779 -0 -0 -45.42099804772667 -0 -0 -0 -0 0 0 0 1:-0.965426 2:-0.94822 3:-0.962908 4:-0.985783 5:-1 6:-0.40625 7:-1 8:-1 9:-1 10:-1 11:-0.677519 12:-0.987047 13:-0.996896 14:-1 15:-0.895152 16:-1 17:-1 18:-0.983452 20:-1 21:-0.771568 
-0 -0 -0 -0 -0 -0 -0 -0 -0 2048 2048 2048 1:-0.971002 2:-0.61165 3:-0.974549 4:-0.981234 5:-1 6:-0.618534 7:-0.420814 8:-1 9:-0.934211 10:-1 11:-0.134884 12:-0.98904 13:-0.998836 14:-1 15:-0.942503 16:-1 17:-1 18:-0.923562 20:-1 21:-0.794272 
-2048 -0 -0 -4.813375897609943 -0 -0 -0 -0 -0 2048 2048 667.6772837193587 1:-0.967378 2:-0.411003 3:-0.973365 4:-0.976685 5:-1 6:-0.653017 7:-0.674208 8:-0.525424 9:-0.407895 10:-1 11:0.00465116 12:-0.989704 13:-0.994567 14:-1 15:-0.97407 16:-0.998724 17:-1 18:-0.970055 20:-1 21:-0.849109 
-198.1826635869057 -0.172707415376674 -0 -1.531189210237776 -0 -0 -0 -0 -0 0 0 0 1:-0.950927 2:-0.139159 3:-0.977903 4:-0.969861 5:-1 6:-0.516164 7:0.384615 8:-1 9:-0.421053 10:-1 11:0.0573643 12:-0.983837 13:-0.994955 14:-1 15:-0.943067 16:-0.997449 17:-1 18:-0.960599 20:-1 21:-0.822564 
-2048 -0 -0 -0 -0 -0 -0 -0 -0 2048 0 2048 1:-0.985222 2:-0.81877 3:-0.996054 4:-0.984646 5:-1 6:-0.891164 7:-0.936652 8:-0.966102 9:-1 10:-1 11:-0.894574 12:-1 13:-1 14:-1 15:-0.997745 16:-0.996173 17:-1 18:-0.978723 20:-1 21:-0.98044 
-2048 -0 -0 -0 -0 -0 -0 -0 -0 2048 2048 2048 1:-0.988847 2:-0.656958 3:-0.982441 4:-0.959625 5:-1 6:-0.952586 7:-0.520362 8:-0.983051 9:-0.552632 10:-1 11:-0.454264 12:-0.997897 13:-0.976329 14:-1 15:-0.990417 16:-0.976616 17:-1 18:-0.927502 20:-1 21:-0.995809 
-0 -0 -0 -0 -0 -0 -0 -0 -0 -1389.289682560012 0 2048 1:-0.963195 2:-0.521036 3:-0.998027 4:-0.869207 5:-1 6:-0.713362 7:-0.339367 8:-1 9:-1 10:-1 11:-0.522481 12:-0.998893 13:-0.976717 14:-1 15:-1 16:-0.887755 17:-1 18:-0.886525 20:-1 21:-0.918966 
-0 -0 -0 -0.9877407143788519 -0 -0 -70.2350953824587 -0 -0 -0 0 1065.665488077027 1:-0.977136 2:-0.2589 3:-0.988359 4:-0.912425 5:-1 6:-0.767241 7:0.18552 8:-0.788136 9:-0.289474 10:-1 11:-0.255814 12:-1 13:-0.98603 14:-1 15:-0.988726 16:-0.868622 17:-1 18:-0.829787 20:-1 21:-0.959483 
-2048 -0 -0 -0 -0 -0 -0 -0 -0 -2048 2048 2048 1:-0.967099 2:-0.478964 3:-1 4:-0.986921 5:-1 6:-0.752155 7:-0.927602 8:-1 9:-0.934211 10:-1 11:-0.435659 12:-1 13:-1 14:-1 15:-1 16:-1 17:-1 18:-0.921198 20:-1 21:-0.816277 
-2048 -0 -0 -0 -0 -0 -0 -0 -0 -2048 1878.493114132466 2048 1:-0.976858 2:-0.941748 3:-1 4:-0.996019 5:-1 6:-0.626078 7:-1 8:-1 9:-1 10:-1 11:-0.894574 12:-1 13:-1 14:-1 15:-1 16:-0.997874 17:-1 18:-0.959811 20:-1 21:-0.869019 
-2048 -0 -0 -0 -0 -0 -0 -0 -0 -2048 2048 2048 1:-0.967099 2:-0.857605 3:-1 4:-0.944839 5:-1 6:-0.552802 7:-1 8:-1 9:-0.776316 10:-1 11:-0.832558 12:-1 13:-1 14:-1 15:-1 16:-0.995323 17:-1 18:-0.937746 20:-1 21:-0.830947 
-2048 -0 -0 -0 -0 -0 -0 -0 -0 -2048 2048 2048 1:-0.968772 2:-0.666667 3:-1 4:-1 5:-1 6:-0.40625 7:-0.782805 8:-1 9:-1 10:-1 11:-0.0852713 12:-1 13:-1 14:-1 15:-1 16:-1 17:-1 18:-1 20:-1 21:-0.791827 
-160.3429973022411 -0 -0 -0 -0 -19.2149565737655 -92.77791771935617 -16.66877193138976 -99.61384769412257 -165.1981811935669 560.8110244412647 394.6916751844366 1:-0.995539 2:-0.987055 3:-0.995857 4:-0.976685 5:-0.958763 6:-0.881466 7:-0.846154 8:-0.974576 9:-1 10:-1 11:-0.810853 12:-1 13:-0.98409 14:-1 15:-0.972379 16:-0.987245 17:-0.785714 18:-0.871552 20:-0.7875 21:-0.891722 
-2048 -0 -48.49968631628872 -0.004326257174725022 -13.93598955798974 -71.45307177286327 -1381.960774057379 -271.5431770124838 -720.8011015911321 -2048 2048 2048 1:-0.983549 2:-0.854369 3:-0.981059 4:-0.985215 5:-1 6:-0.867457 7:-1 8:-0.79661 9:-1 10:-1 11:-0.95969 12:-0.997122 13:-0.98409 14:-1 15:-0.973506 16:-0.996173 17:-1 18:-0.964539 20:-1 21:-0.938875 
-0 -2.180561282910336 -15.71816275423678 -0 -11.60918387050432 -45.61884870965052 -1346.298933221976 -318.3731655670351 -1512.924878104761 -2048 2048 2048 1:-0.981319 2:-0.857605 3:-0.985005 4:-0.93176 5:-1 6:-0.887931 7:-1 8:-1 9:-0.434211 10:-1 11:-0.748837 12:-0.98738 13:-0.987971 14:-1 15:-0.961105 16:-0.929847 17:-1 18:-0.801418 20:-1 21:-0.969612 
-2048 -0 -17.73926261160165 -0 -0 -0 -510.9314707835431 -501.1369958280526 -1213.541701115975 -2048 2048 2048 1:-0.981598 2:-0.97411 3:-0.999014 4:-0.944839 5:-1 6:-0.806034 7:-0.846154 8:-0.745763 9:-0.684211 10:-1 11:-0.820155 12:-0.99845 13:-0.976329 14:-1 15:-0.988726 16:-0.994898 17:-1 18:-0.894405 20:-1 21:-0.861334 
-0 -0 -0 -0 -0 -0 -0 -0 -0 -0 2048 0 1:-0.968772 2:-0.300971 3:-1 4:-0.935172 5:-1 6:-0.685345 7:-0.447964 8:-1 9:-0.684211 10:-1 11:-0.299225 12:-1 13:-1 14:-1 15:-1 16:-0.992347 17:-1 18:-0.869188 20:-1 21:-0.872511 
-2048 -0 -0 -0 -0 -0 -0 -0 -0 -1759.196227572856 1898.029872100351 0 1:-0.971839 2:-0.94822 3:-1 4:-0.954507 5:-1 6:-0.387931 7:-1 8:-1 9:-0.513158 10:-1 11:-0.823256 12:-1 13:-1 14:-1 15:-1 16:-0.995748 17:-1 18:-0.884161 20:-1 21:-0.77541 
-1856.440672642094 -0 -0 -0 -0 -0 -0 -0 -0 -1077.168101787987 2048 2048 1:-0.951764 2:-0.679612 3:-1 4:-0.922661 5:-1 6:-0.442888 7:-1 8:-1 9:-0.75 10:-1 11:-0.668217 12:-1 13:-1 14:-1 15:-1 16:-0.959184 17:-1 18:-0.843972 20:-1 21:-0.828152 
-472.6693589627036 -0 -0 -0 -0 -0 -0 -0 -0 -1324.687722316931 2048 2048 1:-0.963753 2:-0.912621 3:-0.993292 4:-0.918112 5:-1 6:-0.807112 7:-0.800905 8:-1 9:-0.355263 10:-1 11:-0.795349 12:-0.997232 13:-0.97012 14:-1 15:-0.997745 16:-0.971514 17:-1 18:-0.818755 20:-1 21:-0.932937 
-2048 -0 -0 -0 -0 -0 -0 -0 -0 -2048 2048 2048 1:-0.988289 2:-0.760518 3:-0.999211 4:-0.978391 5:-1 6:-0.780172 7:-0.746606 8:-1 9:-0.671053 10:-1 11:-0.469767 12:-1 13:-0.993791 14:-1 15:-0.997745 16:-0.988946 17:-1 18:-0.906225 20:-1 21:-0.880894 
-2048 -0 -0 -0 -0 -0 -0 -0 -0 -2048 2048 2048 1:-0.994981 2:-0.851133 3:-0.994673 4:-0.984646 5:-1 6:-0.924569 7:-0.864253 8:-1 9:-0.684211 10:-1 11:-0.55969 12:-0.997343 13:-1 14:-1 15:-0.987035 16:-0.993622 17:-1 18:-0.985028 20:-1 21:-0.948655 
-2048 -0 -0 -0 -0 -0 -0 -0 -0 -2048 0 2048 1:-0.977136 2:-0.365696 3:-0.991319 4:-0.955075 5:-1 6:-0.798491 7:-0.303167 8:-0.822034 9:-0.5 10:-1 11:-0.203101 12:-0.994022 13:-0.969344 14:-1 15:-0.983089 16:-0.987245 17:-1 18:-0.952719 20:-1 21:-0.933636 
-1819.494018741297 -0 -0 -0 -0 -0 -0 -0 -0 -678.2874615396457 1243.269155120209 2048 1:-0.987453 2:-0.763754 3:-1 4:-0.909582 5:-1 6:-0.849138 7:-0.248869 8:-1 9:-0.631579 10:-1 11:-0.234109 12:-1 13:-1 14:-1 15:-1 16:-0.916241 17:-1 18:-0.895193 20:-1 21:-0.934684 
-0 -0 -0 -17.53616932777631 -0 -0 -0 -0 -0 -710.4150775373213 1932.361383965969 0 1:-0.973791 2:-0.430421 3:-0.988951 4:-0.926642 5:-1 6:-0.337284 7:-0.538462 8:-0.669492 9:-0.605263 10:-1 11:-0.525581 12:-0.997122 13:-0.961195 14:-1 15:-0.986471 16:-0.980867 17:-1 18:-0.921198 20:-1 21:-0.608802 
-2048 -13.28116686680525 -0 -0 -60.66750833600886 -28.79301673137305 -0 -23.54508564690095 -1537.893519580782 -4.062705338490513 2048 1094.037140464895 1:-0.980482 2:-0.928803 3:-1 4:-0.969292 5:-1 6:-0.189655 7:-1 8:-1 9:-1 10:-1 11:-0.782946 12:-1 13:-1 14:-1 15:-1 16:-0.989796 17:-1 18:-0.941686 20:-1 21:-0.536849 
-0 -5.52096526055206 -18.30253616580228 -0 -27.23185418635094 -13.18482646320325 -0 -85.74632043667036 -165.5597576856207 -111.3609999271929 2048 2048 1:-0.965426 2:-0.932039 3:-0.996251 4:-0.896503 5:-1 6:-0.482759 7:-0.58371 8:-1 9:-0.986842 10:-1 11:-0.534884 12:-1 13:-0.98409 14:-1 15:-0.978579 16:-0.960459 17:-1 18:-0.748621 20:-1 21:-0.842822 
-2048 -0 -0 -0 -0 -0 -0 -0 -0 -1995.505493271886 1872.547627675534 2048 1:-0.982713 2:-0.747573 3:-1 4:-0.977822 5:-1 6:-0.705819 7:-0.683258 8:-1 9:-0.894737 10:-1 11:-0.649612 12:-1 13:-1 14:-1 15:-1 16:-1 17:-1 18:-0.878645 20:-1 21:-0.907789 
-2048 -0 -0 -0 -0 -0 -0 -0 -0 -2048 2048 2048 1:-0.983549 2:-0.699029 3:-0.989149 4:-0.928348 5:-1 6:-0.767241 7:-0.457014 8:-0.991525 9:-0.763158 10:-1 11:-0.0666667 12:-1 13:-0.989135 14:-1 15:-0.980271 16:-0.92517 17:-1 18:-0.900709 20:-1 21:-0.880196 
-2048 -0 -0 -0 -0 -0 -0 -0 -0 -2048 2048 2048 1:-0.985501 2:-0.932039 3:-1 4:-0.936878 5:-1 6:-0.849138 7:-1 8:-1 9:-0.578947 10:-1 11:-0.742636 12:-1 13:-1 14:-1 15:-1 16:-0.96216 17:-1 18:-0.877857 20:-1 21:-0.929445 
-2048 -0 -0 -0 -0 -0 -0 -0 -0 -829.9526511692152 2048 2048 1:-0.979367 2:-0.61165 3:-1 4:-0.986921 5:-1 6:-0.630388 7:-0.502262 8:-1 9:-0.960526 10:-1 11:-0.265116 12:-1 13:-1 14:-1 15:-1 16:-0.99915 17:-1 18:-0.952719 20:-1 21:-0.885784 
-2048 -0 -0 -0 -0 -0 -0 -0 -0 -2048 -2048 2048 1:-0.970445 2:-0.569579 3:-0.984808 4:-0.947114 5:-1 6:-0.619612 7:-0.411765 8:-1 9:-0.815789 10:-1 11:-0.314729 12:-0.998561 13:-0.982926 14:-1 15:-0.997182 16:-0.98852 17:-1 18:-0.86052 20:-1 21:-0.882641 
-1788.349830547191 -0 -0 -0 -0 -0 -0 -0 -0 -0 -0 2048 1:-0.977136 2:-0.724919 3:-1 4:-0.941996 5:-1 6:-0.757543 7:-0.357466 8:-1 9:-0.618421 10:-1 11:0.243411 12:-1 13:-1 14:-1 15:-1 16:-0.92602 17:-1 18:-0.895193 20:-1 21:-0.911282 
-941.5767771200876 -0 -0 -0 -0 -0 -0 -0 -0 -0 -2048 0 1:-0.952321 2:-0.618123 3:-1 4:-0.983509 5:-1 6:-0.128233 7:-0.800905 8:-1 9:-1 10:-1 11:-0.47907 12:-1 13:-1 14:-1 15:-1 16:-0.997449 17:-1 18:-0.966115 20:-1 21:-0.713587 
-0 -5.37688443026886 -0 -0 -4.218931684661318 -0 -0 -0 -1337.662518098121 -0 -0 0 1:-0.978531 2:-0.919094 3:-1 4:-0.933466 5:-1 6:-0.273707 7:-0.99095 8:-1 9:-1 10:-1 11:-0.308527 12:-1 13:-1 14:-1 15:-1 16:-0.972789 17:-1 18:-0.865248 20:-1 21:-0.554314 
-137.4977648133643 -0 -0 -0 -0 -0 -0 -0 -0 -0 -0 0 1:-0.970724 2:-0.411003 3:-0.997435 4:-0.882855 5:-1 6:-0.595905 7:-0.19457 8:-1 9:-0.171053 10:-1 11:0.553488 12:-1 13:-0.992239 14:-1 15:-0.999436 16:-0.971088 17:-1 18:-0.874704 20:-1 21:-0.860286 
-2048 -1.271571987950215 -0 -0 -10.45530211293372 -0 -0 -0 -0 -932.6314551742568 -2048 1330.134260610738 1:-0.949254 2:-0.783172 3:-1 4:-1 5:-1 6:-0.100216 7:-0.963801 8:-1 9:-1 10:-1 11:-0.606202 12:-1 13:-1 14:-1 15:-1 16:-1 17:-1 18:-1 20:-1 21:-0.617883 
-0 -0 -0 -0 -0 -0 -0 -0 -0 -0 -0 2048 1:-0.982992 2:-0.802589 3:-0.993489 4:-0.957919 5:-1 6:-0.788793 7:-1 8:-0.991525 9:-0.776316 10:-1 11:-0.32093 12:-0.999114 13:-1 14:-1 15:-0.977452 16:-0.998724 17:-1 18:-0.84476 20:-1 21:-0.862382 
-2048 -0 -0 -0 -0 -0 -0 -0 -0 -0 -0 2048 1:-0.987174 2:-0.809061 3:-1 4:-0.969861 5:-1 6:-0.771552 7:-1 8:-1 9:-0.934211 10:-1 11:-0.386047 12:-1 13:-1 14:-1 15:-1 16:-1 17:-1 18:-0.895981 20:-1 21:-0.858889 
-0 -0 -0 -0 -0 -0 -0 -0 -0 -508.9123764893998 -2048 0 1:-0.962359 2:-0.669903 3:-0.999605 4:-0.953938 5:-1 6:-0.544181 7:-0.945701 8:-1 9:-1 10:-1 11:-0.727132 12:-1 13:-1 14:-1 15:-0.981962 16:-0.999575 17:-1 18:-0.835303 20:-1 21:-0.823961 
-0 -0 -0 -0 -0 -0 -0 -0 -0 -0 -2048 0 1:-0.979367 2:-0.847896 3:-1 4:-0.941996 5:-1 6:-0.755388 7:-0.809955 8:-1 9:-0.552632 10:-1 11:-0.550388 12:-1 13:-1 14:-1 15:-1 16:-0.997449 17:-1 18:-0.78093 20:-1 21:-0.875306 
-0 -0 -0.2218953989874251 -0 -0 -0 -0 -66.84854308260611 -0 -0 -0 557.7761009390612 1:-0.982713 2:-0.763754 3:-0.993884 4:-0.912994 5:-1 6:-0.867457 7:-0.60181 8:-0.610169 9:-0.697368 10:-1 11:-0.342636 12:-0.998782 13:-0.995731 14:-1 15:-0.988726 16:-0.966837 17:-1 18:-0.828999 20:-1 21:-0.937129 
-0 -0 -0 -0 -0 -0 -45.84982565282128 -46.46495636677468 -0 -0 -0 0 1:-0.982992 2:-0.631068 3:-1 4:-0.96588 5:-1 6:-0.709052 7:-0.846154 8:-1 9:-0.644737 10:-1 11:0.696124 12:-1 13:-1 14:-1 15:-1 16:-0.992772 17:-1 18:-0.910165 20:-1 21:-0.825707 
-0 -0 -0 -0 -0 -0 -0 -0 -0 -0 -156.5928157826081 2048 1:-0.969051 2:-0.851133 3:-1 4:-0.90617 5:-1 6:-0.466595 7:-1 8:-1 9:-0.776316 10:-1 11:-0.593798 12:-1 13:-1 14:-1 15:-1 16:-0.940476 17:-1 18:-0.859732 20:-1 21:-0.806497 
-2048 -0 -0 -0 -0 -0 -0 -0 -0 -0 -0 828.3218056112285 1:-0.962359 2:-0.692557 3:-1 4:-0.947114 5:-1 6:-0.502155 7:-0.61086 8:-1 9:-0.75 10:-1 11:-0.0232558 12:-1 13:-1 14:-1 15:-1 16:-0.991922 17:-1 18:-0.918046 20:-1 21:-0.868669 
-0 -0 -0 -0 -0 -0 -0 -0 -0 -1711.714338282012 -2048 2048 1:-0.986895 2:-0.812298 3:-0.997632 4:-0.932329 5:-1 6:-0.677802 7:-0.891403 8:-1 9:-0.763158 10:-1 11:-0.68062 12:-1 13:-0.993403 14:-1 15:-1 16:-0.928571 17:-1 18:-0.888889 20:-1 21:-0.851205 
-1629.001728878923 -0 -0 -0 -0 -0 -0 -0 -0 -0 -0 725.2421819452694 1:-0.975742 2:-0.669903 3:-0.992305 4:-0.99147 5:-1 6:-0.575431 7:-0.954751 8:-0.889831 9:-1 10:-1 11:-0.265116 12:-1 13:-1 14:-1 15:-0.989853 16:-1 17:-1 18:-0.98818 20:-1 21:-0.746769 
-0 -0 -0 -8.275134064330652 -0 -0 -0 -0 -0 -0.3744512350072438 -178.8469471347739 0 1:-0.958176 2:-0.744337 3:-0.994476 4:-0.941427 5:-0.731959 6:-0.423491 7:-0.61991 8:-1 9:-0.986842 10:-1 11:-0.314729 12:-1 13:-0.989911 14:-0.794872 15:-0.964487 16:-0.995323 17:-1 18:-0.874704 20:-0.7 21:-0.755851 
-0 -0 -0 -1.517871727141745 -0 -3.457056174251131 -0 -0 -0 -56.51803809528023 -17.27466373390432 56.16529032997665 1:-0.956225 2:-0.737864 3:-0.990727 4:-0.830537 5:-0.979381 6:-0.740302 7:-1 8:-0.991525 9:-0.723684 10:-0.375 11:-0.80155 12:-0.998893 13:-0.999612 14:-1 15:-0.974634 16:-0.922619 17:-1 18:-0.821907 20:-0.825 21:-0.959134 
-0 -0 -0 -0 -0 -0 -0 -0 -0 -329.634824026072 -58.71991527421294 0 1:-0.976579 2:-0.81877 3:-0.991319 4:-0.973841 5:-1 6:-0.523707 7:-0.900452 8:-0.720339 9:-0.973684 10:-1 11:-0.717829 12:-1 13:-0.99612 14:-1 15:-0.916009 16:-0.994473 17:-1 18:-0.910165 20:-1 21:-0.866224 
-2048 -0 -0 -0 -0 -0 -0 -0 -0 -1849.690418013544 -2048 2048 1:-0.965147 2:-0.705502 3:-0.991516 4:-0.954507 5:-1 6:-0.653017 7:-0.61991 8:-0.932203 9:-0.592105 10:-1 11:-0.2 12:-1 13:-0.995731 14:-1 15:-0.997745 16:-0.998724 17:-1 18:-0.946414 20:-1 21:-0.868669 
-2048 -0 -0 -0 -0 -0 -0 -0 -0 -2048 -2048 2048 1:-0.982713 2:-0.699029 3:-1 4:-0.981803 5:-1 6:-0.66056 7:-0.819005 8:-1 9:-0.894737 10:-1 11:-0.389147 12:-1 13:-1 14:-1 15:-1 16:-0.995748 17:-1 18:-0.955871 20:-1 21:-0.771219 
-0 -0 -1.401375385767226 -3.108308092957576 -0 -0 -8.020509691041404 -7.131917910741015 -5.17625737416834 -9.158083477417176 -87.60992596111406 24.41137307290614 1:-0.964032 2:-0.799353 3:-0.971787 4:-0.940859 5:-0.814433 6:-0.769397 7:-0.538462 8:-0.152542 9:-0.5 10:-1 11:-0.553488 12:-0.9969 13:-0.980598 14:-1 15:-0.895716 16:-0.992347 17:0.357143 18:-0.91253 20:-1 21:-0.93154 
-2048 -0 -0 -0 -0 -16.57878374140519 -1289.13239763237 -0 -0 -2048 -2048 2048 1:-0.992472 2:-0.967638 3:-0.985203 4:-0.940859 5:-1 6:-0.955819 7:-1 8:-0.991525 9:-0.736842 10:-1 11:-0.956589 12:-0.992804 13:-0.975553 14:-1 15:-0.973506 16:-0.984694 17:-1 18:-0.949567 20:-1 21:-0.994411 
-2048 -0 -0 -0 -0 -0 -0 -0 -951.9740661377598 -2048 -2048 2048 1:-0.988011 2:-0.94822 3:-0.993095 4:-0.957919 5:-1 6:-0.792026 7:-1 8:-1 9:-0.802632 10:-1 11:-0.981395 12:-0.998782 13:-0.999224 14:-1 15:-0.980271 16:-0.984694 17:-1 18:-0.92829 20:-1 21:-0.822214 
-2048 -0 -0 -0 -0 -0 -618.4804080497499 -0 -0 -1918.526816215614 -1480.663098757717 2048 1:-0.996096 2:-0.873786 3:-0.991714 4:-0.969292 5:-1 6:-0.934267 7:-0.909502 8:-0.889831 9:-0.184211 10:-1 11:-0.603101 12:-0.996457 13:-0.992239 14:-1 15:-0.927283 16:-0.984269 17:-1 18:-0.951143 20:-1 21:-0.935033 
-0 -0 -65.29465056342674 -0 -0 -0 -523.2497193757177 -193.2971016741108 -2048 -0 -506.7775510116124 2048 1:-0.977694 2:-0.886731 3:-0.995265 4:-0.878305 5:-1 6:-0.824353 7:-1 8:-0.813559 9:-0.526316 10:-1 11:-0.937984 12:-0.99679 13:-0.98409 14:-1 15:-0.989853 16:-0.880102 17:-1 18:-0.753349 20:-1 21:-0.916521 
-0 -0 -8.187522693476748 -1.588062291443908 -0 -3.02678971881916 -562.9124274667416 -567.9379743699568 -216.5231922721019 -0 -0 2048 1:-0.983828 2:-0.928803 3:-0.992897 4:-0.944271 5:-1 6:-0.767241 7:-1 8:-0.542373 9:-1 10:-1 11:-0.875969 12:-0.99214 13:-0.999612 14:-1 15:-0.944194 16:-0.990646 17:-1 18:-0.906225 20:-1 21:-0.86832 
-0 -0 -0 -0 -0 -0 -0 -0 -0 -2048 -0 0 1:-0.958455 2:-0.737864 3:-0.980862 4:-0.992039 5:-1 6:-0.545259 7:-1 8:-0.940678 9:-0.842105 10:-1 11:-0.36124 12:-0.998118 13:-0.999612 14:-1 15:-0.897971 16:-1 17:-1 18:-0.959811 20:-1 21:-0.760391 
-2048 -0 -0 -0 -0 -0 -0 -0 -0 -2048 -2048 2048 1:-0.949254 2:-0.660194 3:-1 4:-0.963037 5:-1 6:-0.560345 7:-0.837104 8:-1 9:-0.763158 10:-1 11:-0.689922 12:-1 13:-1 14:-1 15:-1 16:-0.98682 17:-1 18:-0.959023 20:-1 21:-0.884387 
