svm_type c_svc
kernel_type rbf
gamma 0.125
nr_class 18
total_sv 145
rho 0.207048 0.399691 0.352497 0.0563491 -0.183169 -0.265651 0.19826 -0.132152 -0.311024 -0.059355 -0.259832 -0.178127 -0.230592 -0.0732758 -0.132963 -0.259771 -0.0226858 0.63256 0.719522 1.66064 -0.176237 -1.15681 -1.54441 0.129938 -0.625333 0.128163 -0.347149 -0.0245859 -0.0356662 -0.011535 0.383185 -0.283331 0.132782 -0.28383 -0.61368 -0.786622 -0.974409 -0.830729 -0.765114 -0.751349 -0.756867 -0.730017 -0.791385 -0.82683 -0.907141 -0.807653 -0.733233 -0.550581 -4.09553 -0.525108 -1.13102 -0.725846 -0.480473 -1.47067 -2.4632 -1.4783 -1.90013 -1.37952 -1.49877 -3.01438 -3.01208 -0.123444 -0.283025 -0.956945 -0.71643 0.939228 -2.04366 -0.148697 -0.952294 -1.35551 -1.8073 -2.83652 0.00598757 -3.36171 -0.422451 0.342266 -2.07889 3.2548 -0.320271 -0.489524 -0.0580505 -1.08054 0.244158 -0.656264 -0.818832 0.163046 0.171268 1.24847 2.05537 -0.12612 0.399169 -0.372812 -0.202923 -0.632789 0.499896 0.338472 0.0407152 0.127267 1.13352 -0.058694 -0.0731425 0 0.107608 -0.126342 -0.164347 0.52242 0.0930199 0.182211 -1.72092 -1.15486 -1.25631 -1.61916 -1.27654 -1.74773 -1.1478 -1.17672 -0.0409392 0.747433 -1.81662 0.271355 -2.99264 0.408971 0.287265 1.24456 0.548807 -0.712938 1.35815 -0.580477 -2.46457 -2.46643 1.83642 0.515245 0.727834 1.56389 0.386701 0.636993 -0.357186 0.519489 -6.37688 3.28356 -4.31381 0.020153 0.144435 8.12532 7.27367 -1.64748 0.939352 -5.63923 -0.557154 0.0460907 0.000702557 0.226581 0.738718
label 10 11 12 20 21 30 31 32 33 40 41 42 43 44 45 46 47 60
nr_sv 10 12 7 10 12 5 8 6 6 6 7 4 7 7 11 9 7 11
SV
0 0 0 0 0 0.01869430335118676 0 0 0 0 0 0 0 0 0 0 0 1:-0.355878 2:-1 3:0.24749 4:-0.0835345 5:-1 6:-0.173364 7:-1 8:-1 9:-1 10:-1 11:-1 12:0.058833 13:0.536847 14:-1 15:-0.57433 16:0.0790068 17:-1 18:0.466192 20:-1 21:-0.686802 
0.3256061718496008 3.34577069581656 0.2249709500912643 0.04960604819794606 0 0 0 0 0 0 0 0 0 0 0 0 0.1491194190590309 1:-0.382136 2:-1 3:0.583284 4:-0.52873 5:-1 6:-0.371986 7:-1 8:-1 9:-1 10:-1 11:-1 12:1 13:0.653709 14:-1 15:-0.367181 16:-0.731377 17:-1 18:-0.396204 20:-1 21:-0.65852 
0 0 0 0 0.1585791888525358 0.5439906629542671 0 0 0.6037254830194255 0 0.4810677835898666 0.1769429501669993 0.3090489863542781 0.03589802362862176 0.07357247071360738 0.5568993280957548 0.4360976801655825 1:-0.559578 2:-1 3:0.1899 4:-0.354901 5:-1 6:-0.535017 7:-1 8:-1 9:-1 10:-1 11:-1 12:0.200226 13:0.617935 14:-1 15:-0.479285 16:-0.31377 17:-1 18:-0.625148 20:-1 21:-0.795391 
2.81965812369583 1.567628126801577 3.138586210958346 3.3762907924071 3.509839634109358 6.274992272861343 7.077800377132164 6.358928387047381 2.336668568468848 4.034488530214584 2.253230609033049 3.511619021225455 2.782850711218027 4.320248813615421 3.33046490344601 2.035263352199756 1.61381031115798 1:-0.478417 2:-0.789644 3:-0.827525 4:-0.714148 5:-1 6:-0.420207 7:-0.701357 8:-1 9:-1 10:-1 11:-0.655172 12:-0.16633 13:0.169091 14:-1 15:-0.466288 16:-0.360529 17:-1 18:0.29656 20:-1 21:-0.545042 
0 0 0 0 0 0 0 0 0 0 0 0 0 0 0 0 0.0235587172544266 1:-0.535707 2:-0.831715 3:-0.404017 4:0.46789 5:-1 6:-0.538462 7:-1 8:-1 9:-0.848889 10:-1 11:-0.740558 12:-0.529497 13:1 14:-1 15:-0.794476 16:0.885521 17:-1 18:-0.534994 20:-1 21:-0.828911 
0.6024265488500917 0.2587509009924924 0.7693669384320904 0.584693562503009 0.5899114542891267 0.5881997114995968 0.5997721662069139 1.105879181277027 0.4259476944636643 0.4526375515405114 0.3195315559185626 0.2649887468986973 0.2409833699866462 0.1467918711491974 0.4147481007631224 0.4055773461560837 0.4039347089006992 1:-0.508653 2:-1 3:-0.61075 4:1 5:-1 6:-0.653272 7:-1 8:-1 9:-1 10:-1 11:-1 12:-0.775644 13:0.662294 14:-1 15:-0.927701 16:1 17:-1 18:0.391459 20:-1 21:-0.803771 
1.183093668552143 1.393235616121196 0 0 0 0 0 0 0 0 0 0 0 0 0 0 0 1:-0.110802 2:-0.770227 3:-0.642646 4:-0.491067 5:-1 6:0.560276 7:-1 8:-1 9:-1 10:-1 11:-0.681445 12:-0.33258 13:0.595039 14:-1 15:-0.833469 16:-0.00677201 17:-1 18:0.920522 20:-1 21:-0.40852 
0 0.9243751957614743 0 0 0 0 0 0 0 0 0 0 0 0 0 0 0 1:0.085737 2:-0.508091 3:-0.471353 4:-0.227426 5:-1 6:0.219288 7:-1 8:-1 9:-0.878519 10:-1 11:-0.366174 12:0.0189654 13:0.716194 14:-1 15:-0.300569 16:0.317962 17:-1 18:0.320285 20:-1 21:-0.179469 
0.008991598176678616 0.1652202260369962 0 0 4.013737061091807 3.977579376826637 2.914081800948233 0.3072022902059504 0 0 0.05760834585796607 0.02863720546711071 0.4200576052503412 0.2274541351321256 0 0 0 1:-0.324846 2:-1 3:-0.75251 4:-0.567842 5:-1 6:0.112514 7:-1 8:-1 9:-1 10:-1 11:-0.747126 12:-0.427972 13:0.370379 14:-1 15:-0.415922 16:-0.143825 17:-1 18:-0.0676157 20:-1 21:-0.0939246 
1.744801008632511 0 0.5757910696754368 0.3638260906734793 0.6404708811198475 0 0.5476510620039871 1.783809205925497 0.01367715702564126 0.2264353793163009 0 0 0 0.3586152414547001 0.1434754317844741 0 0.06645093824713419 1:-0.372986 2:-1 3:-0.876255 4:-0.243361 5:-1 6:0.0241102 7:-0.954751 8:-1 9:-0.777778 10:-1 11:-0.408867 12:-0.539666 13:0.0555688 14:-1 15:-0.611698 16:0.743309 17:-1 18:0.247924 20:-1 21:-0.023743 
-0 0 0 0 0 0 0 0.8844739710248384 5.502843821296537 0 0 1.249531825192608 0 0 0 0 2.040480421077445 1:-0.380147 2:-0.990291 3:-0.852924 4:-0.690005 5:-1 6:-0.996556 7:-1 8:-0.659193 9:-0.831111 10:-1 11:-0.908046 12:-0.908643 13:-0.805867 14:-1 15:-0.942323 16:-0.470816 17:-1 18:-0.909846 20:-1 21:-0.993366 
-1.608452156819036 1.942828323099475 0 0 15.40587021993332 4.651244164529794 0 6.382481320840121 0 0 4.834657899797357 2.288289932386355 4.953816701497739 0 0 0 6.211133858588031 1:-0.317685 2:-1 3:-0.865623 4:-0.795751 5:-1 6:-1 7:-1 8:-1 9:-1 10:-1 11:-1 12:-0.844242 13:-0.602194 14:-1 15:-1 16:-0.701064 17:-1 18:-0.81376 20:-1 21:-0.994413 
-0 0 2.530309335950468 13.97582838153702 11.75537927679807 9.865002276635654 0 16.21794444186875 7.081423044269997 3.866896351491688 4.190403235125268 6.18215032657351 4.854742638865281 17.0200450603645 4.669690109469257 5.80414136871409 2.06308679618033 1:-0.415954 2:-0.967638 3:-0.939457 4:-0.726219 5:-1 6:-0.504018 7:-1 8:-1 9:-1 10:-1 11:-0.802956 12:-0.968526 13:-0.907942 14:-1 15:-0.964257 16:-0.514028 17:-1 18:-0.276394 20:-1 21:-0.850209 
-0 1.224919804719364 7.345095506862278 1.062725155962548 0 0 0 0 0.9046739808077311 0.08017675250055864 0 0 0 3.778029651855316 2.113199691002523 1.162562881200896 1.960525777799322 1:-0.353491 2:-0.669903 3:-0.92912 4:-0.742636 5:-1 6:-0.794489 7:-0.520362 8:-0.632287 9:-0.712593 10:-1 11:-0.553366 12:-0.95303 13:-0.886 14:-1 15:-1 16:-0.681393 17:-1 18:-0.33452 20:-1 21:-0.890014 
-0 0 0 0 0 0 0 0 0 0 4.16813401524355 0 0 0 0 0 0 1:-0.398448 2:-1 3:-0.905789 4:-0.791405 5:-1 6:-0.817451 7:-1 8:-1 9:-1 10:-1 11:-1 12:-0.9427 13:-0.885523 14:-1 15:-0.95857 16:-0.44921 17:-1 18:-0.513642 20:-1 21:-0.914455 
-0 0 0 0 0.8482155209960378 4.8478940396361 11.72880613680978 0 11.42070835563508 12.71137678061348 6.436536100730764 22.36897391122353 14.93386878143503 11.99635473819736 18.81152432627299 0 0 1:-0.364233 2:-1 3:-0.901063 4:-0.803477 5:-1 6:-0.740528 7:-1 8:-1 9:-0.94963 10:-1 11:-0.875205 12:-0.89218 13:-0.806344 14:-1 15:-0.873274 16:-0.739116 17:-1 18:-0.236062 20:-1 21:-0.863478 
-1.379562475098635 2.039661520773025 0 0 0.1446650518958166 0 0.7255419397370355 0 0 0 0 0 0 0 0 0 0 1:0.762085 2:-0.935275 3:-0.544891 4:-0.36311 5:-1 6:0.010333 7:-1 8:-0.0493274 9:-0.792593 10:-1 11:0.00164204 12:-0.627794 13:-0.56165 14:-1 15:-0.352559 16:0.165431 17:-1 18:0.956109 20:-1 21:-0.0848464 
-2.374795756268568 1.438966520783873 0 0 1.760708051364375 6.145961308959904 6.046317762173864 8.415614300811113 0 0 0 0 0 0 0 0 0 1:0.560772 2:-0.802589 3:-0.806556 4:-0.0226944 5:-1 6:0.416762 7:-0.773756 8:-0.991031 9:-0.674074 10:-1 11:-0.632184 12:-0.819546 13:-0.45099 14:-1 15:-0.846466 16:-0.252822 17:-1 18:0.505338 20:-1 21:-0.257332 
-1.321766731570616 0 0 0 0 13.43642578121407 7.778876170103189 10.53564415828636 0 0 0 0 0 0 0 0 0 1:-0.120748 2:-1 3:-0.909923 4:-0.569773 5:-1 6:-0.561424 7:-1 8:-1 9:-1 10:-1 11:-1 12:-0.955936 13:-0.737181 14:-1 15:-0.974817 16:-0.52338 17:-1 18:0.575326 20:-1 21:-0.778631 
-0 0 0 3.578054554557502 0 0.1005550253012227 0 0 0 6.180731125540034 0 0 0 0 1.543001759495366 0 0 1:-0.322857 2:-0.796117 3:-0.902835 4:-0.651376 5:-1 6:-0.435132 7:-1 8:-0.775785 9:-0.715556 10:-1 11:-0.83908 12:-0.970947 13:-0.928452 14:-1 15:-0.97563 16:-0.608513 17:-1 18:-0.0260973 20:-1 21:-0.698673 
-0 0 76.02412503668231 13.68470555778781 0 0 0 0 5.072643121938126 0 0 0 0 0 0 30.19224133920191 0 1:-0.454943 2:-1 3:-0.96899 4:-0.656205 5:-1 6:-0.911596 7:-1 8:-1 9:-1 10:-1 11:-1 12:-0.986442 13:-0.916051 14:-1 15:-1 16:-0.348275 17:-1 18:-0.495848 20:-1 21:-0.978352 
-0 0 0 62.96729774723148 0 0 0 0 0 11.9109667947946 2.873437462625085 0 0 0 0 0 0 1:-0.429481 2:-1 3:-0.932959 4:-0.760502 5:-1 6:-0.737084 7:-1 8:-1 9:-1 10:-1 11:-1 12:-0.950609 13:-0.947532 14:-1 15:-0.998375 16:-0.54692 17:-1 18:-0.175563 20:-1 21:-0.930168 
-1.278083666621417 -0 0 0 0 0 0.2633799985732704 0 0 0 0 0 0 0 0 0 0 1:0.255222 2:-0.828479 3:0.195511 4:-0.842105 5:-1 6:-0.320321 7:-1 8:-0.883408 9:-1 10:-1 11:-0.73399 12:0.743524 13:-0.233484 14:-1 15:1 16:-0.781038 17:-1 18:0.104389 20:-1 21:0.25419 
-1.795823341833541 -2.038026284632846 1.458774151108531 1.259149715454022 1.628089694484834 2.807661597853532 1.570560532108313 1.693508186156023 1.173245066967724 1.124126955324015 1.132858318548271 1.395159331743557 1.40067649731685 1.666431660852199 1.492008654940438 1.112156490760524 0.9683868554847033 1:0.433857 2:-0.805825 3:-0.208801 4:-0.58281 5:-1 6:-0.505166 7:-0.927602 8:-0.219731 9:-0.896296 10:-1 11:-0.481117 12:0.340005 13:-0.289769 14:-1 15:-0.235581 16:-0.877136 17:-1 18:-0.575326 20:-1 21:-0.614176 
-3.306989303143478 -1.728692862956051 0.601082517633429 0.5862650414372504 0.8664628566494937 1.704269338365012 1.45764965727328 0.9541231291164817 0.2510903456198625 0.5383079472277509 0.1709109782396917 0.2670621608813731 0.2296870281556285 0.28043999910351 0.249781671603001 0.2016124282302206 0.07664518025741179 1:0.574697 2:-0.909385 3:0.574129 4:-0.480927 5:-1 6:0.342135 7:-1 8:-1 9:-0.940741 10:-1 11:-0.779967 12:0.17666 13:-0.0665395 14:-1 15:-0.768481 16:-0.573686 17:-1 18:0.582444 20:-1 21:-0.532821 
-0 -0 0 0 0 0 0.1228404836802918 0 0 0 0 0 0 0 0 0 0 1:0.5556 2:-0.94822 3:0.7342 4:-0.616127 5:-1 6:0.541906 7:-1 8:-0.973094 9:-0.561481 10:-1 11:-0.760263 12:0.583246 13:-0.72144 14:-1 15:0.748985 16:-0.811674 17:-1 18:-0.308422 20:-1 21:0.584148 
-0 -0.2725013938931021 0.3682955850636538 0.1237452227853211 0 0 0 0 0 0.002314926592465168 0.02147852913222374 0 0 0 0 0.009804414765703151 0.2221467949626139 1:1 2:-0.711974 3:1 4:-0.287784 5:-1 6:1 7:-0.764706 8:-0.748879 9:-0.798519 10:-1 11:1 12:0.473166 13:0.104698 14:-1 15:0.857027 16:-0.680103 17:-1 18:0.529063 20:-1 21:1 
-0.5421547470228485 -1.430870966024049 2.048401835784071 1.781116524497302 0.7524843063655253 1.016493310172668 0.8302591415774936 1.19453210623999 0.6512247960973642 0.892389199614205 0.6559319333798477 0.7719007610501319 0.8026709780163719 1.186631902197445 0.8526162271951288 0.6869514394869628 1.316592529824683 1:0.0423712 2:1 3:-0.937389 4:-0.781265 5:-1 6:-0.13318 7:0.266968 8:0.345291 9:-0.751111 10:-1 11:-0.796388 12:-0.976112 13:-0.847842 14:-1 15:-0.77498 16:-0.783941 17:-1 18:-0.520759 20:-1 21:-0.67074 
-0.7319297029090109 -1.176284661869689 1.302583893093658 1.207672647467871 1.004421317457509 0.8674774883575469 0.9954899771948216 1.046211746450801 0.9070254484139288 0.9284872693357783 0.9055590418427935 0.9347608556159195 0.8884926987703522 0.8658691051377956 0.916137333804995 0.9179004002312681 1.051594022551307 1:-0.353491 2:-1 3:-0.961311 4:-0.682762 5:1 6:-0.494834 7:-1 8:-1 9:-1 10:-1 11:-1 12:-0.994512 13:-0.966134 14:-1 15:-0.974005 16:-0.791358 17:-1 18:-0.328588 20:1 21:-0.649441 
-0 -1.729123790327546 -1.74692619207597 52.2357061818282 3.717065614580894 1.915076916319675 2.712820433394104 5.046979986367934 0.7035877458231451 0.5928354241033749 3.832174574448106 1.082518375097419 9.071465693664704 12.78011898283205 0 9.73218605501652 15.8467527831165 1:-0.72588 2:-0.902913 3:-1 4:-0.628682 5:-1 6:-0.65442 7:-0.755656 8:-1 9:-1 10:-1 11:-0.763547 12:-1 13:-1 14:-1 15:-1 16:-0.439858 17:-1 18:-0.932384 20:-1 21:-0.928422 
-0.8469736452222848 -77.73626548271722 -0 260.1558743201307 8.809506974414479 6.428725299512403 0 11.37902656390869 29.74420872478928 18.41997406645645 6.171016860137334 5.274731168824507 0 0 14.34431476921476 92.3654582326224 0 1:-0.713945 2:-0.97411 3:-0.990845 4:-0.535007 5:-1 6:-0.912744 7:-1 8:-1 9:-0.958519 10:-1 11:-0.914614 12:-1 13:-0.931791 14:-1 15:-1 16:-0.418575 17:-1 18:-0.4828 20:-1 21:-1 
-1.19492873891812 -1.197219207971015 -0.07706789260875932 59.59482278512078 2.242211094866786 6.403623700079353 4.064083100245585 6.70256395223695 2.890983260174568 24.63441623699071 5.186460429292024 4.18611423674925 1.199769594963425 6.251085083807845 25.7263907171295 8.261569907626813 0 1:-0.859161 2:-1 3:-1 4:-0.849348 5:-1 6:-0.554535 7:-1 8:-1 9:-1 10:-1 11:-1 12:-1 13:-1 14:-1 15:-1 16:-0.58981 17:-1 18:0.89917 20:-1 21:-0.586243 
-0 -0 -0 0 2.347875067504667 0 0 0 13.83532745877052 0 13.97758573947793 8.481529177863681 21.72425100734388 0 0 58.46770015688126 1.432016507914715 1:-0.811816 2:-0.669903 3:-0.981985 4:-0.701111 5:-1 6:-0.756602 7:-1 8:-1 9:-1 10:-1 11:-0.740558 12:-0.992575 13:-0.95564 14:-1 15:-1 16:-0.494034 17:-1 18:-0.698695 20:-1 21:-0.960545 
-0.483272867943377 -3.524544723866197 -0 0 0 0 0 3.147611492409405 0 0 0 0 0 0 0 0 0 1:-0.746171 2:-0.825243 3:-1 4:-0.690488 5:-1 6:-0.541906 7:-0.656109 8:-1 9:-0.94963 10:-1 11:-0.681445 12:-1 13:-1 14:-1 15:-1 16:-0.34247 17:-1 18:-0.7414 20:-1 21:-0.980796 
-0 -0 -0 140.232800651179 0 0 0 0 3.291198693333316 23.62746565513691 0.2027469201131983 6.519948678614616 0 13.36676178168558 10.08490393646322 0 6.362773204399187 1:-0.775612 2:-0.478964 3:-1 4:-0.804925 5:-1 6:-0.6062 7:-0.809955 8:-1 9:-0.97037 10:-1 11:-0.661741 12:-1 13:-1 14:-1 15:-1 16:-0.722993 17:-1 18:-0.131673 20:-1 21:-0.854749 
-0 -0 -0 83.64732418308056 0.4705876481513844 3.083643156747298 3.745991198427439 0 8.011219659272671 26.63580838331138 0 1.830027436737611 7.443510557336966 11.67877889144051 17.90307112503551 0 0 1:-0.715138 2:-0.912621 3:-0.937389 4:-0.59295 5:-1 6:-0.58209 7:-0.909502 8:-1 9:-1 10:-1 11:-0.330049 12:-0.998225 13:-0.942762 14:-1 15:-0.999188 16:-0.592067 17:-1 18:-0.163701 20:-1 21:-0.903631 
-0.9040930504030391 -0 -0.9141724366795644 54.81651180396875 0 2.535080302372652 4.166533915703011 3.171070692362308 0 0 0 0 0 0 0 0 0 1:-0.583449 2:-0.508091 3:-0.950384 4:-0.698696 5:-1 6:-0.223881 7:-0.963801 8:-0.919283 9:-0.845926 10:-1 11:0.00164204 12:-0.989509 13:-0.973289 14:-1 15:-0.974817 16:-0.682038 17:-1 18:0.314353 20:-1 21:-0.683659 
-0.7623535593545241 -1.41607338096608 -1.673012169714337 5.965578608067429 0.9099758441670202 1.193938954892878 0.8191667282973542 1.416507443886347 0.01023205443687249 3.840195862730341 0 2.210113978852306 1.441769903964499 0.2621153708724485 0 0 0 1:-0.578277 2:-0.640777 3:-0.760484 4:-0.521004 5:-1 6:-0.602755 7:-0.909502 8:1 9:-0.617778 10:-1 11:-0.366174 12:-0.914293 13:-0.535416 14:-1 15:-0.899269 16:-0.629474 17:-1 18:0.587189 20:-1 21:-0.765712 
-0.5170933073157922 -0.2963032936470044 -1.367959291604712 0.9516677198833521 0.1985758367298167 0 0.1135686327214482 0.4022141444569145 0 0 0 0 0 0 0 0 0.9766269987048845 1:-0.670181 2:0.158576 3:-0.967218 4:-0.485756 5:-0.6 6:-0.366246 7:1 8:-0.0313901 9:1 10:1 11:-0.330049 12:-0.994512 13:-0.869783 14:-1 15:-0.98619 16:-0.666559 17:-0.823529 18:0.054567 20:-1 21:-0.699721 
-0 -43.13482422971406 -0.3343071931983435 -0 19.235680839742 6.817651530011642 0 17.70016096037264 83.96006874886974 70.97081824343682 36.09020537329373 20.43051566320623 30.6361877554113 11.40022246521775 7.838025490287769 0 4.927069981210187 1:-0.712751 2:-1 3:-0.974011 4:-0.665862 5:-1 6:-0.818599 7:-1 8:-1 9:-1 10:-1 11:-1 12:-0.984666 13:-0.865013 14:-1 15:-1 16:-0.58336 17:-1 18:-0.586002 20:-1 21:-0.955656 
-0 -0 -0 -303.7160982689337 0 0 0 0 0 0 0 0 0 0 0 385.5162120561186 7.953671573108396 1:-0.775612 2:-1 3:-1 4:-0.677933 5:-1 6:-0.783008 7:-1 8:-1 9:-1 10:-1 11:-1 12:-1 13:-1 14:-1 15:-1 16:-0.48307 17:-1 18:-0.614472 20:-1 21:-0.943785 
-0 -16.59256310995873 -0 -0 0 0 6.137417839087332 0 0 6.801683996601025 10.04649480517152 8.890513851231027 19.96141899800065 58.26982634635751 0 0 5.824656841431336 1:-0.703203 2:-0.909385 3:-0.989663 4:-0.789474 5:-1 6:-0.571757 7:-1 8:-1 9:-0.896296 10:-1 11:-0.786535 12:-1 13:-0.994753 14:-1 15:-1 16:-0.652048 17:-1 18:-0.430605 20:-1 21:-0.802025 
-0 -0 -0.8929343018084105 -0 0 0 0 0 0 2.949687666764434 0 0 0 0 9.576139182109912 11.40759045790975 0.6191217257355115 1:-0.70559 2:-0.346278 3:-1 4:-0.90874 5:-1 6:-0.629162 7:-0.158371 8:-1 9:-0.745185 10:-1 11:-0.697865 12:-1 13:-1 14:-1 15:-1 16:-0.85553 17:-1 18:-0.00237248 20:-1 21:-0.689246 
-1.004178245190503 -35.5412240574036 -0 -101.5060901513136 0 8.83751493873093 0.6327675100062001 2.265960230254188 0 0 0 0 0 0 0 0 0 1:-0.630794 2:-1 3:-0.98671 4:-0.616127 5:-1 6:-0.673938 7:-1 8:-1 9:-1 10:-1 11:-1 12:-1 13:-0.966611 14:-1 15:-1 16:-0.603031 17:-1 18:0.314353 20:-1 21:-0.792947 
-0 -0 -0 -0 0 0 0 0 28.5747379239064 120.7959707033114 15.46712861146663 22.27609638497552 15.21255274700587 40.41506932926801 103.9695014710831 0 0 1:-0.733837 2:-0.928803 3:-1 4:-0.780299 5:-1 6:-0.675086 7:-1 8:-1 9:-1 10:-1 11:-0.783251 12:-1 13:-1 14:-1 15:-1 16:-0.800709 17:-1 18:-0.106762 20:-1 21:-0.785265 
-0 -0 -0 -13.84631601833272 0 0 0 0 0 0.2091220249464708 0 0 9.238318150057887 0 1.985394147921934 0 0 1:-0.785956 2:-0.734628 3:-0.952747 4:-0.746982 5:-1 6:-0.347876 7:-0.963801 8:-0.372197 9:-0.955556 10:-1 11:0.1133 12:-0.985473 13:-0.946578 14:-1 15:-0.961007 16:-0.679458 17:-1 18:-0.0806643 20:-1 21:-0.646997 
-1.183708776716875 -0 -0 -158.0982367522446 0.6924274225119958 3.074610179715933 1.964256957449448 4.057644589625368 9.802001820056947 10.11831975548158 0 0 0 0 0 0 0 1:-0.729859 2:-0.524272 3:-0.961902 4:-0.650893 5:-1 6:-0.56946 7:-0.683258 8:-1 9:-0.754074 10:-1 11:-0.0509031 12:-0.994028 13:-0.911281 14:-1 15:-0.973193 16:-0.742019 17:-1 18:0.00830368 20:-1 21:-0.704958 
-1.472504838374826 -0 -0.9617313787758536 -0 7.015188274335723 16.15368749846582 10.45470620498119 8.752502703757111 0 17.26673579060994 0 7.852533955410181 0 20.27145335424501 1.28075180167745 0 0 1:-0.676547 2:-0.789644 3:-0.893975 4:-0.568324 5:-1 6:-0.221584 7:-1 8:-0.542601 9:-0.946667 10:-1 11:-1 12:-0.979824 13:-0.831624 14:-1 15:-0.932575 16:-0.716221 17:-1 18:0.120996 20:-1 21:-0.77095 
-0.548237818781245 -0 -1.08950235034461 -0 0.827624856219746 0.6894664086728667 0.7693757867354053 1.161291149888783 0 1.739549610451115 0.6936391546337356 0.6277971549776351 0.2520316197984693 0.505994477341382 1.023313700744166 0 0.461813778107365 1:-0.667396 2:-1 3:-0.922327 4:-0.712216 5:-0.4 6:-0.359357 7:-1 8:-1 9:-1 10:-1 11:-1 12:-0.971592 13:-0.884093 14:-1 15:-0.94476 16:-0.85811 17:1 18:-0.320285 20:-0.975 21:-0.671788 
-0 -0 -0 -80.43354506243402 0 0 0 0 0 0 0 0 0 0 0 30.01940405462445 0 1:-0.679332 2:-0.763754 3:-0.96013 4:-0.65041 5:-1 6:-0.641791 7:-0.954751 8:-0.856502 9:-0.866667 10:-1 11:-0.711002 12:-0.991607 13:-0.948963 14:-1 15:-0.907392 16:-0.716866 17:-1 18:0.0818505 20:-1 21:-0.901536 
-0.1657868147180852 -0 -1.679473927514548 -0 0 0 0 0 0 0.2326775112537831 0 1.736611671532684 0.5622695747554323 5.197310213181352 0 0 2.95357455579994 1:-0.737816 2:-0.36246 3:-0.982575 4:-0.862385 5:-1 6:0.0597015 7:-0.538462 8:-0.2287 9:-0.801481 10:-1 11:0.438424 12:-0.999839 13:-0.970904 14:-1 15:-0.939074 16:-0.919058 17:-1 18:-0.365362 20:-1 21:-0.628841 
-0.863639957316783 -6.266570534201056 -0.2883435434179836 -5.125000399118931 -1.100724598515282 11.59303013210481 0 49.733538522812 5.401893884964051 0 0 0 0 0 0 0 0 1:-0.657848 2:-1 3:-0.821323 4:-0.516176 5:-1 6:-0.817451 7:-1 8:-1 9:-1 10:-1 11:-1 12:-0.722541 13:-0.199141 14:-1 15:-1 16:-0.17446 17:-1 18:-0.645314 20:-1 21:-0.969623 
-0 -19.34828521260015 -0.8436045061082692 -5.63606111158983 -18.55134155445301 54.26579098083329 0 0 30.42890463091829 0 24.81194811641543 17.44640689259064 27.2924470894852 8.938080326934852 0 27.47296615530695 11.39808987432315 1:-0.719912 2:-1 3:-0.769344 4:-0.751328 5:-1 6:-0.706085 7:-1 8:-1 9:-1 10:-1 11:-1 12:-0.526269 13:-0.646554 14:-1 15:-0.858652 16:-0.754918 17:-1 18:-0.559905 20:-1 21:-0.903282 
-4.493646541062905 -4.299982374186413 -1.95600151409626 -1.729832959099746 -1.790364488333495 24.68271238682433 21.22934867286283 17.33072325041683 0 1.99997320750363 0 4.858342958335498 0 7.116896825899351 6.32967336211824 0 0.7820585747865243 1:-0.444599 2:-0.964401 3:-0.918488 4:-0.561082 5:-1 6:0.290471 7:-1 8:-1 9:-1 10:-1 11:-0.438424 12:-0.892018 13:-0.342714 14:-1 15:-0.853777 16:-0.434054 17:-1 18:-0.272835 20:-1 21:-0.219623 
-3.555251721082988 -0 -0 -1.324083467398254 -6.328490751507676 88.10278964932782 11.84395689966824 10.37538423412121 0.7513655328060279 7.048692093182112 1.208395825241926 1.733438195462441 0 0 0.1661442153519694 0 0 1:-0.781182 2:-1 3:-0.715889 4:-0.617093 5:-1 6:-0.43628 7:-1 8:-1 9:-1 10:-1 11:-1 12:-0.862158 13:-0.300739 14:-1 15:-0.866775 16:-0.423089 17:-1 18:0.0308422 20:-1 21:-0.738827 
-0 -0 -1.163508611334849 -4.880820143208287 -0 0 18.79838863156505 52.87062700830771 0 19.72171184920653 0 14.3706843921092 20.18611349120099 20.02983846885893 24.81173987669986 0.9344447968078378 0 1:-0.845634 2:-1 3:-0.65062 4:-0.764848 5:-1 6:-0.655568 7:-1 8:-1 9:-1 10:-1 11:-1 12:-0.494956 13:-0.738612 14:-1 15:-0.864338 16:-0.811996 17:-1 18:-0.393832 20:-1 21:-0.883729 
-2.371499556252839 -0 -3.606500758943988 -0 -0 -0 2.807439549919974 0 0 0 0 0 0 0 0 0 0 1:-0.208673 2:-0.964401 3:-0.526875 4:-0.522936 5:-1 6:-0.23651 7:-1 8:-0.139013 9:-0.922963 10:-1 11:-0.579639 12:-0.732871 13:-0.17243 14:-1 15:-0.481722 16:-0.625282 17:-1 18:-0.221827 20:-1 21:-0.417598 
-7.86099887203142 -0 -0 -0 -0 -9.268409815641645 40.89163732228858 0 0 0 0 0 0 0 0 0 0 1:-0.378954 2:-1 3:-0.577377 4:-0.519556 5:-1 6:-0.235362 7:-1 8:-1 9:-1 10:-1 11:-1 12:-0.737551 13:-0.210589 14:-1 15:-0.575142 16:-0.636891 17:-1 18:0.255042 20:-1 21:-0.531774 
-0 -0 -1.335503785378582 -0 -0 -13.35065263247142 12.28248994343507 17.75721144739449 0 0 0 0 0 0 0 0 0.6131308199868162 1:-0.250845 2:-0.935275 3:-0.544005 4:-0.703525 5:-1 6:0.529277 7:-1 8:-1 9:-1 10:-1 11:-0.770115 12:-0.609071 13:-0.459575 14:-1 15:-0.58489 16:-0.922606 17:-1 18:-0.00711744 20:-1 21:-0.256983 
-0 -20.00555400475017 -0 -0 -0 -18.36253897198907 3.925546514968484 33.17713451700865 0 0 0 0 0 0 0 0 0 1:-0.326039 2:-0.961165 3:-0.740106 4:-0.309512 5:-1 6:-0.382319 7:-1 8:-1 9:-0.997037 10:-1 11:-0.829228 12:-0.725769 13:-0.533985 14:-1 15:-0.937449 16:-0.520155 17:-1 18:0.251483 20:-1 21:-0.676327 
-0.5174630906917949 -4.827452122067461 -0.9713458271385571 -2.059485445828246 -0 -0 13.78139805440967 8.532129090031573 0 0 0 0 0 0 0 0 0 1:-0.225781 2:-0.925566 3:-0.692853 4:-0.421053 5:-1 6:0.0952928 7:-1 8:-1 9:-0.768889 10:-1 11:-0.385878 12:-0.643935 13:-0.614119 14:-1 15:-0.807474 16:-0.667527 17:-1 18:0.850534 20:-1 21:-0.451117 
-0.6534948085169777 -11.63315873491026 -0.4825513632876305 -7.23649358706394 -8.0122005739169 -93.80892169860844 0 20.06726449199324 25.29679670106644 1.567682462267983 14.19069588389496 5.947983200424113 7.896428827248013 5.584091051134302 3.529424255535387 14.60683646335037 6.976256262100646 1:-0.703203 2:-1 3:-0.86267 4:-0.739739 5:-1 6:-0.717566 7:-1 8:-1 9:-1 10:-1 11:-1 12:-0.91623 13:-0.257334 14:-1 15:-0.959383 16:-0.541438 17:-1 18:-0.499407 20:-1 21:-0.929469 
-0 -0 -0 -0 -0 -12.68347808224572 45.47064564917174 0 3.340526665000997 13.66061163487205 4.154584126878419 19.7890453804553 16.77421617349484 30.07946774646819 16.5161067169864 3.306042866832967 0.9877552760971202 1:-0.734633 2:-0.964401 3:-0.789427 4:-0.753742 5:-1 6:-0.513203 7:-1 8:-1 9:-0.997037 10:-1 11:-0.651888 12:-0.865386 13:-0.426187 14:-1 15:-0.692933 16:-0.758787 17:-1 18:-0.0723606 20:-1 21:-0.690992 
-0 -2.580917734548859 -0 -12.26410929703207 -27.56072998168029 -31.17032194813393 53.03488930273262 75.65410062215736 0 18.65804603938391 2.164051188514788 6.268783927149689 8.093732677980062 4.713037269398415 15.30182055937292 0 0 1:-0.59817 2:-0.993528 3:-0.842882 4:-0.615162 5:-1 6:-0.332951 7:-1 8:-0.901345 9:-0.997037 10:-1 11:-0.842365 12:-0.832782 13:-0.604102 14:-1 15:-0.888708 16:-0.713641 17:-1 18:0.160142 20:-1 21:-0.533869 
-5.175173849527758 -1.34548256651822 -0.8159455900672724 -2.241536984400944 -0.813387452111092 -0.3354567098070382 -24.13718366389438 8.265804911715703 0 0.6860359205510745 0 0 0 0 0 0 0 1:-0.586632 2:-0.957929 3:-0.803898 4:-0.498793 5:-1 6:-0.567164 7:-1 8:-0.964126 9:-0.745185 10:-1 11:-0.648604 12:-0.880881 13:-0.141903 14:-1 15:-0.518278 16:-0.413738 17:-1 18:1 20:-1 21:-0.374651 
-0.3626736689339914 -2.795730411496467 -0.5985710431753598 -3.581340416707395 -0.3503257000710143 -3.741824290383459 -12.47118466756067 0 0.3743738877980534 4.400972663225038 0 1.248635597414504 0.8051762506988791 9.739307364635687 1.555265677637998 0 0 1:-0.723493 2:-0.880259 3:-0.833432 4:-0.67407 5:-1 6:-0.370838 7:-1 8:-0.946188 9:-0.653333 10:-1 11:0.224959 12:-0.860705 13:-0.389936 14:-1 15:-0.573517 16:-0.810061 17:-1 18:0.024911 20:-1 21:-0.337989 
-0 -0 -0 -9.7992866076806 -18.79481114607747 -43.85634080336119 -76.98565774695956 32.71513176084584 11.14918548974876 17.7559103509204 10.39237155114849 21.7267379365629 23.23758516125505 26.34912852566459 32.0915458793352 8.750060503446445 6.033147295221241 1:-0.721902 2:-0.983819 3:-0.804194 4:-0.597779 5:-1 6:-0.21814 7:-1 8:-1 9:-1 10:-1 11:-0.829228 12:-0.803567 13:-0.652278 14:-1 15:-0.636068 16:-0.707514 17:-1 18:-0.135231 20:-1 21:-0.508729 
-0 -0 -1.858837103961875 -0 -0 -1.58735762051326 -0 0 0 0 0 0 0 0 0 0 0.1931145561421433 1:-0.331609 2:-0.990291 3:-0.585942 4:-0.852245 5:-1 6:0.700344 7:-1 8:-1 9:-1 10:-1 11:-0.776683 12:-0.600678 13:-0.887908 14:-1 15:-0.367181 16:-0.879394 17:-1 18:-0.652432 20:-1 21:-0.0834497 
-1.23334245894315 -22.13832903080919 -1.966826053202963 -0 -0 -2.350714780031169 -58.60002025851157 15.18920870614956 0 0 0 0 0 0 0 0 0 1:-0.165705 2:-1 3:-0.761075 4:-0.554804 5:-1 6:-0.282434 7:-1 8:-1 9:-1 10:-1 11:-1 12:-0.684448 13:-0.564035 14:-1 15:-0.572705 16:-0.663334 17:-1 18:0.179122 20:-1 21:-0.539804 
-4.368115428886398 -0 -0 -0 -0 -0 -0 0 0 0 0 0 0 0 0 0 0 1:-0.495126 2:-0.990291 3:-0.574424 4:-0.610333 5:-1 6:0.167623 7:-1 8:-0.955157 9:-1 10:-1 11:-0.756979 12:-0.613429 13:-0.470546 14:-1 15:-0.0982941 16:-0.769429 17:-1 18:-0.256228 20:-1 21:-0.392109 
-0 -0 -0 -13.47488008357295 -11.14935068922675 -4.900035508696723 -0 -0 8.667655154823406 10.7947466450933 4.735368227910513 1.746426981506637 3.300195164952556 4.211999874657385 7.188398070392707 6.631234816896515 1.39595400546491 1:-0.841257 2:-0.799353 3:-0.887478 4:-0.656688 5:-1 6:-0.256028 7:-0.782805 8:-1 9:-1 10:-1 11:-0.711002 12:-0.951578 13:-0.44622 14:-1 15:-0.995938 16:-0.321187 17:-1 18:0.395018 20:-1 21:-0.794693 
-2.754878167713769 -0 -0 -0 -0 -27.05417874892377 -0 -0 0 0 0 0 0 0 0 0 0 1:-0.811418 2:-1 3:-0.816007 4:-0.264124 5:-1 6:-0.551091 7:-1 8:-1 9:-1 10:-1 11:-1 12:-0.918973 13:-0.315049 14:-1 15:-0.994314 16:0.145437 17:-1 18:-0.410439 20:-1 21:-0.914106 
-0 -14.99809112975856 -1.885050531262445 -14.41485177896948 -16.74407608434714 -60.37636907589979 -24.26635991325749 -8.302360112175144 20.90243594500018 10.0602488979603 11.96533773510256 12.67098904271974 20.3677659021773 7.653971738582651 7.803681425632498 17.08572403746986 9.658433875338769 1:-0.730654 2:-1 3:-0.677496 4:-0.602125 5:-1 6:-0.935706 7:-1 8:-1 9:-1 10:-1 11:-1 12:-0.452022 13:-0.772001 14:-1 15:-1 16:-0.592712 17:-1 18:-0.924081 20:-1 21:-0.996858 
-1.490421127346158 -0 -0 -0 -1.431440748156769 -33.47483301583457 -110.6300554873375 -39.98903149207354 0 3.650430082044185 1.684267809298733 8.260974513402974 2.366075142340905 3.331009589511243 6.089463464870928 0 0 1:-0.550428 2:-1 3:-0.837566 4:-0.560116 5:-1 6:-0.0711825 7:-1 8:-1 9:-1 10:-1 11:-1 12:-0.741587 13:-0.520153 14:-1 15:-0.936637 16:-0.608513 17:-1 18:0.30605 20:-1 21:-0.52095 
-1.144065213693843 -24.58279022968284 -0.8764499174359713 -2.401842057672507 -3.962825745242462 -0 -1.53416614872113 -0 0 0 0 0 0 0 0 0 0 1:-0.330416 2:-1 3:-0.909333 4:-0.413327 5:-1 6:-0.0241102 7:-1 8:-1 9:-1 10:-1 11:-1 12:-0.934146 13:-0.55068 14:-1 15:-0.909829 16:-0.393099 17:-1 18:0.476868 20:-1 21:-0.478003 
-4.166454555702086 -2.855276833389781 -2.12687471926488 -0.9744003554136116 -0.6498663669249793 -4.504856666302902 -18.75725861926924 -7.878753774462423 0 2.975877794647241 0 0.482926846217149 0 14.20194469933799 0.2157208174929738 0 0.546613920872341 1:-0.580664 2:-0.656958 3:-0.868281 4:-0.453887 5:-1 6:-0.247991 7:-0.257919 8:-0.713004 9:-0.813333 10:-1 11:-0.303777 12:-0.841982 13:-0.357024 14:-1 15:-0.777417 16:-0.540471 17:-1 18:0.208778 20:-1 21:-0.40398 
-0 -0 -0.3888045303664737 -0 -0 -0 -0 -0 -0 0 69.27130095539086 0 86.13183856008844 0 0 54.07535030968423 51.69824175092378 1:-0.937139 2:-1 3:-0.936503 4:-0.924191 5:-1 6:-0.949483 7:-1 8:-1 9:-0.902222 10:-1 11:-0.83908 12:-0.894278 13:-0.754829 14:-1 15:-0.953696 16:-0.967752 17:-1 18:-0.881376 20:-1 21:-0.984986 
-0 -0 -0 -0 -0 -0 -0 -0 -0 0 199.2082415089254 0 0 0 0 389.6439942990285 19.00773676630586 1:-0.974935 2:-0.957929 3:-0.987596 4:-0.911637 5:-1 6:-0.958668 7:-1 8:-1 9:-0.952593 10:-1 11:-0.986864 12:-0.980308 13:-0.862628 14:-1 15:-0.976442 16:-0.814253 17:-1 18:-0.708185 20:-1 21:-0.97067 
-0.6623466067467604 -0 -0.2038321132514059 -0 -0 -28.93883647898556 -24.19027616293408 -0 -15.79555285460339 0 143.6528161406316 0 0 0 0 125.4821101869694 0 1:-0.90372 2:-1 3:-0.878913 4:-0.728151 5:-1 6:-0.828932 7:-1 8:-1 9:-1 10:-1 11:-1 12:-0.934469 13:-0.6456 14:-1 15:-0.903331 16:-0.75524 17:-1 18:-0.689205 20:-1 21:-0.925978 
-2.717672296230819 -29.98229232394747 -2.389949013481001 -50.4658219454678 -83.84335400727284 -7.643327569702816 -4.447047203133366 -11.52355937754681 -13.77453824522019 133.6344814394841 0 28.36643120910799 225.6680520739434 45.66042448399575 29.56291894497538 235.1774061125192 0 1:-0.861548 2:-0.996764 3:-0.893975 4:-0.62337 5:-1 6:-0.754305 7:-1 8:-1 9:-0.851852 10:-1 11:-0.812808 12:-0.951255 13:-0.818269 14:-1 15:-0.904143 16:-0.707514 17:-1 18:-0.467378 20:-1 21:-0.906075 
-0 -0 -0 -8.020935651132579 -38.49345448556026 -0 -0 -0 -0 107.7965938408248 0 31.14230070964445 0 17.49376480385574 70.44675657671404 0 0 1:-0.981301 2:-0.925566 3:-0.989073 4:-0.86818 5:-1 6:-0.893226 7:-1 8:-1 9:-1 10:-1 11:-0.937603 12:-0.983214 13:-0.853565 14:-1 15:-1 16:-0.777169 17:-1 18:-0.437722 20:-1 21:-0.850559 
-0 -0 -0 -0 -0 -0 -0 -0 -0 0 123.8895179383637 0 512 3.287239571278223 0 125.698686053889 18.8308800273003 1:-0.991247 2:-0.951456 3:-0.99114 4:-0.958474 5:-1 6:-0.902411 7:-1 8:-0.847534 9:-1 10:-1 11:-0.901478 12:-0.974659 13:-0.802051 14:-1 15:-0.998375 16:-0.92841 17:-1 18:-0.747331 20:-1 21:-0.952863 
-0 -10.41740910407931 -0 -40.20024617120659 -44.52189856680979 -0 -4.50373098362595 -0.3260321851583976 -2.937066713018074 -0 0 0 0 0 68.79638366532292 0 0 1:-0.851601 2:-0.932039 3:-0.913467 4:-0.743602 5:-1 6:-0.714122 7:-1 8:-1 9:-0.81037 10:-1 11:-0.91133 12:-0.968687 13:-0.907465 14:-1 15:-0.929326 16:-0.564334 17:-1 18:-0.0154211 20:-1 21:-0.628492 
-1.500037373213186 -0 -0.2605614378709583 -0 -0 -0.8158733591049526 -0 -0.4174902556263256 -2.682124934680253 -54.63941535221706 12.15746759864152 25.95967412368582 12.8776752039546 0 62.55686747657319 0 0 1:-0.869903 2:-0.977346 3:-0.928825 4:-0.780782 5:-1 6:-0.788749 7:-1 8:-0.973094 9:-0.54963 10:-1 11:-0.829228 12:-0.969333 13:-0.762938 14:-1 15:-0.943948 16:-0.628829 17:-1 18:-0.294187 20:-1 21:-0.642807 
-0 -12.30634833171906 -1.022880584824065 -28.17503682485912 -143.4316878959673 -11.7668941454361 -0 -0 -8.004480970041397 -183.6645025634657 131.157086226588 70.70892812832206 244.1612762943569 255.8844084569174 110.9967195025445 170.1240467850942 30.86987646275595 1:-0.86672 2:-0.964401 3:-0.980213 4:-0.745534 5:-1 6:-0.686567 7:-1 8:-1 9:-1 10:-1 11:-0.917898 12:-0.994674 13:-0.915574 14:-1 15:-0.970755 16:-0.820058 17:-1 18:-0.499407 20:-1 21:-0.809008 
-0 -0 -0.6611041880245679 -0 -0 -0 -3.570512404962577 -8.610596886444368 -0 -0 0 130.5434812529656 128.0298154448526 100.8457237726201 147.4387302010124 0 0 1:-0.889795 2:-0.851133 3:-0.933845 4:-0.840657 5:-1 6:-0.531573 7:-1 8:-0.748879 9:-0.902222 10:-1 11:-0.517241 12:-0.890082 13:-0.96041 14:-1 15:-0.737612 16:-0.901322 17:-1 18:-0.295374 20:-1 21:-0.684707 
-0 -0 -0 -0 -0 -0 -0.8126452343479197 -0 -0 -0 14.90141445944606 0 0 112.8797463818145 165.6653239248809 0 0 1:-0.908096 2:-1 3:-0.995275 4:-0.889908 5:-1 6:-0.510907 7:-1 8:-1 9:-1 10:-1 11:-1 12:-1 13:-0.989983 14:-1 15:-0.996751 16:-0.92712 17:-1 18:-0.270463 20:-1 21:-0.758031 
-2.815206532579371 -0 -1.541080087374624 -29.37541263266346 -22.84979914318468 -0 -5.312155554583415 -3.691667720187041 -7.202443262938066 -0 0 0 0 0 38.36534424204719 0 0 1:-0.843246 2:-0.805825 3:-0.819256 4:-0.636408 5:-1 6:-0.532721 7:-0.647059 8:-0.73991 9:-0.973333 10:-1 11:-0.218391 12:-0.867484 13:-0.803005 14:-1 15:-0.811535 16:-0.761367 17:-1 18:0.586002 20:-1 21:-0.692039 
-0.3983175552788402 -12.02639036914199 -0 -0 -20.28117969689481 -16.18760964535122 -19.68729595900408 -9.797131887280377 -6.655187539067238 -3.127157364626194 0 0 0 49.79299061165379 0 0 0 1:-0.795106 2:-0.983819 3:-0.860012 4:-0.548527 5:-1 6:-0.614237 7:-1 8:-1 9:-0.816296 10:-1 11:-0.83908 12:-0.869421 13:-0.846411 14:-1 15:-0.896832 16:-0.813931 17:-1 18:0.0450771 20:-1 21:-0.825419 
-0 -0 -0 -0 -0 -0 -0 -0 -0 -301.9093414578626 -0 0 15.3571327040728 0 0 503.3892138983465 109.3353245340564 1:-0.937935 2:-1 3:-0.961016 4:-0.8986 5:-1 6:-0.880597 7:-1 8:-1 9:-1 10:-1 11:-1 12:-0.983375 13:-0.866444 14:-1 15:-0.965881 16:-0.872622 17:-1 18:-0.836299 20:-1 21:-0.9375 
-0 -0 -1.301314919684031 -0 -0 -0 -0 -0 -0 -0 -0 0 20.53911512847942 20.73375857859401 0 76.77689127148422 22.30156878906018 1:-0.887806 2:-1 3:-0.925576 4:-0.962337 5:-1 6:-0.811711 7:-1 8:-1 9:-1 10:-1 11:-1 12:-0.884271 13:-0.871214 14:-1 15:-0.777417 16:-0.978072 17:-1 18:-0.879004 20:-1 21:-0.863827 
-0 -0 -0 -0 -0 -15.75134333525862 -0.679539796827639 -0 -3.17679542843271 -234.112535085449 -0 0 156.6117471384514 0 0 512 0 1:-0.895763 2:-1 3:-0.950975 4:-0.8986 5:-1 6:-0.811711 7:-1 8:-1 9:-1 10:-1 11:-1 12:-0.948672 13:-0.729549 14:-1 15:-0.938262 16:-0.912931 17:-1 18:-0.646501 20:-1 21:-0.915503 
-3.111438294399445 -22.50316871352202 -1.585423881458796 -29.36998452346859 -62.29746794456561 -10.26900060639874 -19.82979140246053 -10.39237155114849 -15.20817834387909 -0 -158.2159682846755 89.71488133420974 37.65753193812985 86.07555649650831 110.1224299780506 267.5509655670534 0 1:-0.919634 2:-1 3:-0.959835 4:-0.908257 5:-1 6:-0.712974 7:-1 8:-1 9:-1 10:-1 11:-1 12:-0.98047 13:-0.813022 14:-1 15:-0.923639 16:-0.768784 17:-1 18:-0.504152 20:-1 21:-0.818087 
-0 -4.947722195577486 -1.574183226837143 -9.362174020626588 -9.116216530998328 -0 -0 -0 -0 -5.165510585428955 -114.2624510178366 -0 178.7476744935645 347.6916566765636 306.6539813421078 0 0 1:-0.939924 2:-0.89644 3:-0.838748 4:-0.853211 5:-1 6:-0.807118 7:-1 8:-0.605381 9:-0.905185 10:-1 11:-0.507389 12:-0.913001 13:-0.853088 14:-1 15:-0.78879 16:-0.806192 17:-1 18:-0.240807 20:-1 21:-0.701466 
-0.02015029908560143 -0 -0 -11.84772040241323 -18.59176871199297 -8.012792839010086 -1.87911081645519 -0 -7.208742702805887 -27.17454710721241 -0 -32.68298763603218 138.8819729844516 72.8684215139747 268.7350972471164 11.3480907615615 0.5504608605903821 1:-0.917645 2:-0.919094 3:-0.873302 4:-0.856108 5:-1 6:-0.740528 7:-0.954751 8:-0.73991 9:-0.934815 10:-1 11:-0.914614 12:-0.896215 13:-0.771047 14:-1 15:-0.915516 16:-0.774911 17:-1 18:-0.255042 20:-1 21:-0.696229 
-0 -0 -0 -0 -0 -0 -0 -0 -0 -0 -0 -6.00811053519255 0 0 0 0 0 1:-0.922817 2:-1 3:-0.867395 4:-0.954128 5:-1 6:-0.41217 7:-1 8:-1 9:-1 10:-1 11:-1 12:-0.912679 13:-0.872645 14:-1 15:-0.603574 16:-0.921316 17:-1 18:-0.639383 20:-1 21:-0.570531 
-0 -0 -0 -0 -0 -0 -0 -0 -0 -0 -3.073916663912357 -0 0 0 0 0 0 1:-0.896956 2:-0.932039 3:-0.87596 4:-0.929503 5:-1 6:-0.365098 7:-1 8:-1 9:-1 10:-1 11:-0.868637 12:-0.913486 13:-0.853565 14:-1 15:-0.696994 16:-0.972912 17:-1 18:-0.676157 20:-1 21:-0.622905 
-0 -0 -0.3419380168222665 -0 -0 -0 -0 -4.041543353140287 -0 -0 -37.60513792022684 -0 140.003731517652 364.888326736886 124.5638276807952 2.776893373196486 22.33639317376724 1:-0.896956 2:-0.932039 3:-0.87596 4:-0.929503 5:-1 6:-0.365098 7:-1 8:-1 9:-1 10:-1 11:-0.868637 12:-0.913486 13:-0.853565 14:-1 15:-0.696994 16:-0.972912 17:-1 18:-0.676157 20:-1 21:-0.622905 
-0.01253757826930627 -27.14122379979853 -1.452761865631572 -8.375088629699579 -34.10608343834199 -30.39607959948769 -10.70379953308308 -5.106751886881277 -15.95257468104061 -27.16867422611107 -63.63528201959338 -51.023783162985 187.1252254682926 512 209.4148434805204 44.65590559794936 4.239600309363796 1:-0.717923 2:-1 3:-0.903426 4:-0.819411 5:-1 6:-0.571757 7:-1 8:-1 9:-1 10:-1 11:-1 12:-0.889759 13:-0.808252 14:-1 15:-0.844029 16:-0.888423 17:-1 18:-0.470937 20:-1 21:-0.688198 
-3.949500046403355 -0 -0 -0 -0 -0 -19.42290215849084 -13.82707829395584 -0 -0 -8.635295883404373 -0 0 0 132.0694120727348 0 0 1:-0.926795 2:-0.993528 3:-0.913763 4:-0.839208 5:-1 6:-0.677382 7:-1 8:-0.910314 9:-0.828148 10:-1 11:-0.802956 12:-0.916714 13:-0.741951 14:-1 15:-0.656377 16:-0.905514 17:-1 18:-0.084223 20:-1 21:-0.59602 
-0 -10.76389538171834 -0 -0 -0 -36.17419660835166 -0 -0 -15.52093989749401 -182.5431622315245 -0 -117.5008672391346 -16.65089502179049 41.61032465601279 0 213.1236687172452 0 1:-0.869107 2:-1 3:-0.793266 4:-0.822791 5:-1 6:-0.833525 7:-1 8:-1 9:-1 10:-1 11:-1 12:-0.779033 13:-0.832101 14:-1 15:-0.961007 16:-0.945824 17:-1 18:-0.609727 20:-1 21:-0.917249 
-0 -0 -0.0908030313634592 -0 -0 -1.550432877182467 -0 -0 -10.15529976083654 -71.89014869618403 -6.174774509111169 -0 -0 0 0 0 14.25591922127632 1:-0.906107 2:-0.906149 3:-0.834318 4:-0.813134 5:-1 6:-0.7876 7:-1 8:-1 9:-0.89037 10:-1 11:-0.862069 12:-0.768057 13:-0.832101 14:-1 15:-0.90658 16:-0.913254 17:-1 18:-0.686833 20:-1 21:-0.944134 
-0 -1.528464238212561 -0 -31.24638270710823 -45.31243192858312 -0 -0 -0 -0 -57.36657970632332 -172.2625314503351 -0 -112.3149182230066 138.2733999659472 109.0515089241413 0 0 1:-0.954645 2:-0.990291 3:-0.949203 4:-0.740705 5:-1 6:-0.683123 7:-1 8:-0.802691 9:-1 10:-1 11:-0.71757 12:-0.982407 13:-0.896494 14:-1 15:-0.963444 16:-0.79297 17:-1 18:-0.596679 20:-1 21:-0.947975 
-0 -0 -2.996968683881743 -0 -0 -0 -0 -0 -0 -0 -54.26995679383744 -0 -307.0729435332248 209.6291928676239 306.5698931474988 0 0 1:-0.850806 2:-0.838188 3:-0.812463 4:-0.924674 5:-1 6:-0.659013 7:-1 8:-0.811659 9:-0.934815 10:-1 11:-0.766831 12:-0.8394 13:-0.84498 14:-1 15:-0.861089 16:-0.888746 17:-1 18:-0.415184 20:-1 21:-0.584148 
-3.752940672809292 -12.45006850186716 -0 -0.6897331359134526 -30.5503469164465 -9.753931095152046 -32.76437767872291 -24.04276141195394 -0.357796551140199 -0 -152.3615041898804 -19.69004159888661 -205.8079018379194 512 458.9779126295431 3.353888551655492 0 1:-0.87229 2:-1 3:-0.887478 4:-0.834862 5:-1 6:-0.551091 7:-1 8:-1 9:-1 10:-1 11:-0.812808 12:-0.923009 13:-0.769616 14:-1 15:-0.879773 16:-0.849726 17:-1 18:-0.304864 20:-1 21:-0.597067 
-0 -0 -0 -0 -0 -0 -0 -0 -0 -512 -0 -86.13905372053395 -0 0 0 139.864067216446 25.40420252588148 1:-0.96658 2:-0.954693 3:-0.978441 4:-0.90874 5:-1 6:-0.901263 7:-1 8:-0.820628 9:-0.964444 10:-1 11:-0.786535 12:-0.99887 13:-0.778679 14:-1 15:-0.981316 16:-0.874879 17:-1 18:-0.711744 20:-1 21:-0.902933 
-0 -0 -0.2337554870140009 -8.944650914251785 -0 -0 -0 -0 -0 -0 -0 -6.835564350578299 -2.91194584801954 112.5573108838523 0 58.02941569165651 19.35565928942279 1:-0.921225 2:-0.825243 3:-0.929415 4:-0.873974 5:-1 6:-0.784156 7:-0.809955 8:-1 9:-1 10:-1 11:-0.648604 12:-0.987087 13:-0.801097 14:-1 15:-0.732738 16:-0.832957 17:-1 18:-0.825623 20:-1 21:-0.752095 
-2.542486526401318 -1.337057125256988 -0 -2.097986918680464 -0 -6.710850727000139 -18.46830642245789 -9.439151705197267 -7.326350704861773 -1.746107427677776 -0 -0 -181.4433483379862 -245.2930790915022 37.14817573800708 0 0 1:-0.814203 2:-0.899676 3:-0.876551 4:-0.839208 5:-1 6:-0.657865 7:-0.909502 8:-0.730942 9:-0.982222 10:-1 11:-0.405583 12:-0.855217 13:-0.543525 14:-1 15:-0.789602 16:-0.738471 17:-1 18:-0.338078 20:-1 21:-0.530377 
-0 -0 -0.3960290340425262 -0 -0 -15.40185174020736 -0 -2.617678841158413 -0 -15.73596068331043 -0 -0 -81.10395561469311 -0 0 0 0 1:-0.850806 2:-1 3:-0.826934 4:-0.848865 5:-1 6:-0.698048 7:-1 8:-1 9:-1 10:-1 11:-1 12:-0.831975 13:-0.890293 14:-1 15:-0.725426 16:-0.961303 17:-1 18:-0.6121 20:-1 21:-0.626047 
-0 -0 -0 -0 -0 -0 -0 -0 -0 -0 -86.97704481078526 -64.98202038887042 -462.1217668893266 -340.3694320917755 512 49.61054866044441 22.03424893222914 1:-0.859956 2:-1 3:-0.835499 4:-0.944471 5:-1 6:-0.703789 7:-1 8:-1 9:-1 10:-1 11:-1 12:-0.868937 13:-0.944193 14:-1 15:-0.743298 16:-0.93099 17:-1 18:-0.606168 20:-1 21:-0.632332 
-0 -4.631724750002788 -2.916204584338077 -0 -13.10293105513407 -0 -0 -0 -2.828681301496734 -0 -24.36845647627033 -0 -30.53323945454648 -0 0 0 0 1:-0.725482 2:-0.838188 3:-0.8228 4:-0.757122 5:-1 6:-0.523536 7:-0.746606 8:-0.372197 9:-0.721481 10:-1 11:-0.64532 12:-0.863611 13:-0.749106 14:-1 15:-0.84078 16:-0.854241 17:-1 18:-0.327402 20:-1 21:-0.650838 
-0 -0 -0 -1.793012872310309 -0 -0 -0 -0 -0 -4.113523766987403 -0 -0.01090993923696394 -24.40942745216856 -18.52968797399385 0 3.570026013895392 12.38102757126327 1:-0.849612 2:-0.809061 3:-0.839929 4:-0.818445 5:-1 6:-0.415614 7:-0.963801 8:-0.596413 9:-0.765926 10:-1 11:-0.408867 12:-0.907675 13:-0.768662 14:-1 15:-0.932575 16:-0.913899 17:-1 18:-0.673784 20:-1 21:-0.917598 
-0 -0 -0 -0 -0 -0 -0 -0 -0 -0 -0 -0 -0 -0 0 0 0.804262424181458 1:-0.851601 2:-0.990291 3:-0.931187 4:-0.843071 5:-1 6:-0.470723 7:-1 8:-0.802691 9:-0.958519 10:-1 11:-0.487685 12:-0.979501 13:-0.842118 14:-1 15:-0.827782 16:-0.916801 17:-1 18:-0.659549 20:-1 21:-0.717179 
-0 -0.5723078692598991 -0 -2.091284087670319 -0 -0 -0 -0 -0.3182466964862853 -0 -21.64051416083676 -2.198127238581915 -0 -103.6350514353023 0 0.1000296730572549 0 1:-0.816988 2:-0.97411 3:-0.935027 4:-0.742154 5:-1 6:-0.510907 7:-1 8:-1 9:-1 10:-1 11:-0.832512 12:-0.980793 13:-0.882662 14:-1 15:-0.94801 16:-0.845211 17:-1 18:-0.347568 20:-1 21:-0.797486 
-0 -26.2533397058975 -0 -30.47115074116731 -109.4535763441949 -11.37890953694847 -15.98092475828291 -0 -2.213902951193642 -44.8458369811541 -382.6062240981968 -39.61825750841305 -253.6029430930774 -306.2429777808622 76.78920592518142 26.52073004081872 0 1:-0.816988 2:-0.97411 3:-0.935027 4:-0.742154 5:-1 6:-0.510907 7:-1 8:-1 9:-1 10:-1 11:-0.832512 12:-0.980793 13:-0.882662 14:-1 15:-0.94801 16:-0.845211 17:-1 18:-0.347568 20:-1 21:-0.797486 
-0 -0 -0 -0 -0 -0 -0 -0 -0 -0 -0 -0 -128.4722671846502 -0 4.626687729644082 0 0 1:-0.760493 2:-0.993528 3:-0.828116 4:-0.901497 5:-1 6:-0.483352 7:-1 8:-0.713004 9:-0.988148 10:-1 11:-0.908046 12:-0.882334 13:-0.847365 14:-1 15:-0.814785 16:-0.973879 17:-1 18:-0.625148 20:-1 21:-0.574721 
-2.546521558578748 -0 -0.6871390489103469 -7.885425490810036 -0 -2.593203617537166 -5.927364886260112 -12.09815629131386 -16.71174424805084 -0 -0 -0 -0 -0 34.08815544974268 0 0 1:-0.813805 2:-0.760518 3:-0.878913 4:-0.761468 5:-1 6:-0.198622 7:-0.429864 8:-1 9:-0.76 10:-1 11:-0.507389 12:-0.954645 13:-0.664202 14:-1 15:-0.792039 16:-0.781683 17:-1 18:-0.00237248 20:-1 21:-0.503492 
-0 -0 -0 -0 -13.50336878628204 -0 -0 -11.93344905263074 -0 -0 -3.810629676916719 -0 -135.761456900976 -0 340.441884243128 0 0 1:-0.831709 2:-0.964401 3:-0.920555 4:-0.698213 5:-1 6:-0.346728 7:-1 8:-0.73991 9:-0.89037 10:-1 11:-0.596059 12:-0.957227 13:-0.87026 14:-1 15:-0.894395 16:-0.831345 17:-1 18:-0.150652 20:-1 21:-0.711941 
-0 -0 -0 -7.849509313389524 -29.97950635000145 -0 -0 -0 -0 -0 -70.48726302708461 -0 -0 -0 -0 0 0 1:-0.932763 2:-0.873786 3:-0.987301 4:-0.818928 5:-1 6:-0.780712 7:-0.692308 8:-1 9:-0.854815 10:-1 11:-0.661741 12:-1 13:-0.945624 14:-1 15:-0.979691 16:-0.767172 17:-1 20:-1 21:-0.597765 
-2.462954100653168 -4.799129975194982 -0.2729101798650441 -51.61237843104239 -18.60392155899477 -0 -16.60884431499384 -9.063757906288204 -9.439696284148869 -0 -68.41509612263438 -0 -0 -0 -8.932207239547779 0 0 1:-0.907698 2:-0.993528 3:-0.959835 4:-0.695799 5:-1 6:-0.83008 7:-1 8:-1 9:-1 10:-1 11:-0.770115 12:-0.993867 13:-0.859766 14:-1 15:-0.943136 16:-0.685908 17:-1 18:0.228944 20:-1 21:-0.669344 
-0 -0 -0 -0 -0 -0 -12.08619279189401 -0 -8.360393498327578 -0 -94.79367661906797 -0 -0 -259.6270070721574 -0 0 0 1:-0.85001 2:-0.94822 3:-0.926462 4:-0.834862 5:-1 6:-0.335247 7:-1 8:-1 9:-0.97037 10:-1 11:-0.770115 12:-0.950125 13:-0.818746 14:-1 15:-0.849716 16:-0.888423 17:-1 18:-0.384342 20:-1 21:-0.565992 
-1.367453361152261 -4.881792221913994 -1.094903078045752 -8.596792803411061 -15.19475259579954 -15.34258571015252 -6.652314425006866 -24.58305365068499 -1.586993767781981 -0 -35.56633990944532 -0 -0 -0 -288.1132188518045 0 0 1:-0.794311 2:-0.996764 3:-0.840224 4:-0.889425 5:-1 6:-0.227325 7:-1 8:-1 9:-1 10:-1 11:-0.756979 12:-0.893471 13:-0.909373 14:-1 15:-0.702681 16:-0.927443 17:-1 18:-0.41637 20:-1 21:-0.590433 
-0 -12.5477053954204 -0 -0 -55.78472488570748 -15.60984381589207 -0 -0 -1.910180228130674 -71.57758377425405 -141.992550561996 -45.14859367338294 -161.6998417889633 -175.3252285628519 -130.5892282730478 20.83910378733307 0 1:-0.92043 2:-0.92233 3:-0.910219 4:-0.802028 5:-1 6:-0.770379 7:-1 8:-1 9:-1 10:-1 11:-0.934319 12:-0.933016 13:-0.871214 14:-1 15:-0.936637 16:-0.856175 17:-1 18:-0.188612 20:-1 21:-0.817039 
-0 -0 -0 -0 -0 -0 -0 -0 -0 -0 -0 -0 -81.2195362485742 -0 -0 0 0 1:-0.869107 2:-0.919094 3:-0.861784 4:-0.913568 5:-1 6:-0.446613 7:-1 8:-1 9:-1 10:-1 11:-0.635468 12:-0.86587 13:-0.906988 14:-1 15:-0.705118 16:-0.961948 17:-1 18:-0.323843 20:-1 21:-0.715782 
-0.1318534449017842 -4.908788293710763 -2.142730629632767 -0 -6.110220403321097 -0 -0 -0 -0 -4.165862915301317 -61.31568457867455 -0 -197.5903862536796 -134.6098909507972 -125.2715405566859 0 0 1:-0.763278 2:-0.831715 3:-0.85883 4:-0.886528 5:-1 6:-0.681975 7:-1 8:-0.623318 9:-0.813333 10:-1 11:-0.412151 12:-0.939472 13:-0.802528 14:-1 15:-0.860276 16:-0.981619 17:-1 18:-0.485172 20:-1 21:-0.623254 
-0 -0 -0 -0 -0 -0 -0 -0 -0 -24.26622883213405 -78.47760294039402 -64.97383630466771 -88.92739753205736 -124.8189940867043 -258.3802312486402 57.81585260634382 32.90643135200038 1:-0.923215 2:-0.996764 3:-0.891613 4:-0.906808 5:-1 6:-0.617681 7:-1 8:-1 9:-0.887407 10:-1 11:-0.960591 12:-0.893632 13:-0.932268 14:-1 15:-0.871649 16:-0.96743 17:-1 18:-0.512456 20:-1 21:-0.701816 
-0 -0 -0 -0 -0 -0.3551279281254705 -0 -0 -0 -0 -42.77115525308425 -0 -512 -180.2181940286725 -193.8076829159771 0 0 1:-0.895365 2:-0.935275 3:-0.877437 4:-0.866731 5:-1 6:-0.665901 7:-1 8:-0.784753 9:-0.925926 10:-1 11:-0.871921 12:-0.931886 13:-0.857381 14:-1 15:-0.814785 16:-0.75395 17:-1 18:-0.240807 20:-1 21:-0.585545 
-0 -0 -0 -0 -21.07499091808652 -0 -0 -0 -0 -0 -0 -360.3688525584236 -0 -0 -0 -0 0 1:-0.874677 2:-1 3:-0.939752 4:-0.799614 5:-1 6:-0.80597 7:-1 8:-1 9:-1 10:-1 11:-1 12:-0.988217 13:-0.797281 14:-1 15:-0.921202 16:-0.837794 17:-1 18:-0.766311 20:-1 21:-0.909218 
-0 -0 -0.3884516363515237 -12.51568742854477 -13.60010150303923 -0 -0 -0 -3.617655041798395 -0 -0 -14.65484829199782 -0 -18.64712300505846 -0 -0 51.48659817287506 1:-0.876666 2:-0.938511 3:-0.955405 4:-0.867214 5:-1 6:-0.796785 7:-1 8:-1 9:-0.931852 10:-1 11:-0.809524 12:-0.973852 13:-0.789172 14:-1 15:-0.9342 16:-0.765237 17:-1 18:-0.881376 20:-1 21:-0.903631 
-0.2730459236217975 -0 -0 -0 -0 -0 -7.445823618977434 -0 -0.3856857798666851 -512 -0 -219.032406352991 -0 -175.3682107688062 -0 -0 0 1:-0.893774 2:-0.996764 3:-0.935913 4:-0.884114 5:-1 6:-0.876005 7:-1 8:-1 9:-1 10:-1 11:-0.83908 12:-0.963845 13:-0.725733 14:-1 15:-0.883022 16:-0.927765 17:-1 18:-0.752076 20:-1 21:-0.954609 
-1.282915050429442 -0 -1.665601555987354 -0 -0 -23.85901447090065 -3.959649085112124 -5.369679718734684 -6.558558483614 -55.07028660370298 -101.2299604493965 -512 -49.09535819106775 -187.7880969385699 -67.79285679146237 -63.24239364601917 12.93949540495917 1:-0.873085 2:-1 3:-0.904017 4:-0.880734 5:-1 6:-0.761194 7:-1 8:-1 9:-1 10:-1 11:-1 12:-0.921233 13:-0.809206 14:-1 15:-0.916328 16:-0.958401 17:-1 18:-0.647687 20:-1 21:-0.898394 
-0 -0 -0 -0 -0 -0 -0 -0 -0 -164.4112620407215 -0 -253.6609635334718 -0 -0 -0 -0 13.22951786610236 1:-0.929978 2:-1 3:-1 4:-0.86142 5:-1 6:-0.886338 7:-1 8:-1 9:-1 10:-1 11:-1 12:-1 13:-1 14:-1 15:-1 16:-0.739439 17:-1 18:-0.614472 20:-1 21:-0.952165 
-1.441779052400354 -34.81283918914871 -0.8743719811358006 -156.3112269236022 -332.5007614318475 -4.548396481214131 -6.507406626093776 -3.380380784711762 -13.15505954908729 -198.595998317666 -68.89408633569774 -0 -7.789806910965481 -32.56760946456867 -1.264976501870202 -0 0 1:-0.869505 2:-0.89644 3:-1 4:-0.654756 5:-1 6:-0.794489 7:-1 8:-1 9:-0.937778 10:-1 11:-1 12:-1 13:-1 14:-1 15:-1 16:-0.48436 17:-1 18:-0.529063 20:-1 21:-0.94588 
-0 -2.346106399968173 -0 -0 -59.76735271567943 -0 -0 -0 -0 -0 -0 -0 -1.895724630674108 -0 -10.74350109488321 -15.41256274765772 0 1:-0.900139 2:-1 3:-0.982871 4:-0.812168 5:-1 6:-0.822044 7:-1 8:-1 9:-1 10:-1 11:-1 12:-1 13:-0.973766 14:-1 15:-0.954509 16:-0.558852 17:-1 18:-0.480427 20:-1 21:-0.950768 
-0.4621904070262124 -1.701021917621625 -0 -7.924942737375418 -4.892881818854706 -0.5626341707789789 -0.688090923787588 -0.6628985949030638 -0.4985365218372075 -2.910571656834098 -1.940718236935232 -0 -0.06662690825164483 -9.410806612942261 -3.998512108438305 -0 -4.585354944110006 1:-0.97414 2:-0.530744 3:-0.985824 4:-0.944954 5:-1 6:-0.718714 7:-0.339367 8:-0.991031 9:-0.771852 10:-1 11:-0.241379 12:-1 13:-0.983306 14:-1 15:-0.997563 16:-0.955498 17:-1 18:-0.860024 20:-1 21:-0.912709 
-0.4048457721577514 -0 -1.680562200425107 -0.5144295969336391 -0 -0 -0 -0 -0.3544628574427853 -0 -0 -0 -0 -0 -0 -0 -0 1:-0.966978 2:-0.18123 3:-1 4:-0.974408 5:-0.88 6:-0.810563 7:0.0950226 8:-1 9:-0.828148 10:-0.69697 11:-0.349754 12:-1 13:-1 14:-1 15:-1 16:-0.984199 17:-1 18:-0.963227 20:-0.725 21:-0.952514 
-0 -7.687861351296259 -0 -0 -0 -0.04709478283331887 -0 -0 -5.77495036432597 -83.21923454587149 -0.9097181851167707 -104.6932382520392 -0 -29.71379215304319 -0 -0 -45.91636157327996 1:-0.957032 2:-0.967638 3:-1 4:-0.93916 5:-1 6:-0.878301 7:-1 8:-1 9:-0.97037 10:-1 11:-0.914614 12:-1 13:-1 14:-1 15:-1 16:-0.972912 17:-1 18:-0.988138 20:-1 21:-0.964036 
-0.002915532361932543 -0.006260634923011889 -0 -0 -0 -0 -0 -0 -0.001449551442727725 -0 -0 -0 -0.003491106494837356 -0.007019848936114062 -0.001292162865827297 -0 -0 1:-0.986871 2:-0.857605 3:-0.9557 4:-0.904877 5:-0.96 6:-0.944891 7:-1 8:-0.847534 9:-0.940741 10:-0.545455 11:-0.947455 12:-0.992414 13:-0.924636 14:1 15:-1 16:-0.945824 17:-0.823529 18:-0.924081 20:-1 21:-0.999302 
-0.6259536035424792 -0.6963046750690989 -0.9250612176009546 -0.8361860955350633 -1.067035598723546 -0.6979224701547163 -0.6772303307396969 -0.3406734337904208 -0.8076586609021684 -1.035025324591757 -0.5901973672356086 -1.002404496764551 -0.1845950145830201 -0.5948831281312048 -0.6941888489698638 -0.3857056519468343 -0.6856537951923573 1:-0.986871 2:-0.857605 3:-0.9557 4:-0.904877 5:-0.96 6:-0.944891 7:-1 8:-0.847534 9:-0.940741 10:-0.545455 11:-0.947455 12:-0.992414 13:-0.924636 14:1 15:-1 16:-0.945824 17:-0.823529 18:-0.924081 20:-1 21:-0.999302 
-1.197066459696478 -2.183778274735133 -0.8493946282552531 -15.34261106429116 -16.77999103781448 -10.87249702534266 -7.211821103657297 -5.222689822669899 -4.16394384572516 -0 -27.42924267346833 -13.31433378400664 -21.22456638445416 -7.357163497117966 -19.77302146857951 -17.65832259925747 -26.46824113135427 1:-0.972946 2:-0.990291 3:-1 4:-0.904394 5:-1 6:-0.541906 7:-1 8:-1 9:-0.955556 10:-1 11:-0.954023 12:-1 13:-1 14:-1 15:-1 16:-0.946791 17:-1 18:-0.920522 20:-1 21:-0.89595 
-0 -0 -0 -0 -0 -0 -0 -0 -0 -0 -0 -0 -0 -1.40051723328049 -0 -0 -0 1:-0.948279 2:-0.592233 3:-1 4:-0.969097 5:-1 6:-0.706085 7:-0.891403 8:-1 9:-0.961481 10:-1 11:-0.55665 12:-1 13:-1 14:-1 15:-1 16:-0.989681 17:-1 18:-0.934757 20:-1 21:-0.951816 
-0 -0 -0.1803473367994047 -0 -0 -0 -0 -0 -0 -0 -0 -0 -2.03663495395319 -0 -1.191704758361676 -0 -0 1:-0.941914 2:-0.420712 3:-1 4:-0.984066 5:-1 6:-0.549943 7:-0.954751 8:-1 9:-0.982222 10:-1 11:-0.369458 12:-1 13:-1 14:-1 15:-1 16:-1 17:-1 18:-0.978648 20:-1 21:-0.853701 
-0 -0 -0 -0 -0 -0 -0 -0 -0 -0 -0 -12.62691679030616 -0 -0 -0 -0 -0 1:-0.990452 2:-1 3:-0.994979 4:-0.987446 5:-1 6:-0.622273 7:-1 8:-1 9:-1 10:-1 11:-1 12:-1 13:-0.999046 14:-1 15:-0.991064 16:-0.995808 17:-1 18:-0.94306 20:-1 21:-0.880237 
-0 -0 -0 -0 -0 -0 -0 -0 -0 -0 -0 -0 -3.610539975984572 -0 -0 -0 -0 1:-1 2:-0.919094 3:-1 4:-1 5:-1 6:-0.514351 7:-1 8:-1 9:-1 10:-1 11:-0.80624 12:-1 13:-1 14:-1 15:-1 16:-1 17:-1 18:-1 20:-1 21:-0.806215 
-0 -0 -0 -0 -0 -0 -0 -0 -0 -2.372027017232603 -0 -0 -0 -10.53159856312937 -9.560819580458675 -14.86240310079606 -0 1:-0.986871 2:-0.873786 3:-0.999705 4:-1 5:-1 6:-0.683123 7:-1 8:-1 9:-0.84 10:-1 11:-0.878489 12:-1 13:-1 14:-1 15:-0.978879 16:-0.995163 17:-1 18:-0.897983 20:-1 21:-0.894553 
