svm_type c_svc
kernel_type rbf
gamma 0.03125
nr_class 22
total_sv 308
rho 0.184314 0.187717 0.927899 0.0529957 0.0170161 0.152164 0.072177 0.555611 0.733759 4.04003 0.260114 -1.60463 0.343087 -0.729236 0.0940035 -15.6706 -35.8326 -3.72101 -21.9139 -3.32694 2.7475 0.188555 1.7069 -0.177631 -1.14032 -1.39913 0.311345 -0.525662 -0.247285 -0.365421 -0.569328 -0.67478 -0.454843 -0.64933 -0.284555 -0.413424 -0.238803 -0.335643 -0.368603 -0.346928 -0.332835 1.79091 1.05376 -1.49553 -1.47568 0.292293 -1.16421 0.0391439 -0.0544277 -0.924241 -0.757578 -0.286059 0.0177195 -0.534335 -0.874527 -0.591953 -0.850196 -0.432241 -0.842391 -0.196956 -1.63765 -2.62773 -1.92242 -1.8098 -1.29633 -1.42929 -1.26548 -1.41303 -1.4685 -1.75796 -1.43438 -1.13118 -1.18195 -1.05614 -1.20099 -1.68342 -1.2649 -0.920456 -43.8446 -6.381 38.0377 -0.478438 -2.39746 -0.0548968 -1.05731 0.338045 -0.934399 -1.21045 0.0147477 -0.29141 -0.0870788 -0.381674 -0.244872 -0.210677 -0.350137 -1.4699 18.179 0.283717 -1.34996 0.0445227 -0.666788 -0.301115 0.0367352 0.497062 0.126839 -0.267794 -0.0305016 -0.529967 0.162411 0.0869086 -0.39252 3.25572 -0.147469 -0.722951 -0.745277 -0.624887 -0.729742 -0.596557 -0.428616 0.0117948 -0.565598 -0.346661 -0.641954 -0.310212 -0.385415 -0.357072 -1.49214 -0.687537 -0.498842 -1.36938 -0.883869 -1.75072 -0.83328 -0.714599 -0.418305 -0.193199 -0.497994 -0.549643 -0.72519 -0.161556 -8.15862 24.8401 -2.72519 -141.804 0.286546 -2.91143 -19.3523 -9.52804 -7.06811 -2.54726 -4.24473 -5.74878 -2.81438 21.413 -9.49462 -29.6519 -17.1712 18.6556 -4.5506 -6.12524 -4.6235 -3.25488 -4.62114 -6.02982 -3.18375 -3.11882 -16.2089 -1.50837 -16.1484 -96.9002 -4.20966 -6.74624 0.206316 -5.0993 -6.1098 -4.72669 -7.49392 11.8899 -30.883 -0.358761 -0.921249 -0.565625 -0.319636 0.242387 -0.669189 0.284427 16.6596 2.5811 -1.09973 1.34819 2.83766 0.28136 0.102724 -0.14271 2.18634 1.3818 -0.539371 -1.17767 -1.18109 0.470009 0.538045 -0.730766 0.539358 0.0785099 0.0303832 -0.32665 -0.439533 0.851468 -0.324108 0.471205 -0.306847 0.539435 0.0517553 0.201183 0.0680007 0.0867038 76.7503 -6.68733 -36.8115 -125.298 59.4633 -2.8178 -60.8502 -134.695 6.54879 29.8292 6.34333 -32.8434 -2.2494 81.672 184.6
label 10 20 21 22 30 31 32 33 40 41 42 43 44 45 46 47 50 51 52 53 54 55
nr_sv 13 13 16 10 22 19 6 6 18 22 16 7 7 11 10 7 27 10 11 9 14 34
SV
0 0 1.887912567155817 0 0 0.060377281820385 0 0 0 0 0 0 0 0 0 2243.939540385443 0 11.11375250367554 3114.592202128279 378.8189320172668 2641.531265145516 1:-0.977092 2:-0.530744 3:-0.99053 4:-0.935172 5:-1 6:-0.735991 7:-0.339367 8:-0.991525 9:0.0131579 10:-1 11:-0.283721 12:-1 13:-0.986418 14:-1 15:-0.998309 16:-0.941327 17:-1 18:-0.907013 20:-1 21:-0.913378 
0 0 0 0 0 0 6.527372749731096 0 6.918676325172001 0 0 81.08776419928691 14.15367787107813 0 0 6076.323589337404 3708.035911932084 1223.671124486429 6208.672031849916 985.7302635363495 5740.890039207098 1:-0.993854 2:-0.744337 3:-0.994673 4:-0.985215 5:-1 6:-0.758621 7:-0.457014 8:-0.855932 9:-0.828947 10:-1 11:-0.153488 12:-0.999889 13:-0.995343 14:-1 15:-0.987599 16:-1 17:-1 18:-0.992908 20:-1 21:-0.92665 
0 0 2.279745814623604 0 0 0 0 0 0 0 0 0 0 0 0 0 0 0 5.255244412231035 0 0 1:-0.972063 2:-0.18123 3:-1 4:-0.969861 5:-0.88 6:-0.822198 7:0.0950226 8:-1 9:-0.236842 10:0.333333 11:-0.386047 12:-1 13:-1 14:-1 15:-1 16:-0.979167 17:-1 18:-0.975571 20:-0.725 21:-0.953196 
0 94.22695170962612 0 0 0 0 2.455246079438 1114.921388155253 272.1935049165328 856.4923329946242 0 444.83359752418 0 0 455.4811638683875 18657.26802251353 0 0 0 289.6889204764998 11422.10461321214 1:-0.965079 2:-0.967638 3:-0.993884 4:-0.945977 5:-1 6:-0.885776 7:-1 8:-1 9:-0.868421 10:-1 11:-0.91938 12:-0.999668 13:-0.989523 14:-1 15:-1 16:-0.977041 17:-1 18:-0.99212 20:-1 21:-0.964722 
0 0 0 0 0 0 0 0 0 0 0 0 0 0 0 11669.76031175656 0 0 9692.171611412081 0 17408.39347942937 1:-0.994692 2:-0.841424 3:-1 4:-1 5:-1 6:-0.742457 7:-0.800905 8:-1 9:-1 10:-1 11:-0.643411 12:-1 13:-1 14:-1 15:-1 16:-1 17:-1 18:-1 20:-1 21:-0.873559 
0 0 0 0 0 0.004610732899658002 0 0 0 0.01789534862614935 0 0 0 0 0 0 0 0 0 0 0 1:-0.986032 2:-0.857605 3:-0.953832 4:-0.935741 5:-0.96 6:-0.948276 7:-1 8:-0.855932 9:-0.736842 10:1 11:-0.950388 12:-0.969335 13:-0.964688 14:1 15:-1 16:-0.997874 17:1 18:-0.949567 20:-1 21:-1 
0.6081963891428513 0.8354020181539559 0.6670793361092122 0.5227587332841602 0.7126603999812491 0.1998780077898189 0.7463475390097324 2.88095790959117 2.026627684256493 3.421722966312158 0.5126482027403925 0.6755303010659935 0.8063634006161041 0.3023635481450955 0.9981751790430934 0 0 0 0 0.2128722160200584 7.372502305226091 1:-0.986032 2:-0.857605 3:-0.953832 4:-0.935741 5:-0.96 6:-0.948276 7:-1 8:-0.855932 9:-0.736842 10:1 11:-0.950388 12:-0.969335 13:-0.964688 14:1 15:-1 16:-0.997874 17:1 18:-0.949567 20:-1 21:-1 
13.77954638575719 0 3.594278748218491 69.18401696420051 37.11863150022145 28.81392628976748 43.22022325176734 0 0 0 44.80917826811251 0 138.6177026872047 116.2365541039283 0 0 2404.717816612605 387.9691400976348 0 723.9340923407681 313.6235538339363 1:-0.976254 2:-0.990291 3:-1 4:-0.887404 5:-1 6:-0.570043 7:-1 8:-1 9:-0.802632 10:-1 11:-0.956589 12:-1 13:-1 14:-1 15:-1 16:-0.929847 17:-1 18:-0.947203 20:-1 21:-0.896612 
0 0 0 0 0 0 0 0 13.38793651183568 0 0 0 0 0 0 16845.05969317442 0 0 0 0 0 1:-0.958933 2:-0.592233 3:-0.998422 4:-0.968155 5:-1 6:-0.724138 7:-0.891403 8:-1 9:-0.828947 10:-1 11:-0.581395 12:-0.999889 13:-0.989135 14:-1 15:-0.978579 16:-0.998724 17:-1 18:-0.986604 20:-1 21:-0.952497 
0.724310964808492 0 5.139344930596598 0 1.645160669606987 7.247239208342962 3.669151571262347 0 0 0 0 0 7.546793292282207 0 0 0 6278.183378857886 765.4575298481182 3677.835528670225 673.4858343766953 3372.140580833603 1:-0.954463 2:-0.420712 3:-1 4:-0.981234 5:-1 6:-0.577586 7:-0.954751 8:-1 9:-0.921053 10:-1 11:-0.404651 12:-1 13:-1 14:-1 15:-1 16:-1 17:-1 18:-0.985816 20:-1 21:-0.854349 
0 0 0 34.47462812639688 71.77929711080733 0 15.64009050081219 0 173.7964624588223 452.3508828635289 0 0 17.18937275789446 61.91160336379569 266.6411362865486 21570.66467709074 25113.18430634175 0 0 23.74046857249808 841.2881888121173 1:-0.988546 2:-1 3:-0.996646 4:-0.985215 5:-1 6:-0.645474 7:-1 8:-1 9:-1 10:-1 11:-1 12:-1 13:-0.999224 14:-1 15:-0.993799 16:-0.994473 17:-1 18:-0.962175 20:-1 21:-0.880894 
4.034463394166793 0 0 0 0 3.659138428297501 0 0 0 0 138.1840921790603 56.14597030549081 91.88592669473607 0 0 0 8859.630881670902 119.2055242814371 0 0 0 1:-0.995251 2:-0.919094 3:-1 4:-1 5:-1 6:-0.544181 7:-1 8:-1 9:-1 10:-1 11:-0.817054 12:-1 13:-1 14:-1 15:-1 16:-1 17:-1 18:-1 20:-1 21:-0.806846 
0 0 0 0 0 0 0 0 0 0 6.419943339874266 0 0 66.06481260457622 0 744.8935440556531 80.24095164451224 0 1161.879704266559 869.275074146256 6773.792126317242 1:-0.986032 2:-0.873786 3:-0.999803 4:-1 5:-1 6:-0.702586 7:-1 8:-1 9:-0.289474 10:-1 11:-0.885271 12:-1 13:-1 14:-1 15:-0.985344 16:-0.993622 17:-1 18:-0.93223 20:-1 21:-0.895215 
-0 0 30.59280926340974 0 0 0 0 0 0 0 0 0 0 0 0 0 0 0 0 0 0 1:-0.542953 2:-1 3:0.148861 4:-0.829969 5:-1 6:-0.224138 7:-1 8:-1 9:-1 10:-1 11:-1 12:0.396878 13:-0.836632 14:-1 15:-0.257046 16:-0.96216 17:-1 18:-0.651694 20:-1 21:-0.687391 
-2.199732504245333 7.242063318284343 0 36.08028855945732 16.24047853531505 13.05563156946763 18.71718746932301 5.942931828946597 24.745901383296 6.804554575385473 5.598436966983851 5.159860784245596 11.97609659552637 8.641010618468762 4.832163603484577 3.402161529677122 4.699421469965002 6.595531218137433 5.827918038325477 4.587470762778497 5.548279351732233 1:-0.628998 2:-0.789644 3:-0.83723 4:-0.800398 5:-1 6:-0.455819 7:-0.701357 8:-1 9:-1 10:-1 11:-0.674419 12:-0.157312 13:-0.354676 14:-1 15:-0.59301 16:-0.862245 17:-1 18:-0.189913 20:-1 21:-0.545582 
-0 25.46217001457819 0 0 0 14.12778223019804 0 0 0 0 0 0 0 0 0 0 0 0 0 0 0 1:-0.489873 2:-1 3:-0.705041 4:-0.609895 5:-1 6:-0.425647 7:-1 8:-0.652542 9:-1 10:-1 11:-0.869767 12:-0.152884 13:-0.287932 14:-1 15:-0.341601 16:-0.464711 17:-1 18:-0.0338849 20:-1 21:-0.595529 
-0 0 0 0 19.51701883068705 9.936988729699198 0 0 0 0 0 0 0 0 0 0 0 0 0 0 0 1:-0.370862 2:-0.770227 3:-0.652165 4:-0.715098 5:-1 6:0.46444 7:-1 8:-1 9:-1 10:-1 11:-0.699225 12:-0.128861 13:-0.292588 14:-1 15:-0.460541 16:-0.631378 17:-1 18:-0.316785 20:-1 21:-0.409012 
-6.111468222880049 8.507086412677179 63.77621839387886 1.130542956855721 36.04509311526166 39.99343160653387 0 5.585204287519348 1.515709645688292 5.949174316062125 11.29519939804157 13.43125802424386 8.970780607160604 14.36465974444073 1.548948648965378 8.215150871206726 5.244383155014365 6.504267402552678 8.295764646910579 7.549487535723155 5.903262551228935 1:-0.521162 2:-1 3:-0.684719 4:-0.92323 5:-1 6:0.044181 7:-1 8:-1 9:-1 10:-1 11:-0.76124 12:0.0043175 13:-1 14:-1 15:-0.22097 16:-1 17:-1 18:-0.903073 20:-1 21:-0.0943067 
-0 0 0 0 0 0 0 0 0 0 0 0 0 0 0 0 0 0.3453180906845327 0 0 0 1:-0.618103 2:-0.886731 3:-0.732071 4:-0.932329 5:-1 6:-0.109914 7:-1 8:-1 9:-1 10:-1 11:-0.581395 12:0.124322 13:-0.978269 14:-1 15:-0.26832 16:-1 17:-1 18:-0.737589 20:-1 21:-0.191058 
-0 4.997109278448115 0 0 0 0 0 0 0 0 0 0 0 0 0.4958610522730799 0 0 0 0 0 0 1:-0.554966 2:-1 3:-0.640722 4:-0.90617 5:-1 6:-0.0387931 7:-0.954751 8:-1 9:-0.0131579 10:-1 11:-0.44186 12:0.0835824 13:-0.734963 14:-1 15:-0.293687 16:-1 17:-1 18:-0.781718 20:-1 21:-0.0241006 
-0 0 0 0 0 0 0 0 0 0 0 0 2.304092295898359 0 0 0 0 0 0 0 0 1:-0.572845 2:-0.838188 3:-0.674657 4:-0.868638 5:-1 6:-0.336207 7:-1 8:-0.872881 9:-1 10:-1 11:-0.550388 12:0.0639876 13:-0.667055 14:-1 15:-0.171364 16:-1 17:-1 18:-0.869976 20:-1 21:-0.104436 
-10.83531640674995 1.798947641090323 0 63.20298359687779 28.9566657214211 11.10072914672969 66.55365520365068 25.95768127123798 14.57404871341339 13.64798406226718 14.35244267882223 13.14820255925452 11.51713488637803 11.46760128172252 19.14864020327669 9.258952854857164 8.914025385818581 6.255369472982471 6.762353486219362 7.446026057419748 8.453734364702958 1:-0.85389 2:-1 3:-0.48249 4:-0.633779 5:-1 6:-0.65194 7:-1 8:-1 9:-1 10:-1 11:-1 12:-0.306985 13:-0.139309 14:-1 15:-0.691657 16:-0.331207 17:-1 18:-0.739953 20:-1 21:-0.90709 
-0 0 0 0 5.452502963534502 0 0 0 0 0 0 0 0 0 0 0 0 0 0 0 0 1:-0.660567 2:-0.825243 3:-0.393312 4:-0.348877 5:-1 6:-0.273707 7:-1 8:-1 9:-0.473684 10:-1 11:-0.813953 12:-0.26215 13:0.0706248 14:-1 15:-0.63867 16:-0.5625 17:-1 18:-0.636722 20:-1 21:-0.85854 
-0 0 69.57057447772634 0 0 0 0 0 0 0 0 0 0 0 0 0 0 0 0 0 0 1:0.0166224 2:-1 3:0.131696 4:-0.826557 5:-1 6:0.425647 7:-1 8:-1 9:-1 10:-1 11:-1 12:0.725894 13:-0.632518 14:-1 15:0.0231116 16:-0.701105 17:-1 18:-0.388495 20:-1 21:-0.266154 
-0 0 116.5684223162115 0 0 0 0 0 0 0 0 0 0 0 0 0 0 0 0 0 0 1:-0.166643 2:-0.705502 3:0.11828 4:-0.827694 5:-1 6:0.411638 7:-1 8:-1 9:-1 10:-1 11:-0.696124 12:0.253183 13:-0.547924 14:-1 15:-0.127396 16:-0.901361 17:-1 18:-0.687943 20:-1 21:-0.374083 
-0 3.835869032286536 0 -0 3.322310025447135 1.430346041711779 0 0 0 0 0 0 0 -0 0 0 0 0 0 0 0 1:-0.0537785 2:-0.508091 3:-0.0515932 4:0.110037 5:-1 6:0.184267 7:-0.60181 8:-0.881356 9:-0.171053 10:-1 11:-0.581395 12:-0.200266 13:-0.00853706 14:-1 15:-0.602029 16:-0.516156 17:-1 18:1 20:-1 21:-0.523577 
-4.581891820891092 -0 0 0 66.86826442590419 13.6128138467531 0 14.01834225001214 5.444655278267616 23.33289095886328 28.68687421103124 31.03171573176522 11.60016351353907 0 0 0 0.1804511799418348 0 0 0 10.62697218358318 1:-0.559994 2:-0.990291 3:-0.834862 4:-0.827694 5:-1 6:-0.996767 7:-1 8:-0.423729 9:-0.644737 10:-1 11:-0.913178 12:-0.831396 13:-0.740784 14:-1 15:-0.95885 16:-0.820153 17:-1 18:-0.941686 20:-1 21:-0.994062 
-63.59768796390578 -0 0 0 16.34805116232546 0 0 36.25934187231459 0 0 0 26.79337895936005 0 0 0 41.39994075611718 38.08703782463184 18.19753353145474 17.39170351515251 25.18838291015614 31.47818817209681 1:-0.516134 2:-1 3:-0.867811 4:-0.881717 5:-1 6:-1 7:-1 8:-1 9:-1 10:-1 11:-1 12:-0.780804 13:-0.762127 14:-1 15:-0.983089 16:-0.943452 17:-1 18:-0.899921 20:-1 21:-0.99511 
-0 -0 0 235.1955730744601 311.4659181511466 0 163.3820326779763 79.2337113447014 158.0747268945779 50.18633871667718 41.23734537508548 71.4854313749745 30.8942375359455 45.66809329736825 18.3278590897475 0 0 32.66366212935312 14.86490393655709 9.42293990931709 0 1:-0.585138 2:-0.967638 3:-0.905692 4:-0.832812 5:-1 6:-0.534483 7:-1 8:-1 9:-1 10:-1 11:-0.813953 12:-0.949297 13:-0.660846 14:-1 15:-0.925592 16:-0.760629 17:-1 18:-0.588652 20:-1 21:-0.850856 
-1.682915347353525 -0 6.655325436868556 0 0 5.207475295350348 0 40.89587244467833 14.66642569246858 31.13647393694838 18.82817075499063 14.88567853504576 60.30999924634309 30.20258691770955 0 19.20994785500178 23.5770478297075 20.33418078161198 10.3712296022727 21.40184444175366 20.73613479241569 1:-0.541277 2:-0.669903 3:-0.89346 4:-0.867501 5:-1 6:-0.807112 7:-0.520362 8:-0.0423729 9:-0.671053 10:-1 11:-0.578295 12:-0.905458 13:-0.779589 14:-1 15:-0.899098 16:-0.959184 17:-1 18:-0.698976 20:-1 21:-0.890674 
-0 -0 0 0 0 0 0 0 0 0 0 0 0 4.529066030992261 0 8.401496737381573 25.29622472683298 0 0 0 0 1:-0.572845 2:-1 3:-0.899379 4:-0.862951 5:-1 6:-0.828664 7:-1 8:-1 9:-1 10:-1 11:-1 12:-0.875789 13:-0.764455 14:-1 15:-0.948703 16:-0.755952 17:-1 18:-0.708432 20:-1 21:-0.915124 
-13.54228060699904 -0 0 0 0 0 0 9.673708337955272 132.1401549493776 52.0375555135459 79.2577782917174 12.94320786879103 25.17050564555547 116.1754031527058 13.41960332006135 19.03162172281285 9.041101215062909 0 35.07426905338515 13.04391969031952 26.60363012919918 1:-0.54882 2:-1 3:-0.8978 4:-0.872619 5:-1 6:-0.756466 7:-1 8:-1 9:-0.776316 10:-1 11:-0.882171 12:-0.8697 13:-0.825378 14:-1 15:-0.894025 16:-0.891156 17:-1 18:-0.51773 20:-1 21:-0.864129 
-0 -13.75428906615617 18.84986693005142 0 13.70482164919546 27.80185855476387 0 0 0 0 0 0 0 0 0 0 0 0 0 0 0 1:0.242073 2:-0.935275 3:-0.527671 4:-0.735001 5:-1 6:-0.0517241 7:-1 8:-0.0169492 9:-0.210526 10:-1 11:-0.0542636 12:-0.562382 13:-0.316259 14:-1 15:-0.00901917 16:-0.522109 17:-1 18:-0.457841 20:-1 21:-0.0852253 
-0 -1.609789000081942 0.1254117924871024 41.96580683468511 41.70013511050551 0 23.61568060151208 0 0 0 0 0 0 0 0 0 0 0 0 0 0 1:0.100712 2:-0.802589 3:-0.719838 4:-0.284049 5:-1 6:0.329741 7:-0.773756 8:-0.745763 9:0.0657895 10:-1 11:-0.652713 12:-0.751467 13:-0.421032 14:-1 15:-0.556933 16:-0.639031 17:-1 18:-0.470449 20:-1 21:-0.257772 
-0 -0 0 0 0 0 2.516962507365997 0 0 0 0 0 0 0 0 0 0 0 0 0 0 1:-0.377846 2:-1 3:-0.90806 4:-0.584873 5:-1 6:-0.588362 7:-1 8:-1 9:-1 10:-1 11:-1 12:-0.91365 13:-0.939464 14:-1 15:-0.939121 16:-0.419218 17:-1 18:-0.0141844 20:-1 21:-0.779253 
-3.087526477992399 -0 0 34.93110650980306 0 0 0 0 12.66606802273723 0 4.206860185008758 0 58.12494815583978 0 14.63493304976698 0 2.783801181462255 0 0 0 0 1:-0.519765 2:-0.796117 3:-0.877281 4:-0.756042 5:-1 6:-0.469828 7:-1 8:-0.533898 9:-0.131579 10:-1 11:-0.848062 12:-0.944537 13:-0.927823 14:-1 15:-0.922773 16:-0.635629 17:-1 18:-0.437352 20:-1 21:-0.699267 
-8.570051510638224 -0 0 0 0 0 14.04111923649374 75.39431757564644 0 76.2956019624993 0 0 0 0 224.7343796159946 8.672912083494765 0 0 0.09514356601941024 3.909380946284153 20.91708704201013 1:-0.612516 2:-1 3:-0.927197 4:-0.745237 5:-1 6:-0.917026 7:-1 8:-1 9:-1 10:-1 11:-1 12:-0.945976 13:-0.79123 14:-1 15:-0.952086 16:-0.466412 17:-1 18:-0.732072 20:-1 21:-0.979043 
-0 -11.09375241844659 10.25905672261371 0 0 0 0 0 0 0 0 0 0 0 0 0 0 0 0 0 0 1:-0.117475 2:-1 3:-0.7226 4:-0.735001 5:-1 6:-0.655172 7:-1 8:-1 9:-1 10:-1 11:-1 12:-0.777261 13:-0.512224 14:-1 15:-0.555242 16:-0.738946 17:-1 18:-0.721828 20:-1 21:-0.849808 
-0 -0 0 0 0 92.85549472896706 0 0 0 0 0 0 19.0517786932892 0 0 0 0 0 0 0 0 1:-0.377846 2:-1 3:-0.862484 4:-0.814615 5:-1 6:-0.477371 7:-1 8:-1 9:-1 10:-1 11:-0.829457 12:-0.905236 13:-0.799767 14:-1 15:-0.828072 16:-0.882653 17:-1 18:-0.542159 20:-1 21:-0.523227 
-0 -0 0 0 0 0 0 0 25.70323715923631 0 7.82951846171152 0 0 0 0 4.207736802626638 0 3.721840297790436 5.615493150360833 11.25171470990824 0 1:-0.351585 2:-0.472492 3:-0.839006 4:-0.783338 5:-1 6:-0.517241 7:-1 8:-1 9:0.0263158 10:-1 11:-0.652713 12:-0.900476 13:-0.743112 14:-1 15:-0.796505 16:-0.903486 17:-1 18:-0.638298 20:-1 21:-0.451275 
-0 -25.38541521267997 0 35.56814909941895 131.6231556057253 90.96264492910318 43.84167157048154 0 0 0 0 0 0 0 0 0 0 0 0 0 0 1:-0.375332 2:-1 3:-0.86426 4:-0.816889 5:-1 6:-0.413793 7:-1 8:-1 9:-1 10:-1 11:-1 12:-0.870807 13:-0.764455 14:-1 15:-0.702931 16:-0.793367 17:-1 18:0.0583136 20:-1 21:-0.545232 
-0 -0 5.912339317903793 0 14.06379234019548 0 2.448795037868899 0 0 0 0 0 0 0 0 0 0 4.232749603370107 0 0 0 1:-0.511105 2:-0.0744337 3:-0.925027 4:-0.683253 5:-1 6:-0.65194 7:-0.248869 8:-0.101695 9:-0.671053 10:-1 11:-0.327132 12:-0.986051 13:-0.850213 14:-1 15:-0.918828 16:-0.589286 17:-1 18:-0.166273 20:-1 21:-0.809291 
-3.434753897643257 -0 -18.13342415344444 2.916607007663039 14.07138905963123 2.229148745210105 10.67104127340349 4.931164949572517 9.952748173261147 6.002459435009343 5.929507192888438 8.245695265060705 10.13286061929279 8.384726851037836 6.792476896182558 6.271827466768204 4.106482167893394 4.853136624668129 3.5618307804086 4.783849740914508 5.441763787235418 1:0.0115938 2:-0.805825 3:-0.338463 4:-0.891953 5:-1 6:-0.53556 7:-0.927602 8:0.0338983 9:-1 10:-1 11:-0.510078 12:0.0769401 13:-0.827707 14:-1 15:-0.310034 16:-1 17:-1 18:-0.940898 20:-1 21:-0.61474 
-0 -106.6567901595662 -0 7.840870832844142 8.404409796152567 5.151976727711736 3.280090810848949 0 0 0.5249945043675831 0 0 0 0 0 0 0 0 0 0 0 1:0.11049 2:-0.909385 3:0.221861 4:-0.879443 5:-1 6:0.259698 7:-1 8:-0.855932 9:-0.960526 10:-1 11:-0.792248 12:0.0406288 13:-0.744276 14:-1 15:-0.487599 16:-0.783163 17:-1 18:-0.440504 20:-1 21:-0.533357 
-4.360670709447865 -1.064917817790632 -8.760171848325625 3.758322097175065 5.576717214241429 3.884468815646162 6.985782253142261 3.278421123337638 6.04527014296878 3.210398878782337 2.470617209067957 2.652470747845504 6.381920300269348 3.337896325041946 1.713536479073159 4.747268245371785 5.459840928415454 3.458069827641234 6.951288247232077 3.681141968452236 5.125507761179154 1:-0.263305 2:1 3:-0.900562 4:-0.908445 5:-1 6:-0.186422 7:0.266968 8:0.271186 9:0.105263 10:-1 11:-0.807752 12:-0.951511 13:-0.836244 14:-1 15:-0.763247 16:-0.882228 17:-1 18:-0.794326 20:-1 21:-0.671324 
-3.346673945303388 -2.207576314524555 -3.756122929854313 4.118427809585405 4.289411016272803 4.662019344753458 3.474345389996687 3.543583149380201 3.61961547022778 3.407031991526557 3.530176874279428 3.600101071538245 3.509828304794707 3.592244036419679 3.304336942354327 3.02332689177251 3.181791200557241 3.152148196791362 2.993435374971652 3.125373374606068 3.24571044512956 1:-0.541277 2:-1 3:-0.906679 4:-0.82087 5:1 6:-0.525862 7:-1 8:-1 9:-1 10:-1 11:-1 12:-0.97642 13:-0.902988 14:-1 15:-0.905862 16:-0.877126 17:-1 18:-0.660362 20:1 21:-0.650017 
-0 -3.811572015478586 -0 0 0 0 0 0 0 0 0 0 0 0 0 0 0 0 0 0 0 1:-0.250454 2:-1 3:0.0638256 4:-0.891385 5:-1 6:-0.0334052 7:-1 8:-0.686441 9:-0.921053 10:-1 11:-0.184496 12:1 13:-0.876989 14:-1 15:0.588501 16:-1 17:-1 18:-0.828211 20:-1 21:0.252882 
-0 -37.67678914197012 -0 0 0 0 0 0 0 0 0 0 0 0 0 0 0 0 0 0 0 1:-0.304372 2:-0.864078 3:0.299596 4:-0.756042 5:-1 6:0.155172 7:-1 8:-0.991525 9:-1 10:-1 11:-0.494574 12:0.684712 13:-0.887466 14:-1 15:0.476888 16:-0.923044 17:-1 18:-0.699764 20:-1 21:0.172896 
-0 -0 -9.994666243804934 0 5.200252634111322 1.392960077167971 0 0 0 0 0 0 0 0 0 0 0 0 0 0 0 1:0.748848 2:-0.990291 3:-0.433363 4:-0.397782 5:-1 6:0.435345 7:-1 8:-0.516949 9:-1 10:-1 11:-0.820155 12:-0.0192627 13:-0.414047 14:-1 15:-0.197858 16:-0.540391 17:-1 18:-0.261623 20:-1 21:0.207475 
-0 -11.50862207243806 -0 0 0 0 0 0 0 0 0 0 0 0 0 0 0 0 0 0 0 1:0.295432 2:-0.200647 3:0.600474 4:-0.528007 5:-1 6:-0.244612 7:-1 8:-0.728814 9:-0.973684 10:-1 11:-0.40155 12:0.539245 13:-0.147846 14:-1 15:-0.119504 16:-0.730867 17:-1 18:-0.0338849 20:-1 21:-0.173594 
-2.426262844309214 -117.5817569294583 -0 5.553317843761542 9.247427430574866 14.61831018546198 2.01466775204462 3.863242005468253 1.061068999805251 1.95199731218755 5.221942297128492 3.350470200207465 2.83842916354868 2.987418294229852 1.834828141553333 0.9134450568899031 1.539228835054855 2.383383186995577 3.436560835074153 3.273679340339886 0.9838963581995696 1:-0.244028 2:-1 3:-0.101707 4:-0.956213 5:-1 6:0.176724 7:-1 8:-1 9:-1 10:-1 11:-1 12:0.162515 13:-0.998836 14:-1 15:0.078354 16:-1 17:-1 18:-0.911742 20:-1 21:-0.0387705 
-0 -0 -1.157615024495259 0 0 0 0 0 0 0 0 0 0 0 0 0 0 0 0 0 0 1:0.235647 2:-0.864078 3:0.651376 4:-0.844754 5:-1 6:0.0226293 7:-1 8:0.101695 9:-1 10:-1 11:0.795349 12:0.266467 13:-0.679084 14:-1 15:0.27903 16:-0.864796 17:-1 18:0.391647 20:-1 21:0.327279 
-0 -0.8023447564930674 -0 -0 730.2999173520675 0 0 0 0 0 0 0 0 0 0 0 0 0 0 0 0 1:-0.858081 2:-0.886731 3:-0.639736 4:-0.753767 5:-1 6:-0.519397 7:-1 8:-0.983051 9:-0.986842 10:-1 11:-0.696124 12:-0.570132 13:-0.726038 14:-1 15:-0.883315 16:-0.872024 17:-1 18:-0.725768 20:-1 21:-0.709046 
-0 -0 -0 -0 0 0 1279.397991776451 0 0 0 0 0 0 0 0 0 0 0 0 0 0 1:-0.848023 2:-0.990291 3:-0.725363 4:-0.667899 5:-1 6:-0.639009 7:-1 8:-1 9:-1 10:-1 11:-0.829457 12:-0.683162 13:-0.465658 14:-1 15:-0.993799 16:-0.80102 17:-1 18:-0.684003 20:-1 21:-0.821865 
-0 -0 -27.26385943485846 -0 9350.109024557731 117.2108591086985 0 195.8536686707589 76.49981648351066 0 12.86688729554548 0 0 2.948058279184643 0 0 0 0 0 0 0 1:-0.811147 2:-1 3:-0.816908 4:-0.652545 5:-1 6:-0.520474 7:-1 8:-1 9:-1 10:-1 11:-1 12:-0.821654 13:-0.612728 14:-1 15:-0.666291 16:-0.635204 17:-1 18:-0.824271 20:-1 21:-0.779951 
-0 -57.54856246668623 -35.83734204740347 -0 0 0 0 0 0 0 0 0 0 0 0 0 0 0 0 0 0 1:-0.820087 2:-0.951456 3:-0.774687 4:-0.783907 5:-1 6:-0.662716 7:-1 8:-1 9:-1 10:-1 11:-0.810853 12:-0.670541 13:-0.312379 14:-1 15:-0.931229 16:-0.650935 17:-1 18:-0.883373 20:-1 21:-0.874258 
-0 -2.316957717800954 -0 -0 0 0 307.4627601641047 0 0 0 0 0 0 0 0 0 0 0 0 0 0 1:-0.729851 2:-0.433657 3:-0.835849 4:-0.562695 5:-1 6:0.193966 7:-1 8:-1 9:-1 10:-1 11:-0.531783 12:-0.785896 13:-0.263873 14:-1 15:-0.849493 16:-0.620748 17:-1 18:-0.276596 20:-1 21:-0.293049 
-0 -36.54286372443207 -0 -0 0 186.4134344932532 1480.283332433287 0 0 0 0 0 0 0 0 0 0 0 0 0 0 1:-0.751362 2:-1 3:-0.808425 4:-0.574069 5:-1 6:-0.359914 7:-1 8:-1 9:-1 10:-1 11:-1 12:-0.761098 13:-0.447808 14:-1 15:-0.70575 16:-0.588435 17:-1 18:-0.070134 20:-1 21:-0.732099 
-0 -0 -0 -0 0 0 6887.935421724449 0 0 0 0 0 0 0 0 0 0 0 0 0 0 1:-0.794664 2:-1 3:-0.782184 4:-0.567813 5:-1 6:-0.532328 7:-1 8:-1 9:-1 10:-1 11:-1 12:-0.729879 13:-0.486612 14:-1 15:-0.921646 16:-0.543793 17:-1 18:-0.885737 20:-1 21:-0.853301 
-58.38569020437597 -0 -0 -0 4886.161143817922 0 0 100.829732063342 79.18571605781749 77.11686336310486 42.65148963667024 39.9084442937759 94.76854207985203 73.49243357247948 55.47888424386073 31.80176631809445 40.24910961076502 19.89517708663406 48.68210096022047 17.09960287379439 40.02141528293763 1:-0.849979 2:-1 3:-0.7445 4:-0.782769 5:-1 6:-0.505388 7:-1 8:-1 9:-1 10:-1 11:-1 12:-0.775711 13:-0.708964 14:-1 15:-0.933484 16:-0.756378 17:-1 18:-0.829787 20:-1 21:-0.754803 
-0 -0 -0 -0 0 0 270.9681444377811 0 0 0 0 0 0 0 0 0 0 0 0 0 0 1:-0.855008 2:-1 3:-0.819868 4:-0.719079 5:-1 6:-0.617457 7:-1 8:-1 9:-1 10:-1 11:-1 12:-0.731208 13:-0.470702 14:-1 15:-0.947576 16:-0.661565 17:-1 18:-0.861308 20:-1 21:-0.891023 
-0 -0 -0 -0 0 84.66559134300793 616.5283673629019 0 0 0 20.63625470705372 0 5.932726785719243 40.34931905537162 0 0 0 0 8.092136932104582 0 0 1:-0.770918 2:-1 3:-0.88833 4:-0.881149 5:-1 6:0.203664 7:-1 8:-1 9:-1 10:-1 11:-1 12:-0.931916 13:-0.708964 14:-1 15:-0.721533 16:-0.892432 17:-1 18:-0.602049 20:-1 21:-0.480265 
-6.010092211277245 -0 -0 -0 0 203.6194903000811 0 11.74371369069911 138.7053882505481 56.030388162983 12.22502542213621 0 84.94623478364765 82.7952365235504 4.669700484900322 22.44245218848739 8.347614948214201 26.0259893432758 20.95949611031199 12.04549608884361 14.50864008285055 1:-0.812823 2:-0.737864 3:-0.908454 4:-0.766847 5:-1 6:-0.212284 7:-1 8:-1 9:-0.697368 10:-1 11:-0.714729 12:-0.842688 13:-0.866899 14:-1 15:-0.728861 16:-0.856718 17:-1 18:-0.27502 20:-1 21:-0.673769 
-0 -0 -74.89667828565445 -3.976135062660952 688.3225314702865 0 0 0 7.155059276684515 0 10.695011075659 0 0 0 0 0 0 0 0 0 0 1:-0.612795 2:-0.614887 3:-0.7883 4:-0.578049 5:-1 6:-0.206897 7:-1 8:-0.728814 9:0.0263158 10:-1 11:-0.472868 12:-0.886195 13:-0.563834 14:-1 15:-0.733935 16:-0.862245 17:-1 18:-0.161545 20:-1 21:-0.645826 
-0 -0 -0 -3.188404360185682 0 95.33704249150487 0 0 0 0 0 0 0 0 0 0 0 0 0 0 0 1:-0.593239 2:-0.944984 3:-0.833087 4:-0.535399 5:-1 6:0.327586 7:-1 8:-0.610169 9:-0.934211 10:-1 11:-0.764341 12:-0.897819 13:-0.781917 14:-1 15:-0.698422 16:-0.772109 17:-1 18:-0.49803 20:-1 21:-0.44394 
-0 -0 -105.5070157064281 -0 0 0 135.7954136105147 0 0 0 0 0 0 0 0 0 0 0 0 0 0 1:-0.648554 2:-1 3:-0.858735 4:-0.626386 5:-1 6:-0.0290948 7:-1 8:-1 9:-1 10:-1 11:-1 12:-0.889073 13:-0.68995 14:-1 15:-0.892334 16:-0.601616 17:-1 18:-0.171001 20:-1 21:-0.722319 
-0 -0 -0 -0 0 0 1871.863686468208 0 0 0 0 0 0 0 0 0 0 0 0 0 0 1:-0.751083 2:-0.912621 3:-0.858735 4:-0.285755 5:-1 6:-0.559267 7:-1 8:-1 9:-0.894737 10:-1 11:-0.906977 12:-0.815454 13:-0.515328 14:-1 15:-0.908117 16:-0.505102 17:-1 18:0.0866824 20:-1 21:-0.809291 
-0 -0 -0 -0 0 0 0 3.502522006689382 49.0009418573364 0 0 0 0 0 0 0 0 7.119860512328863 0 21.30628093797187 0 1:-0.799972 2:-0.789644 3:-0.789681 4:-0.729883 5:-1 6:-0.387931 7:-0.963801 8:-1 9:-0.644737 10:-1 11:-0.497674 12:-0.70641 13:-0.569655 14:-1 15:-0.846674 16:-0.821854 17:-1 18:-0.576832 20:-1 21:-0.756549 
-0 -3.20308644777849 -0 -0 0 0 2253.676559186013 0 0 0 0 0 0 0 0 0 0 0 0 0 0 1:-0.754994 2:-1 3:-0.787511 4:-0.698607 5:-1 6:-0.828664 7:-1 8:-1 9:-1 10:-1 11:-1 12:-0.458319 13:-0.790454 14:-1 15:-0.999436 16:-0.776786 17:-1 18:-0.765169 20:-1 21:-0.970311 
-39.78562140822834 -0 -86.12709774262862 -0 21733.92990744793 0 0 136.9341944939143 175.0651262197351 92.35608447737241 137.4524947973242 150.7915333541115 104.8503038509768 81.13915743242021 151.6971807847607 52.43274155554509 46.20422093830458 31.62462632755359 12.84890428399805 30.01021003275372 54.36136213587118 1:-0.798575 2:-1 3:-0.799941 4:-0.839636 5:-1 6:-0.724138 7:-1 8:-1 9:-1 10:-1 11:-1 12:-0.575446 13:-0.844005 14:-1 15:-0.873732 16:-0.915391 17:-1 18:-0.747045 20:-1 21:-0.903947 
-0 -0 -18.02864230139407 -5.612389461618143 3264.221421460138 314.7219754235194 0 0 0 0 0 0 0 0 0 0 0 0 7.008782549701448 0 0 1:-0.605252 2:-0.964401 3:-0.823814 4:-0.833949 5:-1 6:0.211207 7:-1 8:-1 9:-1 10:-1 11:-0.469767 12:-0.75346 13:-0.567326 14:-1 15:-0.674183 16:-0.804422 17:-1 18:-0.830575 20:-1 21:-0.220049 
-0 -0 -0 -0 32768 0 0 0 0 0 0 0 0 0 0 0 0 0 0 0 0 1:-0.841598 2:-1 3:-0.739371 4:-0.753199 5:-1 6:-0.470905 7:-1 8:-1 9:-1 10:-1 11:-1 12:-0.694786 13:-0.591773 14:-1 15:-0.757046 16:-0.872449 17:-1 18:-0.525611 20:-1 21:-0.739434 
-0 -0 -0 -0 0 124.2655825796102 0 0 0 0 0 41.22711215018059 8.670476925687517 57.65154662065828 0 0 0 0 0 0 0 1:-0.886856 2:-1 3:-0.72043 4:-0.856127 5:-1 6:-0.676724 7:-1 8:-1 9:-1 10:-1 11:-1 12:-0.577106 13:-0.899884 14:-1 15:-0.844983 16:-0.922619 17:-1 18:-0.682427 20:-1 21:-0.884387 
-0 -0 -0 -11.41061670656442 4596.316849630666 0 0 0 0 0 0 0 0 0 0 0 0 0 0 0 0 1:-0.77008 2:-1 3:-0.648219 4:-0.859539 5:-1 6:-0.301724 7:-1 8:-1 9:-1 10:-1 11:-1 12:-0.563379 13:-0.83896 14:-1 15:-0.864713 16:-0.933673 17:-1 18:-0.730496 20:-1 21:-0.740831 
-0 -0 -0 -0 -23312.48230251229 0 860.5212077245161 0 0 0 0 0 0 0 0 0 0 0 0 0 0 1:-0.798296 2:-1 3:-0.706619 4:-0.617856 5:-1 6:-0.358836 7:-1 8:-1 9:-1 10:-1 11:-1 12:-0.594598 13:-0.664726 14:-1 15:-0.754791 16:-0.840136 17:-1 18:-0.582348 20:-1 21:-0.660147 
-0 -0 -0 -0 -14031.04209068729 0 0 0 0 0 0 0 0 0 0 0 0 0 0 0 0 1:-0.852493 2:-1 3:-0.618625 4:-0.793005 5:-1 6:-0.264009 7:-1 8:-1 9:-1 10:-1 11:-1 12:-0.585963 13:-0.700427 14:-1 15:-0.736753 16:-0.894983 17:-1 18:-0.602837 20:-1 21:-0.581209 
-25.29307458729264 -0 -0 -0 -0 0 54.81123303539494 0 0 0 114.1876352434489 56.52508722212562 56.28500665339823 53.87765168883448 0 10.78568861775195 16.38838529391182 20.40071343328118 40.34396985608984 0 0 1:-0.835452 2:-0.864078 3:-0.783171 4:-0.926642 5:-1 6:-0.295259 7:-1 8:-1 9:-1 10:-1 11:-0.962791 12:-0.653271 13:-0.901048 14:-1 15:-0.720406 16:-0.980867 17:-1 18:-0.744681 20:-1 21:-0.482012 
-0 -54.86772431355509 -0 -0 -0 0 0 0 0 0 0 0 0 0 0 0 0 0 0 0 0 1:-0.834893 2:-0.847896 3:-0.732663 4:-0.897071 5:-1 6:-0.358836 7:-1 8:-1 9:-1 10:-1 11:-0.965891 12:-0.533599 13:-0.795887 14:-1 15:-0.681511 16:-0.947279 17:-1 18:-0.676123 20:-1 21:-0.65875 
-0 -0 -137.859271891774 -0 -0 0 0 0 0 0 0 0 0 0 0 0 0 0 0 0 0 1:-0.420869 2:-0.983819 3:-0.809411 4:-0.560421 5:-1 6:-0.515086 7:-1 8:-0.542373 9:-0.947368 10:-1 11:-0.693023 12:-0.668106 13:-0.502134 14:-1 15:-0.771702 16:-0.823554 17:-1 18:-0.281324 20:-1 21:-0.604261 
-0 -0 -34.09628473595819 -0 -0 0 0 0 0 0 0 0 0 0 0 0 0 0 0 0 0 1:-0.414164 2:-0.983819 3:-0.781395 4:-0.749787 5:-1 6:-0.354526 7:-1 8:-0.59322 9:-0.960526 10:-1 11:-0.910078 12:-0.672977 13:-0.620101 14:-1 15:-0.621195 16:-0.878827 17:-1 18:-0.733649 20:-1 21:-0.489696 
-0 -0 -130.2633343132022 -0 -0 229.5131334684075 241.6047356897159 3.435982254231113 235.7430280328334 46.86609502390578 0 0 11.39124663823574 66.58714297977633 39.26572881543091 0 0 25.59673804356009 2.382758810312574 0 9.558772905401733 1:-0.771756 2:-0.579288 3:-0.923449 4:-0.750924 5:-1 6:-0.601293 7:-1 8:-1 9:-1 10:-1 11:-0.928682 12:-0.929591 13:-0.797439 14:-1 15:-0.857384 16:-0.617347 17:-1 18:-0.345154 20:-1 21:-0.784143 
-0 -0 -0 -0 -3342.898570696763 0 0 41.61350773101394 42.89065837461811 0 0 0 0 0 0 0 0 0 0 0 0 1:-0.786842 2:-0.851133 3:-0.88833 4:-0.670742 5:-1 6:-0.570043 7:-1 8:-1 9:-0.855263 10:-1 11:-0.996899 12:-0.903354 13:-0.575475 14:-1 15:-0.767756 16:-0.697704 17:-1 18:-0.489362 20:-1 21:-0.817674 
-0 -0 -39.4484991869713 -4.464741752038307 -0 0 0 0 0 0 0 0 0 0 0 0 0 0 0 0 0 1:-0.292918 2:-1 3:-0.569695 4:-0.861245 5:-1 6:0.320043 7:-1 8:-1 9:-1 10:-1 11:-1 12:-0.586073 13:-0.718277 14:-1 15:-0.674746 16:-0.835884 17:-1 18:-0.388495 20:-1 21:-0.554663 
-0 -20.56158452139807 -0 -13.36066014225711 -0 0 108.000547757074 0 0 0 0 0 0 0 0 0 0 0 0 0 0 1:-0.183406 2:-0.951456 3:-0.661241 4:-0.733864 5:-1 6:0.586207 7:-1 8:-0.915254 9:-1 10:-1 11:-0.807752 12:-0.66091 13:-0.596042 14:-1 15:-0.340474 16:-0.826531 17:-1 18:-0.884949 20:-1 21:-0.299686 
-0 -29.30318808273339 -0 -0.03328687859281287 -0 0 0 0 0 0 0 0 0 0 0 0 0 0 0 0 0 1:-0.229781 2:-0.944984 3:-0.52412 4:-0.220927 5:-1 6:-0.018319 7:-1 8:-0.991525 9:-0.828947 10:-1 11:-0.764341 12:-0.61541 13:-0.429181 14:-1 15:-0.759301 16:-0.582058 17:-1 18:-0.154452 20:-1 21:-0.632553 
-0 -4.801572273979952 -0 -28.93091837809598 -0 0 0 0 0 0 6.793610163141226 0 0 0 0 0 0 0 0 0 0 1:-0.439587 2:-0.964401 3:-0.537141 4:-0.861245 5:-1 6:-0.283405 7:-1 8:-0.186441 9:-0.657895 10:-1 11:-0.603101 12:-0.592494 13:-0.754754 14:-1 15:-0.531003 16:-0.898384 17:-1 18:-0.635934 20:-1 21:-0.418093 
-0 -0 -0 -0 -0 1400.33087271945 0 0 0 0 0 0 0 0 0 0 0 0 0 0 0 1:-0.559156 2:-1 3:-0.613101 4:-0.73557 5:-1 6:-0.282328 7:-1 8:-1 9:-1 10:-1 11:-1 12:-0.613417 13:-0.800543 14:-1 15:-0.547914 16:-0.829507 17:-1 18:-0.386131 20:-1 21:-0.532309 
-0 -0 -0 -0 -0 281.0424227221893 0 0 0 0 0 0 0 0 0 0 0 0 0 0 0 1:-0.4692 2:-0.935275 3:-0.597119 4:-0.934035 5:-1 6:0.435345 7:-1 8:-1 9:-1 10:-1 11:-0.782946 12:-0.629027 13:-0.860691 14:-1 15:-0.449267 16:-0.963861 17:-1 18:-0.707644 20:-1 21:-0.257422 
-0 -0 -0 -0 -0 227.2673473481281 1216.58215004478 0 0 0 0 0 0 0 0 0 0 0 0 0 0 1:-0.522 2:-0.961165 3:-0.801914 4:-0.257322 5:-1 6:-0.420259 7:-1 8:-1 9:-0.986842 10:-1 11:-0.83876 12:-0.781689 13:-0.545596 14:-1 15:-0.883315 16:-0.565901 17:-1 18:-0.27108 20:-1 21:-0.676912 
-0 -0 -60.92575291501466 -0 -186.6129637891133 201.8449816588837 0 0 0 0 0 0 0 0 0 0 0 0 0 0 0 1:-0.451599 2:-0.925566 3:-0.769754 4:-0.39039 5:-1 6:0.0280172 7:-1 8:-1 9:0.0263158 10:-1 11:-0.420155 12:-0.727665 13:-0.687233 14:-1 15:-0.639797 16:-0.668367 17:-1 18:-0.0874704 20:-1 21:-0.451624 
-85.96267509332439 -0 -193.1809954020777 -0 -31204.23435842277 0 1358.24770686093 451.522130081199 354.3359014503874 214.6667875382905 185.4319816232705 120.3659244411474 156.951367489096 24.23318670460703 248.8237355867419 65.52584981482228 79.37638465622496 25.4052395131921 28.56510985149367 36.17127775488967 81.89208440860644 1:-0.786842 2:-1 3:-0.844727 4:-0.876599 5:-1 6:-0.734914 7:-1 8:-1 9:-1 10:-1 11:-1 12:-0.746485 13:-0.672099 14:-1 15:-0.886133 16:-0.845663 17:-1 18:-0.787234 20:-1 21:-0.930143 
-0 -0 -0 -0 -5940.090509628503 0 0 138.2601251517818 547.8680868475595 64.7419100303208 74.19314417767265 177.2507197115864 282.1564031632818 480.4236096101934 0.2604271043791863 52.69582936809785 10.95755515972464 24.09500348028767 26.68869852865374 54.65121208826955 34.13977639570543 1:-0.808912 2:-0.964401 3:-0.800335 4:-0.880011 5:-1 6:-0.543103 7:-1 8:-1 9:-0.986842 10:-1 11:-0.671318 12:-0.747039 13:-0.867676 14:-1 15:-0.604848 16:-0.932398 17:-1 18:-0.638298 20:-1 21:-0.691582 
-0 -0 -0 -0 -0 2304.878617085853 0 0 7.286537112235132 0 0 0 0 0 0 0 0 0 0 0 0 1:-0.713088 2:-0.993528 3:-0.817106 4:-0.771396 5:-1 6:-0.373922 7:-1 8:-0.90678 9:-0.986842 10:-1 11:-0.851163 12:-0.800731 13:-0.756306 14:-1 15:-0.635851 16:-0.861395 17:-1 18:-0.630418 20:-1 21:-0.534404 
-0 -7.13018003601704 -56.36389835534158 -0 -0 -146.2435510097499 25.16001663711123 0 22.28433134892164 0 0 0 3.291232536353198 0 0 0 0 0 0 0 0 1:-0.704987 2:-0.957929 3:-0.748841 4:-0.756042 5:-1 6:-0.59375 7:-1 8:-0.245763 9:-0.986842 10:-1 11:-0.668217 12:-0.703199 13:-0.476911 14:-1 15:-0.55186 16:-0.861395 17:-1 18:0.169425 20:-1 21:-0.375131 
-5.391615716297502 -1.419758380667811 -11.78907740809144 -3.251605472560884 -55.01690400470727 -166.9436502167676 0 3.779133395224707 35.4725582365311 24.26183526009743 22.8021356791861 10.78335885559699 23.15661846439742 17.23542789728165 1.10980314594605 13.98911787304606 9.266296634722991 16.95691533371565 7.253728608654667 19.2800982161938 16.30823961621094 1:-0.80109 2:-0.880259 3:-0.796784 4:-0.881149 5:-1 6:-0.409483 7:-1 8:-0.567797 9:-0.0526316 10:-1 11:0.156589 12:-0.738182 13:-0.901824 14:-1 15:-0.391206 16:-0.951956 17:-1 18:-0.756501 20:-1 21:-0.338456 
-34.59355423262031 -0 -35.0919071798735 -0 -914.7081107810916 -2362.931621560299 410.7602788726245 69.16577520019793 109.8327395022707 67.93256199318579 74.43579507831757 49.62670926484545 92.02401221243873 147.1795889286491 41.1111079430138 41.87746769018388 33.3287997115217 39.19813442955378 48.99105878293599 34.60196636303449 34.99733182201469 1:-0.799972 2:-0.983819 3:-0.8102 4:-0.696332 5:-1 6:-0.266164 7:-1 8:-1 9:-1 10:-1 11:-0.83876 12:-0.836599 13:-0.716337 14:-1 15:-0.714769 16:-0.72534 17:-1 18:-0.471237 20:-1 21:-0.509256 
-0 -0 -0 -10.87857123601154 -125.4049173887417 -0 0 0 0 0 0 0 0 0 0 0 0 0 1.415231153493377 0 0 1:-0.525911 2:-0.990291 3:-0.714314 4:-0.852147 5:-1 6:0.595905 7:-1 8:-1 9:-1 10:-1 11:-0.789147 12:-0.720248 13:-0.911525 14:-1 15:-0.560879 16:-0.860544 17:-1 18:-0.76911 20:-1 21:-0.0838282 
-0 -23.58501350812704 -127.195404411631 -16.61102092063482 -0 -1840.340366140867 24.41294454188096 5.923315874989076 0 0 2.786622262307236 16.92167516714911 0.2074315297263246 11.31116432778161 2.549588108808563 0 0 0 0 0 0 1:-0.409415 2:-1 3:-0.743711 4:-0.754336 5:-1 6:-0.326509 7:-1 8:-1 9:-1 10:-1 11:-1 12:-0.634451 13:-0.917734 14:-1 15:-0.473506 16:-0.830357 17:-1 18:-0.538219 20:-1 21:-0.540342 
-0 -57.50995739952828 -0 -1.197686266744163 -31.10404356513456 -128.4181860752302 0 0 0 0 0 0 0 0 0 0 0 0 0 0 0 1:-0.640732 2:-0.990291 3:-0.646049 4:-0.741825 5:-1 6:0.0959052 7:-1 8:-0.957627 9:-1 10:-1 11:-0.770543 12:-0.642754 13:-0.741172 14:-1 15:-0.360767 16:-0.861395 17:-1 18:-0.524823 20:-1 21:-0.392595 
-32.74510490487631 -8.226841523216834 -63.6525412413539 -0 -1597.165685950426 -759.108937876877 -151.632911737962 106.9494838709617 158.9998171427826 72.14086769339794 45.72284188813728 54.31423512737589 66.81926152252825 97.39583409460111 49.61526014270709 40.46538535213191 33.17179142601871 46.20031358769202 46.61336308346167 24.31160793335396 40.48774908173193 1:-0.883783 2:-0.799353 3:-0.827562 4:-0.876031 5:-1 6:-0.301724 7:-0.782805 8:-1 9:-1 10:-1 11:-0.727132 12:-0.739843 13:-0.690338 14:-1 15:-0.749154 16:-0.822279 17:-1 18:-0.420016 20:-1 21:-0.79532 
-0 -58.76758238457821 -0 -0 -4916.05606345439 -0 -0 0 0 0 0 0 0 0 0 0 0 0 0 0 0 1:-0.86283 2:-1 3:-0.77153 4:-0.437589 5:-1 6:-0.578664 7:-1 8:-1 9:-1 10:-1 11:-1 12:-0.777372 13:-0.21071 14:-1 15:-0.934047 16:-0.385629 17:-1 18:-0.695035 20:-1 21:-0.914775 
-39.51332678714439 -10.69048028622746 -68.6470860336069 -5.91495518990545 -4465.339347800583 -1590.701204340156 -42.45637497747384 188.5598428483085 102.5768682232644 76.26224873292311 65.66147073426147 85.54855822765313 37.38904535801471 60.91550248140552 103.9185937374095 38.79373093782701 38.51250485947524 24.87315751846561 21.52017212519467 32.14852956245202 44.43796990517829 1:-0.806118 2:-1 3:-0.752392 4:-0.624111 5:-1 6:-0.939655 7:-1 8:-1 9:-1 10:-1 11:-1 12:-0.589394 13:-0.63213 14:-1 15:-0.987035 16:-0.796344 17:-1 18:-0.967691 20:-1 21:-0.997555 
-0 -0 -0 -0 -3203.790958462065 -0 -121.4138218657433 0 0 0 6.824777524461971 0 0 18.09648081113394 0 0 0 0 0 0 0 1:-0.679564 2:-1 3:-0.853803 4:-0.59056 5:-1 6:-0.128233 7:-1 8:-1 9:-1 10:-1 11:-1 12:-0.72844 13:-0.799379 14:-1 15:-0.880496 16:-0.63818 17:-1 18:-0.237983 20:-1 21:-0.521481 
-0 -0 -105.7311509505287 -0 -921.5596214962432 -1489.95743889538 -121.2186018380303 0 0 0 0 0 0 0 0 0 0 0 0 0 0 1:-0.525073 2:-1 3:-0.894051 4:-0.439864 5:-1 6:-0.0840517 7:-1 8:-1 9:-1 10:-1 11:-1 12:-0.854755 13:-0.636011 14:-1 15:-0.796505 16:-0.582483 17:-1 18:-0.215918 20:-1 21:-0.478519 
-0 -7.58593847895119 -11.81548340620903 -20.51097228953056 -0 -0 -23.61152963240742 0 50.40617842946453 0 14.61026104834258 4.270946378086644 136.2161746183312 -0 0 0.2506598442692731 2.717372650020033 1.286712390974039 11.41811081676211 12.77749571031976 0 1:-0.700796 2:-0.656958 3:-0.760481 4:-0.793574 5:-1 6:-0.294181 7:-0.257919 8:-0.347458 9:-0.763158 10:-1 11:-0.342636 12:-0.691907 13:-0.728754 14:-1 15:-0.651071 16:-0.885204 17:-1 18:-0.468873 20:-1 21:-0.404471 
-0 -0 -0 -0 -0 -0 -0 -18.22958566186992 0 0 0 0 0 0 0 0 0 0 0 0 0 1:-0.965358 2:-0.961165 3:-0.815725 4:-0.793574 5:-1 6:-0.923491 7:-1 8:-0.881356 9:-0.526316 10:-1 11:-0.789147 12:-0.802723 13:-0.67986 14:-1 15:-0.936866 16:-0.827381 17:-1 18:-0.840032 20:-1 21:-0.947607 
-0 -0 -0 -0 -0 -0 -0 -0 0 3168.647897452173 0 3490.887076569451 0 0 2066.446677748493 140.4980214635247 213.5383716589494 39.54933310001713 172.5057386629281 161.2806280560199 0 1:-0.959212 2:-0.770227 3:-0.95403 4:-0.79528 5:-1 6:-0.842672 7:-1 8:-1 9:-1 10:-1 11:-0.84186 12:-0.964021 13:-0.828871 14:-1 15:-0.932356 16:-0.701956 17:-1 18:-0.808511 20:-1 21:-0.852951 
-0 -0 -34.01280375596757 -0 -6.327604647357569 -99.48025209728431 -12.67165451091304 -62.12122202526093 0 0 0 0 0 111.9009034709208 0 0 0 0 0 0 0 1:-0.953066 2:-0.909385 3:-0.905495 4:-0.665624 5:-1 6:-0.764009 7:-1 8:-0.79661 9:-1 10:-1 11:-0.807752 12:-0.931031 13:-0.634459 14:-1 15:-0.945321 16:-0.839286 17:-1 18:-0.646966 20:-1 21:-0.894516 
-0 -0 -116.4145827464213 -0 -0 -0 -0 -0 0 3812.848807174582 0 115.0816002023554 0 0 0 0 0 0 0 0 119.0361063105733 1:-0.912837 2:-0.893204 3:-0.940219 4:-0.818027 5:-1 6:-0.969828 7:-0.791855 8:-0.737288 9:-0.973684 10:-1 11:-0.711628 12:-0.970442 13:-0.820334 14:-1 15:-0.950395 16:-0.711735 17:-1 18:-0.765169 20:-1 21:-0.992316 
-0 -0 -0 -4.38537398350429 -0 -0 -0 -0 6360.683632350379 0 82.27350896708353 0 68.93187991110042 47.45708076107333 0 285.3256535468035 387.7219584428022 93.90120552939631 0 167.2257188931235 381.9197759353637 1:-0.949434 2:-0.592233 3:-0.971589 4:-0.937447 5:-1 6:-0.907328 7:-0.511312 8:-0.661017 9:-0.0131579 10:-1 11:-0.792248 12:-0.982951 13:-0.89057 14:-1 15:-0.947012 16:-0.892857 17:-1 18:-0.676123 20:-1 21:-0.922808 
-0 -0 -0 -3.183722618991784 -0 -0 -0 -0 0 0 15.83570677731583 6092.089961676394 324.0490835026009 0 0 0 0 132.0689303746112 0 43.1519020802883 0 1:-0.963403 2:-0.954693 3:-0.82776 4:-0.952232 5:-1 6:-0.65194 7:-1 8:-0.966102 9:-1 10:-1 11:-0.6 12:-0.852651 13:-0.853318 14:-1 15:-0.710259 16:-0.969388 17:-1 18:-0.983452 20:-1 21:-0.771219 
-0 -20.56198562443602 -7.587645192065251 -0 -170.6531628886311 -161.9354979526877 -0 -152.0874722294085 0 0 0 0 0 0 0 0 0 0 0 0 0 1:-0.914234 2:-0.990291 3:-0.858341 4:-0.732727 5:-1 6:-0.800647 7:-1 8:-1 9:-1 10:-1 11:-0.857364 12:-0.910218 13:-0.665891 14:-1 15:-0.801578 16:-0.717262 17:-1 18:-0.791174 20:-1 21:-0.870066 
-0 -16.9238317632679 -0 -0 -107.6819699447707 -102.2280638209746 -33.95176913867512 -0 0 0 26.7576582947133 0 0 0 0 0 0 0 0 0 0 1:-0.926247 2:-0.938511 3:-0.876887 4:-0.876031 5:-1 6:-0.65194 7:-1 8:-1 9:-0.855263 10:-1 11:-0.941085 12:-0.92151 13:-0.703531 14:-1 15:-0.730552 16:-0.6875 17:-1 18:-0.826635 20:-1 21:-0.79986 
-13.48919108141897 -0 -66.94950221511543 -8.047314625262535 -164.2010934446443 -146.9874818235546 -32.24480082082354 -10.40907565391931 6136.407220812233 6759.097354530214 1012.090360794734 3697.381572401359 983.868508518979 307.0408610678366 3374.536012350682 179.1032155550374 0 0 0 0 0 1:-0.831541 2:-1 3:-0.859722 4:-0.853284 5:-1 6:-0.567888 7:-1 8:-1 9:-1 10:-1 11:-1 12:-0.925717 13:-0.837796 14:-1 15:-0.748591 16:-0.993622 17:-1 18:-0.908589 20:-1 21:-0.73664 
-0 -0 -0 -0 -0 -0 -0 -0 10507.2885103435 1977.512751365224 0 0 0 211.9602806551984 0 0 0 0 0 0 0 1:-0.967593 2:-1 3:-0.939627 4:-0.861814 5:-1 6:-0.856681 7:-1 8:-1 9:-1 10:-1 11:-1 12:-0.932913 13:-0.875049 14:-1 15:-0.906426 16:-0.941327 17:-1 18:-0.79275 20:-1 21:-0.898358 
-34.32842147081514 -0 -0 -0 -0 -0 -0 -0 1255.454672823614 0 67.19693192317278 7590.627165367219 53.24946969915511 51.89851580804123 0 0 312.5442685402159 0 443.1784542969804 237.8422702634284 0 1:-0.983797 2:-0.967638 3:-0.954424 4:-0.956781 5:-1 6:-0.835129 7:-0.99095 8:-0.915254 9:-0.197368 10:-1 11:-0.736434 12:-0.901804 13:-0.946449 14:-1 15:-0.865276 16:-0.986395 17:-1 18:-0.893617 20:-1 21:-0.860985 
-0 -0 -0 -0 -0 -0 -0 -0 7757.806261747002 0 199.1170648412163 0 0 0 0 0 0 0 0 0 0 1:-0.950552 2:-0.993528 3:-0.876689 4:-0.885698 5:-1 6:-0.877155 7:-1 8:-0.771186 9:-1 10:-1 11:-0.941085 12:-0.85874 13:-0.837796 14:-1 15:-0.824126 16:-0.948554 17:-1 18:-0.857368 20:-1 21:-0.883688 
-0 -0 -0 -0 -0 -0 -0 -0 0 4050.871320817208 0 15941.20854496351 132.1690012924278 0 2738.535644712422 0 0 0 0 0 0 1:-0.95111 2:-1 3:-0.931933 4:-0.984646 5:-1 6:-0.952586 7:-1 8:-0.720339 9:-1 10:-1 11:-0.848062 12:-0.862504 13:-0.989523 14:-1 15:-0.92841 16:-1 17:-1 18:-0.976359 20:-1 21:-0.985679 
-566.5192663582163 -0 -0 -0 -0 -0 -0 -0 0 6536.649356821538 0 0 0 0 2326.049012206157 76.3510466403885 0 0 0 0 0 1:-0.977651 2:-0.957929 3:-0.982441 4:-0.922661 5:-1 6:-0.961207 7:-1 8:-1 9:-0.789474 10:-1 11:-0.987597 12:-0.932027 13:-0.910749 14:-1 15:-0.927847 16:-0.939626 17:-1 18:-0.884161 20:-1 21:-0.971359 
-0 -0 -0 -0 -0 -124.2004495237245 -0 -52.66197114881148 2606.300483249059 0 0 12555.92880629298 0 0 2589.510753637064 0 0 0 0 0 0 1:-0.927644 2:-1 3:-0.821052 4:-0.962468 5:-1 6:-0.83944 7:-1 8:-1 9:-1 10:-1 11:-1 12:-0.803941 13:-0.946837 14:-1 15:-0.84611 16:-1 17:-1 18:-0.914894 20:-1 21:-0.92665 
-0 -0 -30.51075991573862 -0 -0 -0 -0 -0 1975.381968422385 2664.929605249064 0 0 0 8.230227801747317 628.4738811413074 0 0 0 0 0 0 1:-0.89803 2:-0.996764 3:-0.888724 4:-0.673017 5:-1 6:-0.769397 7:-1 8:-1 9:-0.342105 10:-1 11:-0.823256 12:-0.953282 13:-0.772992 14:-1 15:-0.908117 16:-0.752126 17:-1 18:-0.681639 20:-1 21:-0.906741 
-0 -0 -0 -0 -0 -0 -0 -0 4635.234089152201 0 0 905.674329307734 0 0 0 0 0 0 0 0 0 1:-0.98212 2:-0.925566 3:-0.948308 4:-0.972704 5:-1 6:-0.899784 7:-1 8:-1 9:-1 10:-1 11:-0.941085 12:-0.904683 13:-0.907256 14:-1 15:-0.776212 16:-0.99915 17:-1 18:-0.939322 20:-1 21:-0.851205 
-503.4654671543942 -0 -0 -0 -0 -0 -0 -0 6126.568008114207 14244.05746260061 0 4866.817584416978 0 0 2560.296384712713 1191.811825023506 1757.993357289568 35.8943446127276 219.4858787649254 235.2948602575328 2348.659868501375 1:-0.989105 2:-0.951456 3:-0.978692 4:-0.995451 5:-1 6:-0.908405 7:-1 8:-0.855932 9:-1 10:-1 11:-0.906977 12:-0.919185 13:-0.975165 14:-1 15:-0.916009 16:-1 17:-1 18:-0.947991 20:-1 21:-0.953545 
-361.5099191162515 -0 -0 -0 -0 -0 -0 -0 -32768 5181.730949834041 1438.310920223574 3437.121187796363 0 1675.251573097237 2617.898343932336 702.7668789760409 711.5903432911456 23.44069222654548 228.0376532782424 244.5952810935505 715.5903594169632 1:-0.97793 2:-0.951456 3:-0.9489 4:-0.936878 5:-1 6:-0.912716 7:-1 8:-0.881356 9:-1 10:-1 11:-0.978295 12:-0.919407 13:-0.934808 14:-1 15:-0.868658 16:-0.978316 17:-1 18:-0.855792 20:-1 21:-0.910583 
-0 -0 -0 -10.94397635174307 -0 -0 -0 -0 -0 539.1324626351779 0 1410.058991330155 810.7117354941224 0 0 0 18.69937713468411 101.8383996608949 6.925941126721849 56.37194219840938 122.0116494158788 1:-0.798575 2:-0.783172 3:-0.85913 4:-0.947114 5:-1 6:-0.724138 7:-1 8:-0.440678 9:-1 10:-1 11:-0.246512 12:-0.883095 13:-0.944121 14:-1 15:-0.779594 16:-0.989371 17:-1 18:-0.910954 20:-1 21:-0.791128 
-0 -0 -0 -0 -0 -0 -0 -0 -0 9118.266947297803 1709.786238198686 0 0 2289.99503139564 0 0 0 0 0 0 0 1:-0.905294 2:-0.919094 3:-0.899379 4:-0.881717 5:-1 6:-0.658405 7:-0.972851 8:-0.762712 9:-0.421053 10:-1 11:-0.631008 12:-0.905347 13:-0.916182 14:-1 15:-0.763247 16:-0.928997 17:-1 18:-0.681639 20:-1 21:-0.767377 
-0 -0.693694768119546 -8.935504490143321 -8.745490269198616 -0 -0 -0 -30.41887955415604 -3291.812185048802 0 124.3993132152522 109.7935392985272 38.06839618287064 0 0 106.6874136017829 28.81815212645942 43.84884211136261 1.199245929032678 45.66461597512414 0 1:-0.781813 2:-0.572816 3:-0.818684 4:-0.860108 5:-1 6:-0.716595 7:-0.131222 8:-0.677966 9:0.0263158 10:-1 11:-0.804651 12:-0.912875 13:-0.890182 14:-1 15:-0.869222 16:-0.872024 17:-1 18:-0.846336 20:-1 21:-0.746071 
-0 -0 -94.5689849561567 -0 -0 -0 -0 -0 -0 0 1259.739184434739 0 0 463.9952266139322 0 0 0 0 0 0 0 1:-0.841319 2:-1 3:-0.852225 4:-0.869775 5:-1 6:-0.627155 7:-1 8:-0.830508 9:-1 10:-1 11:-0.885271 12:-0.940662 13:-0.885138 14:-1 15:-0.848365 16:-0.895833 17:-1 18:-0.475965 20:-1 21:-0.709745 
-0 -31.11347766651066 -92.46210621822283 -0 -64.82865221282061 -371.6868876763614 -59.46742815717138 -64.02764070988246 -0 0 77.78935166668472 0 0 0 0 0 0 0 0 0 0 1:-0.830423 2:-0.935275 3:-0.87156 4:-0.700313 5:-1 6:-0.752155 7:-1 8:-1 9:-1 10:-1 11:-0.72093 12:-0.898373 13:-0.67792 14:-1 15:-0.831454 16:-0.706633 17:-1 18:-0.408195 20:-1 21:-0.597276 
-0 -0 -0 -0 -0 -0 -0 -0 -0 0 632.165920719453 22.92465648258934 0 5745.03814329071 0 0 0 0 0 0 0 1:-0.821483 2:-0.919094 3:-0.811976 4:-0.783907 5:-1 6:-0.793103 7:-1 8:-0.864407 9:-0.868421 10:-1 11:-0.748837 12:-0.883649 13:-0.764455 14:-1 15:-0.773393 16:-0.923469 17:-1 18:-0.744681 20:-1 21:-0.681104 
-0 -0.9510751526461974 -0 -0 -0 -0 -0 -0 -3535.218486950142 0 0 998.7242782558983 0 0 0 0 0 0 0 0 0 1:-0.934628 2:-0.912621 3:-0.865246 4:-0.726471 5:-1 6:-0.705819 7:-0.945701 8:-1 9:-0.197368 10:-1 11:-0.776744 12:-0.852984 13:-0.72759 14:-1 15:-0.781849 16:-0.882653 17:-1 18:-0.717888 20:-1 21:-0.813832 
-0 -0 -0 -0 -261.4481333130564 -285.4616078439385 -15.6281468505169 -30.23552072868565 -0 0 0 255.0006263579999 789.0514129116831 408.8683641365968 0 0 0 0 0 0 0 1:-0.916469 2:-0.847896 3:-0.888922 4:-0.802104 5:-1 6:-0.586207 7:-1 8:-0.881356 9:-1 10:-1 11:-0.804651 12:-0.860179 13:-0.895615 14:-1 15:-0.765502 16:-0.839286 17:-1 18:-0.597321 20:-1 21:-0.723716 
-0 -0 -0 -0 -0 -0 -0 -0 -0 0 0 0 446.3706203866594 0 0 0 0 0 0 0 0 1:-0.847465 2:-0.915858 3:-0.828943 4:-0.698607 5:-1 6:-0.59806 7:-1 8:-0.516949 9:-0.592105 10:-1 11:-0.556589 12:-0.857522 13:-0.855646 14:-1 15:-0.859076 16:-0.928997 17:-1 18:-0.618597 20:-1 21:-0.814181 
-0 -0 -0 -0 -0 -0 -0 -0 -0 0 0 16.59292358381283 0 0 0 0 0 0 0 0 0 1:-0.891884 2:-0.97411 3:-0.814146 4:-0.769121 5:-1 6:-0.676724 7:-1 8:-0.847458 9:-0.973684 10:-1 11:-0.634109 12:-0.864386 13:-0.803648 14:-1 15:-0.823563 16:-0.954932 17:-1 18:-0.650118 20:-1 21:-0.813133 
-0 -0 -0 -0 -0 -0 -0 -43.30172507179159 -0 0 0 0 0 459.5923077627244 0 0 0 0 0 0 0 1:-0.860874 2:-0.944984 3:-0.828746 4:-0.790162 5:-1 6:-0.62069 7:-1 8:-0.983051 9:-1 10:-1 11:-0.705426 12:-0.876342 13:-0.780753 14:-1 15:-0.807779 16:-0.99915 17:-1 18:-0.684791 20:-1 21:-0.815927 
-22.59629771805627 -0 -16.5967659470947 -0 -0 -0 -20.34148952210066 -0 -0 241.5907806530848 0 0 310.2170134643214 183.2165612521953 113.8985048235674 31.29699463694842 87.29119541331512 11.95574049968853 112.961110495615 89.32047098325083 17.8129536715536 1:-0.735159 2:-0.68932 3:-0.855776 4:-0.860677 5:-1 6:-0.431034 7:-1 8:-0.915254 9:0.328947 10:-1 11:-0.413953 12:-0.888409 13:-0.935584 14:-1 15:-0.807779 16:-0.906037 17:-1 18:-0.72104 20:-1 21:-0.832344 
-0 -1.361471346995344 -136.1319063850477 -0 -199.3352626197551 -0 -0 -0 -4625.214555891005 0 0 0 0 0 0 0 0 0 0 0 0 1:-0.810867 2:-0.990291 3:-0.834665 4:-0.862383 5:-1 6:-0.587284 7:-1 8:-1 9:-0.644737 10:-1 11:-0.820155 12:-0.929924 13:-0.725262 14:-1 15:-0.822999 16:-0.940051 17:-1 18:-0.799054 20:-1 21:-0.856095 
-56.04350515019883 -0 -0 -0 -0 -486.6061131826469 -0 -84.27215204222843 -1538.837711979358 0 0 2189.029171642276 2427.230829867431 0 958.2006877748588 99.76986090679355 0 0 0 0 0 1:-0.855566 2:-0.954693 3:-0.856762 4:-0.921524 5:-1 6:-0.575431 7:-1 8:-1 9:-1 10:-1 11:-0.863566 12:-0.912986 13:-0.85099 14:-1 15:-0.807215 16:-0.982143 17:-1 18:-0.850276 20:-1 21:-0.876703 
-0 -0 -0 -0 -0 -0 -18.4367008362288 -0 -0 0 2598.209945296543 0 0 703.8107099019272 0 0 0 0 0 0 0 1:-0.891046 2:-0.932039 3:-0.881819 4:-0.87205 5:-1 6:-0.731681 7:-1 8:-0.694915 9:-0.631579 10:-1 11:-0.916279 12:-0.958707 13:-0.608847 14:-1 15:-0.718715 16:-0.847789 17:-1 18:-0.670607 20:-1 21:-0.62906 
-0 -0 -0 -0 -0 -0 -0 -0 -393.6666624591007 532.2639408496926 0 0 0 0 0 0 0 0 0 0 0 1:-0.903897 2:-0.977346 3:-0.936273 4:-0.788456 5:-1 6:-0.801724 7:-1 8:-0.974576 9:1 10:-1 11:-0.83876 12:-0.959482 13:-0.676368 14:-1 15:-0.931229 16:-0.728741 17:-1 18:-0.572892 20:-1 21:-0.643381 
-0 -0 -0 -0 -0 -0 -0 -0 -1208.375244686185 6017.854148811981 0 0 0 0 339.3905177373266 0 0 47.03224100656629 43.10250077085692 0 0 1:-0.901662 2:-0.964401 3:-0.940811 4:-0.832812 5:-1 6:-0.705819 7:-1 8:-1 9:-1 10:-1 11:-0.922481 12:-0.975977 13:-0.859527 14:-1 15:-0.932356 16:-0.919643 17:-1 18:-0.733649 20:-1 21:-0.80964 
-0 -0 -0 -0 -0 -0 -12.13420504950399 -0 -0 0 414.6098701630816 0 171.6976515789856 1989.928199554249 0 0 0 0 0 0 0 1:-0.917866 2:-0.851133 3:-0.927789 4:-0.893091 5:-1 6:-0.560345 7:-1 8:-0.483051 9:-1 10:-1 11:-0.544186 12:-0.919407 13:-0.921614 14:-1 15:-0.761556 16:-0.940476 17:-1 18:-0.610717 20:-1 21:-0.685295 
-28.17348591211274 -0 -0 -0 -0 -0 -0 -0 -0 10905.87268816483 0 0 2263.54348632763 8738.069791036767 0 35.2250054334076 0 77.98864430572992 37.55203498998296 73.03615280872567 185.2575427644383 1:-0.930717 2:-1 3:-0.985795 4:-0.902189 5:-1 6:-0.540948 7:-1 8:-1 9:-1 10:-1 11:-1 12:-0.994908 13:-0.980986 14:-1 15:-0.937993 16:-0.935374 17:-1 18:-0.598897 20:-1 21:-0.758645 
-0 -6.715940808125932 -0 -0.9892361653212778 -0 -0 -41.58165867220174 -59.72694568876732 -0 1106.232443324853 0 0 38.54384558899933 216.5350277919111 0 0 0 0 0 0 0 1:-0.885179 2:-0.805825 3:-0.803295 4:-0.790731 5:-1 6:-0.561422 7:-0.647059 8:-0.677966 9:-1 10:-1 11:-0.262016 12:-0.86184 13:-0.822274 14:-1 15:-0.656708 16:-0.886054 17:-1 18:-0.243499 20:-1 21:-0.69263 
-0 -0 -0 -0 -0 -44.36960311468678 -0 -0 -0 0 0 0 0 0 0 0 0 0 0 0 0 1:-0.851376 2:-0.983819 3:-0.8029 4:-0.766847 5:-1 6:-0.637931 7:-1 8:-0.779661 9:-0.526316 10:-1 11:-0.848062 12:-0.865604 13:-0.871944 14:-1 15:-0.677001 16:-0.930272 17:-1 18:-0.65721 20:-1 21:-0.826057 
-0 -0 -0 -0 -0 -0 -0 -0 -10054.50311623054 -0 0 0 0 0 4523.20081448606 0 0 0 0 0 0 1:-0.950272 2:-0.906149 3:-0.972773 4:-0.812909 5:-1 6:-0.991379 7:-1 8:-0.838983 9:-0.921053 10:-1 11:-0.885271 12:-0.976198 13:-0.855258 14:-1 15:-0.983089 16:-0.752551 17:-1 18:-0.863672 20:-1 21:-0.978694 
-0 -0 -138.4634258716714 -0 -0 -54.29559096402976 -0 -47.36451663688974 -3065.553177055971 -0 33.73139759407104 1720.003909627608 0 0 4328.768880948558 0 0 0 0 0 0 1:-0.89803 2:-0.873786 3:-0.953832 4:-0.843048 5:-1 6:-0.880388 7:-1 8:-0.754237 9:-1 10:-1 11:-0.764341 12:-0.946862 13:-0.783081 14:-1 15:-0.960541 16:-0.762755 17:-1 18:-0.876281 20:-1 21:-0.93678 
-0 -0 -0 -0 -0 -0 -0 -0 -0 -0 0 0 0 0 12436.5804938904 0 0 0 0 0 0 1:-0.95558 2:-1 3:-0.978495 4:-0.802104 5:-1 6:-0.884698 7:-1 8:-1 9:-1 10:-1 11:-1 12:-0.994133 13:-0.89057 14:-1 15:-0.96336 16:-0.710884 17:-1 18:-0.79275 20:-1 21:-0.959483 
-133.5261238093942 -1.896331985571591 -0 -0 -64.89575665040982 -29.69971853695365 -25.72993354051924 -42.3735235308561 -0 -4224.498590383262 0 910.5533082256649 835.7803045757202 0 0 878.7487621117002 0 293.3514195491924 439.9383103195046 348.7212445009176 0 1:-0.940494 2:-0.97411 3:-0.960541 4:-0.909582 5:-1 6:-0.514009 7:-1 8:-1 9:-1 10:-1 11:-0.72093 12:-0.964132 13:-0.861079 14:-1 15:-0.892334 16:-0.969813 17:-1 18:-0.870764 20:-1 21:-0.798812 
-0 -0 -33.14569067013642 -0 -38.66832455583103 -46.63908853190313 -0 -25.20006446419272 -0 -3890.398906185403 0 0 0 356.8033715908618 0 0 0 0 0 0 0 1:-0.961168 2:-1 3:-0.966657 4:-0.820301 5:-1 6:-0.753233 7:-1 8:-1 9:-1 10:-1 11:-1 12:-0.997454 13:-0.959643 14:-1 15:-0.967869 16:-0.816752 17:-1 18:-0.228526 20:-1 21:-0.784492 
-0 -4.791609340240245 -12.38157729828195 -7.488915919216949 -25.27141432767929 -9.702473976547932 -41.55482531083386 -0 -3143.611874563008 -9665.171104824938 468.2505878171661 142.2486435238501 258.1336861020186 1965.516658375232 0 0 79.67220708960411 0 0 29.51956218596911 0 1:-0.875681 2:-0.880259 3:-0.930749 4:-0.836793 5:-1 6:-0.576509 7:-0.918552 8:-0.652542 9:-0.315789 10:-1 11:-0.541085 12:-0.955607 13:-0.900272 14:-1 15:-0.864149 16:-1 17:-1 18:-0.492514 20:-1 21:-0.698219 
-49.20781778673304 -0 -12.82185923207948 -0 -0 -0 -0 -1.32004051557257 -0 -0 0 0 0 0 694.3393142421917 0 62.58293382197601 0 91.16807112944866 66.50378248739413 0 1:-0.962006 2:-0.951456 3:-0.979678 4:-0.793574 5:-1 6:-0.84806 7:-0.855204 8:-0.805085 9:0.684211 10:-1 11:-0.603101 12:-0.995793 13:-0.844393 14:-1 15:-0.976888 16:-0.698554 17:-1 18:-0.412136 20:-1 21:-0.935033 
-0 -0 -0 -0 -0 -0 -0 -0 -0 -0 0 0 0 0 990.428073054566 116.8038482642401 9.322769773901676 122.3822546863695 35.72944519577549 0 140.1127518434031 1:-0.973181 2:-0.76699 3:-0.981849 4:-0.868069 5:-1 6:-0.62069 7:-0.9819 8:-0.889831 9:-0.697368 10:-1 11:-0.572093 12:-1 13:-0.906092 14:-1 15:-0.993799 16:-0.889031 17:-1 18:-0.360914 20:-1 21:-0.845267 
-0 -0 -0 -3.3841778092327 -0 -0 -0 -0 -1471.484946576576 -0 0 975.7660816470751 71.06635953152239 0 0 0 143.4496864398761 8.125244558230905 10.86802634270748 97.85128593646776 225.1876171237297 1:-0.931275 2:-0.928803 3:-0.975141 4:-0.792437 5:-1 6:-0.552802 7:-0.773756 8:-0.542373 9:-0.815789 10:-1 11:-0.444961 12:-0.992029 13:-0.904152 14:-1 15:-0.976888 16:-0.901361 17:-1 18:-0.568952 20:-1 21:-0.816975 
-0 -0 -0 -0 -0 -0 -24.90963840193013 -0 -0 -0 0 0 0 1134.722937975961 0 0 0 0 0 0 0 1:-0.974577 2:-0.935275 3:-0.987768 4:-0.940859 5:-1 6:-0.609914 7:-0.927602 8:-1 9:-1 10:-1 11:-0.80155 12:-0.993801 13:-0.927823 14:-1 15:-0.93743 16:-0.881803 17:-1 18:-0.538219 20:-1 21:-0.650367 
-171.7025649697451 -0 -0 -0 -0 -0 -0 -0 -0 -0 0 0 0 0 0 6.749652436268549 0 0 0 0 593.968312896371 1:-0.958653 2:-1 3:-0.981454 4:-0.927211 5:-1 6:-0.773707 7:-1 8:-1 9:-1 10:-1 11:-1 12:-0.993911 13:-0.953434 14:-1 15:-0.956032 16:-0.893282 17:-1 18:-0.798266 20:-1 21:-0.872861 
-0 -0 -36.17630801636481 -0 -18.5639114390048 -0 -0 -0 -0 -5253.405974629522 0 0 579.0417605804898 0 5125.283019672502 0 0 0 0 0 0 1:-0.911161 2:-1 3:-0.977114 4:-0.856127 5:-1 6:-0.667026 7:-1 8:-1 9:-1 10:-1 11:-1 12:-0.99059 13:-0.967792 14:-1 15:-0.911499 16:-0.809949 17:-1 18:-0.695035 20:-1 21:-0.846664 
-957.8463276072191 -0 -0 -0 -0 -0 -0 -0 -10528.61939663989 -0 0 0 0 0 12281.60632519195 146.2923897064811 786.1449584204316 0 119.770836581921 0 1313.682696245944 1:-0.951669 2:-1 3:-0.94377 4:-0.967586 5:-1 6:-0.887931 7:-1 8:-1 9:-1 10:-1 11:-1 12:-0.940219 13:-0.912301 14:-1 15:-0.919391 16:-0.994898 17:-1 18:-0.970843 20:-1 21:-0.938177 
-0 -0 -0 -4.223788393423722 -0 -0 -0 -0 -2501.266314655564 -5375.992096551993 22.11347143628892 2532.567410941347 166.6709323566856 1155.180453813499 0 960.5355631562273 2.117290665027991 4.293806878344034 31.05360735700502 155.6051153231274 0 1:-0.916469 2:-1 3:-0.934892 4:-1 5:-1 6:-0.823276 7:-1 8:-1 9:-1 10:-1 11:-1 12:-0.883206 13:-1 14:-1 15:-0.78805 16:-1 17:-1 18:-1 20:-1 21:-0.864478 
-0 -0 -0 -0 -0 -0 -0 -0 -12449.57573028908 -1143.054179695505 0 0 0 0 32768 0 0 0 0 0 0 1:-0.922056 2:-1 3:-0.933314 4:-0.978391 5:-1 6:-0.823276 7:-1 8:-1 9:-1 10:-1 11:-1 12:-0.885531 13:-0.964688 14:-1 15:-0.832582 16:-0.987245 17:-1 18:-0.939322 20:-1 21:-0.916172 
-0 -19.71377162790294 -0 -0 -78.10392903053528 -185.9379205830826 -0 -32.1449712788099 -0 -4090.423509300846 740.891403537773 0 0 1236.37695741869 0 0 0 0 0 0 0 1:-0.938818 2:-1 3:-0.948703 4:-0.962468 5:-1 6:-0.730603 7:-1 8:-1 9:-1 10:-1 11:-1 12:-0.942433 13:-0.848273 14:-1 15:-0.834837 16:-0.864371 17:-1 18:-0.827423 20:-1 21:-0.818722 
-0 -0 -42.01026179120755 -0 -0 -0 -47.53343533893619 -0 -0 -2335.232213187171 -321.6037825512607 784.4405016890751 1542.845841216988 3844.396120320155 0 84.7386171559379 24.18796954029807 58.02010714058182 52.87561932710061 108.1067574881503 55.25444950893524 1:-0.953066 2:-0.89644 3:-0.872546 4:-0.883992 5:-1 6:-0.818966 7:-1 8:-0.627119 9:-0.578947 10:-1 11:-0.534884 12:-0.931473 13:-0.788902 14:-1 15:-0.824126 16:-0.878827 17:-1 18:-0.536643 20:-1 21:-0.702061 
-51.61932652741598 -10.0357449131611 -95.94585402381539 -0 -103.1510656104687 -130.3075237864527 -0 -85.51974031766042 -482.7507515950371 -3838.523985240165 -508.2026029305171 0 647.592053655294 0 117.7171276991885 0 62.05784830052703 0 6.228628615093887 0 34.16463984788553 1:-0.937421 2:-0.919094 3:-0.892868 4:-0.895365 5:-1 6:-0.756466 7:-0.954751 8:-0.754237 9:-0.710526 10:-1 11:-0.91938 12:-0.906897 13:-0.733799 14:-1 15:-0.853439 16:-0.875 17:-1 18:-0.628054 20:-1 21:-0.696822 
-0 -14.29352460874183 -0 -0 -0 -0 -41.48193693965676 -0 -0 -0 -0 0 0 2607.916297382575 0 0 0 0 0 0 0 1:-0.941053 2:-1 3:-0.899181 4:-0.981234 5:-1 6:-0.448276 7:-1 8:-1 9:-1 10:-1 11:-1 12:-0.912654 13:-0.897943 14:-1 15:-0.62345 16:-1 17:-1 18:-0.902285 20:-1 21:-0.571079 
-1.737622230992056 -0 -0 -0 -0 -0 -0 -0 -0 -0 -62.25970634581252 0 0 0 0 0 0 0 0 0 0 1:-0.922894 2:-0.932039 3:-0.890106 4:-0.994882 5:-1 6:-0.404095 7:-1 8:-1 9:-1 10:-1 11:-0.875969 12:-0.899037 13:-0.994179 14:-1 15:-0.665727 16:-1 17:-1 18:-0.958235 20:-1 21:-0.623472 
-121.9941466711368 -0 -0 -0.8819544816596089 -0 -12.37572583875552 -11.00918074121797 -0 -0 -0 -84.70696568657631 887.3300091450363 920.8182809559402 2943.574173675021 0 239.7355471075955 75.79370538296686 109.8752892171128 176.4133190536189 168.662274531779 140.8941073298882 1:-0.922894 2:-0.932039 3:-0.890106 4:-0.994882 5:-1 6:-0.404095 7:-1 8:-1 9:-1 10:-1 11:-0.875969 12:-0.899037 13:-0.994179 14:-1 15:-0.665727 16:-1 17:-1 18:-0.958235 20:-1 21:-0.623472 
-14.57476656024263 -6.91680952194473 -42.0904314645221 -5.91676850429119 -133.3760973239202 -237.923121582325 -0 -47.29961087754287 -920.520480003198 -1886.0080931068 -288.2138028711325 1548.521884452441 4335.305996901549 793.411977927726 189.9400874621973 14.14253963204324 33.63229307035929 0 0 0 0 1:-0.797178 2:-1 3:-0.875308 4:-0.960762 5:-1 6:-0.59806 7:-1 8:-1 9:-1 10:-1 11:-1 12:-0.849994 13:-0.972837 14:-1 15:-0.68602 16:-0.997449 17:-1 18:-0.93617 20:-1 21:-0.688788 
-0 -0 -0 -10.35352058741351 -0 -0 -0 -0 -0 -195.2464523838757 -0 0 0 127.5753384357423 0 0 0 0 0 0 0 1:-0.943847 2:-0.993528 3:-0.895038 4:-0.947114 5:-1 6:-0.697198 7:-1 8:-0.652542 9:-0.644737 10:-1 11:-0.813953 12:-0.878003 13:-0.926271 14:-1 15:-0.467306 16:-0.97534 17:-1 18:-0.802994 20:-1 21:-0.596577 
-29.28314382472881 -0 -0 -0 -146.3540234333433 -3.206588573711441 -0 -36.34049783429005 -15800.33768395252 -675.8110842127209 -543.5861419280888 -0 696.6451522288797 0 2503.274507971639 0 0 0 0 0 0 1:-0.903338 2:-1 3:-0.798757 4:-0.973273 5:-1 6:-0.84375 7:-1 8:-1 9:-1 10:-1 11:-1 12:-0.79431 13:-0.987971 14:-1 15:-0.834837 16:-1 17:-1 18:-0.933806 20:-1 21:-0.917918 
-19.17552074909635 -0 -34.97784807423972 -0 -3.299276520385007 -21.24855505376834 -0 -13.7882863421617 -4730.341442450912 -1952.972419958003 -63.62791516394823 -542.0640886605933 0 0 0 51.10669776528992 74.96725259875303 14.05037816168064 182.0446597667275 0 0 1:-0.92932 2:-0.906149 3:-0.828352 4:-0.955644 5:-1 6:-0.800647 7:-1 8:-0.974576 9:-0.552632 10:-1 11:-0.869767 12:-0.793646 13:-0.924719 14:-1 15:-0.85513 16:-1 17:-1 18:-0.903861 20:-1 21:-0.944813 
-69.99611530888983 -0 -89.24810357476126 -0 -49.92849813488642 -80.8813770278423 -4.07265690366087 -76.98212170595374 -6721.985914844757 -2835.314345808619 -2739.791026581747 -192.4957769565891 2072.547322090872 219.4766491051293 1621.841637276066 237.5891434422099 146.328785381713 103.4414814463857 85.30909975067054 115.7986724399768 389.6775731584709 1:-0.963403 2:-0.990291 3:-0.940219 4:-0.769121 5:-1 6:-0.702586 7:-1 8:-0.813559 9:-1 10:-1 11:-0.733333 12:-0.962028 13:-0.88863 14:-1 15:-0.935175 16:-0.856293 17:-1 18:-0.787234 20:-1 21:-0.948655 
-0 -3.610284703665551 -32.91346082093563 -17.84873728465192 -0 -0 -10.65481781954214 -4.436826119744595 -1147.826600937589 -1776.26532177577 -472.8910895113631 -496.324507355081 2337.60101582716 128.7598993791204 0 0 0 0 0 0 0 1:-0.890487 2:-0.838188 3:-0.853014 4:-0.973841 5:-1 6:-0.679957 7:-1 8:-0.635593 9:-1 10:-1 11:-0.779845 12:-0.871361 13:-0.82305 14:-1 15:-0.728298 16:-0.980017 17:-1 18:-0.85658 20:-1 21:-0.584701 
-0 -28.12903666407843 -0 -0 -32.34529170945326 -248.8052107195373 -62.60426856438851 -12.58600773096561 -1538.970215819407 -0 -387.0059287526222 -1989.408022314289 7761.1906581639 2409.852439778443 0 0 0 0 0 0 0 1:-0.905573 2:-1 3:-0.868403 4:-0.968155 5:-1 6:-0.578664 7:-1 8:-1 9:-1 10:-1 11:-0.823256 12:-0.866822 13:-0.913465 14:-1 15:-0.6646 16:-1 17:-1 18:-0.890465 20:-1 21:-0.597625 
-383.9178368411803 -0 -0 -0 -0 -0 -0 -0 -25282.84451678578 -255.7843112853377 -1392.898603750658 -0 166.5658795328127 0 2266.380978094094 581.9318510331993 705.2292567694814 0 63.22761395978038 184.8516378147361 1054.853171520084 1:-0.971784 2:-0.954693 3:-0.955805 4:-0.978391 5:-1 6:-0.907328 7:-1 8:-0.830508 9:-0.842105 10:-1 11:-0.79845 12:-0.922838 13:-0.949554 14:-1 15:-0.868095 16:-0.986395 17:-1 18:-0.974783 20:-1 21:-0.903598 
-80.37024560612846 -0 -0 -0 -0 -0 -0 -0 -33.39026640699046 -943.0978917071726 -681.3386482771144 -0 0 0 164.0237175320782 436.4584354570831 0 170.8680733115888 68.87853203812723 408.916407859283 0 1:-0.939936 2:-0.825243 3:-0.906481 4:-0.985215 5:-1 6:-0.797414 7:-0.809955 8:-1 9:-1 10:-1 11:-0.668217 12:-0.924388 13:-0.884362 14:-1 15:-0.773957 16:-0.985544 17:-1 18:-0.940898 20:-1 21:-0.752707 
-0 -19.10440329421968 -0 -0 -2.433281925540607 -117.7456536472288 -30.06482014639194 -47.59370921898717 -7.626160571867906 -536.2948911072903 -14.33791422585302 -410.2696210933985 -1760.041037907808 797.6810008552095 0 0 0 0 0 0 0 1:-0.864786 2:-0.899676 3:-0.881819 4:-0.913563 5:-1 6:-0.678879 7:-0.909502 8:-0.694915 9:-1 10:-1 11:-0.43876 12:-0.810141 13:-0.702367 14:-1 15:-0.70575 16:-0.922194 17:-1 18:-0.767533 20:-1 21:-0.530912 
-0 -11.01971480742085 -0 -0 -0 -97.26643444944568 -0 -0 -880.5015542706396 -0 -0 -1739.902978452145 -4338.05388041386 0 0 0 0 0 0 0 0 1:-0.890487 2:-1 3:-0.845319 4:-0.934603 5:-1 6:-0.716595 7:-1 8:-1 9:-1 10:-1 11:-1 12:-0.855419 13:-0.967016 14:-1 15:-0.669109 16:-1 17:-1 18:-0.938534 20:-1 21:-0.626615 
-67.07528125065947 -0 -0 -0 -0 -0 -0 -0 -0 -370.7085357469887 -186.4851530757253 -2502.430651897188 -2582.258195027761 839.0544386581493 208.6483946332434 164.2245018132298 91.50322156776586 0 16.18493229955076 75.68270129813534 18.34180684635485 1:-0.896913 2:-1 3:-0.867416 4:-1 5:-1 6:-0.721983 7:-1 8:-1 9:-1 10:-1 11:-1 12:-0.888741 13:-0.963912 14:-1 15:-0.700676 16:-0.980867 17:-1 18:-0.907801 20:-1 21:-0.632903 
-0 -0 -105.8467922498521 -9.872858603450137 -20.2242139700502 -0 -2.5089446518256 -10.28094175429423 -0 -213.9080501096979 -0 -617.484776320559 -0 262.4494816755035 0 0 0 0 0 0 0 1:-0.802486 2:-0.838188 3:-0.826181 4:-0.873756 5:-1 6:-0.552802 7:-0.746606 8:-0.118644 9:-0.210526 10:-1 11:-0.665116 12:-0.852873 13:-0.883974 14:-1 15:-0.800451 16:-0.917092 17:-1 18:-0.677699 20:-1 21:-0.651415 
-35.60010278742081 -0 -0 -0 -0 -0 -0 -0 -175.6911122010155 -787.0169377880422 -240.9223836790184 -302.0249251188701 -63.67566486005757 0 0 55.04819843155198 67.90001620589481 15.83475070050054 42.67463824590118 85.61340809705878 52.46471157097345 1:-0.889649 2:-0.809061 3:-0.859722 4:-0.882286 5:-1 6:-0.451509 7:-0.963801 8:-0.322034 9:-0.421053 10:-1 11:-0.44186 12:-0.89793 13:-0.928599 14:-1 15:-0.891206 16:-0.907313 17:-1 18:-0.869976 20:-1 21:-0.918268 
-0 -0 -0 -0 -0 -0 -0 -0 -0 -0 -0 -0 -2467.168434461358 0 0 103.4097358413724 0 120.7347026141638 37.67632079308366 215.8043770308968 115.4938297508927 1:-0.891046 2:-0.990291 3:-0.920292 4:-0.912425 5:-1 6:-0.503233 7:-1 8:-0.70339 9:-0.986842 10:-1 11:-0.516279 12:-0.95129 13:-0.927823 14:-1 15:-0.813416 16:-0.961735 17:-1 18:-0.867612 20:-1 21:-0.717779 
-0.8918728189117698 -0 -0 -0 -0.1127643439072081 -0 -3.88446615298938 -6.523960682368941 -5.289304729968229 -1090.736774315846 -102.3719885428162 -164.6276136630036 -456.8416409145585 0 0 0 0 0 0 0 0 1:-0.866741 2:-0.97411 3:-0.896419 4:-0.869775 5:-1 6:-0.540948 7:-1 8:-1 9:-1 10:-1 11:-0.84186 12:-0.939112 13:-0.958479 14:-1 15:-0.859076 16:-0.920068 17:-1 18:-0.71316 20:-1 21:-0.798114 
-166.6325798468196 -0 -99.30484054065997 -0 -276.3980241863853 -291.7719358473374 -49.10879250939371 -25.34796956267373 -493.1598111507716 -4296.769802734837 -1366.575603623024 -1709.821606184609 -1350.802527068311 2179.767426997602 209.2565455933896 195.7065163752486 135.3216690909026 100.1894525335241 209.6219421812991 90.39299594670321 233.3730646978168 1:-0.866741 2:-0.97411 3:-0.896419 4:-0.869775 5:-1 6:-0.540948 7:-1 8:-1 9:-1 10:-1 11:-0.84186 12:-0.939112 13:-0.958479 14:-1 15:-0.859076 16:-0.920068 17:-1 18:-0.71316 20:-1 21:-0.798114 
-0 -0 -0 -2.954103727143749 -0 -0 -0 -0 -0 -0 -0 -0 -0 0 0 0 0 0 0 0 0 1:-0.827071 2:-0.993528 3:-0.849265 4:-0.987489 5:-1 6:-0.515086 7:-1 8:-0.694915 9:-1 10:-1 11:-0.913178 12:-0.884756 13:-0.967404 14:-1 15:-0.728298 16:-0.997874 17:-1 18:-0.951143 20:-1 21:-0.575271 
-0 -4.643986283322842 -0 -10.03607605731164 -0 -0 -24.58507513875402 -150.6779002805501 -0 -0 -0 -0 -0 0 0 0 0 0 0 0 0 1:-0.864506 2:-0.760518 3:-0.868995 4:-0.86352 5:-1 6:-0.247845 7:-0.429864 8:-0.347458 9:-0.947368 10:-1 11:-0.534884 12:-0.909886 13:-0.8052 14:-1 15:-0.666855 16:-0.852891 17:-1 18:-0.601261 20:-1 21:-0.504017 
-0 -0 -0 -0 -0 -0 -8.527196143561039 -0 -0 -0 -0 -0 -15.70864718990928 467.0433154881993 0 0 0 0 0 0 0 1:-0.877078 2:-0.964401 3:-0.883595 4:-0.827125 5:-1 6:-0.386853 7:-1 8:-0.491525 9:-0.921053 10:-1 11:-0.618605 12:-0.920292 13:-0.894839 14:-1 15:-0.726607 16:-0.970663 17:-1 18:-0.715524 20:-1 21:-0.712539 
-0 -0 -17.5416425326034 -0 -0 -0 -4.654784686326005 -2.215628609881874 -0 -0 -738.155300403295 -0 -0 -0 0 0 2.427177394573768 57.84410721283255 20.24191544912668 0 0 1:-0.948037 2:-0.873786 3:-0.962711 4:-0.869775 5:-1 6:-0.794181 7:-0.692308 8:-1 9:-0.355263 10:-1 11:-0.68062 12:-0.976973 13:-0.837796 14:-1 15:-0.87655 16:-0.910714 17:-1 18:-0.488574 20:-1 21:-0.598323 
-0 -2.183290832449355 -0 -0 -0 -143.836394348074 -51.17060257001194 -14.16663976886831 -0 -0 -0 -0 -0 -0 0 0 0 0 0 0 0 1:-0.930437 2:-0.993528 3:-0.935878 4:-0.749218 5:-1 6:-0.840517 7:-1 8:-1 9:-1 10:-1 11:-0.782946 12:-0.948301 13:-0.807528 14:-1 15:-0.861894 16:-0.854167 17:-1 18:-0.321513 20:-1 21:-0.669927 
-0 -0 -0 -0 -0 -0 -0 -0 -67.57739351481631 -0 -0 -2008.596983158402 -1018.650096644399 -1787.242403816491 0 0 0 0 56.07823489286677 67.55588682604831 0 1:-0.889929 2:-0.94822 3:-0.898589 4:-0.956213 5:-1 6:-0.376078 7:-1 8:-0.915254 9:-1 10:-1 11:-0.782946 12:-0.91365 13:-0.923166 14:-1 15:-0.689966 16:-0.975765 17:-1 18:-0.878645 20:-1 21:-0.566539 
-0 -28.15044427205125 -7.517713081657114 -6.500946290564352 -163.1669614939917 -135.3643422062175 -119.9007938973744 -63.36237243293019 -0 -3945.028792335767 -0 -0 -0 -155.478993635998 0 0 0 0 0 0 0 1:-0.850817 2:-0.996764 3:-0.871954 4:-0.931191 5:-1 6:-0.274784 7:-1 8:-1 9:-1 10:-1 11:-0.770543 12:-0.912543 13:-0.905704 14:-1 15:-0.665727 16:-0.982143 17:-1 18:-0.791174 20:-1 21:-0.590988 
-1.731950824638069 -0 -126.7720843056945 -0 -158.1239074318859 -0 -0 -96.66317657546017 -328.0268271690904 -11241.29838184924 -1611.066330470896 -35.25337912004055 -279.2725466795137 -1567.402209634429 249.9116269173153 0 16.4083343595215 6.973745452929171 0 0 89.08077989944204 1:-0.939377 2:-0.92233 3:-0.923251 4:-0.815183 5:-1 6:-0.784483 7:-1 8:-1 9:-1 10:-1 11:-0.937984 12:-0.936123 13:-0.853706 14:-1 15:-0.899662 16:-0.924745 17:-1 18:-0.539795 20:-1 21:-0.817674 
-0 -0 -0 -0 -0 -316.2970199454243 -0 -0 -0 -0 -786.1666358462884 -1556.48371175247 -0 -241.6918298570401 0 169.8423604093767 0 121.8037343208259 57.45522755260242 88.66106115239421 30.44373057201754 1:-0.903338 2:-0.919094 3:-0.891487 4:-0.944839 5:-1 6:-0.480603 7:-1 8:-1 9:-1 10:-1 11:-0.655814 12:-0.889516 13:-0.943345 14:-1 15:-0.674183 16:-1 17:-1 18:-0.720252 20:-1 21:-0.716381 
-0 -0 -44.74370947882088 -11.80133921616496 -0 -0 -0 -0 -0 -3674.416686107534 -652.557890487476 -868.1332411504045 -0 -794.1802267307047 0 0 36.93278606596716 25.00826917399647 0 76.99087724542531 20.98135235897471 1:-0.829026 2:-0.831715 3:-0.876492 4:-0.950526 5:-1 6:-0.701509 7:-1 8:-0.364407 9:-0.605263 10:-1 11:-0.444961 12:-0.937119 13:-0.914241 14:-1 15:-0.824126 16:-0.975765 17:-1 18:-0.768322 20:-1 21:-0.623821 
-242.7833827958073 -0 -0 -0 -0 -0 -0 -0 -315.8971072398685 -4013.557075541358 -2060.654221966289 -1405.1910264522 -105.9683575567525 -0 170.5665425029893 267.7511351249149 236.7846521128249 7.043446558510681 148.4531850657857 78.20316523121002 169.8330603399448 1:-0.941333 2:-0.996764 3:-0.915951 4:-0.923799 5:-1 6:-0.641164 7:-1 8:-0.864407 9:-0.710526 10:-1 11:-0.962791 12:-0.92306 13:-0.958867 14:-1 15:-0.861894 16:-0.957058 17:-1 18:-0.744681 20:-1 21:-0.70241 
-0 -4.139536540131405 -0 -0 -17.08488255778699 -29.62383448369547 -0 -0 -0 -0 -0 -2734.368519540913 -0 -0 0 0 0 0 0 0 0 1:-0.921777 2:-0.935275 3:-0.899181 4:-0.89764 5:-1 6:-0.686422 7:-1 8:-0.79661 9:-0.671053 10:-1 11:-0.87907 12:-0.909332 13:-0.801707 14:-1 15:-0.744081 16:-0.934524 17:-1 18:-0.673759 20:-1 21:-0.586098 
-0 -0 -0 -0 -0 -0 -0 -0 -26.98654164104255 -0 -0 -1708.847046566793 -1354.197987382028 -0 9.589795831960743 0 0 0 0 0 0 1:-0.960888 2:-0.990291 3:-0.922265 4:-0.978391 5:-1 6:-0.66056 7:-1 8:-1 9:-1 10:-1 11:-0.789147 12:-0.91841 13:-0.986806 14:-1 15:-0.594701 16:-1 17:-1 18:-0.842396 20:-1 21:-0.575969 
-96.78583077400003 -0 -0 -0 -0 -0 -0 -0 -3421.868818403303 -0 -3412.168088713983 -0 -335.6842263267854 -0 -0 0 0 0 0 0 0 1:-0.90725 2:-1 3:-0.896616 4:-0.945977 5:-1 6:-0.817888 7:-1 8:-1 9:-1 10:-1 11:-1 12:-0.923281 13:-0.909197 14:-1 15:-0.834273 16:-0.968537 17:-1 18:-1 20:-1 21:-0.909885 
-186.6977435630081 -0 -0 -13.64517845916338 -0 -0 -0 -12.2940520026566 -4962.206065247694 -1063.778038453163 -9491.122016089947 -55.02685015103498 -3269.166037468062 -7.861052252255078 -0 393.8368740097166 529.1230420737061 89.03582091045466 107.2391925631916 163.2743525607418 383.98234145896 1:-0.908646 2:-0.938511 3:-0.915951 4:-1 5:-1 6:-0.809267 7:-1 8:-0.805085 9:-1 10:-1 11:-0.820155 12:-0.852541 13:-1 14:-1 15:-0.897971 16:-1 17:-1 18:-1 20:-1 21:-0.904296 
-23.09470488843085 -0 -0 -0 -0 -0 -0 -22.00840215859714 -1959.188770207296 -545.7677873895055 -3908.096324716484 -0 -1780.031208131773 -0 -0 59.8612720293319 0 38.38022637052569 45.80316959477153 60.18748219717865 291.0365444613483 1:-0.920659 2:-0.996764 3:-0.930946 4:-0.939153 5:-1 6:-0.883621 7:-1 8:-1 9:-1 10:-1 11:-0.848062 12:-0.909997 13:-0.927047 14:-1 15:-0.916573 16:-0.990646 17:-1 18:-0.838455 20:-1 21:-0.955292 
-126.2564814788826 -0 -0 -0 -158.9632485955864 -150.3844041613538 -18.33389716542112 -31.23589631906502 -2784.042774876089 -1794.568034140753 -16475.53831121565 -198.8573596831168 -299.3220169925485 -410.0438879743779 -296.1951354461593 253.5389760246226 11.95389710456339 0 0 0 0 1:-0.906132 2:-1 3:-0.909243 4:-0.936309 5:-1 6:-0.775862 7:-1 8:-1 9:-1 10:-1 11:-1 12:-0.898594 13:-0.977105 14:-1 15:-0.890079 16:-0.982143 17:-1 18:-0.838455 20:-1 21:-0.899057 
-270.5913224646425 -0 -0 -0 -0 -0 -0 -0 -0 -0 -32768 -0 -0 -0 -0 188.9141808598629 271.482459143488 0 0 0 441.5925655743805 1:-0.946082 2:-1 3:-0.965868 4:-0.935172 5:-1 6:-0.893319 7:-1 8:-1 9:-1 10:-1 11:-1 12:-0.974981 13:-0.922002 14:-1 15:-0.900789 16:-0.83801 17:-1 18:-0.882585 20:-1 21:-0.952847 
-19.69439216501513 -22.43658092553582 -83.04789689583481 -0 -52.88251691793538 -112.5921448577994 -17.86636692830855 -87.99550339979784 -3156.541937774456 -625.2741942846689 -7093.28218075017 -53.77300532723398 -871.3173519547087 -0 -133.8728298061061 65.15405877124472 52.00221670976264 26.66222629053297 76.04890889894064 34.96157875800969 37.298627959767 1:-0.903618 2:-0.89644 3:-0.964684 4:-0.695195 5:-1 6:-0.807112 7:-1 8:-1 9:-0.723684 10:-1 11:-1 12:-0.969224 13:-0.742336 14:-1 15:-0.923337 16:-0.720663 17:-1 18:-0.794326 20:-1 21:-0.94656 
-0 -3.589032582463904 -188.0688781797356 -0 -0 -25.37334248739874 -8.570235104038757 -0 -0 -0 -0 -0 -0 -0 -0 0 0 0 0 0 0 1:-0.925129 2:-1 3:-0.972773 4:-0.824282 5:-1 6:-0.832974 7:-1 8:-1 9:-1 10:-1 11:-1 12:-0.999557 13:-0.914241 14:-1 15:-0.921646 16:-0.490646 17:-1 18:-0.720252 20:-1 21:-0.95145 
-0 -0 -0 -0 -0 -0 -3.075713916138874 -0 -0 -0 -0 -0 -0 -0 -0 -0 1250.355113592669 0 1639.627980129779 129.4581075441939 4413.430527391312 1:-0.983517 2:-0.71521 3:-0.980665 4:-0.983509 5:-1 6:-0.742457 7:-0.457014 8:-0.983051 9:-1 10:-1 11:0.262016 12:-1 13:-0.957703 14:-1 15:-0.935175 16:-0.981718 17:-1 18:-0.963751 20:-1 21:-0.735592 
-0 -0 -0 -0 -0 -0 -0 -0 -0 -0 -0 -0 -0 -0 -0 -0 614.9038104027853 0 4037.125567900047 0 32468.05561275584 1:-0.96899 2:-0.618123 3:-0.990727 4:-0.976685 5:-1 6:-0.653017 7:-0.447964 8:-1 9:-1 10:-1 11:-0.423256 12:-0.997675 13:-0.985254 14:-1 15:-0.970124 16:-0.969813 17:-1 18:-0.956659 20:-1 21:-0.869368 
-0 -0 -0 -0 -0 -0 -0 -0 -0 -0 -0 -0 -0 -0 -0 -0 17945.81158892122 0 537.3090180484653 0 32768 1:-0.96899 2:-0.957929 3:-0.997435 4:-0.925505 5:-1 6:-0.639009 7:-1 8:-1 9:-0.671053 10:-1 11:-0.751938 12:-1 13:-0.98409 14:-1 15:-0.994363 16:-0.974915 17:-1 18:-0.931442 20:-1 21:-0.842473 
-20053.03160613271 -0 -0 -0 -0 -0 -0 -0 -0 -0 -0 -0 -0 -0 -0 -0 0 0 1090.449363499726 9425.561963801747 22177.44990225962 1:-0.980165 2:-0.834951 3:-0.998224 4:-0.939721 5:-1 6:-0.700431 7:-1 8:-1 9:-0.631579 10:-1 11:-0.581395 12:-0.999668 13:-0.985642 14:-1 15:-1 16:-0.97534 17:-1 18:-0.950355 20:-1 21:-0.914425 
-0 -0 -0 -0 -0 -0 -0 -0 -0 -0 -0 -0 -0 -0 -0 -0 0 0 1908.610756754449 0 19996.74399784531 1:-0.972622 2:-0.789644 3:-0.997238 4:-0.963605 5:-1 6:-0.761853 7:-0.837104 8:-1 9:-0.75 10:-1 11:-0.826357 12:-1 13:-0.999612 14:-1 15:-0.988162 16:-0.996173 17:-1 18:-0.91647 20:-1 21:-0.926301 
-32768 -0 -0 -0 -0 -0 -0 -0 -0 -0 -0 -0 -0 -0 -0 -0 0 0 0 0 32768 1:-0.972901 2:-0.928803 3:-0.994278 4:-0.985215 5:-1 6:-0.701509 7:-0.900452 8:-1 9:-1 10:-1 11:-0.823256 12:-0.998893 13:-1 14:-1 15:-0.971251 16:-0.996599 17:-1 18:-0.970055 20:-1 21:-0.886832 
-0 -0 -26.17328810311433 -0 -0 -0 -0 -5.992626655206721 -0 -0 -0 -0 -72.63780342498028 -0 -0 -0 7027.315238092207 10858.6511469009 937.5238661099484 14897.72212266499 32768 1:-0.986311 2:-0.838188 3:-0.992503 4:-0.924936 5:-1 6:-0.786638 7:-1 8:-1 9:-0.934211 10:-1 11:-0.618605 12:-1 13:-0.979045 14:-1 15:-0.979707 16:-0.977466 17:-1 18:-0.828999 20:-1 21:-0.904296 
-0 -0 -0 -0 -0 -0 -0 -0 -0 -0 -0 -0 -0 -0 -0 -0 0 1234.339680890699 14542.79251075673 3681.683024309363 10766.47565149184 1:-0.960609 2:-0.588997 3:-1 4:-0.891385 5:-1 6:-0.614224 7:-0.574661 8:-1 9:-0.565789 10:-1 11:-0.11938 12:-1 13:-1 14:-1 15:-1 16:-0.967262 17:-1 18:-0.92041 20:-1 21:-0.815229 
-0 -0 -0 -0 -0 -0 -0 -0 -0 -0 -0 -0 -0 -0 -0 -0 14242.04667619598 8024.045241505526 0 0 32768 1:-0.965358 2:-0.686084 3:-1 4:-0.938584 5:-1 6:-0.544181 7:-1 8:-1 9:-0.868421 10:-1 11:-0.696124 12:-1 13:-1 14:-1 15:-1 16:-1 17:-1 18:-0.888101 20:-1 21:-0.869019 
-0 -0 -0 -0 -0 -0 -0 -0 -0 -0 -0 -0 -0 -0 -0 -0 2939.058061851988 0 0 0 2167.030708384967 1:-0.979327 2:-0.893204 3:-0.993686 4:-0.945408 5:-1 6:-0.701509 7:-1 8:-1 9:-0.75 10:-1 11:-0.962791 12:-0.998339 13:-0.99612 14:-1 15:-0.978579 16:-0.980867 17:-1 18:-0.930654 20:-1 21:-0.849459 
-0 -0 -0 -0 -0 -0 -0 -0 -10.68861477623737 -0 -0 -0 -123.5585764420614 -0 -0 -0 0 0 0 9904.44905201131 0 1:-0.982959 2:-0.84466 3:-0.982638 4:-0.977822 5:-1 6:-0.884698 7:-1 8:-0.983051 9:-0.710526 10:-1 11:-0.665116 12:-0.996457 13:-0.995731 14:-1 15:-0.948703 16:-0.991497 17:-1 18:-0.927502 20:-1 21:-0.950052 
-0 -0 -0 -0 -0 -0 -0 -0 -0 -0 -0 -0 -0 -0 -0 -0 32768 0 0 2943.518637434135 0 1:-0.970666 2:-0.799353 3:-0.992108 4:-0.968723 5:-1 6:-0.578664 7:-1 8:-1 9:-0.828947 10:-1 11:-0.832558 12:-1 13:-0.992239 14:-1 15:-0.975197 16:-0.991497 17:-1 18:-0.903861 20:-1 21:-0.800559 
-0 -0 -0 -0 -0 -0 -0 -17.4527131323804 -0 -0 -0 -0 -0 -0 -0 -0 0 0 0 0 0 1:-0.963403 2:-0.621359 3:-0.987176 4:-0.95735 5:-1 6:-0.712284 7:-0.638009 8:-1 9:-0.921053 10:-1 11:-0.866667 12:-0.994022 13:-0.965076 14:-1 15:-0.96336 16:-0.99915 17:-1 18:-0.925138 20:-1 21:-0.926301 
-1292.191467273116 -0 -0 -0 -0 -0 -0 -0 -0 -0 -0 -0 -0 -0 -0 -0 0 0 7490.317809241509 0 0 1:-0.97793 2:-0.508091 3:-0.979678 4:-0.973273 5:-1 6:-0.741379 7:-0.040724 8:-0.771186 9:-0.697368 10:-1 11:-0.336434 12:-0.99214 13:-0.993791 14:-1 15:-0.956032 16:-1 17:-1 18:-0.98424 20:-1 21:-0.896961 
-0 -2.181732829579887 -10.21848989663219 -0 -40.65376754592666 -23.70956971891802 -36.92737308881542 -16.51736552654657 -0 -76.77403060763439 -102.1704658426635 -78.76208704081853 -0 -126.4373538827894 -214.8885823144707 -0 0 0 0 15533.83783655764 0 1:-0.969549 2:-0.951456 3:-0.972576 4:-0.911288 5:-1 6:-0.515086 7:-1 8:-1 9:-0.592105 10:-1 11:-0.717829 12:-0.994575 13:-1 14:-1 15:-0.94363 16:-0.995323 17:-1 18:-0.79275 20:-1 21:-0.821167 
-0 -0 -64.53187795768827 -2.445289819526731 -0 -0 -0 -0 -1097.579438953096 -533.3550697827013 -67.13033097834459 -0 -260.4729498229697 -0 -0 -189.7078211797024 0 0 0 0 24475.3488439378 1:-0.966476 2:-0.783172 3:-0.979087 4:-0.932897 5:-1 6:-0.90625 7:-0.819005 8:-0.838983 9:-0.789474 10:-1 11:-1 12:-1 13:-0.967404 14:-1 15:-0.966742 16:-0.974915 17:-1 18:-0.93223 20:-1 21:-0.973804 
-0 -0 -0 -0 -32.62237152893983 -0 -0 -21.14735861235152 -0 -0 -313.904494622224 -0 -0 -0 -0 -431.8645545359024 0 0 0 0 0 1:-0.983797 2:-0.857605 3:-0.981059 4:-0.951663 5:-1 6:-0.802802 7:-1 8:-1 9:-1 10:-1 11:-0.897674 12:-0.996679 13:-0.994179 14:-1 15:-0.953213 16:-0.977891 17:-1 18:-0.910165 20:-1 21:-0.927 
-0 -0 -0 -0 -0 -0 -0 -0 -0 -16.67470028827316 -0 -0 -0 -0 -0 -0 3961.73102689264 0 1626.400610553173 19816.53195677506 18991.81384681706 1:-0.988267 2:-0.838188 3:-0.985005 4:-0.943702 5:-1 6:-0.934267 7:-0.466063 8:-0.864407 9:-0.486842 10:-1 11:-0.869767 12:-0.998893 13:-0.973225 14:-1 15:-0.985908 16:-0.928146 17:-1 18:-0.858156 20:-1 21:-0.946909 
-0 -0 -0 -0 -0 -0 -0 -0 -341.1659247642173 -0 -0 -0 -237.6666319040907 -0 -0 -0 0 0 26841.29087752394 15480.62866438803 17914.04099734502 1:-0.995251 2:-0.932039 3:-0.990332 4:-0.954507 5:-1 6:-0.821121 7:-1 8:-1 9:-0.828947 10:-1 11:-0.652713 12:-0.999779 13:-0.985254 14:-1 15:-0.975761 16:-0.973214 17:-1 18:-0.918834 20:-1 21:-0.912679 
-0 -3.859293509164018 -0 -0 -29.13008966631119 -105.2977980817541 -0 -12.96085846848894 -423.6557837357099 -348.9423528763645 -1625.924924231686 -134.1459516670814 -421.3260221846515 -282.4933786975352 -216.621425332347 -339.7329859791738 0 0 0 0 0 1:-0.987149 2:-0.977346 3:-0.973168 4:-0.994882 5:-1 6:-0.657328 7:-1 8:-1 9:-1 10:-1 11:-0.829457 12:-0.992693 13:-0.992239 14:-1 15:-0.829763 16:-0.991922 17:-1 18:-0.955083 20:-1 21:-0.841425 
-0 -0 -0 -5.803831476684091 -0 -0 -0 -0 -0 -0 -0 -27.01553824824941 -191.4241439190285 -66.83656164147631 -6.083487887473834 -0 0 0 0 2348.908569076856 0 1:-0.973739 2:-0.851133 3:-0.949887 4:-1 5:-1 6:-0.633621 7:-0.628959 8:-0.677966 9:-1 10:-1 11:-0.491473 12:-0.972102 13:-1 14:-1 15:-0.827508 16:-1 17:-1 18:-1 20:-1 21:-0.807894 
-0 -14.66195413551825 -0 -0 -4.270731320949243 -0 -15.86349855827564 -5.438853739254028 -0 -0 -0 -98.69312693942744 -0 -42.62165823960184 -0 -0 0 0 0 0 0 1:-0.969269 2:-0.94822 3:-0.962908 4:-0.985783 5:-1 6:-0.40625 7:-1 8:-1 9:-1 10:-1 11:-0.677519 12:-0.987047 13:-0.996896 14:-1 15:-0.895152 16:-1 17:-1 18:-0.983452 20:-1 21:-0.771568 
-0 -0 -0 -0 -0 -0 -0 -0 -0 -0 -0 -0 -0 -0 -0 -0 0 8855.265343344116 1442.866426562523 9823.613118784862 0 1:-0.974857 2:-0.61165 3:-0.974549 4:-0.981234 5:-1 6:-0.618534 7:-0.420814 8:-1 9:-0.934211 10:-1 11:-0.134884 12:-0.98904 13:-0.998836 14:-1 15:-0.942503 16:-1 17:-1 18:-0.923562 20:-1 21:-0.794272 
-0 -0 -0 -4.985740849189101 -0 -0 -0 -0 -0 -0 -0 -0 -0 -0 -0 -0 3239.529090062624 1130.871659732827 7540.556168199179 4828.819216944325 8603.169841581419 1:-0.971225 2:-0.411003 3:-0.973365 4:-0.976685 5:-1 6:-0.653017 7:-0.674208 8:-0.525424 9:-0.407895 10:-1 11:0.00465116 12:-0.989704 13:-0.994567 14:-1 15:-0.97407 16:-0.998724 17:-1 18:-0.970055 20:-1 21:-0.849109 
-2314.907741255832 -0.1732847814788547 -0 -1.721005515402478 -0 -0 -0 -0 -0 -0 -0 -0 -0 -0 -0 -0 0 0 1224.425733207663 0 0 1:-0.954742 2:-0.139159 3:-0.977903 4:-0.969861 5:-1 6:-0.516164 7:0.384615 8:-1 9:-0.421053 10:-1 11:0.0573643 12:-0.983837 13:-0.994955 14:-1 15:-0.943067 16:-0.997449 17:-1 18:-0.960599 20:-1 21:-0.822564 
-21379.7785636521 -0 -0 -0 -0 -0 -0 -0 -0 -0 -0 -0 -0 -0 -0 -0 25579.48152444961 0 0 0 32768 1:-0.989105 2:-0.81877 3:-0.996054 4:-0.984646 5:-1 6:-0.891164 7:-0.936652 8:-0.966102 9:-1 10:-1 11:-0.894574 12:-1 13:-1 14:-1 15:-0.997745 16:-0.996173 17:-1 18:-0.978723 20:-1 21:-0.98044 
-0 -0 -0 -0 -0 -0 -0 -0 -0 -0 -0 -0 -0 -0 -0 -0 0 0 32768 0 32768 1:-0.992736 2:-0.656958 3:-0.982441 4:-0.959625 5:-1 6:-0.952586 7:-0.520362 8:-0.983051 9:-0.552632 10:-1 11:-0.454264 12:-0.997897 13:-0.976329 14:-1 15:-0.990417 16:-0.976616 17:-1 18:-0.927502 20:-1 21:-0.995809 
-1163.260539199178 -2.831379223521308 -7.992828859753305 -0 -0 -0 -0 -16.47557279135514 -0 -0 -0 -0 -0 -0 -0 -0 -5638.854871019106 1221.590503382375 1229.566905507015 2506.95059266075 32768 1:-0.967035 2:-0.521036 3:-0.998027 4:-0.869207 5:-1 6:-0.713362 7:-0.339367 8:-1 9:-1 10:-1 11:-0.522481 12:-0.998893 13:-0.976717 14:-1 15:-1 16:-0.887755 17:-1 18:-0.886525 20:-1 21:-0.918966 
-636.9497045048614 -0 -0 -7.310766366052521 -0 -0 -0 -0 -60.72105989213436 -0 -0 -0 -0 -0 -0 -0 -0 22.49123934137821 1581.297298869405 2844.699713794983 3577.210679971549 1:-0.981003 2:-0.2589 3:-0.988359 4:-0.912425 5:-1 6:-0.767241 7:0.18552 8:-0.788136 9:-0.289474 10:-1 11:-0.255814 12:-1 13:-0.98603 14:-1 15:-0.988726 16:-0.868622 17:-1 18:-0.829787 20:-1 21:-0.959483 
-0 -0 -0 -0 -0 -0 -0 -0 -0 -0 -0 -0 -0 -0 -0 -0 -15799.99596775604 549.4815775935202 402.2438854767597 5662.791119626949 11538.87454914723 1:-0.970946 2:-0.478964 3:-1 4:-0.986921 5:-1 6:-0.752155 7:-0.927602 8:-1 9:-0.934211 10:-1 11:-0.435659 12:-1 13:-1 14:-1 15:-1 16:-1 17:-1 18:-0.921198 20:-1 21:-0.816277 
-32768 -4.347568921251497 -0 -0 -75.25182943625899 -86.33695161801816 -0 -42.92977496517967 -0 -56.48360675007545 -292.0188357466407 -49.30017717399559 -0 -78.73207571624684 -0 -233.4997698308763 -25255.5274817998 0 0 0 32768 1:-0.980724 2:-0.941748 3:-1 4:-0.996019 5:-1 6:-0.626078 7:-1 8:-1 9:-1 10:-1 11:-0.894574 12:-1 13:-1 14:-1 15:-1 16:-0.997874 17:-1 18:-0.959811 20:-1 21:-0.869019 
-5284.831337783646 -11.04249212605357 -0 -2.762064236717413 -9.888812395186726 -0 -33.07462935035085 -0 -0 -0 -0 -89.3562413436304 -0 -108.5575652221108 -127.1132492163779 -0 -32768 1593.359848488058 4883.240361573703 7683.734026321621 4480.956123400933 1:-0.970946 2:-0.857605 3:-1 4:-0.944839 5:-1 6:-0.552802 7:-1 8:-1 9:-0.776316 10:-1 11:-0.832558 12:-1 13:-1 14:-1 15:-1 16:-0.995323 17:-1 18:-0.937746 20:-1 21:-0.830947 
-3522.695539018573 -0 -0 -0 -0 -0 -9.31247054290267 -0 -0 -0 -0 -0 -47.98318047824129 -16.06679348913353 -0 -0 -632.8442404205612 6216.355769497556 2784.185781490382 12205.56205490074 13651.1179792967 1:-0.972622 2:-0.666667 3:-1 4:-1 5:-1 6:-0.40625 7:-0.782805 8:-1 9:-1 10:-1 11:-0.0852713 12:-1 13:-1 14:-1 15:-1 16:-1 17:-1 18:-1 20:-1 21:-0.791827 
-9.108623458395929 -0.6363897399715701 -0.8750033115740189 -0.8336149616865461 -0.6979144159399693 -0.8824535387230694 -0.2079964529911777 -0.806642714817329 -7.890851444082406 -5.37985739486941 -8.73827868831366 -0.8536678918070324 -1.526945818006604 -0.7784275975146193 -0 -3.752040606856012 -0 6.09514792521226 0 0 22.80337182257659 1:-0.999441 2:-0.987055 3:-0.995857 4:-0.976685 5:-0.92 6:-0.881466 7:-0.846154 8:-0.974576 9:-1 10:-1 11:-0.810853 12:-1 13:-0.98409 14:-1 15:-0.972379 16:-0.987245 17:1 18:-0.871552 20:-0.7875 21:-0.891722 
-3059.147503095083 -0 -44.53670092104542 -3.380897567464463 -0 -8.542988891488351 -0 -3.100851899118844 -1329.843925831978 -450.3340908806669 -279.6153567892718 -0 -500.3086853967773 -0 -0 -549.180516649203 -9728.305113444972 0 0 0 32768 1:-0.987428 2:-0.854369 3:-0.981059 4:-0.985215 5:-1 6:-0.867457 7:-1 8:-0.79661 9:-1 10:-1 11:-0.95969 12:-0.997122 13:-0.98409 14:-1 15:-0.973506 16:-0.996173 17:-1 18:-0.964539 20:-1 21:-0.938875 
-0 -0 -8.231222699289415 -0 -8.9623892498981 -10.95993106163183 -0 -11.08882656504301 -772.0524126750997 -218.1352965554329 -228.6855190083313 -0 -183.6130856821122 -0 -0.2402606142764691 -67.39258034793481 -15334.08870683088 874.7634809667178 7223.154679179886 24764.57781924258 32768 1:-0.985193 2:-0.857605 3:-0.985005 4:-0.93176 5:-1 6:-0.887931 7:-1 8:-1 9:-0.434211 10:-1 11:-0.748837 12:-0.98738 13:-0.987971 14:-1 15:-0.961105 16:-0.929847 17:-1 18:-0.801418 20:-1 21:-0.969612 
-0 -0 -37.32990816597722 -0 -0 -0 -0 -0 -501.2897060882424 -116.0662163845595 -274.2318559782599 -56.16172988471826 -193.0933973748102 -90.59004483955756 -165.199440102233 -10.73670759664989 -4410.615749190354 625.198684874692 4599.342633556367 21237.08524357482 32768 1:-0.985473 2:-0.97411 3:-0.999014 4:-0.944839 5:-1 6:-0.806034 7:-0.846154 8:-0.745763 9:-0.684211 10:-1 11:-0.820155 12:-0.99845 13:-0.976329 14:-1 15:-0.988726 16:-0.994898 17:-1 18:-0.894405 20:-1 21:-0.861334 
-791.6023295719029 -0 -0 -0 -0 -0 -0 -0 -0 -0 -0 -0 -0 -0 -0 -0 -7030.386023653354 -1277.021135299216 17114.93568323295 0 24820.57631263186 1:-0.974298 2:-0.569579 3:-0.984808 4:-0.947114 5:-1 6:-0.619612 7:-0.411765 8:-1 9:-0.815789 10:-1 11:-0.314729 12:-0.998561 13:-0.982926 14:-1 15:-0.997182 16:-0.98852 17:-1 18:-0.86052 20:-1 21:-0.882641 
-0 -0 -0 -0 -0 -0 -0 -0 -0 -0 -0 -0 -0 -0 -0 -0 -157.5006302183992 -1063.418149967962 574.0413486671442 697.1013421486228 9882.140875703348 1:-0.981003 2:-0.724919 3:-1 4:-0.941996 5:-1 6:-0.757543 7:-0.357466 8:-1 9:-0.618421 10:-1 11:0.243411 12:-1 13:-1 14:-1 15:-1 16:-0.92602 17:-1 18:-0.895193 20:-1 21:-0.911282 
-296.5763949669589 -0 -0 -0 -0 -0 -0 -0 -0 -0 -0 -0 -0 -0 -0 -0 -0 -3799.331138111062 0 0 0 1:-0.956139 2:-0.618123 3:-1 4:-0.983509 5:-1 6:-0.128233 7:-0.800905 8:-1 9:-1 10:-1 11:-0.47907 12:-1 13:-1 14:-1 15:-1 16:-0.997449 17:-1 18:-0.966115 20:-1 21:-0.713587 
-0 -6.408023098086987 -0 -0 -2.501659609639477 -0 -39.60017832769568 -0.3241602902788432 -0 -0 -81.4599567932476 -18.50125626753858 -0 -74.94456413147277 -45.86243492978707 -0 -0 -0 0 0 4173.276074368336 1:-0.9824 2:-0.919094 3:-1 4:-0.933466 5:-1 6:-0.273707 7:-0.99095 8:-1 9:-1 10:-1 11:-0.308527 12:-1 13:-1 14:-1 15:-1 16:-0.972789 17:-1 18:-0.865248 20:-1 21:-0.554314 
-0 -0 -0 -0.1484135692784115 -0 -0 -0 -0 -0 -0 -0 -0 -0 -0 -0 -0 -639.219503548861 -0 0 209.2726728819721 0 1:-0.974577 2:-0.411003 3:-0.997435 4:-0.882855 5:-1 6:-0.595905 7:-0.19457 8:-1 9:-0.171053 10:-1 11:0.553488 12:-1 13:-0.992239 14:-1 15:-0.999436 16:-0.971088 17:-1 18:-0.874704 20:-1 21:-0.860286 
-37.95989292087091 -2.648274396015009 -0 -6.922068466257385 -1.704228347092148 -0 -0 -0 -0 -12.40351885306748 -0 -25.54896939689825 -0 -0 -0 -0 -653.569766347105 -0 3148.972433275532 1826.182227124468 13905.10626919332 1:-0.953066 2:-0.783172 3:-1 4:-1 5:-1 6:-0.100216 7:-0.963801 8:-1 9:-1 10:-1 11:-0.606202 12:-1 13:-1 14:-1 15:-1 16:-1 17:-1 18:-1 20:-1 21:-0.617883 
-0 -0 -0 -0 -0 -0 -0 -0 -0 -0 -0 -0 -0 -0 -0 -0 -0 -0 0 0 1052.740830919085 1:-0.98687 2:-0.802589 3:-0.993489 4:-0.957919 5:-1 6:-0.788793 7:-1 8:-0.991525 9:-0.776316 10:-1 11:-0.32093 12:-0.999114 13:-1 14:-1 15:-0.977452 16:-0.998724 17:-1 18:-0.84476 20:-1 21:-0.862382 
-944.781835784304 -0 -0 -0 -0 -0 -0 -0 -0 -0 -0 -0 -68.42290477002693 -0 -0 -27.26028045075006 -10698.68312729827 -4595.891006463566 0 12409.61129716427 32768 1:-0.99106 2:-0.809061 3:-1 4:-0.969861 5:-1 6:-0.771552 7:-1 8:-1 9:-0.934211 10:-1 11:-0.386047 12:-1 13:-1 14:-1 15:-1 16:-1 17:-1 18:-0.895981 20:-1 21:-0.858889 
-0 -10.64418869025512 -45.52926772376124 -0 -64.84053091497115 -94.17580169683306 -0 -62.5460887873933 -100.6435776209672 -145.6052549947153 -237.3518614233392 -77.5961853154829 -163.1271744437458 -121.7420258683037 -68.71826456671813 -93.90644924816091 -8383.570623172905 -0 0 0 2965.6359712158 1:-0.966196 2:-0.669903 3:-0.999605 4:-0.953938 5:-1 6:-0.544181 7:-0.945701 8:-1 9:-1 10:-1 11:-0.727132 12:-1 13:-1 14:-1 15:-0.981962 16:-0.999575 17:-1 18:-0.835303 20:-1 21:-0.823961 
-0 -0 -2.362915573669235 -0 -15.61923439808952 -1.321892773487997 -16.55487143557374 -9.489934419459507 -150.894797322936 -54.01803684863417 -109.34090745555 -46.24898537777493 -19.01434980041464 -5.519801884520527 -104.0926032225896 -28.72296477683545 -1047.950867214804 -0 0 7.899745660670299 0 1:-0.983238 2:-0.847896 3:-1 4:-0.941996 5:-1 6:-0.755388 7:-0.809955 8:-1 9:-0.552632 10:-1 11:-0.550388 12:-1 13:-1 14:-1 15:-1 16:-0.997449 17:-1 18:-0.78093 20:-1 21:-0.875306 
-436.4966179732581 -0 -31.25778304614988 -6.776255800560506 -0 -0 -0 -0 -49.87543867284909 -94.07774911437077 -0 -0 -37.79550390546769 -34.55251396389141 -0 -4.18857909576693 -1492.292530920383 -373.6748222277024 4643.268929149214 2924.078051185734 7088.344332983712 1:-0.98659 2:-0.763754 3:-0.993884 4:-0.912994 5:-1 6:-0.867457 7:-0.60181 8:-0.610169 9:-0.697368 10:-1 11:-0.342636 12:-0.998782 13:-0.995731 14:-1 15:-0.988726 16:-0.966837 17:-1 18:-0.828999 20:-1 21:-0.937129 
-10298.01263526268 -0 -0 -0 -0 -0 -0 -0 -0 -0 -0 -0 -0 -0 -0 -0 -32768 -0 -0 0 32768 1:-0.998883 2:-0.851133 3:-0.994673 4:-0.984646 5:-1 6:-0.924569 7:-0.864253 8:-1 9:-0.684211 10:-1 11:-0.55969 12:-0.997343 13:-1 14:-1 15:-0.987035 16:-0.993622 17:-1 18:-0.985028 20:-1 21:-0.948655 
-2867.016417863881 -0 -0 -0 -0 -0 -0 -0 -0 -0 -0 -0 -0 -0 -0 -0 -28474.07066965412 -1994.497598993873 -4656.607055325501 7173.183208801228 9407.295556816473 1:-0.981003 2:-0.365696 3:-0.991319 4:-0.955075 5:-1 6:-0.798491 7:-0.303167 8:-0.822034 9:-0.5 10:-1 11:-0.203101 12:-0.994022 13:-0.969344 14:-1 15:-0.983089 16:-0.987245 17:-1 18:-0.952719 20:-1 21:-0.933636 
-734.0007001816577 -0 -0 -16.94311523768648 -0 -0 -0.5310378018239333 -4.883830789922594 -33.86585699078686 -29.77373592807895 -0 -2.675102992164659 -0 -0 -0 -0 -2884.228249803678 -2707.803720925916 -2924.144097638797 6254.605721616124 2059.230512847221 1:-0.977651 2:-0.430421 3:-0.988951 4:-0.926642 5:-1 6:-0.337284 7:-0.538462 8:-0.669492 9:-0.605263 10:-1 11:-0.525581 12:-0.997122 13:-0.961195 14:-1 15:-0.986471 16:-0.980867 17:-1 18:-0.921198 20:-1 21:-0.608802 
-2320.732736010162 -13.79314999817156 -4.67030807070759 -0 -60.05150592384985 -54.85311936162174 -38.82806441829466 -12.52476505595736 -0 -57.51322282802461 -178.5057452599978 -137.0937042212933 -43.06076594059996 -117.0165619979944 -127.4202063277449 -33.03143692536703 -407.8996278611492 -652.1384050831047 -0 0 20529.02887110987 1:-0.984355 2:-0.928803 3:-1 4:-0.969292 5:-1 6:-0.189655 7:-1 8:-1 9:-1 10:-1 11:-0.782946 12:-1 13:-1 14:-1 15:-1 16:-0.989796 17:-1 18:-0.941686 20:-1 21:-0.536849 
-0 -7.092886173283859 -24.29944795292909 -0 -15.76405194996523 -15.08395580720258 -16.73813486253568 -52.88967370491141 -0 -0 -117.552547101047 -10.91273011774562 -0 -70.53591687765883 -18.54456571854052 -0 -6530.993384847994 -1248.295865767902 -6267.536217370391 6683.509331390097 17928.13089103245 1:-0.969269 2:-0.932039 3:-0.996251 4:-0.896503 5:-1 6:-0.482759 7:-0.58371 8:-1 9:-0.986842 10:-1 11:-0.534884 12:-1 13:-0.98409 14:-1 15:-0.978579 16:-0.960459 17:-1 18:-0.748621 20:-1 21:-0.842822 
-0 -0 -0 -0 -0 -0 -0 -0 -0 -0 -0 -0 -77.46370408592239 -0 -0 -48.4323863355818 -5033.922481128019 -3099.213065395625 -0 9664.832894914229 23379.60593187861 1:-0.98659 2:-0.747573 3:-1 4:-0.977822 5:-1 6:-0.705819 7:-0.683258 8:-1 9:-0.894737 10:-1 11:-0.649612 12:-1 13:-1 14:-1 15:-1 16:-1 17:-1 18:-0.878645 20:-1 21:-0.907789 
-0 -0 -0 -0 -0 -0 -0 -0 -0 -0 -0 -0 -0 -0 -0 -0 -15535.31288951315 -0 -2099.07250560168 11015.45098273045 22412.60071953574 1:-0.987428 2:-0.699029 3:-0.989149 4:-0.928348 5:-1 6:-0.767241 7:-0.457014 8:-0.991525 9:-0.763158 10:-1 11:-0.0666667 12:-1 13:-0.989135 14:-1 15:-0.980271 16:-0.92517 17:-1 18:-0.900709 20:-1 21:-0.880196 
-0 -0 -54.44298680011102 -0 -21.77586296252145 -28.04346187772552 -1.56278146242974 -9.253376474627068 -801.3042147340472 -342.4915278343482 -432.4700045653175 -84.83602966460987 -278.9354354887833 -118.6053546441814 -136.2637909140961 -147.6274477959549 -11992.86938567907 -13001.0828894871 -825.7300523542397 32768 32768 1:-0.989384 2:-0.932039 3:-1 4:-0.936878 5:-1 6:-0.849138 7:-1 8:-1 9:-0.578947 10:-1 11:-0.742636 12:-1 13:-1 14:-1 15:-1 16:-0.96216 17:-1 18:-0.877857 20:-1 21:-0.929445 
-7640.643833420915 -0 -0 -0 -0 -0 -0 -0 -0 -0 -0 -0 -0 -0 -0 -0 -0 -0 -8708.128466034221 0 32768 1:-0.983238 2:-0.61165 3:-1 4:-0.986921 5:-1 6:-0.630388 7:-0.502262 8:-1 9:-0.960526 10:-1 11:-0.265116 12:-1 13:-1 14:-1 15:-1 16:-0.99915 17:-1 18:-0.952719 20:-1 21:-0.885784 
-0 -0 -0 -0 -0 -0 -0 -0 -0 -0 -0 -0 -0 -0 -0 -0 -0 -0 -0 -1555.845267493711 0 1:-0.999162 2:-0.828479 3:-0.991319 4:-0.951663 5:-1 6:-0.765086 7:-0.701357 8:-0.813559 9:-1 10:-1 11:-0.327132 12:-1 13:-0.977493 14:-1 15:-0.993236 16:-0.942177 17:-1 18:-0.903073 20:-1 21:-0.782745 
-0 -0 -0 -0 -0 -0 -0 -2.537490593633293 -0 -0 -0 -0 -0 -0 -0 -0 -0 -2359.518026271943 -2775.821604963398 -720.9119259487674 11846.18797072225 1:-0.970387 2:-0.478964 3:-1 4:-0.844754 5:-1 6:-0.633621 7:-0.58371 8:-1 9:-0.842105 10:-1 11:-0.172093 12:-1 13:-1 14:-1 15:-1 16:-0.852891 17:-1 18:-0.847912 20:-1 21:-0.74153 
-0 -5.484401408577784 -0 -0 -49.3589110386702 -38.5810668070968 -17.32199044839546 -10.62323534031661 -0 -54.87196095126089 -429.6973982528746 -122.120742443451 -145.7425445036731 -172.2579363205365 -135.6717702831026 -79.36640845568699 -29121.45969569249 -8640.557266632806 -1883.268662425915 -14204.12567514969 28552.69149578519 1:-0.982679 2:-0.987055 3:-0.988162 4:-0.94882 5:-1 6:-0.670259 7:-1 8:-0.991525 9:-0.605263 10:-1 11:-0.637209 12:-0.997675 13:-0.979821 14:-1 15:-0.959977 16:-0.981718 17:-1 18:-0.858156 20:-1 21:-0.870416 
-0 -0 -0 -0 -0 -0 -0 -0 -0 -0 -0 -0 -0 -0 -0 -0 -821.8292066889657 -0 -0 -2192.782303388709 13158.22734667499 1:-0.977651 2:-0.673139 3:-0.988162 4:-0.929485 5:-1 6:-0.679957 7:-0.828054 8:-1 9:-0.526316 10:-1 11:-0.432558 12:-0.995793 13:-0.982538 14:-1 15:-0.972379 16:-0.97449 17:-1 18:-0.892041 20:-1 21:-0.836535 
-782.0064262215051 -0 -0 -0 -0 -0 -0 -0 -0 -0 -0 -0 -0 -0 -0 -0 -18134.13198639138 -2767.180600874191 -269.8369997091527 -19021.86011443379 29129.64310574766 1:-0.977092 2:-0.702265 3:-0.994081 4:-0.95735 5:-1 6:-0.695043 7:-0.719457 8:-0.983051 9:-0.881579 10:-1 11:-0.541085 12:-1 13:-1 14:-1 15:-0.981398 16:-0.94898 17:-1 18:-0.881797 20:-1 21:-0.879846 
-15.36285572324298 -0 -0 -0 -0 -0 -0 -0 -0 -0 -0 -0 -0 -0 -0 -0 -0 -0 -0 -0 32768 1:-0.975416 2:-0.770227 3:-0.992108 4:-0.943133 5:-1 6:-0.830819 7:-0.764706 8:-0.830508 9:-0.789474 10:-1 11:-0.531783 12:-0.998782 13:-0.989523 14:-1 15:-0.999436 16:-0.951956 17:-1 18:-0.909377 20:-1 21:-0.959134 
-0 -0 -18.95428978776088 -0 -0 -0 -0 -0 -0 -0 -0 -0 -0 -0 -0 -0 -10247.36843313882 -8432.266399138662 -0 -10579.43915128994 32768 1:-0.977371 2:-0.734628 3:-0.995068 4:-0.932329 5:-1 6:-0.890086 7:-0.628959 8:-0.745763 9:-0.802632 10:-1 11:-0.556589 12:-1 13:-0.982926 14:-1 15:-0.996618 16:-0.972789 17:-1 18:-0.902285 20:-1 21:-0.964024 
-0 -1.626055265554369 -7.864995420101151 -0 -8.479839109382253 -34.80317792798935 -0 -35.53477934557456 -178.1203550301463 -96.81207472780395 -150.8806291632253 -39.52591102123347 -520.6334696095192 -60.69054690384462 -30.09313354898682 -162.7867465386777 -14289.30315880663 -0 -0 -0 10550.26599328924 1:-1 2:-0.834951 3:-0.993292 4:-0.971567 5:-1 6:-0.800647 7:-0.728507 8:-0.881356 9:-0.986842 10:-1 11:-0.674419 12:-1 13:-0.999612 14:-1 15:-0.883315 16:-1 17:-1 18:-0.923562 20:-1 21:-0.835138 
-272.2909261412665 -0 -0 -2.48976251089986 -0 -0 -0 -0 -0 -0 -0 -0 -0 -0 -0 -0 -3879.803724616369 -2248.807165797556 -0 -6574.373877220893 0 1:-0.989105 2:-0.533981 3:-1 4:-0.949957 5:-1 6:-0.489224 7:0.131222 8:-1 9:-0.526316 10:-1 11:0.246512 12:-1 13:-1 14:-1 15:-1 16:-0.985969 17:-1 18:-0.855004 20:-1 21:-0.681802 
-528.6696214287435 -12.47252768178924 -17.06506203598529 -12.18626704781898 -20.69407944338957 -17.43824510807307 -29.9450246236221 -13.9694401990164 -41.09755251077908 -101.6896957022463 -117.622963017776 -115.1223785552449 -2.86131299928115 -234.5449991484129 -145.6460866229885 -0 -816.216625471473 -8592.979055248854 -0 -0 3121.917943391631 1:-0.970666 2:-0.789644 3:-0.992108 4:-1 5:-1 6:-0.313578 7:-0.9819 8:-0.686441 9:-1 10:-1 11:-0.603101 12:-1 13:-1 14:-1 15:-0.890643 16:-1 17:-1 18:-1 20:-1 21:-0.650367 
-0 -0 -0 -0 -0 -0 -0 -0 -0 -0 -0 -0 -0 -0 -0 -0 -1557.643791231631 -0 -354.779496267255 -0 0 1:-0.979327 2:-0.462783 3:-0.990332 4:-0.986921 5:-1 6:-0.642241 7:-0.846154 8:-0.720339 9:-0.631579 10:-1 11:0.0325581 12:-1 13:-1 14:-1 15:-0.97407 16:-1 17:-1 18:-0.98818 20:-1 21:-0.73175 
-1861.526498384492 -0 -40.33383536389146 -0.1880148655938537 -1.928760341921561 -0 -0 -6.572687727584874 -625.5774720094673 -255.6147316777493 -0 -0 -0 -0 -0 -6.824359290807496 -23852.2885667117 -32768 -0 -16963.86224019422 32768 1:-0.984076 2:-0.799353 3:-0.993095 4:-0.930054 5:-1 6:-0.842672 7:-0.891403 8:-1 9:-0.447368 10:-1 11:-0.795349 12:-0.999889 13:-0.98215 14:-1 15:-1 16:-0.947704 17:-1 18:-0.855004 20:-1 21:-0.953895 
-343.1693178499769 -0 -0 -0 -0 -0 -0 -0 -0 -0 -0 -0 -40.32939100152247 -0 -0 -9.445899230757904 -5731.916043606714 -11096.09205615838 -11848.89233066766 -1746.381584332336 32768 1:-0.997486 2:-0.860841 3:-0.999014 4:-0.994313 5:-1 6:-0.765086 7:-0.972851 8:-0.915254 9:-1 10:-1 11:-0.451163 12:-1 13:-1 14:-1 15:-0.991545 16:-1 17:-1 18:-0.944838 20:-1 21:-0.858191 
