svm_type c_svc
kernel_type rbf
gamma 0.125
nr_class 22
total_sv 572
rho 0.0534779 -0.0482069 0.610531 0.0305946 0.272442 0.259282 -0.0278184 1.39979 0.633728 2.52334 0.132874 -0.470169 0.436348 -0.614077 -1.16872 -18.8448 -3.36681 -16.0665 5.38738 -13.0613 4.33621 0.0238813 0.816436 -0.303938 -0.603161 -0.748363 -0.129359 -0.49262 -0.189022 0.0874577 -0.450663 -0.548402 -0.399464 -0.537754 -0.31378 -0.209153 -0.261421 -0.137249 -0.316073 -0.267227 -0.0934597 1.03945 1.43798 -0.932452 -0.239999 -0.405373 -0.844454 -0.123442 0.0912879 -0.3526 -0.410941 -0.978452 0.0169629 -0.481434 -0.774355 -0.471877 -0.299105 -0.424733 -0.754777 -0.0925285 -0.987551 -1.32587 -1.12519 -1.07098 -0.897636 -0.706788 -0.55719 -0.986987 -1.01845 -1.0526 -0.993989 -0.842326 -0.754155 -0.772734 -0.670986 -0.952999 -0.823156 -0.605354 -9.46396 -3.75298 -1.63151 -0.528627 -4.04342 0.0708638 -0.752524 -0.305619 -0.607669 -1.12987 -0.121305 -0.246537 -0.0820641 -0.284269 -0.277547 -0.144035 -0.313141 5.64262 -1.9402 0.998246 -3.5492 0.620053 -0.162233 0.905582 -0.627445 0.276281 -0.682334 -0.304835 -0.163564 -0.926039 -0.347749 -0.638314 0.00595453 8.49711 -0.430224 0.0864039 -0.0456967 -0.227857 -0.546241 -0.739069 -0.462475 -0.565365 -0.584096 -0.765255 -0.204083 -0.438243 -0.400609 -0.454284 -1.1677 -0.626341 0.153938 -0.475898 0.153073 -1.41902 -0.298729 -0.242867 -0.160136 -0.0866606 0.0772809 -0.0228004 -0.400125 -0.235929 -13.9059 10.5701 -1.83086 -38.2194 -2.36769 -2.9629 -16.6632 -3.73142 -5.89199 -3.68735 -5.80169 -4.47901 2.9433 8.05503 -26.9622 4.12531 -26.2892 -15.8429 0.983838 -2.38789 -2.15599 -4.61531 -0.610201 -2.26868 1.22784 -5.6466 -23.454 -14.7654 -19.7213 -23.85 -8.80947 -3.49262 0.731394 -0.62939 -7.23223 2.87524 -3.38989 2.08489 -3.32458 -0.0426172 -0.236996 -0.0591094 0.255722 0.413348 0.419165 0.964573 9.91052 1.17471 7.51276 0.405764 1.48899 4.17274 -0.214509 -0.126065 4.46704 23.5693 0.501085 -0.822892 -0.77142 0.985036 0.858873 -0.307933 0.425588 1.17983 -0.673515 -0.164812 2.19714 -0.284166 -1.4648 2.06512 -3.07568 -1.83032 1.05901 -2.91161 -3.88058 -1.71974 20.8327 -9.05002 -3.57755 -24.1619 12.116 -8.91828 -7.60873 -23.7995 7.40152 1.01543 2.97255 12.902 -1.02083 15.7818 29.8137
label 10 20 21 22 30 31 32 33 40 41 42 43 44 45 46 47 50 51 52 53 54 55
nr_sv 44 15 18 11 40 29 18 21 33 49 45 16 17 23 22 19 28 16 33 10 14 51
SV
0 0 0 0 0 0 0 0 0 0 0 0 0 0 0 0 0 721.9068163705138 0 0 2048 1:-0.969608 2:-0.673139 3:-0.999211 4:-0.962468 5:-1 6:-0.71444 7:-0.909502 8:-1 9:-1 10:-1 11:-0.048062 12:-1 13:-0.991463 14:-1 15:-0.996054 16:-0.999575 17:-1 18:-0.951143 20:-1 21:-0.90709 
0 0 0 0 0 0 0 0 0 30.37415146462478 0 0 0 0 0 0 35.52441547163026 1045.937173346376 437.118591923278 851.2268300610521 2048 1:-1 2:-0.925566 3:-1 4:-0.972704 5:-1 6:-0.692888 7:-0.746606 8:-1 9:-0.973684 10:-1 11:-0.203101 12:-1 13:-1 14:-1 15:-1 16:-1 17:-1 18:-0.921198 20:-1 21:-0.748865 
0 0 0 0 0 0 0 0 0 0 0 0 0 0 0 22.7872209181576 0 0 0 0 2048 1:-0.989126 2:-0.906149 3:-1 4:-1 5:-1 6:-0.703664 7:-1 8:-1 9:-1 10:-1 11:-0.792248 12:-1 13:-1 14:-1 15:-1 16:-1 17:-1 18:-1 20:-1 21:-0.831994 
0 0 0 0 0 1.132973550404335 0 0 0 0 0 0 0 0 0 0 0 0 0 0 0 1:-0.975464 2:-0.815534 3:-0.999803 4:-0.970998 5:-1 6:-0.507543 7:-0.701357 8:-0.974576 9:0.0526316 10:-1 11:-0.44186 12:-1 13:-1 14:-1 15:-0.98478 16:-0.995748 17:-1 18:-0.980299 20:-1 21:-0.772616 
0 0 0 0 0 0 0 0 0 0 0 0 0 0 0 2048 0 1821.981142390754 2048 436.0693543125259 2048 1:-0.979925 2:-0.724919 3:-1 4:-0.932329 5:-1 6:-0.741379 7:-0.520362 8:-1 9:-0.565789 10:-1 11:-0.237209 12:-1 13:-1 14:-1 15:-1 16:-0.962585 17:-1 18:-0.918046 20:-1 21:-0.901153 
0 0 0 0 0 0 0 0 0 0 0 0 0 0 0 0 0 0 150.3025517718254 0 2048 1:-0.973512 2:-0.831715 3:-1 4:-0.982371 5:-1 6:-0.682112 7:-0.638009 8:-1 9:-0.657895 10:-1 11:-0.355039 12:-1 13:-1 14:-1 15:-1 16:-1 17:-1 18:-0.925926 20:-1 21:-0.871813 
0 0 0 0 0 0 0 0 0 0 0 0 0 0 0 0 1506.529644580413 0 773.1624466221685 0 2048 1:-0.986059 2:-0.679612 3:-1 4:-1 5:-1 6:-0.677802 7:-0.9819 8:-1 9:-1 10:-1 11:-0.460465 12:-1 13:-1 14:-1 15:-1 16:-0.998724 17:-1 18:-0.951143 20:-1 21:-0.88788 
0 0 0 0 0 0 0 0 0 0 0 0 0 0 0 1207.676298815553 0 0 277.8358102866725 0 0 1:-0.964868 2:-0.634304 3:-1 4:-1 5:-1 6:-0.615302 7:-0.574661 8:-1 9:-1 10:-1 11:-0.705426 12:-1 13:-1 14:-1 15:-1 16:-1 17:-1 18:-1 20:-1 21:-0.861684 
0 0 0 0 0 0 0 0 0 0 0 0 0 0 0 0 0 0 0 0 890.9667931362633 1:-0.963474 2:-0.877023 3:-1 4:-1 5:-1 6:-0.482759 7:-1 8:-1 9:-1 10:-1 11:-0.342636 12:-1 13:-1 14:-1 15:-1 16:-1 17:-1 18:-1 20:-1 21:-0.83409 
0.1077945486239158 0 0 0 0 0 0 0 0 0 0 0 0 0 0 0 0 0 274.7820895587948 0 1362.07625247283 1:-0.984107 2:-0.81877 3:-0.995659 4:-1 5:-1 6:-0.553879 7:-0.040724 8:-1 9:-1 10:-1 11:-0.389147 12:-1 13:-1 14:-1 15:-0.998309 16:-1 17:-1 18:-1 20:-1 21:-0.874607 
0 0 0 0 0 0 0 0 0 0 0 0 0 0 0 2048 979.9725177395096 0 1216.256679826505 544.1438429984585 2048 1:-0.985222 2:-0.669903 3:-0.988951 4:-1 5:-1 6:-0.8125 7:-0.438914 8:-0.855932 9:-1 10:-1 11:-0.463566 12:-0.998118 13:-1 14:-1 15:-0.965614 16:-1 17:-1 18:-1 20:-1 21:-0.873908 
0 0 0 0 0 0 0 0 0 0 0 0 0 0 0 477.7759646848646 8.443887290483628 2048 0 0 1780.339322129254 1:-0.95734 2:-0.79288 3:-1 4:-0.943702 5:-1 6:-0.557112 7:-0.755656 8:-1 9:-0.75 10:-1 11:-0.40155 12:-1 13:-1 14:-1 15:-1 16:-0.988946 17:-1 18:-0.943262 20:-1 21:-0.817324 
0 0 0 0 0 0 0 0 0 0 0 0 0 0 0 2048 0 2048 0 0 2048 1:-0.961244 2:-0.822006 3:-1 4:-0.968723 5:-1 6:-0.640086 7:-1 8:-1 9:-0.855263 10:-1 11:-0.689922 12:-1 13:-1 14:-1 15:-1 16:-1 17:-1 18:-0.93223 20:-1 21:-0.803353 
0 0 0 0 0 0 0 0 0 0 0 0 0 0 0 0 0 0 0 0 1721.529157668997 1:-0.986616 2:-1 3:-1 4:-1 5:-1 6:-0.627155 7:-0.927602 8:-1 9:-1 10:-1 11:-0.826357 12:-1 13:-1 14:-1 15:-1 16:-1 17:-1 18:-1 20:-1 21:-0.766678 
0 0 0 0 0 0 0 0 0 0 0 0 0 0 0 0 0 0 382.9496325840539 0 2048 1:-0.964311 2:-0.517799 3:-1 4:-0.964743 5:-1 6:-0.841595 7:-0.475113 8:-1 9:-0.355263 10:-1 11:-0.609302 12:-1 13:-1 14:-1 15:-1 16:-0.972364 17:-1 18:-0.978723 20:-1 21:-0.967517 
0 0 0 0 0 0 0 0 0 0 0 0 0 0 0 2048 2048 2048 921.304044509193 1470.694357244031 2048 1:-0.974906 2:-0.961165 3:-1 4:-0.916406 5:-1 6:-0.688578 7:-1 8:-1 9:-0.842105 10:-1 11:-0.745736 12:-1 13:-1 14:-1 15:-1 16:-0.952381 17:-1 18:-0.888889 20:-1 21:-0.842473 
0.510522214709153 5.978936623338998 0 4.499997035888385 21.8042170847502 0 12.49184191960839 159.1032097411787 133.243296346086 710.6484064901558 18.2936480734556 299.2957519197051 52.20652515074463 68.07551478100882 147.6457860183362 2048 35.58159265856916 251.1572555247506 48.03506150226396 222.3739117036349 2048 1:-0.973512 2:-0.906149 3:-0.993686 4:-0.926642 5:-1 6:-0.734914 7:-1 8:-1 9:-1 10:-1 11:-0.817054 12:-0.995129 13:-0.945673 14:-1 15:-0.89177 16:-0.997024 17:-1 18:-0.888889 20:-1 21:-0.929445 
0 18.15838687522611 0 0 32.03155421154124 0 0 0 101.3375623210141 557.0599894005718 0 12.4145600164825 0 0 217.2233276606348 846.4142081639922 434.5464500316897 714.3348079071753 0 0 2048 1:-0.966541 2:-1 3:-1 4:-0.89764 5:-1 6:-0.756466 7:-1 8:-1 9:-1 10:-1 11:-1 12:-1 13:-1 14:-1 15:-1 16:-0.935374 17:-1 18:-0.891253 20:-1 21:-0.893468 
3.907338390947128 0 1.794429545669828 27.11637438838635 0 6.334533065477868 15.09619299598367 0 2.460932430658622 0 25.08120667466796 21.04583197202753 40.69966552472118 0 0 806.9547100118963 1490.067529842285 0 120.2218417020801 0 0 1:-0.972675 2:-1 3:-0.986584 4:-0.978959 5:-1 6:-0.511853 7:-1 8:-1 9:-1 10:-1 11:-1 12:-0.998672 13:-0.968956 14:-1 15:-1 16:-0.986395 17:-1 18:-0.907801 20:-1 21:-0.770171 
0.498541551405686 0 0 0 0 2.183282677225503 0 0 0 0 0 0 0.9257185623057819 8.034088574147926 0 887.4712681653583 1178.239346962369 2048 0 661.9370867015894 251.6677238989116 1:-0.989684 2:-0.783172 3:-1 4:-0.959625 5:-1 6:-0.534483 7:-0.665158 8:-1 9:-0.539474 10:-1 11:0.0294574 12:-1 13:-1 14:-1 15:-1 16:-1 17:-1 18:-0.858156 20:-1 21:-0.821865 
0 0 0 0 0 3.947955536571945 0 0 0 74.96744784247669 26.45139711997671 0 16.4995007848094 17.8850162928915 0 1277.359616975947 1205.680668920691 2048 0 0 0 1:-0.962359 2:-0.909385 3:-1 4:-0.994882 5:-1 6:-0.451509 7:-0.99095 8:-1 9:-0.723684 10:-1 11:-0.705426 12:-1 13:-1 14:-1 15:-1 16:-1 17:-1 18:-0.947991 20:-1 21:-0.631156 
0 0 0 0 0 0 0 0 0 0 0 0 0 0 0 0 624.8089817858374 0 0 0 588.0653115342338 1:-0.949254 2:-0.656958 3:-0.996646 4:-0.994882 5:-1 6:-0.780172 7:-0.628959 8:-0.881356 9:-1 10:-1 11:-0.817054 12:-1 13:-1 14:-1 15:-1 16:-1 17:-1 18:-0.990544 20:-1 21:-0.968564 
0 0.6816069997967831 0 0.1154452752620523 0 0 0 75.03317221724609 0.3318232038839932 196.525146846539 0 1.456686480757078 0 18.56717197727892 32.97954358588076 0 0 0 0 114.9536492449022 1135.443870027073 1:-0.968772 2:-0.854369 3:-0.993884 4:-0.918681 5:-1 6:-0.837284 7:-0.882353 8:-1 9:0.171053 10:-1 11:-0.748837 12:-1 13:-0.995343 14:-1 15:-1 16:-0.965136 17:-1 18:-0.871552 20:-1 21:-0.903947 
0 0 0 0 0 0 0 0 0 0 0 0 0 0 0 861.8881912028662 164.5109793727175 0 0 0 0 1:-0.962916 2:-0.537217 3:-1 4:-0.977822 5:-1 6:-0.715517 7:-0.574661 8:-1 9:-0.342105 10:-1 11:-0.593798 12:-1 13:-1 14:-1 15:-1 16:-0.991497 17:-1 18:-0.938534 20:-1 21:-0.885784 
0.5663067329285395 0.3435494202828587 1.195405220932746 0.376330637867992 0.05316272416383884 0.4727326368240719 0.3282705407933786 0 0 0 0.1398763430834477 0 0.1276221501326107 0 0 0 0 0 0.3465293120955548 0 0 1:-0.972675 2:-0.640777 3:-0.99487 4:-0.96588 5:-0.113402 6:-0.851293 7:-0.873303 8:-0.974576 9:-0.736842 10:1 11:-0.6 12:-1 13:-0.993791 14:-1 15:-0.993236 16:-0.991922 17:-1 18:-0.982664 20:-0.625 21:-0.974852 
0 0 0 0 0 0 0 0 0 0 0 0 0 0 0 0 0 0 0 376.3304433706786 0 1:-0.979925 2:-0.566343 3:-1 4:-0.998294 5:-1 6:-0.632543 7:-0.710407 8:-1 9:-0.105263 10:-1 11:-0.125581 12:-1 13:-1 14:-1 15:-1 16:-1 17:-1 18:-0.950355 20:-1 21:-0.847014 
0 1.682090800787968 2.339779836391076 0 0 0 0 7.20064240264132 3.552746108911021 19.06702679838117 1.361881934566941 9.90782086164767 0 0 0.8488043548081275 158.733735889442 0 96.55852293134129 0 80.9543302009852 18.5443301627303 1:-0.973791 2:-0.320388 3:-0.993095 4:-0.952232 5:-1 6:-0.854526 7:-0.0769231 8:-0.542373 9:-0.276316 10:-1 11:-0.488372 12:-1 13:-0.991463 14:-1 15:-0.980271 16:-0.999575 17:-1 18:-0.955083 20:-1 21:-0.974852 
0 0 0 0 0 0 0 0 0 0 0 0 0 0 0 2048 2048 2048 0 1372.686217227359 2048 1:-0.943399 2:-0.631068 3:-0.979678 4:-0.963605 5:-1 6:-0.639009 7:-0.99095 8:-0.949153 9:-0.894737 10:-1 11:-0.631008 12:-0.998229 13:-0.999224 14:-1 15:-0.976888 16:-0.990646 17:-1 18:-0.892041 20:-1 21:-0.922459 
0 0 0 0 0 0 0 0 0 0 0 0 0 0 0 0 0 0 0 0 2048 1:-0.976021 2:-0.932039 3:-1 4:-0.985783 5:-1 6:-0.616379 7:-0.9819 8:-1 9:-1 10:-1 11:-0.736434 12:-1 13:-1 14:-1 15:-1 16:-1 17:-1 18:-0.974783 20:-1 21:-0.852951 
0 0 0 0 0 0 0 0 0 0 0 0 0 0 0 2048 349.2498004149842 0 618.3138215031734 0 0 1:-0.960965 2:-0.87055 3:-1 4:-0.956213 5:-1 6:-0.802802 7:-0.972851 8:-1 9:-0.631579 10:-1 11:-0.860465 12:-1 13:-1 14:-1 15:-1 16:-0.987245 17:-1 18:-0.962963 20:-1 21:-0.96088 
0 0 0 0 0 0 0 0 0 0 0 1.693108059107606 0 0 0 0 0 0 0 0 0 1:-0.932246 2:-0.79288 3:-0.997238 4:-0.922661 5:-1 6:-0.668103 7:-0.891403 8:-1 9:-0.263158 10:-1 11:-0.875969 12:-1 13:-0.992239 14:-1 15:-1 16:-0.9375 17:-1 18:-0.99212 20:-1 21:-0.889277 
0.340931711166544 0 0 0 0 0 0.04236352830006015 0 0 0 0 0 0 0 0 0 0 0 0 0 0 1:-0.973233 2:-0.530744 3:-0.99053 4:-0.935172 5:-1 6:-0.735991 7:-0.339367 8:-0.991525 9:0.0131579 10:-1 11:-0.283721 12:-1 13:-0.986418 14:-1 15:-0.998309 16:-0.941327 17:-1 18:-0.907013 20:-1 21:-0.913378 
0 0 0 0 0 0 0 0 0 0 0 0 0 0 0 0 0 73.3157377944065 0 0 24.64947265044074 1:-0.989962 2:-0.744337 3:-0.994673 4:-0.985215 5:-1 6:-0.758621 7:-0.457014 8:-0.855932 9:-0.828947 10:-1 11:-0.153488 12:-0.999889 13:-0.995343 14:-1 15:-0.987599 16:-1 17:-1 18:-0.992908 20:-1 21:-0.92665 
0 0 0 0 0 0 0 0 0 0 0 0 0 0 0 0 0 1052.136694068793 0 0 20.59075278424372 1:-0.989962 2:-0.744337 3:-0.994673 4:-0.985215 5:-1 6:-0.758621 7:-0.457014 8:-0.855932 9:-0.828947 10:-1 11:-0.153488 12:-0.999889 13:-0.995343 14:-1 15:-0.987599 16:-1 17:-1 18:-0.992908 20:-1 21:-0.92665 
0 0 0 0 0 0 0 0 0 0 0 0 0 0 0 0 0 0 24.21409865467601 0 0 1:-0.968214 2:-0.18123 3:-1 4:-0.969861 5:-0.938144 6:-0.822198 7:0.0950226 8:-1 9:-0.236842 10:-0.583333 11:-0.386047 12:-1 13:-1 14:-1 15:-1 16:-0.979167 17:-1 18:-0.975571 20:-0.725 21:-0.953196 
0 0 0 0 0 0 0 212.2069721111141 0 0 0 0 0 0 0 1818.464945921042 0 0 0 0 2048 1:-0.961244 2:-0.967638 3:-0.993884 4:-0.945977 5:-1 6:-0.885776 7:-1 8:-1 9:-0.868421 10:-1 11:-0.91938 12:-0.999668 13:-0.989523 14:-1 15:-1 16:-0.977041 17:-1 18:-0.99212 20:-1 21:-0.964722 
0 0 0 0 0 0 0 0 0 0 0 0 0 0 0 0 0 0 0 0 2048 1:-0.990799 2:-0.841424 3:-1 4:-1 5:-1 6:-0.742457 7:-0.800905 8:-1 9:-1 10:-1 11:-0.643411 12:-1 13:-1 14:-1 15:-1 16:-1 17:-1 18:-1 20:-1 21:-0.873559 
0 0 0 0 0 0 0 0 0 0 0 0 0 0 0 0 0 0 0 0 2048 1:-0.990799 2:-0.841424 3:-1 4:-1 5:-1 6:-0.742457 7:-0.800905 8:-1 9:-1 10:-1 11:-0.643411 12:-1 13:-1 14:-1 15:-1 16:-1 17:-1 18:-1 20:-1 21:-0.873559 
0 0.01702118490008283 0 0 0 0 0 0.02982441487142889 0 0.1252152962929359 0 0 0 0 0.04092116501196635 2.338860563298879 3.562151596093479 7.173797687949147 0 2.569852434965054 1.096921206566301 1:-0.982155 2:-0.857605 3:-0.953832 4:-0.935741 5:-0.979381 6:-0.948276 7:-1 8:-0.855932 9:-0.736842 10:-0.375 11:-0.950388 12:-0.969335 13:-0.964688 14:-0.794872 15:-1 16:-0.997874 17:-0.785714 18:-0.949567 20:-1 21:-1 
0 0.4755350221616981 0 0 1.792753008166867 0 0 9.166435970949673 4.841647552005576 3.307438480014321 0 6.693281015927709 0 0.3335232529990139 8.424915337139462 6.828292046624803 24.41605199609497 89.18863027736015 0 5.590524186205396 29.03807951111379 1:-0.982155 2:-0.857605 3:-0.953832 4:-0.935741 5:-0.979381 6:-0.948276 7:-1 8:-0.855932 9:-0.736842 10:-0.375 11:-0.950388 12:-0.969335 13:-0.964688 14:-0.794872 15:-1 16:-0.997874 17:-0.785714 18:-0.949567 20:-1 21:-1 
0 0 0 0 0 0 0 0 0 0 0 0 0 0 0 566.5641409765294 317.4383776234342 0 0 0 0 1:-0.972396 2:-0.990291 3:-1 4:-0.887404 5:-1 6:-0.570043 7:-1 8:-1 9:-0.802632 10:-1 11:-0.956589 12:-1 13:-1 14:-1 15:-1 16:-0.929847 17:-1 18:-0.947203 20:-1 21:-0.896612 
0 0 0 0 0 0 0 0 0 0 0 0 0 0 0 2048 0 0 0 0 0 1:-0.955109 2:-0.592233 3:-0.998422 4:-0.968155 5:-1 6:-0.724138 7:-0.891403 8:-1 9:-0.828947 10:-1 11:-0.581395 12:-0.999889 13:-0.989135 14:-1 15:-0.978579 16:-0.998724 17:-1 18:-0.986604 20:-1 21:-0.952497 
0 0 0 0 0 0 0 0 0 0 0 0 0 0 0 117.8391053177247 1341.336393100481 1489.347262662113 244.9424520283309 0 0 1:-0.950648 2:-0.420712 3:-1 4:-0.981234 5:-1 6:-0.577586 7:-0.954751 8:-1 9:-0.921053 10:-1 11:-0.404651 12:-1 13:-1 14:-1 15:-1 16:-1 17:-1 18:-0.985816 20:-1 21:-0.854349 
0 0 0 0 0 0 0 0 -0 -0 0 0 0 0 0 385.691637540709 1794.33382966233 1199.928335621897 142.1698180397374 84.79216771139073 0 1:-0.982155 2:-0.873786 3:-0.999803 4:-1 5:-1 6:-0.702586 7:-1 8:-1 9:-0.289474 10:-1 11:-0.885271 12:-1 13:-1 14:-1 15:-0.985344 16:-0.993622 17:-1 18:-0.93223 20:-1 21:-0.895215 
-0 0 8.08508806036105 0 0 0 0 0 0 0 0 0 0 0 0 0 0 0 0 0 0 1:-0.539941 2:-1 3:0.148861 4:-0.829969 5:-1 6:-0.224138 7:-1 8:-1 9:-1 10:-1 11:-1 12:0.396878 13:-0.836632 14:-1 15:-0.257046 16:-0.96216 17:-1 18:-0.651694 20:-1 21:-0.687391 
-1.355296494685334 2.356708006937833 0 9.530664410826017 10.11501371593604 8.486892496511087 6.72360609557852 2.144438447230815 5.116105175515174 2.535579922302429 4.277780646778626 1.9084543988439 3.38854688421329 2.998091409831165 1.740379583658371 1.468981236125668 1.723284666718681 1.705349101461923 1.752986116342062 1.516525302253465 1.865225348003295 1:-0.625819 2:-0.789644 3:-0.83723 4:-0.800398 5:-1 6:-0.455819 7:-0.701357 8:-1 9:-1 10:-1 11:-0.674419 12:-0.157312 13:-0.354676 14:-1 15:-0.59301 16:-0.862245 17:-1 18:-0.189913 20:-1 21:-0.545582 
-0 4.438979697430643 0 0 1.116557633634468 1.820836519836441 0 0 0 0 0 0 0 0 0 0 0 0 0 0 0 1:-0.486965 2:-1 3:-0.705041 4:-0.609895 5:-1 6:-0.425647 7:-1 8:-0.652542 9:-1 10:-1 11:-0.869767 12:-0.152884 13:-0.287932 14:-1 15:-0.341601 16:-0.464711 17:-1 18:-0.0338849 20:-1 21:-0.595529 
-0 0 0 0 0 0 0 0 0 0 0 0 0 0 0 0 0.05139740301256445 0 0 0 0 1:-0.66597 2:-0.831715 3:-0.0577094 4:-0.839636 5:-1 6:-0.56681 7:-1 8:-0.966102 9:-0.381579 10:-1 11:-0.755039 12:0.285287 13:-0.645712 14:-1 15:-0.702931 16:-0.816327 17:-1 18:-0.907013 20:-1 21:-0.829549 
-0 0 0 0 6.348590433192758 3.618985650295999 0 0 0 0 0 0 0 0 0 0 0 0 0 0 0 1:-0.368186 2:-0.770227 3:-0.652165 4:-0.715098 5:-1 6:0.46444 7:-1 8:-1 9:-1 10:-1 11:-0.699225 12:-0.128861 13:-0.292588 14:-1 15:-0.460541 16:-0.631378 17:-1 18:-0.316785 20:-1 21:-0.409012 
-1.774954353013033 1.873430400097658 15.27927816674303 1.082476488083704 8.970347519315164 7.423416399557854 2.999850552113153 1.514313603429414 2.624058931616894 1.794413218499748 1.840412144427379 2.995541129012048 2.624238753071915 3.264317805326043 0.384003863561497 1.940762333976241 1.152775349944113 1.625067711438657 2.218210079454341 1.594233724689088 1.554177659540509 1:-0.518193 2:-1 3:-0.684719 4:-0.92323 5:-1 6:0.044181 7:-1 8:-1 9:-1 10:-1 11:-0.76124 12:0.0043175 13:-1 14:-1 15:-0.22097 16:-1 17:-1 18:-0.903073 20:-1 21:-0.0943067 
-0.1179703225104624 1.844700410657303 0 0 0 0.3164593929262461 0 0 0.4030406399500606 0.2018722138348627 0 0 0 0 0.4831146192255973 0.1926313129531828 0.5070767472476094 0.3848059048693648 0 0.5544083812205013 0.0646541938845787 1:-0.551931 2:-1 3:-0.640722 4:-0.90617 5:-1 6:-0.0387931 7:-0.954751 8:-1 9:-0.0131579 10:-1 11:-0.44186 12:0.0835824 13:-0.734963 14:-1 15:-0.293687 16:-1 17:-1 18:-0.781718 20:-1 21:-0.0241006 
-0 0 0 0 0 0 0 0 0 0 0 0 0.4527869598500739 0 0 0 0 0 0 0 0 1:-0.569776 2:-0.838188 3:-0.674657 4:-0.868638 5:-1 6:-0.336207 7:-1 8:-0.872881 9:-1 10:-1 11:-0.550388 12:0.0639876 13:-0.667055 14:-1 15:-0.171364 16:-1 17:-1 18:-0.869976 20:-1 21:-0.104436 
-0 0 0.3104397545124583 0 0 0 0 0 0 0.02047138346578196 0 0 0 0 0 0 0 0 0 0 0.007447604957168461 1:-0.524049 2:-0.63754 3:0.113939 4:1 5:-1 6:-0.248922 7:-1 8:-1 9:-0.868421 10:-1 11:-0.646512 12:-0.0592273 13:1 14:-1 15:-0.884442 16:1 17:-1 18:0.0654058 20:-1 21:-0.359064 
-2.683213979572137 2.306836074570508 0 15.94643704882894 4.810057705047194 0.482381295044676 14.91525092889941 6.350970699294741 4.375899818626716 3.332547218549096 3.278913435545801 3.599566872252162 3.048754259889064 3.030597771532205 4.550801679098633 2.370023253178206 2.115762551257415 2.384929997485108 1.938576611945947 1.961964773971618 2.29451160573544 1:-0.850272 2:-1 3:-0.48249 4:-0.633779 5:-1 6:-0.65194 7:-1 8:-1 9:-1 10:-1 11:-1 12:-0.306985 13:-0.139309 14:-1 15:-0.691657 16:-0.331207 17:-1 18:-0.739953 20:-1 21:-0.90709 
-0 0 0 0 4.134775845982554 1.502275240523125 0 0 0 0 0 0 0 0 0 0 0 0 0 0 0 1:-0.657326 2:-0.825243 3:-0.393312 4:-0.348877 5:-1 6:-0.273707 7:-1 8:-1 9:-0.473684 10:-1 11:-0.813953 12:-0.26215 13:0.0706248 14:-1 15:-0.63867 16:-0.5625 17:-1 18:-0.636722 20:-1 21:-0.85854 
-0 0 15.60979807301694 0 0 0 0 0 0 0 0 0 0 0 0 0 0 0 0 0 0 1:0.0185418 2:-1 3:0.131696 4:-0.826557 5:-1 6:0.425647 7:-1 8:-1 9:-1 10:-1 11:-1 12:0.725894 13:-0.632518 14:-1 15:0.0231116 16:-0.701105 17:-1 18:-0.388495 20:-1 21:-0.266154 
-0 0 28.03750861355355 0 0 0 0 0 0 0 0 0 0 0 0 0 0 0 0 0 0 1:-0.164366 2:-0.705502 3:0.11828 4:-0.827694 5:-1 6:0.411638 7:-1 8:-1 9:-1 10:-1 11:-0.696124 12:0.253183 13:-0.547924 14:-1 15:-0.127396 16:-0.901361 17:-1 18:-0.687943 20:-1 21:-0.374083 
-0 0 0 0 0.02858249810561017 0 0 0 0 0 0 0 0 0 0 0 0 0 0 0 0 1:-0.465217 2:-0.757282 3:-0.395087 4:-0.39892 5:-1 6:0.284483 7:-0.918552 8:-0.805085 9:-0.460526 10:-1 11:-0.305426 12:-0.177128 13:0.565774 14:-1 15:-0.56708 16:-0.646684 17:-1 18:-0.0803783 20:-1 21:-0.109326 
-0 1.716508246002238 1.840226679156475 0 1.142797834411172 1.597850478703363 0.1569567182272521 0 0 0 0 0 0 0 0 0 0 0 0 0 0 1:-0.0517217 2:-0.508091 3:-0.0515932 4:0.110037 5:-1 6:0.184267 7:-0.60181 8:-0.881356 9:-0.171053 10:-1 11:-0.581395 12:-0.200266 13:-0.00853706 14:-1 15:-0.602029 16:-0.516156 17:-1 18:1 20:-1 21:-0.523577 
-0 -0 0 0 12.0851403380921 0 0 3.98179864025722 0 6.350324694173372 0 3.522014251332623 4.759643222260141 0 0 0 1.274273069091077 5.774099805929254 0 0 3.649399371648311 1:-0.55695 2:-0.990291 3:-0.834862 4:-0.827694 5:-1 6:-0.996767 7:-1 8:-0.423729 9:-0.644737 10:-1 11:-0.913178 12:-0.831396 13:-0.740784 14:-1 15:-0.95885 16:-0.820153 17:-1 18:-0.941686 20:-1 21:-0.994062 
-8.490607343187571 -0.8603398054681579 1.236438007375608 0 10.86401042974574 0 0 4.813522998655799 -0 0 0 0 0 0 0 9.681605871640281 10.06114244865236 1.88171216495135 4.505305391681912 6.16652489660615 7.333591151440155 1:-0.513174 2:-1 3:-0.867811 4:-0.881717 5:-1 6:-1 7:-1 8:-1 9:-1 10:-1 11:-1 12:-0.780804 13:-0.762127 14:-1 15:-0.983089 16:-0.943452 17:-1 18:-0.899921 20:-1 21:-0.99511 
-3.273519603966138 -0 0 60.74776474950863 71.13315529417764 22.67879118772239 47.98716996340418 20.17469767176454 45.41972420907177 14.72857472437734 13.94816789652138 5.491506483811067 18.95768635372931 12.1310891583936 4.959388276222957 0 0 0 4.785508904373239 3.130501900642874 0 1:-0.582044 2:-0.967638 3:-0.905692 4:-0.832812 5:-1 6:-0.534483 7:-1 8:-1 9:-1 10:-1 11:-0.813953 12:-0.949297 13:-0.660846 14:-1 15:-0.925592 16:-0.760629 17:-1 18:-0.588652 20:-1 21:-0.850856 
-2.494694383096957 -0 0.9659510304053168 0 0 0 0 9.613032728235709 1.637103036186095 8.252520268481124 7.292697700102159 0.9468321437011594 21.99726656869194 8.144715062966062 0 4.766454372903261 5.325117676893667 2.555279238189211 2.764433807762273 5.5308930213323 5.061719379554288 1:-0.538269 2:-0.669903 3:-0.89346 4:-0.867501 5:-1 6:-0.807112 7:-0.520362 8:-0.0423729 9:-0.671053 10:-1 11:-0.578295 12:-0.905458 13:-0.779589 14:-1 15:-0.899098 16:-0.959184 17:-1 18:-0.698976 20:-1 21:-0.890674 
-11.21050562417138 -0 0 0 4.176552493515629 0 0 0 0 0 0 18.77895028221464 0 1.668661910386941 0 1.702708534463277 1.941982976001593 5.402877284241785 0 0 0 1:-0.569776 2:-1 3:-0.899379 4:-0.862951 5:-1 6:-0.828664 7:-1 8:-1 9:-1 10:-1 11:-1 12:-0.875789 13:-0.764455 14:-1 15:-0.948703 16:-0.755952 17:-1 18:-0.708432 20:-1 21:-0.915124 
-1.207098528719441 -0 0 0 0 0 0 8.229317246621484 35.52563594169207 13.81031177387221 25.29396425487239 16.13241455486315 8.962924814484076 28.94561213682184 5.41951951871351 6.55668170483479 4.914027164456986 10.25783949783955 8.11872478757935 3.901066273206875 7.729071054574847 1:-0.545797 2:-1 3:-0.8978 4:-0.872619 5:-1 6:-0.756466 7:-1 8:-1 9:-0.776316 10:-1 11:-0.882171 12:-0.8697 13:-0.825378 14:-1 15:-0.894025 16:-0.891156 17:-1 18:-0.51773 20:-1 21:-0.864129 
-0 -2.830965828118888 5.166751702279407 0 4.926369405139256 1.257290490350875 0 0 0 0 0 0 0 0 0 0 0 0 0 0 0 1:0.243552 2:-0.935275 3:-0.527671 4:-0.735001 5:-1 6:-0.0517241 7:-1 8:-0.0169492 9:-0.210526 10:-1 11:-0.0542636 12:-0.562382 13:-0.316259 14:-1 15:-0.00901917 16:-0.522109 17:-1 18:-0.457841 20:-1 21:-0.0852253 
-0 -1.717132022386044 0.4978735690406058 10.25395379642882 8.883176488975627 3.948238813712478 6.132361565398216 0 0 0 0 0 0 0 0 0 0 0 0 0 0 1:0.102468 2:-0.802589 3:-0.719838 4:-0.284049 5:-1 6:0.329741 7:-0.773756 8:-0.745763 9:0.0657895 10:-1 11:-0.652713 12:-0.751467 13:-0.421032 14:-1 15:-0.556933 16:-0.639031 17:-1 18:-0.470449 20:-1 21:-0.257772 
-0.6607014433530204 -0 0 8.537915159672 0 0 0 0 11.41885492210979 0 0.2450337268398001 4.300825000465261 8.601127360322177 0 4.19256330286612 0 0.7780579128502271 3.849378322470305 0 0 0 1:-0.516799 2:-0.796117 3:-0.877281 4:-0.756042 5:-1 6:-0.469828 7:-1 8:-0.533898 9:-0.131579 10:-1 11:-0.848062 12:-0.944537 13:-0.927823 14:-1 15:-0.922773 16:-0.635629 17:-1 18:-0.437352 20:-1 21:-0.699267 
-0 -0 0 0 0 0 7.199467041445639 18.49735824976153 0 16.89381540797095 0 9.181003592546416 0 0 54.47988886938134 1.936427096780923 1.030998199119912 0.3600049368255972 0 0.4938785460940242 5.257047099658406 1:-0.609368 2:-1 3:-0.927197 4:-0.745237 5:-1 6:-0.917026 7:-1 8:-1 9:-1 10:-1 11:-1 12:-0.945976 13:-0.79123 14:-1 15:-0.952086 16:-0.466412 17:-1 18:-0.732072 20:-1 21:-0.979043 
-0 -3.597847556113671 2.116922217615242 0 0 0 0 0 0 0 0 0 0 0 0 0 0 0 0 0 0 1:-0.115293 2:-1 3:-0.7226 4:-0.735001 5:-1 6:-0.655172 7:-1 8:-1 9:-1 10:-1 11:-1 12:-0.777261 13:-0.512224 14:-1 15:-0.555242 16:-0.738946 17:-1 18:-0.721828 20:-1 21:-0.849808 
-0 -0.4617607195923721 0 0.2324833110183845 0 0 0 0 0 0 0 0 0 0 0 0 0 0 0 0 0 1:-0.147079 2:-0.76699 3:-0.827365 4:-0.532556 5:-1 6:-0.524784 7:-1 8:-0.70339 9:-0.447368 10:-1 11:-0.755039 12:-0.884424 13:-0.948002 14:-1 15:-0.879369 16:0.0318878 17:-1 18:0.793538 20:-1 21:-0.693678 
-0 -0 0 0 0 20.02847170476751 0 0 0 0 0 0 0 0 0 0 0 0 0 0 0 1:-0.0388959 2:-0.961165 3:-0.724968 4:-0.729883 5:-1 6:-0.207974 7:-1 8:-1 9:-0.881579 10:-1 11:-0.531783 12:-0.787446 13:-0.668219 14:-1 15:-0.632469 16:-0.767857 17:-1 18:-0.34279 20:-1 21:-0.444289 
-0 -0 0 0 0 0 0 0 0 0 3.45109666318667 0 0 0 0 0 0 0 0 0 0 1:-0.375157 2:-1 3:-0.862484 4:-0.814615 5:-1 6:-0.477371 7:-1 8:-1 9:-1 10:-1 11:-0.829457 12:-0.905236 13:-0.799767 14:-1 15:-0.828072 16:-0.882653 17:-1 18:-0.542159 20:-1 21:-0.523227 
-0 -0 0 0 2.811991075471445 7.007587501541255 0 0.1675134292085207 7.084777218734529 0 0.7083938321171935 0 1.77724689964383 0 0 1.355315155457014 0.3977793522965475 0 1.715763946839911 2.814836132759877 0 1:-0.348947 2:-0.472492 3:-0.839006 4:-0.783338 5:-1 6:-0.517241 7:-1 8:-1 9:0.0263158 10:-1 11:-0.652713 12:-0.900476 13:-0.743112 14:-1 15:-0.796505 16:-0.903486 17:-1 18:-0.638298 20:-1 21:-0.451275 
-0 -4.800276936604107 0 9.531190666503244 34.82604506378982 26.07894943593406 14.34391641328913 0 0 0 0 0 0 0 0 0 0 0 0 0 0 1:-0.372647 2:-1 3:-0.86426 4:-0.816889 5:-1 6:-0.413793 7:-1 8:-1 9:-1 10:-1 11:-1 12:-0.870807 13:-0.764455 14:-1 15:-0.702931 16:-0.793367 17:-1 18:0.0583136 20:-1 21:-0.545232 
-0 -0.2688399674129406 1.776225216922303 0 3.769252758900597 1.896352727189771 0.4070731784057218 0 0 0 0 0 0 0 0 0 0 0 0 0 0 1:-0.508156 2:-0.0744337 3:-0.925027 4:-0.683253 5:-1 6:-0.65194 7:-0.248869 8:-0.101695 9:-0.671053 10:-1 11:-0.327132 12:-0.986051 13:-0.850213 14:-1 15:-0.918828 16:-0.589286 17:-1 18:-0.166273 20:-1 21:-0.809291 
-0 -0 0 7.379569948779985 0 3.960688557270208 0.8900631769562461 0 0 0 0 0 0 0 0 0 0 0 0 0 0 1:-0.427576 2:-0.760518 3:-0.883792 4:-0.700881 5:-1 6:-0.304957 7:-1 8:-0.966102 9:-0.947368 10:-1 11:-0.708527 12:-0.956825 13:-0.951882 14:-1 15:-0.884442 16:-0.500425 17:-1 18:-0.0890465 20:-1 21:-0.691582 
-1.437560209066626 -0 -4.566844369293654 1.39447752183845 3.979434311169137 1.042289659189717 2.765770961295869 1.558190676479291 2.290831119548065 2.129233810862593 1.869899096365801 2.294104455946631 2.692282891579464 2.208266813302222 1.756698799836059 1.404307105796749 1.35243799078554 1.813127444984846 1.233214353581752 1.50724797969133 1.782359083466678 1:0.0135229 2:-0.805825 3:-0.338463 4:-0.891953 5:-1 6:-0.53556 7:-0.927602 8:0.0338983 9:-1 10:-1 11:-0.510078 12:0.0769401 13:-0.827707 14:-1 15:-0.310034 16:-1 17:-1 18:-0.940898 20:-1 21:-0.61474 
-0 -25.77312695255183 -0.4594230522842665 1.97793985056975 3.022563644675117 2.155469164745592 0.9531056791159326 0.08693039869948196 0.4020192377623434 0.07994086894718185 0 0 0 0.02647426696617957 0 0 0.02305990074680679 0 0.03249790641369021 0 0 1:0.112226 2:-0.909385 3:0.221861 4:-0.879443 5:-1 6:0.259698 7:-1 8:-0.855932 9:-0.960526 10:-1 11:-0.792248 12:0.0406288 13:-0.744276 14:-1 15:-0.487599 16:-0.783163 17:-1 18:-0.440504 20:-1 21:-0.533357 
-0 -0 -0.1981957191360068 0 0 0 0 0 0 0 0 0 0 0 0 0 0 0 0 0 0.01158588109384985 1:0.410289 2:-0.711974 3:0.569103 4:-0.832812 5:-1 6:0.877155 7:-0.764706 8:-0.745763 9:-0.131579 10:-1 11:0.888372 12:0.299568 13:-0.729919 14:-1 15:0.655581 16:-1 17:-1 18:-0.497242 20:-1 21:1 
-1.677772328378486 -0.6349630054196376 -1.969485998432923 0.8872466571771662 1.451095802837725 1.343204956893535 1.405329529048992 0.9558532524378648 1.58390376130034 1.149110829264417 0.6447890830654223 0.6279498466079401 1.366781074257442 0.7830261487714552 0.6736018860175994 1.429266603283123 1.490171853510062 1.224101977849276 1.356534571379844 1.089055668641308 1.559272276528547 1:-0.260839 2:1 3:-0.900562 4:-0.908445 5:-1 6:-0.186422 7:0.266968 8:0.271186 9:0.105263 10:-1 11:-0.807752 12:-0.951511 13:-0.836244 14:-1 15:-0.763247 16:-0.882228 17:-1 18:-0.794326 20:-1 21:-0.671324 
-1.672383745299537 -1.057386359094285 -1.519334750239112 1.618761143835563 1.584753564457389 1.651051588250132 1.454288399376792 1.447312072889188 2.038148538312577 3.745016372403363 1.428069962247979 1.368608037140751 1.39878079648343 1.409419098773818 1.388230480793906 1.33300037565273 1.331997327536919 1.646755746667905 1.217458672684288 1.307501101163778 1.430553125173512 1:-0.538269 2:-1 3:-0.906679 4:-0.82087 5:0.0309278 6:-0.525862 7:-1 8:-1 9:-1 10:-1 11:-1 12:-0.97642 13:-0.902988 14:-1 15:-0.905862 16:-0.877126 17:-1 18:-0.660362 20:1 21:-0.650017 
-0 -8.907810580442106 -0 0 0 0 0 0 0 0 0 0 0 0 0 0 0 0 0 0 0 1:-0.301826 2:-0.864078 3:0.299596 4:-0.756042 5:-1 6:0.155172 7:-1 8:-0.991525 9:-1 10:-1 11:-0.494574 12:0.684712 13:-0.887466 14:-1 15:0.476888 16:-0.923044 17:-1 18:-0.699764 20:-1 21:0.172896 
-0 -0 -2.343204980521762 0 1.069693849203084 0.4468556428364437 0 0 0 0 0 0 0 0 0 0 0 0 0 0 0 1:0.749338 2:-0.990291 3:-0.433363 4:-0.397782 5:-1 6:0.435345 7:-1 8:-0.516949 9:-1 10:-1 11:-0.820155 12:-0.0192627 13:-0.414047 14:-1 15:-0.197858 16:-0.540391 17:-1 18:-0.261623 20:-1 21:0.207475 
-0 -0 -0.609430195266191 0 0 0 0 0 0 0 0 0 0 0 0 0 0 0 0 0 0 1:1 2:-0.666667 3:-0.240801 4:-0.676997 5:-1 6:0.414871 7:-0.140271 8:0.957627 9:0.184211 10:-1 11:0.144186 12:0.113694 13:-0.726814 14:-1 15:0.0118377 16:-0.822279 17:-1 18:-0.620961 20:-1 21:0.108278 
-0 -4.583563277776789 -0 0 0 0 0 0 0 0 0 0 0 0 0 0 0 0 0 0 0 1:0.296807 2:-0.200647 3:0.600474 4:-0.528007 5:-1 6:-0.244612 7:-1 8:-0.728814 9:-0.973684 10:-1 11:-0.40155 12:0.539245 13:-0.147846 14:-1 15:-0.119504 16:-0.730867 17:-1 18:-0.0338849 20:-1 21:-0.173594 
-0.5418983202490001 -28.20548917205887 -0 1.127962162102828 1.507231927652225 2.784631103687316 0.7318183423979518 0.850940062141139 1.080820917552546 0.3888926023593295 1.161336262957943 0.7838389441097261 0.7989233048967236 0.9212189916949481 0.5671967137598293 0.6323270688820747 0.461885999584721 0.4637593349218581 0.7534554959330105 0.7316134783608099 0.3301544474622041 1:-0.2416 2:-1 3:-0.101707 4:-0.956213 5:-1 6:0.176724 7:-1 8:-1 9:-1 10:-1 11:-1 12:0.162515 13:-0.998836 14:-1 15:0.078354 16:-1 17:-1 18:-0.911742 20:-1 21:-0.0387705 
-0 -0 -0.09424267846456537 0 0 0 0 0 0 0 0 0 0 0 0 0 0 0 0 0 0 1:0.237139 2:-0.864078 3:0.651376 4:-0.844754 5:-1 6:0.0226293 7:-1 8:0.101695 9:-1 10:-1 11:0.795349 12:0.266467 13:-0.679084 14:-1 15:0.27903 16:-0.864796 17:-1 18:0.391647 20:-1 21:0.327279 
-0 -0 -0 -0 23.24383877444678 0 46.1818984875492 0 0 0 0 0 0 0 0 0 0 0 0 0 0 1:-0.854454 2:-0.886731 3:-0.639736 4:-0.753767 5:-1 6:-0.519397 7:-1 8:-0.983051 9:-0.986842 10:-1 11:-0.696124 12:-0.570132 13:-0.726038 14:-1 15:-0.883315 16:-0.872024 17:-1 18:-0.725768 20:-1 21:-0.709046 
-0 -0 -0 -0 0 0 1639.940369008445 0 0 0 0 0 0 0 0 0 0 0 0 0 0 1:-0.844417 2:-0.990291 3:-0.725363 4:-0.667899 5:-1 6:-0.639009 7:-1 8:-1 9:-1 10:-1 11:-0.829457 12:-0.683162 13:-0.465658 14:-1 15:-0.993799 16:-0.80102 17:-1 18:-0.684003 20:-1 21:-0.821865 
-0 -0 -0 -0 0 0 1270.622324385708 0 0 0 0 0 0 0 0 0 0 0 0 0 0 1:-0.849714 2:-1 3:-0.743317 4:-0.762297 5:-1 6:-0.570043 7:-1 8:-1 9:-1 10:-1 11:-1 12:-0.550758 13:-0.834692 14:-1 15:-0.866404 16:-0.78784 17:-1 18:-0.7171 20:-1 21:-0.842822 
-0 -0 -0 -0 1026.099135642216 91.07672203761875 1232.255858132579 45.71422226387556 6.743421786040064 0 8.9714196876429 0 0 0.02983049669011414 0 0 0 0 0 0 0 1:-0.807612 2:-1 3:-0.816908 4:-0.652545 5:-1 6:-0.520474 7:-1 8:-1 9:-1 10:-1 11:-1 12:-0.821654 13:-0.612728 14:-1 15:-0.666291 16:-0.635204 17:-1 18:-0.824271 20:-1 21:-0.779951 
-0 -0 -6.80049482347466 -0 0 0 0 0 0 0 0 0 0 0 0 0 0 0 0 0 0 1:-0.769971 2:-0.770227 3:-0.914965 4:-0.755473 5:-1 6:0.00431034 7:-1 8:-1 9:-0.960526 10:-1 11:-0.522481 12:-0.93568 13:-0.620101 14:-1 15:-0.698985 16:-0.602891 17:-1 18:-0.405831 20:-1 21:-0.827803 
-0 -0.1810063984639608 -0 -0 0 0 0 0 0 0 0 0 0 0 0 0 0 0 0 0 0 1:-0.831312 2:-1 3:-0.734438 4:-0.893659 5:-1 6:0.15625 7:-1 8:-1 9:-1 10:-1 11:-1 12:-0.677626 13:-0.615056 14:-1 15:-0.626832 16:-0.811224 17:-1 18:-0.817967 20:-1 21:-0.515543 
-0 -11.08311728526665 -3.226231263425773 -0 44.88199494183959 0 0 0 0 0 0 0 0 0 0 0 0 0 0 0 0 1:-0.816534 2:-0.951456 3:-0.774687 4:-0.783907 5:-1 6:-0.662716 7:-1 8:-1 9:-1 10:-1 11:-0.810853 12:-0.670541 13:-0.312379 14:-1 15:-0.931229 16:-0.650935 17:-1 18:-0.883373 20:-1 21:-0.874258 
-0 -0 -0 -0 156.5157272564477 0 1356.126202021517 0 0 0 0 0 0 0 0 0 0 0 0 0 0 1:-0.867559 2:-1 3:-0.828943 4:-0.873187 5:-1 6:-0.564655 7:-1 8:-1 9:-1 10:-1 11:-1 12:-0.570575 13:-0.571983 14:-1 15:-0.841037 16:-0.898384 17:-1 18:-0.724192 20:-1 21:-0.815578 
-0 -2.037973096406442 -0 -0 24.72376922319805 0 0 0 0 0 0 0 0 0 0 0 0 0 0 0 0 1:-0.726474 2:-0.433657 3:-0.835849 4:-0.562695 5:-1 6:0.193966 7:-1 8:-1 9:-1 10:-1 11:-0.531783 12:-0.785896 13:-0.263873 14:-1 15:-0.849493 16:-0.620748 17:-1 18:-0.276596 20:-1 21:-0.293049 
-0 -0 -0 -0 21.28836604087195 7.460869330554051 0 0 0 0 0 0 0 0 0 0 0 0 0 0 0 1:-0.591245 2:-0.94822 3:-0.813949 4:-0.483651 5:-1 6:-0.0355603 7:-1 8:-1 9:-0.421053 10:-1 11:-0.990698 12:-0.789771 13:-0.463718 14:-1 15:-0.871477 16:-0.346939 17:-1 18:-0.444444 20:-1 21:-0.682152 
-0 -5.849018478769302 -0 -0 0 65.92450946186445 0 0 0 0 0 0 0 0 0 0 0 0 0 0 0 1:-0.747944 2:-1 3:-0.808425 4:-0.574069 5:-1 6:-0.359914 7:-1 8:-1 9:-1 10:-1 11:-1 12:-0.761098 13:-0.447808 14:-1 15:-0.70575 16:-0.588435 17:-1 18:-0.070134 20:-1 21:-0.732099 
-0 -0 -0 -0 0 0 1198.826382189832 0 0 0 0 0 0 0 0 0 0 0 0 0 0 1:-0.791161 2:-1 3:-0.782184 4:-0.567813 5:-1 6:-0.532328 7:-1 8:-1 9:-1 10:-1 11:-1 12:-0.729879 13:-0.486612 14:-1 15:-0.921646 16:-0.543793 17:-1 18:-0.885737 20:-1 21:-0.853301 
-12.87047281913266 -0 -0 -0 302.2298082359004 0 121.0196797615076 21.28962673396762 44.61734870553845 21.49023763802262 0 28.85169561561913 19.55903529020015 10.44064799071251 19.01318920722273 7.354950352270317 9.457041534893007 10.40626766568201 8.186420904759908 2.993811607678971 8.065024162647321 1:-0.846368 2:-1 3:-0.7445 4:-0.782769 5:-1 6:-0.505388 7:-1 8:-1 9:-1 10:-1 11:-1 12:-0.775711 13:-0.708964 14:-1 15:-0.933484 16:-0.756378 17:-1 18:-0.829787 20:-1 21:-0.754803 
-0 -0 -0 -0 0 0 972.7385273808388 0 0 0 0 0 0 0 0 0 0 0 0 0 0 1:-0.851387 2:-1 3:-0.819868 4:-0.719079 5:-1 6:-0.617457 7:-1 8:-1 9:-1 10:-1 11:-1 12:-0.731208 13:-0.470702 14:-1 15:-0.947576 16:-0.661565 17:-1 18:-0.861308 20:-1 21:-0.891023 
-0 -0 -0 -0 0 0 529.3531811342988 0 0 0 0 0 0 0 0 0 0 0 0 0 0 1:-0.82713 2:-0.831715 3:-0.780014 4:-0.383566 5:-1 6:-0.679957 7:-1 8:-1 9:-0.881579 10:-1 11:-0.742636 12:-0.706631 13:-0.636399 14:-1 15:-0.9177 16:-0.617347 17:-1 18:-0.70528 20:-1 21:-0.863779 
-2.192868306639592 -0 -0 -0 0 78.1728980451103 170.899767283637 0 26.6765272208007 0 0 0 0.5896988259827877 9.468378196587834 0 0 0 0 1.998201939448008 0 0 1:-0.767461 2:-1 3:-0.88833 4:-0.881149 5:-1 6:0.203664 7:-1 8:-1 9:-1 10:-1 11:-1 12:-0.931916 13:-0.708964 14:-1 15:-0.721533 16:-0.892432 17:-1 18:-0.602049 20:-1 21:-0.480265 
-0 -0 -0 -0 101.570107085854 0 0 3.978147497310129 224.4486895757025 22.2938850512524 26.3725286357753 14.6174822361694 18.28348088348326 18.14871775697958 5.013059222265022 5.198726834081767 3.613293628537657 6.360743827600237 4.006858455183942 1.702976131657301 2.961316894757055 1:-0.809285 2:-0.737864 3:-0.908454 4:-0.766847 5:-1 6:-0.212284 7:-1 8:-1 9:-0.697368 10:-1 11:-0.714729 12:-0.842688 13:-0.866899 14:-1 15:-0.728861 16:-0.856718 17:-1 18:-0.27502 20:-1 21:-0.673769 
-0 -0 -15.8028446070827 -1.340161349167361 78.31224774402742 95.20810622745067 0 0 0 0 0 0 0 0 0.3876440918749375 0 0 0 0 0.09450360431403676 0 1:-0.609647 2:-0.614887 3:-0.7883 4:-0.578049 5:-1 6:-0.206897 7:-1 8:-0.728814 9:0.0263158 10:-1 11:-0.472868 12:-0.886195 13:-0.563834 14:-1 15:-0.733935 16:-0.862245 17:-1 18:-0.161545 20:-1 21:-0.645826 
-0 -0 -0 -0.811548092242552 0 29.50318914186375 0 0 44.99210123549098 0 0 0 0 0 0 0 0 0 0 0 0 1:-0.59013 2:-0.944984 3:-0.833087 4:-0.535399 5:-1 6:0.327586 7:-1 8:-0.610169 9:-0.934211 10:-1 11:-0.764341 12:-0.897819 13:-0.781917 14:-1 15:-0.698422 16:-0.772109 17:-1 18:-0.49803 20:-1 21:-0.44394 
-0 -0 -25.52353354959068 -0 0 81.49679350115673 0 0 0 0 0 0 0 0 0 0 0 0 0 0 0 1:-0.645337 2:-1 3:-0.858735 4:-0.626386 5:-1 6:-0.0290948 7:-1 8:-1 9:-1 10:-1 11:-1 12:-0.889073 13:-0.68995 14:-1 15:-0.892334 16:-0.601616 17:-1 18:-0.171001 20:-1 21:-0.722319 
-0 -0 -0 -0 0 0 53.42704334548009 0 0 0 0 0 0 0 0 0 0 0 0 0 0 1:-0.769134 2:-0.789644 3:-0.826379 4:-0.429628 5:-1 6:-0.454741 7:-1 8:-1 9:-0.973684 10:-1 11:-0.537984 12:-0.780582 13:-0.466434 14:-1 15:-0.994927 16:-0.471939 17:-1 18:-0.56186 20:-1 21:-0.821865 
-0 -0 -0 -0 0 0 48.06266296997273 0 0 0 0 0 0 0 0 0 0 0 0 0 0 1:-0.747665 2:-0.912621 3:-0.858735 4:-0.285755 5:-1 6:-0.559267 7:-1 8:-1 9:-0.894737 10:-1 11:-0.906977 12:-0.815454 13:-0.515328 14:-1 15:-0.908117 16:-0.505102 17:-1 18:0.0866824 20:-1 21:-0.809291 
-0 -0 -0 -0 0 0 0 9.875865345817026 0 0 0 0 0 0 0 0.69100330556123 0 0 0 6.549864524926772 0 1:-0.796459 2:-0.789644 3:-0.789681 4:-0.729883 5:-1 6:-0.387931 7:-0.963801 8:-1 9:-0.644737 10:-1 11:-0.497674 12:-0.70641 13:-0.569655 14:-1 15:-0.846674 16:-0.821854 17:-1 18:-0.576832 20:-1 21:-0.756549 
-0 -0 -0 -0 0 0 306.2590694316981 0 0 0 0 0 0 0 0 0 0 0 0 0 0 1:-0.741252 2:-0.834951 3:-0.822433 4:-0.470003 5:-1 6:0.110991 7:-1 8:-0.957627 9:-1 10:-1 11:-0.646512 12:-0.833167 13:-0.476135 14:-1 15:-0.784104 16:-0.501701 17:-1 18:-0.180457 20:-1 21:-0.561998 
-0 -0 -34.53870862426897 -0 598.8928436788674 0 1934.877839978615 40.79943656734795 26.71542578422255 18.44163567483456 13.1717847450454 34.97141369540313 6.970656730446597 21.9408182870388 35.20792810605825 0 0 0.2244953353639948 0 0 6.934287241407359 1:-0.772201 2:-1 3:-0.839598 4:-0.673585 5:-1 6:-0.876078 7:-1 8:-1 9:-1 10:-1 11:-1 12:-0.658696 13:-0.8052 14:-1 15:-0.945321 16:-0.840561 17:-1 18:-0.650118 20:-1 21:-0.915124 
-0 -0 -0 -0 123.1239116070524 0 0 0 0 0 0 0 0 0 0 0.07899446369027943 0 0 0 0.03692519529793546 0 1:-0.795065 2:-1 3:-0.799941 4:-0.839636 5:-1 6:-0.724138 7:-1 8:-1 9:-1 10:-1 11:-1 12:-0.575446 13:-0.844005 14:-1 15:-0.873732 16:-0.915391 17:-1 18:-0.747045 20:-1 21:-0.903947 
-0 -0 -0.009593789545282139 -0 56.63771432443557 3.858638260603442 34.41947244768384 0 0 0 0 0 0 0 0 0 0 0 0 0 0 1:-0.602119 2:-0.964401 3:-0.823814 4:-0.833949 5:-1 6:0.211207 7:-1 8:-1 9:-1 10:-1 11:-0.469767 12:-0.75346 13:-0.567326 14:-1 15:-0.674183 16:-0.804422 17:-1 18:-0.830575 20:-1 21:-0.220049 
-0 -0 -0 -0 911.397056566092 33.87209489214493 0 0 0 0 0 0 0 0 0 0 0 0 0 0 0 1:-0.838004 2:-1 3:-0.739371 4:-0.753199 5:-1 6:-0.470905 7:-1 8:-1 9:-1 10:-1 11:-1 12:-0.694786 13:-0.591773 14:-1 15:-0.757046 16:-0.872449 17:-1 18:-0.525611 20:-1 21:-0.739434 
-17.04480621163252 -0 -0 -0 0 0 801.6015260293382 0 70.85386782572341 5.656488870630996 0 0 31.54670861039012 27.28840939482635 0 4.729625686631056 7.445958178434484 11.60004330475081 8.872394494534394 7.017138494070016 6.49687879732062 1:-0.880942 2:-1 3:-0.762652 4:-0.869775 5:-1 6:-0.543103 7:-1 8:-1 9:-1 10:-1 11:-1 12:-0.627477 13:-0.895615 14:-1 15:-0.868658 16:-0.892857 17:-1 18:-0.687943 20:-1 21:-0.829549 
-0 -7.4084626888323 -0 -0 0 0 0 0 0 0 0 0 0 0 0 0 0 0 0 0 0 1:-0.802314 2:-1 3:-0.750025 4:-0.589423 5:-1 6:-0.563578 7:-1 8:-1 9:-1 10:-1 11:-1 12:-0.580649 13:-0.493209 14:-1 15:-0.874859 16:-0.801871 17:-1 18:-0.579196 20:-1 21:-0.869368 
-0 -0 -0 -0 128.6730464059962 0.004234366020477445 0 0 0 0 0 0 0 0 0 0 0 0 0 0 0 1:-0.766625 2:-1 3:-0.648219 4:-0.859539 5:-1 6:-0.301724 7:-1 8:-1 9:-1 10:-1 11:-1 12:-0.563379 13:-0.83896 14:-1 15:-0.864713 16:-0.933673 17:-1 18:-0.730496 20:-1 21:-0.740831 
-0 -0 -0 -0 0 0 0 0 52.58755518829071 0 0 0 0 0 0 0 0 0 0 0 0 1:-0.829639 2:-1 3:-0.846108 4:-0.611032 5:-1 6:-0.452586 7:-1 8:-1 9:-1 10:-1 11:-1 12:-0.867707 13:-0.461001 14:-1 15:-0.852875 16:-0.877126 17:-1 18:-0.565012 20:-1 21:-0.859937 
-0 -0 -1.778329108400421 -0 0 4.393384294355823 0 0 0 0 0 0 0 0 0 0 0 0 0 0 0 1:-0.708072 2:-0.970874 3:-0.925422 4:-0.422235 5:-1 6:-0.384698 7:-1 8:-1 9:-0.394737 10:-1 11:-1 12:-0.946862 13:-0.679472 14:-1 15:-0.888952 16:-0.327381 17:-1 18:-0.0598897 20:-1 21:-0.725463 
-0 -0 -0 -0 0 0 602.2940147290077 0 17.62527110157932 0 1.105899295364898 0 0 0 0 0 0 0 0 0 0 1:-0.81291 2:-0.877023 3:-0.895827 4:-0.700313 5:-1 6:-0.292026 7:-1 8:-1 9:-1 10:-1 11:-0.916279 12:-0.915089 13:-0.684905 14:-1 15:-0.777903 16:-0.790391 17:-1 18:-0.216706 20:-1 21:-0.706601 
-0 -0 -0 -0.9863849789457348 0 0 0 0 0 0 0 0 0 0 0 0 0 0 0 0 0 1:-0.751568 2:-1 3:-0.787511 4:-0.698607 5:-1 6:-0.828664 7:-1 8:-1 9:-1 10:-1 11:-1 12:-0.458319 13:-0.790454 14:-1 15:-0.999436 16:-0.776786 17:-1 18:-0.765169 20:-1 21:-0.970311 
-0 -0 -0 -0 700.6561119042343 0 0 0 0 0 0 0 0 0 0 9.502742978793844 4.58122539888813 5.645030467413135 0 2.661105054396927 3.656380385325075 1:-0.795065 2:-1 3:-0.799941 4:-0.839636 5:-1 6:-0.724138 7:-1 8:-1 9:-1 10:-1 11:-1 12:-0.575446 13:-0.844005 14:-1 15:-0.873732 16:-0.915391 17:-1 18:-0.747045 20:-1 21:-0.903947 
-0 -0 -9.003141866122586 -1.862228490826145 129.1487723300428 91.17109187628022 70.25706038441299 0 0 0 0 0 0 0 0 0 0 0 3.081579093817505 0 0 1:-0.602119 2:-0.964401 3:-0.823814 4:-0.833949 5:-1 6:0.211207 7:-1 8:-1 9:-1 10:-1 11:-0.469767 12:-0.75346 13:-0.567326 14:-1 15:-0.674183 16:-0.804422 17:-1 18:-0.830575 20:-1 21:-0.220049 
-0 -0 -0 -0 2048 178.6614426128709 0 0 0 0 0 0 0 0 0 0 0 0 0 0 0 1:-0.838004 2:-1 3:-0.739371 4:-0.753199 5:-1 6:-0.470905 7:-1 8:-1 9:-1 10:-1 11:-1 12:-0.694786 13:-0.591773 14:-1 15:-0.757046 16:-0.872449 17:-1 18:-0.525611 20:-1 21:-0.739434 
-0 -0 -0 -0 0 0 0 0 0 0 37.54152389963105 0 0 0 0 0 0 0 0 0 0 1:-0.883173 2:-1 3:-0.72043 4:-0.856127 5:-1 6:-0.676724 7:-1 8:-1 9:-1 10:-1 11:-1 12:-0.577106 13:-0.899884 14:-1 15:-0.844983 16:-0.922619 17:-1 18:-0.682427 20:-1 21:-0.884387 
-0 -0 -0 -2.006064424341964 784.1908562099751 56.03473209967996 0 0 0 0 0 0 0 0 0 0 0 0 0 0 0 1:-0.766625 2:-1 3:-0.648219 4:-0.859539 5:-1 6:-0.301724 7:-1 8:-1 9:-1 10:-1 11:-1 12:-0.563379 13:-0.83896 14:-1 15:-0.864713 16:-0.933673 17:-1 18:-0.730496 20:-1 21:-0.740831 
-0 -0 -0 -0 -2048 0 737.4525959431796 0 0 0 0 0 0 0 0 0 0 0 0 0 0 1:-0.794786 2:-1 3:-0.706619 4:-0.617856 5:-1 6:-0.358836 7:-1 8:-1 9:-1 10:-1 11:-1 12:-0.594598 13:-0.664726 14:-1 15:-0.754791 16:-0.840136 17:-1 18:-0.582348 20:-1 21:-0.660147 
-0 -0 -0 -0 -1453.564665795651 0 6.495584998928137 0 0 0 0 0 0 0 0 0 0 0 0 0 0 1:-0.848878 2:-1 3:-0.618625 4:-0.793005 5:-1 6:-0.264009 7:-1 8:-1 9:-1 10:-1 11:-1 12:-0.585963 13:-0.700427 14:-1 15:-0.736753 16:-0.894983 17:-1 18:-0.602837 20:-1 21:-0.581209 
-0 -0 -0 -0 -0 0 39.77682405556997 0 0 0 11.26607817572403 0 6.825788230147557 2.232427225425686 0 0 0 0 0 0 0 1:-0.83187 2:-0.864078 3:-0.783171 4:-0.926642 5:-1 6:-0.295259 7:-1 8:-1 9:-1 10:-1 11:-0.962791 12:-0.653271 13:-0.901048 14:-1 15:-0.720406 16:-0.980867 17:-1 18:-0.744681 20:-1 21:-0.482012 
-0 -12.44154589869305 -0 -0 -0 0 0 0 0 0 0 0 0 0 0 0 0 0 0 0 0 1:-0.831312 2:-0.847896 3:-0.732663 4:-0.897071 5:-1 6:-0.358836 7:-1 8:-1 9:-1 10:-1 11:-0.965891 12:-0.533599 13:-0.795887 14:-1 15:-0.681511 16:-0.947279 17:-1 18:-0.676123 20:-1 21:-0.65875 
-0 -0 -26.1706762359331 -0 -0 0 0 0 0 0 0 0 0 0 0 0 0 0 0 0 0 1:-0.418096 2:-0.983819 3:-0.809411 4:-0.560421 5:-1 6:-0.515086 7:-1 8:-0.542373 9:-0.947368 10:-1 11:-0.693023 12:-0.668106 13:-0.502134 14:-1 15:-0.771702 16:-0.823554 17:-1 18:-0.281324 20:-1 21:-0.604261 
-6.901611086942067 -0 -33.10349846638742 -0 -0 120.812511037686 166.0739592303482 6.857026600915486 80.33280769458622 20.20200469467988 30.56697506997133 7.732649791057788 3.22336528893774 22.1445979464141 16.65844495032185 4.890990666565468 3.6536442261227 7.815846499232883 1.701592120938001 0.7693502573134187 3.067591990399767 1:-0.768298 2:-0.579288 3:-0.923449 4:-0.750924 5:-1 6:-0.601293 7:-1 8:-1 9:-1 10:-1 11:-0.928682 12:-0.929591 13:-0.797439 14:-1 15:-0.857384 16:-0.617347 17:-1 18:-0.345154 20:-1 21:-0.784143 
-0 -0 -0 -0 -663.5946387916194 163.450483859684 0 9.984558734973518 174.0483862376427 0 0 0 0 0 0 0 0 0 0 0 0 1:-0.783354 2:-0.851133 3:-0.88833 4:-0.670742 5:-1 6:-0.570043 7:-1 8:-1 9:-0.855263 10:-1 11:-0.996899 12:-0.903354 13:-0.575475 14:-1 15:-0.767756 16:-0.697704 17:-1 18:-0.489362 20:-1 21:-0.817674 
-0 -0 -5.516967209208278 -1.925189946606968 -0 270.3543073755451 0 0 0 0 0 0 0 0 0 0 0 0 0 0 0 1:-0.290395 2:-1 3:-0.569695 4:-0.861245 5:-1 6:0.320043 7:-1 8:-1 9:-1 10:-1 11:-1 12:-0.586073 13:-0.718277 14:-1 15:-0.674746 16:-0.835884 17:-1 18:-0.388495 20:-1 21:-0.554663 
-0 -2.769710206851617 -0 -2.880969379925073 -0 75.85395497712996 0 0 0 0 0 0 0 0 0 0 0 0 0 0 0 1:-0.181096 2:-0.951456 3:-0.661241 4:-0.733864 5:-1 6:0.586207 7:-1 8:-0.915254 9:-1 10:-1 11:-0.807752 12:-0.66091 13:-0.596042 14:-1 15:-0.340474 16:-0.826531 17:-1 18:-0.884949 20:-1 21:-0.299686 
-0 -6.429586321630492 -0 -0 -0 0 0 0 0 0 0 0 0 0 0 0 0 0 0 0 0 1:-0.22738 2:-0.944984 3:-0.52412 4:-0.220927 5:-1 6:-0.018319 7:-1 8:-0.991525 9:-0.828947 10:-1 11:-0.764341 12:-0.61541 13:-0.429181 14:-1 15:-0.759301 16:-0.582058 17:-1 18:-0.154452 20:-1 21:-0.632553 
-0 -10.91362471788077 -0 -0 -0 0 0 0 0 0 0 0 0 0 0 0 0 0 0 0 0 1:-0.686045 2:-0.97411 3:-0.650784 4:-0.540517 5:-1 6:-0.101293 7:-1 8:-1 9:-1 10:-1 11:-0.789147 12:-0.588509 13:-0.131936 14:-1 15:-0.336528 16:-0.876276 17:-1 18:-0.269504 20:-1 21:-0.0880196 
-0 -0 -0 -0 -0 0 0 0 0 0 1.023748274940538 0 0 0 0 0 0 0 0 0 0 1:-0.659835 2:-1 3:-0.62336 4:-0.869207 5:-1 6:0.186422 7:-1 8:-1 9:-1 10:-1 11:-1 12:-0.619063 13:-0.783469 14:-1 15:-0.247463 16:-0.96216 17:-1 18:-0.345942 20:-1 21:0.19036 
-0 -2.268264831782364 -4.499954939442803 -2.450454679104062 -15.49239158255994 5.407857850104085 0 0 23.08091806394779 0 0 0.8266889829923976 0 0 0 0 0.861957683878864 0.8260247244362293 0.9900625808601613 2.404971951766796 0 1:-0.458804 2:-0.883495 3:-0.521555 4:-0.859539 5:-1 6:-0.288793 7:-1 8:0.0677966 9:-0.184211 10:-1 11:-0.0821705 12:-0.55419 13:-0.750873 14:-1 15:-0.543968 16:-0.897959 17:-1 18:-0.663515 20:-1 21:-0.466643 
-0 -0 -0 -0 -0 0 0 0 0 0 0 0 0 0 0 0 0 0 0.266488495918195 0 0 1:-0.397184 2:-0.919094 3:-0.636579 4:-0.961331 5:-1 6:0.28556 7:-1 8:-0.923729 9:-1 10:-1 11:-0.658915 12:-0.636001 13:-0.948778 14:-1 15:-0.538331 16:-1 17:-1 18:-0.933018 20:-1 21:-0.323088 
-0 -0 -0 -0 -26.93096272332262 0 0 0 0 0 0 0 0 0 0 0 0 0 0 0 0 1:-0.51903 2:-0.961165 3:-0.801914 4:-0.257322 5:-1 6:-0.420259 7:-1 8:-1 9:-0.986842 10:-1 11:-0.83876 12:-0.781689 13:-0.545596 14:-1 15:-0.883315 16:-0.565901 17:-1 18:-0.27108 20:-1 21:-0.676912 
-0 -0 -0 -0 -0 0 0 0 0.09511481423385097 0 0 0 0 0 0 0 0 0 0.004436445230420499 0 0 1:-0.448766 2:-0.925566 3:-0.769754 4:-0.39039 5:-1 6:0.0280172 7:-1 8:-1 9:0.0263158 10:-1 11:-0.420155 12:-0.727665 13:-0.687233 14:-1 15:-0.639797 16:-0.668367 17:-1 18:-0.0874704 20:-1 21:-0.451624 
-0 -1.843991208786666 -0 -1.999398816781871 -0 14.03939605931798 0 0 0 0 0 0 0 0 0 0 0 0 0 0 0 1:-0.281193 2:-0.148867 3:-0.712736 4:-0.730452 5:-1 6:-0.376078 7:-1 8:-0.940678 9:-1 10:-1 11:-0.497674 12:-0.653493 13:-0.638339 14:-1 15:-0.557497 16:-0.807398 17:-1 18:-0.416864 20:-1 21:-0.434509 
-0 -0 -15.19199732229374 -0 -0 198.3359052414446 0 0 0 0 0 0 0 0 0 0 0 0 0 0 0 1:-0.258609 2:-1 3:-0.770741 4:-0.624111 5:-1 6:-0.207974 7:-1 8:-1 9:-1 10:-1 11:-1 12:-0.62958 13:-0.680248 14:-1 15:-0.514092 16:-0.879252 17:-1 18:-0.236407 20:-1 21:-0.378275 
-0 -0 -0 -0 -964.5611836943723 0 41.77504799609387 0 0 0 0 0 0 0 0 0 0 0 0 0 0 1:-0.783354 2:-1 3:-0.844727 4:-0.876599 5:-1 6:-0.734914 7:-1 8:-1 9:-1 10:-1 11:-1 12:-0.746485 13:-0.672099 14:-1 15:-0.886133 16:-0.845663 17:-1 18:-0.787234 20:-1 21:-0.930143 
-48.78007594168008 -0 -0 -0.4117233522299982 -0 0 218.6331231082267 231.5940267831345 66.26887173756067 108.2341303738133 104.4820313122742 218.8025764336476 81.09034804138504 21.16408302470943 133.0317484916432 40.83126552018206 38.0025235065287 36.26494765215885 17.09332585310639 16.97078025140092 50.33113301033936 1:-0.841628 2:-1 3:-0.868206 4:-0.888541 5:-1 6:-0.831897 7:-1 8:-1 9:-1 10:-1 11:-1 12:-0.690025 13:-0.896391 14:-1 15:-0.88106 16:-0.991497 17:-1 18:-0.850276 20:-1 21:-0.898708 
-0 -0 -0 -0 -371.3569075848613 0 0 30.61236131014553 321.396672099658 6.861934668310863 164.2076980111863 15.48944306895784 71.57383433392943 153.4519094957135 0 3.234665324261502 0 0 5.806727325886261 10.00597582882168 0 1:-0.815419 2:-0.964401 3:-0.81533 4:-0.881717 5:-1 6:-0.548491 7:-1 8:-1 9:-0.986842 10:-1 11:-0.677519 12:-0.767962 13:-0.869616 14:-1 15:-0.616122 16:-0.933248 17:-1 18:-0.643814 20:-1 21:-0.69752 
-0 -0 -0 -0 -0 0 249.4904904948316 0 208.8921934511017 0 7.131681005986721 3.531504867729525 32.07820272907747 0 2.095461144945597 0 0 4.954475614596111 2.911584863149041 0 0 1:-0.724523 2:-0.993528 3:-0.82046 4:-0.779357 5:-1 6:-0.375 7:-1 8:-1 9:-0.855263 10:-1 11:-0.851163 12:-0.820325 13:-0.796275 14:-1 15:-0.643179 16:-0.846939 17:-1 18:-0.71316 20:-1 21:-0.50716 
-0 -0 -0 -2.947036925346703 -0 0 0 0 0 0 0 0 0 0 0 0 0 0 0 0 0 1:-0.436777 2:-0.964401 3:-0.537141 4:-0.861245 5:-1 6:-0.283405 7:-1 8:-0.186441 9:-0.657895 10:-1 11:-0.603101 12:-0.592494 13:-0.754754 14:-1 15:-0.531003 16:-0.898384 17:-1 18:-0.635934 20:-1 21:-0.418093 
-0 -0 -0 -0 -0 899.1573886051353 0 0 0 0 0 0 0 0 0 0 0 0 0 0 0 1:-0.556113 2:-1 3:-0.613101 4:-0.73557 5:-1 6:-0.282328 7:-1 8:-1 9:-1 10:-1 11:-1 12:-0.613417 13:-0.800543 14:-1 15:-0.547914 16:-0.829507 17:-1 18:-0.386131 20:-1 21:-0.532309 
-0 -0 -0 -0 -0 100.0804203487503 0 0 0 0 0 0 0 0 0 0 0 0 0 0 0 1:-0.466332 2:-0.935275 3:-0.597119 4:-0.934035 5:-1 6:0.435345 7:-1 8:-1 9:-1 10:-1 11:-0.782946 12:-0.629027 13:-0.860691 14:-1 15:-0.449267 16:-0.963861 17:-1 18:-0.707644 20:-1 21:-0.257422 
-0 -0 -0 -0 -46.30753843920433 196.9646250111202 147.5429088699901 0 0 0 0 0 0 0 0 0 0 0 0 0 0 1:-0.51903 2:-0.961165 3:-0.801914 4:-0.257322 5:-1 6:-0.420259 7:-1 8:-1 9:-0.986842 10:-1 11:-0.83876 12:-0.781689 13:-0.545596 14:-1 15:-0.883315 16:-0.565901 17:-1 18:-0.27108 20:-1 21:-0.676912 
-0 -0 -12.44474057729903 -0 -22.36576447842856 79.60092656147771 0 0 9.881114349492357 0 0 0 0 0 0 0 0 0 1.06288084738366 0 0 1:-0.448766 2:-0.925566 3:-0.769754 4:-0.39039 5:-1 6:0.0280172 7:-1 8:-1 9:0.0263158 10:-1 11:-0.420155 12:-0.727665 13:-0.687233 14:-1 15:-0.639797 16:-0.668367 17:-1 18:-0.0874704 20:-1 21:-0.451624 
-0 -0 -56.54785859724348 -0 -1647.411254881478 0 291.4418841261228 0 0 0 0 0 0 0 0 0 0 0 0 0 0 1:-0.783354 2:-1 3:-0.844727 4:-0.876599 5:-1 6:-0.734914 7:-1 8:-1 9:-1 10:-1 11:-1 12:-0.746485 13:-0.672099 14:-1 15:-0.886133 16:-0.845663 17:-1 18:-0.787234 20:-1 21:-0.930143 
-0 -0 -0 -0 -0 1234.121753023403 93.64730029719981 0 0 0 0 0 0 0 -0 0 0 0 0 0 -0 1:-0.709745 2:-0.993528 3:-0.817106 4:-0.771396 5:-1 6:-0.373922 7:-1 8:-0.90678 9:-0.986842 10:-1 11:-0.851163 12:-0.800731 13:-0.756306 14:-1 15:-0.635851 16:-0.861395 17:-1 18:-0.630418 20:-1 21:-0.534404 
-0 -0.07731524437563742 -0 -0 -0 -21.57310363684055 0 0 0 0 0 0 0 0 0 0 0 0 0 0 0 1:-0.701659 2:-0.957929 3:-0.748841 4:-0.756042 5:-1 6:-0.59375 7:-1 8:-0.245763 9:-0.986842 10:-1 11:-0.668217 12:-0.703199 13:-0.476911 14:-1 15:-0.55186 16:-0.861395 17:-1 18:0.169425 20:-1 21:-0.375131 
-0 -0 -0 -0.003196364170902731 -2.561050493463936 -6.792245643094913 0 0 0 0 0 0 0 0 0 0 0 0 0 0 0 1:-0.797574 2:-0.880259 3:-0.796784 4:-0.881149 5:-1 6:-0.409483 7:-1 8:-0.567797 9:-0.0526316 10:-1 11:0.156589 12:-0.738182 13:-0.901824 14:-1 15:-0.391206 16:-0.951956 17:-1 18:-0.756501 20:-1 21:-0.338456 
-0 -0 -0 -0 -0 -62.65712877621052 0 0 0 0 0 0 0 0 0 0 0 0 0 0 0 1:-0.522933 2:-0.990291 3:-0.714314 4:-0.852147 5:-1 6:0.595905 7:-1 8:-1 9:-1 10:-1 11:-0.789147 12:-0.720248 13:-0.911525 14:-1 15:-0.560879 16:-0.860544 17:-1 18:-0.76911 20:-1 21:-0.0838282 
-0 -0 -0 -1.947214034362478 -0 -0 0 0 0 0 0 0 0 0 0 0 0 0 1.233052872325819 0 0 1:-0.558344 2:-1 3:-0.697346 4:-0.885129 5:-1 6:0.314655 7:-1 8:-1 9:-1 10:-1 11:-1 12:-0.712056 13:-0.923943 14:-1 15:-0.479143 16:-0.951956 17:-1 18:-0.791962 20:-1 21:-0.202585 
-0 -0.2373474572796099 -0.1354742461726633 -0 -0 -280.7401640469371 0 0 0 0 0 0 0 0 0 0 0 0 0 0 0 1:-0.406664 2:-1 3:-0.743711 4:-0.754336 5:-1 6:-0.326509 7:-1 8:-1 9:-1 10:-1 11:-1 12:-0.634451 13:-0.917734 14:-1 15:-0.473506 16:-0.830357 17:-1 18:-0.538219 20:-1 21:-0.540342 
-0 -2.788388460305051 -34.51966225704721 -0 -36.54356041686447 -227.4172619064684 91.46724493184809 0 1.154994448165071 0 0 0 0 0 0 0 0 0 0 0 0 1:-0.419769 2:-0.644013 3:-0.821643 4:-0.65027 5:-1 6:-0.335129 7:-1 8:-1 9:-0.986842 10:-1 11:-0.460465 12:-0.67663 13:-0.634071 14:-1 15:-0.710259 16:-0.772109 17:-1 18:-0.0614657 20:-1 21:-0.554314 
-0 -0 -0 -0 -0 -0 2.952818859183439 0 0 0 0 0 0 0 0 0 0 0 0 0 0 1:-0.648125 2:-0.893204 3:-0.758114 4:-0.625817 5:-1 6:0.587284 7:-0.475113 8:-0.889831 10:-1 11:-0.274419 12:-0.714491 13:-0.852154 14:-1 15:-0.296505 16:-0.944728 17:-1 18:-0.486998 20:-1 21:0.247992 
-0 -4.150479993323414 -0 -1.925570878540593 -19.78111804257518 -20.66708032591646 2.293729172958433 0 0 0 0 0 0 0 0 0 0 0 0 0 0 1:-0.533807 2:-0.262136 3:-0.569695 4:-0.598521 5:-1 6:0.15625 7:-0.493213 8:-0.957627 9:-0.0394737 10:-1 11:-0.379845 12:-0.582641 13:-0.54482 14:-1 15:-0.63867 16:-0.905187 17:-1 18:-0.0961387 20:-1 21:-0.477122 
-0 -0 -0 -0 -0 -177.4586153418793 0 0 0 0 0 0 0 0 0 0 0 0 0 0 0 1:-0.683257 2:-0.996764 3:-0.675644 4:-0.719647 5:-1 6:-0.0409483 7:-1 8:-0.957627 9:-0.947368 10:-1 11:-0.80155 12:-0.680062 13:-0.698875 14:-1 15:-0.47407 16:-0.865646 17:-1 18:-0.337273 20:-1 21:-0.516242 
-0 -0 -7.359505708395221 -0 -43.45108736066301 -22.80677369105643 5.749215730224382 0 11.16665709386616 0.3529760433456838 0 0 0 0 1.041962007888589 0 0.7086260470482425 0 0 0 0.03980401667463736 1:-0.841907 2:-0.770227 3:-0.846898 4:-0.657094 5:-1 6:-0.247845 7:-1 8:-0.957627 9:0.828947 10:-1 11:-0.643411 12:-0.854423 13:-0.322468 14:-1 15:-0.725479 16:-0.826956 17:-1 18:-0.265563 20:-1 21:-0.640936 
-9.712785718971114 -0 -18.47822464549397 -0 -593.6276049318037 -1331.88795387415 246.5502772617541 15.20609801533569 32.67053993210928 0 1.847845157449018 13.18566571727006 12.08387184176632 4.305200839643105 0.4163462316551078 9.44539629990061 9.233689376667382 1.820533219212286 3.844146047812663 5.870376787439446 7.893908558749412 1:-0.708908 2:-1 3:-0.746473 4:-0.691214 5:-1 6:-0.243534 7:-1 8:-1 9:-1 10:-1 11:-1 12:-0.821986 13:-0.629414 14:-1 15:-0.772266 16:-0.77466 17:-1 18:-0.542159 20:-1 21:-0.630108 
-0 -2.497502863962779 -1.898476121682344 -0.7253183137319845 -16.29461757614464 -103.7642976774645 7.264857193082654 0 0 0 0.2913521577299496 0 1.597966514322469 0 0 0 0 0 0 0 0 1:-0.701659 2:-0.957929 3:-0.748841 4:-0.756042 5:-1 6:-0.59375 7:-1 8:-0.245763 9:-0.986842 10:-1 11:-0.668217 12:-0.703199 13:-0.476911 14:-1 15:-0.55186 16:-0.861395 17:-1 18:0.169425 20:-1 21:-0.375131 
-4.069252628482995 -0 -0 -0.5736420359060179 -29.06206206695135 -47.38253835232776 0 3.470439319916994 22.5121672582302 6.233406663421055 4.072060158652825 3.523485235067183 7.333830949387158 4.961173600292422 3.735563000700764 4.545056371049085 3.707778773432289 4.77332324110738 2.610796976737504 6.168571641929044 5.478967626603703 1:-0.797574 2:-0.880259 3:-0.796784 4:-0.881149 5:-1 6:-0.409483 7:-1 8:-0.567797 9:-0.0526316 10:-1 11:0.156589 12:-0.738182 13:-0.901824 14:-1 15:-0.391206 16:-0.951956 17:-1 18:-0.756501 20:-1 21:-0.338456 
-0 -0 -0 -0 -0 -5.899357760289236 0 0 0 0 0 0 0 0 0 0 0 0 0 0 0 1:-0.678517 2:-1 3:-0.762454 4:-0.885129 5:-1 6:0.510776 7:-1 8:-1 9:-1 10:-1 11:-1 12:-0.748478 13:-0.866123 14:-1 15:-0.373732 16:-0.973214 17:-1 18:-0.379827 20:-1 21:0.0876703 
-0.2894391190496128 -0 -0 -0 -49.25115010118909 -58.64384773976313 419.422878048036 10.67136389317857 102.0739396163954 26.9614824822054 27.32326445051993 5.2176387603439 10.34113255381524 32.91531265219606 11.92779753246429 1.291488099931478 0 10.01500237633477 7.730181887974047 2.755483954218768 0.8978970559071418 1:-0.796459 2:-0.983819 3:-0.8102 4:-0.696332 5:-1 6:-0.266164 7:-1 8:-1 9:-1 10:-1 11:-0.83876 12:-0.836599 13:-0.716337 14:-1 15:-0.714769 16:-0.72534 17:-1 18:-0.471237 20:-1 21:-0.509256 
-0 -0 -0 -1.242544020141269 -26.26645515791895 -44.71501748828396 0 0 0 0 0 0 0 0 0 0 0 0 0 0 0 1:-0.522933 2:-0.990291 3:-0.714314 4:-0.852147 5:-1 6:0.595905 7:-1 8:-1 9:-1 10:-1 11:-0.789147 12:-0.720248 13:-0.911525 14:-1 15:-0.560879 16:-0.860544 17:-1 18:-0.76911 20:-1 21:-0.0838282 
-0 -4.178971219609042 -24.46502743969715 -3.006016468749488 -0 -857.8558036302262 0 0 0 0 1.00347033636605 0.617248823828262 0 2.442946271246132 0 0 0 0 0 0 0 1:-0.406664 2:-1 3:-0.743711 4:-0.754336 5:-1 6:-0.326509 7:-1 8:-1 9:-1 10:-1 11:-1 12:-0.634451 13:-0.917734 14:-1 15:-0.473506 16:-0.830357 17:-1 18:-0.538219 20:-1 21:-0.540342 
-0 -11.31909223454326 -0 -0 -0 -87.91834005989061 0 0 0 0 0 0 0 0 0 0 0 0 0 0 0 1:-0.63753 2:-0.990291 3:-0.646049 4:-0.741825 5:-1 6:0.0959052 7:-1 8:-0.957627 9:-1 10:-1 11:-0.770543 12:-0.642754 13:-0.741172 14:-1 15:-0.360767 16:-0.861395 17:-1 18:-0.524823 20:-1 21:-0.392595 
-0 -0 -0 -0 -0 -0 -0 0 0 1.139005003808998 0 0 0 0 0 0 0 0 0 0 0 1:-0.831033 2:-1 3:-0.974746 4:-0.467728 5:-1 6:-0.323276 7:-1 8:-1 9:-1 10:-1 11:-1 12:-0.930034 13:-0.627862 14:-1 15:-0.918264 16:-0.352041 17:-1 18:-0.0283688 20:-1 21:-0.751659 
-0 -0 -0 -0 -108.9741738972608 -34.24482807751019 -3.95075362541652 0 0 0 0 0 0 0 0 0 0 0 0 0 0 1:-0.880106 2:-0.799353 3:-0.827562 4:-0.876031 5:-1 6:-0.301724 7:-0.782805 8:-1 9:-1 10:-1 11:-0.727132 12:-0.739843 13:-0.690338 14:-1 15:-0.749154 16:-0.822279 17:-1 18:-0.420016 20:-1 21:-0.79532 
-0 -0 -0 -0 -0 -0 -48.9275888987185 0 11.18292828075429 0 0 0 0 0 0 0 0 0 0 0 0 1:-0.763279 2:-0.990291 3:-0.942981 4:-0.506397 5:-1 6:-0.0883621 7:-1 8:-1 9:-0.921053 10:-1 11:-0.844961 12:-0.937784 13:-0.622817 14:-1 15:-0.823563 16:-0.406888 17:-1 18:0.189125 20:-1 21:-0.690884 
-0 -0 -0 -0 -405.2109360466652 -0 -0 0 0 0 0 0 0 0 0 0 0 0 0 0 0 1:-0.859194 2:-1 3:-0.77153 4:-0.437589 5:-1 6:-0.578664 7:-1 8:-1 9:-1 10:-1 11:-1 12:-0.777372 13:-0.21071 14:-1 15:-0.934047 16:-0.385629 17:-1 18:-0.695035 20:-1 21:-0.914775 
-5.842638049972083 -0 -0 -0 -2048 -125.1599334610323 -6.109571280002746 94.58761599496204 47.01135765743012 23.20649813295374 76.70284282114132 39.4243652545116 39.82917260512871 37.08696252036852 24.0210960267686 8.918493050353769 0 0 0 3.49030482069357 0 1:-0.87676 2:-1 3:-0.829535 4:-0.788456 5:-1 6:-0.601293 7:-1 8:-1 9:-1 10:-1 11:-1 12:-0.708403 13:-0.757858 14:-1 15:-0.661218 16:-0.789116 17:-1 18:-0.80063 20:-1 21:-0.803353 
-0 -0 -0 -0 -984.8899362353386 -0.05535636844405858 -0 0 0 0 0 0 0 0 0 0 0 0 0 0 0 1:-0.802593 2:-1 3:-0.752392 4:-0.624111 5:-1 6:-0.939655 7:-1 8:-1 9:-1 10:-1 11:-1 12:-0.589394 13:-0.63213 14:-1 15:-0.987035 16:-0.796344 17:-1 18:-0.967691 20:-1 21:-0.997555 
-0 -0 -0 -0 -2048 -21.49629792020535 -0 0 0 0 0 0 0 0 0 0 0 0 0 0 0 1:-0.84135 2:-1 3:-0.777449 4:-0.781632 5:-1 6:-0.484914 7:-1 8:-1 9:-1 10:-1 11:-1 12:-0.639765 13:-0.689173 14:-1 15:-0.994927 16:-0.854167 17:-1 18:-0.539007 20:-1 21:-0.684597 
-0 -0 -0 -0 -2048 -0 -0 0 0 0 0 0 0 0 0 0 0 0 0 0 0 1:-0.803987 2:-0.964401 3:-0.852816 4:-0.583736 5:-1 6:-0.492457 7:-1 8:-1 9:-1 10:-1 11:-0.832558 12:-0.743939 13:-0.474971 14:-1 15:-0.946449 16:-0.597364 17:-1 18:-0.587076 20:-1 21:-0.887181 
-16.86837235825859 -0 -0 -0 -2048 -970.963601785765 -0 0 0 19.49672559042169 3.830441631705456 18.94379584778102 0 6.161662735445426 6.514986778513032 7.070071531125643 13.39644127397024 16.4454847503911 8.585984804499708 2.006516109152278 15.84865738486244 1:-0.855291 2:-1 3:-0.760087 4:-0.723628 5:-1 6:-0.627155 7:-1 8:-1 9:-1 10:-1 11:-1 12:-0.673088 13:-0.785797 14:-1 15:-0.853439 16:-0.846514 17:-1 18:-0.761229 20:-1 21:-0.815578 
-5.247658576454829 -0 -6.28838110012363 -0 -644.3390163039555 -138.0868778294997 -197.3177930914758 13.61065458952544 116.8179301317207 12.22890184355117 0 9.412807362541328 17.21356266072057 31.51262273748641 0 10.24168825158904 8.261280423744939 12.83071804408466 16.65410970861404 10.97028644918703 8.85719113258148 1:-0.826014 2:-0.87055 3:-0.887343 4:-0.869207 5:-1 6:-0.190733 7:-1 8:-1 9:-1 10:-1 11:-0.631008 12:-0.745378 13:-0.638727 14:-1 15:-0.816798 16:-0.872024 17:-1 18:-0.6974 20:-1 21:-0.640936 
-0 -0 -4.331644883155991 -0 -0 -0 -0 23.27308883022205 0 0 0 0 0 0 15.76469662527527 0 0 0 0 0 0 1:-0.793671 2:-1 3:-0.892276 4:-0.501279 5:-1 6:-0.807112 7:-1 8:-1 9:-1 10:-1 11:-1 12:-0.818001 13:-0.528522 14:-1 15:-1 16:-0.372449 17:-1 18:-0.799054 20:-1 21:-0.962277 
-0 -0 -0 -0 -0 -0 -0 0 8.555684410575518 0 0 0 0 1.715032126699281 0 0 0 0 0 0 0 1:-0.706399 2:-1 3:-0.881622 4:-0.517202 5:-1 6:-0.429957 7:-1 8:-1 9:-1 10:-1 11:-1 12:-0.729326 13:-0.816065 14:-1 15:-0.856821 16:-0.628401 17:-1 18:-0.0992908 20:-1 21:-0.615089 
-0 -7.53067991607807 -0 -1.396623732161145 -0 -185.5100814538791 -177.3144288154087 0 4.279145201057865 0 0 0 0 0 0 0 0 0 0 0 0 1:-0.730657 2:-1 3:-0.706225 4:-0.635485 5:-1 6:-0.454741 7:-1 8:-1 9:-1 10:-1 11:-1 12:-0.682719 13:-0.642608 14:-1 15:-0.601466 16:-0.795493 17:-1 18:-0.55792 20:-1 21:-0.230877 
-0 -0 -37.32418024639118 -0 -487.8759424494583 -324.2326512819093 -153.8942115543336 0 29.64749060477013 0 0 0 0 0 0 0 0 0 0 0 0 1:-0.56643 2:-1 3:-0.901549 4:-0.517771 5:-1 6:-0.307112 7:-1 8:-1 9:-1 10:-1 11:-1 12:-0.864497 13:-0.649981 14:-1 15:-0.803269 16:-0.619048 17:-1 18:-0.315997 20:-1 21:-0.530213 
-0 -0 -0.06875552773374531 -0 -0 -0 -0 0.002174862985606252 0.2542553379245115 0 0.01005767671630975 0.0124885734284906 0 0 0 0 0 0 0 0.001123822527384377 0 1:-0.697477 2:-0.656958 3:-0.760481 4:-0.793574 5:-1 6:-0.294181 7:-0.257919 8:-0.347458 9:-0.763158 10:-1 11:-0.342636 12:-0.691907 13:-0.728754 14:-1 15:-0.651071 16:-0.885204 17:-1 18:-0.468873 20:-1 21:-0.404471 
-0 -1.653446260385073 -13.67072457144105 -0 -209.9272971425551 -135.8408825635785 -106.5959088576531 0 0 0 1.316203237881007 0 0 0.07194942692296198 0 0 0 0 0 0 0 1:-0.880106 2:-0.799353 3:-0.827562 4:-0.876031 5:-1 6:-0.301724 7:-0.782805 8:-1 9:-1 10:-1 11:-0.727132 12:-0.739843 13:-0.690338 14:-1 15:-0.749154 16:-0.822279 17:-1 18:-0.420016 20:-1 21:-0.79532 
-0 -10.67802316031209 -0 -0 -336.902851713612 -0 -0 0 0 0 0 0 0 0 0 0 0 0 0 0 0 1:-0.859194 2:-1 3:-0.77153 4:-0.437589 5:-1 6:-0.578664 7:-1 8:-1 9:-1 10:-1 11:-1 12:-0.777372 13:-0.21071 14:-1 15:-0.934047 16:-0.385629 17:-1 18:-0.695035 20:-1 21:-0.914775 
-0 -2.386088058135501 -13.08923636418235 -1.712515851826752 -1019.042725313277 -30.61864609286908 -0 3.971047457186738 0 0 0 0 0 0 5.36281879146853 0 1.10177488265775 0 0 2.245432762011172 0.980360015548326 1:-0.802593 2:-1 3:-0.752392 4:-0.624111 5:-1 6:-0.939655 7:-1 8:-1 9:-1 10:-1 11:-1 12:-0.589394 13:-0.63213 14:-1 15:-0.987035 16:-0.796344 17:-1 18:-0.967691 20:-1 21:-0.997555 
-0 -0 -0 -0 -0 -0 -36.00296971957811 0 0 0 0 0 0 0 0 0 0 0 0 0 0 1:-0.676286 2:-1 3:-0.853803 4:-0.59056 5:-1 6:-0.128233 7:-1 8:-1 9:-1 10:-1 11:-1 12:-0.72844 13:-0.799379 14:-1 15:-0.880496 16:-0.63818 17:-1 18:-0.237983 20:-1 21:-0.521481 
-0 -0 -0 -0.1118226336712637 -0 -24.3710494148452 -45.58779535450007 0 0 0 0 0 0 0 0 0 0 0 0 0 0 1:-0.522097 2:-1 3:-0.894051 4:-0.439864 5:-1 6:-0.0840517 7:-1 8:-1 9:-1 10:-1 11:-1 12:-0.854755 13:-0.636011 14:-1 15:-0.796505 16:-0.582483 17:-1 18:-0.215918 20:-1 21:-0.478519 
-0 -2.547426899907605 -2.187128645871214 -4.089350693576377 -0 -1.749512870952858 -0 1.442173219842653 14.80327330009946 0.01956457718407861 5.380698691174575 2.579188098329003 34.60650491283425 2.010974555544742 0 0 0 0.1458197867131048 1.236891904818108 2.924337474814006 0 1:-0.697477 2:-0.656958 3:-0.760481 4:-0.793574 5:-1 6:-0.294181 7:-0.257919 8:-0.347458 9:-0.763158 10:-1 11:-0.342636 12:-0.691907 13:-0.728754 14:-1 15:-0.651071 16:-0.885204 17:-1 18:-0.468873 20:-1 21:-0.404471 
-0 -0 -0 -0 -0 -0 -0 -0 17.11187020585814 679.0243828209599 0 1042.08655272331 0 0 1202.349723851582 0 35.40857117771904 0 0 0 0 1:-0.955388 2:-0.770227 3:-0.95403 4:-0.79528 5:-1 6:-0.842672 7:-1 8:-1 9:-1 10:-1 11:-0.84186 12:-0.964021 13:-0.828871 14:-1 15:-0.932356 16:-0.701956 17:-1 18:-0.808511 20:-1 21:-0.852951 
-0 -0 -0 -0 -0 -10.04415865318679 -0 -0 0 0 0 91.32278850045167 0 0 0 0 0 0 0 0 0 1:-0.949254 2:-0.909385 3:-0.905495 4:-0.665624 5:-1 6:-0.764009 7:-1 8:-0.79661 9:-1 10:-1 11:-0.807752 12:-0.931031 13:-0.634459 14:-1 15:-0.945321 16:-0.839286 17:-1 18:-0.646966 20:-1 21:-0.894516 
-0 -0 -23.11798381313778 -0 -0 -0 -0 -0 0 583.9325916994762 0 0 0 0 284.9941965638488 0 0 0 0 0 0 1:-0.909104 2:-0.893204 3:-0.940219 4:-0.818027 5:-1 6:-0.969828 7:-0.791855 8:-0.737288 9:-0.973684 10:-1 11:-0.711628 12:-0.970442 13:-0.820334 14:-1 15:-0.950395 16:-0.711735 17:-1 18:-0.765169 20:-1 21:-0.992316 
-0 -0 -0 -1.576733493975848 -0 -0 -0 -0 230.5272262958029 26.22327705031804 17.42986823743013 0 22.90549881170901 0 0 41.32451738783379 69.33000557271693 20.97047328505111 0 17.8590241155057 16.39984626451407 1:-0.945629 2:-0.592233 3:-0.971589 4:-0.937447 5:-1 6:-0.907328 7:-0.511312 8:-0.661017 9:-0.0131579 10:-1 11:-0.792248 12:-0.982951 13:-0.89057 14:-1 15:-0.947012 16:-0.892857 17:-1 18:-0.676123 20:-1 21:-0.922808 
-0 -0 -0 -0.8958399730360054 -0 -0 -0 -0 268.977897243005 0 18.27009915384923 1369.659438835742 67.8365678322636 62.94420202068819 0 0 0 0 0 1.033880719594248 0 1:-0.959571 2:-0.954693 3:-0.82776 4:-0.952232 5:-1 6:-0.65194 7:-1 8:-0.966102 9:-1 10:-1 11:-0.6 12:-0.852651 13:-0.853318 14:-1 15:-0.710259 16:-0.969388 17:-1 18:-0.983452 20:-1 21:-0.771219 
-0 -3.676462330041833 -3.652834995001407 -0 -51.08168433835239 -0 -0 -51.70267531537539 0 0 0 0 0 0 0 0 0 0 0 0 0 1:-0.910498 2:-0.990291 3:-0.858341 4:-0.732727 5:-1 6:-0.800647 7:-1 8:-1 9:-1 10:-1 11:-0.857364 12:-0.910218 13:-0.665891 14:-1 15:-0.801578 16:-0.717262 17:-1 18:-0.791174 20:-1 21:-0.870066 
-0 -4.632776467848766 -0 -0 -12.07291459841406 -0 -0.5897983162704395 -40.22200314425807 0 0 9.804358715292244 0 0 0 0 0 0 0 0 0 0 1:-0.922487 2:-0.938511 3:-0.876887 4:-0.876031 5:-1 6:-0.65194 7:-1 8:-1 9:-0.855263 10:-1 11:-0.941085 12:-0.92151 13:-0.703531 14:-1 15:-0.730552 16:-0.6875 17:-1 18:-0.826635 20:-1 21:-0.79986 
-35.14036353366927 -0 -17.24274386354195 -2.144743407865335 -34.38617907089559 -32.73997786183013 -14.04326461747533 -36.8231399774436 1885.989064744032 2048 248.9680981606187 2048 224.0808203840764 22.41696855325461 1935.359022194148 31.51160295495082 0 0 0 0 0 1:-0.827966 2:-1 3:-0.859722 4:-0.853284 5:-1 6:-0.567888 7:-1 8:-1 9:-1 10:-1 11:-1 12:-0.925717 13:-0.837796 14:-1 15:-0.748591 16:-0.993622 17:-1 18:-0.908589 20:-1 21:-0.73664 
-0 -0 -0 -0 -0 -0 -0 -0 0 0 0 508.0293630543898 0 0 0 0 0 0 0 0 0 1:-0.963753 2:-1 3:-0.939627 4:-0.861814 5:-1 6:-0.856681 7:-1 8:-1 9:-1 10:-1 11:-1 12:-0.932913 13:-0.875049 14:-1 15:-0.906426 16:-0.941327 17:-1 18:-0.79275 20:-1 21:-0.898358 
-0 -0 -0 -0 -0 -0 -0 -0 309.6247622525631 0 10.03803021336659 270.3782502045864 16.33338714396366 176.8429362365393 0 0 20.64009801337716 153.0831176959549 53.08711957375574 46.45829587765515 0 1:-0.979925 2:-0.967638 3:-0.954424 4:-0.956781 5:-1 6:-0.835129 7:-0.99095 8:-0.915254 9:-0.197368 10:-1 11:-0.736434 12:-0.901804 13:-0.946449 14:-1 15:-0.865276 16:-0.986395 17:-1 18:-0.893617 20:-1 21:-0.860985 
-0 -0 -0 -0 -0 -0 -0 -0 0 0 35.04360251195026 610.3254708333975 0 0 0 0 0 0 0 0 0 1:-0.946745 2:-0.993528 3:-0.876689 4:-0.885698 5:-1 6:-0.877155 7:-1 8:-0.771186 9:-1 10:-1 11:-0.941085 12:-0.85874 13:-0.837796 14:-1 15:-0.824126 16:-0.948554 17:-1 18:-0.857368 20:-1 21:-0.883688 
-30.70892629583514 -0 -0 -0 -0 -0 -0 -0 0 1067.080233052005 0 0 0 0 2048 0 0 0 0 0 0 1:-0.946466 2:-0.97411 3:-0.956003 4:-0.968155 5:-1 6:-0.929957 7:-1 8:-1 9:-1 10:-1 11:-0.925581 12:-0.883206 13:-0.942181 14:-1 15:-0.934611 16:-0.985969 17:-1 18:-0.940898 20:-1 21:-0.963674 
-111.926225113452 -0 -0 -0 -0 -0 -0 -0 0 265.039784042313 0 71.52685646234994 0 0 1132.387824050653 21.71065555368464 0 40.12298424714351 42.03752533198862 0 0 1:-0.951764 2:-1 3:-0.937062 4:-0.993176 5:-1 6:-0.940733 7:-1 8:-1 9:-0.723684 10:-1 11:-0.931783 12:-0.88387 13:-0.975165 14:-1 15:-0.914882 16:-1 17:-1 18:-1 20:-1 21:-0.976947 
-4.830772164861548 -0 -0 -0 -0 -0 -0 -0 0 362.2960210071406 0 0 0 0 0 0 0 0 0 0 0 1:-0.973791 2:-0.957929 3:-0.982441 4:-0.922661 5:-1 6:-0.961207 7:-1 8:-1 9:-0.789474 10:-1 11:-0.987597 12:-0.932027 13:-0.910749 14:-1 15:-0.927847 16:-0.939626 17:-1 18:-0.884161 20:-1 21:-0.971359 
-0 -0 -0 -0 -0 -1.722450023158181 -0 -0 8.407455142938856 0 0 2044.835760597982 0 0 0 0 0 0 0 0 0 1:-0.923881 2:-1 3:-0.821052 4:-0.962468 5:-1 6:-0.83944 7:-1 8:-1 9:-1 10:-1 11:-1 12:-0.803941 13:-0.946837 14:-1 15:-0.84611 16:-1 17:-1 18:-0.914894 20:-1 21:-0.92665 
-0 -0 -0 -0 -0 -0 -0 -0 0 0 0 0 0 0 447.3948642482054 0 0 0 0 0 0 1:-0.943957 2:-1 3:-0.891092 4:-0.989195 5:-1 6:-0.882543 7:-1 8:-1 9:-1 10:-1 11:-1 12:-0.831396 13:-0.972061 14:-1 15:-0.899662 16:-1 17:-1 18:-0.981087 20:-1 21:-0.932588 
-0 -1.655486231500338 -0 -0.2819095877697753 -6.620652100865058 -12.73449134383092 -14.24264350747079 -6.604834195153067 0 0 0 0 26.18323562131473 0 0 0 0 0 0 0 0 1:-0.887077 2:-0.857605 3:-0.928973 4:-0.565539 5:-1 6:-0.633621 7:-0.882353 8:-1 9:-1 10:-1 11:-0.550388 12:-0.963799 13:-0.740396 14:-1 15:-0.81398 16:-0.640731 17:-1 18:-0.648542 20:-1 21:-0.747468 
-0 -0 -0.3230269243033921 -0 -0.04442414838322502 -0 -0 -0 0 24.25026595877014 0 0 0 0 45.53979026081614 0 0 0 0 0 0 1:-0.894326 2:-0.996764 3:-0.888724 4:-0.673017 5:-1 6:-0.769397 7:-1 8:-1 9:-0.342105 10:-1 11:-0.823256 12:-0.953282 13:-0.772992 14:-1 15:-0.908117 16:-0.752126 17:-1 18:-0.681639 20:-1 21:-0.906741 
-0 -0 -0 -0 -0 -0 -0 -0 0 0 0.3154128874617585 0 0 0 0 0 0 0 0 0 0 1:-0.978252 2:-0.925566 3:-0.948308 4:-0.972704 5:-1 6:-0.899784 7:-1 8:-1 9:-1 10:-1 11:-0.941085 12:-0.904683 13:-0.907256 14:-1 15:-0.776212 16:-0.99915 17:-1 18:-0.939322 20:-1 21:-0.851205 
-0 -0 -0 -0 -0 -0 -0 -0 0 1848.814887595323 0 0 0 0 0 0 0 0 0 0 0 1:-0.967099 2:-1 3:-0.937457 4:-0.924367 5:-1 6:-0.840517 7:-1 8:-1 9:-1 10:-1 11:-1 12:-0.925717 13:-0.798215 14:-1 15:-0.885006 16:-0.83631 17:-1 18:-0.814027 20:-1 21:-0.857143 
-55.51419410304348 -0 -0 -0 -0 -0 -0 -0 0 141.3800248249621 0 550.6451538080361 0 0 324.062925866085 153.8297696128452 27.64988708777843 25.24668480542536 46.75809820581033 107.3088934770812 46.65689151913794 1:-0.958734 2:-0.909385 3:-0.984019 4:-0.891385 5:-1 6:-0.818966 7:-0.791855 8:-1 9:-0.710526 10:-1 11:-0.75814 12:-0.999779 13:-0.899107 14:-1 15:-0.857384 16:-0.786565 17:-1 18:-0.843184 20:-1 21:-0.913378 
-57.78381710869289 -0 -0 -0 -0 -0 -0 -0 0 306.4224663027575 0 0 0 6.495579134076239 0 0 33.13845134312792 37.73661662663592 28.50754158753272 16.7577175351185 79.23821974237383 1:-0.950091 2:-0.773463 3:-0.996843 4:-0.873756 5:-1 6:-0.814655 7:-0.954751 8:-0.991525 9:0.289474 10:-1 11:-0.444961 12:-1 13:-0.993403 14:-1 15:-0.998873 16:-0.708333 17:-1 18:-0.728132 20:-1 21:-0.945512 
-0 -0 -0 -0 -0 -0 -0 -0 0 1867.846905863762 0 2048 0 0 271.3080056781775 5.372124668856462 0 71.4787553020808 1.034400264379685 0 29.89684341260324 1:-0.985222 2:-0.951456 3:-0.978692 4:-0.995451 5:-1 6:-0.908405 7:-1 8:-0.855932 9:-1 10:-1 11:-0.906977 12:-0.919185 13:-0.975165 14:-1 15:-0.916009 16:-1 17:-1 18:-0.947991 20:-1 21:-0.953545 
-15.80607412982023 -0 -0 -0 -0 -0 -0 -0 1587.079274065892 0 0 401.1821921622344 0 62.94279665281413 996.5616715230236 0 0 0 33.73659539656727 0 0 1:-0.9763 2:-1 3:-0.955805 4:-0.934035 5:-1 6:-0.846983 7:-1 8:-1 9:-1 10:-1 11:-0.869767 12:-0.943319 13:-0.86884 14:-1 15:-0.915445 16:-0.946854 17:-1 18:-0.785658 20:-1 21:-0.932588 
-0 -0 -0 -0 -0 -0 -0 -0 0 0 0 167.0609981606613 43.43289794391693 0 562.9561279754221 0 0 0 0 0 0 1:-0.947302 2:-1 3:-0.931933 4:-0.984646 5:-1 6:-0.952586 7:-1 8:-0.720339 9:-1 10:-1 11:-0.848062 12:-0.862504 13:-0.989523 14:-1 15:-0.92841 16:-1 17:-1 18:-0.976359 20:-1 21:-0.985679 
-10.40478539842949 -0 -0 -0 -0 -0 -0 -0 0 288.2489172815216 0 0 0 0 0 0 0 151.8772278725992 0 0 199.9598344163796 1:-0.973791 2:-0.957929 3:-0.982441 4:-0.922661 5:-1 6:-0.961207 7:-1 8:-1 9:-0.789474 10:-1 11:-0.987597 12:-0.932027 13:-0.910749 14:-1 15:-0.927847 16:-0.939626 17:-1 18:-0.884161 20:-1 21:-0.971359 
-0 -0 -0 -0 -0 -190.4768334128306 -0 -0 361.4628192782998 0 2.657861078974683 874.034287413921 0 0 0 0 0 0 0 0 0 1:-0.923881 2:-1 3:-0.821052 4:-0.962468 5:-1 6:-0.83944 7:-1 8:-1 9:-1 10:-1 11:-1 12:-0.803941 13:-0.946837 14:-1 15:-0.84611 16:-1 17:-1 18:-0.914894 20:-1 21:-0.92665 
-0 -0 -9.901660356466497 -0 -5.275102953820998 -3.599466191247509 -0.4721947872146862 -0 0 84.01684434141352 0 0 0 0 510.7719596348359 0 0 0 0 0 0 1:-0.894326 2:-0.996764 3:-0.888724 4:-0.673017 5:-1 6:-0.769397 7:-1 8:-1 9:-0.342105 10:-1 11:-0.823256 12:-0.953282 13:-0.772992 14:-1 15:-0.908117 16:-0.752126 17:-1 18:-0.681639 20:-1 21:-0.906741 
-0 -0 -0 -0 -0 -0 -0 -0 0 0 14.68776934215274 0 0 0 0 0 0 0 0 0 0 1:-0.978252 2:-0.925566 3:-0.948308 4:-0.972704 5:-1 6:-0.899784 7:-1 8:-1 9:-1 10:-1 11:-0.941085 12:-0.904683 13:-0.907256 14:-1 15:-0.776212 16:-0.99915 17:-1 18:-0.939322 20:-1 21:-0.851205 
-140.6250990101973 -0 -0 -0 -0 -0 -0 -0 555.2121180233055 2048 0 2048 0 0 230.0214941923665 275.858772524688 456.6245486759378 242.2734371078565 33.69186826532606 74.26528159155968 972.235545056039 1:-0.985222 2:-0.951456 3:-0.978692 4:-0.995451 5:-1 6:-0.908405 7:-1 8:-0.855932 9:-1 10:-1 11:-0.906977 12:-0.919185 13:-0.975165 14:-1 15:-0.916009 16:-1 17:-1 18:-0.947991 20:-1 21:-0.953545 
-0 -0 -0 -0 -0 -0 -0 -0 0 0 0 1181.087030001335 0 0 0 0 0 0 0 0 0 1:-0.931409 2:-0.993528 3:-0.920687 4:-0.915837 5:-1 6:-0.875 7:-0.972851 8:-1 9:-0.684211 10:-1 11:-0.764341 12:-0.891398 13:-0.878929 14:-1 15:-0.8292 16:-0.98852 17:-1 18:-0.910165 20:-1 21:-0.90255 
-0 -0 -0 -0 -0 -9.246021175081868 -0 -0 0 0 0 0 0 0 0 0 0 0 0 0 0 1:-0.920257 2:-0.915858 3:-0.836441 4:-0.868069 5:-1 6:-0.886853 7:-1 8:-0.983051 9:-1 10:-1 11:-0.848062 12:-0.853758 13:-0.752037 14:-1 15:-0.811725 16:-0.88733 17:-1 18:-0.799842 20:-1 21:-0.927698 
-0 -0.04499772056403374 -11.23899101205376 -0 -12.17634119758699 -18.48457476800299 -0 -1.534102322494408 613.6411182667656 0 0 583.1023410870574 54.30692956127514 106.1589218385915 0 0 0 0 0 0 0 1:-0.920257 2:-0.747573 3:-0.868008 4:-0.647995 5:-1 6:-0.743534 7:-0.846154 8:-0.79661 9:-1 10:-1 11:-0.770543 12:-0.937784 13:-0.728366 14:-1 15:-0.857384 16:-0.772109 17:-1 18:-0.524823 20:-1 21:-0.904645 
-137.2418717347914 -0 -0 -0 -0 -0 -0 -0 -2048 2048 564.5297452594601 2048 0 166.6243428153273 772.8077252019684 156.8640349975152 176.9197969641213 162.973641426192 52.58529739806315 75.47431489561795 316.4962591150304 1:-0.974069 2:-0.951456 3:-0.9489 4:-0.936878 5:-1 6:-0.912716 7:-1 8:-0.881356 9:-1 10:-1 11:-0.978295 12:-0.919407 13:-0.934808 14:-1 15:-0.868658 16:-0.978316 17:-1 18:-0.855792 20:-1 21:-0.910583 
-0 -0 -0 -0 -0 -0 -0 -0 -0 0 0 249.7031607689463 209.2997434974634 0 0 0 8.574715432762343 5.080643695837456 0.9980305317206589 8.754287531167099 3.710530145535086 1:-0.795065 2:-0.783172 3:-0.85913 4:-0.947114 5:-1 6:-0.724138 7:-1 8:-0.440678 9:-1 10:-1 11:-0.246512 12:-0.883095 13:-0.944121 14:-1 15:-0.779594 16:-0.989371 17:-1 18:-0.910954 20:-1 21:-0.791128 
-0 -0 -0 -0 -0 -0 -0 -0 -0 0 66.8165538759518 0 0 1144.91912536107 0 0 0 0 0 0 0 1:-0.901575 2:-0.919094 3:-0.899379 4:-0.881717 5:-1 6:-0.658405 7:-0.972851 8:-0.762712 9:-0.421053 10:-1 11:-0.631008 12:-0.905347 13:-0.916182 14:-1 15:-0.763247 16:-0.928997 17:-1 18:-0.681639 20:-1 21:-0.767377 
-0 -0 -0 -1.902503288485933 -2.232008706386566 -0 -0 -0 -179.3204394667921 0 0 0 26.51635276614104 0 0 0 7.036214478078378 0 0 0 0 1:-0.778335 2:-0.572816 3:-0.818684 4:-0.860108 5:-1 6:-0.716595 7:-0.131222 8:-0.677966 9:0.0263158 10:-1 11:-0.804651 12:-0.912875 13:-0.890182 14:-1 15:-0.869222 16:-0.872024 17:-1 18:-0.846336 20:-1 21:-0.746071 
-0 -0 -12.03304798970039 -0 -0 -0 -0 -0 -0 0 1217.325524672812 0 561.89482070028 968.5946457705742 0 0 0 0 0 0 0 1:-0.837725 2:-1 3:-0.852225 4:-0.869775 5:-1 6:-0.627155 7:-1 8:-0.830508 9:-1 10:-1 11:-0.885271 12:-0.940662 13:-0.885138 14:-1 15:-0.848365 16:-0.895833 17:-1 18:-0.475965 20:-1 21:-0.709745 
-0 -4.770855481517124 -15.04435448395934 -0 -26.36974358999333 -196.5490305942991 -51.99990400381949 -97.51659787086861 -0 0 0 0 0 0 0 0 0 0 0 0 0 1:-0.826851 2:-0.935275 3:-0.87156 4:-0.700313 5:-1 6:-0.752155 7:-1 8:-1 9:-1 10:-1 11:-0.72093 12:-0.898373 13:-0.67792 14:-1 15:-0.831454 16:-0.706633 17:-1 18:-0.408195 20:-1 21:-0.597276 
-0 -0 -0 -0 -0 -0 -0 -0 -0 0 0 0 860.2087433362942 0 0 0 0 0 0 0 0 1:-0.817928 2:-0.919094 3:-0.811976 4:-0.783907 5:-1 6:-0.793103 7:-1 8:-0.864407 9:-0.868421 10:-1 11:-0.748837 12:-0.883649 13:-0.764455 14:-1 15:-0.773393 16:-0.923469 17:-1 18:-0.744681 20:-1 21:-0.681104 
-0 -0 -0 -0 -0 -0 -0 -0 -245.3190467683423 0 0 0 0 0 0 0 0 0 0 0 0 1:-0.930852 2:-0.912621 3:-0.865246 4:-0.726471 5:-1 6:-0.705819 7:-0.945701 8:-1 9:-0.197368 10:-1 11:-0.776744 12:-0.852984 13:-0.72759 14:-1 15:-0.781849 16:-0.882653 17:-1 18:-0.717888 20:-1 21:-0.813832 
-0 -0 -0 -0 -77.27348667820809 -142.3860631907973 -0 -2.413780892140367 -0 0 0 0 0 0 0 0 0 0 0 0 0 1:-0.912728 2:-0.847896 3:-0.888922 4:-0.802104 5:-1 6:-0.586207 7:-1 8:-0.881356 9:-1 10:-1 11:-0.804651 12:-0.860179 13:-0.895615 14:-1 15:-0.765502 16:-0.839286 17:-1 18:-0.597321 20:-1 21:-0.723716 
-0 -0 -0 -0 -0 -0 -0 -0 -0 0 0 0 906.0613441178058 0 0 0 0 0 0 0 0 1:-0.843859 2:-0.915858 3:-0.828943 4:-0.698607 5:-1 6:-0.59806 7:-1 8:-0.516949 9:-0.592105 10:-1 11:-0.556589 12:-0.857522 13:-0.855646 14:-1 15:-0.859076 16:-0.928997 17:-1 18:-0.618597 20:-1 21:-0.814181 
-0 -0 -0 -0 -0 -0 -0 -0 -0 0 0 0 0 104.2274336247304 0 0 0 0 0 0 0 1:-0.857242 2:-0.944984 3:-0.828746 4:-0.790162 5:-1 6:-0.62069 7:-1 8:-0.983051 9:-1 10:-1 11:-0.705426 12:-0.876342 13:-0.780753 14:-1 15:-0.807779 16:-0.99915 17:-1 18:-0.684791 20:-1 21:-0.815927 
-0 -0 -3.571486207774669 -0 -0 -0 -0 -0 -0 0 0 0 0 107.4071048098349 44.07832194023619 0 1.961368563194093 15.97942649180885 0 0 0 1:-0.731772 2:-0.68932 3:-0.855776 4:-0.860677 5:-1 6:-0.431034 7:-1 8:-0.915254 9:0.328947 10:-1 11:-0.413953 12:-0.888409 13:-0.935584 14:-1 15:-0.807779 16:-0.906037 17:-1 18:-0.72104 20:-1 21:-0.832344 
-38.75695368645792 -0 -0 -0 -0 -0 -0 -0 -1612.799758993188 0 0 0 205.5530461775492 0 0 22.85973412186308 0 0 0 0 0 1:-0.851945 2:-0.954693 3:-0.856762 4:-0.921524 5:-1 6:-0.575431 7:-1 8:-1 9:-1 10:-1 11:-0.863566 12:-0.912986 13:-0.85099 14:-1 15:-0.807215 16:-0.982143 17:-1 18:-0.850276 20:-1 21:-0.876703 
-0 -0 -0 -0 -0 -0 -0 -0 -0 378.1595360251679 2048 136.9432451115148 0 2048 0 42.16486508773331 0 11.84903047839115 0 6.328764957417808 0 1:-0.960128 2:-0.909385 3:-0.87807 4:-0.967017 5:-1 6:-0.519397 7:-1 8:-0.991525 9:-0.684211 10:-1 11:-0.79845 12:-0.922506 13:-0.945673 14:-1 15:-0.617813 16:-0.987245 17:-1 18:-0.927502 20:-1 21:-0.676912 
-6.503499738666132 -0 -0 -0 -0 -0 -0 -0 -0 91.10022363098759 0 0 0 0 0 28.97751559012342 11.80917436516521 29.22552129265049 60.98206707534768 46.07350573447971 0 1:-0.859473 2:-0.673139 3:-0.935287 4:-0.869207 5:-1 6:-0.436422 7:-0.674208 8:-0.881356 9:-0.328947 10:-1 11:-0.522481 12:-0.948965 13:-0.882809 14:-1 15:-0.857948 16:-0.889031 17:-1 18:-0.726556 20:-1 21:-0.626266 
-0 -0 -0 -0 -0 -0 -0 -0 -0 0 131.1608109495721 0 0 0 0 0 0 0 0 0 0 1:-0.924718 2:-0.996764 3:-0.902338 4:-0.865226 5:-1 6:-0.595905 7:-1 8:-0.898305 9:-0.684211 10:-1 11:-0.928682 12:-0.917193 13:-0.931704 14:-1 15:-0.791995 16:-0.956633 17:-1 18:-0.652482 20:-1 21:-0.807545 
-0 -0 -0 -0 -0 -0 -0 -0 -0 0 2048 0 0 0 0 0 0 0 0 0 0 1:-0.9289 2:-0.906149 3:-0.880043 4:-0.949389 5:-1 6:-0.577586 7:-1 8:-0.652542 9:-1 10:-1 11:-0.863566 12:-0.900587 13:-0.894451 14:-1 15:-0.787486 16:-0.997449 17:-1 18:-0.811663 20:-1 21:-0.76074 
-0 -0 -0 -1.612952010363774 -0 -0 -0 -0 -0 0 0 0 39.72640455091587 181.0077864746654 0 0 0 0 0 0 0 1:-0.817371 2:-0.877023 3:-0.833481 4:-0.93176 5:-1 6:-0.114224 7:-1 8:-0.694915 9:-1 10:-1 11:-0.156589 12:-0.856194 13:-0.948778 14:-1 15:-0.636979 16:-0.998299 17:-1 18:-0.711584 20:-1 21:-0.561649 
-0 -2.749914682616566 -0 -0.458238520611173 -23.93330128497477 -84.48450472200311 -44.05218359750938 -98.06946814265868 -0 0 0 0 101.3654405701631 0 0 0 0 0 0 0 0 1:-0.806775 2:-0.967638 3:-0.872743 4:-0.861814 5:-1 6:0.0818966 7:-0.909502 8:-0.915254 9:-0.934211 10:-1 11:-0.736434 12:-0.896712 13:-0.758246 14:-1 15:-0.696731 16:-0.969813 17:-1 18:-0.794326 20:-1 21:-0.603213 
-0 -0 -0 -0 -0 -47.52136669789716 -0 -0 -392.0566160594549 0 360.4912081268685 1446.777384357722 0 1116.410722731677 0 0 0 0 0 0 0 1:-0.901854 2:-0.89644 3:-0.858341 4:-0.938584 5:-1 6:-0.799569 7:-1 8:-1 9:-1 10:-1 11:-0.64031 12:-0.844681 13:-0.732635 14:-1 15:-0.648816 16:-0.99915 17:-1 18:-0.8684 20:-1 21:-0.671673 
-0 -0 -0 -0 -0 -0 -0 -0 -0 0 559.1786132039222 0 0 0 0 0 0 0 0 0 0 1:-0.904085 2:-0.854369 3:-0.892079 4:-0.861245 5:-1 6:-0.74569 7:-0.773756 8:-0.889831 9:-0.552632 10:-1 11:-0.745736 12:-0.880106 13:-0.841676 14:-1 15:-0.760992 16:-0.965561 17:-1 18:-0.754137 20:-1 21:-0.708348 
-0 -0 -0 -0 -0 -0 -0 -0 -0 0 655.7994814804521 0 0 1326.462250219654 0 0 0 0 0 0 0 1:-0.899624 2:-0.935275 3:-0.907468 4:-0.799829 5:-1 6:-0.725216 7:-1 8:-0.652542 9:-0.552632 10:-1 11:-0.913178 12:-0.870696 13:-0.790454 14:-1 15:-0.836528 16:-0.903061 17:-1 18:-0.598109 20:-1 21:-0.630807 
-0 -0 -0 -0 -0 -0 -0 -0 -0 0 0 0 683.8029627031675 374.5174763847205 0 0 0 0 4.58914273026608 12.74372899285419 0 1:-0.931409 2:-0.967638 3:-0.891684 4:-0.944271 5:-1 6:-0.72306 7:-1 8:-0.779661 9:-0.736842 10:-1 11:-0.39845 12:-0.845898 13:-0.859915 14:-1 15:-0.770011 16:-0.974065 17:-1 18:-0.887313 20:-1 21:-0.713936 
-0 -0 -0 -0 -0 -0 -0 -0 -3.569188081833236 0 0 0 1137.326284799655 0 0 0 0 0 0 0 0 1:-0.877597 2:-1 3:-0.858933 4:-0.76116 5:-1 6:-0.492457 7:-0.945701 8:-0.635593 9:-0.736842 10:-1 11:-0.413953 12:-0.934463 13:-0.810244 14:-1 15:-0.735626 16:-0.957483 17:-1 18:-0.77699 20:-1 21:-0.78519 
-0 -0 -0 -0 -0 -0 -0 -0 -0 0 0 0 477.0125953683681 0 0 0 0 0 0 0 0 1:-0.911892 2:-0.987055 3:-0.878662 4:-0.675291 5:-1 6:-0.642241 7:-1 8:-0.779661 9:-1 10:-1 11:-0.702326 12:-0.880217 13:-0.863407 14:-1 15:-0.77903 16:-0.703656 17:-1 18:-0.566588 20:-1 21:-0.701711 
-0 -0 -0 -0 -259.7483756718757 -46.46467220419417 -42.97775546155857 -20.47827243873565 -0 0 0 0 0 0 0 0 0 0 0 0 0 1:-0.818207 2:-0.97411 3:-0.872941 4:-0.625817 5:-1 6:-0.107759 7:-1 8:-0.991525 9:-0.907895 10:-1 11:-0.80155 12:-0.904461 13:-0.818393 14:-1 15:-0.822435 16:-0.873724 17:-1 18:-0.316785 20:-1 21:-0.699267 
-0 -0 -0 -0 -0 -0 -15.49514834898272 -0 -0 0 0 0 0 0 0 0 0 0 0 0 0 1:-0.854733 2:-0.902913 3:-0.828943 4:-0.721922 5:-1 6:-0.258621 7:-0.945701 8:-0.983051 9:0.197368 10:-1 11:0.0449612 12:-0.896159 13:-0.754366 14:-1 15:-0.682638 16:-0.926446 17:-1 18:-0.613869 20:-1 21:-0.523227 
-0 -3.295889101104541 -30.67566348800866 -0.2182507494274904 -110.1042899970783 -284.695034897404 -8.424904180458876 -13.33168883626963 -0 0 323.1520541197528 0 0 0 0 0 0 0 0 0 0 1:-0.70389 2:-0.915858 3:-0.738187 4:-0.88911 5:-1 6:-0.484914 7:-1 8:-0.974576 9:-0.684211 10:-1 11:-0.872868 12:-0.820215 13:-0.836244 14:-1 15:-0.677565 16:-0.923469 17:-1 18:-0.699764 20:-1 21:-0.738037 
-0 -0.7269750332730156 -0.6993390059339437 -1.636461422263909 -2.267612109047002 -2.799299839319232 -0.7810785302744321 -0.7422567436596619 -5.06458863578942 1.970443784267999 0 0 0 0 0 0 0 0 0 0 0 1:-0.687439 2:-0.990291 3:-0.729703 4:-0.829969 5:1 6:-0.391164 7:-1 8:-0.754237 9:-0.697368 10:-1 11:-0.686822 12:-0.846563 13:-0.864183 14:-1 15:-0.636415 16:-0.881803 17:0.0714286 18:-0.643814 20:-0.9875 21:-0.745721 
-0 -0 -0 -0 -0 -0 -0.08057873425168886 -0 -0 0 766.1603842014786 0 0 0 0 0 0 0 0 0 0 1:-0.859752 2:-0.883495 3:-0.775279 4:-0.862383 5:-1 6:-0.880388 7:-0.954751 8:-0.440678 9:-0.381579 10:-1 11:-0.705426 12:-0.812576 13:-0.728366 14:-1 15:-0.651071 16:-0.92602 17:-1 18:-0.685579 20:-1 21:-0.688788 
-0 -0 -0 -0 -0 -0 -0 -0 -59.02741382492578 0 0 1324.675803973972 380.2785076717344 0 0 0 0 0 0 0 0 1:-0.897114 2:-0.996764 3:-0.848279 4:-0.923799 5:-1 6:-0.5625 7:-1 8:-0.610169 9:-1 10:-1 11:-0.956589 12:-0.881767 13:-0.886302 14:-1 15:-0.705186 16:-1 17:-1 18:-0.945626 20:-1 21:-0.730003 
-0 -0 -0 -0 -0 -0 -0 -0 -0 0 634.3908506283633 0 0 599.5106293171291 0 0 0 0 0 0 0 1:-0.919699 2:-0.915858 3:-0.920095 4:-0.882286 5:-1 6:-0.521552 7:-0.846154 8:-0.805085 9:-0.828947 10:-1 11:-0.47907 12:-0.928263 13:-0.811797 14:-1 15:-0.687148 16:-0.971088 17:-1 18:-0.433412 20:-1 21:-0.484806 
-0 -0 -0 -0 -0 -0 -0 -0 -0 0 0 0 198.4638686297936 107.5435055348675 0 0 0 0 0 0 0 1:-0.926112 2:-0.987055 3:-0.884581 4:-0.887973 5:-1 6:-0.721983 7:-0.846154 8:-1 9:-1 10:-1 11:-0.665116 12:-0.894055 13:-0.742336 14:-1 15:-0.69053 16:-0.974915 17:-1 18:-0.597321 20:-1 21:-0.62452 
-0 -0 -0 -0 -0 -79.09610630230966 -0 -0 -0 0 1604.326235826079 0 0 259.6206130990056 0 0 0 0 0 0 0 1:-0.891817 2:-0.932039 3:-0.862287 4:-0.839067 5:-1 6:-0.793103 7:-1 8:-1 9:-0.855263 10:-1 11:-0.934884 12:-0.879221 13:-0.746217 14:-1 15:-0.588501 16:-0.877976 17:-1 18:-0.587864 20:-1 21:-0.662941 
-0 -0 -0 -0 -0 -0 -0 -0 -0 0 0 0 0 458.2528224817925 0 0 0 0 0 0 0 1:-0.817092 2:-0.805825 3:-0.849462 4:-0.943702 5:-1 6:-0.260776 7:-1 8:-1 9:-0.605263 10:-1 11:-0.925581 12:-0.913207 13:-0.961195 14:-1 15:-0.598083 16:-1 17:-1 18:-0.921986 20:-1 21:-0.626266 
-0 -0 -0 -0 -9.591319716946071 -0 -0 -0 -0 0 0 105.2854521960933 0 0 157.7207568747606 0 0 0 0 0 0 1:-0.794228 2:-0.815534 3:-0.83506 4:-0.777651 5:-1 6:-0.68319 7:-0.864253 8:-1 9:-0.434211 10:-1 11:-1 12:-0.866157 13:-0.901436 14:-1 15:-0.844419 16:-0.937925 17:-1 18:-0.757289 20:-1 21:-0.778554 
-0 -0 -0 -0 -0 -0 -0 -0 -0 0 0 112.9141649152259 0 0 0 0 0 0 0 0 0 1:-0.793392 2:-0.699029 3:-0.780014 4:-0.847597 5:-1 6:-0.448276 7:-1 8:-0.805085 9:-0.842105 10:-1 11:-0.550388 12:-0.877781 13:-0.873108 14:-1 15:-0.803833 16:-0.970663 17:-1 18:-0.825847 20:-1 21:-0.743975 
-6.978808411826638 -0 -0 -0 -0 -0 -0 -0 -0 0 0 455.5635850360619 508.1930547404206 0 0 0 0 0 9.144028778742753 6.458666220889279 0 1:-0.882615 2:-0.860841 3:-0.887935 4:-0.835655 5:-1 6:-0.521552 7:-1 8:-0.90678 9:-0.973684 10:-1 11:-0.565891 12:-0.909111 13:-0.846721 14:-1 15:-0.877114 16:-0.965136 17:-1 18:-0.744681 20:-1 21:-0.760042 
-0 -0 -0 -0 -0 -0 -0 -0 -0 383.2708122903291 0 21.34894567748867 0 0 0 0 5.390911174638919 0 0 0 6.294954597801878 1:-0.80343 2:-0.815534 3:-0.945941 4:-0.723628 5:-1 6:-0.684267 7:-0.773756 8:-0.79661 9:-0.0526316 10:-1 11:-0.525581 12:-0.94498 13:-0.855258 14:-1 15:-0.949267 16:-0.81165 17:-1 18:-0.695035 20:-1 21:-0.735243 
-0 -0 -34.84659611144671 -0 -0 -0 -0 -0 -186.5567263111324 6.305313599073075 0 0 0 0 73.21553922554163 0 0 0 0 0 0 1:-0.837725 2:-0.964401 3:-0.929565 4:-0.652545 5:-1 6:-0.628233 7:-0.936652 8:-0.983051 9:-0.736842 10:-1 11:-0.786047 12:-0.951733 13:-0.806364 14:-1 15:-0.96956 16:-0.785714 17:-1 18:-0.590229 20:-1 21:-0.851904 
-0 -0 -2.938777599532056 -0 -0 -0 -0 -0 -0 0 0 0 1198.840352260008 0 0 0 0 6.753525235449929 0 0 0 1:-0.801199 2:-0.961165 3:-0.92917 4:-0.852715 5:-1 6:-0.5 7:-0.837104 8:-0.711864 9:-0.75 10:-1 11:-0.872868 12:-0.962028 13:-0.753201 14:-1 15:-0.847802 16:-0.927296 17:-1 18:-0.814027 20:-1 21:-0.754104 
-0 -0 -0 -0 -0 -0 -0.5216792416143049 -0 -0 0 0 0 0 0 0 0 0 0 0 0 0 1:-0.887355 2:-0.932039 3:-0.881819 4:-0.87205 5:-1 6:-0.731681 7:-1 8:-0.694915 9:-0.631579 10:-1 11:-0.916279 12:-0.958707 13:-0.608847 14:-1 15:-0.718715 16:-0.847789 17:-1 18:-0.670607 20:-1 21:-0.62906 
-0 -0.039163157485511 -1.276830441438515 -0.1693277293018462 -3.740070668878667 -0 -5.245066250296645 -0 -19.74013724694013 51.83560384476096 0 13.05579137374037 0 10.45819280147753 0 0 0 0 0 0 0 1:-0.900181 2:-0.977346 3:-0.936273 4:-0.788456 5:-1 6:-0.801724 7:-1 8:-0.974576 9:1 10:-1 11:-0.83876 12:-0.959482 13:-0.676368 14:-1 15:-0.931229 16:-0.728741 17:-1 18:-0.572892 20:-1 21:-0.643381 
-33.7194515991023 -0 -0 -0 -0 -0 -0 -0 -876.7905731132003 2048 0 2048 259.3834446621471 177.1867522094043 688.396964262179 0 0 0 0 0 0 1:-0.897951 2:-0.964401 3:-0.940811 4:-0.832812 5:-1 6:-0.705819 7:-1 8:-1 9:-1 10:-1 11:-0.922481 12:-0.975977 13:-0.859527 14:-1 15:-0.932356 16:-0.919643 17:-1 18:-0.733649 20:-1 21:-0.80964 
-0 -0 -0 -0 -0 -0 -0 -0 -0 435.7263812635503 0 0 2048 0 0 0 0 0 0 0 0 1:-0.914122 2:-0.851133 3:-0.927789 4:-0.893091 5:-1 6:-0.560345 7:-1 8:-0.483051 9:-1 10:-1 11:-0.544186 12:-0.919407 13:-0.921614 14:-1 15:-0.761556 16:-0.940476 17:-1 18:-0.610717 20:-1 21:-0.685295 
-22.567422791715 -0 -0 -0 -0 -0 -0 -0 -0 2048 0 0 1478.065565043871 2048 54.46171295379239 10.36778977454272 0 119.6496556304906 5.248147288822235 0 0 1:-0.926948 2:-1 3:-0.985795 4:-0.902189 5:-1 6:-0.540948 7:-1 8:-1 9:-1 10:-1 11:-1 12:-0.994908 13:-0.980986 14:-1 15:-0.937993 16:-0.935374 17:-1 18:-0.598897 20:-1 21:-0.758645 
-0 -0.9363071097120861 -0 -0 -0 -0 -0 -0 -0 0 0 0 0 0 0 0 0 0 0 0 0 1:-0.8815 2:-0.805825 3:-0.803295 4:-0.790731 5:-1 6:-0.561422 7:-0.647059 8:-0.677966 9:-1 10:-1 11:-0.262016 12:-0.86184 13:-0.822274 14:-1 15:-0.656708 16:-0.886054 17:-1 18:-0.243499 20:-1 21:-0.69263 
-0 -0 -0 -1.397989854021745 -0 -0 -0 -0 -0 0 224.3069939450399 0 1441.952051568887 0 0 0 0 0 0 0 0 1:-0.902691 2:-0.970874 3:-0.76719 4:-0.989764 5:-1 6:-0.52694 7:-1 8:-0.533898 9:-1 10:-1 11:-0.637209 12:-0.827521 13:-0.989911 14:-1 15:-0.662909 16:-1 17:-1 18:-0.975571 20:-1 21:-0.759693 
-0 -0 -0 -0 -0 -0 -0 -0 -209.7891170168648 582.4435359370432 0 2048 0 0 76.45389398830507 0 0 0 0 0 0 1:-0.967656 2:-1 3:-0.858538 4:-0.916406 5:-1 6:-0.556034 7:-1 8:-1 9:-0.842105 10:-1 11:-0.872868 12:-0.878999 13:-0.87078 14:-1 15:-0.749154 16:-0.859694 17:-1 18:-0.846336 20:-1 21:-0.720224 
-0 -0 -0 -0 -0 -0 -0 -0 -0 -0 0 0 0 0 828.9566556550957 0 0 338.324633231678 0 0 0 1:-0.924997 2:-0.902913 3:-0.985203 4:-0.931191 5:-1 6:-0.790948 7:-1 8:-0.847458 9:-0.434211 10:-1 11:-0.922481 12:-1 13:-0.974389 14:-1 15:-0.976888 16:-0.876701 17:-1 18:-0.565012 20:-1 21:-0.845966 
-0 -0 -0 -0 -0 -0 -0 -0 -0 -0 17.49504402152411 0 50.812961907077 0 0 0 0 0 0 35.33507690537711 0 1:-0.947024 2:-0.951456 3:-0.981059 4:-0.95735 5:-1 6:-0.508621 7:-0.945701 8:-0.322034 9:-1 10:-1 11:-0.426357 12:-0.987933 13:-0.968568 14:-1 15:-0.979143 16:-0.93665 17:-1 18:-0.676911 20:-1 21:-0.50716 
-0 -0 -0 -4.007042193040835 -0 -0 -0 -0 -0 -0 0 0 0 0 0 0 0 3.805975492893861 0 0 2.367521710127007 1:-0.956225 2:-0.990291 3:-0.997041 4:-0.93176 5:0.0309278 6:-0.614224 7:-1 8:-1 9:-1 10:-1 11:-0.888372 12:-1 13:-0.997672 14:-1 15:-0.988726 16:-0.953656 17:-1 18:-0.610717 20:-0.3125 21:-0.706601 
-0 -0 -0 -0 -0 -0 -0 -0 -0 -0 0 0 0 0 382.1922060188717 0 0 0 0 0 0 1:-0.932525 2:-1 3:-0.9781 4:-0.959056 5:-1 6:-0.727371 7:-1 8:-1 9:-1 10:-1 11:-1 12:-0.991033 13:-1 14:-1 15:-0.974634 16:-0.906037 17:-1 18:-0.698976 20:-1 21:-0.739085 
-0 -0 -0 -0 -24.30068991507263 -10.54807906300976 -0 -0 -0 -0 0 0 0 0 356.8071993002019 0 0 0 0 0 0 1:-0.933082 2:-0.886731 3:-0.952451 4:-0.860677 5:-1 6:-0.58944 7:-1 8:-1 9:-1 10:-1 11:-0.863566 12:-0.98594 13:-0.892123 14:-1 15:-0.948703 16:-0.853741 17:-1 18:-0.691883 20:-1 21:-0.814879 
-0 -0 -0 -0 -0 -0 -0 -0 -0 -243.0122478689465 0 0 0 0 0 0 0 0 0 0 0 1:-0.948418 2:-1 3:-0.985005 4:-0.917543 5:-1 6:-0.794181 7:-1 8:-1 9:-1 10:-1 11:-1 12:-0.996457 13:-0.941405 14:-1 15:-0.95885 16:-0.868622 17:-1 18:-0.268716 20:-1 21:-0.702061 
-169.8192817054736 -0 -0 -0 -0 -0 -0 -0 -0 -0 0 0 0 0 224.7018822145416 311.9394648032376 299.9488458211001 1195.560099387875 121.4751171612793 31.90899127713455 432.7946147255597 1:-0.947302 2:-0.89644 3:-0.982243 4:-0.884561 5:-1 6:-0.707974 7:-0.927602 8:-0.847458 9:-0.697368 10:-1 11:-0.891473 12:-0.992472 13:-0.993015 14:-1 15:-0.988162 16:-0.875 17:-1 18:-0.828211 20:-1 21:-0.841076 
-0 -0.9741768388819158 -0 -0 -0 -0 -9.756727022237985 -0 -0 -0 3.285193172000923 0 0 0 0 0 0 0 0 0 0 1:-0.957898 2:-0.938511 3:-0.982835 4:-0.944839 5:-1 6:-0.294181 7:-1 8:-1 9:-0.986842 10:-1 11:-0.745736 12:-1 13:-0.999224 14:-1 15:-0.922773 16:-0.954507 17:-1 18:-0.72104 20:-1 21:-0.116661 
-0 -0 -0 -0 -0 -0 -0 -0 -0 -42.45321276860798 0 0 0 0 0 0 0 0 0 0 0 1:-0.955667 2:-0.996764 3:-0.981849 4:-0.985783 5:-1 6:-0.407328 7:-1 8:-1 9:-1 10:-1 11:-0.829457 12:-0.994908 13:-0.986806 14:-1 15:-0.952649 16:-0.998724 17:-1 18:-0.736013 20:-1 21:-0.346839 
-79.71505064437966 -0 -0 -0 -0 -0 -0 -0 -0 -0 0 0 0 0 0 0 0 0 21.03671426985334 0 0 1:-0.937544 2:-0.987055 3:-0.99487 4:-0.884561 5:-1 6:-0.442888 7:-1 8:-1 9:-1 10:-1 11:-0.87907 12:-0.999557 13:-0.982926 14:-1 15:-1 16:-0.897109 17:-1 18:-0.702916 20:-1 21:-0.726511 
-0 -0 -0 -0 -0 -0 -0 -0 -0 -0 0 0 0 0 80.50878431024398 0 0 0 0 0 0 1:-0.973791 2:-0.912621 3:-0.991714 4:-0.962468 5:-1 6:-0.66056 7:-1 8:-0.779661 9:-0.789474 10:-1 11:-0.578295 12:-1 13:-0.981374 14:-1 15:-0.986471 16:-0.967262 17:-1 18:-0.450749 20:-1 21:-0.23437 
-0 -0 -0 -0 -0 -0 -0 -0 -0 -0 0 0 0 0 0 22.64175511696124 49.76396028351203 0 71.22618405466469 0 44.31909297316685 1:-0.958455 2:-0.980583 3:-0.982243 4:-0.993745 5:-1 6:-0.41056 7:-1 8:-0.822034 9:-1 10:-1 11:-0.683721 12:-0.991365 13:-1 14:-1 15:-0.988162 16:-0.988095 17:-1 18:-0.904649 20:-1 21:-0.477471 
-0 -0 -0 -0 -9.695870003513155 -0 -10.00156190923189 -13.43262274700184 -0 -0 0 0 180.2979646276428 0 0 0 0 0 0 0 0 1:-0.918305 2:-0.954693 3:-0.978495 4:-0.726471 5:-1 6:-0.392241 7:-1 8:-0.872881 9:-0.934211 10:-1 11:-0.649612 12:-0.989262 13:-1 14:-1 15:-0.968997 16:-0.837585 17:-1 18:-0.631994 20:-1 21:-0.779602 
-0 -0 -0 -0 -0 -0 -0 -0 -0 -1841.611644789327 0 39.74629503578448 0 89.9612091527457 0 0 0 0 0 0 0 1:-0.950927 2:-0.880259 3:-0.967446 4:-0.753199 5:-1 6:-0.665948 7:-1 8:-0.864407 9:-1 10:-1 11:-0.882171 12:-0.996568 13:-0.987194 14:-1 15:-0.970688 16:-0.856718 17:-1 18:-0.57368 20:-1 21:-0.812435 
-0 -0 -0 -0 -0 -0 -0 -0 -0 -67.33901842519174 0 0 0 90.31664290201191 440.0580063252212 0 0 0 0 0 0 1:-0.939495 2:-0.977346 3:-0.957778 4:-0.84646 5:-1 6:-0.802802 7:-1 8:-1 9:-0.986842 10:-1 11:-0.84186 12:-0.995793 13:-0.916958 14:-1 15:-0.932356 16:-0.814626 17:-1 18:-0.381403 20:-1 21:-0.829549 
-0 -0.5461681008408551 -0.5844638260984336 -0.6058554885613887 -0.8445986766101984 -0.543905014924787 -0.7061192249617174 -0.6464911320624707 -0 -0 0 0 0 0 0 0 0 0 0 0 0.6647642138440677 1:-0.907709 2:-0.815534 3:-0.95916 4:-0.624111 5:-0.42268 6:-0.632543 7:-0.972851 8:-1 9:-0.75 10:-1 11:-0.677519 12:-0.994022 13:-0.96624 14:0.333333 15:-0.968433 16:-0.794643 17:1 18:-0.401891 20:-1 21:-0.789032 
-148.2102432471848 -0 -0 -0.5078073213321309 -0 -0 -0 -0 -136.9025695199302 -15.67269248824141 0 0 0 0 0 45.08705956880135 43.4135068803683 51.9483238668405 50.21089823921702 20.7128579609442 24.86026646655212 1:-0.971281 2:-0.569579 3:-0.996843 4:-0.773102 5:-1 6:-0.696121 7:-0.728507 8:-1 9:0.315789 10:-1 11:-0.792248 12:-1 13:-0.988747 14:-1 15:-0.947576 16:-0.895833 17:-1 18:-0.725768 20:-1 21:-0.885435 
-0 -0.2140823653636215 -0 -1.813671597528224 -0 -0 -0 -0 -0 -19.1236598160801 0 0 7.298920349976974 0 0 0 0 0 0 3.241237259632681 0 1:-0.955667 2:-0.967638 3:-0.93943 4:-0.911288 5:-1 6:-0.679957 7:-0.782805 8:0.364407 9:-0.828947 10:-1 11:-0.330233 12:-0.973652 13:-0.962359 14:-1 15:-0.861894 16:-0.97449 17:-1 18:-0.555556 20:-1 21:-0.682501 
-0 -0 -0 -0 -0 -0 -0 -0 -0 -201.4376503024379 0 0 0 47.8448431197823 0 0 0 0 0 0 0 1:-0.907431 2:-0.851133 3:-0.971787 4:-0.841342 5:-1 6:-0.4375 7:-1 8:-0.822034 9:-0.802632 10:-1 11:-0.745736 12:-0.994575 13:-0.973225 14:-1 15:-0.980834 16:-0.96131 17:-1 18:-0.672971 20:-1 21:-0.673769 
-0 -1.388761903851128 -0 -0 -0.6964590250098369 -3.753351295228296 -5.676091047749987 -0 -198.705128926944 -0 59.2962520597975 0 24.70527857912468 206.0667663364999 0 0 0 0 0 0 0 1:-0.969887 2:-1 3:-0.968038 4:-0.902758 5:-1 6:-0.77694 7:-1 8:-1 9:-1 10:-1 11:-1 12:-0.989372 13:-0.861855 14:-1 15:-0.841037 16:-0.792092 17:-1 18:-0.35461 20:-1 21:-0.49738 
-0 -0.2029564777470339 -0 -0.4452645034261338 -0 -0 -0 -0 -0 -0 0 0 0 0 0 0 0 0.3836202140499371 0 0 2.299771139363313 1:-0.9526 2:-0.951456 3:-0.977508 4:-0.789025 5:-0.938144 6:-0.636853 7:-1 8:-1 9:-0.921053 10:-1 11:-0.587597 12:-1 13:-0.965076 14:1 15:-1 16:-0.912415 17:-1 18:-0.618597 20:-0.7875 21:-0.663989 
-139.3549364047757 -0 -0 -0 -0 -0 -0 -0 -0 -79.01769301549048 0 0 80.06474219241912 119.9417523214088 416.9357200671174 440.6812058646795 0 80.90494777940039 199.7451286222257 229.8943839281156 0 1:-0.89572 2:-0.906149 3:-0.973562 4:-0.900483 5:-1 6:-0.385776 7:-0.9819 8:-0.991525 9:-0.815789 10:-1 11:-0.553488 12:-0.995904 13:-0.981762 14:-1 15:-0.892897 16:-0.999575 17:-1 18:-0.897557 20:-1 21:-0.651764 
-0 -0 -0 -0 -0 -0 -0 -0 -399.61252803397 -0 0 0 0 0 0 0 0 0 0 0 0 1:-0.94786 2:-1 3:-0.94377 4:-0.967586 5:-1 6:-0.887931 7:-1 8:-1 9:-1 10:-1 11:-1 12:-0.940219 13:-0.912301 14:-1 15:-0.919391 16:-0.994898 17:-1 18:-0.970843 20:-1 21:-0.938177 
-815.9356796885208 -0 -0 -0 -0 -0 -0 -0 -1354.632485017796 -0 0 0 0 0 2048 433.2138454541972 365.3481850551944 477.0699116768909 105.0525075649478 128.4830847014849 732.4565969327772 1:-0.93364 2:-0.996764 3:-0.956397 4:-0.956781 5:-1 6:-0.846983 7:-1 8:-1 9:-1 10:-1 11:-0.860465 12:-0.94199 13:-0.934808 14:-1 15:-0.917136 16:-1 17:-1 18:-0.944838 20:-1 21:-0.947258 
-0 -0 -0.03642754833044264 -0 -0 -0 -0 -0 -214.303101706914 -0 16.5454554689916 0 0 0 0 0 0 0 0 25.03357656041542 0 1:-0.953436 2:-0.524272 3:-0.973759 4:-0.820301 5:-1 6:-0.926724 7:-0.556561 8:-0.347458 9:-0.618421 10:-1 11:-0.75814 12:-0.994908 13:-0.948778 14:-1 15:-0.944758 16:-0.724915 17:-1 18:-0.680851 20:-1 21:-0.937478 
-0 -0 -0 -0 -0 -0 -0 -0 -0 -0 0 0 0 0 8.576146328554847 0 0 0 0 0 0 1:-0.912728 2:-1 3:-0.934892 4:-1 5:-1 6:-0.823276 7:-1 8:-1 9:-1 10:-1 11:-1 12:-0.883206 13:-1 14:-1 15:-0.78805 16:-1 17:-1 18:-1 20:-1 21:-0.864478 
-0 -0 -0 -0 -0 -0 -0 -0 -0 -0 0 0 0 0 2048 0 0 0 0 0 0 1:-0.917747 2:-1 3:-0.939233 4:-0.984646 5:-1 6:-0.835129 7:-1 8:-1 9:-1 10:-1 11:-1 12:-0.89007 13:-0.975941 14:-1 15:-0.843292 16:-0.98852 17:-1 18:-0.950355 20:-1 21:-0.921411 
-0 -0 -0 -0 -0 -0 -0 -0 -1484.447775656829 -156.4406207302549 32.94403619061028 1578.484681595249 261.1939934822691 472.4561512135456 0 79.67211274082655 0 0 0 0 0 1:-0.940332 2:-1 3:-0.917924 4:-0.996019 5:-1 6:-0.772629 7:-1 8:-1 9:-1 10:-1 11:-1 12:-0.896601 13:-0.993403 14:-1 15:-0.777339 16:-0.987245 17:-1 18:-0.963751 20:-1 21:-0.877751 
-0 -2.996819603094226 -0 -0 -17.35487128017947 -0 -0 -27.19352529040604 -799.6072141128406 -2048 195.5323617590328 329.2069784615518 72.40190354780077 253.8231228340016 0 0 0 0 0 0 0 1:-0.945908 2:-1 3:-0.960935 4:-0.936878 5:-1 6:-0.615302 7:-1 8:-1 9:-1 10:-1 11:-1 12:-0.973984 13:-0.82111 14:-1 15:-0.825817 16:-0.928997 17:-1 18:-0.783294 20:-1 21:-0.715683 
-0 -0 -0 -0 -0 -0 -0 -0 -0 -111.9523919765575 0 0 0 0 0 0 0 0 1.483954683390302 0 0 1:-0.950927 2:-0.983819 3:-0.984019 4:-0.853853 5:-1 6:-0.65625 7:-0.638009 8:-1 9:0.131579 10:-1 11:-0.72093 12:-0.992472 13:-0.925883 14:-1 15:-0.950395 16:-0.803571 17:-1 18:-0.643814 20:-1 21:-0.829549 
