svm_type c_svc
kernel_type rbf
gamma 0.03125
nr_class 26
total_sv 369
rho 4.39245 4.94342 0.0435799 1.30999 -0.561266 2.28062 1.17909 0.113922 0.596103 0.248466 -6.83932 0.0800768 -2.38866 0.119497 -2.65009 -4.60855 -0.835793 -0.45721 -1.14552 -1.14828 -0.554268 1.56992 -1.27479 -0.077013 1.67374 90.7857 -0.0504696 3.14164 -1.48369 1.84586 2.24611 0.215732 1.16031 -0.97292 -2.04794 0.637573 -1.41259 -0.0089814 -0.812095 -1.40708 -1.08952 -2.55833 -1.28842 -1.09802 -0.814915 -1.531 -0.90526 0.126781 3.72229 0.0747504 0.606644 0.168235 1.24032 0.421637 0.29705 0.869977 0.64818 -0.5166 -0.361004 -0.0980574 0.461142 -0.125728 -0.00319226 0.483612 -1.34865 0.207324 0.0227352 1.15081 0.509 -0.591549 0.086794 0.554577 0.30525 3.13417 -0.157106 -0.436716 -0.636215 -0.0870266 -0.0670946 -0.0775762 -0.0758098 -0.163371 -0.185481 -0.170072 -0.132548 -0.100724 -0.104822 -0.0918334 -0.054636 -0.0599544 -0.0976262 -0.0452728 -0.0516844 -0.0301424 3.55479 0.405916 3.65443 -1.62051 -0.30028 -1.66417 -2.52355 -1.47566 -1.98554 -1.25458 -2.81866 -2.35818 -1.29258 -0.616267 -0.81081 -0.681489 -0.614633 -0.780528 -0.652757 -1.72476 -1.00623 -3.05818 -1.4026 -5.89671 -2.65727 -0.970454 -2.99973 0.0914532 -2.11401 -3.82176 -3.14268 -2.76536 0.0465512 0.0506184 -6.66134e-15 0.0930649 0.192524 0.0395111 0.144616 -0.253706 1.05367 7.70126 -0.123261 -2.76771 -4.0093 -4.84973 -0.79904 -4.07738 -1.58276 -7.23053 -4.35865 -0.73853 -0.464319 -0.223491 -0.584715 -0.433404 -0.54329 -0.38651 -0.120408 -0.691402 -36.2301 -26.9765 -10.3921 -14.6024 -1.61586 -12.0837 -7.32147 -27.4244 -9.17931 -2.36359 -0.374816 -0.0548413 -1.45962 -0.904243 -1.00149 -0.43175 -2.45067 -4.14865 -1.25794 -0.195178 -0.530009 -0.231473 -0.315 -0.318353 -0.663895 -0.288409 -0.225431 -0.135558 -0.139803 -0.122029 -0.153678 -0.145441 -0.149117 -0.146746 -0.214542 -1.61444 -2.33053 -0.492958 -3.57486 -2.41602 -2.69071 -1.6097 -0.676763 -0.576783 -0.590204 -0.787082 -0.625636 -0.593611 -0.607996 -0.0408255 0.350654 8.75334 -9.72447 -2.28976 -7.25663 1.73966 6.25798 -5.97318 -1.58631 -0.983393 -1.46116 -1.7244 -0.724369 -1.55172 4.66098 5.97535 -0.622564 -72.4307 -2.20145 -11.6809 -106.267 0.0948166 -0.0750746 0.0730784 -0.181788 -0.0334347 -0.140366 -0.148345 -0.23622 5.17256 0.070997 -1.26394 -0.0733781 0.910673 -2.91098 -1.94375 -0.962107 -2.83585 -1.06228 -1.84624 -4.95191 1.52649 7.88331 -1.28158 14.8703 48.5588 0.0168767 -0.38008 -0.129285 -0.100869 -0.196741 -0.175196 -0.2024 1.30489 1.90946 -0.0403699 1.48928 -2.53196 -0.845386 -0.594976 -1.00134 -0.93489 -1.00034 -1.35243 1.25314 2.66393 -20.6712 -0.171973 -0.301836 -0.0749591 -0.226158 -0.131484 -0.145999 -0.180209 1.21286 3.82016 -0.0673803 -0.510114 -0.470568 -0.725287 -0.521776 -0.464851 -0.400468 0.943691 3.2281 -0.937677 -1.21209 -0.953724 -1.33782 -0.928854 -1.20032 3.548 8.28184 -32.0407 -3.67806 14.3256 167.309 18.6808 0.301907 0.434584 -11.4344 -14.0279 37.1571 23.0478 0.520434 0.517845 2.67485 -79.6383 2.33786 0.425932 0.826138 -48.9214 -6.72677 -0.101417 0.723769 -42.0765 0.287799 0.62075 0.336061 0.659994 35.4705
label 10 11 12 20 21 22 30 31 32 33 40 41 42 43 44 45 46 47 50 51 52 53 54 55 60 61
nr_sv 14 15 12 14 23 10 22 20 7 6 21 23 16 7 7 11 10 7 28 10 11 10 14 30 10 11
SV
2320.924822209925 0 0 0 0 0 0 0 0 0 0 0 97.05937443815324 0 35.05312778386622 0 0 0 0 0 0 0 0 0 0 1:-0.829097 2:-0.687955 3:-0.981552 4:-0.924594 5:-1 6:-0.535212 7:-0.885285 8:-1 9:-0.775376 10:-1 11:-0.854721 12:-0.997284 13:-0.958173 14:-1 15:-0.965944 16:-0.966938 17:-1 18:-0.904526 19:-1 20:-1 21:-0.677066 
1341.119472517093 7353.202090559755 0 0 0 0 75.93326295241604 0 0 0 0 0 0 0 0 0 0 0 0 0 0 0 0 0 0 1:-0.855213 2:-0.743291 3:-0.985889 4:-0.88593 5:-1 6:-0.604976 7:-0.956299 8:-1 9:-1 10:-1 11:-0.8364 12:-0.996385 13:-0.96853 14:-1 15:-0.968409 16:-0.971235 17:-1 18:-0.927258 19:-1 20:-1 21:-0.742851 
5728.07216584851 0 1.2832891245631 118.0628994042327 0 209.489094350017 453.4506500230787 19.58182188278035 171.0382214531653 183.7449365756327 2053.436689169296 0 267.4405265377317 128.2620611725742 687.6913447614311 960.3827609606176 34.89530977392838 0 0 0 0 0 0 80.41363801341343 518.8246875324061 1:-0.825188 2:-0.950073 3:-0.983021 4:-0.725944 5:-1 6:-0.657561 7:-1 8:-1 9:-0.983083 10:-1 11:-1 12:-0.996847 13:-0.94271 14:-1 15:-0.957766 16:-0.850769 17:-1 18:-0.518599 19:-1 20:-1 21:-0.729875 
0 1.664591584523063 0.09209536300968083 0 0 0 0 0 0 0 0 0 0 0 0 0 0 0 0 0 0 0 0 0 0 1:-0.861854 2:-0.655502 3:-0.995723 4:-0.96588 5:-0.475275 6:-0.488642 7:-0.807443 8:-1 9:-1 10:-1 11:-0.915789 12:-0.999107 13:-0.9912 14:0.581818 15:-0.9674 16:-0.992376 17:-1 18:-0.958876 19:-1 20:-1 21:-0.674102 
0 392.3916228602998 0 0 0 0 0 0 0 0 0 0 0 0 0 0 0 0 0 0 0 0 25.39766862557995 0 0 1:-0.875128 2:-0.583524 3:-0.985085 4:-0.902357 5:-1 6:-0.702992 7:-0.797883 8:-1 9:-0.896617 10:-1 11:-0.858096 12:-0.99365 13:-0.986529 14:-1 15:-1 16:-0.952832 17:-1 18:-0.829717 19:-1 20:-1 21:-0.845323 
0 0 0 0 0 0 0 0 0 0 0 0 0 0 0 0 0 964.4269697972313 192.3439210937079 1433.704883423395 1257.104277661575 1608.132418853137 317.0972362504954 0 0 1:-0.897647 2:-0.574787 3:-0.998591 4:-0.933201 5:-1 6:-0.663895 7:-0.892113 8:-1 9:-0.908835 10:-1 11:-0.857774 12:-0.999051 13:-0.984283 14:-1 15:-0.99283 16:-0.976919 17:-1 18:-0.961356 19:-1 20:-1 21:-0.794571 
0 0 0 0 0 0 0 0 0 29.8186118247776 0 126.4207524728515 0 78.84899454305533 0 0 225.4911730835078 216.8546543681946 303.9996001583283 70.27129675416164 71.5835460349318 45.2538397898097 288.3700963367671 0 0.673406645140493 1:-0.888814 2:-0.746203 3:-0.995852 4:-0.831626 5:-0.752747 6:-0.804561 7:-0.837487 8:-0.905963 9:-0.993421 10:-1 11:-0.911772 12:-0.999856 13:-0.991019 14:-1 15:-0.982748 16:-0.898352 17:-1 18:-0.815768 19:-1 20:-1 21:-0.913013 
0 715.9698827438189 0 0 0 0 0 0 0 0 0 0 0 0 0 0 0 0 0 0 0 0 0 0 0 1:-0.890833 2:-0.685043 3:-0.998631 4:-0.90227 5:-1 6:-0.620925 7:-0.829976 8:-1 9:-1 10:-1 11:-0.935717 12:-1 13:-0.997719 14:-1 15:-1 16:-0.967977 17:-1 18:-0.795412 19:-1 20:-1 21:-0.770495 
556.9394751749594 245.0345116457278 0 0 0 0 0 0 0 0 0 0 0 0 0 0 0 0 0 0 0 0 0 0 0 1:-0.842458 2:-0.928022 3:-0.984589 4:-0.921536 5:-1 6:-0.536078 7:-0.972687 8:-1 9:-1 10:-1 11:-0.897469 12:-0.995392 13:-0.99254 14:-1 15:-0.993502 16:-0.988009 17:-1 18:-0.979851 19:-1 20:-1 21:-0.636749 
0 3039.495494963008 0 0 0 0 0 0 0 0 0 1068.976681470914 0 0 0 0 0 0 0 0 0 0 98.71652110472108 0 0 1:-0.880154 2:-0.941336 3:-0.991049 4:-0.898469 5:-1 6:-0.621699 7:-1 8:-1 9:-1 10:-1 11:-0.891201 12:-0.998145 13:-0.994568 14:-1 15:-0.960903 16:-0.968012 17:-1 18:-0.741476 19:-1 20:-1 21:-0.711183 
0 0 5.173028062152863 10.7586231734275 33.53262555264401 15.96086595064053 7.539583029181315 17.0822712517994 0 51.82057113395083 592.1214904460376 0 277.5411890350915 127.0653678249638 391.746998291394 452.3825268703993 0 0 0 109.6985618288579 167.4494709600324 0 0 0 0 1:-0.818201 2:-0.618889 3:-0.978148 4:-0.86697 5:-1 6:-0.540771 7:-0.60874 8:-1 9:-1 10:-1 11:-0.470952 12:-0.995923 13:-0.970739 14:-1 15:-0.946676 16:-0.941777 17:-1 18:-0.77609 19:-1 20:-1 21:-0.744514 
3.146808841150891 0 0 0 0 0 19.3241166110399 0 0 28.41485621121081 0 0 0 0 0 0 0 0 0 0 0 0 0 0 0 1:-0.883932 2:-0.733722 3:-0.998025 4:-0.815112 5:-0.728022 6:-0.790618 7:-0.998634 8:-0.961009 9:-0.853383 10:-1 11:-0.952752 12:-1 13:-0.99388 14:-1 15:-0.987229 16:-0.899218 17:-1 18:-0.852242 19:-1 20:-1 21:-0.87194 
0 0 3.215948661518741 17.7994207961789 66.89648653684861 0 60.90149693335656 0 0 302.4603847225826 91.46882802208485 1311.492489068654 0 0 59.37537651924943 0 210.2547566504911 0 0 0 0 0 0 79.56966323211515 0 1:-0.86352 2:-0.655086 3:-0.98959 4:-0.757924 5:-1 6:-0.778816 7:-0.926255 8:-1 9:-0.618421 10:-1 11:-0.940378 12:-0.998108 13:-0.962954 14:-1 15:-0.985213 16:-0.890762 17:-1 18:-0.686092 19:-1 20:-1 21:-0.926926 
2895.096420260259 2277.921869707662 0 0 74.42737021000038 0 0 0 0 216.5136154144147 0 0 6.005245226490086 218.3326593237701 0 0 141.2013222662947 154.8715258821616 999.1635977413598 1290.165225548164 186.9224818977858 883.5744181847515 164.1344651205286 120.506689919413 0 1:-0.888937 2:-0.421677 3:-0.995634 4:-0.869591 5:-1 6:-0.774441 7:-0.793786 8:-1 9:-0.916353 10:-1 11:-0.839454 12:-0.999632 13:-1 14:-1 15:-1 16:-0.930617 17:-1 18:-0.855342 19:-1 20:-1 21:-0.891085 
-0 1689.474539845748 0 0 0 0 0 0 0 0 0 0 0 0 0 0 195.4817456798934 0 0 0 0 0 0 0 0 1:-0.810133 2:-0.714999 3:-0.96877 4:-0.852072 5:-1 6:-0.822241 7:-0.918061 8:-0.951835 9:-0.933271 10:-1 11:-0.957252 12:-0.992413 13:-0.970196 14:-1 15:-0.962583 16:-0.918245 17:-1 18:-0.854929 19:-1 20:-1 21:-0.911229 
-0 61.04684588400607 0.8120789981300278 0.4509772092493122 1.206303951754396 0 0 0.8566129839365666 0 0 0 0 0 0 0 0 0 0 0 0 0 0 0 0.9505582749839033 3.067717853202026 1:-0.733132 2:-0.336384 3:-0.999643 4:-0.869984 5:-0.428571 6:-0.338725 7:-1 8:-1 9:-0.909774 10:1 11:-0.859703 12:-1 13:-1 14:-1 15:-0.990142 16:-0.962328 17:-1 18:-0.790453 19:-1 20:-1 21:-0.555871 
-0 25333.54474658447 0 0 0 0 0 0 0 0 0 292.3755298374311 0 0 0 0 0 756.1964506685567 451.215166718843 724.1067332117038 709.8436450221174 786.1118316076553 807.7482193790221 0 0 1:-0.821619 2:-0.830248 3:-0.976898 4:-0.950239 5:-1 6:-0.705634 7:-1 8:-1 9:-1 10:-1 11:-0.939253 12:-0.992201 13:-0.992214 14:-1 15:-0.991486 16:-0.981043 17:-1 18:-0.892746 19:-1 20:-1 21:-0.807062 
-0 1764.638325051553 0 0 0 0 0 0 0 0 0 0 0 0 0 0 0 0 0 0 0 0 0 0 0 1:-0.790816 2:-0.84689 3:-0.961407 4:-0.859761 5:-1 6:-0.638103 7:-1 8:-0.997706 9:-0.953008 10:-1 11:-0.883969 12:-0.991383 13:-0.950641 14:-1 15:-0.980956 16:-0.979795 17:-1 18:-0.916822 19:-1 20:-1 21:-0.845868 
-1800.803171444817 3020.870596619988 0 0 0 0 53.18963328646745 0 0 209.2472198527562 178.0826259905886 545.3240757023581 0 0 0 0 380.5548131312728 28.45588376652218 44.77729158636919 0 0 30.53694573582728 91.06426935566742 66.44954738700372 297.4238966203325 1:-0.842869 2:-0.850218 3:-0.975677 4:-0.754473 5:-1 6:-0.88116 7:-1 8:-1 9:-0.735902 10:-1 11:-1 12:-0.992544 13:-0.987036 14:-1 15:-0.988237 16:-0.820167 17:-1 18:-0.879004 19:-1 20:-1 21:-0.938692 
-4128.215200069582 0 0 35.29573507850677 0 71.91876149593529 234.726187955573 0 85.44054796115685 0 479.0679774793135 0 0 0 46.54944876384776 386.8042001716898 0 0 0 0 0 0 0 0 0 1:-0.760676 2:-0.990015 3:-0.976918 4:-0.764608 5:-1 6:-0.591306 7:-1 8:-1 9:-1 10:-1 11:-0.938288 12:-0.992925 13:-0.977185 14:-1 15:-0.96684 16:-0.879534 17:-1 18:-0.523455 19:-1 20:-1 21:-0.720892 
-1165.483219020645 0 0 0 0 0 0 0 0 0 422.7459382672766 0 262.7662683673088 0 277.2190587044535 185.775541785584 0 0 0 0 0 0 0 0 0 1:-0.769891 2:-0.688371 3:-0.955413 4:-0.86994 5:-1 6:-0.529562 7:-0.825196 8:-1 9:-0.861842 10:-1 11:-0.687425 12:-0.986837 13:-0.974578 14:-1 15:-1 16:-0.968636 17:-1 18:-0.846043 19:-1 20:-1 21:-0.654563 
-0 0 9.551947171697988 243.3065383266417 65.64460082208448 99.41770712910326 113.2093700769283 16.44433978088998 94.91029208033778 255.3714940767466 651.5242870239808 14.47035926124354 349.2561529189848 132.9875289197159 469.5786519605035 303.8406809812089 90.02012171556076 0 0 0 0 0 0 319.007399577801 339.1165090763976 1:-0.757626 2:-0.6684 3:-0.961873 4:-0.590467 5:-1 6:-0.786744 7:-0.851827 8:-0.892202 9:-0.946429 10:-1 11:-0.872238 12:-0.990634 13:-0.93286 14:-1 15:-0.94141 16:-0.787278 17:-1 18:-0.462699 19:-1 20:-1 21:-0.84006 
-0 0 0 0 0 0 0 22.77713346666342 0 0 0 0 0 0 0 0 0 0 0 0 0 0 0 0 0 1:-0.721934 2:-0.928022 3:-0.980411 4:-0.796282 5:-1 6:-0.412317 7:-0.980881 8:-1 9:-1 10:-1 11:-0.95902 12:-0.993874 13:-0.978888 14:-1 15:-0.991374 16:-0.928642 17:-1 18:-0.685059 19:-1 20:-1 21:-0.629943 
-2872.772962629708 0 0 0 0 0 0 0 0 0 0 0 51.02825510290118 0 121.7541624974778 0 0 0 0 0 0 0 0 0 0 1:-0.794991 2:-0.659247 3:-0.976292 4:-0.904061 5:-1 6:-0.551206 7:-0.983612 8:-1 9:-1 10:-1 11:-0.960305 12:-0.99518 13:-0.971319 14:-1 15:-0.967849 16:-0.978859 17:-1 18:-0.743749 19:-1 20:-1 21:-0.611705 
-0 0 0 0 0 59.23523617073092 303.1051247041258 0 0 258.5234864518011 63.80695332098299 0 0 279.8863634298211 0 0 50.91066595475029 0 0 0 0 0 0 0 0 1:-0.781413 2:-0.90181 3:-0.95053 4:-0.823019 5:-1 6:-0.754893 7:-1 8:-1 9:-1 10:-1 11:-0.928164 12:-0.98665 13:-0.944955 14:-1 15:-0.973562 16:-0.862656 17:-1 18:-0.827547 19:-1 20:-1 21:-0.85479 
-134.7582056808157 0 0 0 0 0 0 0 0 18.78967040213173 0 395.8320012783574 0 0 0 0 0 0 0 0 0 0 0 0 0 1:-0.776474 2:-0.630539 3:-0.990721 4:-0.769894 5:-1 6:-0.623567 7:-0.952885 8:-1 9:-0.93703 10:-1 11:-0.860667 12:-0.998551 13:-0.983414 14:-1 15:-0.971321 16:-0.897312 17:-1 18:-0.522215 19:-1 20:-1 21:-0.811357 
-569.4405515065183 32768 0 0 0 0 0 0 0 0 0 0 0 0 0 0 0 0 0 0 0 0 0 0 0 1:-0.801697 2:-0.608072 3:-0.986266 4:-0.877979 5:-1 6:-0.566836 7:-0.960396 8:-1 9:-1 10:-1 11:-0.894737 12:-0.99556 13:-0.975628 14:-1 15:-0.995071 16:-0.961115 17:-1 18:-0.862162 19:-1 20:-1 21:-0.729966 
-14.62134293909013 118.7056904664943 0.4985180371230143 0 10.73528317861997 0 0.5579188407200055 0 0 0.6713295306857363 3.562698871655332 4.852402398856403 0 0 0 0 0 4.266693918274759 0 3.933965961984202 0 3.567626565997743 0 2.636785489868307 0 1:-0.842897 2:-0.427918 3:-0.991148 4:-0.943118 5:-0.898352 6:-0.639152 7:-0.952202 8:-1 9:-0.302632 10:-1 11:-0.779671 12:-0.998726 13:-0.990186 14:-1 15:-0.986221 16:-0.977369 17:-1 18:-0.867638 19:-1 20:0.525 21:-0.785225 
-2159.204511560715 3254.081849143483 0 0 99.40151192750956 0 0 0 0 292.5167747552337 0 124.4366661095554 0 172.8223332909669 23.07667194850372 0 316.1864032560226 334.5871384786593 606.4887642149497 454.4315994350836 417.3843829013724 477.8210314749726 89.17664595699617 165.1354537356359 0 1:-0.850569 2:-0.459122 3:-0.976421 4:-0.826733 5:-1 6:-0.84621 7:-0.704336 8:-1 9:-0.919173 10:-1 11:-0.896665 12:-0.996659 13:-0.909104 14:-1 15:-0.955078 16:-0.91315 17:-1 18:-0.898843 19:-1 20:-1 21:-0.914949 
-291.6242187528762 -17786.63081467901 0 0 0 0 56.79326738081753 0 0 325.6701686160418 0 453.2135209462668 0 131.4745974513354 0 0 440.021833772976 1182.886575313244 847.7216978076507 507.1664382433367 730.1251562096763 1218.443423354849 1160.48885588555 46.50002636694554 35.46065274651311 1:-0.876571 2:-0.70543 3:-0.979369 4:-0.919395 5:-1 6:-0.819325 7:-1 8:-0.998853 9:-1 10:-1 11:-0.998554 12:-0.993063 13:-0.959332 14:-1 15:-0.977931 16:-0.939697 17:-1 18:-0.966935 19:-1 20:-1 21:-0.904605 
-0 -12730.23015637719 0 45.26823067360193 0 130.6352616110864 0 0 87.55566933080951 36.14308452166788 263.3494521740722 0 0 0 137.8556350545359 31.83779435899223 0 0 0 0 0 0 0 0 0 1:-0.775335 2:-0.996672 3:-0.982624 4:-0.840757 5:-1 6:-0.548837 7:-1 8:-1 9:-1 10:-1 11:-0.977662 12:-0.999351 13:-0.983378 14:-1 15:-0.947348 16:-0.954427 17:-1 18:-0.78415 19:-1 20:-1 21:-0.765565 
-0 -9272.583175298361 9.819370949805602 47.46478956687863 126.2093983240803 11.31690231665641 0 0 6.543113023098272 0 0 0 0 0 0 0 0 0 0 0 0 0 0 54.14535409402487 0 1:-0.778198 2:-0.303516 3:-0.9727 4:-0.88842 5:-1 6:-0.578775 7:-0.90099 8:-0.947248 9:-0.893797 10:-1 11:-0.89313 12:-0.988873 13:-0.983849 14:-1 15:-0.99003 16:-0.970577 17:-1 18:-0.82982 19:-1 20:-1 21:-0.731539 
-1589.841915730601 -5614.263159786177 0 0 0 0 0 0 0 0 0 0 0 0 0 0 0 0 0 0 0 0 0 0 0 1:-0.816298 2:-0.761598 3:-0.996169 4:-0.896022 5:-1 6:-0.591989 7:-1 8:-1 9:-0.917293 10:-1 11:-0.929128 12:-0.999657 13:-0.993083 14:-1 15:-0.986893 16:-0.948743 17:-1 18:-0.871978 19:-1 20:-1 21:-0.736439 
-0 -0 0.3911061560021479 0 0 0 0 5.268126266304041 0 0 0 0 0 0 0 0 0 0 0 0 0 0 0 0 0 1:-0.751209 2:-0.33472 3:-1 4:-0.88261 5:-1 6:-0.286186 7:-0.983612 8:-1 9:-0.93515 10:-1 11:-0.793331 12:-1 13:-1 14:-1 15:-1 16:-0.956263 17:-1 18:-0.846869 19:-1 20:-1 21:-0.604386 
-0 -109.935502170129 0 0 0 0 0 0 0 0 0 0 0 0 0 0 0 0 0 0 0 0 0 0 0 1:-0.777693 2:-0.533597 3:-0.999424 4:-0.911313 5:-0.673077 6:-0.406849 7:-0.844998 8:-1 9:-1 10:-1 11:-0.780153 12:-1 13:-0.997465 14:-1 15:-0.996079 16:-0.967735 17:-1 18:-0.8292 19:-1 20:-0.95 21:-0.655319 
-0 -0 0 0 0 0 0 28.9784870152129 0 0 0 0 187.6378679570359 0 167.1235014503446 92.34721839406662 0 0 0 0 0 0 0 0 0 1:-0.766026 2:-0.724984 3:-0.991555 4:-0.880775 5:-1 6:-0.412727 7:-0.875726 8:-0.941514 9:-1 10:-1 11:-0.867577 12:-0.999644 13:-0.998443 14:-1 15:-0.953957 16:-0.970299 17:-1 18:-0.753875 19:-1 20:-1 21:-0.676945 
-5992.172731573065 -12313.67183573885 0 0 0 0 0 0 0 65.71099955598181 59.19674850097029 228.3059338241494 77.39678613015163 108.3656057600675 99.17688424919326 20.58351723418349 0 557.9170306489362 345.9014897157217 1388.78744144986 1173.814508943605 1082.901022938179 345.7676889689305 0 0 1:-0.843936 2:-0.54275 3:-0.994165 4:-0.92573 5:-1 6:-0.687134 7:-0.90577 8:-1 9:-1 10:-1 11:-0.748975 12:-0.999988 13:-0.995473 14:-1 15:-0.990366 16:-0.981632 17:-1 18:-0.898533 19:-1 20:-1 21:-0.789853 
-1921.045318675642 -0 0 0 0 0 0 0 0 0 0 0 0 0 0 0 0 0 0 0 0 0 0 0 0 1:-0.797291 2:-0.692532 3:-0.998273 4:-0.929793 5:-1 6:-0.505457 7:-0.844998 8:-1 9:-1 10:-1 11:-0.835757 12:-1 13:-0.987905 14:-1 15:-0.981068 16:-0.982498 17:-1 18:-0.873011 19:-1 20:-1 21:-0.705709 
-0 -3520.61384448399 0 0 0 0 0 0 0 0 0 0 0 0 0 0 0 0 0 0 0 0 0 0 0 1:-0.771629 2:-0.740379 3:-0.993669 4:-0.9384 5:-1 6:-0.378232 7:-0.993855 8:-1 9:-1 10:-1 11:-0.906468 12:-0.997546 13:-0.9979 14:-1 15:-0.988349 16:-0.969814 17:-1 18:-0.921471 19:-1 20:-1 21:-0.511743 
-4230.995879332604 -4197.75088425817 0 0 0 0 239.6437950503107 0 0 104.6423506658141 108.2169089686885 212.2248404059892 18.48670952924553 106.3640646482178 0 126.9782826396865 92.81899855009596 0 14.44719495035539 74.02722838102025 0 0 0 30.86253881866192 116.2071321049841 1:-0.838211 2:-0.992927 3:-0.998819 4:-0.867712 5:-1 6:-0.629582 7:-1 8:-1 9:-1 10:-1 11:-0.986501 12:-1 13:-0.994314 14:-1 15:-0.989694 16:-0.94649 17:-1 18:-0.795619 19:-1 20:-1 21:-0.792726 
-0 -2464.683220803865 0 0 0 0 0 0 0 0 0 0 0 0 0 0 0 53.75816939530338 0 0 0 0 0 0 0 1:-0.822513 2:-0.787809 3:-0.99217 4:-0.937613 5:-1 6:-0.572942 7:-0.915329 8:-1 9:-1 10:-1 11:-0.806991 12:-0.99897 13:-0.988339 14:-1 15:-0.996527 16:-0.983399 17:-1 18:-0.905869 19:-1 20:-1 21:-0.75141 
-1.135773871245595 -0.3029187701523011 -0.8586785929633142 0 0 0 0 0 0 1.229585462248403 0 0.8502452776900549 1.687995860800019 1.614387710618625 0.1548719280863121 1.065817138913845 0.7345172475993487 1.382622466847559 1.078740563285874 0.9975076943454325 1.087373798296321 1.159014732840457 1.440040832131804 0 0 1:-0.548579 2:-0.811941 3:0.205639 4:-0.925337 5:-1 6:-0.406393 7:-1 8:-0.816514 9:-1 10:-1 11:-0.884934 12:0.870683 13:-0.870464 14:-1 15:0.0120428 16:-0.944376 17:-1 18:-0.978301 19:-1 20:-1 21:-0.485157 
-8.519118001716611 -9.664894027487648 -9.351798512844436 4.551114092736937 0 7.963263107928456 2.91049027371261 16.79922425972905 10.23370321161603 10.33423600596668 11.9616775387788 9.731799579948083 10.93474071407049 9.127573094841541 10.44314327541925 11.81258137273758 8.262915947256902 7.053906802863777 7.770269491497665 7.914567807500957 7.683049655679407 7.727618473356443 6.831454743064734 11.48180968879046 10.83551700703265 1:-0.423614 2:0.0746828 3:-0.509423 4:-0.672732 5:-1 6:-0.5888 7:-0.883237 8:-1 9:-0.809211 10:-1 11:-0.659622 12:0.179223 13:-0.445969 14:-1 15:-0.397972 16:-0.421095 17:-1 18:-0.197871 19:-1 20:-1 21:-0.577255 
-0.1094693382821757 -0 -0 14.01906303793437 0 6.159069742891292 6.39876073343038 0 3.073820871849823 0.4390695742279261 0 0 0 1.951974349466039 0.8774594638093302 0 0 0 0 0 0 0 0 0.1256239251670652 1.205657628874164 1:-0.376464 2:-0.0468067 3:-0.701029 4:-0.350008 5:-1 6:-0.471737 7:-0.46125 8:-1 9:-0.558271 10:-1 11:-0.557895 12:0.0447925 13:-0.0731513 14:-1 15:-0.465972 16:0.0946993 17:-1 18:-0.139285 19:-1 20:-1 21:-0.619811 
-0 -0 -0 1.374283183724412 38.84658525993059 0 2.577549709127752 0 1.875339756429287 0 0 0 0 0 0 0 0 0 0 0 0 0 0 0 0 1:-0.173467 2:-0.294362 3:-0.554089 4:-0.843116 5:-1 6:-0.219248 7:-0.156026 8:-0.998853 9:-0.958647 10:-1 11:-0.1137 12:0.3984 13:-0.724632 14:-1 15:0.279225 16:-0.892911 17:-1 18:-0.102914 19:-1 20:-1 21:0.205112 
-0 -0 -0 0.4315007646289604 0 0 10.48494924201436 4.87768891313753 0 0.02866014266525623 0 0 0 0 0 0.5934256768837376 0 0 0 0 0 0 0 0 0 1:-0.145036 2:-0.499896 3:-0.551578 4:-0.757749 5:-1 6:-0.202616 7:-0.520656 8:-0.951835 9:-0.322368 10:-1 11:-0.294014 12:0.475065 13:-0.685739 14:-1 15:0.184451 16:-0.899322 17:-1 18:-0.259971 19:-1 20:-1 21:0.240348 
-0 -0 -0 0 17.96476049230932 0 0 0 1.005031634844226 0 0 0 0.4040307916376075 0 0 0 0 0 0 0 0 0 0 0 0 1:-0.274861 2:-0.258581 3:-0.551926 4:-0.813364 5:-1 6:-0.242077 7:-0.74872 8:-0.322248 9:-0.99906 10:-1 11:-0.25914 12:0.40721 13:-0.395886 14:-1 15:0.0217891 16:-0.870973 17:-1 18:-0.321864 19:-1 20:-1 21:0.235357 
-0 -0 -0 0 4.313350264760681 0 0 0 0 0 0 0 0 0 0 0 0 0 0 0 0 0 0 0 0 1:-0.166155 2:0.0264198 3:-0.473429 4:-0.662028 5:-1 6:-0.326058 7:-0.764425 8:-0.99656 9:-0.972744 10:-1 11:-0.263801 12:0.489964 13:-0.694901 14:-1 15:-0.165406 16:-0.672114 17:-1 18:0.0712957 19:-1 20:-1 21:0.0765369 
-0 -0.8947314093110809 -0 0 0 1.555162632101192 0 0 0.8328687861407964 0 0.2105324849618773 0 0 0 0.8802826460590367 0 0.4266208121791083 0 0 0 0 0 0 0 0 1:-0.644572 2:-0.918036 3:0.158868 4:0.226414 5:-1 6:-0.459388 7:-1 8:-1 9:-0.903195 10:-1 11:-0.952109 12:0.13346 13:-0.0693851 14:-1 15:-0.295805 16:0.248644 17:-1 18:-0.154061 19:-1 20:-1 21:-0.661701 
-0 -0 -0 0 0 0 0 0 0 0 0 0 0 0 0.9853582505658449 0 0 0 0 0 0 0 0 0.3659858999656835 0 1:-0.579036 2:-0.523611 3:0.163741 4:0.00430328 5:-1 6:-0.340594 7:-0.909184 8:-0.946101 9:0.405075 10:-1 11:-0.681318 12:0.326248 13:-0.25306 14:-1 15:-0.619672 16:-0.297302 17:-1 18:-0.183716 19:-1 20:-1 21:-0.509565 
-0 -0 -0 0 1.41077378183594 0 0 0 0 0 0 0 0 0 0 0 0 0 0 0 0 0 0 0 0 1:-0.0312467 2:-0.00603287 3:0.182626 4:-0.526027 5:-1 6:-0.314438 7:-0.765108 8:-0.666284 9:-0.99812 10:-1 11:-0.474809 12:0.636202 13:-0.467806 14:-1 15:-0.118243 16:-0.323641 17:-1 18:-0.227216 19:-1 20:-1 21:-0.354737 
-0 -0 -0 0 22.90683600689227 0 0 0 0 0 0 0 0 0 0 0 0 0 0 0 0 0 0 0 0 1:-0.188371 2:-0.00020803 3:0.111165 4:-0.59986 5:-1 6:-0.244127 7:-0.846364 8:-0.869266 9:0.0479323 10:-1 11:-0.460024 12:0.376645 13:-0.622764 14:-1 15:-0.0724248 16:-0.554905 17:-1 18:-0.487601 19:-1 20:-1 21:-0.323342 
-0 -0 -0 0 21.09189113788943 0 0 0 0 0 0 0 0 0 0 0 0 0 0 0 0 0 0 0 0 1:-0.0792327 2:-0.500312 3:0.19251 4:-0.53009 5:-1 6:0.0595338 7:-0.997952 8:-0.900229 9:-1 10:-1 11:-0.510808 12:0.314878 13:-0.493119 14:-1 15:0.152971 16:-0.45849 17:-1 18:-0.460529 19:-1 20:-1 21:-0.134427 
-0 -0 -0 0 0 1.45642782416688 0 3.87216084970403 0.3033602454398436 0 1.253404429706328 0 0 0 0 0 0 0 0 0 0 0 0 0 0 1:-0.385405 2:-0.850634 3:-0.257242 4:-0.459053 5:-1 6:-0.116129 7:-1 8:-1 9:-1 10:-1 11:-0.867417 12:0.361609 13:-0.446078 14:-1 15:-0.103904 16:-0.266423 17:-1 18:-0.132672 19:-1 20:-1 21:-0.183244 
-0 -0 -0 1.713994732225663 23.70016728201116 1.278954958848179 13.82464204647012 6.557589718879203 1.349474935402902 0 1.404722537235015 0 0 0 0 0 0 0 0 0 0 0 0 0.2511616262676209 0.5466867385598979 1:-0.140904 2:-0.253172 3:-0.252052 4:0.136023 5:-1 6:-0.108018 7:-0.956982 8:-0.838303 9:-0.99718 10:-1 11:-0.643391 12:-0.119972 13:-0.14308 14:-1 15:-0.64667 16:-0.0472197 17:-1 18:0.671936 19:-1 20:-1 21:-0.35017 
-19.87509284602032 -0 -0 -0 0 0 180.836561428964 0 19.1705360282925 48.06901679950008 0 19.94558486642282 0 0 0 0 32.86086030315906 4.231122944201466 0 13.39907031300341 21.66405825021635 4.751054884562504 13.37103600887692 0 66.94546972527452 1:-0.631803 2:-0.957978 3:-0.915043 4:-0.73892 5:-1 6:-0.921943 7:-1 8:-0.995413 9:-1 10:-1 11:-0.98634 12:-0.835516 13:-0.61878 14:-1 15:-0.916653 16:-0.488364 17:-1 18:-0.818868 19:-1 20:-1 21:-0.925837 
-24.61707762848951 -67.13211282617419 -32.7398413538354 -0 87.29036168462059 0 0 0 0 57.4858711115508 22.68191201349419 52.59398570535947 60.43583609835208 59.97448722401177 1.611412023324086 37.36133963421928 27.03736051386306 45.15195288654806 44.14011294984472 31.49586762766051 30.0404415164869 33.77033267583603 34.46506902459089 0 0 1:-0.525772 2:-0.593509 3:-0.88161 4:-0.884401 5:-1 6:-0.934747 7:-0.822465 8:-0.572248 9:-1 10:-1 11:-0.856167 12:-0.726237 13:-0.752336 14:-1 15:-0.790063 16:-0.736436 17:-1 18:-0.985948 19:-1 20:-1 21:-0.917248 
-21.99088792835235 -21.50627221087037 -14.64622842258481 -0 0 328.9830606541067 469.1648313191604 0 64.02865238891313 89.97693593603512 0 42.10810564201321 0 32.03761912449741 52.88190404640087 7.094512067291305 66.86454761415591 16.47291140976384 17.89414689279734 10.14528055328601 8.495933210476153 7.906769451248199 14.28513643273684 231.6716756130722 259.1714260194608 1:-0.685802 2:-0.888912 3:-0.939674 4:-0.530003 5:-1 6:-0.73056 7:-0.926255 8:-1 9:-0.763158 10:-1 11:-0.98409 12:-0.968511 13:-0.828493 14:-1 15:-0.935361 16:-0.413679 17:-1 18:-0.524902 19:-1 20:-1 21:-0.832439 
-0.9791742060001692 -0.7900156912821068 -1.123441241406925 -0 1.82065700052098 0.261564971826182 2.541162881700877 0 0.4522623400343654 1.004369131985569 0.9996822703114433 0.7605888603391673 0.279743086088878 0.361060860699683 0.03574729787099226 0.5766873794301418 0.5277290990781225 1.341965224967546 0.9114102662423635 0.9781995541515175 1.364738336982366 0.983484738577833 0.9533380987971525 0.2368449410705202 0.7695274452172239 1:-0.639878 2:-0.630123 3:-0.928807 4:-0.663339 5:-0.53022 6:-0.783236 7:-0.961762 8:-1 9:-0.851504 10:-1 11:-0.857453 12:-0.924421 13:-0.785507 14:-1 15:-0.921246 16:-0.733594 17:0.931624 18:-0.551354 19:1 20:-1 21:-0.824272 
-0 -7.703720916413001 -0 -0 0 53.91586981468474 0 0 0 8.312499808538046 0 0 0 0 0 0 0 0 0 0 0 0 0 34.52629881195687 39.90832983477326 1:-0.654191 2:-0.580196 3:-0.923082 4:-0.724459 5:-1 6:-0.899569 7:-0.878457 8:-0.50344 9:-0.903195 10:-1 11:-0.839614 12:-0.898376 13:-0.70189 14:-1 15:-0.982748 16:-0.538062 17:-1 18:-0.581628 19:-1 20:-1 21:-0.918972 
-0 -0 -0 -0 0 55.06288053800097 0 0 0 0 0 0 0 0 0 0 0 0 0 0 0 0 0 0 0 1:-0.518756 2:-0.691284 3:-0.904395 4:-0.643505 5:-1 6:-0.832084 7:-0.924889 8:-1 9:-0.991541 10:-1 11:-0.668461 12:-0.833462 13:-0.724741 14:-1 15:-0.999216 16:-0.44837 17:-1 18:-0.386857 19:-1 20:-1 21:-0.853701 
-0 -0 -0 -2.786537392340229 0 0 0 51.36318087797922 0 0 0 0 0 0 0 0 0 0 0 0 0 0 0 0 0 1:0.00319065 2:-0.111712 3:-0.742123 4:-0.0365451 5:-1 6:-0.245449 7:-0.558211 8:-1 9:-0.411654 10:-1 11:-0.0944154 12:-0.85368 13:-0.77812 14:-1 15:-0.787711 16:-0.010449 17:-1 18:-0.532961 19:-1 20:-1 21:-0.346389 
-0 -0 -0 -8.23864180574186 24.35818442854087 0 10.57147591295062 0 11.74959166433164 0 0 0 0 0 0 0 0 0 0 0 0 0 0 0 0 1:0.0149294 2:0.100895 3:-0.813802 4:-0.205356 5:-1 6:-0.365018 7:0.158757 8:-0.825688 9:-0.391917 10:-1 11:-0.0624347 12:-0.850028 13:-0.597885 14:-1 15:-0.723184 16:-0.334974 17:-1 18:-0.460839 19:-1 20:-1 21:-0.3218 
-0 -0 -0 -0.1893579213318395 0.9760513127866277 0.2043355930522935 1.804918810291398 0.4492918358469347 0 0 0 0 0 0 0 0 0 0 0 0 0 0 0 0 0 1:-0.506787 2:-0.774079 3:-0.926436 4:-0.406453 5:1 6:-0.527238 7:-0.913964 8:-1 9:-0.378759 10:-1 11:-0.794938 12:-0.981374 13:-0.984609 14:1 15:-0.969081 16:-0.27481 17:1 18:0.202005 19:-1 20:-0.775 21:-0.734957 
-0 -0 -0 -0 55.1046962906068 0 0 0 0 0 0 0 0 0 0 0 0 0 0 0 0 0 0 0 0 1:-0.567471 2:-0.326815 3:-0.942443 4:-0.419952 5:-1 6:-0.689504 7:-0.80676 8:-0.911697 9:-0.469925 10:-1 11:-0.732423 12:-0.986469 13:-0.919896 14:-1 15:-0.914524 16:-0.248783 17:-1 18:0.0182889 19:-1 20:-1 21:-0.787947 
-0 -0 -0 -0 0 0 0 0 0 0 0 0 0 0 0 0 0 0 0 0 0 0 0 53.03315030517722 0 1:-0.609515 2:-0.742043 3:-0.94926 4:-0.545119 5:-1 6:-0.909594 7:-0.903039 8:-0.840596 9:-0.745301 10:-1 11:-0.907593 12:-0.95541 13:-0.874375 14:-1 15:-0.981628 16:0.125994 17:-1 18:-0.791796 19:-1 20:-1 21:-0.965429 
-0 -0 -0 -0 0 0 0 0 0 0 0 0 0 0 0 0 0 0 0 0 0 0 0 0 18.41915120833964 1:-0.613877 2:-0.578947 3:-0.939803 4:-0.648878 5:-1 6:-0.791028 7:-0.751451 8:-1 9:-1 10:-1 11:-0.9092 12:-0.950933 13:-0.827732 14:-1 15:-0.960007 16:-0.191876 17:-1 18:-0.457946 19:-1 20:-1 21:-0.760393 
-0 -0 -0 -0 0 79.59218495362903 0 0 56.45404753664872 0 0 0 0 0 0 0 0 0 0 0 0 0 0 0 0 1:-0.54382 2:-0.681298 3:-0.874862 4:-0.629088 5:-1 6:-0.91046 7:-0.993855 8:-1 9:-1 10:-1 11:-0.920611 12:-0.880056 13:-0.401789 14:-1 15:-0.858063 16:-0.440815 17:-1 18:-0.831473 19:-1 20:-1 21:-0.939025 
-0 -0 -0 -7.869643115124352 0 0 0 0 0 0 0 0 0 0 0 0 0 0 0 0 0 0 0 0 0 1:-0.444149 2:-0.769087 3:-0.850132 4:-0.561284 5:-1 6:-0.846438 7:-0.96859 8:-0.93578 9:-1 10:-1 11:-0.846043 12:-0.873037 13:-0.528681 14:-1 15:-0.736515 16:-0.338821 17:-1 18:-0.460426 19:-1 20:-1 21:-0.814261 
-0 -0 -0 -0 0 137.8999188573941 0 0 83.37975744011659 0 0 0 0 0 0 0 0 0 0 0 0 0 0 0 0 1:-0.42414 2:-0.961722 3:-0.883347 4:-0.556478 5:-1 6:-0.7358 7:-1 8:-1 9:-1 10:-1 11:-0.986661 12:-0.852869 13:-0.580539 14:-1 15:-0.950372 16:-0.379265 17:-1 18:-0.530068 19:-1 20:-1 21:-0.859902 
-0 -0 -0 -0 0 0 16.9903448583912 17.04940863721903 0 0 0 0 0 0 0 0 0 0 0 0 0 0 0 0 0 1:-0.425128 2:-0.452049 3:-0.891455 4:-0.618733 5:-1 6:-0.706136 7:-0.414135 8:-0.697248 9:-0.494361 10:-1 11:-0.333387 12:-0.898226 13:-0.633483 14:-1 15:-0.725648 16:-0.548944 17:-1 18:-0.521905 19:-1 20:-1 21:-0.528378 
-0 -19.82779539640247 -0 -0 89.06388385744656 58.27276836603298 0 0 0 23.89254584169078 43.21409346026068 13.70179523519389 64.32992970564173 82.14362107037172 126.1264453873078 0 0 0 15.46882176543165 8.957674780669564 0 15.99838577620912 2.368794635715567 0 0 1:-0.528325 2:-0.392136 3:-0.940031 4:-0.653597 5:-1 6:-0.733066 7:-0.767839 8:-1 9:-0.746241 10:-1 11:-0.38176 12:-0.9063 13:-0.658217 14:-1 15:-0.856831 16:-0.685838 17:-1 18:-0.650754 19:-1 20:-1 21:-0.738586 
-13.25722547761615 -40.775318469971 -13.57736385870943 -0 60.00859728213975 0 0 0 0 0 89.02252638762535 0 0 0 50.29365048897623 31.15961351776344 0 0 2.822493054417024 1.004445364887667 2.065739116552254 1.975696385977392 0 0 0 1:-0.497197 2:-0.489911 3:-0.92453 4:-0.681426 5:-1 6:-0.741086 7:-0.764425 8:-1 9:-0.670113 10:-1 11:-0.811169 12:-0.893681 13:-0.771131 14:-1 15:-0.742004 16:-0.701537 17:-1 18:-0.684852 19:-1 20:-1 21:-0.630064 
-15.43028466881387 -0 -30.64614536394401 -0 0 0 249.7255374319209 51.94837139943824 63.84508043848543 0 46.78057803423996 0 78.12219082138978 0 32.85952429702151 60.07378385597634 0 0 0 0 0 0 0 0 0 1:-0.516002 2:-0.685875 3:-0.942522 4:-0.714804 5:-1 6:-0.538766 7:-0.994537 8:-1 9:-0.993421 10:-1 11:-0.713299 12:-0.925713 13:-0.749873 14:-1 15:-0.811572 16:-0.618188 17:-1 18:-0.418992 19:-1 20:-1 21:-0.477747 
-0 -0 -0 -3.005775576712052 0 0 0 37.8690834697587 0 0 0 0 0 0 0 0 0 0 0 0 0 0 0 0 0 1:-0.532983 2:-0.418764 3:-0.927101 4:-0.514362 5:-1 6:-0.548245 7:-0.801297 8:-1 9:-0.723684 10:-1 11:-0.808276 12:-0.938383 13:-0.822916 14:-1 15:-0.889094 16:-0.371294 17:-1 18:-0.00185989 19:-1 20:-1 21:-0.590624 
-0 -0 -0 -0 0 0 0 0 0 0 0 0 0 0 0 0 0 0 0 0 0 0 0 11.63107751445232 0 1:-0.558003 2:-0.809861 3:-0.91809 4:-0.721007 5:-1 6:-0.88599 7:-0.87436 8:-1 9:-0.75094 10:-1 11:-0.894094 12:-0.892944 13:-0.811581 14:-1 15:-0.901193 16:-0.307838 17:-1 18:-0.482434 19:-1 20:-1 21:-0.944529 
-50.47120061854672 -121.3180151032846 -0 -0 0 43.22292737655517 54.92730726685283 0 100.4148536055672 37.30732050213929 221.040060508759 21.81316143168189 35.52721368932917 15.10406103784839 106.5559301001908 102.3601838903651 31.00748116476268 0 0 0.6691667009814416 4.780981257315153 2.904786056544536 4.338489025265782 341.8085235945395 221.7108306861991 1:-0.678296 2:-0.980445 3:-0.969872 4:-0.588894 5:-1 6:-0.680117 7:-0.979515 8:-0.975917 9:-0.99718 10:-1 11:-0.908558 12:-0.997527 13:-0.944774 14:-1 15:-0.943763 16:-0.460743 17:-1 18:-0.0183922 19:-1 20:-1 21:-0.703652 
-0 -0 -0 -0 0 0 98.83408524353527 15.66613825243596 0 0 0 0 0 0 0 0 0 0 0 0 0 0 0 0 0 1:-0.616545 2:-0.528188 3:-0.940686 4:-0.303436 5:-1 6:-0.661343 7:-0.997952 8:-1 9:-0.769737 10:-1 11:-0.96593 12:-0.99237 13:-0.954226 14:-1 15:-0.894808 16:-0.242337 17:-1 18:0.246539 19:-1 20:-1 21:-0.600242 
-0 -0 -0 -20.68253284715466 -17.05230185883784 8.113270901245221 14.67104027644028 7.034692609637299 17.79865542127276 9.921671489611205 0 0 4.43472574514441 20.54825378904154 3.804823463685798 15.21096720642727 0 0 0 0 0 0 0 0 0 1:0.381533 2:-0.633451 3:-0.457621 4:-0.853732 5:-1 6:-0.234148 7:-0.462615 8:-0.481651 9:-0.923872 10:-1 11:0.0294898 12:0.330913 13:-0.768378 14:-1 15:0.589873 16:-0.866745 17:-1 18:-0.8261 19:-1 20:-1 21:0.135637 
-0 -0 -0 -12.30449402645186 -0 14.78715921711385 44.82520307837541 18.60509743956667 10.53552899515471 0 15.50537191900833 0 0 0 0.04366885762499614 0 0 0 0 0 0 0 0 0 2.220096343487032 1:0.210897 2:-0.162055 3:0.289424 4:-0.023963 5:-1 6:0.571165 7:-0.913964 8:-1 9:-0.631579 10:-1 11:0.00715147 12:0.154615 13:-0.515499 14:-1 15:-0.660897 16:-0.5312 17:-1 18:0.464249 19:-1 20:-1 21:0.0459887 
-0 -0 -60.99098671331527 -0 -0 0 0 0 0 0 0 0 0 0 0 0 0 0 0 2.850429908991169 4.411899556051327 0 0 0 0 1:-0.65378 2:-0.041398 3:-0.95705 4:-0.764084 5:-1 6:-0.635142 7:-0.752134 8:-0.724771 9:-0.780075 10:-1 11:-0.607714 12:-0.985613 13:-0.92808 14:-1 15:-0.956198 16:-0.845501 17:-1 18:-0.742612 19:-1 20:-1 21:-0.793573 
-174.856482299493 -176.9876998799684 -65.21841161076499 -25.80466543340041 -272.4162073142984 106.208223936158 263.4285626561591 67.88917586624913 96.18070674445894 203.9195299845719 404.0181068294896 171.3363325813126 114.8658494509942 190.702547792332 191.7428938520102 156.6321324362541 96.16730007428586 83.31605721665488 117.5154868806307 95.43419214372628 91.58703416540128 98.43997938679165 78.95690303756545 217.9703262197948 242.2756390911296 1:-0.768947 2:-0.299355 3:-0.961834 4:-0.731973 5:-1 6:-0.778998 7:-0.733015 8:-0.885321 9:-0.679511 10:-1 11:-0.686943 12:-0.983384 13:-0.938691 14:-1 15:-0.952613 16:-0.728465 17:-1 18:-0.682786 19:-1 20:-1 21:-0.892265 
-0 -0 -0 -24.38292415620183 -0 0 0 0 0 0 0 0 0 0 0 0 0 0 0 0 0 0 0 0 0 1:0.319155 2:0.305596 3:-0.178368 4:-0.697853 5:-1 6:-0.17687 7:-0.387504 8:-0.416284 9:-0.50188 10:-1 11:0.382403 12:0.55938 13:-0.574165 14:-1 15:0.149835 16:-0.721326 17:-1 18:-0.0123993 19:-1 20:-1 21:0.0190095 
-0 -0 -0 -0 -0.5298443735251309 0 0 0 0 0 0 0 0 0 0 0 0 0 0 0 0 0 0 0 0 1:0.542443 2:0.338049 3:-0.42132 4:0.0127351 5:-1 6:-0.20699 7:0.0194606 8:0.330275 9:-0.925752 10:-1 11:0.450703 12:-0.0163691 13:-0.62997 14:-1 15:-0.0251498 16:-0.23336 17:-1 18:-0.201591 19:-1 20:-1 21:-0.119365 
-0 -0 -0 -0 -14.01056735699414 0 0 0 0 0 0 0 0 0 0 0 0 0 0 0 0 0 0 0 0 1:0.45539 2:0.19534 3:-0.482906 4:-0.348129 5:-1 6:-0.264906 7:-0.476955 8:-0.309633 9:0.281955 10:-1 11:-0.0465247 12:-0.0235311 13:-0.474868 14:-1 15:-0.340727 16:-0.402346 17:-1 18:-0.282083 19:-1 20:-1 21:-0.268265 
-0 -0 -0 -0 -0 0 1.927948603879547 0 0 0 0 0 0 0 0 0 0 0 0 0 0 0 0 0 0 1:0.373385 2:1 3:0.147704 4:-0.415977 5:-1 6:0.19774 7:1 8:-0.863532 9:-0.784774 10:-1 11:-0.253515 12:0.185342 13:-0.370066 14:-1 15:-0.461267 16:-0.622866 17:-1 18:0.237342 19:-1 20:-1 21:-0.112318 
-0 -0 -0 -47.05974776242063 -8.486689238051408 0 0 15.22111866502107 0 0 9.834407238537134 0 5.949048378031854 0 12.83628097278112 1.338510862708479 0 0 0 0 0 0 0 5.507854192052684 0 1:0.414507 2:-0.324319 3:0.0221001 4:-0.399594 5:-1 6:0.169716 7:-0.829293 8:-0.752294 9:-0.99906 10:-1 11:-0.719245 12:0.500642 13:-0.774281 14:-1 15:0.103568 16:-0.536502 17:-1 18:0.299132 19:-1 20:-1 21:0.191531 
-0 -0 -0 -0 -6.126821714955188 0 0 0 0 0 0 0 0 0 0 0 0 -0 0 -0 0 0 0 0 0 1:0.884351 2:0.182026 3:0.477568 4:0.172372 5:-1 6:0.522499 7:-0.431205 8:-0.174312 9:-0.760338 10:-1 11:-0.291924 12:0.000190447 13:-0.385312 14:-1 15:-0.190276 16:-0.115632 17:-1 18:0.0605497 19:-1 20:-1 21:-0.0159546 
-0 -0 -37.1858633749453 -0 -0 -0 450.7388224818112 0 6463.659987710197 0 0 0 0 0 0 0 0 0 0 0 0 0 0 0 0 1:-0.791241 2:-1 3:-0.822644 4:-0.752507 5:-1 6:-0.672188 7:-1 8:-1 9:-1 10:-1 11:-1 12:-0.608422 13:-0.769646 14:-1 15:-0.976363 16:-0.752794 17:-1 18:-0.851416 19:-1 20:-1 21:-0.739645 
-0 -45.61017569992023 -0 -0 -284.8935989106813 -0 26.00297780101834 0 0 30.21866823371593 0 22.22803669838467 0 0 7.615088659985677 0 17.27175743561549 0 0 0 0 0 0 0 0 1:-0.748159 2:-0.912211 3:-0.840209 4:-0.605671 5:-1 6:-0.789387 7:-0.925572 8:-0.869266 9:-0.871241 10:-1 11:-0.910647 12:-0.755229 13:-0.693779 14:-1 15:-0.983084 16:-0.645116 17:-1 18:-0.777743 19:-1 20:-1 21:-0.906571 
-0 -0 -0 -0 -0 -0 893.1491659472117 48.85000565341812 736.2360424454608 0 0 0 0 0 43.0446430617009 16.25160540935758 3.963100892107968 0 0 0 0 0 0 0 0 1:-0.696474 2:-0.659247 3:-0.877641 4:-0.316848 5:-1 6:-0.709417 7:-0.28986 8:-1 9:-0.393797 10:-1 11:-0.82965 12:-0.867642 13:-0.565112 14:-1 15:-0.998544 16:-0.317853 17:-1 18:-0.412585 19:-1 20:-1 21:-0.880953 
-0 -0 -0 -0 -0 -0 0 0 1479.771531533758 0 0 0 0 0 0 0 0 0 0 0 0 0 0 67.8221116682096 99.53534859932449 1:-0.762702 2:-0.695028 3:-0.927279 4:-0.253282 5:-1 6:-0.645212 7:-0.935814 8:-1 9:-1 10:-1 11:-0.916914 12:-0.956547 13:-0.670204 14:-1 15:-0.957542 16:-0.150982 17:-1 18:-0.423331 19:-1 20:-1 21:-0.87073 
-0 -0 -0 -0 -72.08586080724447 -0 0 0 0 0 0 0 0 0 0 0 0 0 0 0 0 0 0 0 16.28078646521984 1:-0.784911 2:-0.951321 3:-0.874267 4:-0.601302 5:-1 6:-0.798227 7:-1 8:-1 9:-1 10:-1 11:-0.992125 12:-0.779437 13:-0.593431 14:-1 15:-0.997647 16:-0.324577 17:-1 18:-0.768031 19:-1 20:-1 21:-0.908688 
-0 -0 -0 -7.981573471133594 -0 -0 415.5615646079006 0 0 0 0 0 0 0 0 0 0 0 0 0 0 0 0 0 0 1:-0.700346 2:-0.838985 3:-0.860592 4:-0.276218 5:-1 6:-0.522863 7:-1 8:-1 9:-0.678571 10:-1 11:-0.909522 12:-0.848348 13:-0.653183 14:-1 15:-0.774492 16:-0.237693 17:-1 18:-0.270924 19:-1 20:-1 21:-0.713361 
-0 -0 -0 -0 -0 -0 208.2351824799272 0 621.4353202770172 207.0629320647659 0 0 0 0 0 0 0 0 0 0 0 0 0 0 21.49969156662071 1:-0.809859 2:-0.98419 3:-0.791474 4:-0.563643 5:-1 6:-0.839967 7:-1 8:-1 9:-1 10:-1 11:-0.95918 12:-0.811489 13:-0.602412 14:-1 15:-1 16:-0.519001 17:-1 18:-0.760591 19:-1 20:-1 21:-0.901701 
-0 -0 -0 -0 -39.74700516045079 -0 0 0 0 0 0 0 0 0 0 0 0 0 0 0 0 0 0 149.9338688778925 128.7138244194518 1:-0.803701 2:-1 3:-0.840953 4:-0.562987 5:-1 6:-0.779773 7:-1 8:-1 9:-1 10:-1 11:-1 12:-0.773612 13:-0.759397 14:-1 15:-0.999216 16:-0.488849 17:-1 18:-0.77051 19:-1 20:-1 21:-0.863229 
-67.0562977865434 -36.94440934965036 -37.1308850583294 -0 -32.52061997345157 -0 1982.230407716261 65.36473022516499 3698.451903065416 89.00752684184984 181.0255832647952 30.13255759553905 69.78555539137027 47.03083115326449 246.7282793075167 170.2968233362451 17.43307930320846 11.35664483257917 4.988104101688013 13.57193644249307 9.539874064200356 12.47702098002674 8.898971712223707 0 0 1:-0.751266 2:-0.789058 3:-0.967718 4:-0.789117 5:-1 6:-0.230093 7:-1 8:-1 9:-1 10:-1 11:-0.715709 12:-0.907961 13:-0.736909 14:-1 15:-0.516272 16:-0.7966 17:-1 18:-0.27237 19:-1 20:-1 21:-0.284083 
-0 -44.83266573248819 -0 -0 -17.36819421858153 -0 167.3922827201685 0 893.7431088086447 0 238.8038422138205 0 0 0 0 0 4.367383825713944 0 0 0 0 0 0 34.79870230788835 0 1:-0.708313 2:-0.647181 3:-0.959462 4:-0.575875 5:-1 6:-0.462669 7:-0.767156 8:-1 9:-0.991541 10:-1 11:-0.679068 12:-0.867455 13:-0.767835 14:-1 15:-0.762057 16:-0.495087 17:-1 18:-0.117793 19:-1 20:-1 21:-0.643282 
-0 -0 -0 -5.03812410522644 -0 -87.93506009638523 0 0 307.3448290093253 0 0 0 60.66678846496171 0 49.27218376813928 0 0 0 0 0.2617069606177687 0 0 0 0 0 1:-0.591099 2:-0.437487 3:-0.921772 4:-0.497368 5:-1 6:-0.287371 7:-0.502902 8:-0.940367 9:-0.756579 10:-1 11:-0.435436 12:-0.871564 13:-0.628232 14:-1 15:-0.790175 16:-0.57861 17:-1 18:-0.441827 19:-1 20:-1 21:-0.555025 
-0 -0 -3.536813455338809 -0 -0 -0 0 62.17900510067509 0 0 0 0 0 0 0 0 0 0 0 0 0 0 0 0 0 1:-0.595707 2:-0.796547 3:-0.920075 4:-0.596321 5:-1 6:0.0011164 7:-0.646296 8:-0.707569 9:-0.917293 10:-1 11:-0.469345 12:-0.865969 13:-0.752517 14:-1 15:-0.726545 16:-0.714741 17:-1 18:-0.437487 19:-1 20:-1 21:-0.42403 
-0 -0 -0 -0 -310.8002320548724 -0 0 0 0 0 0 0 0 0 0 0 0 0 0 0 0 0 0 0 0 1:-0.660457 2:-0.717911 3:-0.964354 4:-0.387929 5:-1 6:-0.635962 7:-0.887334 8:-1 9:-0.845865 10:-1 11:-0.810687 12:-0.866631 13:-0.598827 14:-1 15:-0.980283 16:-0.288326 17:-1 18:-0.252945 19:-1 20:-1 21:-0.851766 
-0 -0 -0 -0 -0 -0 271.799339272209 0 0 0 0 0 0 0 0 0 0 0 0 0 0 0 0 0 0 1:-0.674323 2:-0.894321 3:-0.891078 4:-0.483431 5:-1 6:-0.548381 7:-0.919426 8:-1 9:-1 10:-1 11:-0.801366 12:-0.87822 13:-0.558449 14:-1 15:-0.728337 16:-0.370185 17:-1 18:-0.208617 19:-1 20:-1 21:-0.649391 
-0 -0 -0 -0 -0 -0 0 51.37539479887984 1424.474374701364 0 0 0 0 0 0 0 0 0 0 0 0 0 0 0 0 1:-0.651242 2:-0.98419 3:-0.859937 4:-0.158086 5:-1 6:-0.536762 7:-1 8:-1 9:-1 10:-1 11:-0.969466 12:-0.811732 13:-0.669479 14:-1 15:-0.99944 16:-0.309466 17:-1 18:-0.0822484 19:-1 20:-1 21:-0.777391 
-43.15565194568786 -0 -0 -0 -0 -0 1082.54088655507 0 9197.985951432631 0 216.6391482616881 0 0 0 0 0 0 0 0 0 0 0 0 0 52.14689050150234 1:-0.74146 2:-0.985022 3:-0.893281 4:-0.501081 5:-1 6:-0.642797 7:-1 8:-1 9:-0.99906 10:-1 11:-0.978305 12:-0.843915 13:-0.651445 14:-1 15:-0.992494 16:-0.537888 17:-1 18:-0.193015 19:-1 20:-1 21:-0.75631 
-0 -0 -0 -0 -0 -0 0 0 32363.29694037261 0 0 0 0 0 0 0 0 0 0 0 0 0 0 0 0 1:-0.735043 2:-1 3:-0.768857 4:-0.493392 5:-1 6:-0.958215 7:-1 8:-1 9:-1 10:-1 11:-1 12:-0.614179 13:-0.7544 14:-1 15:-1 16:-0.610563 17:-1 18:-0.917648 19:-1 20:-1 21:-0.974805 
-0 -0 -0 -0 -0 -0 1770.059116355619 0 0 0 0 0 0 0 0 0 0 0 0 0 0 0 0 0 0 1:-0.757179 2:-1 3:-0.795433 4:-0.615238 5:-1 6:-0.896015 7:-1 8:-1 9:-1 10:-1 11:-1 12:-0.638731 13:-0.786594 14:-1 15:-0.985549 16:-0.739382 17:-1 18:-0.779913 19:-1 20:-1 21:-0.958442 
-0 -0 -0 -0 -0 -0 1923.37641654812 164.8829720287022 0 0 0 0 0 0 0 0 0 0 0 0 0 0 0 0 0 1:-0.57887 2:-0.591013 3:-0.88172 4:-0.340309 5:-1 6:-0.224852 7:-1 8:-1 9:-0.761278 10:-1 11:-0.438489 12:-0.853562 13:-0.685015 14:-1 15:-0.90545 16:-0.444385 17:-1 18:-0.193325 19:-1 20:-1 21:-0.483403 
-0 -0 -0 -5.393180689575964 -0 -0 0 0 546.0700935714289 0 0 0 38.20099219958441 0 0 0 0 0 0 0 0 0 0 0 0 1:-0.637448 2:-0.475348 3:-0.807679 4:-0.524192 5:-1 6:-0.326012 7:-0.821099 8:-1 9:-0.981203 10:-1 11:-0.144074 12:-0.815791 13:-0.498769 14:-1 15:-0.907803 16:-0.543156 17:-1 18:-0.533995 19:-1 20:-1 21:-0.523509 
-115.2380105684262 -103.1844540137106 -64.09860203912932 -0 -0 -41.17359395813179 0 0 0 166.2190109232413 176.1168669897776 125.3506804005259 123.2619018065863 195.381659532514 217.2108551930274 174.2712609080832 119.2757292470554 78.23494157935684 87.73520437270747 73.62413009477801 83.88445645668554 77.11464810329751 85.62429823628867 39.79992878941788 65.43424548227676 1:-0.830762 2:-1 3:-0.843374 4:-0.693222 5:-1 6:-0.875874 7:-1 8:-1 9:-1 10:-1 11:-1 12:-0.588303 13:-0.885239 14:-1 15:-0.976699 16:-0.753418 17:-1 18:-0.83664 19:-1 20:-1 21:-0.941202 
-0 -0 -0 -0 -0 -0 0 0 11418.29046056251 0 0 0 0 0 0 0 0 0 0 0 0 0 0 0 0 1:-0.792042 2:-1 3:-0.828509 4:-0.61834 5:-1 6:-0.861931 7:-1 8:-1 9:-1 10:-1 11:-1 12:-0.649777 13:-0.764359 14:-1 15:-0.984316 16:-0.7093 17:-1 18:-0.66429 19:-1 20:-1 21:-0.92986 
-0 -0 -0 -0 -0 -0 -1618.288271603631 0 2140.840049346193 0 0 0 0 0 0 0 0 0 0 0 0 0 0 0 0 1:-0.681029 2:-0.912627 3:-0.8621 4:-0.422006 5:-1 6:-0.500535 7:-0.993172 8:-0.954128 9:-1 10:-1 11:-0.75444 12:-0.762022 13:-0.642609 14:-1 15:-0.667283 16:-0.506836 17:-1 18:-0.389853 19:-1 20:-1 21:-0.387463 
-0 -0 -0 -0 -0 -0 -1502.995183785275 0 160.0601025179759 0 0 0 0 0 0 0 0 0 0 0 0 0 0 0 0 1:-0.669773 2:-0.696276 3:-0.825016 4:-0.609515 5:-1 6:-0.428493 7:-0.967907 8:-1 9:-0.758459 10:-1 11:-0.383367 12:-0.788398 13:-0.53596 14:-1 15:-0.918557 16:-0.4832 17:-1 18:-0.128126 19:-1 20:-1 21:-0.517641 
-0 -0 -1.530326772440591 -0 -0 -0 -0 0 674.6596072043053 0 0 0 100.900798817348 0 168.6184885483027 77.24030476063245 0 0 0 0 0 0 0 0 0 1:-0.683545 2:-0.716663 3:-0.913207 4:-0.865397 5:-1 6:-0.328473 7:-0.911915 8:-0.897936 9:-0.723684 10:-1 11:-0.709763 12:-0.740692 13:-0.718295 14:-1 15:-0.904554 16:-0.777504 17:-1 18:-0.421781 19:-1 20:-1 21:-0.269293 
-0 -0 -0 -0 -0 -0 -0 1200.437370392359 0 0 0 0 0 0 0 0 0 0 0 0 0 0 0 0 0 1:-0.637427 2:-0.549823 3:-0.844942 4:-0.689989 5:-1 6:-0.491741 7:-0.637419 8:-0.99656 9:-0.690789 10:-1 11:-0.535235 12:-0.690608 13:-0.664808 14:-1 15:-0.802162 16:-0.652706 17:-1 18:-0.424365 19:-1 20:-1 21:-0.547282 
-0 -0 -0 -0 -28.12802471056383 -84.03337826731216 -0 0 355.7145711702959 0 0 0 14.49405726594048 0 0 0 0 0 0 0 0 0 0 0 0 1:-0.30154 2:0.120865 3:-0.655837 4:-0.465301 5:-1 6:-0.0268164 7:-0.683168 8:-1 9:-0.994361 10:-1 11:-0.178465 12:-0.740199 13:-0.641414 14:-1 15:-0.50899 16:-0.780485 17:-1 18:-0.453296 19:-1 20:-1 21:-0.441301 
-0 -0 -0 -0 -268.3757833395047 -0 -0 0 731.6467862619238 0 0 0 0 0 0 0 0 0 0 0 0 0 0 0 0 1:-0.441135 2:-0.843561 3:-0.848287 4:-0.52961 5:-1 6:-0.725502 7:-0.970638 8:-1 9:-0.967105 10:-1 11:-0.932342 12:-0.707049 13:-0.574238 14:-1 15:-0.799361 16:-0.516679 17:-1 18:-0.389647 19:-1 20:-1 21:-0.557112 
-0 -0 -0 -0 -403.662929327509 -0 -1236.11719661588 979.5200242800275 0 70.35558224739945 0 0 0 0 0 0 0 0 0 0 0 0 0 176.6562241946703 340.1136270225756 1:-0.76961 2:-0.773247 3:-0.914378 4:-0.260228 5:-1 6:-0.545374 7:-0.90577 8:-1 9:-0.642857 10:-1 11:-0.855685 12:-0.950709 13:-0.751974 14:-1 15:-0.999888 16:-0.17181 17:-1 18:-0.240029 19:-1 20:-1 21:-0.61975 
-0 -0 -0 -0 -24.93813419228641 -64.07151087112696 -594.9153660341618 47.08664085280422 0 17.69314641953041 0 5.507061244572608 0 0.1504429898505339 154.8298526723925 0 29.34478261663926 0 0 0 0 0 0 47.33457470286766 0 1:-0.774657 2:-0.27564 3:-0.863361 4:-0.424146 5:-1 6:-0.709098 7:-0.487197 8:-1 9:-0.43703 10:-1 11:-0.78401 12:-0.869528 13:-0.59593 14:-1 15:-0.857615 16:-0.37618 17:-1 18:-0.472825 19:-1 20:-1 21:-0.854488 
-0 -0 -0 -0 -0 -0 -0 750.6615449492 0 0 0 0 0 0 0 0 0 0 0 0 0 0 0 0 0 1:-0.400583 2:-0.620137 3:-0.702676 4:-0.207541 5:-1 6:-0.390034 7:-0.993172 8:-0.990826 9:-0.883459 10:-1 11:-0.339172 12:-0.667342 13:-0.741544 14:-1 15:-0.971321 16:-0.446464 17:-1 18:-0.125646 19:-1 20:-1 21:-0.384227 
-0 -0 -0 -18.87122406554027 -0 -0 -0 0 0 0 0 0 0 0 0 0 0 0 0 0 0 0 0 0 0 1:-0.227336 2:-0.411691 3:-0.664778 4:-0.47299 5:-1 6:-0.127748 7:-0.552748 8:-1 9:-0.93515 10:-1 11:-0.128807 12:-0.662709 13:-0.538893 14:-1 15:-0.273063 16:-0.641096 17:-1 18:-0.1677 19:-1 20:-1 21:-0.143743 
-0 -0 -0 -4.202234387984501 -0 -21.77510863376865 -0 211.359863648506 0 0 0 0 0 0 0 0 0 0 0 0 0 0 0 0 0 1:-0.287133 2:-0.517371 3:-0.664034 4:-0.075515 5:-1 6:-0.475473 7:-1 8:-0.990826 9:1 10:-1 11:-0.814544 12:-0.739575 13:-0.545484 14:-1 15:-0.966168 16:-0.288742 17:-1 18:-0.101467 19:-1 20:-1 21:-0.583093 
-0 -0 -0 -0 -0 -0 -1397.729877337915 1810.359451909486 1719.128294123146 0 13.41905772807112 0 0 0 0 0 0 0 0 0 0 0 0 0 0 1:-0.400728 2:-0.698773 3:-0.690748 4:-0.249525 5:-1 6:0.0578023 7:-0.836804 8:-1 9:-0.981203 10:-1 11:-0.774528 12:-0.710845 13:-0.692402 14:-1 15:-0.684423 16:-0.566619 17:-1 18:-0.156541 19:-1 20:-1 21:-0.332234 
-0 -0 -0 -0 -0 -0 -0 339.2251247211992 0 0 0 0 0 0 0 0 0 0 0 0 0 0 0 0 0 1:-0.469112 2:-0.983774 3:-0.660947 4:-0.436641 5:-1 6:-0.295391 7:-1 8:-1 9:-1 10:-1 11:-0.710084 12:-0.72078 13:-0.563482 14:-1 15:-0.520641 16:-0.642586 17:-1 18:-0.00661294 19:-1 20:-1 21:-0.299327 
-0 -0 -0 -5.094984701498174 -0 -0 -0 0 0 0 0 0 0 0 0 0 0 0 0 0 0 0 0 0 0 1:-0.469386 2:-0.272311 3:-0.666991 4:-0.220035 5:-1 6:-0.217698 7:-1 8:-1 9:-0.894737 10:-1 11:-0.711852 12:-0.730452 13:-0.520642 14:-1 15:-0.785582 16:-0.435651 17:-1 18:-0.130192 19:-1 20:-1 21:-0.407819 
-0 -0 -0 -8.027948849732285 -0 -0 -0 456.205858244492 0 0 0 0 0 0 0 0 0 0 0 0 0 0 0 0 0 1:-0.368114 2:-0.922197 3:-0.718286 4:-0.436598 5:-1 6:-0.193274 7:-0.83817 8:-1 9:-0.859962 10:-1 11:-0.592929 12:-0.5723 13:-0.636815 14:-1 15:-0.51728 16:-0.334731 17:-1 18:0.378384 19:-1 20:-1 21:0.332265 
-0 -0 -0 -0 -0 -0 -0 404.5398266014126 0 0 0 0 0 0 0 0 0 0 0 0 0 0 0 0 0 1:-0.4678 2:-0.982942 3:-0.874386 4:-0.653203 5:-1 6:-0.407441 7:-1 8:-1 9:-1 10:-1 11:-0.924307 12:-0.678831 13:-0.862135 14:-1 15:-0.331093 16:-0.749225 17:-1 18:-0.473135 19:-1 20:-1 21:-0.152786 
-2.034434140402703 -0 -0 -0 -0 -0 -0 356.1007360228211 0 0 5.831037880274113 0 0 0 18.98062523926299 0 0 0 0 0 0 0 0 0 0 1:-0.47077 2:-0.970044 3:-0.816491 4:-0.740711 5:-1 6:-0.0809961 7:-1 8:-1 9:-1 10:-1 11:-0.884612 12:-0.646206 13:-0.851162 14:-1 15:-0.505965 16:-0.871701 17:-1 18:0.157161 19:-1 20:-1 21:0.0706087 
-362.8484546658661 -477.4762604127357 -248.5799684488437 -0 -360.2236857745033 -109.9304900277835 -2841.040267108453 0 1861.211928589672 1387.76166639045 1264.775231196135 546.608897694401 312.9465202544863 556.0352840375278 649.7382897599962 482.2923297660462 434.4296214696009 193.4938035489637 204.9447113311717 173.9665843421872 195.5999982587545 197.7064382057248 242.5531867013158 258.7111914425836 557.427324050685 1:-0.851983 2:-1 3:-0.914359 4:-0.87278 5:-1 6:-0.857328 7:-1 8:-1 9:-1 10:-1 11:-1 12:-0.858226 13:-0.843232 14:-1 15:-0.933457 16:-0.907293 17:-1 18:-0.687435 19:-1 20:-1 21:-0.912318 
-252.2662207428036 -210.6879221061788 -46.32676720984399 -0 -0 -0 -0 0 308.3438364870516 52.59553384228205 1296.099105076344 21.22388004357926 162.0444723583703 36.32053943614434 1090.196391176573 394.3173705915634 0 0 0 0 0 0 0 0 0 1:-0.782834 2:-0.802788 3:-0.878921 4:-0.604841 5:-1 6:-0.517122 7:-1 8:-1 9:-0.838346 10:-1 11:-0.820169 12:-0.876241 13:-0.818498 14:-1 15:-0.892231 16:-0.668509 17:-1 18:-0.56055 19:-1 20:-1 21:-0.533308 
-0 -16.62405234489988 -0 -0 -0.06766780940077018 -45.04226681486313 -0 171.6099610802869 135.6191838382109 86.1207212781454 193.661619022876 25.57748383802091 133.5196551776451 90.08966005243822 293.8558925096307 79.38803614474989 18.75008943296284 3.892288473624296 0.7664240316204368 14.56252341288915 8.562901188710333 9.523950758441535 4.177842692203875 0.03183074432612207 0 1:-0.759775 2:-0.1088 3:-0.871449 4:-0.594618 5:-1 6:-0.536579 7:-0.149881 8:-1 9:-0.705827 10:-1 11:0.299478 12:-0.838245 13:-0.871514 14:-1 15:-0.876435 16:-0.719524 17:-1 18:-0.3882 19:-1 20:-1 21:-0.558715 
-6.722629193286059 -18.45811099261846 -5.745609912647417 -0 -15.37217183261128 -0 -175.1601142236448 -2571.406775716063 67.5038294092049 0 89.45799069494502 3.536491219342246 0 0 16.69893125197818 0 11.9255197709323 0 0.3499704567519714 0 0 0 0.6959837039841885 27.9069080354615 36.53272139351687 1:-0.631983 2:-0.90389 3:-0.757912 4:-0.32563 5:-1 6:-0.310155 7:-0.892113 8:-1 9:-1 10:-1 11:-0.833186 12:-0.717901 13:-0.71873 14:-1 15:-0.907579 16:-0.469234 17:-1 18:0.0796652 19:-1 20:-1 21:-0.482011 
-0 -0 -0 -0 -0 -0 -0 -196.369728377047 0 0 0 0 0 0 0 0 0 0 0 0 0 0 0 0 0 1:-0.526392 2:-0.852715 3:-0.685121 4:-0.445248 5:-1 6:-0.161058 7:-0.78491 8:-1 9:-1 10:-1 11:-0.80683 12:-0.602347 13:-0.671942 14:-1 15:-0.747381 16:-0.66688 17:-1 18:-0.301199 19:-1 20:-1 21:-0.0706087 
-16.33798546453795 -1.080805674324472 -3.660106065642412 -0 -1.088337284123675 -3.310665820447044 -54.31878162343919 -0 127.383211518136 22.39892602124932 47.15436607244809 10.20831290575336 32.12089434261931 21.83134054090078 22.36239657306824 33.18045385448475 4.5024401924872 8.975311984487726 8.150816587766725 8.679299884128035 7.755684122635549 8.370484489687939 9.196112613962519 3.984469684994241 7.559480430386408 1:-0.658244 2:-0.710838 3:-0.728954 4:-0.538828 5:-1 6:-0.344604 7:-0.658587 8:-0.951835 9:-0.93797 10:-1 11:-0.448292 12:-0.753443 13:-0.7456 14:-1 15:-0.630314 16:-0.688818 17:-1 18:-0.126989 19:-1 20:-1 21:-0.42034 
-11.44452013403676 -17.20705505358121 -21.51276828576392 -0 -0 -0 -46.64712244120511 -1257.50248317418 226.7567518450028 10.56189920614704 2.919980813986622 5.403084019240731 18.03128094702403 8.466706844855423 13.00883254274443 17.08640407921266 3.631998170673946 7.793295063246907 6.827889174986352 9.897037334969076 9.529189593063878 8.27315844226689 6.572883666885189 1.94541033232565 6.570021123068964 1:-0.499771 2:-0.697941 3:-0.75167 4:-0.68728 5:-1 6:-0.144654 7:-0.83339 8:-1 9:-0.986842 10:-1 11:-0.74319 12:-0.736552 13:-0.895959 14:-1 15:-0.434381 16:-0.818711 17:-1 18:-0.576669 19:-1 20:-1 21:-0.0242722 
-0 -0 -0 -24.94708609170004 -48.81073543397776 -72.44680750560497 -0 -527.7405264305679 0 0 0 0 0 0 0 0 0 0 0 0 0 0 0 0 0 1:-0.294899 2:-0.433742 3:-0.61247 4:-0.573473 5:-1 6:-0.318767 7:-0.86958 8:-1 9:-0.87782 10:-1 11:-0.709442 12:-0.627173 13:-0.767509 14:-1 15:-0.43875 16:-0.640195 17:-1 18:-0.319178 19:-1 20:-1 21:-0.292461 
-0 -0 -0 -7.159577649749768 -52.38267429759676 -0 -4.746825811594793 -1056.7474571283 0 0 0 0 0 0 0 0 0 0 0 0 0 0 0 0 0 1:-0.536069 2:-0.467443 3:-0.798172 4:-0.125407 5:-1 6:-0.407168 7:-0.851827 8:-0.994266 9:-0.558271 10:-1 11:-0.537324 12:-0.736365 13:-0.603897 14:-1 15:-0.711869 16:-0.262576 17:-1 18:-0.0304815 19:-1 20:-1 21:-0.310336 
-2.158958342718995 -3.332114510965825 -3.328129017463185 -0 -56.6915556243686 -32.99261125442215 -111.7792637069563 -1117.339431876434 42.52921673542166 10.51346045405006 -0 6.715162110474753 7.986892482653619 11.90700747599822 21.87234840308443 4.426054307960452 3.329671017298426 1.998826034189283 3.161170512647592 1.916202179593728 2.33960356741308 2.421606323107442 2.287418544000511 8.841144784546985 0 1:-0.459248 2:-0.618057 3:-0.729083 4:-0.375653 5:-1 6:-0.316853 7:-0.643564 8:-1 9:-0.204887 10:-1 11:-0.314423 12:-0.758963 13:-0.689614 14:-1 15:-0.877107 16:-0.504029 17:-1 18:-0.349039 19:-1 20:-1 21:-0.528983 
-132.6211098587913 -139.0832380905229 -18.34057700602861 -0 -143.6531992877488 -0 -18074.3579717957 -0 -0 161.6645545542832 421.1447486500801 57.42617951160681 49.95083337081428 35.60191416190839 108.3629691508449 129.1494558237656 51.68738380025157 8.06672293336811 9.467865069968106 10.17711424446027 14.17093171519373 12.36668281190284 11.44507956805818 70.41133420766359 234.043588177564 1:-0.767872 2:-0.992095 3:-0.858161 4:-0.519867 5:-1 6:-0.641886 7:-1 8:-1 9:-1 10:-1 11:-0.975894 12:-0.846344 13:-0.692873 14:-1 15:-0.934129 16:-0.649032 17:-1 18:-0.453916 19:-1 20:-1 21:-0.754647 
-0 -0 -0 -0 -87.21233938472302 -0 -6673.91810562185 -789.3286973576583 -0 23.18228725893012 0 0 0 0 0 0 0 0 0 0 0 0 0 44.32404418248977 0 1:-0.753927 2:-0.733722 3:-0.914855 4:-0.317373 5:-1 6:-0.722677 7:-0.794469 8:-1 9:-1 10:-1 11:-0.849257 12:-0.868417 13:-0.42779 14:-1 15:-1 16:-0.206502 17:-1 18:-0.765137 19:-1 20:-1 21:-0.881406 
-18.80377703782656 -20.21318950577898 -40.48528720154744 -0 -0.02765947044398336 -42.37769178940064 -32768 -304.9720580286809 -0 127.6802898366863 0 60.66237472172729 59.33242329305602 78.52750375726789 40.34840338873881 15.04462547966027 55.47805021245384 44.10481080476016 50.27956299784418 43.77347353731541 46.71687488030331 43.68035025368556 50.43549307386009 59.46376916136287 30.99111718217329 1:-0.783122 2:-1 3:-0.772549 4:-0.590424 5:-1 6:-1 7:-1 8:-1 9:-1 10:-1 11:-1 12:-0.553623 13:-0.822843 14:-1 15:-1 16:-0.685768 17:-1 18:-0.964455 19:-1 20:-1 21:-1 
-0 -0 -0 -6.964872856894101 -124.1083848272122 -7.543984861130059 -7485.733426432796 -1864.210133989046 -0 0 0 0 0 0 0 0 0 0 0 0 0 0 0 0 0 1:-0.696358 2:-1 3:-0.804831 4:-0.515629 5:-1 6:-0.717345 7:-1 8:-1 9:-1 10:-1 11:-1 12:-0.683196 13:-0.718295 14:-1 15:-0.996863 16:-0.545686 17:-1 18:-0.152718 19:-1 20:-1 21:-0.732718 
-0 -21.05441244519279 -0 -11.70872658482881 -36.23405929642775 -74.59321451035569 -0 -930.4007416023219 -114.4878102931922 1.945834063189439 57.63979543180814 1.624727479532966 71.34467087295708 45.65668264871912 47.45874621896323 25.4093817150173 5.930247501125089 4.338181484526687 7.380186093021897 9.49926386691422 5.887225103258506 6.272432201924659 5.978924350733653 0.8110183097998436 0 1:-0.534857 2:-0.256085 3:-0.892775 4:-0.508071 5:-1 6:-0.209314 7:-0.502219 8:-0.883028 9:-0.996241 10:-1 11:-0.117557 12:-0.830558 13:-0.743645 14:-1 15:-0.573517 16:-0.667851 17:-1 18:-0.61087 19:-1 20:-1 21:-0.415592 
-19.61333455654744 -0 -35.27291814633173 -0 -8.259139175833681 -0 -4148.751039640057 -4198.312728561069 -349.6851992145732 0 72.22607698691324 0 27.05651364368689 0 69.53644990445861 12.63925146453936 0 5.129055643602356 0 0 0 0 0 0 0 1:-0.579144 2:-0.842313 3:-0.822614 4:-0.615107 5:-1 6:-0.272607 7:-1 8:-1 9:-0.945489 10:-1 11:-0.784331 12:-0.775004 13:-0.731839 14:-1 15:-0.683303 16:-0.799615 17:-1 18:-0.394813 19:-1 20:-1 21:-0.354435 
-0 -0 -0 -0 -0 -0 -0 -0 -0 -0 0 399.6685020869606 0 0 0 0 920.1238377199452 0 0 0 0 0 0 0 0 1:-0.967632 2:-0.920533 3:-0.897369 4:-0.919264 5:-1 6:-0.936479 7:-1 8:-1 9:-0.949248 10:-1 11:-0.971876 12:-0.851489 13:-0.836315 14:-1 15:-0.828824 16:-0.896689 17:-1 18:-0.951643 19:-1 20:-1 21:-0.924234 
-0 -0 -0 -0 -0 -0 -0 -0 -0 -0 0 1250.677345616597 0 0 0 0 0 0 8.094242976863921 0 0 0 0 0 0 1:-0.962671 2:-0.92927 3:-0.899572 4:-0.858013 5:-1 6:-0.925133 7:-1 8:-1 9:-0.984962 10:-1 11:-0.985215 12:-0.876072 13:-0.810712 14:-1 15:-0.917549 16:-0.829489 17:-1 18:-0.886443 19:-1 20:-1 21:-0.917248 
-0 -0 -0 -0 -0 -0 -0 -0 -0 -0 0 0 0 0 0 0 162.2846189402263 32.45769330499777 44.27535289448455 0 0 0 0 0 0 1:-0.970574 2:-0.884751 3:-0.898808 4:-0.901702 5:-1 6:-0.924768 7:-0.959713 8:-0.998853 9:-0.756579 10:-1 11:-0.902933 12:-0.856896 13:-0.778916 14:-1 15:-0.861984 16:-0.900431 17:-1 18:-0.951333 19:-1 20:-1 21:-0.920605 
-0 -0 -0 -0 -21.58651994130857 -29.45759146676449 -0 -0 -0 -0 0 0 0 0 0 0 0 0 0 0 0 0 0 273.7595497101132 340.4387156335536 1:-0.951531 2:-0.665904 3:-0.953299 4:-0.689246 5:-1 6:-0.824793 7:-0.94674 8:-0.795872 9:-0.679511 10:-1 11:-0.888469 12:-0.953156 13:-0.855689 14:-1 15:-0.944995 16:-0.671732 17:-1 18:-0.563443 19:-1 20:-1 21:-0.892688 
-0 -0 -0 -0 -122.7340545927579 -0 -11.47061676596273 -0 -0 -180.5211066090978 0 0 0 91.81119636070095 0 0 0 0 0 0 0 0 0 160.5296532004374 348.6395771142577 1:-0.952533 2:-0.91554 3:-0.930326 4:-0.594967 5:-1 6:-0.888907 7:-0.999317 8:-0.981651 9:-1 10:-1 11:-0.984411 12:-0.934636 13:-0.745962 14:-1 15:-0.99115 16:-0.649933 17:-1 18:-0.726596 19:-1 20:-1 21:-0.938752 
-491.7275550674367 -690.7051662727322 -71.96354535950675 -0 -0 -71.44180603443029 -0 -0 -0 -0 0 500.7536620993961 0 1079.668662847701 0 0 676.9886087359532 142.8884816083576 257.1490751128597 138.8955869803781 96.67900075560749 127.0680258968573 90.30504340120892 330.9177301356384 167.3580768658557 1:-0.904742 2:-0.565217 3:-0.968453 4:-0.723672 5:-1 6:-0.777266 7:-0.924889 8:-1 9:-0.883459 10:-1 11:-0.865167 12:-0.957883 13:-0.891975 14:-1 15:-0.880132 16:-0.765375 17:-1 18:-0.689399 19:-1 20:-1 21:-0.869006 
-0 -0 -147.1182558018684 -0 -0 -0 -0 -0 -0 -0 0 2368.396774585509 11.5412487777175 252.9750729230607 0 187.1284961160615 0 19.89340666790855 0 55.39135825035676 14.66506368447385 62.36802340004392 8.01489121506097 0 0 1:-0.917598 2:-0.681714 3:-0.971003 4:-0.851941 5:-1 6:-0.673054 7:-0.994537 8:-1 9:-1 10:-1 11:-0.82049 12:-0.95423 13:-0.898023 14:-1 15:-0.782221 16:-0.81885 17:-1 18:-0.796342 19:-1 20:-1 21:-0.839879 
-0 -0 -0 -0 -0 -0 -0 -500.6503061092343 -0 -0 293.809728647681 0 0 0 0 0 0 0 0 0 0 0 0 0 91.82442727873844 1:-0.929366 2:-0.858956 3:-0.926257 4:-0.802661 5:-1 6:-0.791301 7:-0.906453 8:-0.989679 9:-0.884398 10:-1 11:-0.823704 12:-0.894193 13:-0.826284 14:-1 15:-0.916989 16:-0.755601 17:-1 18:-0.607047 19:-1 20:-1 21:-0.786556 
-0 -0 -0 -0 -0 -0 -0 -0 -0 -0 0 0 0 609.2892680564706 0 0 0 0 0 0 0 0 0 0 0 1:-0.950197 2:-0.753693 3:-0.937391 4:-0.812578 5:-1 6:-0.855187 7:-0.928986 8:-0.794725 9:-1 10:-1 11:-0.695621 12:-0.906469 13:-0.82498 14:-1 15:-0.827032 16:-0.675371 17:-1 18:-0.683819 19:-1 20:-1 21:-0.861958 
-0 -0 -0 -2.922693833342682 -62.52679213653482 -0 -0 -0 -18.40219568083908 -0 927.256316112601 0 30.0883553348757 0 412.7168588889203 0 0 0 0 0 0 0 0 0 0 1:-0.918889 2:-0.753276 3:-0.934295 4:-0.774089 5:-1 6:-0.735253 7:-0.765108 8:-0.764908 9:-0.827068 10:-1 11:-0.880273 12:-0.914361 13:-0.833164 14:-1 15:-0.745813 16:-0.738724 17:-1 18:-0.508163 19:-1 20:-1 21:-0.680302 
-0 -0 -0 -0 -0 -0 -0 -0 -0 -0 98.55799927573334 0 532.1897681491619 1561.613630746646 779.8837977148944 334.2118750783349 0 0 0 0 0 0 0 0 0 1:-0.938833 2:-0.843561 3:-0.925592 4:-0.73656 5:-1 6:-0.787884 7:-0.993855 8:-0.941514 9:-0.994361 10:-1 11:-0.901487 12:-0.927049 13:-0.8575 14:-1 15:-0.964488 16:-0.737025 17:-1 18:-0.674106 19:-1 20:-1 21:-0.816469 
-0 -0 -0 -2.574274171956942 -59.2011924608384 -0 -0 -0 -7.093929942966763 -0 544.1523797938079 668.2865594320675 284.5168258491067 0 113.535435109777 902.5730300674517 0 0 0 0 0 0 0 0 0 1:-0.84682 2:-0.656751 3:-0.967192 4:-0.811049 5:-1 6:-0.674056 7:-0.999317 8:-0.930046 9:-0.834586 10:-1 11:-0.64548 12:-0.963309 13:-0.792822 14:-1 15:-0.776844 16:-0.75827 17:-1 18:-0.652821 19:-1 20:-1 21:-0.754798 
-0 -0 -0 -0 -0 -0 -0 -0 -0 -0 0 71.80338283342213 57.53785638979846 0 800.3033316850631 937.4653048573819 0 0 0 0 0 0 0 0 0 1:-0.910857 2:-0.665072 3:-0.968621 4:-0.921929 5:-1 6:-0.741496 7:-0.834756 8:-1 9:-0.795113 10:-1 11:-0.708477 12:-0.905782 13:-0.913413 14:-1 15:-0.738979 16:-0.967007 17:-1 18:-0.676379 19:-1 20:-1 21:-0.662851 
-117.8619904275893 -0 -0 -2.83270278821609 -0 -48.47657956857555 -0 -12.07164441132429 -14.10837629783174 -0 841.7789738305677 770.3509372773473 0 0 0 285.1260090637477 0 6.039735266431665 0 0 0 0 12.98802893516081 0 0 1:-0.912457 2:-0.553152 3:-0.969475 4:-0.877892 5:-1 6:-0.635461 7:-0.90099 8:-0.949541 9:-0.357143 10:-1 11:-0.622981 12:-0.915092 13:-0.903998 14:-1 15:-0.805859 16:-0.90258 17:-1 18:-0.535028 19:-1 20:-1 21:-0.630004 
-0 -0 -0 -3.701880391592548 -0 -64.46522440441275 -0 -0 -3.869783759808846 -0 1467.174992784631 0 712.2604635028736 887.8289601361234 0 311.3249842543514 0 0 0 0 0 0 0 0 0 1:-0.902276 2:-0.51321 3:-0.956772 4:-0.922847 5:-1 6:-0.751065 7:-0.537043 8:-0.81422 9:-0.980263 10:-1 11:-0.570751 12:-0.880599 13:-0.887811 14:-1 15:-0.696858 16:-0.893951 17:-1 18:-0.758318 19:-1 20:-1 21:-0.640953 
-104.5636351863913 -163.1378346580404 -88.30368961395266 -0 -0 -0 -0 -0 -0 -0 0 1862.587620646536 0 0 0 0 742.2368722180365 494.4189071100724 366.1396990290551 194.2813761975216 221.8518978908922 293.8006064715788 356.8855289033486 0 0 1:-0.945489 2:-0.837321 3:-0.916452 4:-0.998995 5:-1 6:-0.953612 7:-0.911915 8:-0.754587 9:-1 10:-1 11:-0.913379 12:-0.853356 13:-0.997936 14:-1 15:-0.860192 16:-1 17:-1 18:-0.986257 19:-1 20:-1 21:-0.95082 
-98.61979520115186 -181.2769741385824 -80.61631489012019 -0 -0 -0 -0 -680.447030299784 -0 -0 0 0 0 0 0 0 207.6490886555061 0 0 43.07456459147762 164.4028993167256 19.70232931368684 144.8071195514171 0 15.94934111567211 1:-0.954184 2:-0.992095 3:-0.938612 4:-0.780074 5:-1 6:-0.863389 7:-1 8:-1 9:-0.99906 10:-1 11:-0.967376 12:-0.900362 13:-0.831499 14:-1 15:-0.965048 16:-0.786931 17:-1 18:-0.781876 19:-1 20:-1 21:-0.903456 
-0 -0 -144.1647976940577 -0 -0 -0 -0 -81.95656066721165 -0 -0 0 1625.466337276682 0 5080.295520551554 0 0 0 0 0 80.00481432179716 69.55193407096947 69.6941960776109 12.3617102963358 0 0 1:-0.930404 2:-0.876014 3:-0.8816 4:-0.98318 5:-1 6:-0.813948 7:-1 8:-0.995413 9:-0.955827 10:-1 11:-0.922057 12:-0.822778 13:-0.97494 14:-1 15:-0.77718 16:-0.99397 17:-1 18:-0.978611 19:-1 20:-1 21:-0.827781 
-0 -0 -0 -0 -0 -0 -481.0375212976102 -0 -0 -133.9518591039913 0 0 0 0 0 0 0 0 0 0 0 0 0 0 0 1:-0.926828 2:-0.880175 3:-0.909675 4:-0.692523 5:-1 6:-0.805655 7:-0.989075 8:-1 9:-1 10:-1 11:-0.910647 12:-0.906594 13:-0.744586 14:-1 15:-0.875203 16:-0.718727 17:-1 18:-0.742199 19:-1 20:-1 21:-0.818132 
-0 -0 -0 -0 -0 -0 -0 -339.4011086902528 -0 -0 698.143718638718 0 0 1815.029796061736 0 0 406.2207211836678 0 0 0 0 0 0 0 0 1:-0.965772 2:-0.928438 3:-0.940001 4:-0.930492 5:-1 6:-0.885079 7:-0.921475 8:-1 9:-1 10:-1 11:-0.834472 12:-0.896391 13:-0.868255 14:-1 15:-0.800818 16:-0.899392 17:-1 18:-0.491114 19:-1 20:-1 21:-0.867917 
-0 -0 -0 -0 -0 -0 -0 -0 -0 -0 0 1006.180183308332 0 0 0 0 0 0 0 0 0 0 0 0 0 1:-0.971742 2:-0.799043 3:-0.971122 4:-0.92857 5:-1 6:-0.905539 7:-0.96859 8:-0.704128 9:-0.99812 10:-1 11:-0.88413 12:-0.902135 13:-0.927247 14:-1 15:-0.818294 16:-0.93391 17:-1 18:-0.83478 19:-1 20:-1 21:-0.881981 
-0 -0 -0 -0 -0 -0 -0 -0 -0 -0 -1471.354123735049 0 1357.230482486245 693.2481988943949 4208.526846098179 0 0 0 0 0 0 0 0 0 0 1:-0.895967 2:-0.666736 3:-0.964553 4:-0.906944 5:-1 6:-0.784922 7:-0.700239 8:-0.99656 9:-1 10:-1 11:-0.741583 12:-0.894611 13:-0.846455 14:-1 15:-0.836778 16:-0.879776 17:-1 18:-0.523145 19:-1 20:-1 21:-0.72313 
-0 -0 -0 -0 -0 -0 -0 -0 -0 -0 -0 0 0 0 32768 0 0 0 0 0 0 0 0 0 0 1:-0.796303 2:-0.76451 3:-0.869295 4:-0.849713 5:-1 6:-0.563008 7:-0.838853 8:-1 9:-0.950188 10:-1 11:-0.691603 12:-0.900712 13:-0.843775 14:-1 15:-0.831625 16:-0.902788 17:-1 18:-0.517152 19:-1 20:-1 21:-0.622291 
-0 -0 -0 -0 -0 -0 -0 -0 -0 -0 -0 0 0 0 0 0 0 0 0 0 0 0 0 13.7766148134355 0 1:-0.829262 2:-0.495319 3:-0.91414 4:-0.623364 5:-1 6:-0.624023 7:-0.804712 8:-1 9:-0.840226 10:-1 11:-0.821776 12:-0.932251 13:-0.835518 14:-1 15:-0.95855 16:-0.674297 17:-1 18:-0.426844 19:-1 20:-1 21:-0.755433 
-0 -505.3884629947558 -0 -0 -0 -140.9070144399521 -0 -0 -0 -0 -0 6.382986991863867 1880.458126262278 130.1891635215564 11474.47882921797 3872.753967442015 4.193802592155554 0 0 0 0 0 0 248.9579047132003 0 1:-0.819982 2:-0.426253 3:-0.895375 4:-0.623539 5:-1 6:-0.672461 7:-0.893479 8:-1 9:-0.735902 10:-1 11:-0.735637 12:-0.966931 13:-0.918447 14:-1 15:-0.992606 16:-0.810359 17:-1 18:-0.526348 19:-1 20:-1 21:-0.767803 
-0 -0 -0 -0 -0 -122.4523679195055 -0 -0 -0 -0 -0 0 360.196525686265 0 0 10074.77501536396 0 0 0 0 0 0 0 24.91292032112519 0 1:-0.822283 2:-0.40545 3:-0.898888 4:-0.626423 5:-1 6:-0.655237 7:-0.805394 8:-0.997706 9:-0.93891 10:-1 11:-0.737565 12:-0.962254 13:-0.961867 14:-1 15:-0.943091 16:-0.667435 17:-1 18:-0.44565 19:-1 20:-1 21:-0.74524 
-0 -0 -0 -9.641450356742279 -75.53260328831819 -0 -522.1148681515211 -47.26570964932323 -139.5323375813797 -105.3958093387157 -0 0 0 0 0 0 0 0 0 0 0 0 0 0 0 1:-0.778299 2:-0.71167 3:-0.841489 4:-0.576138 5:-1 6:-0.505548 7:-0.958348 8:-1 9:-0.996241 10:-1 11:-0.826276 12:-0.878233 13:-0.783335 14:-1 15:-0.877668 16:-0.668544 17:-1 18:-0.0798719 19:-1 20:-1 21:-0.639955 
-0 -0 -0 -0 -123.1664266026339 -0 -0 -455.1054398492978 -0 -275.731105114034 -0 0 0 0 0 0 0 0 0 0 0 0 0 0 26.7416195160721 1:-0.721588 2:-0.784897 3:-0.843732 4:-0.491645 5:-1 6:-0.542822 7:-0.961762 8:-1 9:-0.911654 10:-1 11:-0.8499 12:-0.915816 13:-0.835663 14:-1 15:-0.998096 16:-0.728223 17:-1 18:-0.356479 19:-1 20:-1 21:-0.608681 
-0 -0 -0 -0 -19.176906216261 -71.01361030533957 -4.13769178938789 -74.57821432011738 -0 -0 -1097.760202364949 0 3810.385313716345 286.0980656550681 4005.199269321464 0 0 0 0 0 0 0 0 0 0 1:-0.833199 2:-0.54275 3:-0.882712 4:-0.828262 5:-1 6:-0.714657 7:-0.851144 8:-0.461009 9:-0.990602 10:-1 11:-0.400402 12:-0.865188 13:-0.897661 14:-1 15:-0.661121 16:-0.835728 17:-1 18:-0.704794 19:-1 20:-1 21:-0.698813 
-0 -0 -0 -0 -0 -0 -0 -0 -0 -0 -0 0 3582.110459112017 0 19102.68862993795 0 0 0 0 0 0 0 0 0 0 1:-0.835125 2:-0.536093 3:-0.916601 4:-0.715066 5:-1 6:-0.651956 7:-0.761011 8:-0.977064 9:-0.949248 10:-1 11:-0.714745 12:-0.892151 13:-0.872058 14:-1 15:-0.862768 16:-0.724965 17:-1 18:-0.480161 19:-1 20:-1 21:-0.65175 
-0 -0 -0 -0 -0 -0 -0 -194.4104380708725 -0 -0 -0 0 0 0 6862.990532204701 0 0 0 0 0 0 0 0 0 0 1:-0.832399 2:-0.716663 3:-0.921256 4:-0.711527 5:-1 6:-0.750382 7:-0.963127 8:-0.995413 9:-0.955827 10:-1 11:-0.87272 12:-0.914274 13:-0.838995 14:-1 15:-0.913628 16:-0.828484 17:-1 18:-0.474478 19:-1 20:-1 21:-0.698541 
-0 -0 -0 -0 -0 -0 -35.82406797445021 -231.9231985432656 -0 -0 -0 0 0 0 0 0 0 0 0 0 0 0 0 0 0 1:-0.820285 2:-0.707094 3:-0.915113 4:-0.748837 5:-1 6:-0.642205 7:-0.931717 8:-1 9:-0.975564 10:-1 11:-0.761832 12:-0.921898 13:-0.782139 14:-1 15:-0.781101 16:-0.850075 17:-1 18:-0.571709 19:-1 20:-1 21:-0.642132 
-0 -0 -0 -0 -179.6585937603234 -0 -0 -0 -0 -0 -0 0 0 0 0 0 0 0 0 0 0 0 0 22.37140808841249 576.5836685048478 1:-0.860823 2:-0.784481 3:-0.92849 4:-0.682387 5:-1 6:-0.747329 7:-0.876408 8:-1 9:-0.946429 10:-1 11:-0.869024 12:-0.917477 13:-0.909973 14:-1 15:-0.860864 16:-0.704656 17:-1 18:-0.359268 19:-1 20:-1 21:-0.728605 
-0 -0 -0 -5.188886633939741 -0 -0 -0 -0 -0 -0 -0 0 0 0 1250.749418863499 2545.152388566298 0 0 0 0 0 0 0 0 0 1:-0.801242 2:-0.409611 3:-0.906449 4:-0.759104 5:-1 6:-0.549201 7:-0.642199 8:-0.836009 9:-0.722744 10:-1 11:-0.482684 12:-0.901767 13:-0.829326 14:-1 15:-0.766314 16:-0.874439 17:-1 18:-0.567886 19:-1 20:-1 21:-0.573021 
-0 -0 -0 -0 -11.888941724287 -94.98489332223787 -0 -211.6962064775458 -0 -0 -720.8518122484343 56.65645953006504 0 0 4243.260947179586 0 0 0 0.6815465528927321 0 0.3520968171633655 3.163370539234146 1.898229424641968 0 0 1:-0.818908 2:-0.575203 3:-0.927696 4:-0.805762 5:-1 6:-0.68759 7:-0.481052 8:-1 9:-0.158835 10:-1 11:-0.732583 12:-0.932807 13:-0.776997 14:-1 15:-0.944435 16:-0.83552 17:-1 18:-0.56365 19:-1 20:-1 21:-0.750775 
-1308.032479920283 -1018.964343505207 -430.7631096437311 -0 -0 -0 -246.7110592191079 -1536.113970816211 -0 -169.8837066160519 -0 319.5426866303962 3405.637107051843 345.5290328454433 20905.46876545157 3103.454155507155 80.85428852891009 85.77709316403276 98.43687632292875 112.0734413787115 94.82095451146481 100.9615091398965 99.16726994873279 0 0 1:-0.849373 2:-0.934263 3:-0.920908 4:-0.746172 5:-1 6:-0.670411 7:-0.953568 8:-1 9:-1 10:-1 11:-0.888951 12:-0.944895 13:-0.886579 14:-1 15:-0.896712 16:-0.848204 17:-1 18:-0.687229 19:-1 20:-1 21:-0.753285 
-0 -0 -0 -0 -0 -0 -0 -22.69287317706666 -0 -0 -0 0 0 0 0 9541.282490402717 0 0 0 0 0 0 0 0 0 1:-0.830957 2:-0.804868 3:-0.884459 4:-0.817165 5:-1 6:-0.595361 7:-0.934449 8:-0.994266 9:-0.99718 10:-1 11:-0.586179 12:-0.909391 13:-0.852973 14:-1 15:-0.769899 16:-0.927117 17:-1 18:-0.610663 19:-1 20:-1 21:-0.753376 
-0 -0 -0 -0 -14.31538108286708 -0 -0 -0 -0 -0 -0 0 0 0 0 0 0 0 0 0 0 0 0 410.8046944902195 409.669048509459 1:-0.845356 2:-0.35802 3:-0.93239 4:-0.597064 5:-1 6:-0.625345 7:-0.809491 8:-0.997706 9:-0.664474 10:-1 11:-0.749618 12:-0.964277 13:-0.929673 14:-1 15:-0.901305 16:-0.644769 17:-1 18:-0.219467 19:-1 20:-1 21:-0.68496 
-749.7842611226982 -0 -0 -0 -0 -0 -0 -0 -0 -0 -0 0 3529.890688724829 0 0 20723.5890794281 0 0 0 0 0 0 0 0 0 1:-0.860506 2:-0.727897 3:-0.935833 4:-0.70362 5:-1 6:-0.541911 7:-0.897576 8:-1 9:-0.974624 10:-1 11:-0.836561 12:-0.964908 13:-0.872384 14:-1 15:-0.927631 16:-0.847199 17:-1 18:-0.44751 19:-1 20:-1 21:-0.680333 
-0 -49.6984105409616 -0 -0 -0 -0 -0 -0 -0 -0 -0 197.0077610227228 0 0 0 10396.99901017629 0 75.3002885459681 62.59275746644424 78.36363147161951 59.58853122891817 59.61250166695732 86.5231061627284 0 0 1:-0.899954 2:-0.807364 3:-0.956475 4:-0.901177 5:-1 6:-0.784102 7:-0.855241 8:-0.934633 9:-0.988722 10:-1 11:-0.741422 12:-0.959194 13:-0.947056 14:-1 15:-0.823895 16:-0.923097 17:-1 18:-0.540091 19:-1 20:-1 21:-0.752953 
-0 -0 -0 -0 -0 -0 -3.797753595614195 -0 -0 -0 -0 0 839.9545139529284 0 3503.138968091833 0 0 0 0 0 0 0 0 64.61534091596413 0 1:-0.850966 2:-0.697941 3:-0.927041 4:-0.687848 5:-1 6:-0.586977 7:-0.970638 8:-0.739679 9:-0.915414 10:-1 11:-0.877702 12:-0.959813 13:-0.89556 14:-1 15:-0.815605 16:-0.708364 17:-1 18:-0.552284 19:-1 20:-1 21:-0.574745 
-679.2102665944363 -224.7392639128733 -0 -0 -0 -0 -0 -0 -0 -0 -483.7785950691999 314.3143054480546 801.71297150915 0 32768 29555.26437658734 264.895917782498 0 0 0 0 0 0 0 268.7363543994609 1:-0.924347 2:-0.893073 3:-0.990682 4:-0.846917 5:-1 6:-0.717254 7:-0.880505 8:-1 9:-0.904135 10:-1 11:-0.845239 12:-0.997459 13:-0.970196 14:-1 15:-0.950709 16:-0.753418 17:-1 18:-0.500207 19:-1 20:-1 21:-0.753316 
-0 -0 -0 -0 -0 -0 -0 -0 -0 -0 -0 0 0 0 0 19757.88191587335 0 0 0 0 0 0 0 0 0 1:-0.816759 2:-0.633867 3:-0.890204 4:-0.884925 5:-1 6:-0.64462 7:-0.735746 8:-0.863532 9:-0.976504 10:-1 11:-0.605625 12:-0.88043 13:-0.889223 14:-1 15:-0.684535 16:-0.963541 17:-1 18:-0.532341 19:-1 20:-1 21:-0.533066 
-0 -0 -0 -0 -0 -0 -0 -0 -0 -0 -1097.129375666108 0 0 127.6154343225875 16269.39413731423 0 0 0 0 0 0 0 0 -0 0 1:-0.829205 2:-0.762014 3:-0.89598 4:-0.881824 5:-1 6:-0.671094 7:-0.941277 8:-1 9:-0.87594 10:-1 11:-0.869184 12:-0.914062 13:-0.921199 14:-1 15:-0.706044 16:-0.909477 17:-1 18:-0.601261 19:-1 20:-1 21:-0.62589 
-0 -0 -0 -0 -0 -0 -0 -0 -0 -13.79337992767713 -0 -0 0 0 0 0 0 0 0 0 0 0 0 0 68.81181876703828 1:-0.961806 2:-0.912211 3:-0.984608 4:-0.864348 5:-1 6:-0.965642 7:-0.982929 8:-1 9:-0.928571 10:-1 11:-0.975412 12:-0.983778 13:-0.809915 14:-1 15:-0.999776 16:-0.746521 17:-1 18:-0.867328 19:-1 20:-1 21:-0.946344 
-0 -0 -0 -0 -0 -0 -0 -139.9857003440483 -0 -0 -0 -0 0 0 0 0 0 0 0 0 0 0 0 0 0 1:-0.947753 2:-0.867693 3:-0.969753 4:-0.888202 5:-1 6:-0.938757 7:-0.999317 8:-1 9:-0.862782 10:-1 11:-0.855685 12:-0.959557 13:-0.797458 14:-1 15:-0.993615 16:-0.869344 17:-1 18:-0.855755 19:-1 20:-1 21:-0.931766 
-0 -0 -0 -0 -0 -0 -0 -0 -0 -0 -0 -0 0 0 0 0 4452.916066062897 0 0 0 0 0 0 74.12237659576415 0 1:-0.957876 2:-0.860204 3:-0.986434 4:-0.852203 5:-1 6:-0.955845 7:-0.939228 8:-1 9:-0.981203 10:-1 11:-0.920129 12:-0.992613 13:-0.929166 14:-1 15:-0.967849 16:-0.680431 17:-1 18:-0.868155 19:-1 20:-1 21:-0.95817 
-0 -0 -0 -0 -0 -0 -70.34342778807512 -123.4510762697917 -0 -82.00245231785898 -0 -0 0 172.5035594614288 0 0 0 0 0 0 0 0 247.5851431664229 0 0 1:-0.969355 2:-0.959226 3:-0.996844 4:-0.787981 5:-1 6:-0.874416 7:-1 8:-1 9:-1 10:-1 11:-0.96593 12:-1 13:-0.95314 14:-1 15:-0.998208 16:-0.773727 17:-1 18:-0.750052 19:-1 20:-1 21:-0.920544 
-264.257304281153 -0 -612.9203292717368 -0 -0 -0 -0 -0 -0 -0 -0 -0 0 0 0 0 73.25535220263416 744.2476513812475 962.6728905070926 743.9512647649399 1335.091256388783 1213.442572550705 564.3033065859643 0 0 1:-0.958915 2:-0.761182 3:-0.979071 4:-0.896066 5:-1 6:-0.83418 7:-0.908501 8:-1 9:-0.977444 10:-1 11:-0.875613 12:-0.985083 13:-0.934091 14:-1 15:-0.934689 16:-0.921191 17:-1 18:-0.837466 19:-1 20:-1 21:-0.857754 
-1235.268975429823 -231.6170101376417 -0 -0 -0 -0 -0 -55.62841190830666 -6.789985339193839 -0 -0 -325.055593397101 25.131645706523 0 199.5307460703745 276.6323671783391 0 0 0 0 0 0 0 0 0 1:-0.942943 2:-0.852715 3:-0.989392 4:-0.85548 5:-1 6:-0.709371 7:-1 8:-1 9:-0.662594 10:-1 11:-0.874809 12:-1 13:-0.9933 14:-1 15:-0.978939 16:-0.944272 17:-1 18:-0.606117 19:-1 20:-1 21:-0.811841 
-512.5096122370687 -583.7685756208552 -109.6495995695194 -0 -0 -117.7001252647305 -0 -0 -0 -0 -924.8613734595026 -0 61.44427015586874 0 6.56679843100462 0 0 193.9380625390381 82.83914920505411 354.4252300572784 0 234.0085409549229 399.8057447096976 0 0 1:-0.909083 2:-0.482005 3:-0.976094 4:-0.838791 5:-1 6:-0.79882 7:-0.956299 8:-1 9:-0.820489 10:-1 11:-0.788509 12:-0.99636 13:-0.983197 14:-1 15:-0.99888 16:-0.905249 17:-1 18:-0.658297 19:-1 20:-1 21:-0.883191 
-85.02469627564999 -0 -0 -0 -0 -0 -25.96014711346203 -141.2438047286552 -0 -5.999864766479402 -0 -157.867560260921 0 166.5531343094744 93.45897957972414 3.789698247338162 416.9764991733529 0 0 0 0 0 0 0 681.6102579770475 1:-0.961323 2:-0.93343 3:-0.99474 4:-0.796238 5:-0.739011 6:-0.830854 7:-0.918744 8:-1 9:-1 10:-1 11:-0.934592 12:-0.999806 13:-0.954914 14:-1 15:-0.997872 16:-0.775425 17:-1 18:-0.590411 19:-1 20:-1 21:-0.870004 
-0 -0 -0 -0 -6.666523100143245 -0 -0 -0 -0 -6.963165566531103 -0 -0 0 0 0 0 0 0 0 0 0 0 0 75.04514855965553 606.0372152810953 1:-0.962628 2:-0.906803 3:-0.999027 4:-0.758579 5:-0.708791 6:-0.907088 7:-0.996586 8:-1 9:-0.881579 10:-1 11:-0.933146 12:-1 13:-0.997356 14:-1 15:-0.997199 16:-0.598226 17:-1 18:-0.651684 19:-1 20:-1 21:-0.936423 
-0 -0 -0 -0 -0 -3.942215458010356 -0 -0 -16.24046442918722 -0 -0 -0 0 0 0 0 0 0 0 0 0 0 0 0 0 1:-0.950702 2:-0.688371 3:-0.994413 4:-0.868848 5:-1 6:-0.816227 7:-0.880505 8:-1 9:-0.743421 10:-1 11:-0.668301 12:-0.999563 13:-0.985334 14:-1 15:-0.976699 16:-0.780693 17:-1 18:-0.661087 19:-1 20:-1 21:-0.852189 
-169.0931940100812 -392.1015700396331 -0 -0 -0 -0 -0 -0 -0 -0 -0 -0 0 0 0 0 0 0 0 0 0 0 0 0 168.3381172092862 1:-0.957054 2:-1 3:-0.991059 4:-0.850106 5:-1 6:-0.884942 7:-1 8:-1 9:-1 10:-1 11:-1 12:-0.992251 13:-0.936156 14:-1 15:-0.968297 16:-0.709127 17:-1 18:-0.855755 19:-1 20:-1 21:-0.922994 
-0 -0 -0 -0 -91.18422895166465 -0 -0 -0 -0 -0 -0 -0 0 0 0 0 0 0 0 0 0 0 0 255.2159996534604 0 1:-0.934716 2:-0.799875 3:-0.992736 4:-0.870421 5:-1 6:-0.845618 7:-0.901673 8:-0.888761 9:-0.955827 10:-1 11:-0.85456 12:-0.996322 13:-0.97925 14:-1 15:-0.988573 16:-0.646052 17:-1 18:-0.695392 19:-1 20:-1 21:-0.87938 
-0 -0 -13.79387278043477 -0 -0 -0 -0 -0 -0 -0 -0 -0 0 0 0 0 3883.66810739441 1218.06781883726 1334.383297125502 534.3094525789312 640.2477603520148 707.270077363058 1656.823407697999 0 0 1:-0.947183 2:-0.966715 3:-0.963034 4:-0.97204 5:-1 6:-0.952974 7:-0.976784 8:-1 9:-0.894737 10:-1 11:-0.954198 12:-0.936822 13:-0.923481 14:-1 15:-0.93973 16:-0.952416 17:-1 18:-0.987911 19:-1 20:-1 21:-0.970057 
-0 -0 -0 -10.58204485763814 -50.44154885588337 -49.6939918585718 -30.22442782083421 -0 -0 -10.95441913432046 -3637.060951400176 -0 0 973.8366089996293 0 0 0 0 0 0 0 0 0 62.41432573110583 56.7803900859488 1:-0.907266 2:-0.574371 3:-0.950997 4:-0.866096 5:-1 6:-0.900071 7:-0.954933 8:-1 9:-0.81109 10:-1 11:-0.75235 12:-0.91473 13:-0.887014 14:-1 15:-0.932448 16:-0.746591 17:-1 18:-0.750155 19:-1 20:-1 21:-0.912499 
-240.7361407786451 -169.8038787896718 -157.3804935547147 -0 -2.630920833319188 -0 -51.18327197207832 -138.6083295697719 -0 -0 -5962.248980303167 -0 2.719381537356016 557.0754306506871 0 0 2754.782165483881 0 0 0 0 0 0 0 0 1:-0.915767 2:-0.940087 3:-0.952942 4:-0.967977 5:-1 6:-0.782461 7:-0.991806 8:-0.866972 9:-1 10:-1 11:-0.950181 12:-0.91812 13:-0.932389 14:-1 15:-0.734162 16:-0.960769 17:-1 18:-0.939657 19:-1 20:-1 21:-0.79079 
-0 -0 -0 -0 -0 -0 -0 -0 -2.832600486430028 -0 -0 -410.9810459650805 214.0864489861231 605.5125555052725 254.9561174007492 402.8722180354694 987.3636312909232 0 0 0 0 0 0 0 0 1:-0.92483 2:-0.798627 3:-0.981572 4:-0.894493 5:-1 6:-0.80046 7:-0.861386 8:-1 9:-1 10:-1 11:-0.757493 12:-0.96813 13:-0.939016 14:-1 15:-0.919677 16:-0.799165 17:-1 18:-0.78446 19:-1 20:-1 21:-0.806881 
-0 -0 -0 -0 -49.37751027271432 -0 -60.60326599065041 -254.5480748811273 -23.88891667303453 -29.67893402543 -0 -1093.262609571416 -0 0 0 1210.107894633447 0 0 0 0 0 0 0 0 0 1:-0.860188 2:-0.704597 3:-0.885768 4:-0.728085 5:-1 6:-0.659885 7:-0.944691 8:-0.834862 9:-0.884398 10:-1 11:-0.4499 12:-0.905488 13:-0.851452 14:-1 15:-0.950821 16:-0.76787 17:-1 18:-0.473962 19:-1 20:-1 21:-0.648363 
-246.1135233374883 -462.3485908212407 -67.63544286161402 -0 -115.875477875303 -89.76785331394512 -100.565239278234 -170.0791065571062 -0 -76.34520888780334 -1092.149000756376 -13713.87068638287 -164.8362203866353 1054.62186602598 3505.719508720312 4264.816626364092 116.7217255727325 58.422065642759 73.3187915592964 42.21304046413665 48.90067156985965 65.7878277280019 45.06319468681441 222.7371432614918 208.186626301916 1:-0.869194 2:-0.624714 3:-0.918646 4:-0.715809 5:-1 6:-0.66672 7:-0.849095 8:-0.844037 9:-0.995301 10:-1 11:-0.748975 12:-0.9127 13:-0.890273 14:-1 15:-0.892567 16:-0.777019 17:-1 18:-0.56334 19:-1 20:-1 21:-0.745512 
-0 -0 -0 -0 -0 -0 -0 -0 -0 -0 -535.9855172471571 -0 -13.61501205813243 819.2316379781553 0 0 0 54.37983827660048 31.6969870641144 40.32930105951393 39.85358691991821 51.34270491976634 14.19011683221763 0 0 1:-0.86499 2:-0.781569 3:-0.941043 4:-0.953691 5:-1 6:-0.677064 7:-0.653807 8:-0.990826 9:-0.99718 10:-1 11:-0.561912 12:-0.91162 13:-0.9539 14:-1 15:-0.654512 16:-0.988667 17:-1 18:-0.898533 19:-1 20:-1 21:-0.539418 
-0.9180251133633192 -0 -0 -0 -0 -0 -0 -24.25522599007035 -0 -0 -0 -685.9995394563275 -0 0 0 0 0 0 0 0 0 0 0 0 0 1:-0.840266 2:-0.773247 3:-0.931199 4:-0.91223 5:-1 6:-0.617872 7:-0.77057 8:-0.961009 9:-0.910714 10:-1 11:-0.764564 12:-0.927511 13:-0.927935 14:-1 15:-0.79264 16:-0.9389 17:-1 18:-0.706551 19:-1 20:-1 21:-0.578647 
-401.0147867866149 -200.702085567954 -215.8859207548191 -0 -0 -0 -0 -162.3707348075571 -0 -0 -0 -678.7255229579514 -124.9305139411032 22.53148179459228 2253.46362093375 7116.931833686335 36.23325821308241 25.85761750680362 25.4720669993844 83.92896454269373 49.03691105742458 18.02706420048507 81.94344901145996 0 0 1:-0.840266 2:-0.773247 3:-0.931199 4:-0.91223 5:-1 6:-0.617872 7:-0.77057 8:-0.961009 9:-0.910714 10:-1 11:-0.764564 12:-0.927511 13:-0.927935 14:-1 15:-0.79264 16:-0.9389 17:-1 18:-0.706551 19:-1 20:-1 21:-0.578647 
-0 -0 -0 -13.02676736650812 -73.44192525278427 -35.48177026022536 -130.7467325936182 -112.6523616379293 -34.25015109926243 -101.6602982672809 -0 -0 -0 0 0 0 0 0 0 0 0 0 0 0 0 1:-0.774708 2:-0.594342 3:-0.908265 4:-0.827388 5:-1 6:-0.564785 7:-0.849778 8:-1 9:-0.93797 10:-1 11:-0.629892 12:-0.867836 13:-0.80604 14:-1 15:-0.734722 16:-0.858185 17:-1 18:-0.763588 19:-1 20:-1 21:-0.559138 
-0 -0 -0 -0 -0 -0 -0 -0 -0 -0 -0 -3395.717830133352 -0 0 506.653663177692 11525.14457503911 0 0 0 0 0 0 0 0 0 1:-0.885367 2:-0.70543 3:-0.922913 4:-0.842592 5:-1 6:-0.600556 7:-0.922158 8:-1 9:-0.839286 10:-1 11:-0.670711 12:-0.948223 13:-0.903455 14:-1 15:-0.791184 16:-0.892876 17:-1 18:-0.613763 19:-1 20:-1 21:-0.559864 
-0 -0 -116.2971205159855 -0 -0 -0 -85.23559124758405 -75.24502067333658 -0 -0 -4612.123084143539 -0 -0 -0 0 0 67.75708274072743 0 0 0 5.98189884076727 0 0 0 0 1:-0.915039 2:-0.967547 3:-0.872947 4:-0.974617 5:-1 6:-0.830352 7:-1 8:-1 9:-1 10:-1 11:-0.9137 12:-0.776777 13:-0.956508 14:-1 15:-0.791296 16:-0.992999 17:-1 18:-0.911759 19:-1 20:-1 21:-0.882526 
-63.93067706464112 -34.40322556297762 -52.44120139839542 -0 -0 -0 -0 -35.11011593671982 -0 -0 -203.231254523337 -0 -684.8382041706476 -0 0 0 190.8252881038576 343.8213546234531 236.1423945094567 246.2884291421374 204.0800560192441 250.1087347564125 263.0527350037092 0 0 1:-0.922523 2:-0.828999 3:-0.891961 4:-0.950851 5:-1 6:-0.864209 7:-0.940594 8:-0.99656 9:-0.864662 10:-1 11:-0.793973 12:-0.795891 13:-0.927899 14:-1 15:-0.884725 16:-0.989326 17:-1 18:-0.876627 19:-1 20:-1 21:-0.914798 
-253.674334978843 -465.3881356292281 -112.2276081419769 -0 -74.18620019665116 -0 -157.1768994381945 -446.4773204010898 -0 -98.42260739132112 -4433.569865996255 -622.0772866792829 -1561.671232054414 -444.0364487796398 428.9691948273302 147.6222953767833 1224.613097574915 77.27463456929432 133.15133212717 117.9194133431343 85.23956665014335 135.036065956211 129.6174445399557 224.4823010002647 359.0123288658093 1:-0.943109 2:-0.779488 3:-0.918259 4:-0.792088 5:-1 6:-0.861885 7:-0.982247 8:-1 9:-1 10:-1 11:-0.859703 12:-0.915891 13:-0.91106 14:-1 15:-0.879236 16:-0.774073 17:-1 18:-0.708101 19:-1 20:-1 21:-0.862412 
-0 -0 -0 -11.90876894813051 -115.4346491207778 -140.021416636622 -0 -0 -33.62482952247653 -61.3634931765743 -48.38144006117376 -0 -99.99767021466192 -11.56424117123663 0 104.3895214278666 0 0 0 0 0 0 0 27.03902601570511 0 1:-0.874018 2:-0.554816 3:-0.87907 4:-0.774438 5:-1 6:-0.690597 7:-0.679071 8:-0.869266 9:-0.758459 10:-1 11:-0.437686 12:-0.851364 13:-0.84153 14:-1 15:-0.763401 16:-0.736436 17:-1 18:-0.77454 19:-1 20:-1 21:-0.74642 
-0 -0 -0 -0 -0 -0 -0 -125.7634695048149 -8.580225339277879 -0 -705.9735790188018 -530.1049968806088 -0 -955.5856753155399 243.9954161544472 415.6403032448161 0 0 0 0 0 0 0 0 0 1:-0.866101 2:-0.714999 3:-0.872034 4:-0.890299 5:-1 6:-0.704176 7:-0.60874 8:-0.908257 9:-0.901316 10:-1 11:-0.608678 12:-0.87177 13:-0.960346 14:-1 15:-0.770571 16:-0.964096 17:-1 18:-0.712544 19:-1 20:-1 21:-0.649149 
-86.95888708305925 -67.83268653261898 -3.253655782494297 -0 -0 -0 -0 -0 -0 -0 -0 -0 -61.48115559260908 -0 0 0 78.76461013870563 37.93529349555128 43.29936964208535 40.63784601488052 88.59287683774276 45.75899136193586 65.77931900491042 0 0 1:-0.928277 2:-0.480341 3:-0.908752 4:-0.951506 5:-1 6:-0.769566 7:-0.193581 8:-1 9:-1 10:-1 11:-0.694817 12:-0.911133 13:-0.95046 14:-1 15:-0.808099 16:-0.954912 17:-1 18:-0.858442 19:-1 20:-1 21:-0.748658 
-147.9451837378199 -18.07217791567905 -61.98468202076852 -0.7851662067956904 -0 -71.2293849447515 -0 -0 -0 -0 -1375.232883940886 -430.4976116791585 -67.49302689415975 -485.1986205323118 255.9488131323811 611.9844150039228 0 0 0 4.332956601691102 0 0 0 0 0 1:-0.902665 2:-0.408779 3:-0.918388 4:-0.857271 5:-1 6:-0.678431 7:-0.791738 8:-0.892202 9:-1 10:-1 11:-0.657212 12:-0.934074 13:-0.898747 14:-1 15:-0.762729 16:-0.910413 17:-1 18:-0.678756 19:-1 20:-1 21:-0.681361 
-0 -0 -0 -12.19945598323498 -173.6297247133734 -29.76769481841583 -172.0547173083103 -1050.933607441011 -55.14388853129065 -92.82519394437898 -372.717113071182 -9122.764071478485 -0 -0 -0 2339.720763344149 0 0 0 0 0 0 0 97.98717529205824 125.2343619230492 1:-0.828628 2:-0.685459 3:-0.893638 4:-0.593875 5:-1 6:-0.630311 7:-0.848412 8:-0.993119 9:-0.644737 10:-1 11:-0.628124 12:-0.879044 13:-0.841023 14:-1 15:-0.866241 16:-0.642447 17:-1 18:-0.491011 19:-1 20:-1 21:-0.694548 
-0 -0 -0 -0 -0 -0 -292.255810841246 -494.0737548534078 -18.26034018345612 -125.0173434432886 -0 -0 -0 -0 -0 0 0 0 0 0 0 0 0 0 0 1:-0.797875 2:-0.89973 3:-0.863202 4:-0.815024 5:-1 6:-0.603336 7:-0.939228 8:-1 9:-0.948308 10:-1 11:-0.834472 12:-0.901205 13:-0.860578 14:-1 15:-0.802498 16:-0.837044 17:-1 18:-0.44255 19:-1 20:-1 21:-0.481769 
-0 -0 -0 -0 -0 -0 -0 -0 -0 -0 -0 -0 -0 -0 -0 2383.620267336472 0 0 0 0 0 0 0 0 0 1:-0.846553 2:-0.754109 3:-0.901716 4:-0.839097 5:-1 6:-0.544371 7:-0.868897 8:-0.931193 9:-0.676692 10:-1 11:-0.857131 12:-0.9194 13:-0.917107 14:-1 15:-0.834314 16:-0.951446 17:-1 18:-0.61211 19:-1 20:-1 21:-0.538087 
-6.50374062764526 -445.2845398495301 -24.0566734220598 -0 -0 -119.3988619409275 -0 -288.1071592192006 -0 -25.78134427773245 -550.0197619884825 -23226.94151348124 -68.37797508241276 -1237.1085814851 -482.1450319606188 0 28.70148361569978 43.71720250617056 67.70429642089546 21.29323031267042 46.63424894635635 50.88199039245834 22.34646282276159 0 0 1:-0.791746 2:-0.550239 3:-0.850152 4:-0.764521 5:-1 6:-0.615411 7:-0.741209 8:-0.84289 9:-0.916353 10:-1 11:-0.78867 12:-0.895772 13:-0.847034 14:-1 15:-0.877668 16:-0.812196 17:-1 18:-0.722877 19:-1 20:-1 21:-0.714722 
-516.4185297097999 -0 -222.7249530025564 -0 -0 -0 -99.56052184081346 -259.7816662913089 -0 -22.08268699760545 -0 -23071.96178338825 -23.64836100919552 -1634.85506198241 -0 4118.230907137048 0 1.973851822220707 0 55.69830743927488 27.26722809455016 0 16.59266016289423 0 0 1:-0.833913 2:-0.761182 3:-0.863738 4:-0.846524 5:-1 6:-0.499989 7:-0.78013 8:-1 9:-1 10:-1 11:-0.806187 12:-0.879719 13:-0.864091 14:-1 15:-0.799249 16:-0.966972 17:-1 18:-0.7857 19:-1 20:-1 21:-0.659584 
-643.8540434015838 -283.1507725751808 -0 -0 -0 -0 -0 -0 -0 -0 -204.4864542153085 -26712.34962998064 -263.654631006541 -316.6333089256471 -0 4986.029988121615 162.0456099707974 0 0 0 0 0 0 130.6041850524276 518.0144929665556 1:-0.897229 2:-0.854795 3:-0.97273 4:-0.824068 5:-1 6:-0.783691 7:-0.879822 8:-1 9:-0.888158 10:-1 11:-0.831579 12:-0.979775 13:-0.95419 14:-1 15:-0.943875 16:-0.782876 17:-1 18:-0.423951 19:-1 20:-1 21:-0.716174 
-0 -0 -0 -0 -0 -0 -0 -0 -0 -0 -258.6465510638616 -4391.605810852427 -0 -145.9284555847978 -1.487819445547799 0 0 0 0 0 6.895099792978934 0.174283109028776 0 0 0 1:-0.893883 2:-0.848138 3:-0.954718 4:-0.892527 5:-1 6:-0.751794 7:-0.997269 8:-1 9:-1 10:-1 11:-0.923986 12:-0.947636 13:-0.946947 14:-1 15:-0.795441 16:-0.949055 17:-1 18:-0.60684 19:-1 20:-1 21:-0.674132 
-0 -147.7256492916108 -157.3743943294576 -0 -0 -0 -0 -0 -0 -0 -720.5695430598203 -26135.04671951748 -198.8316743837032 -927.4738410844797 -396.9500985994653 5406.23205876764 70.11204961630797 120.1187581872207 91.06447237181594 116.3864143608536 76.70833256201082 118.1096021111449 141.973869755743 0 0 1:-0.893883 2:-0.848138 3:-0.954718 4:-0.892527 5:-1 6:-0.751794 7:-0.997269 8:-1 9:-1 10:-1 11:-0.923986 12:-0.947636 13:-0.946947 14:-1 15:-0.795441 16:-0.949055 17:-1 18:-0.60684 19:-1 20:-1 21:-0.674132 
-0 -0 -0 -1.141659580704787 -9.293958748182833 -33.90531060910881 -0 -0 -0 -0 -0 -0 -0 -995.2502271088857 -0 95.7258888313128 0 0 0 0 0 0 0 77.3939642146717 12.34955852020007 1:-0.794263 2:-0.525692 3:-0.888636 4:-0.711702 5:-1 6:-0.659156 7:-0.855241 8:-0.576835 9:-0.847744 10:-1 11:-0.694496 12:-0.910646 13:-0.881908 14:-1 15:-0.950933 16:-0.754596 17:-1 18:-0.459806 19:-1 20:-1 21:-0.688045 
-7.090533616911766 -62.01703215846475 -0 -0 -187.440930179536 -0 -0 -283.3233521012304 -0 -0 -0 -31979.93260095429 -0 -716.9336581986519 -0 7966.602261993191 0 0 0 0 0 0 0 0 0 1:-0.815123 2:-0.704597 3:-0.937104 4:-0.751414 5:-1 6:-0.640792 7:-0.887334 8:-1 9:-0.925752 10:-1 11:-0.731137 12:-0.940506 13:-0.874919 14:-1 15:-0.921582 16:-0.732867 17:-1 18:-0.430358 19:-1 20:-1 21:-0.659705 
-0 -0 -0 -0 -0 -25.35579977765004 -0 -0 -0.5382800561285013 -0 -0 -12721.29421402811 -0 -291.6536584617808 -48.33047410852656 0 0 0 0 0 0 0 0 0 0 1:-0.836725 2:-0.694196 3:-0.956485 4:-0.745385 5:-1 6:-0.650817 7:-0.82861 8:-1 9:-0.617481 10:-1 11:-0.476416 12:-0.94921 13:-0.870138 14:-1 15:-0.919453 16:-0.729713 17:-1 18:-0.265241 19:-1 20:-1 21:-0.728484 
-290.8424485450813 -196.5019007214535 -105.0221220610091 -0 -0 -0 -0 -449.5639932937265 -0 -26.71200732949909 -1006.068759549553 -0 -455.7547816326701 -3133.137445186092 -0 -4062.681538355728 182.9374573393031 84.60206785610657 81.83583874910531 96.86265742610823 58.8702146874862 83.43403426179913 90.24993387495911 0 0 1:-0.908354 2:-0.951737 3:-0.967927 4:-0.791171 5:-1 6:-0.718257 7:-1 8:-1 9:-0.87688 10:-1 11:-0.834311 12:-0.979244 13:-0.865141 14:-1 15:-0.978491 16:-0.778579 17:-1 18:-0.65995 19:-1 20:-1 21:-0.634208 
-821.9719676816763 -212.4997670416629 -96.43075306231137 -0 -0 -0 -0 -45.97863913980579 -0 -41.12541992673906 -0 -20731.87370518852 -0 -3057.856852678613 -211.0194520327077 -0 0 0 0 0 0 0 0 0 0 1:-0.886341 2:-0.83524 3:-0.962379 4:-0.76439 5:-1 6:-0.628306 7:-0.793103 8:-1 9:-1 10:-1 11:-0.809723 12:-0.968692 13:-0.86945 14:-1 15:-0.878564 16:-0.857734 17:-1 18:-0.569952 19:-1 20:-1 21:-0.681391 
-0 -0 -0 -0 -0 -0 -0 -0 -0 -0 -0 -0 -0 -0 -310.4113146377964 -0 0 0 0 0 0 0 0 0 0 1:-0.845508 2:-0.675057 3:-0.937511 4:-0.846043 5:-1 6:-0.687088 7:-0.766473 8:-0.831422 9:-0.93515 10:-1 11:-0.6728 12:-0.903902 13:-0.956218 14:-1 15:-0.691704 16:-0.917587 17:-1 18:-0.567989 19:-1 20:-1 21:-0.609497 
-0 -0 -0 -0 -0 -0 -0 -0 -46.45013082423512 -0 -0 -0 -0 -8433.049011705549 -0 -0 0 0 0 0 0 0 0 0 0 1:-0.837482 2:-0.683794 3:-0.938612 4:-0.878241 5:-1 6:-0.618601 7:-0.785592 8:-0.889908 9:-0.855263 10:-1 11:-0.580072 12:-0.915392 13:-0.910444 14:-1 15:-0.776172 16:-0.910343 17:-1 18:-0.589481 19:-1 20:-1 21:-0.558382 
-80.70782187653265 -72.41694125669281 -0 -0 -0 -40.09695691683483 -0 -0 -0 -0 -926.8944190448901 -24551.31753141242 -192.388138935967 -800.5578116917453 -393.1943506128449 -1433.432369198612 49.21643612443494 33.06743862925829 35.99919043841555 39.9439322529055 36.59107477259246 26.67943695837184 47.22135209768109 0 0 1:-0.890054 2:-0.681298 3:-0.935278 4:-0.878896 5:-1 6:-0.694106 7:-0.821099 8:-0.853211 9:-0.934211 10:-1 11:-0.506468 12:-0.929397 13:-0.951365 14:-1 15:-0.836218 16:-0.925523 17:-1 18:-0.515912 19:-1 20:-1 21:-0.829928 
-0 -13.08798272122119 -0 -0.08385769394413906 -0 -40.32592137780108 -0 -255.987946344186 -0 -0 -0 -18533.62186332687 -0 -0 -0 -9516.62839454779 0 0 0 0 0 0 0 1.768657941491817 0 1:-0.849041 2:-0.641772 3:-0.932668 4:-0.773433 5:-1 6:-0.668315 7:-0.776716 8:-0.99656 9:-0.888158 10:-1 11:-0.79767 12:-0.913056 13:-0.936011 14:-1 15:-0.888086 16:-0.842728 17:-1 18:-0.491424 19:-1 20:-1 21:-0.656197 
-219.2430497277271 -381.9138311974525 -0 -0 -238.6261203450456 -0 -183.8339812582837 -93.46339766372591 -8.242781417422734 -114.4052872267444 -0 -32768 -0 -2190.084380358538 -0 -5383.863625541916 0.04001093373053385 0 0 0 0 0 0 238.4686015850766 596.8038114590162 1:-0.843957 2:-0.771167 3:-0.945162 4:-0.739575 5:-1 6:-0.65068 7:-0.919426 8:-1 9:-0.993421 10:-1 11:-0.870631 12:-0.977496 13:-0.952307 14:-1 15:-0.908699 16:-0.746105 17:-1 18:-0.440484 19:-1 20:-1 21:-0.648393 
-0 -0 -70.29393750360839 -0 -0 -0 -155.4916344506148 -69.52040743454651 -0 -0 -103.8462911356141 -1481.127772201612 -3.113947746679923 -1732.33922450387 -0 -3290.474208666531 0 0 0 0 0 0 10.59170252019352 0 0 1:-0.883175 2:-0.891408 3:-0.898262 4:-0.872867 5:-1 6:-0.581053 7:-0.911915 8:-0.998853 9:-0.865602 10:-1 11:-0.85006 12:-0.889653 13:-0.932317 14:-1 15:-0.626281 16:-0.903932 17:-1 18:-0.745609 19:-1 20:-1 21:-0.597248 
-0 -0 -0 -13.38796649459102 -0 -92.75873221075398 -0 -16.69727252004055 -0 -0 -921.0202297072717 -4148.946935005606 -32.03741514582956 -3298.092096863529 -365.0114177700398 -0 0 25.33377307231867 23.93258847221195 36.60309525392473 39.76267171450223 28.81486380212506 5.894324501850734 0 0 1:-0.809419 2:-0.296859 3:-0.899552 4:-0.882872 5:-1 6:-0.547515 7:-0.854558 8:-0.990826 9:-0.722744 10:-1 11:-0.664283 12:-0.892482 13:-0.879807 14:-1 15:-0.642749 16:-0.920671 17:-1 18:-0.800062 19:-1 20:-1 21:-0.576499 
-0 -0 -0 -0 -0 -0 -21.49407394478742 -102.0263848669607 -0 -0 -0 -7356.264592212197 -0 -1471.884106735046 -0 -3609.081999220853 0 0 0 0 0 0 0 0 0 1:-0.894438 2:-0.816518 3:-0.945053 4:-0.79519 5:-1 6:-0.643344 7:-0.976101 8:-1 9:-0.868421 10:-1 11:-0.678425 12:-0.956353 13:-0.836532 14:-1 15:-0.862544 16:-0.881232 17:-1 18:-0.541021 19:-1 20:-1 21:-0.632968 
-0 -0 -245.9570739287554 -0 -0 -0 -28.92191530196363 -0 -0 -31.19903162625756 -0 -0 -8989.785991873703 -0 -0 -0 -0 0 0 0 321.699722584997 0 0 0 0 1:-0.926763 2:-0.942584 3:-0.95968 4:-0.949365 5:-1 6:-0.904719 7:-0.956299 8:-1 9:-1 10:-1 11:-0.949699 12:-0.939032 13:-0.922938 14:-1 15:-0.847421 16:-0.892738 17:-1 18:-0.966522 19:-1 20:-1 21:-0.931312 
-0 -0 -102.356493651738 -0 -0 -0 -39.02616611278024 -153.4609676523116 -0 -0 -1115.422920279298 -0 -0 -0 -0 -0 -0 0 0 0 0 0 0 0 0 1:-0.919805 2:-0.929686 3:-0.947543 4:-0.96754 5:-1 6:-0.914014 7:-0.998634 8:-1 9:-0.891917 10:-1 11:-0.953716 12:-0.902404 13:-0.937821 14:-1 15:-0.823111 16:-0.994143 17:-1 18:-0.956499 19:-1 20:-1 21:-0.924295 
-125.7198757120067 -79.26764234847407 -0 -0 -0 -8.121752667142264 -0 -0 -0 -0 -169.5502747334499 -0 -881.7372954453814 -8.136304816185339 -0 -0 -0 110.420337581245 334.9818652349456 69.00144108006042 6.27987145537345 23.7655427161659 392.5562658336931 0 0 1:-0.941386 2:-0.769503 3:-0.964265 4:-0.955176 5:-1 6:-0.945957 7:-0.735746 8:-0.813073 9:-0.827068 10:-1 11:-0.832704 12:-0.921555 13:-0.945788 14:-1 15:-0.929088 16:-0.986068 17:-1 18:-0.910209 19:-1 20:-1 21:-0.965006 
-33.18225432868664 -214.4465269306227 -0 -0 -0 -0 -0 -0 -0 -0 -0 -12.37070674421608 -0 -0 -0 -0 -30.67830640159057 814.6717136196972 611.281217180808 316.298649224265 260.6747759227846 587.3639501612943 654.4013458835547 0 0 1:-0.940297 2:-0.923029 3:-0.95707 4:-0.9782 5:-1 6:-0.904719 7:-0.91055 8:-1 9:-0.882519 10:-1 11:-0.909683 12:-0.921398 13:-0.974759 14:-1 15:-0.844956 16:-0.993796 17:-1 18:-0.973342 19:-1 20:-1 21:-0.907115 
-0 -0 -0 -0 -0 -0 -0 -156.3273236402851 -0 -0 -1553.237838034247 -82.6669781374257 -0 -50.41736487052972 -1395.401524231145 -108.247643953945 -69.29528361848989 0 0 30.38680034684773 50.82203676364433 0 0 0 0 1:-0.958179 2:-0.806116 3:-0.970477 4:-0.871732 5:-1 6:-0.911326 7:-0.913964 8:-0.99656 9:-0.99906 10:-1 11:-0.87947 12:-0.965951 13:-0.917397 14:-1 15:-0.884501 16:-0.833232 17:-1 18:-0.772887 19:-1 20:-1 21:-0.922934 
-452.9404317335287 -739.4395804584032 -184.5272647425786 -9.424054007035361 -0.3066327630800795 -88.0455474071436 -0 -0.4126572566510018 -0 -3.859338602965026 -277.2927144063395 -0 -423.2514177670969 -65.84177731730315 -81.15961233524663 -15.32942430401165 -0 229.243399744889 272.3003284308344 230.0013815084251 255.5139501636017 308.0191356408911 306.4994427447226 104.1326522976311 212.8356806462429 1:-0.932387 2:-0.653006 3:-0.985581 4:-0.8055 5:-1 6:-0.928368 7:-0.883237 8:-1 9:-0.889098 10:-1 11:-0.948574 12:-0.983234 13:-0.883646 14:-1 15:-0.967737 16:-0.776673 17:-1 18:-0.72484 19:-1 20:-1 21:-0.913013 
-0 -0 -0 -0 -157.9913459319388 -0 -94.36296928895743 -172.3235449699553 -23.38962915139187 -78.03731128460788 -0 -254.9063240219218 -2274.187116521916 -28.55953678179672 -85.3989419918135 -137.2820749448486 -132.2203143773881 0 0 0 0 0 36.68108255965451 537.7403792595168 1009.588849318322 1:-0.947688 2:-0.873934 3:-0.994363 4:-0.786714 5:-1 6:-0.87633 7:-0.924206 8:-1 9:-0.896617 10:-1 11:-0.91145 12:-0.998489 13:-0.991381 14:-1 15:-0.974794 16:-0.60734 17:-1 18:-0.611387 19:-1 20:-1 21:-0.919577 
-0 -973.2927369882635 -1601.318764413611 -0 -0 -0 -0 -0 -0 -0 -0 -0 -0 -0 -0 -89.87450352099916 -37.62539812277804 -0 20693.62634313785 0 9136.017716677959 20304.79084950801 0 0 0 1:-0.964294 2:-0.707926 3:-0.998154 4:-0.964263 5:-1 6:-0.803468 7:-0.948788 8:-1 9:-0.959586 10:-1 11:-0.901165 12:-0.999594 13:-0.992287 14:-1 15:-0.986669 16:-0.968878 17:-1 18:-0.932217 19:-1 20:-1 21:-0.850042 
-0 -0 -0 -0 -0 -0 -0 -0 -0 -0 -0 -0 -0 -0 -0 -0 -0 -0 0 12014.80079640214 0 0 4534.425788702917 0 0 1:-0.978945 2:-0.557312 3:-0.998353 4:-0.984665 5:-1 6:-0.82657 7:-0.829293 8:-1 9:-1 10:-1 11:-0.787706 12:-0.998889 13:-0.988919 14:-1 15:-0.98454 16:-0.986207 17:-1 18:-0.958876 19:-1 20:-1 21:-0.893686 
-529.8413486461416 -0 -0 -1.892453746096949 -0 -13.82535219733055 -0 -0 -0 -0 -0 -0 -0 -0 -0 -0 -0 -0 0 21803.09279787544 0 32768 2401.224422919824 0 0 1:-0.979126 2:-0.611816 3:-0.99996 4:-0.966841 5:-1 6:-0.811488 7:-1 8:-1 9:-0.857143 10:-1 11:-0.88638 12:-0.999881 13:-0.995184 14:-1 15:-0.997872 16:-0.967527 17:-1 18:-0.942343 19:-1 20:-1 21:-0.873966 
-0 -0 -0 -0 -0 -0 -0 -0 -0 -0 -0 -0 -0 -0 -0 -0 -0 -0 0 0 368.3179609526044 0 32768 0 0 1:-0.978058 2:-0.776576 3:-0.999732 4:-0.968326 5:-1 6:-0.849536 7:-0.974053 8:-1 9:-0.943609 10:-1 11:-0.89329 12:-1 13:-0.997248 14:-1 15:-1 16:-0.979968 17:-1 18:-0.961046 19:-1 20:-1 21:-0.922631 
-0 -150.2134298437494 -0 -0 -0 -0 -0 -0 -0 -0 -0 -39.04729391310453 -0 -0 -160.0407411431991 -28.49131435889676 -0 -124.6268179694144 0 0 0 0 32768 0 0 1:-0.971064 2:-0.744123 3:-0.996824 4:-0.974836 5:-1 6:-0.810622 7:-0.835439 8:-1 9:-0.93891 10:-1 11:-0.878666 12:-0.998932 13:-1 14:-1 15:-0.982188 16:-0.992757 17:-1 18:-0.907419 19:-1 20:-1 21:-0.876688 
-0 -0 -0 -0 -0 -0 -18.4500653926543 -0 -0 -13.21766104290481 -0 -73.30298265270584 -0 -0 -0 -47.44399463571609 -0 -0 0 25540.82581634894 17323.14372247831 32768 32768 46.67337256115258 33.89544711867374 1:-0.973588 2:-0.703765 3:-0.998452 4:-0.9512 5:-1 6:-0.831401 7:-0.929669 8:-1 9:-0.99812 10:-1 11:-0.897147 12:-0.999238 13:-0.992178 14:-1 15:-1 16:-0.981147 17:-1 18:-0.886857 19:-1 20:-1 21:-0.890329 
-0 -0 -0 -0 -0 -0 -0 -0 -0 -0.7173415126160746 -0 -0 -448.0145954192273 -0 -171.747561857938 -0 -64.3402628682172 -371.3889601346631 3402.931794200753 0 0 0 0 0 0 1:-0.978073 2:-0.81735 3:-0.997539 4:-0.959501 5:-1 6:-0.846119 7:-0.95903 8:-1 9:-0.790414 10:-1 11:-0.810044 12:-0.999432 13:-0.995292 14:-1 15:-0.981516 16:-0.974943 17:-1 18:-0.937694 19:-1 20:-1 21:-0.902941 
-0 -0 -0 -0 -0 -0 -0 -84.96592788498089 -0 -0 -0 -0 -0 -0 -0 -0 -0 -0 28401.72760681053 0 0 0 32768 0 0 1:-0.978239 2:-0.811941 3:-0.999712 4:-0.968282 5:-1 6:-0.83213 7:-0.989075 8:-1 9:-1 10:-1 11:-0.912254 12:-1 13:-0.998226 14:-1 15:-1 16:-0.986727 17:-1 18:-0.903182 19:-1 20:-1 21:-0.892083 
-485.6113478187262 -0 -0 -0 -12.31321617204564 -0 -0 -0 -15.22292968536415 -0 -0 -0 -0 -110.2870996228761 -0 -0 -41.03761856668832 -0 21347.02490940742 32768 32768 0 32768 38.55231408155174 0 1:-0.972528 2:-0.606823 3:-0.999802 4:-0.955176 5:-1 6:-0.788476 7:-0.774667 8:-1 9:-1 10:-1 11:-0.773242 12:-1 13:-0.997791 14:-1 15:-1 16:-0.971928 17:-1 18:-0.933871 19:-1 20:-1 21:-0.853762 
-0 -0 -0 -0 -0 -0 -0 -0 -0 -0 -0 -0 -0 -0 -0 -0 -0 -0 23843.01868660052 3260.992119716891 32768 11066.84149397982 7226.152362198612 0 0 1:-0.983848 2:-0.9197 3:-1 4:-0.981738 5:-1 6:-0.78802 7:-0.97815 8:-1 9:-1 10:-1 11:-0.9137 12:-1 13:-1 14:-1 15:-1 16:-0.998891 17:-1 18:-0.985741 19:-1 20:-1 21:-0.905452 
