svm_type c_svc
kernel_type rbf
gamma 0.125
nr_class 18
total_sv 572
rho 0.260459 -1.64504 -1.21913 -0.0988335 0.226989 0.723282 0.676017 0.817535 1.72223 3.59408 5.86509 -0.045868 -0.203864 -0.0466902 0.00977458 0.764097 1.27615 2.82065 -3.83591 -0.0721049 -0.0211341 0.820742 0.761101 0.709392 0.399533 2.09088 1.93464 0 -0.0738344 -0.123122 -0.394023 1.03523 1.51678 1.62145 -0.249669 -0.281575 0.472937 0.47666 0.153343 -2.11183 1.5964 1.36346 -0.106826 -0.19251 0.0822831 -0.117442 0.343915 -0.0822063 -0.0543931 0.202356 0.695885 0.6358 0.607376 0.927656 2.56603 1.80316 -0.0805786 -0.0291745 -0.0415724 -0.144591 0.730134 1.38725 0.192144 0.823932 0.239382 -0.0953335 -0.252591 -0.0483098 0.0102779 -0.537643 -0.356105 -0.728032 -0.255287 0.377747 0.0196305 0.77675 -0.143826 -0.370854 -0.204267 0.233761 -0.278791 -0.405906 -0.282678 -0.931803 -1.10427 1.14193 0.899002 -1.04962 -1.41584 -1.0117 -0.765326 -0.908533 -0.822606 -0.818798 -1.19441 -0.933988 -0.324346 -0.995434 -2.27343 -2.64011 -5.77264 -0.351615 0.430625 -0.353766 -1.51624 -3.0111 0.30724 -0.444179 -2.35285 -3.72498 0.0753418 1.78601 -1.57067 -6.12864 -2.0717 1.8396 1.31749 1.62524 11.1094 -0.285689 0.499419 0.0460575 0.291547 5.16263 7.04821 9.852 0.405244 0.0664995 -2.19052 -1.11682 -0.0580448 1.11937 -1.1355 -0.125952 -0.905295 -0.226855 1.26438 2.68392 1.17127 -3.69715 -4.06137 1.24381 1.19672 -1.37746 0.629378 0.73405 -0.253055 2.07772 1.74709 0.693591 1.2879 1.11514 -3.65712
label 10 11 12 13 20 21 22 30 31 40 41 42 50 51 52 53 60 61
nr_sv 28 66 57 44 11 20 11 51 41 44 63 58 11 10 13 12 21 11
SV
128 128 80.22214332101598 0 0 0 0 0 0 0 0 0 1.396400314515146 0 0 0 0 1:-0.979646 2:-0.71521 3:-1 4:-0.962437 5:-1 6:-0.742457 7:-0.457014 8:-1 9:-0.994074 10:-1 11:0.262016 12:-1 13:-1 14:-1 15:-1 16:-0.974426 17:-1 18:-0.894806 19:-1 20:-1 21:-0.734986 
128 128 128 0 0 0 0 0 0 0 0 0 0 0 0 0 0 1:-0.965147 2:-0.618123 3:-1 4:-0.973972 5:-1 6:-0.653017 7:-0.447964 8:-1 9:-1 10:-1 11:-0.423256 12:-1 13:-1 14:-1 15:-1 16:-0.978127 17:-1 18:-0.929435 19:-1 20:-1 21:-0.868715 
128 128 128 0 0 0 0 0 0 0 0 0 0 0 0 0 0 1:-0.965147 2:-0.957929 3:-1 4:-0.957409 5:-1 6:-0.639009 7:-1 8:-1 9:-0.925926 10:-1 11:-0.751938 12:-1 13:-1 14:-1 15:-1 16:-0.983175 17:-1 18:-0.936622 19:-1 20:-1 21:-0.84183 
128 128 128 0 0 0 0 0 0 0 0 0 0 0 0 0 0 1:-0.9763 2:-0.834951 3:-1 4:-0.965986 5:-1 6:-0.700431 7:-1 8:-1 9:-0.917037 10:-1 11:-0.581395 12:-1 13:-1 14:-1 15:-1 16:-0.983511 17:-1 18:-0.958837 19:-1 20:-1 21:-0.913757 
128 128 128 0 0 0 0 0 0 0 0 0 0 0 0 0 0 1:-0.968772 2:-0.789644 3:-0.996856 4:-0.981071 5:-1 6:-0.761853 7:-0.837104 8:-1 9:-0.943704 10:-1 11:-0.826357 12:-1 13:-0.999676 14:-1 15:-0.985991 16:-0.998486 17:-1 18:-0.930742 19:-1 20:-1 21:-0.925628 
128 128 128 0 0 0 0 0 0 0 0 0 0 0 0 0 0 1:-0.969051 2:-0.928803 3:-0.997979 4:-0.986395 5:-1 6:-0.701509 7:-0.900452 8:-1 9:-1 10:-1 11:-0.823256 12:-1 13:-0.996759 14:-1 15:-0.977318 16:-0.998654 17:-1 18:-0.964064 19:-1 20:-1 21:-0.886173 
128 128 0 0 0 0 0 0 52.07906315675178 5.366818572964954 0 0 0 0 0 16.9198929826106 19.03849608224317 1:-0.982434 2:-0.838188 3:-1 4:-0.949719 5:-1 6:-0.786638 7:-1 8:-1 9:-0.985185 10:-1 11:-0.618605 12:-1 13:-1 14:-1 15:-1 16:-0.981997 17:-1 18:-0.834695 19:-1 20:-1 21:-0.903631 
128 128 128 0 0 0 0 0 0 0 0 0 0 0 0 0 0 1:-0.956782 2:-0.588997 3:-1 4:-0.943508 5:-1 6:-0.614224 7:-0.574661 8:-1 9:-0.902222 10:-1 11:-0.11938 12:-1 13:-1 14:-1 15:-1 16:-0.987045 17:-1 18:-0.934008 19:-1 20:-1 21:-0.814595 
128 128 128 0 0 0 0 0 0 0 128 0 0 0 0 0 0 1:-0.973233 2:-0.902913 3:-1 4:-0.965099 5:-1 6:-0.719828 7:-1 8:-1 9:-1 10:-1 11:-0.820155 12:-1 13:-1 14:-1 15:-1 16:-0.992429 17:-1 18:-0.909833 19:-1 20:-1 21:-0.77514 
128 128 128 0 0 0 0 0 0 0 0 0 0 0 0 0 0 1:-0.961522 2:-0.686084 3:-1 4:-0.968057 5:-1 6:-0.544181 7:-1 8:-1 9:-0.97037 10:-1 11:-0.696124 12:-1 13:-1 14:-1 15:-1 16:-1 17:-1 18:-0.90722 19:-1 20:-1 21:-0.868366 
128 128 128 0 0 0 0 0 0 0 128 3.533700313665322 0 0 0 0 0 1:-0.975464 2:-0.893204 3:-0.996631 4:-0.966578 5:-1 6:-0.701509 7:-1 8:-1 9:-0.943704 10:-1 11:-0.962791 12:-1 13:-0.992546 14:-1 15:-0.997999 16:-0.992092 17:-1 18:-0.919634 19:-1 20:-1 21:-0.848813 
128 128 128 0 0 0 0 0 128 0 0 0 0 0 0 0 0 1:-0.979088 2:-0.84466 3:-0.995059 4:-0.968944 5:-1 6:-0.884698 7:-1 8:-1 9:-0.928889 10:-1 11:-0.665116 12:-1 13:-0.997407 14:-1 15:-0.975984 16:-0.990746 17:-1 18:-0.903953 19:-1 20:-1 21:-0.949372 
128 128 128 0 0 0 0 0 0 0 0 0 0 0 0 0 0 1:-0.96682 2:-0.799353 3:-0.995508 4:-0.977817 5:-1 6:-0.578664 7:-1 8:-1 9:-0.961481 10:-1 11:-0.832558 12:-1 13:-0.997083 14:-1 15:-0.985324 16:-0.994784 17:-1 18:-0.905913 19:-1 20:-1 21:-0.79993 
128 128 128 0 0 0 0 0 0 0 0 0 0 0 0 15.60940807044009 0 1:-0.959571 2:-0.621359 3:-0.999102 4:-0.959775 5:-1 6:-0.712284 7:-0.638009 8:-1 9:-0.982222 10:-1 11:-0.866667 12:-1 13:-0.993518 14:-1 15:-1 16:-0.9788 17:-1 18:-0.895459 19:-1 20:-1 21:-0.925628 
128 128 128 0 0 0 0 0 0 0 0 0 0 0 0 0 0 1:-0.974069 2:-0.508091 3:-0.985401 4:-0.97486 5:-1 6:-0.741379 7:-0.040724 8:-0.928251 9:-0.875556 10:-1 11:-0.336434 12:-0.995415 13:-0.989305 14:-1 15:-0.970647 16:-0.997476 17:-1 18:-0.964717 19:-1 20:-1 21:-0.896299 
128 128 128 1.313048416993017 11.63048116976818 1.877847056493562 10.86674189339642 0 32.04000206064398 128 128 0 0 0 11.41253778139505 0 0 1:-0.965705 2:-0.951456 3:-0.968782 4:-0.95386 5:-1 6:-0.515086 7:-1 8:-1 9:-0.908148 10:-1 11:-0.717829 12:-0.99424 13:-1 14:-1 15:-0.933289 16:-0.998149 17:-1 18:-0.828161 19:-1 20:-1 21:-0.820531 
128 128 128 0 13.75664607974931 1.006516257123216 0 9.750486548856607 107.98814910969 0 128 2.567045156272276 0 0 0 19.10770900959139 14.78782213716371 1:-0.962638 2:-0.783172 3:-0.986749 4:-0.951198 5:-1 6:-0.90625 7:-0.819005 8:-0.874439 9:-0.937778 10:-1 11:-1 12:-1 13:-0.988008 14:-1 15:-1 16:-0.982165 17:-1 18:-0.90526 19:-1 20:-1 21:-0.973115 
128 128 111.8497703051485 0 0 0 0 0 51.94403610060145 0 6.896917147807256 0 0 0 0 0 26.76498468864169 1:-0.979925 2:-0.857605 3:-0.995957 4:-0.951789 5:-1 6:-0.802802 7:-1 8:-1 9:-1 10:-1 11:-0.897674 12:-1 13:-0.996759 14:-1 15:-0.992662 16:-0.985362 17:-1 18:-0.878471 19:-1 20:-1 21:-0.926327 
128 128 39.25085062513291 0 0 0 0 0 67.39960009539942 0 0 0 0 0 0 0 20.05024783479617 1:-0.984386 2:-0.838188 3:-0.989444 4:-0.962141 5:-1 6:-0.934267 7:-0.466063 8:-1 9:-0.837037 10:-1 11:-0.869767 12:-0.998942 13:-0.997083 14:-1 15:-1 16:-0.961302 17:-1 18:-0.866057 19:-1 20:-1 21:-0.946229 
128 128 128 0 0 0 0 0 0 0 0 0 0 0 0 0 0 1:-0.991356 2:-0.932039 3:-0.990567 4:-0.974268 5:-1 6:-0.821121 7:-1 8:-1 9:-0.961481 10:-1 11:-0.652713 12:-1 13:-0.991898 14:-1 15:-0.987325 16:-0.986876 17:-1 18:-0.917021 19:-1 20:-1 21:-0.912011 
128 128 0 3.329586405529214 0 0 14.62281621654992 29.96309219232874 128 128 128 9.870651917853753 0 0 0 0 17.92125706729882 1:-0.983271 2:-0.977346 3:-0.978439 4:-0.985507 5:-1 6:-0.657328 7:-1 8:-1 9:-1 10:-1 11:-0.829457 12:-0.996121 13:-0.982823 14:-1 15:-0.93529 16:-0.996803 17:-1 18:-0.828814 19:-1 20:-1 21:-0.840782 
128 128 56.93237198896554 0 5.341406680048648 0 0 0 0 24.68139105208893 71.71167847462353 0 0.5849727317188331 0 0 11.99359499150152 0 1:-0.969887 2:-0.851133 3:-0.985401 4:-0.944099 5:-1 6:-0.633621 7:-0.628959 8:-0.883408 9:-0.925926 10:-1 11:-0.491473 12:-1 13:-0.972128 14:-1 15:-0.959973 16:-0.97207 17:-1 18:-0.839268 19:-1 20:-1 21:-0.807263 
128 128 128 0 0 0.3129524502422256 10.87182542048107 0 0 0 128 3.608932461060937 5.256566261149344 14.80733664350843 4.297560637327033 26.55313798108148 0 1:-0.965426 2:-0.94822 3:-1 4:-0.937001 5:-1 6:-0.40625 7:-1 8:-1 9:-1 10:-1 11:-0.677519 12:-1 13:-1 14:-1 15:-1 16:-0.978969 17:-1 18:-0.86475 19:-1 20:-1 21:-0.77095 
128 128 0 0 0 0 0 0 0 0 0 0 0 0 0 0 0 1:-0.971002 2:-0.61165 3:-0.995733 4:-0.957705 5:-1 6:-0.618534 7:-0.420814 8:-1 9:-0.985185 10:-1 11:-0.134884 12:-1 13:-0.979582 14:-1 15:-0.989326 16:-0.993438 17:-1 18:-0.880431 19:-1 20:-1 21:-0.793645 
128 128 128 0 0 0 0 0 0 0 0 0 0 1.617726577291348 2.227551322157776 0.1719000308645703 0 1:-0.967378 2:-0.411003 3:-1 4:-0.947944 5:-1 6:-0.653017 7:-0.674208 8:-1 9:-0.700741 10:-1 11:0.00465116 12:-1 13:-1 14:-1 15:-1 16:-0.981492 17:-1 18:-0.945116 19:-1 20:-1 21:-0.848464 
128 17.33992843401327 0 1.011643459094141 0.5330412799957136 1.779992828886998 0.2604014095602298 0 0 0 0 0 2.028220802222874 0.8492216517912167 0.2136951007618448 7.165793950705627 0.1650506116645024 1:-0.950927 2:-0.139159 3:-1 4:-0.951198 5:-1 6:-0.516164 7:0.384615 8:-1 9:-0.86963 10:-1 11:0.0573643 12:-1 13:-1 14:-1 15:-1 16:-0.972239 17:-1 18:-0.901339 19:-1 20:-1 21:-0.821927 
128 128 128 0 0 0 0 0 0 0 0 0 0 0 0 0 0 1:-0.985222 2:-0.81877 3:-0.995508 4:-0.992014 5:-1 6:-0.891164 7:-0.936652 8:-0.964126 9:-1 10:-1 11:-0.894574 12:-1 13:-1 14:-1 15:-0.997332 16:-0.998486 17:-1 18:-0.982359 19:-1 20:-1 21:-0.979749 
128 128 128 0 0 0 0 0 0 0 0 0 0 0 0 0 0 1:-0.988847 2:-0.656958 3:-0.991016 4:-0.964508 5:-1 6:-0.952586 7:-0.520362 8:-1 9:-0.893333 10:-1 11:-0.454264 12:-0.997884 13:-0.996111 14:-1 15:-1 16:-0.982334 17:-1 18:-0.928781 19:-1 20:-1 21:-0.995112 
-128 128 125.3893637266715 0 0 0 0 0 0 0 0 0 0 0 0 0 0 1:-0.963195 2:-0.521036 3:-1 4:-0.929015 5:-1 6:-0.713362 7:-0.339367 8:-1 9:-1 10:-1 11:-0.522481 12:-1 13:-1 14:-1 15:-1 16:-0.943804 17:-1 18:-0.905913 19:-1 20:-1 21:-0.918296 
-128 0 20.42246349699675 0 0.5488061104280207 0.7485344023307829 0 0.5907853718814791 5.870049167571583 0 0 0 0 0 0 0 11.63222242107079 1:-0.977136 2:-0.2589 3:-0.995059 4:-0.943508 5:-1 6:-0.767241 7:0.18552 8:-0.955157 9:-0.780741 10:-1 11:-0.255814 12:-1 13:-0.996111 14:-1 15:-0.987325 16:-0.943972 17:-1 18:-0.858216 19:-1 20:-1 21:-0.958799 
-62.3528290152499 124.8101562078918 43.20398142765317 0 0 0 0 0 0 0 0 0 0 0 0 0 0 1:-0.967099 2:-0.478964 3:-1 4:-0.993197 5:-1 6:-0.752155 7:-0.927602 8:-1 9:-0.985185 10:-1 11:-0.435659 12:-1 13:-1 14:-1 15:-1 16:-1 17:-1 18:-0.934662 19:-1 20:-1 21:-0.815642 
-128 128 128 0 0 0 0 0 0 0 0 0 0 0 0 0 0 1:-0.976858 2:-0.941748 3:-1 4:-0.99793 5:-1 6:-0.626078 7:-1 8:-1 9:-1 10:-1 11:-0.894574 12:-1 13:-1 14:-1 15:-1 16:-0.999159 17:-1 18:-0.966678 19:-1 20:-1 21:-0.868366 
-128 128 128 0 0 0 0 0 0 0 0 0 0 0 0 0 0 1:-0.967099 2:-0.857605 3:-1 4:-0.97131 5:-1 6:-0.552802 7:-1 8:-1 9:-0.94963 10:-1 11:-0.832558 12:-1 13:-1 14:-1 15:-1 16:-0.998149 17:-1 18:-0.948383 19:-1 20:-1 21:-0.830307 
-0 128 128 0 0 0 0 0 0 0 0 0 0 0 0 0 0 1:-0.968772 2:-0.666667 3:-1 4:-1 5:-1 6:-0.40625 7:-0.782805 8:-1 9:-1 10:-1 11:-0.0852713 12:-1 13:-1 14:-1 15:-1 16:-1 17:-1 18:-1 19:-1 20:-1 21:-0.791201 
-19.96660560452429 113.2902087508252 0 0 0 0 0 0 16.87718057909992 0 128 0 0 0 0 0 0 1:-0.995539 2:-0.987055 3:-0.998652 4:-0.983437 5:-0.969697 6:-0.881466 7:-0.846154 8:-1 9:-0.991111 10:-1 11:-0.810853 12:-1 13:-0.994166 14:-1 15:-0.997332 16:-0.991083 17:-0.911765 18:-0.864097 19:-1 20:-0.7875 21:-0.891061 
-128 128 128 0 0 0 0 0 0 0 0 0 0 0 0 0 0 1:-0.983549 2:-0.854369 3:-0.987198 4:-0.980775 5:-1 6:-0.867457 7:-1 8:-0.847534 9:-0.979259 10:-1 11:-0.95969 12:-0.998824 13:-0.994814 14:-1 15:-0.986658 16:-0.991587 17:-1 18:-0.952957 19:-1 20:-1 21:-0.938198 
-0 128 0 0 0 0 0 0 128 38.5966566138709 128 0 0 0 0 0 24.5538202044305 1:-0.981319 2:-0.857605 3:-0.999551 4:-0.942621 5:-1 6:-0.887931 7:-1 8:-1 9:-0.872593 10:-1 11:-0.748837 12:-1 13:-0.995787 14:-1 15:-0.984656 16:-0.950029 17:-1 18:-0.805292 19:-1 20:-1 21:-0.968925 
-0 128 128 0 0 0 0 0 0 0 0 0 0 0 0 0 0 1:-0.981598 2:-0.97411 3:-0.998877 4:-0.97131 5:-1 6:-0.806034 7:-0.846154 8:-0.964126 9:-0.851852 10:-1 11:-0.820155 12:-1 13:-0.992546 14:-1 15:-1 16:-0.989232 17:-1 18:-0.899379 19:-1 20:-1 21:-0.860684 
-25.27729435332131 0 0 0 0 0 0 0 0 0 0 0 0 0 0 0 0 1:-0.968772 2:-0.300971 3:-1 4:-0.966282 5:-1 6:-0.685345 7:-0.447964 8:-1 9:-0.928889 10:-1 11:-0.299225 12:-1 13:-1 14:-1 15:-1 16:-0.996971 17:-1 18:-0.891539 19:-1 20:-1 21:-0.871858 
-0 0 128 0 0 0 0 0 0 0 0 0 0 0 0 0 0 1:-0.971839 2:-0.94822 3:-1 4:-0.976338 5:-1 6:-0.387931 7:-1 8:-1 9:-0.89037 10:-1 11:-0.823256 12:-1 13:-1 14:-1 15:-1 16:-0.998317 17:-1 18:-0.903953 19:-1 20:-1 21:-0.774791 
-0 0 0 0.6813481861978236 1.382277120943265 0 0.8670279699077303 0 0 0 0 0 2.660713902472962 0.1456672897917739 0 13.97852847827124 0 1:-0.923881 2:-0.524272 3:-1 4:-0.95593 5:-1 6:-0.340517 7:-0.19457 8:-1 9:-0.931852 10:-1 11:-0.522481 12:-1 13:-1 14:-1 15:-1 16:-0.987045 17:-1 18:-0.787651 19:-1 20:-1 21:-0.839036 
-128 128 0 0 0 0 0 0 101.0322249411355 0 0 0 0 0 0 0 0 1:-0.963753 2:-0.912621 3:-0.998428 4:-0.949423 5:-1 6:-0.807112 7:-0.800905 8:-1 9:-0.854815 10:-1 11:-0.795349 12:-1 13:-0.992222 14:-1 15:-1 16:-0.975604 17:-1 18:-0.847109 19:-1 20:-1 21:-0.932263 
-0 128 128 0 0 0 0 0 0 0 0 0 0 0 0 0 0 1:-0.988289 2:-0.760518 3:-1 4:-0.987578 5:-1 6:-0.780172 7:-0.746606 8:-1 9:-0.925926 10:-1 11:-0.469767 12:-1 13:-1 14:-1 15:-1 16:-0.992933 17:-1 18:-0.919634 19:-1 20:-1 21:-0.880237 
-86.38786714250075 50.22845400363538 0 0 0 0 0 0 0 0 0 0 0 0 0 0 0 1:-0.970445 2:-0.569579 3:-0.992364 4:-0.959775 5:-1 6:-0.619612 7:-0.411765 8:-1 9:-0.958519 10:-1 11:-0.314729 12:-1 13:-0.991573 14:-1 15:-1 16:-0.990241 17:-1 18:-0.881085 19:-1 20:-1 21:-0.881983 
-0 128 56.34591810751082 0 0 0 0 0 0 0 0 0 0 0 0 0 0 1:-0.977136 2:-0.724919 3:-1 4:-0.969831 5:-1 6:-0.757543 7:-0.357466 8:-1 9:-0.914074 10:-1 11:0.243411 12:-1 13:-1 14:-1 15:-1 16:-0.970724 17:-1 18:-0.9131 19:-1 20:-1 21:-0.910615 
-0 0 41.73909838960005 0 0 0 0 0 0 0 0 0 0 0 0 0 0 1:-0.952321 2:-0.618123 3:-1 4:-0.991423 5:-1 6:-0.128233 7:-0.800905 8:-1 9:-1 10:-1 11:-0.47907 12:-1 13:-1 14:-1 15:-1 16:-0.99899 17:-1 18:-0.971905 19:-1 20:-1 21:-0.712989 
-0 0 0 0.2567745136569632 0 0 0 0 0 10.65805767572457 37.38281534095064 0 4.302595180867428 7.290460098346589 4.887240341650067 0 0 1:-0.978531 2:-0.919094 3:-1 4:-0.965395 5:-1 6:-0.273707 7:-0.99095 8:-1 9:-1 10:-1 11:-0.308527 12:-1 13:-1 14:-1 15:-1 16:-0.989232 17:-1 18:-0.888272 19:-1 20:-1 21:-0.553771 
-28.93641472226309 0 0 0 0.8723963927779563 0 0.06006579175971976 0 0 0 0 0 0.8610020372370353 0 1.594993338064358 0 0.4094934626940424 1:-0.970724 2:-0.411003 3:-1 4:-0.935226 5:-1 6:-0.595905 7:-0.19457 8:-1 9:-0.813333 10:-1 11:0.553488 12:-1 13:-1 14:-1 15:-1 16:-0.985194 17:-1 18:-0.895459 19:-1 20:-1 21:-0.859637 
-0 0.21138767610008 128 0 0 0 0 0 0 0 0 0 0 0 0 0 0 1:-0.949254 2:-0.783172 3:-1 4:-1 5:-1 6:-0.100216 7:-0.963801 8:-1 9:-1 10:-1 11:-0.606202 12:-1 13:-1 14:-1 15:-1 16:-1 17:-1 18:-1 19:-1 20:-1 21:-0.617318 
-0 128 0 0 0 0 0 0 38.29043805478355 0 0 0 0 0 0 0 0 1:-0.982992 2:-0.802589 3:-1 4:-0.968353 5:-1 6:-0.788793 7:-1 8:-1 9:-0.946667 10:-1 11:-0.32093 12:-1 13:-1 14:-1 15:-1 16:-0.998149 17:-1 18:-0.845149 19:-1 20:-1 21:-0.861732 
-128 128 128 0 0 0 0 0 0 0 0 0 0 0 0 0 0 1:-0.987174 2:-0.809061 3:-1 4:-0.984324 5:-1 6:-0.771552 7:-1 8:-1 9:-0.985185 10:-1 11:-0.386047 12:-1 13:-1 14:-1 15:-1 16:-1 17:-1 18:-0.913754 19:-1 20:-1 21:-0.85824 
-128 0 0 0 0 0 0 0 0 0 0 0 0 0 0 0 0 1:-0.962359 2:-0.669903 3:-0.999551 4:-0.976043 5:-1 6:-0.544181 7:-0.945701 8:-1 9:-1 10:-1 11:-0.727132 12:-1 13:-1 14:-1 15:-0.978652 16:-0.999832 17:-1 18:-0.863443 19:-1 20:-1 21:-0.823324 
-0 97.42189650274921 0 0 0 0 0 0 45.12305521946193 0 0 0 0 0 0 0 0 1:-0.982713 2:-0.763754 3:-1 4:-0.945578 5:-1 6:-0.867457 7:-0.60181 8:-1 9:-0.795556 10:-1 11:-0.342636 12:-1 13:-1 14:-1 15:-1 16:-0.983175 17:-1 18:-0.845149 19:-1 20:-1 21:-0.936453 
-128 128 128 0 0 0 0 0 0 0 0 0 0 0 0 0 0 1:-0.994981 2:-0.851133 3:-0.995733 4:-0.989648 5:-1 6:-0.924569 7:-0.864253 8:-1 9:-0.928889 10:-1 11:-0.55969 12:-0.998354 13:-0.996759 14:-1 15:-0.984656 16:-0.997476 17:-1 18:-0.987586 19:-1 20:-1 21:-0.947975 
-28.06055252214859 128 128 0 0 0 0 0 0 0 0 0 0 0 0 0 0 1:-0.977136 2:-0.365696 3:-0.993262 4:-0.972493 5:-1 6:-0.798491 7:-0.303167 8:-0.829596 9:-0.881481 10:-1 11:-0.203101 12:-0.999765 13:-0.98736 14:-1 15:-0.998666 16:-0.979473 17:-1 18:-0.942502 19:-1 20:-1 21:-0.932961 
-57.22099383483366 128 128 0 0 0 0 0 0 0 0 0 0 0 0 0 0 1:-0.987453 2:-0.763754 3:-1 4:-0.952972 5:-1 6:-0.849138 7:-0.248869 8:-1 9:-0.917037 10:-1 11:-0.234109 12:-1 13:-1 14:-1 15:-1 16:-0.966855 17:-1 18:-0.9131 19:-1 20:-1 21:-0.934008 
-0 0 0 0 0 1.694591156935948 0 0 0 0 8.963332069939929 0 0 0.3482644461448486 0 0 0 1:-0.973791 2:-0.430421 3:-0.993711 4:-0.953564 5:-1 6:-0.337284 7:-0.538462 8:-0.686099 9:-0.899259 10:-1 11:-0.525581 12:-0.998942 13:-0.997083 14:-1 15:-1 16:-0.974258 17:-1 18:-0.918981 19:-1 20:-1 21:-0.60824 
-6.316041373585433 0 0 0.09027931783923598 0 0.6334436595891225 10.04199441049804 0 0 -0 128 0 0 0 0 0 0 1:-0.980482 2:-0.928803 3:-1 4:-0.984028 5:-1 6:-0.189655 7:-1 8:-1 9:-1 10:-1 11:-0.782946 12:-1 13:-1 14:-1 15:-1 16:-0.995962 17:-1 18:-0.95165 19:-1 20:-1 21:-0.536313 
-76.24773105983734 123.5609806756254 0 0 3.138666380130646 0 0 0 0 13.04504989693513 81.8389855073524 0 0 0 0 0 0 1:-0.965426 2:-0.932039 3:-0.997754 4:-0.943508 5:-1 6:-0.482759 7:-0.58371 8:-1 9:-0.997037 10:-1 11:-0.534884 12:-1 13:-0.998055 14:-1 15:-0.988659 16:-0.978464 17:-1 18:-0.77785 19:-1 20:-1 21:-0.842179 
-128 128 128 0 0 0 0 0 0 0 0 0 0 0 0 0 0 1:-0.982713 2:-0.747573 3:-1 4:-0.988465 5:-1 6:-0.705819 7:-0.683258 8:-1 9:-0.976296 10:-1 11:-0.649612 12:-1 13:-1 14:-1 15:-1 16:-1 17:-1 18:-0.899379 19:-1 20:-1 21:-0.907123 
-0 128 0 0 0 0 0 0 0 0 0 0 0 0 0 0 0 1:-0.983549 2:-0.699029 3:-1 4:-0.946466 5:-1 6:-0.767241 7:-0.457014 8:-1 9:-0.943704 10:-1 11:-0.0666667 12:-1 13:-1 14:-1 15:-1 16:-0.965677 17:-1 18:-0.894806 19:-1 20:-1 21:-0.879539 
-128 128 128 0 0 0 0 0 0 0 0 0 0 0 0 0 0 1:-0.985501 2:-0.932039 3:-1 4:-0.967169 5:-1 6:-0.849138 7:-1 8:-1 9:-0.905185 10:-1 11:-0.742636 12:-1 13:-1 14:-1 15:-1 16:-0.985026 17:-1 18:-0.898726 19:-1 20:-1 21:-0.928771 
-68.31915382763275 128 128 0 0 0 0 0 0 0 0 0 0 0 0 0 0 1:-0.979367 2:-0.61165 3:-1 4:-0.993197 5:-1 6:-0.630388 7:-0.502262 8:-1 9:-0.991111 10:-1 11:-0.265116 12:-1 13:-1 14:-1 15:-1 16:-0.999663 17:-1 18:-0.960797 19:-1 20:-1 21:-0.885126 
-45.94710520944714 0 0 0.05980083252830571 0 0.2675650139197623 0 0 0 6.794038902755881 0 0 0 0 0.09729091453633953 0 0 1:-0.982992 2:-0.631068 3:-1 4:-0.982254 5:-1 6:-0.709052 7:-0.846154 8:-1 9:-0.92 10:-1 11:0.696124 12:-1 13:-1 14:-1 15:-1 16:-0.99714 17:-1 18:-0.925515 19:-1 20:-1 21:-0.82507 
-126.0722460600968 7.034850608347903 96.96335561127121 0 0 0 0 0 0 0 0 0 0 0 0 0 0 1:-0.969051 2:-0.851133 3:-1 4:-0.951198 5:-1 6:-0.466595 7:-1 8:-1 9:-0.94963 10:-1 11:-0.593798 12:-1 13:-1 14:-1 15:-1 16:-0.976445 17:-1 18:-0.883698 19:-1 20:-1 21:-0.805866 
-0 79.91242986794509 128 0 0 0 0 0 0 0 0 0 0 0 0 0 0 1:-0.962359 2:-0.692557 3:-1 4:-0.972493 5:-1 6:-0.502155 7:-0.61086 8:-1 9:-0.943704 10:-1 11:-0.0232558 12:-1 13:-1 14:-1 15:-1 16:-0.996803 17:-1 18:-0.932048 19:-1 20:-1 21:-0.868017 
-128 128 128 0 0 0 0 0 0 0 0 0 0 0 0 0 0 1:-0.986895 2:-0.812298 3:-0.997305 4:-0.964803 5:-1 6:-0.677802 7:-0.891403 8:-1 9:-0.946667 10:-1 11:-0.68062 12:-1 13:-0.99449 14:-1 15:-1 16:-0.971734 17:-1 18:-0.907873 19:-1 20:-1 21:-0.850559 
-0 128 128 0 0 0 0 0 0 0 0 0 0 0 0 0 0 1:-0.975742 2:-0.669903 3:-0.991241 4:-0.995563 5:-1 6:-0.575431 7:-0.954751 8:-0.883408 9:-1 10:-1 11:-0.265116 12:-1 13:-1 14:-1 15:-0.987992 16:-1 17:-1 18:-0.990199 19:-1 20:-1 21:-0.746159 
-1.458294902146591 0 19.27631119874495 0 0 0 0 0.4295196589337369 0 0 17.57193078234377 0 0 0.2500283149358082 0.5727733954693608 3.535154677266722 0 1:-0.956225 2:-0.737864 3:-1 4:-0.897959 5:-0.984848 6:-0.740302 7:-1 8:-1 9:-0.934815 10:-0.545455 11:-0.80155 12:-1 13:-1 14:-1 15:-1 16:-0.967528 17:-1 18:-0.822934 19:-1 20:-0.825 21:-0.95845 
-0 128 128 0 0 0 0 0 0 0 0 0 0 0 0 0 0 1:-0.965147 2:-0.705502 3:-0.996856 4:-0.967761 5:-1 6:-0.653017 7:-0.61991 8:-1 9:-0.884444 10:-1 11:-0.2 12:-1 13:-0.996435 14:-1 15:-0.999333 16:-0.999495 17:-1 18:-0.95361 19:-1 20:-1 21:-0.868017 
-0 128 128 0 0 0 0 0 0 0 0 0 0 0 0 0 0 1:-0.982713 2:-0.699029 3:-1 4:-0.990535 5:-1 6:-0.66056 7:-0.819005 8:-1 9:-0.976296 10:-1 11:-0.389147 12:-1 13:-1 14:-1 15:-1 16:-0.998317 17:-1 18:-0.963411 19:-1 20:-1 21:-0.770601 
-0 0 13.51101380432982 0.1665693255143378 0.6355821267768421 0.8786763530708059 0 0 0.04195134087701371 0.3496533602862218 0 0 0.04543518466877119 0 0 0 0 1:-0.964032 2:-0.799353 3:-0.985177 4:-0.947057 5:-0.833333 6:-0.769397 7:-0.538462 8:-0.704036 9:-0.757037 10:-0.30303 11:-0.553488 12:-1 13:-0.983147 14:-1 15:-0.99533 16:-0.992597 17:-0.441176 18:-0.820974 19:-1 20:-0.8125 21:-0.930866 
-128 128 128 0 0 0 0 0 128 0 0 0 0 0 0 0 0 1:-0.992472 2:-0.967638 3:-0.99461 4:-0.954156 5:-1 6:-0.955819 7:-1 8:-1 9:-0.937778 10:-1 11:-0.956589 12:-1 13:-0.984767 14:-1 15:-0.991995 16:-0.980315 17:-1 18:-0.935315 19:-1 20:-1 21:-0.993715 
-128 128 128 0 0 0 0 0 0 0 128 0 0 0 0 0 0 1:-0.988011 2:-0.94822 3:-0.999102 4:-0.968944 5:-1 6:-0.792026 7:-1 8:-1 9:-0.955556 10:-1 11:-0.981395 12:-1 13:-0.996111 14:-1 15:-0.984656 16:-0.993775 17:-1 18:-0.932702 19:-1 20:-1 21:-0.821578 
-0 128 128 0 0 0 0 0 0 0 0 0 0 0 0 0 0 1:-0.996096 2:-0.873786 3:-0.996631 4:-0.976043 5:-1 6:-0.934267 7:-0.909502 8:-0.93722 9:-0.798519 10:-1 11:-0.603101 12:-1 13:-0.990277 14:-1 15:-0.943296 16:-0.990073 17:-1 18:-0.930742 19:-1 20:-1 21:-0.934358 
-0 84.82355156061034 0 0.09364881279128486 21.38680583637839 0 0 7.77672246257714 128 121.2127551002444 128 0 0 0 0 24.85857374273233 68.12079369850983 1:-0.977694 2:-0.886731 3:-0.99461 4:-0.936705 5:-1 6:-0.824353 7:-1 8:-0.802691 9:-0.893333 10:-1 11:-0.937984 12:-0.996591 13:-0.986712 14:-1 15:-0.987992 16:-0.952553 17:-1 18:-0.795492 19:-1 20:-1 21:-0.915852 
-60.13136215612251 128 0 0 0 0.9989740117780017 0 0 22.54860959050451 0 128 0 0 0 0 0 0 1:-0.983828 2:-0.928803 3:-0.995957 4:-0.965691 5:-1 6:-0.767241 7:-1 8:-0.686099 9:-0.943704 10:-1 11:-0.875969 12:-0.996944 13:-0.988981 14:-1 15:-0.948632 16:-0.994279 17:-1 18:-0.907873 19:-1 20:-1 21:-0.867668 
-128 128 128 0 0 0 0 0 0 0 0 0 0 0 0 0 0 1:-0.949254 2:-0.660194 3:-1 4:-0.980775 5:-1 6:-0.560345 7:-0.837104 8:-1 9:-0.946667 10:-1 11:-0.689922 12:-1 13:-1 14:-1 15:-1 16:-0.994784 17:-1 18:-0.966024 19:-1 20:-1 21:-0.883729 
-0 128 0 0 0 0 0 0 0 0 0 0 0 0 0 0 0 1:-0.983549 2:-0.682848 3:-1 4:-0.966874 5:-1 6:-0.741379 7:-0.728507 8:-1 9:-0.979259 10:-1 11:-0.289922 12:-1 13:-1 14:-1 15:-1 16:-0.996803 17:-1 18:-0.896112 19:-1 20:-1 21:-0.855447 
-46.93882580571129 128 128 0 0 0 0 0 0 0 0 0 0 0 0 0 0 1:-0.962916 2:-0.847896 3:-1 4:-0.976338 5:-1 6:-0.514009 7:-1 8:-1 9:-0.928889 10:-1 11:-0.503876 12:-1 13:-1 14:-1 15:-1 16:-0.995962 17:-1 18:-0.950996 19:-1 20:-1 21:-0.729749 
-128 0 0 3.741525687803434 7.517624114741834 0 28.69542594468454 35.95000030134314 128 128 128 25.09365464922878 1.174234328751802 7.557674378196911 11.98193358739366 58.24030414291492 59.64723595186582 1:-0.967935 2:-0.951456 3:-1 4:-0.923395 5:-1 6:-0.646552 7:-1 8:-1 9:-0.955556 10:-1 11:-0.931783 12:-1 13:-1 14:-1 15:-1 16:-0.970388 17:-1 18:-0.771317 19:-1 20:-1 21:-0.875 
-8.663855410412161 0 43.45547575913922 0 0 0 0 0 0 0 0 0 0 0 0 0 0 1:-0.982713 2:-0.601942 3:-0.985626 4:-0.989056 5:-1 6:-0.599138 7:-0.384615 8:-0.928251 9:-0.884444 10:-1 11:0.258915 12:-0.98366 13:-1 14:-1 15:-0.923949 16:-1 17:-1 18:-0.95165 19:-1 20:-1 21:-0.829609 
-116.5255370042838 66.12775529042169 128 0 0 0 0 0 0 0 117.8065139970649 0 0 0 0 0 0 1:-0.978809 2:-0.961165 3:-1 4:-0.97486 5:-1 6:-0.53125 7:-1 8:-1 9:-0.914074 10:-1 11:-0.779845 12:-1 13:-1 14:-1 15:-1 16:-0.995962 17:-1 18:-0.895459 19:-1 20:-1 21:-0.731494 
-0 128 0 0 0 0 0 0 0 0 0 0 0 0 0 0 0 1:-0.99526 2:-0.828479 3:-1 4:-0.961846 5:-1 6:-0.765086 7:-0.701357 8:-1 9:-0.934815 10:-1 11:-0.327132 12:-1 13:-1 14:-1 15:-1 16:-0.967359 17:-1 18:-0.911794 19:-1 20:-1 21:-0.782123 
-78.48568381675098 0 0 0 0 0 0 0 0 0 0 0 0 3.080005142806006 0 31.02222043610187 0 1:-0.966541 2:-0.478964 3:-1 4:-0.919255 5:-1 6:-0.633621 7:-0.58371 8:-1 9:-0.964444 10:-1 11:-0.172093 12:-1 13:-1 14:-1 15:-1 16:-0.941785 17:-1 18:-0.873897 19:-1 20:-1 21:-0.740922 
-0 128 0 0 0 0 0 0 0 79.93779703917596 0 0 0 0 0 0 0 1:-0.978809 2:-0.987055 3:-1 4:-0.955634 5:-1 6:-0.670259 7:-1 8:-1 9:-0.908148 10:-1 11:-0.637209 12:-1 13:-1 14:-1 15:-1 16:-0.980483 17:-1 18:-0.836001 19:-1 20:-1 21:-0.869763 
-82.86502694135957 128 0 0 0 0 0 0 0 0 0 0 0 0 0 0 0 1:-0.973233 2:-0.702265 3:-1 4:-0.968944 5:-1 6:-0.695043 7:-0.719457 8:-1 9:-0.967407 10:-1 11:-0.541085 12:-1 13:-1 14:-1 15:-1 16:-0.97981 17:-1 18:-0.880431 19:-1 20:-1 21:-0.87919 
-0 128 128 0 0 0 0 0 0 0 0 0 0 0 0 0 0 1:-0.97156 2:-0.770227 3:-0.998428 4:-0.960663 5:-1 6:-0.830819 7:-0.764706 8:-1 9:-0.893333 10:-1 11:-0.531783 12:-1 13:-0.99449 14:-1 15:-1 16:-0.977454 17:-1 18:-0.924208 19:-1 20:-1 21:-0.95845 
-125.4306395240216 128 128 0 0 0 0 0 0 0 0 0 0 0 0 0 0 1:-0.973512 2:-0.734628 3:-0.999326 4:-0.958296 5:-1 6:-0.890086 7:-0.628959 8:-1 9:-0.866667 10:-1 11:-0.556589 12:-1 13:-0.993518 14:-1 15:-1 16:-0.985194 17:-1 18:-0.91506 19:-1 20:-1 21:-0.963338 
-128 128 41.85732044606668 0 0 0 0 0 0 0 0 0 0 0 0 0 0 1:-0.996096 2:-0.834951 3:-0.995733 4:-0.980775 5:-1 6:-0.800647 7:-0.728507 8:-1 9:-0.955556 10:-1 11:-0.674419 12:-1 13:-0.999676 14:-1 15:-0.876584 16:-1 17:-1 18:-0.922248 19:-1 20:-1 21:-0.834497 
-128 6.618788336112661 0 0.6268324224673781 0 0 0 0 0 0 0 0 0.8754056135255237 0 0 0 0 1:-0.985222 2:-0.533981 3:-1 4:-0.973972 5:-1 6:-0.489224 7:0.131222 8:-1 9:-0.893333 10:-1 11:0.246512 12:-1 13:-1 14:-1 15:-1 16:-0.994448 17:-1 18:-0.879778 19:-1 20:-1 21:-0.681215 
-0 0 16.41326947588853 0 0 0 0 0 0 0 0 0 0 0 0 0 0 1:-0.975464 2:-0.462783 3:-1 4:-0.978705 5:-1 6:-0.642241 7:-0.846154 8:-1 9:-0.819259 10:-1 11:0.0325581 12:-1 13:-1 14:-1 15:-1 16:-1 17:-1 18:-0.960144 19:-1 20:-1 21:-0.731145 
-128 128 128 0 0 0 0 0 0 0 0 0 0 0 0 0 0 1:-0.980204 2:-0.799353 3:-0.993038 4:-0.962437 5:-1 6:-0.842672 7:-0.891403 8:-1 9:-0.875556 10:-1 11:-0.795349 12:-1 13:-0.993194 14:-1 15:-1 16:-0.974931 17:-1 18:-0.879778 19:-1 20:-1 21:-0.953212 
-0.3959397137504433 128 128 0 0 0 0 0 0 0 0 0 0 0 0 0 0 1:-0.993587 2:-0.860841 3:-1 4:-0.995563 5:-1 6:-0.765086 7:-0.972851 8:-1 9:-0.97037 10:-1 11:-0.451163 12:-1 13:-1 14:-1 15:-1 16:-1 17:-1 18:-0.944463 19:-1 20:-1 21:-0.857542 
-128 -128 15.63476600504098 0 0 0 0 0 0 0 0 0 2.509732326244319 5.614809565344753 4.834524883000491 0 0 1:-0.979088 2:-0.744337 3:-1 4:-0.951198 5:-1 6:-0.592672 7:-0.99095 8:-1 9:-0.940741 10:-1 11:-0.246512 12:-1 13:-1 14:-1 15:-1 16:-0.982165 17:-1 18:-0.858216 19:-1 20:-1 21:-0.788408 
-128 -128 128 0 0 0 0 0 0 0 0 0 0 0 0 0 0 1:-0.980761 2:-0.760518 3:-1 4:-0.994085 5:-1 6:-0.456897 7:-0.60181 8:-1 9:-1 10:-1 11:-0.355039 12:-1 13:-1 14:-1 15:-1 16:-1 17:-1 18:-0.971905 19:-1 20:-1 21:-0.713338 
-128 -128 128 0 0 0 0 0 0 0 0 0 0 0 0 0 0 1:-0.967099 2:-0.776699 3:-1 4:-0.971014 5:-1 6:-0.507543 7:-0.683258 8:-1 9:-1 10:-1 11:-0.724031 12:-1 13:-1 14:-1 15:-1 16:-0.992092 17:-1 18:-0.905913 19:-1 20:-1 21:-0.880936 
-128 -128 128 0 0 0 0 0 0 0 128 0 0 0 0 0 0 1:-0.978252 2:-0.880259 3:-1 4:-0.960663 5:-1 6:-0.726293 7:-1 8:-1 9:-1 10:-1 11:-0.941085 12:-1 13:-1 14:-1 15:-1 16:-0.988391 17:-1 18:-0.936622 19:-1 20:-1 21:-0.820531 
-0 -128 0 0 0 0 0 0 64.09892520086542 0 0 0 0 0 0 0 0 1:-0.982992 2:-0.851133 3:-1 4:-0.95593 5:-1 6:-0.884698 7:-1 8:-1 9:-0.860741 10:-1 11:-0.544186 12:-1 13:-1 14:-1 15:-1 16:-0.96921 17:-1 18:-0.871937 19:-1 20:-1 21:-0.950419 
-128 -128 128 0 0 0 0 0 0 0 0 0 0 0 0 0 0 1:-0.981319 2:-0.530744 3:-1 4:-0.958296 5:-1 6:-0.801724 7:-0.674208 8:-1 9:-0.76 10:-1 11:-0.289922 12:-1 13:-1 14:-1 15:-1 16:-0.979473 17:-1 18:-0.845802 19:-1 20:-1 21:-0.883031 
-0 -128 128 0 0 0 0 0 0 0 0 0 0 0 0 0 0 1:-0.988011 2:-0.867314 3:-1 4:-0.969536 5:-1 6:-0.915948 7:-0.855204 8:-1 9:-0.887407 10:-1 11:-0.779845 12:-1 13:-1 14:-1 15:-1 16:-0.992597 17:-1 18:-0.958837 19:-1 20:-1 21:-0.968925 
-128 -128 128 0 0 0 0 0 0 0 15.43242133879398 0 0 0 0 0 0 1:-0.974348 2:-0.944984 3:-1 4:-0.975451 5:-1 6:-0.737069 7:-1 8:-1 9:-1 10:-1 11:-0.962791 12:-1 13:-1 14:-1 15:-1 16:-0.99714 17:-1 18:-0.930742 19:-1 20:-1 21:-0.955656 
-128 -128 128 0 0 0 0 0 0 0 0 0 0 0 0 0 0 1:-0.970445 2:-0.614887 3:-1 4:-0.973676 5:-1 6:-0.732759 7:-0.58371 8:-1 9:-0.988148 10:-1 11:-0.503876 12:-1 13:-1 14:-1 15:-1 16:-0.998486 17:-1 18:-0.937929 19:-1 20:-1 21:-0.929469 
-0 -0 128 0 0 0 0 0 0 0 0 0 0 0 0 0 0 1:-0.988289 2:-0.97411 3:-1 4:-0.992014 5:-1 6:-0.72306 7:-0.819005 8:-1 9:-1 10:-1 11:-0.643411 12:-1 13:-1 14:-1 15:-1 16:-1 17:-1 18:-0.994773 19:-1 20:-1 21:-0.802374 
-128 -128 0 0 0 0 0 0 0 0 0 0 0 0 0 0 0 1:-0.985222 2:-0.925566 3:-1 4:-0.953564 5:-1 6:-0.726293 7:-0.882353 8:-1 9:-0.979259 10:-1 11:-0.627907 12:-1 13:-1 14:-1 15:-1 16:-0.980988 17:-1 18:-0.91114 19:-1 20:-1 21:-0.819483 
-99.2190463031468 -128 128 0 0 0 0 0 0 0 0 0 0 0 0 0 0 1:-0.968493 2:-0.928803 3:-1 4:-1 5:-1 6:-0.465517 7:-0.828054 8:-1 9:-1 10:-1 11:-0.454264 12:-1 13:-1 14:-1 15:-1 16:-1 17:-1 18:-1 19:-1 20:-1 21:-0.709148 
-128 -128 128 1.107542089486691 0 0 10.24982897771357 0.3691001274749804 0 0 128 2.720847130889768 0 0 0 0 1.899702526133663 1:-0.977973 2:-0.980583 3:-1 4:-0.987873 5:-1 6:-0.46444 7:-0.873303 8:-1 9:-0.994074 10:-1 11:-0.76124 12:-1 13:-1 14:-1 15:-1 16:-0.996635 17:-1 18:-0.881738 19:-1 20:-1 21:-0.809008 
-10.77829110656126 -128 0 0 0 0 0 0 0 0 0 0 0 0 0 0 0 1:-0.993866 2:-0.71521 3:-0.995508 4:-0.973381 5:-1 6:-0.762931 7:-0.900452 8:-1 9:-1 10:-1 11:0.147287 12:-1 13:-0.986064 14:-1 15:-1 16:-0.981661 17:-1 18:-0.877818 19:-1 20:-1 21:-0.827863 
-0 -0 0 0.6620386959501477 1.787871911127681 1.414691623194632 0 0.3709142550520443 0 0 0 0 1.160964911488259 0.3117061829040166 0 1.710942780739061 4.477440487622547 1:-0.958455 2:-0.20712 3:-1 4:-0.949719 5:-1 6:-0.78125 7:1 8:-1 9:-0.982222 10:-1 11:-0.299225 12:-1 13:-1 14:-1 15:-1 16:-0.97207 17:-1 18:-0.91114 19:-1 20:-1 21:-0.98324 
-128 -128 0 0 0 0 0 0 63.47725775857747 0 0 0 0 1.859238984892673 2.328540369469648 4.194390397660142 0 1:-0.971839 2:-0.656958 3:-1 4:-0.931085 5:-1 6:-0.766164 7:-0.773756 8:-1 9:-0.816296 10:-1 11:-0.47907 12:-1 13:-1 14:-1 15:-1 16:-0.970051 17:-1 18:-0.804639 19:-1 20:-1 21:-0.927723 
-128 -128 128 0 0 0 0 0 0 0 10.35587502964081 0 0 0 0.62137499524811 15.29635671120376 0 1:-0.947581 2:-0.822006 3:-1 4:-0.916888 5:-1 6:-0.670259 7:-1 8:-1 9:-0.943704 10:-1 11:-0.727132 12:-1 13:-1 14:-1 15:-1 16:-0.977286 17:-1 18:-0.903953 19:-1 20:-1 21:-0.947626 
-128 -128 128 1.504471142452107 0 0.686523210287305 2.903661949255401 0 0 0 0 0 2.180811610261324 8.618998880796994 1.534651135543267 27.53302241045834 0 1:-0.950927 2:-0.789644 3:-1 4:-0.961846 5:-1 6:-0.383621 7:-0.972851 8:-1 9:-1 10:-1 11:-0.544186 12:-1 13:-1 14:-1 15:-1 16:-0.9894 17:-1 18:-0.890885 19:-1 20:-1 21:-0.816341 
-93.52802929282521 -20.52795368092166 127.4051148674199 0 0 0 0 0 0 0 0 0 0 0 0 0 0 1:-0.975742 2:-0.472492 3:-1 4:-0.971902 5:-1 6:-0.80819 7:0.221719 8:-1 9:-0.896296 10:-1 11:-0.24031 12:-1 13:-1 14:-1 15:-1 16:-0.984184 17:-1 18:-0.922901 19:-1 20:-1 21:-0.955656 
-128 -120.3887133606282 113.635694252805 0 0 0 0 0 0 0 0 0 0 0 0 0 0 1:-0.9763 2:-0.543689 3:-1 4:-0.949423 5:-1 6:-0.762931 7:0.104072 8:-1 9:-0.955556 10:-1 11:0.131783 12:-1 13:-1 14:-1 15:-1 16:-0.979305 17:-1 18:-0.964717 19:-1 20:-1 21:-0.893156 
-128 -128 0 1.89890098217651 27.76844958661182 0 4.056227516921473 15.81689780054495 128 128 128 7.81275555223954 0 0 4.862354481521739 43.6026664491129 128 1:-0.978252 2:-0.935275 3:-1 4:-0.941142 5:-1 6:-0.91056 7:-1 8:-1 9:-0.92 10:-1 11:-0.875969 12:-1 13:-1 14:-1 15:-1 16:-0.949693 17:-1 18:-0.831428 19:-1 20:-1 21:-0.936453 
-0 -0 128 0 0 0 0 0 0 0 0 0 0 0 0 0 0 1:-0.975185 2:-0.883495 3:-1 4:-0.985803 5:-1 6:-0.739224 7:-1 8:-1 9:-0.991111 10:-1 11:-0.544186 12:-1 13:-1 14:-1 15:-1 16:-0.995794 17:-1 18:-0.975825 19:-1 20:-1 21:-0.870112 
-1.104104798843099 -0.8027049137740909 3.515330754449221 0.3547932351454968 0.1928292614130994 0.8980365240706104 0.5406033079523053 0.3248496829784262 0 0.5672032209922862 0.2468205849372725 0.07399659871562145 0.2192802013078037 0.3331006207181189 0.2239639677931033 0.2618393149268018 0 1:-0.991078 2:-0.721683 3:-0.996407 4:-0.983733 5:-0.393939 6:-0.919181 7:-0.782805 8:-0.991031 9:-0.917037 10:-0.636364 11:-0.575194 12:-1 13:-0.996435 14:-1 15:-1 16:-0.999495 17:-0.5 18:-0.981052 19:1 20:-0.8625 21:-0.978701 
-0 -50.68335395169057 0 0 0 0 0 0 0 0 0 0 0 0 0 0 0 1:-0.981598 2:-0.815534 3:-0.995957 4:-0.958296 5:-1 6:-0.894397 7:-0.728507 8:-1 9:-0.937778 10:-1 11:-0.795349 12:-1 13:-0.988981 14:-1 15:-0.998666 16:-0.970556 17:-1 18:-0.933355 19:-1 20:-1 21:-0.983589 
-128 -128 128 0 0 0 0 0 0 0 0 0 0 0 0 0 0 1:-0.976021 2:-0.601942 3:-1 4:-0.981662 5:-1 6:-0.90194 7:-0.719457 8:-1 9:-0.848889 10:-1 11:-0.826357 12:-1 13:-1 14:-1 15:-1 16:-0.988559 17:-1 18:-0.960797 19:-1 20:-1 21:-0.975908 
-128 -124.9645436839997 128 0 0 0 0 0 71.47249147869708 0 0 0 0 0 0 0 0 1:-0.991078 2:-0.993528 3:-1 4:-0.97693 5:-1 6:-0.907328 7:-1 8:-1 9:-0.940741 10:-1 11:-1 12:-1 13:-1 14:-1 15:-1 16:-0.988727 17:-1 18:-0.928128 19:-1 20:-1 21:-0.982193 
-128 -0 58.55624112034435 0 0 0 0 0 0 0 0 0 0 0 0 0 0 1:-0.969887 2:-0.796117 3:-1 4:-0.960663 5:-1 6:-0.903017 7:-0.819005 8:-1 9:-0.979259 10:-1 11:-0.820155 12:-1 13:-1 14:-1 15:-1 16:-0.984353 17:-1 18:-0.94773 19:-1 20:-1 21:-0.993017 
-0 -128 0 0 0 0 0 0 0 0 0 0 0 0 0 0 0 1:-0.973512 2:-0.860841 3:-0.994385 4:-0.952381 5:-1 6:-0.858836 7:-0.918552 8:-0.73991 9:-0.925926 10:-1 11:-0.674419 12:-1 13:-0.985092 14:-1 15:-0.99066 16:-0.990073 17:-1 18:-0.920287 19:-1 20:-1 21:-0.928422 
-128 -128 128 0 0 0 0 0 0 0 0 0 0 0 0 0 0 1:-0.981598 2:-0.760518 3:-0.997754 4:-0.973972 5:-1 6:-0.834052 7:-0.656109 8:-1 9:-0.967407 10:-1 11:-0.671318 12:-1 13:-0.989305 14:-1 15:-0.983989 16:-0.994616 17:-1 18:-0.965371 19:-1 20:-1 21:-0.913408 
-0 -128 0 0 0 0 0 0 0 0 0 0 0 0 0 0 0 1:-0.977973 2:-0.656958 3:-0.990118 4:-0.984916 5:-1 6:-0.832974 7:-0.638009 8:-1 9:-0.94963 10:-1 11:-0.162791 12:-0.998119 13:-0.995463 14:-1 15:-0.989326 16:-0.991924 17:-1 18:-0.926168 19:-1 20:-1 21:-0.881285 
-100.7440494250638 -128 101.3602907492178 0 0 1.430280776872614 0 0 0 13.10401790948649 0 0 0 0 0 0 0 1:-0.968772 2:-0.702265 3:-0.989669 4:-0.982254 5:-1 6:-0.709052 7:-0.900452 8:-0.578475 9:-0.757037 10:-1 11:-0.314729 12:-1 13:-0.986064 14:-1 15:-1 16:-0.988222 17:-1 18:-0.900033 19:-1 20:-1 21:-0.753142 
-128 -128 128 0 0 0 0 0 0 0 0 0 0 0 0 8.823198551074791 0 1:-0.957061 2:-0.566343 3:-1 4:-0.954747 5:-1 6:-0.664871 7:-0.502262 8:-1 9:-1 10:-1 11:-0.485271 12:-1 13:-1 14:-1 15:-1 16:-0.966686 17:-1 18:-0.892192 19:-1 20:-1 21:-0.937849 
-128 -128 0 0 0 0 14.99267576618555 16.36544456252048 64.68176313926865 75.83201796212725 128 9.344472874813997 0 0 0 0 0 1:-0.977415 2:-0.928803 3:-1 4:-0.951789 5:-1 6:-0.71444 7:-1 8:-1 9:-0.994074 10:-1 11:-0.826357 12:-1 13:-1 14:-1 15:-1 16:-0.975604 17:-1 18:-0.866057 19:-1 20:-1 21:-0.865573 
-0.1621881988676432 -0 0 0 2.973761010241098 1.137147812694489 0 0 104.2161463744884 7.68319147334055 106.6769668414625 0 0 0 0 0 0 1:-0.991914 2:-0.938511 3:-0.99169 4:-0.968057 5:-1 6:-0.948276 7:-1 8:-0.560538 9:-0.979259 10:-1 11:-0.866667 12:-0.996003 13:-0.976341 14:-1 15:-0.99533 16:-0.986203 17:-1 18:-0.886312 19:-1 20:-1 21:-0.961592 
-0 -70.68088617810248 19.61848114082143 0 0 0 0 0 0 0 0 0 0 0 0 0 0 1:-0.990799 2:-0.838188 3:-0.98922 4:-0.964212 5:-1 6:-0.96875 7:-0.746606 8:-0.784753 9:-0.795556 10:-1 11:-0.739535 12:-0.990713 13:-0.986064 14:-1 15:-0.994663 16:-0.983511 17:-1 18:-0.964064 19:-1 20:-1 21:-0.992318 
-128 -128 128 0 0 0 0 0 0 0 0 0 0 0 0 0 0 1:-0.974348 2:-0.877023 3:-1 4:-0.997338 5:-1 6:-0.679957 7:-0.945701 8:-1 9:-1 10:-1 11:-0.745736 12:-1 13:-1 14:-1 15:-1 16:-1 17:-1 18:-0.990853 19:-1 20:-1 21:-0.844972 
-128 -128 128 0 0 0 0 0 0 0 0 0 0 0 0 0 0 1:-0.982155 2:-0.68932 3:-1 4:-0.981366 5:-1 6:-0.738147 7:-0.918552 8:-1 9:-0.76 10:-1 11:-0.503876 12:-1 13:-1 14:-1 15:-1 16:-0.994279 17:-1 18:-0.854296 19:-1 20:-1 21:-0.868715 
-0 -0 128 0 0 0 0 0 0 0 0 0 0 0 0 0 0 1:-0.994981 2:-0.825243 3:-1 4:-1 5:-1 6:-0.769397 7:-0.764706 8:-1 9:-1 10:-1 11:-0.544186 12:-1 13:-1 14:-1 15:-1 16:-1 17:-1 18:-1 19:-1 20:-1 21:-0.880936 
-0 -128 0 0 0 0 0 0 0 0 0 0 0 0 0 0 0 1:-0.985501 2:-0.76699 3:-1 4:-0.960367 5:-1 6:-0.704741 7:-0.638009 8:-1 9:-0.979259 10:-1 11:-0.43876 12:-1 13:-1 14:-1 15:-1 16:-0.961807 17:-1 18:-0.893499 19:-1 20:-1 21:-0.870461 
-0 -128 128 0 0 0 0 0 0 0 0 0 0 0 0 0 0 1:-0.974069 2:-0.754045 3:-1 4:-0.983141 5:-1 6:-0.690733 7:-0.61086 8:-1 9:-0.967407 10:-1 11:-0.40155 12:-1 13:-1 14:-1 15:-1 16:-1 17:-1 18:-0.949036 19:-1 20:-1 21:-0.900489 
-0 -128 128 0 0 0 0 0 0 0 0 0 0 0 0 0 0 1:-0.977694 2:-0.711974 3:-1 4:-0.992014 5:-1 6:-0.780172 7:-0.936652 8:-1 9:-1 10:-1 11:-0.531783 12:-1 13:-1 14:-1 15:-1 16:-1 17:-1 18:-0.979745 19:-1 20:-1 21:-0.874651 
-0 -128 0 0 0 0 0 0 0 0 0 0 0 0 0 0 0 1:-0.981319 2:-0.919094 3:-1 4:-0.97693 5:-1 6:-0.886853 7:-1 8:-1 9:-0.943704 10:-1 11:-0.689922 12:-1 13:-1 14:-1 15:-1 16:-0.991083 17:-1 18:-0.944463 19:-1 20:-1 21:-0.908869 
-0 -128 0 0 0 0 0 0 0 0 0 0 0 0 0 0 0 1:-0.994424 2:-0.880259 3:-1 4:-0.993493 5:-1 6:-0.893319 7:-1 8:-1 9:-0.925926 10:-1 11:-0.565891 12:-1 13:-1 14:-1 15:-1 16:-0.996298 17:-1 18:-0.915714 19:-1 20:-1 21:-0.936802 
-0 -0 128 0 0 0 0 0 0 0 0 0 0 0 0 0 0 1:-0.949254 2:-0.919094 3:-1 4:-0.974268 5:-1 6:-0.784483 7:-1 8:-1 9:-1 10:-1 11:-0.748837 12:-1 13:-1 14:-1 15:-1 16:-0.989232 17:-1 18:-0.929435 19:-1 20:-1 21:-0.943785 
-128 -128 33.35702967894851 0 0 0 0 0 0 0 0 0 0 0 0 0 0 1:-0.974348 2:-0.834951 3:-0.99169 4:-0.954451 5:-1 6:-0.668103 7:-0.791855 8:-1 9:-0.973333 10:-1 11:-0.516279 12:-1 13:-0.98736 14:-1 15:-0.986658 16:-0.967864 17:-1 18:-0.905913 19:-1 20:-1 21:-0.856145 
-0 -128 128 0 0 0 0 0 0 0 0 0 0 0 0 0 0 1:-0.976579 2:-0.692557 3:-1 4:-0.968648 5:-1 6:-0.850216 7:-0.954751 8:-1 9:-0.961481 10:-1 11:-0.627907 12:-1 13:-1 14:-1 15:-1 16:-0.96534 17:-1 18:-0.960144 19:-1 20:-1 21:-0.942737 
-0 -128 0 0 0 0 0 0 73.18396325812785 36.36981562864234 34.28142518819786 0 2.856621484225944 0 3.492966445930075 0 0 1:-0.986895 2:-0.822006 3:-1 4:-0.963916 5:-1 6:-0.761853 7:-0.61991 8:-1 9:-0.822222 10:-1 11:-0.40155 12:-1 13:-1 14:-1 15:-1 16:-0.914024 17:-1 18:-0.800065 19:-1 20:-1 21:-0.861383 
-4.227808268042823 -128 0 0 0 0 0 0 0 0 0 0 0 0 0 0 0 1:-0.989684 2:-0.647249 3:-1 4:-0.986099 5:-1 6:-0.821121 7:-0.248869 8:-1 9:-1 10:-1 11:-0.0542636 12:-1 13:-1 14:-1 15:-1 16:-1 17:-1 18:-0.960144 19:-1 20:-1 21:-0.830656 
-0 -128 128 0 0 0 0 0 0 0 0 0 0 0 0 0 0 1:-0.970166 2:-0.812298 3:-1 4:-0.983437 5:-1 6:-0.728448 7:-0.99095 8:-1 9:-0.955556 10:-1 11:-0.466667 12:-1 13:-1 14:-1 15:-1 16:-0.998486 17:-1 18:-0.95557 19:-1 20:-1 21:-0.951117 
-0 -128 128 0 0 0 0 0 0 0 0 0 0 0 0 0 0 1:-0.977136 2:-0.802589 3:-1 4:-0.993197 5:-1 6:-0.642241 7:-0.493213 8:-1 9:-0.967407 10:-1 11:-0.330233 12:-1 13:-1 14:-1 15:-1 16:-1 17:-1 18:-0.979092 19:-1 20:-1 21:-0.866271 
-73.47049724955285 -128 0 0 0 0 0 0 0 0 0 0 0 0 0 0 0 1:-0.989962 2:-0.906149 3:-1 4:-0.972493 5:-1 6:-0.862069 7:-1 8:-1 9:-0.97037 10:-1 11:-0.686822 12:-1 13:-1 14:-1 15:-1 16:-0.981997 17:-1 18:-0.90918 19:-1 20:-1 21:-0.838687 
-0 -128 57.1523039064857 0 0 0 0 0 0 0 0 0 0 0 0 0 0 1:-0.970166 2:-0.776699 3:-1 4:-0.952972 5:-1 6:-0.782328 7:-0.484163 8:-1 9:-0.940741 10:-1 11:-0.234109 12:-1 13:-1 14:-1 15:-1 16:-0.977623 17:-1 18:-0.974518 19:-1 20:-1 21:-0.844274 
-0 -28.17255683972667 0 0 0 0 0 0 0 0 0 0 0 0 0 0 0 1:-0.988568 2:-0.893204 3:-0.987872 4:-0.989648 5:-1 6:-0.883621 7:-1 8:-0.704036 9:-0.893333 10:-1 11:-0.705426 12:-0.999647 13:-0.984767 14:-1 15:-0.917945 16:-0.995625 17:-1 18:-0.982359 19:-1 20:-1 21:-0.981494 
-128 -0.2609383737262285 0 0 0 0 0 4.314328249971056 128 0 128 0 0 0 0 0 0 1:-0.995818 2:-1 3:-0.999551 4:-0.964508 5:-1 6:-0.928879 7:-1 8:-1 9:-1 10:-1 11:-1 12:-1 13:-0.989305 14:-1 15:-1 16:-0.967696 17:-1 18:-0.895459 19:-1 20:-1 21:-0.952863 
-0 -0 128 0 0 0 0 0 0 0 0 0 0 0 0 0 0 1:-0.98578 2:-0.957929 3:-1 4:-0.989056 5:-1 6:-0.717672 7:-1 8:-1 9:-1 10:-1 11:-0.609302 12:-1 13:-1 14:-1 15:-1 16:-1 17:-1 18:-0.970598 19:-1 20:-1 21:-0.821578 
-0 -128 128 0 0 0 0 0 0 0 0 0 0 0 0 0 0 1:-0.988011 2:-0.860841 3:-1 4:-0.989648 5:-1 6:-0.642241 7:-0.565611 8:-1 9:-1 10:-1 11:-0.141085 12:-1 13:-1 14:-1 15:-1 16:-1 17:-1 18:-0.975172 19:-1 20:-1 21:-0.733939 
-18.10591379110977 -81.55880849769515 128 0 0 0 0 0 0 0 0 0 0 0 0 0 0 1:-0.995818 2:-0.951456 3:-0.997979 4:-0.988465 5:-1 6:-0.895474 7:-0.828054 8:-0.757848 9:-0.860741 10:-1 11:-0.916279 12:-1 13:-0.976665 14:-1 15:-0.993329 16:-0.985026 17:-1 18:-0.94773 19:-1 20:-1 21:-0.967179 
-20.91956647837259 -128 -128 0 0 0 0 0 16.64469101677618 0 0 0 0 0 0 0 0 1:-0.969608 2:-0.673139 3:-1 4:-0.979296 5:-1 6:-0.71444 7:-0.909502 8:-1 9:-1 10:-1 11:-0.048062 12:-1 13:-1 14:-1 15:-1 16:-0.99613 17:-1 18:-0.954917 19:-1 20:-1 21:-0.906425 
-128 -128 -128 0 0 0 0 0 0 7.54692713900501 6.914224657678265 0 0 0 0 0 0 1:-1 2:-0.925566 3:-1 4:-0.985803 5:-1 6:-0.692888 7:-0.746606 8:-1 9:-0.994074 10:-1 11:-0.203101 12:-1 13:-1 14:-1 15:-1 16:-1 17:-1 18:-0.934662 19:-1 20:-1 21:-0.748254 
-0 -128 -128 0 0 0 0 0 0 0 0 0 0 0 0 0 0 1:-0.989126 2:-0.906149 3:-1 4:-1 5:-1 6:-0.703664 7:-1 8:-1 9:-1 10:-1 11:-0.792248 12:-1 13:-1 14:-1 15:-1 16:-1 17:-1 18:-1 19:-1 20:-1 21:-0.831355 
-0 -128 -0 0 0 0 0 0 0 0 0 0 0 0 0 0 0 1:-0.975464 2:-0.815534 3:-1 4:-0.98462 5:-1 6:-0.507543 7:-0.701357 8:-1 9:-0.754074 10:-1 11:-0.44186 12:-1 13:-1 14:-1 15:-1 16:-0.998317 17:-1 18:-0.966024 19:-1 20:-1 21:-0.771997 
-128 -128 -128 0 0 0 0 0 0 0 0 0 0 0 0 0 0 1:-0.979925 2:-0.724919 3:-1 4:-0.964803 5:-1 6:-0.741379 7:-0.520362 8:-1 9:-0.902222 10:-1 11:-0.237209 12:-1 13:-1 14:-1 15:-1 16:-0.985194 17:-1 18:-0.932048 19:-1 20:-1 21:-0.900489 
-128 -128 -128 0 0 0 0 0 0 0 0 0 0 0 0 0 0 1:-0.946187 2:-0.902913 3:-1 4:-0.968353 5:-1 6:-0.716595 7:-1 8:-1 9:-1 10:-1 11:-0.869767 12:-1 13:-1 14:-1 15:-1 16:-0.991924 17:-1 18:-0.985626 19:-1 20:-1 21:-0.869413 
-0 -128 -128 0 0 0 0 0 0 0 0 0 0 0 0 0 0 1:-0.973512 2:-0.831715 3:-1 4:-0.990831 5:-1 6:-0.682112 7:-0.638009 8:-1 9:-0.922963 10:-1 11:-0.355039 12:-1 13:-1 14:-1 15:-1 16:-1 17:-1 18:-0.938582 19:-1 20:-1 21:-0.871159 
-128 -128 -128 0 0 0 0 0 0 0 0 0 0 0 0 0 0 1:-0.986059 2:-0.679612 3:-1 4:-1 5:-1 6:-0.677802 7:-0.9819 8:-1 9:-1 10:-1 11:-0.460465 12:-1 13:-1 14:-1 15:-1 16:-0.999495 17:-1 18:-0.95949 19:-1 20:-1 21:-0.887221 
-0 -128 -44.13655805406056 0 0 0 0 0 0 0 0 0 0 0 0 0 0 1:-0.963474 2:-0.877023 3:-1 4:-1 5:-1 6:-0.482759 7:-1 8:-1 9:-1 10:-1 11:-0.342636 12:-1 13:-1 14:-1 15:-1 16:-1 17:-1 18:-1 19:-1 20:-1 21:-0.83345 
-0 -0 -128 0.01919378378404727 0 0 0 0 0 0 0 0 0 0 0 0 0 1:-0.984107 2:-0.81877 3:-0.995059 4:-1 5:-1 6:-0.553879 7:-0.040724 8:-1 9:-1 10:-1 11:-0.389147 12:-1 13:-1 14:-1 15:-0.997999 16:-1 17:-1 18:-1 19:-1 20:-1 21:-0.873953 
-128 -128 -128 0 0 0 0 0 0 0 0 0 0 0 0 0 0 1:-0.985222 2:-0.669903 3:-1 4:-0.983437 5:-1 6:-0.8125 7:-0.438914 8:-1 9:-0.94963 10:-1 11:-0.463566 12:-1 13:-1 14:-1 15:-1 16:-0.99714 17:-1 18:-0.960144 19:-1 20:-1 21:-0.873254 
-0 -128 -128 0 0 0 0 0 0 0 0 0 0 0 0 0 0 1:-0.95734 2:-0.79288 3:-1 4:-0.970719 5:-1 6:-0.557112 7:-0.755656 8:-1 9:-0.943704 10:-1 11:-0.40155 12:-1 13:-1 14:-1 15:-1 16:-0.995625 17:-1 18:-0.952957 19:-1 20:-1 21:-0.81669 
-128 -128 -128 0 0 0 0 0 0 0 0 0 0 0 0 0 0 1:-0.961244 2:-0.822006 3:-1 4:-0.983733 5:-1 6:-0.640086 7:-1 8:-1 9:-0.967407 10:-1 11:-0.689922 12:-1 13:-1 14:-1 15:-1 16:-1 17:-1 18:-0.943809 19:-1 20:-1 21:-0.802723 
-0 -0 -128 0 0 0 0 0 0 0 0 0 0 0 0 0 0 1:-0.986616 2:-1 3:-1 4:-1 5:-1 6:-0.627155 7:-0.927602 8:-1 9:-1 10:-1 11:-0.826357 12:-1 13:-1 14:-1 15:-1 16:-1 17:-1 18:-1 19:-1 20:-1 21:-0.766061 
-128 -0 -128 0 0 0 0 0 0 0 0 0 0 0 0 0 0 1:-0.964311 2:-0.517799 3:-1 4:-0.981662 5:-1 6:-0.841595 7:-0.475113 8:-1 9:-0.854815 10:-1 11:-0.609302 12:-1 13:-1 14:-1 15:-1 16:-0.989064 17:-1 18:-0.982359 19:-1 20:-1 21:-0.96683 
-128 -128 -128 0 0 0 0 0 0 0 128 0 0 0 0 0 0 1:-0.974906 2:-0.961165 3:-1 4:-0.956522 5:-1 6:-0.688578 7:-1 8:-1 9:-0.964444 10:-1 11:-0.745736 12:-1 13:-1 14:-1 15:-1 16:-0.981156 17:-1 18:-0.907873 19:-1 20:-1 21:-0.84183 
-128 -128 -128 2.527689432785583 23.37132546228531 0 15.80307462025953 32.17675311293866 128 128 128 8.575477514871142 0.4530793845892335 4.424880668639764 6.895269173875092 69.63427969957326 83.97782359814303 1:-0.973512 2:-0.906149 3:-0.999102 4:-0.953564 5:-1 6:-0.734914 7:-1 8:-1 9:-1 10:-1 11:-0.817054 12:-0.999412 13:-0.980878 14:-1 15:-0.968646 16:-0.978632 17:-1 18:-0.813133 19:-1 20:-1 21:-0.928771 
-128 -128 -128 0 6.254007093370314 0 0 6.008954352537203 108.3341155390252 20.26828653603605 128 4.829908598284915 0 0 0 0 11.94460689064853 1:-0.966541 2:-1 3:-1 4:-0.946761 5:-1 6:-0.756466 7:-1 8:-1 9:-1 10:-1 11:-1 12:-1 13:-1 14:-1 15:-1 16:-0.974426 17:-1 18:-0.909833 19:-1 20:-1 21:-0.892807 
-128 -128 -21.98147342934132 1.569915681266762 0 1.203588429449505 19.54936456455454 0.5507039438375968 0 0 128 7.589008962982454 2.207715089602495 0 0 0 0 1:-0.972675 2:-1 3:-1 4:-0.968944 5:-1 6:-0.511853 7:-1 8:-1 9:-1 10:-1 11:-1 12:-1 13:-1 14:-1 15:-1 16:-0.979137 17:-1 18:-0.923554 19:-1 20:-1 21:-0.769553 
-128 -128 -128 0.460928477836377 0 0 0 0 0 0 0 0 4.71791839717278 3.504524824695778 4.511613195456624 0 0 1:-0.989684 2:-0.783172 3:-1 4:-0.979 5:-1 6:-0.534483 7:-0.665158 8:-1 9:-0.896296 10:-1 11:0.0294574 12:-1 13:-1 14:-1 15:-1 16:-1 17:-1 18:-0.882391 19:-1 20:-1 21:-0.821229 
-39.64296473617896 -128 -41.0849522213765 0 0 0.5729593046266483 0 0 0 0 128 0 0 4.689599209220422 0 0 0 1:-0.962359 2:-0.909385 3:-1 4:-0.997338 5:-1 6:-0.451509 7:-0.99095 8:-1 9:-0.937778 10:-1 11:-0.705426 12:-1 13:-1 14:-1 15:-1 16:-1 17:-1 18:-0.956877 19:-1 20:-1 21:-0.630587 
-107.1694198103756 -0 -128 0 0 0 0 0 0 0 0 0 0 0 0 0 0 1:-0.949254 2:-0.656958 3:-0.996182 4:-0.997338 5:-1 6:-0.780172 7:-0.628959 8:-0.874439 9:-1 10:-1 11:-0.817054 12:-1 13:-1 14:-1 15:-1 16:-1 17:-1 18:-0.992159 19:-1 20:-1 21:-0.967877 
-128 -128 -128 0 0 0 0 0 128 80.46329722740377 64.04058020556845 0 0 0 5.109945437224094 0 0 1:-0.968772 2:-0.854369 3:-1 4:-0.948536 5:-1 6:-0.837284 7:-0.882353 8:-1 9:-0.736296 10:-1 11:-0.748837 12:-1 13:-1 14:-1 15:-1 16:-0.984184 17:-1 18:-0.893499 19:-1 20:-1 21:-0.903282 
-128 -128 -128 0 0 0 0 0 0 0 0 0 0 0 0 0 0 1:-0.962916 2:-0.537217 3:-1 4:-0.988465 5:-1 6:-0.715517 7:-0.574661 8:-1 9:-0.851852 10:-1 11:-0.593798 12:-1 13:-1 14:-1 15:-1 16:-0.996635 17:-1 18:-0.949036 19:-1 20:-1 21:-0.885126 
-0 -0 -0 0.2681190635609145 0.2783192328177507 1.164899232865971 0.4388859759451658 0 0 0 0 0 0.1127606594753328 0.1472782514717164 0.1159253323125849 0.2398231606111544 0 1:-0.972675 2:-0.640777 3:-1 4:-0.974564 5:-0.348485 6:-0.851293 7:-0.873303 8:-1 9:-0.931852 10:0.454545 11:-0.6 12:-1 13:-1 14:-1 15:-1 16:-0.994111 17:-1 18:-0.977785 19:-1 20:-0.625 21:-0.974162 
-0 -128 -0 0 0 0 0 0 0 0 0 0 0 0 0 0 0 1:-0.979925 2:-0.566343 3:-1 4:-0.999113 5:-1 6:-0.632543 7:-0.710407 8:-1 9:-0.798519 10:-1 11:-0.125581 12:-1 13:-1 14:-1 15:-1 16:-1 17:-1 18:-0.958837 19:-1 20:-1 21:-0.846369 
-40.89555797205443 -121.6135498775198 -90.317760843651 0.2088657604951094 1.710319757474207 2.443449778213746 0 0 1.748224584443893 0 15.77527797614525 0 0 0 0 0.7625507028339865 7.709676558705746 1:-0.973791 2:-0.320388 3:-0.992139 4:-0.975155 5:-1 6:-0.854526 7:-0.0769231 8:-0.515695 9:-0.837037 10:-1 11:-0.488372 12:-1 13:-0.99287 14:-1 15:-0.976651 16:-0.999832 17:-1 18:-0.962757 19:-1 20:-1 21:-0.974162 
-128 -128 -128 0 0 0 0 0 0 0 0 0 0 2.182942073967504 0 20.58465996620177 0 1:-0.943399 2:-0.631068 3:-0.985177 4:-0.970127 5:-1 6:-0.639009 7:-0.99095 8:-0.946188 9:-0.976296 10:-1 11:-0.631008 12:-1 13:-0.994166 14:-1 15:-0.984656 16:-0.996298 17:-1 18:-0.898726 19:-1 20:-1 21:-0.921788 
-0 -115.0386742343532 -128 0 0 0 0 0 0 0 0 0 0 0 0 0 0 1:-0.976021 2:-0.932039 3:-1 4:-0.992606 5:-1 6:-0.616379 7:-0.9819 8:-1 9:-1 10:-1 11:-0.736434 12:-1 13:-1 14:-1 15:-1 16:-1 17:-1 18:-0.979092 19:-1 20:-1 21:-0.852304 
-0 -56.73276105841061 -128 0 0 0 0 0 0 0 0 0 0 0 0 0 0 1:-0.960965 2:-0.87055 3:-1 4:-0.977226 5:-1 6:-0.802802 7:-0.972851 8:-1 9:-0.917037 10:-1 11:-0.860465 12:-1 13:-1 14:-1 15:-1 16:-0.994952 17:-1 18:-0.969291 19:-1 20:-1 21:-0.960196 
-128 -128 -128 0 0 0 0 0 0 0 0 0 0 0 0 3.005165760713642 0 1:-0.973233 2:-0.530744 3:-0.98922 4:-0.966282 5:-1 6:-0.735991 7:-0.339367 8:-0.991031 9:-0.771852 10:-1 11:-0.283721 12:-1 13:-0.988657 14:-1 15:-0.997999 16:-0.976781 17:-1 18:-0.922901 19:-1 20:-1 21:-0.912709 
-0 -128 -128 0 0 0 0 0 0 0 0 0 0 0 0 0 0 1:-0.989962 2:-0.744337 3:-1 4:-0.984324 5:-1 6:-0.758621 7:-0.457014 8:-1 9:-0.911111 10:-1 11:-0.153488 12:-1 13:-1 14:-1 15:-1 16:-0.997813 17:-1 18:-0.979745 19:-1 20:-1 21:-0.925978 
-0 -128 -128 0 0 0 0 0 0 0 0 0 0 0 0 0 0 1:-0.989962 2:-0.744337 3:-1 4:-0.984324 5:-1 6:-0.758621 7:-0.457014 8:-1 9:-0.911111 10:-1 11:-0.153488 12:-1 13:-1 14:-1 15:-1 16:-0.997813 17:-1 18:-0.979745 19:-1 20:-1 21:-0.925978 
-11.86113906913443 -5.287876647342856 -0 0.3877434849636076 0 0 0 0 0 0 0 0 0.7179704887164563 0 0 1.658638138932824 0 1:-0.968214 2:-0.18123 3:-1 4:-0.984324 5:-0.954545 6:-0.822198 7:0.0950226 8:-1 9:-0.828148 10:-0.69697 11:-0.386047 12:-1 13:-1 14:-1 15:-1 16:-0.991756 17:-1 18:-0.979745 19:-1 20:-0.725 21:-0.952514 
-128 -76.57912185385945 -128 0 0 0 0 0 52.89357238143828 0 0 0 0 0 0 0 0 1:-0.961244 2:-0.967638 3:-1 4:-0.962733 5:-1 6:-0.885776 7:-1 8:-1 9:-0.97037 10:-1 11:-0.91938 12:-1 13:-1 14:-1 15:-1 16:-0.985867 17:-1 18:-0.993466 19:-1 20:-1 21:-0.964036 
-0 -128 -128 0 0 0 0 0 0 0 0 0 0 0 0 0 0 1:-0.990799 2:-0.841424 3:-1 4:-1 5:-1 6:-0.742457 7:-0.800905 8:-1 9:-1 10:-1 11:-0.643411 12:-1 13:-1 14:-1 15:-1 16:-1 17:-1 18:-1 19:-1 20:-1 21:-0.872905 
-0 -128 -128 0 0 0 0 0 0 0 0 0 0 0 0 0 0 1:-0.990799 2:-0.841424 3:-1 4:-1 5:-1 6:-0.742457 7:-0.800905 8:-1 9:-1 10:-1 11:-0.643411 12:-1 13:-1 14:-1 15:-1 16:-1 17:-1 18:-1 19:-1 20:-1 21:-0.872905 
-9.035718817999022 -0 -1.348008841376346 0 0 0 0 0 0 0 0.01047726813486409 0 0 0 0 0 0 1:-0.982155 2:-0.857605 3:-0.966311 4:-0.941733 5:-0.984848 6:-0.948276 7:-1 8:-0.847534 9:-0.940741 10:-0.545455 11:-0.950388 12:-0.994475 13:-0.948793 14:-0.846154 15:-1 16:-0.971734 17:-0.911765 18:-0.958184 19:-1 20:-1 21:-0.999302 
-2.729195604451948 -56.08545177646265 -36.42326965580312 0 0 0 0 1.577849122190682 18.21736827093524 0 20.3636343578761 0 0 0 0 0 3.489425038284572 1:-0.982155 2:-0.857605 3:-0.966311 4:-0.941733 5:-0.984848 6:-0.948276 7:-1 8:-0.847534 9:-0.940741 10:-0.545455 11:-0.950388 12:-0.994475 13:-0.948793 14:-0.846154 15:-1 16:-0.971734 17:-0.911765 18:-0.958184 19:-1 20:-1 21:-0.999302 
-126.3678447067377 -87.24013599592409 -0 0 0 0 0 0 0 0 0 0 0 0 0 0 0 1:-0.972396 2:-0.990291 3:-1 4:-0.941437 5:-1 6:-0.570043 7:-1 8:-1 9:-0.955556 10:-1 11:-0.956589 12:-1 13:-1 14:-1 15:-1 16:-0.972239 17:-1 18:-0.956223 19:-1 20:-1 21:-0.89595 
-128 -128 -128 0 0 0 0 0 0 0 0 0 0 0 0 0 0 1:-0.955109 2:-0.592233 3:-1 4:-0.981071 5:-1 6:-0.724138 7:-0.891403 8:-1 9:-0.961481 10:-1 11:-0.581395 12:-1 13:-1 14:-1 15:-1 16:-0.994616 17:-1 18:-0.964064 19:-1 20:-1 21:-0.951816 
-19.16295831424239 -128 -0 0 0 0 0 0 0 0 0 0 0 0 0 0 0 1:-0.950648 2:-0.420712 3:-1 4:-0.99024 5:-1 6:-0.577586 7:-0.954751 8:-1 9:-0.982222 10:-1 11:-0.404651 12:-1 13:-1 14:-1 15:-1 16:-1 17:-1 18:-0.988239 19:-1 20:-1 21:-0.853701 
-87.98258557842203 -0 -128 0 0 0 0 0 0 0 0 0 0 0 0 0 0 1:-0.984665 2:-1 3:-0.996182 4:-0.99231 5:-1 6:-0.645474 7:-1 8:-1 9:-1 10:-1 11:-1 12:-1 13:-0.999352 14:-1 15:-0.992662 16:-0.997813 17:-1 18:-0.968638 19:-1 20:-1 21:-0.880237 
-78.48818515229384 -128 -38.94322942992388 0 0 0 0 0 0 0 0 0 0 0 0 0 0 1:-0.982155 2:-0.873786 3:-0.999775 4:-1 5:-1 6:-0.702586 7:-1 8:-1 9:-0.84 10:-1 11:-0.885271 12:-1 13:-1 14:-1 15:-0.982655 16:-0.997476 17:-1 18:-0.943809 19:-1 20:-1 21:-0.894553 
-0 -0 -0 -0 0 3.877066539452806 0 0 0 0 0 0 0 0 0 0 0 1:-0.558344 2:-1 3:0.204043 4:-0.711328 5:-1 6:-0.41056 7:-1 8:-1 9:-1 10:-1 11:-1 12:0.456651 13:0.123643 14:-1 15:-0.48032 16:-0.859847 17:-1 18:-0.667429 19:-1 20:-1 21:-0.65852 
-3.625207434189549 -3.618247837288756 -3.333619761272365 -3.17315646726355 4.8222244378101 0.2847345372462212 11.43189265290871 12.84060331754474 4.677350740377606 7.618724363807635 4.287325699530814 3.725187394230054 3.08561941457267 4.974060027157904 4.02219920457931 4.90190839593123 4.335667488552701 1:-0.625819 2:-0.789644 3:-0.868838 4:-0.824904 5:-1 6:-0.455819 7:-0.701357 8:-1 9:-1 10:-1 11:-0.674419 12:-0.392817 13:-0.205639 14:-1 15:-0.561708 16:-0.666358 17:-1 18:-0.285854 19:-1 20:-1 21:-0.545042 
-0 -0 -0 -0 0 0 0 0 0 0 0 0.3065296977387174 0.852637924985027 2.621058430914319 1.261379319394994 0 0 1:-0.64701 2:-1 3:-0.703987 4:0.225081 5:-1 6:-0.674569 7:-1 8:-1 9:-1 10:-1 11:-1 12:-0.836596 13:0.129477 14:-1 15:-0.940627 16:0.0434929 17:-1 18:-0.233584 19:-1 20:-1 21:-0.803771 
-0 -0 -0 -0 1.049471040521659 0 0 6.078838590933824 0 0 0 0.6015041416011672 0 0 0 0 0 1:-0.368186 2:-0.770227 3:-0.728243 4:-0.688258 5:-1 6:0.46444 7:-1 8:-1 9:-1 10:-1 11:-0.699225 12:-0.513901 13:0.083779 14:-1 15:-0.863242 16:-0.481787 17:-1 18:0.0578242 19:-1 20:-1 21:-0.40852 
-0 -0 -0 -0 0 1.786859174701698 0 8.546398784297283 0 0 0 0 0 0 0 0 0 1:-0.518193 2:-1 3:-0.811791 4:-0.735285 5:-1 6:0.044181 7:-1 8:-1 9:-1 10:-1 11:-0.76124 12:-0.583377 13:-0.0688705 14:-1 15:-0.520347 16:-0.553294 17:-1 18:-0.486442 19:-1 20:-1 21:-0.0939246 
-0 -0 -0 -0 4.091363414522687 0 2.334258180122733 2.248455321373083 0 0.9709045099904176 0 3.122962031279137 5.007771319250861 4.196009008880486 1.596433133625506 0.3262845917817908 0 1:-0.551931 2:-1 3:-0.905896 4:-0.536528 5:-1 6:-0.0387931 7:-0.954751 8:-1 9:-0.777778 10:-1 11:-0.44186 12:-0.664727 13:-0.282774 14:-1 15:-0.681121 16:-0.0904349 17:-1 18:-0.312643 19:-1 20:-1 21:-0.023743 
-2.029070847426822 -2.098531261510007 -2.194126383938587 -2.269299217428851 0.9919472219509669 0 10.30634577923428 4.665332276708756 4.48062157423684 3.255088343706733 2.804646742438799 6.502131226893635 1.972712352263182 4.285902674569348 8.251334994015975 2.690662098820345 3.915624085690601 1:-0.850272 2:-1 3:-0.692532 4:-0.438628 5:-1 6:-0.65194 7:-1 8:-1 9:-1 10:-1 11:-1 12:-0.76806 13:-0.0607681 14:-1 15:-0.748499 16:-0.12846 17:-1 18:-0.673309 19:-1 20:-1 21:-0.906425 
-0 -0 -0 -0 0.4292792696817874 0 0 0.5270019590022518 0 0 0 0 0 0 0 0 0 1:-0.75603 2:-1 3:-0.358113 4:-0.602189 5:-1 6:-0.554957 7:-1 8:-1 9:-1 10:-1 11:-1 12:-0.379416 13:-0.129477 14:-1 15:-0.598399 16:-0.543367 17:-1 18:-0.651094 19:-1 20:-1 21:-0.767458 
-0 -0 -0 -0 0 14.39387990751789 0 0 0 0 0 0 0 0 0 0 0 1:-0.243552 2:-0.97411 3:-0.0829871 4:-0.536823 5:-1 6:0.380388 7:-1 8:-1 9:-1 10:-1 11:-0.72093 12:0.0856404 13:0.10128 14:-1 15:-0.557705 16:-0.609826 17:-1 18:-0.13231 19:-1 20:-1 21:-0.311453 
-0 -0 -0 -0 0 5.49342091297039 0 0 0 0 0 0 0 0 0 0 0 1:-0.237139 2:-0.854369 3:-0.193038 4:-0.392783 5:-1 6:0.0484914 7:-1 8:-1 9:-1 10:-1 11:-0.854264 12:-0.153706 13:0.125263 14:-1 15:-0.229486 16:-0.613864 17:-1 18:-0.174779 19:-1 20:-1 21:-0.519204 
-0 -0 -0 -0 1.457476102760189 1.957428183638641 0 1.363898124126457 0 0 0 1.655925679216149 1.940568746269975 0 0.3138042244825086 0.4023699066847922 0 1:-0.0517217 2:-0.508091 3:-0.662886 4:0.555161 5:-1 6:0.184267 7:-0.60181 8:-0.874439 9:-0.813333 10:-1 11:-0.581395 12:-0.97496 13:0.288608 14:-1 15:-0.877919 16:0.131993 17:-1 18:1 19:-1 20:-1 21:-0.523045 
-1.245783881027355 -5.95725809181089 -0.726394927597271 -0.09842633756563773 -0 0 0 0 0 0 0 0 0 0 0 0 17.29650638535306 1:-0.55695 2:-0.990291 3:-0.888153 4:-0.810115 5:-1 6:-0.996767 7:-1 8:-0.659193 9:-0.831111 10:-1 11:-0.913178 12:-0.933463 13:-0.868093 14:-1 15:-0.952635 16:-0.7239 17:-1 18:-0.950343 19:-1 20:-1 21:-0.993366 
-7.01937277076184 -2.063610585578022 -6.006014840037012 -8.534759364681342 -1.157437939539702 3.139044294753301 0.737279095421808 0 0 0 0 0 0 0 0 0 0 1:-0.513174 2:-1 3:-0.89781 4:-0.874889 5:-1 6:-1 7:-1 8:-1 9:-1 10:-1 11:-1 12:-0.886557 13:-0.729703 14:-1 15:-1 16:-0.844031 17:-1 18:-0.897419 19:-1 20:-1 21:-0.994413 
-13.51502152589977 -11.07770975369174 -0.7902535769308965 -14.1886249395718 -0 0 46.3626744007811 5.34872907023715 36.22641062226647 59.27580883560646 16.39687105530168 16.3097271577485 7.38080649023608 31.07367807544998 42.45379360965752 60.19279428585031 0 1:-0.582044 2:-0.967638 3:-0.953958 4:-0.832298 5:-1 6:-0.534483 7:-1 8:-1 9:-1 10:-1 11:-0.813953 12:-0.977076 13:-0.937449 14:-1 15:-0.970647 16:-0.746446 17:-1 18:-0.601437 19:-1 20:-1 21:-0.850209 
-8.938405006807514 -8.078513027305432 -6.834435075269802 -4.191133424480227 -0 0 0 0 12.49592832467454 0.7887412749332422 5.983924843753926 0 0 0 0 0 0 1:-0.538269 2:-0.669903 3:-0.946098 4:-0.842354 5:-1 6:-0.807112 7:-0.520362 8:-0.632287 9:-0.712593 10:-1 11:-0.578295 12:-0.965791 13:-0.922541 14:-1 15:-1 16:-0.833768 17:-1 18:-0.633453 19:-1 20:-1 21:-0.890014 
-0.5429920250653669 -0 -0 -0 -0 0 0 0 0 0 0 0 0 0 0 0 7.1195802950515 1:-0.569776 2:-1 3:-0.928355 4:-0.872227 5:-1 6:-0.828664 7:-1 8:-1 9:-1 10:-1 11:-1 12:-0.958267 13:-0.922217 14:-1 15:-0.965977 16:-0.712627 17:-1 18:-0.732114 19:-1 20:-1 21:-0.914455 
-0 -0 -2.850655550614059 -0 -0 0 0 11.59190405476962 0 25.69081966374341 0 0 0 0 0 0 0 1:-0.545797 2:-1 3:-0.924761 4:-0.879621 5:-1 6:-0.756466 7:-1 8:-1 9:-0.94963 10:-1 11:-0.882171 12:-0.921472 13:-0.868417 14:-1 15:-0.895931 16:-0.863885 17:-1 18:-0.579222 19:-1 20:-1 21:-0.863478 
-0 -0 -0 -0 -1.683093330803929 4.340972724494909 0 2.358319664675611 0 0 0 0 0 0 0 0 0 1:0.243552 2:-0.935275 3:-0.653902 4:-0.609879 5:-1 6:-0.0517241 7:-1 8:-0.0493274 9:-0.792593 10:-1 11:-0.0542636 12:-0.728913 13:-0.702155 14:-1 15:-0.468312 16:-0.391941 17:-1 18:0.0774257 19:-1 20:-1 21:-0.0848464 
-0 -0 -0 -0 -4.899001342525422 4.286943097756973 15.21720081680001 15.55520291702407 0 0 0 1.81650155753794 4.415135286103851 6.864051499436732 4.126483864438693 0 0 1:0.102468 2:-0.802589 3:-0.852892 4:-0.401361 5:-1 6:0.329741 7:-0.773756 8:-0.991031 9:-0.674074 10:-1 11:-0.652713 12:-0.868571 13:-0.626965 14:-1 15:-0.873916 16:-0.610162 17:-1 18:-0.170859 19:-1 20:-1 21:-0.257332 
-0 -0 -0 -0 -0 0 1.251964445354964 0 0 0 0 0 0 0 0 0 0 1:-0.375157 2:-1 3:-0.931499 4:-0.736469 5:-1 6:-0.588362 7:-1 8:-1 9:-1 10:-1 11:-1 12:-0.967907 13:-0.821423 14:-1 15:-0.97932 16:-0.751325 17:-1 18:-0.13231 19:-1 20:-1 21:-0.778631 
-0 -0 -0 -0 -0 0 4.596996580258677 0 0 16.00385092505515 8.107812949260774 0 0 0 0 0 0 1:-0.516799 2:-0.796117 3:-0.926109 4:-0.786454 5:-1 6:-0.469828 7:-1 8:-0.775785 9:-0.715556 10:-1 11:-0.848062 12:-0.97884 13:-0.951386 14:-1 15:-0.979987 16:-0.795743 17:-1 18:-0.463574 19:-1 20:-1 21:-0.698673 
-0 -0.4576199687719218 -15.51515779894466 -4.601027479648572 -0 0 0 0 33.7388079443868 0 46.00443004525751 25.86152380975226 0 0 0 82.65972253282574 128 1:-0.609368 2:-1 3:-0.976418 4:-0.789411 5:-1 6:-0.917026 7:-1 8:-1 9:-1 10:-1 11:-1 12:-0.990125 13:-0.942959 14:-1 15:-1 16:-0.659965 17:-1 18:-0.722313 19:-1 20:-1 21:-0.978352 
-0 -7.84744665501895 -0 -0 -0 0 0 0 0 0 0 0 0 0 0 63.92971442423779 0 1:-0.591524 2:-1 3:-0.949017 4:-0.853298 5:-1 6:-0.753233 7:-1 8:-1 9:-1 10:-1 11:-1 12:-0.964028 13:-0.964349 14:-1 15:-0.998666 16:-0.763607 17:-1 18:-0.5459 19:-1 20:-1 21:-0.930168 
-0 -0 -0 -0 -3.113260567725042 0 0 12.74298657325774 0 0 0 0 0 0 0 0 0 1:-0.209257 2:-0.980583 3:-0.822122 4:-0.729962 5:-1 6:-0.761853 7:-1 8:-1 9:-0.881481 10:-1 11:-0.829457 12:-0.868101 13:-0.695349 14:-1 15:-0.802535 16:-0.592664 17:-1 18:-0.67723 19:-1 20:-1 21:-0.880587 
-0 -0 -0 -0 -0.2653547991168301 1.504947488422159 0 0 0 0.1450888965899776 0 0 0.02705146026581396 0 0 0 0 1:-0.131744 2:-0.957929 3:-0.848624 4:-0.721976 5:1 6:-0.470905 7:-1 8:-0.793722 9:-0.62963 10:-1 11:-0.544186 12:-0.87727 13:-0.872954 14:0.346154 15:-0.96531 16:-0.839489 17:-1 18:-0.0336491 19:-1 20:-0.6125 21:-0.732542 
-0 -0 -0 -0 -0.5771418524819681 0 0.9176983672953591 1.145296390901538 0 0 0 2.209734373117522 4.538512506102543 0 3.980608130453262 0 0 1:-0.27255 2:-0.980583 3:-0.923189 4:-0.666075 5:-1 6:-0.572198 7:-1 8:-0.650224 9:-0.816296 10:-1 11:-0.925581 12:-0.963087 13:-0.821099 14:-1 15:-0.984656 16:-0.478422 17:-1 18:0.143417 19:-1 20:-1 21:-0.503841 
-0 -0 -0 -0 -0 0 24.09357933913162 7.436508844259103 0 0 0 11.80321766229395 0 0 0 0 0 1:-0.493936 2:-0.970874 3:-0.955531 4:-0.819284 5:-1 6:-0.549569 7:-1 8:-1 9:-0.905185 10:-1 11:-0.953488 12:-0.982249 13:-0.930643 14:-1 15:-1 16:-0.720535 17:-1 18:-0.445279 19:-1 20:-1 21:-0.592528 
-0 -0 -0 -0 -0 0 1.166066000526015 30.81061610044051 0 9.593209453768008 0 0 0 8.176971783909904 0 0 0 1:-0.348947 2:-0.472492 3:-0.923638 4:-0.746525 5:-1 6:-0.517241 7:-1 8:-1 9:-0.768889 10:-1 11:-0.652713 12:-0.965203 13:-0.799384 14:-1 15:-0.959306 16:-0.853117 17:-1 18:-0.504084 19:-1 20:-1 21:-0.450768 
-0 -0 -0 -0 -0.6537129636674717 0 14.92456654805428 4.761891222179624 0 0 0 0 0 0 0 0 0 1:-0.372647 2:-1 3:-0.909714 4:-0.820172 5:-1 6:-0.413793 7:-1 8:-1 9:-1 10:-1 11:-1 12:-0.935108 13:-0.923189 14:-1 15:-1 16:-0.752503 17:-1 18:0.221823 19:-1 20:-1 21:-0.544693 
-0 -0 -0 -0 -0.4927586913870231 0.1045849089568032 0 0 0.002009893137360271 1.372234580986525 0.5503302367984745 0.05233947986889074 2.106559613612753 2.7776804321391 1.48844999232718 10.8308663729387 6.891375041630751 1:-0.508156 2:-0.0744337 3:-0.980685 4:-0.748299 5:-1 6:-0.65194 7:-0.248869 8:-0.802691 9:-0.677037 10:-1 11:-0.327132 12:-0.997061 13:-0.988981 14:-1 15:-0.998666 16:-0.761252 17:-1 18:-0.215943 19:-1 20:-1 21:-0.808659 
-0 -0 -0 -0 -0 0 11.75428387871397 40.51141267919731 -0 0 0 0 6.267893638907892 10.84535232921993 0 0 0 1:-0.427576 2:-0.760518 3:-0.908815 4:-0.790299 5:-1 6:-0.304957 7:-1 8:-0.964126 9:-0.988148 10:-1 11:-0.708527 12:-0.97355 13:-0.923189 14:-1 15:-0.921948 16:-0.793556 17:-1 18:-0.187194 19:-1 20:-1 21:-0.690992 
-1.556651144623331 -1.852070470837694 -2.010079728761692 -1.86239660217165 -0.305098621374929 -3.818046929976061 2.170162072447812 4.786114388425132 2.197049625520523 3.183320478593783 1.940426386970194 1.035845429547422 0.5353798790160263 1.863785548658391 1.16466609163703 2.867713662086005 2.199595137024184 1:0.0135229 2:-0.805825 3:-0.398316 4:-0.744454 5:-1 6:-0.53556 7:-0.927602 8:-0.219731 9:-0.896296 10:-1 11:-0.510078 12:-0.0240404 13:-0.51742 14:-1 15:-0.372248 16:-0.935896 17:-1 18:-0.76609 19:-1 20:-1 21:-0.614176 
-0.07915412027792494 -0 -0 -0 -7.687165051302849 -1.359186408867325 0.7477883104997569 2.261562851115787 0 0.3172496393921791 0 1.715139270682474 1.423190021882248 1.444691057372584 1.367312420460841 0.7122927541938721 0.4897327147316066 1:0.112226 2:-0.909385 3:0.19708 4:-0.682047 5:-1 6:0.259698 7:-1 8:-1 9:-0.940741 10:-1 11:-0.792248 12:-0.143008 13:-0.365743 14:-1 15:-0.809873 16:-0.777572 17:-1 18:-0.128389 19:-1 20:-1 21:-0.532821 
-0 -0 -0.05215374058866471 -0 -0 -0 0 0 0 0 0 0 0 0 0 0 0 1:0.410289 2:-0.711974 3:0.520943 4:-0.563739 5:-1 6:0.877155 7:-0.764706 8:-0.748879 9:-0.798519 10:-1 11:0.888372 12:0.0729442 13:-0.249392 14:-1 15:0.525017 16:-0.833095 17:-1 18:-0.157792 19:-1 20:-1 21:1 
-1.381134202683032 -1.443665585134308 -1.582326847305547 -1.590707114663274 -0 -1.389137978054235 1.129162635726394 1.265851337376315 0.7138149153100032 1.408572497592842 0.7878940107710315 1.304430712663656 1.079664096666043 1.78447427420941 0.7391580101178272 2.784479980395356 1.621387661308971 1:-0.260839 2:1 3:-0.952386 4:-0.866016 5:-1 6:-0.186422 7:0.266968 8:0.345291 9:-0.751111 10:-1 11:-0.807752 12:-0.982602 13:-0.896613 14:-1 15:-0.81521 16:-0.887272 17:-1 18:-0.736034 19:-1 20:-1 21:-0.67074 
-1.495344989324772 -1.540716701864462 -1.690857598065962 -1.734749713945388 -0.4038781310334699 -2.419157872181772 1.835540418980151 1.78295245477311 1.531615023454911 2.111296967691673 3.77732500262813 1.483593491807627 1.332625555121861 1.261922529317408 1.46607256336603 2.004799291456271 1.489175269545376 1:-0.538269 2:-1 3:-0.970578 4:-0.805679 5:-0.242424 6:-0.525862 7:-1 8:-1 9:-1 10:-1 11:-1 12:-0.996003 13:-0.976989 14:-1 15:-0.978652 16:-0.891142 17:-1 18:-0.630186 19:-1 20:1 21:-0.649441 
-0 -0 -0 -0 -0 -3.971335253589385 0 0.7303896536328127 0 0 0 0.4176706599917784 0.6822192470774566 0.4947812382095017 0 0 0 1:0.749338 2:-0.990291 3:-0.604941 4:-0.357587 5:-1 6:0.435345 7:-1 8:-1 9:-0.831111 10:-1 11:-0.820155 12:-0.119497 13:-0.47788 14:-1 15:-0.448966 16:-0.604778 17:-1 18:0.00228683 19:-1 20:-1 21:0.207751 
-0 -0 -0 -0 -0 -0.4196280717153656 0 0 0 0 0 0.1760910881145985 0.1108487222924956 0.06479337528966772 0 0.232260807993703 0 1:0.255542 2:0.0453074 3:0.079169 4:-0.325939 5:-1 6:0.453664 7:0.20362 8:-0.309417 9:-0.475556 10:-1 11:1 12:-0.107859 13:-0.0409982 14:-1 15:-0.268179 16:-0.685539 17:-1 18:-0.387782 19:-1 20:-1 21:0.197626 
-0 -0 -0 -0 -6.960502455700121 -0 0 0 0 0 0 0.2052814968565523 0.1083130723773381 0 0.02793697471450526 0 0 1:0.296807 2:-0.200647 3:0.22201 4:0.0354925 5:-1 6:-0.244612 7:-1 8:-0.865471 9:-0.943704 10:-1 11:-0.40155 12:-0.0941045 13:0.491168 14:-1 15:-0.515677 16:-0.255321 17:-1 18:0.347272 19:-1 20:-1 21:-0.173184 
-0.4650241358369425 -0.38533183978796 -0.1504661279267199 -0.1970433143755576 -12.43674499611627 -0 2.158324046037627 2.583871996131311 0.8096929774537027 0.4296627309029094 0.5140746812834308 0 0.1449637611949663 0 0.419728663517185 0 0 1:-0.2416 2:-1 3:-0.107692 4:-0.805679 5:-1 6:0.176724 7:-1 8:-1 9:-1 10:-1 11:-1 12:-0.0146359 13:-0.387782 14:-1 15:-0.21014 16:-0.960798 17:-1 18:-0.450506 19:-1 20:-1 21:-0.0384078 
-0 -0 -0.00897750959635968 -0 -0 -0 0 0 0 0 0 0 0 0 0 0 0 1:0.237139 2:-0.864078 3:0.797642 4:-0.811003 5:-1 6:0.0226293 7:-1 8:-1 9:-0.614815 10:-1 11:0.795349 12:0.28008 13:-0.638632 14:-1 15:0.210807 16:-0.902246 17:-1 18:0.450506 19:-1 20:-1 21:0.327514 
-0 -0 -0.07181839487470527 -0 -0 -0 0 0 0 0 0 0 0 0 0 0.1939913185706325 0 1:0.944514 2:-0.501618 3:0.708254 4:-0.342798 5:-0.80303 6:0.292026 7:-1 8:0.533632 9:-0.602963 10:-1 11:0.0883721 12:0.305825 13:-0.273051 14:1 15:0.0446965 16:-0.553125 17:0.323529 18:-0.409343 19:-1 20:-1 21:-0.00418994 
-0 -0 -0 -0 -0 -0 -0 0 0 0 0 70.43515421887767 13.48923861195028 0 128 0 0 1:-0.854454 2:-0.886731 3:-0.851769 4:-0.527063 5:-1 6:-0.519397 7:-1 8:-1 9:-0.991111 10:-1 11:-0.696124 12:-0.891495 13:-0.597796 14:-1 15:-0.901268 16:-0.541348 17:-1 18:-0.734074 19:-1 20:-1 21:-0.70845 
-0 -0 -0 -0 -0 -0 -0 59.38092766403631 0 0 0 0 0 0 0 0 0 1:-0.849714 2:-1 3:-0.814037 4:-0.736469 5:-1 6:-0.570043 7:-1 8:-1 9:-1 10:-1 11:-1 12:-0.806148 13:-0.466861 14:-1 15:-0.907939 16:-0.715824 17:-1 18:-0.700751 19:-1 20:-1 21:-0.842179 
-0 -0 -0 -0 -0 -0 -0 94.85715641216864 0 0 0 0 0 0 0 0 0 1:-0.807612 2:-1 3:-0.958001 4:-0.600118 5:-1 6:-0.520474 7:-1 8:-1 9:-1 10:-1 11:-1 12:-0.994005 13:-0.758224 14:-1 15:-0.867245 16:-0.55077 17:-1 18:-0.597517 19:-1 20:-1 21:-0.77933 
-0 -0 -0 -0 -0 -0 -0 0 0 0 0 128 44.80715131874916 128 44.17949478211334 0 0 1:-0.652028 2:-0.954693 3:-0.925211 4:-0.466726 5:-1 6:-0.0862069 7:-0.936652 8:-1 9:-1 10:-1 11:-0.658915 12:-0.992124 13:-0.732296 14:-1 15:-0.996664 16:-0.490704 17:-1 18:-0.288468 19:-1 20:-1 21:-0.769553 
-0 -0 -0 -0 -0 -3.891026699230838 -0 0 0 0 0 0 0 0 0 0 0 1:-0.769971 2:-0.770227 3:-0.967209 4:-0.788524 5:-1 6:0.00431034 7:-1 8:-1 9:-0.991111 10:-1 11:-0.522481 12:-1 13:-0.840869 14:-1 15:-0.993996 16:-0.662993 17:-1 18:-0.164325 19:-1 20:-1 21:-0.827165 
-0 -0 -0 -0 -0 -0 -0 0 0 0 0 0 0 0 62.6378198813543 0 0 1:-0.830475 2:-0.951456 3:-0.943178 4:-0.534457 5:-1 6:-0.405172 7:-1 8:-1 9:-0.997037 10:-1 11:-0.817054 12:-0.954388 13:-0.675579 14:-1 15:-1 16:-0.538656 17:-1 18:-0.411303 19:-1 20:-1 21:-0.817388 
-0 -0 -0 -0 -0 -0 -0 0 0 0 0 0 0 0 0 0 5.921686982759947 1:-0.867559 2:-1 3:-0.963167 4:-0.726117 5:-1 6:-0.564655 7:-1 8:-1 9:-1 10:-1 11:-1 12:-0.956034 13:-0.808459 14:-1 15:-0.864576 16:-0.283924 17:-1 18:-0.719699 19:-1 20:-1 21:-0.814944 
-0 -0 -0 -0 -0 -0 -0 0 0 0 0 63.86453516875904 69.54796993158661 0 0 0 0 1:-0.726474 2:-0.433657 3:-1 4:-0.526471 5:-1 6:0.193966 7:-1 8:-1 9:-1 10:-1 11:-0.531783 12:-1 13:-1 14:-1 15:-1 16:-0.20535 17:-1 18:-0.225743 19:-1 20:-1 21:-0.292598 
-0 -0 -0 -0 -0 -0 -0 17.51611511644782 0 0 0 128 0 0 0 0 0 1:-0.591245 2:-0.94822 3:-0.976193 4:-0.483881 5:-1 6:-0.0355603 7:-1 8:-1 9:-0.86963 10:-1 11:-0.990698 12:-0.984835 13:-0.635715 14:-1 15:-0.954636 16:-0.400353 17:-1 18:-0.434825 19:-1 20:-1 21:-0.681564 
-0 -0 -0 -0 -0.3135065365313576 -0 -0 0 0 0 0 0 0 0 0 0 0 1:-0.711697 2:-1 3:-0.92027 4:-0.716356 5:-1 6:0.0625 7:-1 8:-1 9:-1 10:-1 11:-1 12:-0.946276 13:-0.534921 14:-1 15:-0.951968 16:-0.652225 17:-1 18:0.0192747 19:-1 20:-1 21:-0.671089 
-0 -0 -0 -0 -0 -0 -0 37.26041855658013 0 26.53198451534653 0 0 0 0 0 0 0 1:-0.846368 2:-1 3:-0.869736 4:-0.67554 5:-1 6:-0.505388 7:-1 8:-1 9:-1 10:-1 11:-1 12:-0.917122 13:-0.61789 14:-1 15:-1 16:-0.753512 17:-1 18:-0.781771 19:-1 20:-1 21:-0.75419 
-0 -0 -0 -0 -0 -0 -0 128 0 0 0 0 0 0 0 0 0 1:-0.82713 2:-0.831715 3:-0.803481 4:-0.6084 5:-1 6:-0.679957 7:-1 8:-1 9:-0.973333 10:-1 11:-0.742636 12:-0.791336 13:-0.57835 14:-1 15:-0.963976 16:-0.762598 17:-1 18:-0.695524 19:-1 20:-1 21:-0.863128 
-0 -4.510122837707564 -0 -1.755338542139613 -0 -0 -0 0 0 24.84505884270734 0.4494132501379148 0 0 0 0 0 0 1:-0.767461 2:-1 3:-0.984278 4:-0.791482 5:-1 6:0.203664 7:-1 8:-1 9:-1 10:-1 11:-1 12:-1 13:-0.889807 14:-1 15:-0.967979 16:-0.784975 17:-1 18:-0.378634 19:-1 20:-1 21:-0.479749 
-0 -0 -0.06663542673740061 -0 -0 -0 -0 22.89292692162955 18.98398653490127 86.44289250455341 6.144996568684551 0 0 0 0 5.709438905974809 0 1:-0.809285 2:-0.737864 3:-0.977316 4:-0.771369 5:-1 6:-0.212284 7:-1 8:-1 9:-0.931852 10:-1 11:-0.714729 12:-0.986363 13:-0.774105 14:-1 15:-0.963976 16:-0.783293 17:-1 18:-0.119895 19:-1 20:-1 21:-0.673184 
-0 -0 -0 -0 -0 -26.32424801207777 -0 128 0 0 0 2.743818610394978 0 128 0 0 0 1:-0.609647 2:-0.614887 3:-0.924537 4:-0.562555 5:-1 6:-0.206897 7:-1 8:-1 9:-0.674074 10:-1 11:-0.472868 12:-0.973432 13:-0.849295 14:-1 15:-0.915944 16:-0.699672 17:-1 18:-0.0787324 19:-1 20:-1 21:-0.645251 
-0 -0 -0 -0 -0 -0 -2.708885378230273 128 0 54.58398060395647 0 0 0 0.04752357514743129 0 0 0 1:-0.59013 2:-0.944984 3:-0.860303 4:-0.692103 5:-1 6:0.327586 7:-1 8:-0.93722 9:-0.86963 10:-1 11:-0.764341 12:-0.91677 13:-0.829201 14:-1 15:-0.680454 16:-0.867755 17:-1 18:-0.547207 19:-1 20:-1 21:-0.443436 
-0 -0 -0 -0 -0 -0 -0 0 0 0 0 39.44648985107069 0 0 0 0 0 1:-0.645337 2:-1 3:-0.97507 4:-0.626738 5:-1 6:-0.0290948 7:-1 8:-1 9:-1 10:-1 11:-1 12:-1 13:-0.903095 14:-1 15:-0.96531 16:-0.589636 17:-1 18:-0.221823 19:-1 20:-1 21:-0.721718 
-0 -0 -0 -0 -0 -0 -0 0 0 0 0 128 0 0 56.32473510930143 2.980494129439841 19.29328132190107 1:-0.834379 2:-0.721683 3:-0.955755 4:-0.530021 5:-1 6:-0.515086 7:-1 8:-0.982063 9:-0.911111 10:-1 11:-0.937984 12:-0.982954 13:-0.868741 14:-1 15:-0.965977 16:-0.526878 17:-1 18:-0.0924534 19:-1 20:-1 21:-0.84148 
-0 -0 -0 -0 -0 -0 -0 0 0 0 0 0 33.24683652117117 76.84021309888843 0 0 0 1:-0.755472 2:-0.993528 3:-0.959573 4:-0.532978 5:-1 6:-0.0571121 7:-1 8:-1 9:-0.976296 10:-1 11:-0.851163 12:-0.965086 13:-0.771512 14:-1 15:-0.993996 16:-0.673088 17:-1 18:-0.308723 19:-1 20:-1 21:-0.737081 
-0 -0 -0 -0 -0 -0 -0 0 0 0 0 0 0 111.7665512254509 10.76795852628288 0 0 1:-0.769134 2:-0.789644 3:-0.887928 4:-0.590654 5:-1 6:-0.454741 7:-1 8:-1 9:-0.994074 10:-1 11:-0.537984 12:-0.888556 13:-0.674931 14:-1 15:-0.998666 16:-0.554471 17:-1 18:-0.632146 19:-1 20:-1 21:-0.821229 
-0 -0 -0 -0 -0 -0 -0 0 0 0 0 3.867398420366123 0 0 2.301162361318883 0 0 1:-0.747665 2:-0.912621 3:-0.930376 4:-0.508429 5:-1 6:-0.559267 7:-1 8:-1 9:-0.976296 10:-1 11:-0.906977 12:-0.934638 13:-0.586777 14:-1 15:-0.995997 16:-0.621603 17:-1 18:0.0035936 19:-1 20:-1 21:-0.808659 
-0 -0 -0 -0 -0 -0 -0 12.81623087337822 0 0 0 0 0 0 0 0 0 1:-0.796459 2:-0.789644 3:-0.898035 4:-0.678497 5:-1 6:-0.387931 7:-0.963801 8:-1 9:-0.92 10:-1 11:-0.497674 12:-0.892083 13:-0.666181 14:-1 15:-0.935957 16:-0.624464 17:-1 18:-0.534139 19:-1 20:-1 21:-0.755936 
-0 -0 -0 -0 -2.709154061080205 -0 -0 0 0 0 0 0 0 0 0 0 0 1:-0.741252 2:-0.834951 3:-0.906794 4:-0.580893 5:-1 6:0.110991 7:-1 8:-1 9:-0.985185 10:-1 11:-0.646512 12:-0.955211 13:-0.611408 14:-1 15:-0.91461 16:-0.587953 17:-1 18:-0.153871 19:-1 20:-1 21:-0.561453 
-0.7488621417584191 -2.635913943290114 -3.12758906933404 -0 -0 -0 -0 67.20442204992644 10.57386830623824 62.54556020986627 23.7694989812368 0 0 0 0 41.7770554016866 0 1:-0.772201 2:-1 3:-0.864795 4:-0.76782 5:-1 6:-0.876078 7:-1 8:-1 9:-1 10:-1 11:-1 12:-0.72809 13:-0.703776 14:-1 15:-1 16:-0.876672 17:-1 18:-0.646521 19:-1 20:-1 21:-0.914455 
-0 -0 -0 -0 -0 -0 -0 27.86713152703825 0 0 0 0 0 0.9154682058202579 0 0 0 1:-0.602119 2:-0.964401 3:-0.938012 4:-0.731145 5:-1 6:0.211207 7:-1 8:-1 9:-1 10:-1 11:-0.469767 12:-0.921354 13:-0.553395 14:-1 15:-0.87992 16:-0.704719 17:-1 18:-0.599477 19:-1 20:-1 21:-0.219623 
-0 -0 -0 -0 -0 -0 -0 128 0 0 0 0 0 0 0 0 0 1:-0.838004 2:-1 3:-0.783942 4:-0.765454 5:-1 6:-0.470905 7:-1 8:-1 9:-1 10:-1 11:-1 12:-0.899606 13:-0.524874 14:-1 15:-0.890594 16:-0.698999 17:-1 18:-0.432212 19:-1 20:-1 21:-0.738827 
-14.91656120882403 -15.29233964750495 -8.309765798041752 -17.08484902693135 -0 -0 -0 0 0 58.94068810677204 8.9726155243533 0 0 0 0 0 0 1:-0.880942 2:-1 3:-0.749579 4:-0.906241 5:-1 6:-0.543103 7:-1 8:-1 9:-1 10:-1 11:-1 12:-0.666961 13:-0.798736 14:-1 15:-0.860574 16:-0.927316 17:-1 18:-0.72558 19:-1 20:-1 21:-0.828911 
-0 -0 -0 -0 -0 -0 -0 67.89375840637312 0 0 0 0 0 0 6.442182034567304 0 0 1:-0.805939 2:-1 3:-0.844357 4:-0.591541 5:-1 6:-0.894397 7:-1 8:-1 9:-1 10:-1 11:-1 12:-0.890907 13:-0.41695 14:-1 15:-1 16:-0.65172 17:-1 18:-0.54394 19:-1 20:-1 21:-0.938198 
-0 -0 -0 -0 -2.798374167054924 -0 -0 0 0 0 0 0 0 0 0 0 0 1:-0.802314 2:-1 3:-0.888377 4:-0.55871 5:-1 6:-0.563578 7:-1 8:-1 9:-1 10:-1 11:-1 12:-0.90325 13:-0.546913 14:-1 15:-1 16:-0.43821 17:-1 18:-0.506044 19:-1 20:-1 21:-0.868715 
-0 -0 -0 -0 -0 -0 -0 21.11740099822127 0 0 0 0 0 0 0 0 0 1:-0.766625 2:-1 3:-0.67973 4:-0.821355 5:-1 6:-0.301724 7:-1 8:-1 9:-1 10:-1 11:-1 12:-0.717157 13:-0.599741 14:-1 15:-0.90994 16:-0.852949 17:-1 18:-0.707939 19:-1 20:-1 21:-0.740223 
-0 -0 -0 -0 -0 -0 -0 0 0 38.90415530870493 0 0 0 0 0 0 0 1:-0.829639 2:-1 3:-0.945424 4:-0.638864 5:-1 6:-0.452586 7:-1 8:-1 9:-1 10:-1 11:-1 12:-0.975548 13:-0.75077 14:-1 15:-0.998666 16:-0.680996 17:-1 18:-0.470108 19:-1 20:-1 21:-0.859288 
-0 -0 -0 -0 -0 -0 -0 0 0 0 0 54.69062289067723 0 0 109.5903479469226 40.88438227089796 0 1:-0.708072 2:-0.970874 3:-0.986075 4:-0.606034 5:-1 6:-0.384698 7:-1 8:-1 9:-0.863704 10:-1 11:-1 12:-1 13:-0.885594 14:-1 15:-0.99533 16:-0.573484 17:-1 18:-0.0963737 19:-1 20:-1 21:-0.72486 
-0 -0 -0 -0 -0 -0 -0 128 0 128 0 0 0 0 0 34.84327289727728 0 1:-0.81291 2:-0.877023 3:-0.908141 4:-0.808932 5:-1 6:-0.292026 7:-1 8:-1 9:-1 10:-1 11:-0.916279 12:-0.960501 13:-0.787069 14:-1 15:-0.848566 16:-0.818457 17:-1 18:-0.241424 19:-1 20:-1 21:-0.706006 
-0 -0 -0 -0 -9.165549382046926 -0 -0 0 0 0 0 0 0 0 0 0 0 1:-0.751568 2:-1 3:-0.864121 4:-0.703638 5:-1 6:-0.828664 7:-1 8:-1 9:-1 10:-1 11:-1 12:-0.797919 13:-0.455842 14:-1 15:-1 16:-0.569277 17:-1 18:-0.804639 19:-1 20:-1 21:-0.969623 
-0 -0 -0 -0 -0 -0 -0 123.4608616638238 0 0 0 0 0 54.4037223343877 0 0 0 1:-0.602119 2:-0.964401 3:-0.938012 4:-0.731145 5:-1 6:0.211207 7:-1 8:-1 9:-1 10:-1 11:-0.469767 12:-0.921354 13:-0.553395 14:-1 15:-0.87992 16:-0.704719 17:-1 18:-0.599477 19:-1 20:-1 21:-0.219623 
-0 -0 -0 -0 -0 -0 -0 128 0 0 0 0 0 0 0 0 0 1:-0.838004 2:-1 3:-0.783942 4:-0.765454 5:-1 6:-0.470905 7:-1 8:-1 9:-1 10:-1 11:-1 12:-0.899606 13:-0.524874 14:-1 15:-0.890594 16:-0.698999 17:-1 18:-0.432212 19:-1 20:-1 21:-0.738827 
-0 -0 -0 -0 -0 -0 -0 121.8406015830188 0 0 0 0 0 0 0 0 0 1:-0.766625 2:-1 3:-0.67973 4:-0.821355 5:-1 6:-0.301724 7:-1 8:-1 9:-1 10:-1 11:-1 12:-0.717157 13:-0.599741 14:-1 15:-0.90994 16:-0.852949 17:-1 18:-0.707939 19:-1 20:-1 21:-0.740223 
-0 -0 -0 -0 -0 -0 -0 0 0 0 0 0 96.99536970269688 0 0 0 0 1:-0.763279 2:-0.990291 3:-0.992813 4:-0.667258 5:-1 6:-0.0883621 7:-1 8:-1 9:-0.982222 10:-1 11:-0.844961 12:-1 13:-0.912818 14:-1 15:-0.967979 16:-0.552452 17:-1 18:0.159098 19:-1 20:-1 21:-0.690293 
-0 -0 -0 -0 -0 -0 -0 128 90.5517565990213 0 20.59299109428931 0 0 0 0 0 0 1:-0.87676 2:-1 3:-0.855811 4:-0.824312 5:-1 6:-0.601293 7:-1 8:-1 9:-1 10:-1 11:-1 12:-0.817904 13:-0.751094 14:-1 15:-0.740494 16:-0.758223 17:-1 18:-0.696178 19:-1 20:-1 21:-0.802723 
-0 -0 -0 -0 -0 -0.2055168625754802 -0 0 0 0 0 0.07537802989043792 0 0 2.368014695781783 0 0 1:-0.802593 2:-1 3:-0.754745 4:-0.756285 5:-1 6:-0.939655 7:-1 8:-1 9:-1 10:-1 11:-1 12:-0.600893 13:-0.845082 14:-1 15:-1 16:-0.787499 17:-1 18:-0.958184 19:-1 20:-1 21:-0.996858 
-0 -0 -0 -0 -0 -0 -0 128 0 0 0 0 0 0 0 0 0 1:-0.855291 2:-1 3:-0.861202 4:-0.679385 5:-1 6:-0.627155 7:-1 8:-1 9:-1 10:-1 11:-1 12:-0.899724 13:-0.571868 14:-1 15:-0.923282 16:-0.715319 17:-1 18:-0.707285 19:-1 20:-1 21:-0.814944 
-14.94112850024857 -9.72079730534182 -11.86163395395101 -6.140824266415375 -0 -0 -0 0 7.094335957226404 38.78029703206893 0.5771240151765203 0 0 0 0 0 0 1:-0.826014 2:-0.87055 3:-0.938686 4:-0.843833 5:-1 6:-0.190733 7:-1 8:-1 9:-1 10:-1 11:-0.631008 12:-0.943925 13:-0.758872 14:-1 15:-0.84523 16:-0.611172 17:-1 18:-0.688337 19:-1 20:-1 21:-0.640363 
-0 -0.9717542885087426 -0 -4.199561449297104 -0 -0 -0 0 47.88114511918891 0 6.937359508355406 0 0 0 10.71094699534376 0 47.55468878032499 1:-0.793671 2:-1 3:-0.935766 4:-0.663709 5:-1 6:-0.807112 7:-1 8:-1 9:-1 10:-1 11:-1 12:-0.963087 13:-0.671042 14:-1 15:-1 16:-0.494237 17:-1 18:-0.833388 19:-1 20:-1 21:-0.961592 
-0 -0 -0 -0 -0 -0 -0 128 0 0 0 0 0 0 0 0 0 1:-0.706399 2:-1 3:-0.886356 4:-0.721088 5:-1 6:-0.429957 7:-1 8:-1 9:-1 10:-1 11:-1 12:-0.817199 13:-0.675255 14:-1 15:-0.948632 16:-0.792042 17:-1 18:-0.137537 19:-1 20:-1 21:-0.614525 
-0 -0 -0 -0 -4.164667214784503 -0 -1.314434418639224 128 0 0 0 5.942997319409325 16.41052638786639 28.33984743534946 18.74146622904183 0 0 1:-0.730657 2:-1 3:-0.772263 4:-0.66992 5:-1 6:-0.454741 7:-1 8:-1 9:-1 10:-1 11:-1 12:-0.771704 13:-0.646411 14:-1 15:-0.741828 16:-0.79221 17:-1 18:-0.424371 19:-1 20:-1 21:-0.230447 
-0 -0 -0 -0 -0 -70.44215124389947 -0 128 0 0 0 0 0 42.7521362213954 0 0 0 1:-0.56643 2:-1 3:-0.939135 4:-0.681751 5:-1 6:-0.307112 7:-1 8:-1 9:-1 10:-1 11:-1 12:-0.945453 13:-0.73813 14:-1 15:-0.903269 16:-0.705561 17:-1 18:-0.299575 19:-1 20:-1 21:-0.529679 
-0 -0 -0 -0 -0 -0 -0 2.712918921021059 0 0 0 0 0.006154421063152092 0 0 0 0 1:-0.697477 2:-0.656958 3:-0.899832 4:-0.665484 5:-1 6:-0.294181 7:-0.257919 8:-0.713004 9:-0.813333 10:-1 11:-0.342636 12:-0.884912 13:-0.563118 14:-1 15:-0.817211 16:-0.760242 17:-1 18:-0.334205 19:-1 20:-1 21:-0.40398 
-6.015233089156622 -6.533586094496845 -9.377373269964101 -6.610751875975804 -0 -20.15936665455427 -1.919031117292153 0 0.5615376169868446 0 6.055072029270426 20.60981869866773 0 0 15.5699846260444 7.140571041382954 32.2213518500883 1:-0.802593 2:-1 3:-0.754745 4:-0.756285 5:-1 6:-0.939655 7:-1 8:-1 9:-1 10:-1 11:-1 12:-0.600893 13:-0.845082 14:-1 15:-1 16:-0.787499 17:-1 18:-0.958184 19:-1 20:-1 21:-0.996858 
-0 -0 -0 -0 -0 -0 -0 75.79678881977658 0 0 0 0 0 0 0 0 0 1:-0.676286 2:-1 3:-0.876474 4:-0.730553 5:-1 6:-0.128233 7:-1 8:-1 9:-1 10:-1 11:-1 12:-0.811791 13:-0.673959 14:-1 15:-0.947965 16:-0.795743 17:-1 18:-0.280627 19:-1 20:-1 21:-0.52095 
-0 -0 -0 -0 -0 -0 -0 128 0 0 0 0 0 0 0 0 0 1:-0.522097 2:-1 3:-0.93105 4:-0.640639 5:-1 6:-0.0840517 7:-1 8:-1 9:-1 10:-1 11:-1 12:-0.952037 13:-0.694701 14:-1 15:-0.925951 16:-0.683352 17:-1 18:-0.18654 19:-1 20:-1 21:-0.478003 
-0 -0 -0 -0 -4.921245250767806 -0 -2.09862656953009 32.97197265043755 0 13.29916526214093 0 0 17.06095639442322 0 0 0 0 1:-0.697477 2:-0.656958 3:-0.899832 4:-0.665484 5:-1 6:-0.294181 7:-0.257919 8:-0.713004 9:-0.813333 10:-1 11:-0.342636 12:-0.884912 13:-0.563118 14:-1 15:-0.817211 16:-0.760242 17:-1 18:-0.334205 19:-1 20:-1 21:-0.40398 
-0 -0 -0 -0 -0 -0 -0 -0 0 0 0 0 0 88.55176965862469 0 0 0 1:-0.688554 2:-0.854369 3:-0.821449 4:-0.539781 5:-1 6:-0.181034 7:-1 8:-1 9:-0.92 10:-1 11:-0.702326 12:-0.859402 13:-0.432831 14:-1 15:-0.869913 16:-0.758223 17:-1 18:-0.338125 19:-1 20:-1 21:-0.495461 
-0 -0 -0 -0 -0 -0 -0 -128 0 0 0 0 0 0 44.30269573719811 0 0 1:-0.794786 2:-1 3:-0.854464 4:-0.553091 5:-1 6:-0.358836 7:-1 8:-1 9:-1 10:-1 11:-1 12:-0.90666 13:-0.450656 14:-1 15:-0.873916 16:-0.59401 17:-1 18:-0.492976 19:-1 20:-1 21:-0.659567 
-0 -0 -0 -0 -0 -0 -0 -128 0 0 0 53.77167555350881 0 0 28.61169976292164 0 0 1:-0.848878 2:-1 3:-0.800786 4:-0.582964 5:-1 6:-0.264009 7:-1 8:-1 9:-1 10:-1 11:-1 12:-0.862223 13:-0.638308 14:-1 15:-0.843229 16:-0.584252 17:-1 18:-0.519111 19:-1 20:-1 21:-0.580656 
-0 -0 -0 -0 -0 -0 -0 -128 0 0 0 0 0 0 0 0 0 1:-0.83187 2:-0.864078 3:-0.884784 4:-0.788524 5:-1 6:-0.295259 7:-1 8:-1 9:-1 10:-1 11:-0.962791 12:-0.871392 13:-0.688543 14:-1 15:-0.858572 16:-0.768318 17:-1 18:-0.602744 19:-1 20:-1 21:-0.481494 
-0 -0 -0 -0 -12.33837750264691 -0 -0 -128 0 0 0 0 0 0 0 0 0 1:-0.831312 2:-0.847896 3:-0.838742 4:-0.75806 5:-1 6:-0.358836 7:-1 8:-1 9:-1 10:-1 11:-0.965891 12:-0.831658 13:-0.322962 14:-1 15:-0.793863 16:-0.774207 17:-1 18:-0.564195 19:-1 20:-1 21:-0.65817 
-0 -0 -0 -0 -0 -17.95563480776899 -0 -0 0 0 0 0 0 0 0 0 0 1:-0.418096 2:-0.983819 3:-0.910387 4:-0.603668 5:-1 6:-0.515086 7:-1 8:-0.946188 9:-0.845926 10:-1 11:-0.693023 12:-0.952624 13:-0.480149 14:-1 15:-0.964643 16:-0.547573 17:-1 18:-0.174126 19:-1 20:-1 21:-0.603701 
-0 -0 -0 -0 -0 -34.98093236807858 -0 -0 0 0 0 0 0 0 0 0 0 1:-0.411404 2:-0.983819 3:-0.875351 4:-0.7063 5:-1 6:-0.354526 7:-1 8:-1 9:-0.848889 10:-1 11:-0.910078 12:-0.88691 13:-0.659699 14:-1 15:-0.78519 16:-0.628838 17:-1 18:-0.550474 19:-1 20:-1 21:-0.489176 
-7.92181084043368 -10.87700427014223 -6.245065929872577 -9.098024266103581 -0 -31.54197636728356 -0 -22.76530042129108 9.309219660616028 90.02717212639054 10.69209026203732 0 0 0 0 3.959893822676557 0 1:-0.768298 2:-0.579288 3:-0.939585 4:-0.835256 5:-1 6:-0.601293 7:-1 8:-1 9:-1 10:-1 11:-0.928682 12:-0.944513 13:-0.824016 14:-1 15:-0.843896 16:-0.824514 17:-1 18:-0.444626 19:-1 20:-1 21:-0.78352 
-0 -0 -0 -0 -0 -0 -0 -128 38.59645751862535 102.112309155547 9.520640474326701 120.261948611934 0 0 29.71164966090005 83.65222247922905 58.46301154120733 1:-0.783354 2:-0.851133 3:-0.952386 4:-0.724046 5:-1 6:-0.570043 7:-1 8:-1 9:-0.967407 10:-1 11:-0.996899 12:-0.980015 13:-0.822719 14:-1 15:-0.883256 16:-0.67006 17:-1 18:-0.421758 19:-1 20:-1 21:-0.817039 
-0 -0 -0 -0 -0 -0 -3.197209863574402 -41.46957230242079 0 0 0 0 0 0 0 0 0 1:-0.290395 2:-1 3:-0.632341 4:-0.766933 5:-1 6:0.320043 7:-1 8:-1 9:-1 10:-1 11:-1 12:-0.687886 13:-0.559877 14:-1 15:-0.776518 16:-0.859006 17:-1 18:-0.334858 19:-1 20:-1 21:-0.55412 
-0 -0 -0 -0 -2.264988685072423 -0 -0 -0 0 0 0 0 0 0 0 0 0 1:-0.181096 2:-0.951456 3:-0.752723 4:-0.679385 5:-1 6:0.586207 7:-1 8:-0.928251 9:-0.994074 10:-1 11:-0.807752 12:-0.811909 13:-0.544968 14:-1 15:-0.687125 16:-0.746277 17:-1 18:-0.446586 19:-1 20:-1 21:-0.299232 
-0 -0 -0 -0 -0.9304757451506138 -1.100623955073053 -0 -26.99246842693656 0 0 0 53.79941079644114 11.44875852370077 51.47218626423822 14.88160461937436 0 0 1:-0.22738 2:-0.944984 3:-0.761482 4:-0.195504 5:-1 6:-0.018319 7:-1 8:-0.991031 9:-0.961481 10:-1 11:-0.764341 12:-0.906424 13:-0.55696 14:-1 15:-0.987325 16:-0.366535 17:-1 18:-0.0323424 19:-1 20:-1 21:-0.631983 
-0 -0 -0 -0 -0 -0 -0 -57.2043239564733 0 0 0 0 0 0 0 0 0 1:-0.460198 2:-0.964401 3:-0.729815 4:-0.537415 5:-1 6:0.418103 7:-1 8:-1 9:-0.837037 10:-1 11:-0.671318 12:-0.909716 13:-0.539783 14:-1 15:-0.832555 16:-0.747455 17:-1 18:-0.192421 19:-1 20:-1 21:-0.319134 
-0 -0 -0 -0 -10.32038872341596 -0 -0 -7.927979013390001 0 0 0 0 9.276997876697584 0 0 0 0 1:-0.686045 2:-0.97411 3:-0.757889 4:-0.556344 5:-1 6:-0.101293 7:-1 8:-1 9:-1 10:-1 11:-0.789147 12:-0.754188 13:-0.286339 14:-1 15:-0.882588 16:-0.671574 17:-1 18:0.259719 19:-1 20:-1 21:-0.0876397 
-0 -0 -0 -0 -2.897160691114536 -0 -2.910290231469255 -0 0 0 0 0 0 0 0 1.96442596002365 0 1:-0.458804 2:-0.883495 3:-0.635935 4:-0.689145 5:-1 6:-0.288793 7:-1 8:-0.103139 9:-0.739259 10:-1 11:-0.0821705 12:-0.77864 13:-0.433155 14:-1 15:-0.57038 16:-0.785143 17:-1 18:-0.613198 19:-1 20:-1 21:-0.466131 
-0 -0 -0 -0 -1.913164437796212 -0 -0 -0 0 0 0 0 0 0 0 0 0 1:-0.550537 2:-1 3:-0.699045 4:-0.679089 5:-1 6:-0.34806 7:-1 8:-1 9:-1 10:-1 11:-1 12:-0.848116 13:-0.470102 14:-1 15:-0.661107 16:-0.711618 17:-1 18:-0.463574 19:-1 20:-1 21:-0.574022 
-0 -0 -0 -0 -0 -2.158249956377973 -1.635911972132128 -0 0 0 0 0 0 0 0 0 0 1:-0.397184 2:-0.919094 3:-0.631892 4:-0.919846 5:-1 6:0.28556 7:-1 8:-0.919283 9:-1 10:-1 11:-0.658915 12:-0.659554 13:-0.873278 14:-1 15:-0.612408 16:-0.977623 17:-1 18:-0.788958 19:-1 20:-1 21:-0.322626 
-0 -0 -0 -0 -0 -0 -0 -128 0 0 0 0 0 0.04894484044558201 0.5283078569528401 0 0 1:-0.51903 2:-0.961165 3:-0.802358 4:-0.577048 5:-1 6:-0.420259 7:-1 8:-1 9:-0.997037 10:-1 11:-0.83876 12:-0.80027 13:-0.683358 14:-1 15:-0.948632 16:-0.749642 17:-1 18:-0.310683 19:-1 20:-1 21:-0.676327 
-0 -0 -0 -0 -0 -1.099767633392045 -0 -0 0 0 0 0 0 0 0 0 0 1:-0.448766 2:-0.925566 3:-0.766423 4:-0.645371 5:-1 6:0.0280172 7:-1 8:-1 9:-0.768889 10:-1 11:-0.420155 12:-0.740669 13:-0.737806 14:-1 15:-0.841895 16:-0.826533 17:-1 18:0.0192747 19:-1 20:-1 21:-0.451117 
-0 -0 -0 -0 -0 -20.02093978198567 -1.910341821672908 -0 0 0 0 0 0 0 0 0 0 1:-0.281193 2:-0.148867 3:-0.780124 4:-0.718722 5:-1 6:-0.376078 7:-1 8:-1 9:-0.979259 10:-1 11:-0.497674 12:-0.730912 13:-0.653541 14:-1 15:-0.777185 16:-0.805334 17:-1 18:-0.221823 19:-1 20:-1 21:-0.434008 
-0 -0 -0 -0 -0 -1.138990307207417 -1.688731957207898 -0 0 0 0 0 0 0 0 0 0 1:-0.258609 2:-1 3:-0.800786 4:-0.723159 5:-1 6:-0.207974 7:-1 8:-1 9:-1 10:-1 11:-1 12:-0.671663 13:-0.753687 14:-1 15:-0.624416 16:-0.848406 17:-1 18:-0.171513 19:-1 20:-1 21:-0.377793 
-0 -0 -0 -0 -0 -0 -0 -128 0 0 0 0 0 0 0 0 0 1:-0.783354 2:-1 3:-0.895564 4:-0.84058 5:-1 6:-0.734914 7:-1 8:-1 9:-1 10:-1 11:-1 12:-0.938988 13:-0.495382 14:-1 15:-0.966644 16:-0.760747 17:-1 18:-0.724273 19:-1 20:-1 21:-0.929469 
-29.17936501742239 -30.07171863173922 -30.02058416571566 -29.69586776043754 -0 -0 -0 -128 128 113.7031219464054 98.13762256877601 0 0 0 1.781919799474618 57.05667115651163 38.33109347603344 1:-0.841628 2:-1 3:-0.884784 4:-0.896185 5:-1 6:-0.831897 7:-1 8:-1 9:-1 10:-1 11:-1 12:-0.820608 13:-0.639605 14:-1 15:-1 16:-0.924455 17:-1 18:-0.737994 19:-1 20:-1 21:-0.898045 
-0 -0 -0 -0 -0 -0 -0 -17.576949096277 20.23673581928594 128 0 0 0 0 0 0 0 1:-0.815419 2:-0.964401 3:-0.850646 4:-0.858326 5:-1 6:-0.548491 7:-1 8:-1 9:-0.997037 10:-1 11:-0.677519 12:-0.912067 13:-0.637012 14:-1 15:-0.754503 16:-0.878691 17:-1 18:-0.500163 19:-1 20:-1 21:-0.696927 
-0 -0 -0 -0 -0 -0 -0 -128 0 1.63015921200022 0 0 0 0 0 0 0 1:-0.724523 2:-0.993528 3:-0.889949 4:-0.761017 5:-1 6:-0.375 7:-1 8:-1 9:-0.967407 10:-1 11:-0.851163 12:-0.920414 13:-0.696646 14:-1 15:-0.911941 16:-0.849415 17:-1 18:-0.434825 19:-1 20:-1 21:-0.506634 
-0 -0 -0 -0 -0 -0 -2.068256835397879 -0 0 0 0 0 0 0 0 0 0 1:-0.436777 2:-0.964401 3:-0.640202 4:-0.707779 5:-1 6:-0.283405 7:-1 8:-0.139013 9:-0.922963 10:-1 11:-0.603101 12:-0.805443 13:-0.437692 14:-1 15:-0.574383 16:-0.804492 17:-1 18:-0.571382 19:-1 20:-1 21:-0.417598 
-0 -0 -0 -0 -0 -0 -0 -128 0 0 0 0 0 25.73149482734626 30.4481076769652 0 0 1:-0.51903 2:-0.961165 3:-0.802358 4:-0.577048 5:-1 6:-0.420259 7:-1 8:-1 9:-0.997037 10:-1 11:-0.83876 12:-0.80027 13:-0.683358 14:-1 15:-0.948632 16:-0.749642 17:-1 18:-0.310683 19:-1 20:-1 21:-0.676327 
-0 -0 -0 -0 -0 -16.01002661620242 -0 -25.4802779744702 0 0 0 0 0 14.27883566178193 0 0 0 1:-0.448766 2:-0.925566 3:-0.766423 4:-0.645371 5:-1 6:0.0280172 7:-1 8:-1 9:-0.768889 10:-1 11:-0.420155 12:-0.740669 13:-0.737806 14:-1 15:-0.841895 16:-0.826533 17:-1 18:0.0192747 19:-1 20:-1 21:-0.451117 
-0 -0 -0 -0 -0 -0 -0 -128 0 0 0 0 0 0 0 0 0 1:-0.783354 2:-1 3:-0.895564 4:-0.84058 5:-1 6:-0.734914 7:-1 8:-1 9:-1 10:-1 11:-1 12:-0.938988 13:-0.495382 14:-1 15:-0.966644 16:-0.760747 17:-1 18:-0.724273 19:-1 20:-1 21:-0.929469 
-0 -0 -0 -0 -0 -0 -0 -128 0 128 0 0 0 0 0 0 0 1:-0.709745 2:-0.993528 3:-0.880517 4:-0.764271 5:-1 6:-0.373922 7:-1 8:-0.901345 9:-0.997037 10:-1 11:-0.851163 12:-0.878211 13:-0.731 14:-1 15:-0.908606 16:-0.850593 17:-1 18:-0.360993 19:-1 20:-1 21:-0.533869 
-0 -0 -0 -0 -0 -0 -0 -0 0 0.1759211945916616 0 0 0 0.04493963705075513 0 0 0 1:-0.797574 2:-0.880259 3:-0.87333 4:-0.800355 5:-1 6:-0.409483 7:-1 8:-0.946188 9:-0.653333 10:-1 11:0.156589 12:-0.898548 13:-0.58548 14:-1 15:-0.649767 16:-0.9009 17:-1 18:-0.435479 19:-1 20:-1 21:-0.337989 
-0 -0 -0 -0 -0 -0 -0 -128 0 0 0 0 0 0 0 0 0 1:-0.796459 2:-0.983819 3:-0.851095 4:-0.753623 5:-1 6:-0.266164 7:-1 8:-1 9:-1 10:-1 11:-0.83876 12:-0.856933 13:-0.763734 14:-1 15:-0.701134 16:-0.847396 17:-1 18:-0.523685 19:-1 20:-1 21:-0.508729 
-0 -0 -0 -0 -0 -0 -0 -17.4840452963359 0 0 0 0 0 0 0 0 0 1:-0.648125 2:-0.893204 3:-0.776755 4:-0.736764 5:-1 6:0.587284 7:-0.475113 8:-0.883408 9:-0.774815 10:-1 11:-0.274419 12:-0.812261 13:-0.636688 14:-1 15:-0.464977 16:-0.937411 17:-1 18:-0.283241 19:-1 20:-1 21:0.248254 
-0 -0 -0 -0 -4.010144764157838 -0 -0 -15.18261492725061 0 0 0 13.39371774158587 0.2653446335423663 0 0 0 0 1:-0.533807 2:-0.262136 3:-0.740595 4:-0.487726 5:-1 6:0.15625 7:-0.493213 8:-0.991031 9:-0.771852 10:-1 11:-0.379845 12:-0.790983 13:-0.462324 14:-1 15:-0.788526 16:-0.709094 17:-1 18:-0.0388762 19:-1 20:-1 21:-0.476606 
-0 -0 -0 -0 -0 -0 -0 -128 0 0 0 27.14873973162031 26.21489312557837 31.82660729907812 31.03600628392534 0 0 1:-0.841907 2:-0.770227 3:-0.912409 4:-0.707483 5:-1 6:-0.247845 7:-1 8:-1 9:-0.573333 10:-1 11:-0.643411 12:-0.980133 13:-0.599741 14:-1 15:-0.977985 16:-0.65273 17:-1 18:-0.0944136 19:-1 20:-1 21:-0.640363 
-0 -2.829704050779137 -0 -0 -0 -6.255725723572573 -0 -128 0 32.67877549428495 0 128 71.23261976459787 128 128 16.4468294331522 0 1:-0.708908 2:-1 3:-0.950814 4:-0.524105 5:-1 6:-0.243534 7:-1 8:-1 9:-1 10:-1 11:-1 12:-0.986951 13:-0.941663 14:-1 15:-0.94463 16:-0.528561 17:-1 18:-0.41065 19:-1 20:-1 21:-0.629539 
-1.097150368998118 -0.003220324289657103 -1.29588458295369 -1.234483171084217 -0 -0 -0 -0 8.253479239645802 28.51542907144147 0.5775580360831204 0 0 24.8164261947019 0.5513314175445987 0 1.479312063707837 1:-0.797574 2:-0.880259 3:-0.87333 4:-0.800355 5:-1 6:-0.409483 7:-1 8:-0.946188 9:-0.653333 10:-1 11:0.156589 12:-0.898548 13:-0.58548 14:-1 15:-0.649767 16:-0.9009 17:-1 18:-0.435479 19:-1 20:-1 21:-0.337989 
-0 -0 -0 -0 -0 -0 -0 -128 0 19.22077769020118 0 0 0 0 0 0 0 1:-0.796459 2:-0.983819 3:-0.851095 4:-0.753623 5:-1 6:-0.266164 7:-1 8:-1 9:-1 10:-1 11:-0.83876 12:-0.856933 13:-0.763734 14:-1 15:-0.701134 16:-0.847396 17:-1 18:-0.523685 19:-1 20:-1 21:-0.508729 
-1.515252514331152 -0.96538051778523 -0 -0.2858853338788078 -0 -0 -0 -41.50610074903202 0 0 0.3895015881138202 0 0 0 0 0 0 1:-0.522933 2:-0.990291 3:-0.685121 4:-0.909494 5:-1 6:0.595905 7:-1 8:-1 9:-1 10:-1 11:-0.789147 12:-0.709164 13:-0.923837 14:-1 15:-0.48032 16:-0.937074 17:-1 18:-0.808559 19:-1 20:-1 21:-0.0834497 
-0 -0 -0 -0 -0 -0 -0 -0 0 0 0 0 5.048538778237578 0 0 0 0 1:-0.723965 2:-0.944984 3:-0.815609 4:-0.694469 5:-1 6:-0.177802 7:-0.945701 8:-0.901345 9:-0.97037 10:-1 11:-0.423256 12:-0.803797 13:-0.712526 14:-1 15:-0.434957 16:-0.8442 17:-1 18:-0.0944136 19:-1 20:-1 21:-0.229749 
-0 -0 -0 -0 -1.595827824631902 -0 -0 -0 0 0 -0 0 0 0 0 0 0 1:-0.63753 2:-0.990291 3:-0.676362 4:-0.761313 5:-1 6:0.0959052 7:-1 8:-0.955157 9:-1 10:-1 11:-0.770543 12:-0.718451 13:-0.640253 14:-1 15:-0.259506 16:-0.879701 17:-1 18:-0.59033 19:-1 20:-1 21:-0.392109 
-0 -0 -0 -0 -0 -0 -0 -0 -0 0 0 0 0 0 0 0 11.77359210351163 1:-0.965984 2:-1 3:-0.962493 4:-0.811003 5:-1 6:-0.907328 7:-1 8:-1 9:-1 10:-1 11:-1 12:-0.974373 13:-0.8386 14:-1 15:-1 16:-0.751325 17:-1 18:-0.832734 19:-1 20:-1 21:-0.933659 
-0 -0 -0 -0 -1.879099029434588 -0 -0 -15.7611231235328 -0 0 0 0 0 0 13.31362786441339 0 0 1:-0.961522 2:-0.961165 3:-0.932622 4:-0.705117 5:-1 6:-0.923491 7:-1 8:-0.982063 9:-0.857778 10:-1 11:-0.789147 12:-0.965321 13:-0.720305 14:-1 15:-0.927285 16:-0.687894 17:-1 18:-0.865403 19:-1 20:-1 21:-0.946927 
-0 -0 -0 -0 -0 -0 -0 -0 -0 0 72.39217169082049 0 0 0 0 0 0 1:-0.955388 2:-0.770227 3:-0.977541 4:-0.854185 5:-1 6:-0.842672 7:-1 8:-1 9:-1 10:-1 11:-0.84186 12:-0.997766 13:-0.928699 14:-1 15:-0.919947 16:-0.793388 17:-1 18:-0.841228 19:-1 20:-1 21:-0.852304 
-0 -0 -0 -0 -0 -28.06362436246138 -0 -0 -0 0 128 0 0 0 0 128 128 1:-0.909104 2:-0.893204 3:-0.991465 4:-0.826974 5:-1 6:-0.969828 7:-0.791855 8:-1 9:-0.902222 10:-1 11:-0.711628 12:-1 13:-0.979582 14:-1 15:-1 16:-0.773702 17:-1 18:-0.747795 19:-1 20:-1 21:-0.99162 
-25.75939265118319 -30.36689660322389 -8.912841273848867 -0 -0 -0 -0.3111561212512939 -0 -0 118.0499833955316 128 0 0 0 0 0 58.50208333077309 1:-0.945629 2:-0.592233 3:-0.987647 4:-0.941142 5:-1 6:-0.907328 7:-0.511312 8:-0.793722 9:-0.727407 10:-1 11:-0.792248 12:-0.991889 13:-0.920272 14:-1 15:-0.970647 16:-0.937242 17:-1 18:-0.698791 19:-1 20:-1 21:-0.922137 
-0 -0 -0 -0 -0 -0 -0 -0 -0 128 0 0 0 0 0 0 0 1:-0.959571 2:-0.954693 3:-0.937339 4:-0.799468 5:-1 6:-0.65194 7:-1 8:-0.991031 9:-0.991111 10:-1 11:-0.6 12:-0.992241 13:-0.789337 14:-1 15:-0.845897 16:-0.820813 17:-1 18:-0.801372 19:-1 20:-1 21:-0.770601 
-0 -0 -0 -0 -0 -0 -0 -0 -0 0 0 30.97851132673314 0 0 0 0 0 1:-0.910498 2:-0.990291 3:-0.94475 4:-0.721384 5:-1 6:-0.800647 7:-1 8:-1 9:-1 10:-1 11:-0.857364 12:-0.976136 13:-0.865824 14:-1 15:-0.885257 16:-0.710608 17:-1 18:-0.709245 19:-1 20:-1 21:-0.869413 
-0 -0 -0 -0 -2.706958096410145 -0 -0 -128 -0 96.97100561975894 88.62173720682208 10.30317888975249 0 0 0 13.6223154443159 71.53547040581547 1:-0.922487 2:-0.938511 3:-0.938686 4:-0.831707 5:-1 6:-0.65194 7:-1 8:-1 9:-0.967407 10:-1 11:-0.941085 12:-0.985776 13:-0.852536 14:-1 15:-0.87525 16:-0.725414 17:-1 18:-0.666122 19:-1 20:-1 21:-0.799232 
-0 -0 -0 -0 -0 -0 -0 -0 -0 0 128 0 0 0 0 0 0 1:-0.968493 2:-1 3:-0.945199 4:-0.861579 5:-1 6:-0.75 7:-1 8:-1 9:-1 10:-1 11:-1 12:-0.981191 13:-0.871334 14:-1 15:-0.908606 16:-0.803651 17:-1 18:-0.77785 19:-1 20:-1 21:-0.871858 
-0 -0 -0 -0 -0 -40.18193829184035 -0 -21.43606416787121 -16.28134371041847 128 128 29.22372858680736 0 4.012727927081825 0 128 0 1:-0.827966 2:-1 3:-0.960022 4:-0.766046 5:-1 6:-0.567888 7:-1 8:-1 9:-1 10:-1 11:-1 12:-0.999765 13:-0.888511 14:-1 15:-0.903269 16:-0.872466 17:-1 18:-0.72754 19:-1 20:-1 21:-0.736034 
-0 -0 -0 -0 -0 -0 -0 -0 -0 0 128 0 0 0 0 0 0 1:-0.963753 2:-1 3:-0.980011 4:-0.863946 5:-1 6:-0.856681 7:-1 8:-1 9:-1 10:-1 11:-1 12:-0.996121 13:-0.907308 14:-1 15:-0.952635 16:-0.874316 17:-1 18:-0.76609 19:-1 20:-1 21:-0.897696 
-0 -0 -0 -0 -0 -0 -0 -0 -0 128 0 0 0 0 0 0 0 1:-0.979925 2:-0.967638 3:-0.98338 4:-0.931085 5:-1 6:-0.835129 7:-0.99095 8:-1 9:-0.78963 10:-1 11:-0.736434 12:-0.991301 13:-0.844758 14:-1 15:-0.971314 16:-0.915201 17:-1 18:-0.783731 19:-1 20:-1 21:-0.860335 
-0 -20.0597924599783 -12.36149476713858 -28.57710924206965 -0 -0 -0 -0 -0 0 128 0 0 0 0 0 0 1:-0.946466 2:-0.97411 3:-0.969006 4:-0.958296 5:-1 6:-0.929957 7:-1 8:-1 9:-1 10:-1 11:-0.925581 12:-0.91677 13:-0.888187 14:-1 15:-0.955304 16:-0.969042 17:-1 18:-0.918981 19:-1 20:-1 21:-0.962989 
-128 -128 -128 -128 -0 -0 -0 -0 -0 0 128 0 0 0 0 0 0 1:-0.951764 2:-1 3:-0.95598 4:-0.960071 5:-1 6:-0.940733 7:-1 8:-1 9:-0.937778 10:-1 11:-0.931783 12:-0.899724 13:-0.931616 14:-1 15:-0.956638 16:-0.991756 17:-1 18:-0.943809 19:-1 20:-1 21:-0.976257 
-0 -0 -0 -0 -0 -0 -0 -0 -0 0 128 0 0 0 0 0 0 1:-0.973791 2:-0.957929 3:-0.990567 4:-0.945874 5:-1 6:-0.961207 7:-1 8:-1 9:-0.952593 10:-1 11:-0.987597 12:-0.985658 13:-0.90666 14:-1 15:-0.980654 16:-0.903087 17:-1 18:-0.839268 19:-1 20:-1 21:-0.97067 
-0 -0 -0 -0 -0 -0 -0 -0 -0 0 128 0 0 0 0 0 0 1:-0.964032 2:-1 3:-0.993711 4:-0.954156 5:-1 6:-0.90625 7:-1 8:-1 9:-0.937778 10:-1 11:-0.953488 12:-0.991653 13:-0.837304 14:-1 15:-0.977318 16:-0.865736 17:-1 18:-0.870631 19:-1 20:-1 21:-0.937151 
-0 -0 -0 -0 -0 -0 -0 -0 -0 0 128 0 0 0 0 0 0 1:-0.943957 2:-1 3:-0.894666 4:-0.969831 5:-1 6:-0.882543 7:-1 8:-1 9:-1 10:-1 11:-1 12:-0.86716 13:-0.859018 14:-1 15:-0.928619 16:-0.994952 17:-1 18:-0.937929 19:-1 20:-1 21:-0.931913 
-0 -0 -0 -0 -4.571915188769712 -0 -0.2968016485448087 -2.770158870942397 -0 128 0 0 11.69981618710353 28.31152849139976 22.83294036192618 0 0 1:-0.887077 2:-0.857605 3:-0.948568 4:-0.735285 5:-1 6:-0.633621 7:-0.882353 8:-1 9:-1 10:-1 11:-0.550388 12:-0.983189 13:-0.804894 14:-1 15:-0.869913 16:-0.815597 17:-1 18:-0.620385 19:-1 20:-1 21:-0.746858 
-0 -0 -0 -0 -0 -0 -0 -0 -0 128 107.2572872005598 0 0 0 0 0 0 1:-0.894326 2:-0.996764 3:-0.919371 4:-0.769299 5:-1 6:-0.769397 7:-1 8:-1 9:-0.851852 10:-1 11:-0.823256 12:-0.964498 13:-0.876519 14:-1 15:-0.921281 16:-0.847396 17:-1 18:-0.706632 19:-1 20:-1 21:-0.906075 
-0 -0 -0 -0 -0 -0 -0 -0 -0 0 128 0 0 0 0 0 0 1:-0.978252 2:-0.925566 3:-0.99169 4:-0.919255 5:-1 6:-0.899784 7:-1 8:-1 9:-1 10:-1 11:-0.941085 12:-0.987774 13:-0.900502 14:-1 15:-1 16:-0.883739 17:-1 18:-0.690297 19:-1 20:-1 21:-0.850559 
-89.46793256096697 -128 -128 -36.42732129395027 -0 -0 -0 -0 -0 0 128 0 0 0 0 0 2.82829375905543 1:-0.958734 2:-0.909385 3:-1 4:-0.91955 5:-1 6:-0.818966 7:-0.791855 8:-1 9:-0.934815 10:-1 11:-0.75814 12:-1 13:-1 14:-1 15:-1 16:-0.871456 17:-1 18:-0.704672 19:-1 20:-1 21:-0.912709 
-77.53848617148842 -128 -128 -92.1754000011654 -0 -0 -0 -0 -0 24.37673373850954 128 0 0 0 0 23.25494724201488 0 1:-0.950091 2:-0.773463 3:-0.996407 4:-0.934339 5:-1 6:-0.814655 7:-0.954751 8:-0.991031 9:-0.70963 10:-1 11:-0.444961 12:-1 13:-0.99449 14:-1 15:-0.998666 16:-0.88458 17:-1 18:-0.774583 19:-1 20:-1 21:-0.944832 
-0 -23.18516590132851 -128 -0 -0 -0 -0 -0 -0 0 128 0 0 0 0 0 0 1:-0.985222 2:-0.951456 3:-0.993262 4:-0.974564 5:-1 6:-0.908405 7:-1 8:-0.847534 9:-1 10:-1 11:-0.906977 12:-0.981544 13:-0.8655 14:-1 15:-0.998666 16:-0.962648 17:-1 18:-0.86083 19:-1 20:-1 21:-0.952863 
-0 -0 -0 -0 -0 -0 -0 -0 -0 0 128 0 0 0 0 0 0 1:-0.9763 2:-1 3:-0.981808 4:-0.923395 5:-1 6:-0.846983 7:-1 8:-1 9:-1 10:-1 11:-0.869767 12:-0.995298 13:-0.891752 14:-1 15:-0.955304 16:-0.898881 17:-1 18:-0.76805 19:-1 20:-1 21:-0.931913 
-0 -0 -0 -0 -0 -0 -0 -0 -0 0 128 0 0 0 0 0 0 1:-0.973791 2:-0.957929 3:-0.990567 4:-0.945874 5:-1 6:-0.961207 7:-1 8:-1 9:-0.952593 10:-1 11:-0.987597 12:-0.985658 13:-0.90666 14:-1 15:-0.980654 16:-0.903087 17:-1 18:-0.839268 19:-1 20:-1 21:-0.97067 
-0 -0 -0 -0 -0 -0 -0 -7.679283971216539 -37.43186251012062 0 0 0 0 0 0 0 0 1:-0.923881 2:-1 3:-0.907917 4:-0.833481 5:-1 6:-0.83944 7:-1 8:-1 9:-1 10:-1 11:-1 12:-0.952272 13:-0.759196 14:-1 15:-0.920614 16:-0.872297 17:-1 18:-0.828814 19:-1 20:-1 21:-0.925978 
-0 -0 -0 -0 -0 -0 -0 -0 -0 128 128 0 0 0 0 0 0 1:-0.894326 2:-0.996764 3:-0.919371 4:-0.769299 5:-1 6:-0.769397 7:-1 8:-1 9:-0.851852 10:-1 11:-0.823256 12:-0.964498 13:-0.876519 14:-1 15:-0.921281 16:-0.847396 17:-1 18:-0.706632 19:-1 20:-1 21:-0.906075 
-0 -0 -0 -0 -0 -0 -0 -0 -0 0 128 0 0 0 0 0 0 1:-0.978252 2:-0.925566 3:-0.99169 4:-0.919255 5:-1 6:-0.899784 7:-1 8:-1 9:-1 10:-1 11:-0.941085 12:-0.987774 13:-0.900502 14:-1 15:-1 16:-0.883739 17:-1 18:-0.690297 19:-1 20:-1 21:-0.850559 
-54.69107200849858 -119.1493758376155 -128 -18.33341493787097 -0 -0 -0 -0 -0 0 128 0 0 0 0 0 0 1:-0.985222 2:-0.951456 3:-0.993262 4:-0.974564 5:-1 6:-0.908405 7:-1 8:-0.847534 9:-1 10:-1 11:-0.906977 12:-0.981544 13:-0.8655 14:-1 15:-0.998666 16:-0.962648 17:-1 18:-0.86083 19:-1 20:-1 21:-0.952863 
