svm_type c_svc
kernel_type rbf
gamma 0.125
nr_class 13
total_sv 478
rho 0.136001 -0.00802558 0.678767 0.15129 0.648066 4.05298 1.73614 1.6723 -8.06121 -3.21725 2.9053 0.911387 0.0696184 0.964396 -0.243958 -0.645486 -0.511762 -0.243716 -0.0237223 -0.199523 -0.138022 -0.103754 0.214485 1.06782 -0.159024 -0.987575 -0.714764 0.0363661 -0.121832 -0.304091 -0.221862 0.0426902 1.0534 -1.09755 -1.40125 -0.989241 -0.795601 -0.663081 -0.711289 -0.783846 -0.596582 -0.265758 -4.05049 -0.688416 -4.62284 -0.601671 -0.486825 -0.128451 -0.343755 -0.59336 -0.547648 -4.60929 -0.642503 -0.993427 -0.930522 -0.217874 0.562833 -3.87577 8.64182 -4.70944 -2.67355 -1.63812 4.38177 14.4928 -3.5015 -2.97061 1.71885 2.02559 -9.28879 -1.25915 0.498614 0.442643 -3.4609 4.64387 1.05848 18.5613 1.88654 0.71653
label 10 20 21 22 30 31 40 41 42 50 51 52 60
nr_sv 42 11 19 12 39 37 41 58 51 28 66 54 20
SV
0 0 0 0 0 0 0 0 0 512 512 0 1:-0.969608 2:-0.673139 3:-0.999211 4:-0.962468 5:-1 6:-0.71444 7:-0.909502 8:-1 9:-1 10:-1 11:-0.048062 12:-1 13:-0.991463 14:-1 15:-0.996054 16:-0.999575 17:-1 18:-0.951143 20:-1 21:-0.906425 
0 0 0 0 0 0 0 0 317.1229693155573 512 512 0 1:-1 2:-0.925566 3:-1 4:-0.972704 5:-1 6:-0.692888 7:-0.746606 8:-1 9:-0.99061 10:-1 11:-0.203101 12:-1 13:-1 14:-1 15:-1 16:-1 17:-1 18:-0.921198 20:-1 21:-0.748254 
0 0 0 0 0 0 0 0 0 512 512 0 1:-0.989126 2:-0.906149 3:-1 4:-1 5:-1 6:-0.703664 7:-1 8:-1 9:-1 10:-1 11:-0.792248 12:-1 13:-1 14:-1 15:-1 16:-1 17:-1 18:-1 20:-1 21:-0.831355 
0 0 0 0 0 0 0 0 512 512 512 0 1:-0.979925 2:-0.724919 3:-1 4:-0.932329 5:-1 6:-0.741379 7:-0.520362 8:-1 9:-0.84507 10:-1 11:-0.237209 12:-1 13:-1 14:-1 15:-1 16:-0.962585 17:-1 18:-0.918046 20:-1 21:-0.900489 
0 0 0 0 0 0 0 0 141.5128662942244 0 512 0 1:-0.946187 2:-0.902913 3:-0.99487 4:-0.953938 5:-1 6:-0.716595 7:-1 8:-1 9:-1 10:-1 11:-0.869767 12:-1 13:-0.994955 14:-1 15:-1 16:-0.985119 17:-1 18:-0.982664 20:-1 21:-0.869413 
0 0 0 0 0 0 0 0 0 512 512 0 1:-0.973512 2:-0.831715 3:-1 4:-0.982371 5:-1 6:-0.682112 7:-0.638009 8:-1 9:-0.877934 10:-1 11:-0.355039 12:-1 13:-1 14:-1 15:-1 16:-1 17:-1 18:-0.925926 20:-1 21:-0.871159 
0 0 0 0 0 0 0 0 512 512 512 0 1:-0.986059 2:-0.679612 3:-1 4:-1 5:-1 6:-0.677802 7:-0.9819 8:-1 9:-1 10:-1 11:-0.460465 12:-1 13:-1 14:-1 15:-1 16:-0.998724 17:-1 18:-0.951143 20:-1 21:-0.887221 
0 0 0 0 0 0 0 0 433.4812224445162 0 0 0 1:-0.964868 2:-0.634304 3:-1 4:-1 5:-1 6:-0.615302 7:-0.574661 8:-1 9:-1 10:-1 11:-0.705426 12:-1 13:-1 14:-1 15:-1 16:-1 17:-1 18:-1 20:-1 21:-0.861034 
0 0 0 0 0 0 0 0 0 0 395.8084056562106 0 1:-0.984107 2:-0.81877 3:-0.995659 4:-1 5:-1 6:-0.553879 7:-0.040724 8:-1 9:-1 10:-1 11:-0.389147 12:-1 13:-1 14:-1 15:-0.998309 16:-1 17:-1 18:-1 20:-1 21:-0.873953 
0 0 0 0 0 0 0 0 512 512 512 0 1:-0.985222 2:-0.669903 3:-0.988951 4:-1 5:-1 6:-0.8125 7:-0.438914 8:-0.904762 9:-1 10:-1 11:-0.463566 12:-0.998118 13:-1 14:-1 15:-0.965614 16:-1 17:-1 18:-1 20:-1 21:-0.873254 
0 0 0 0 0 0 0 0 0 512 512 0 1:-0.95734 2:-0.79288 3:-1 4:-0.943702 5:-1 6:-0.557112 7:-0.755656 8:-1 9:-0.910798 10:-1 11:-0.40155 12:-1 13:-1 14:-1 15:-1 16:-0.988946 17:-1 18:-0.943262 20:-1 21:-0.81669 
0 0 0 0 0 0 0 0 512 512 512 0 1:-0.961244 2:-0.822006 3:-1 4:-0.968723 5:-1 6:-0.640086 7:-1 8:-1 9:-0.948357 10:-1 11:-0.689922 12:-1 13:-1 14:-1 15:-1 16:-1 17:-1 18:-0.93223 20:-1 21:-0.802723 
0 0 0 0 0 0 0 0 0 0 360.1313940721823 0 1:-0.986616 2:-1 3:-1 4:-1 5:-1 6:-0.627155 7:-0.927602 8:-1 9:-1 10:-1 11:-0.826357 12:-1 13:-1 14:-1 15:-1 16:-1 17:-1 18:-1 20:-1 21:-0.766061 
0 0 0 0 0 0 0 0 0 0 240.1065680471267 0 1:-0.964311 2:-0.517799 3:-1 4:-0.964743 5:-1 6:-0.841595 7:-0.475113 8:-1 9:-0.769953 10:-1 11:-0.609302 12:-1 13:-1 14:-1 15:-1 16:-0.972364 17:-1 18:-0.978723 20:-1 21:-0.96683 
0 0 0 0 0 0 0 0 512 512 512 0 1:-0.974906 2:-0.961165 3:-1 4:-0.916406 5:-1 6:-0.688578 7:-1 8:-1 9:-0.943662 10:-1 11:-0.745736 12:-1 13:-1 14:-1 15:-1 16:-0.952381 17:-1 18:-0.888889 20:-1 21:-0.84183 
0.2071114392533349 6.261019887507939 0 4.884441122204318 26.42938973031512 381.2784790063653 186.2830864959292 512 512 512 512 0 1:-0.973512 2:-0.906149 3:-0.993686 4:-0.926642 5:-1 6:-0.734914 7:-1 8:-1 9:-1 10:-1 11:-0.817054 12:-0.995129 13:-0.945673 14:-1 15:-0.89177 16:-0.997024 17:-1 18:-0.888889 20:-1 21:-0.928771 
0 17.15684009033425 0 0 27.1267035016704 18.84246992085401 84.90159167959334 512 512 512 512 36.31347691286235 1:-0.966541 2:-1 3:-1 4:-0.89764 5:-1 6:-0.756466 7:-1 8:-1 9:-1 10:-1 11:-1 12:-1 13:-1 14:-1 15:-1 16:-0.935374 17:-1 18:-0.891253 20:-1 21:-0.892807 
4.116314035207695 0 1.271100674301301 26.96031584122138 0 0 0 35.1014256573999 512 512 0 0 1:-0.972675 2:-1 3:-0.986584 4:-0.978959 5:-1 6:-0.511853 7:-1 8:-1 9:-1 10:-1 11:-1 12:-0.998672 13:-0.968956 14:-1 15:-1 16:-0.986395 17:-1 18:-0.907801 20:-1 21:-0.769553 
0.8179756740409477 0 0 0 0 0 0 0 149.8358349291199 512 512 1.829798320899617 1:-0.989684 2:-0.783172 3:-1 4:-0.959625 5:-1 6:-0.534483 7:-0.665158 8:-1 9:-0.835681 10:-1 11:0.0294574 12:-1 13:-1 14:-1 15:-1 16:-1 17:-1 18:-0.858156 20:-1 21:-0.821229 
0 0 0.4599910619773721 0 0 0 0 46.38276173317834 0 512 512 0 1:-0.962359 2:-0.909385 3:-1 4:-0.994882 5:-1 6:-0.451509 7:-0.99095 8:-1 9:-0.901408 10:-1 11:-0.705426 12:-1 13:-1 14:-1 15:-1 16:-1 17:-1 18:-0.947991 20:-1 21:-0.630587 
0 0 0 0 0 0 0 0 512 0 419.1705441624024 0 1:-0.949254 2:-0.656958 3:-0.996646 4:-0.994882 5:-1 6:-0.780172 7:-0.628959 8:-0.921569 9:-1 10:-1 11:-0.817054 12:-1 13:-1 14:-1 15:-1 16:-1 17:-1 18:-0.990544 20:-1 21:-0.967877 
0 0 0 0 0 63.47645884925016 14.08513132565906 238.5702081937584 512 512 512 0 1:-0.968772 2:-0.854369 3:-0.993884 4:-0.918681 5:-1 6:-0.837284 7:-0.882353 8:-1 9:-0.58216 10:-1 11:-0.748837 12:-1 13:-0.995343 14:-1 15:-1 16:-0.965136 17:-1 18:-0.871552 20:-1 21:-0.903282 
0 0 0 0 0 0 0 0 46.9016162401495 130.2050763282971 130.3045029844427 0 1:-0.962916 2:-0.537217 3:-1 4:-0.977822 5:-1 6:-0.715517 7:-0.574661 8:-1 9:-0.765258 10:-1 11:-0.593798 12:-1 13:-1 14:-1 15:-1 16:-0.991497 17:-1 18:-0.938534 20:-1 21:-0.885126 
0.4427253147852944 0.08505430898031897 1.216192732126252 0.2020336352794053 0 0 0 0 0 0 0 0.5818298075132168 1:-0.972675 2:-0.640777 3:-0.99487 4:-0.96588 5:-0.113402 6:-0.851293 7:-0.873303 8:-0.983193 9:-0.906103 10:0.454545 11:-0.6 12:-1 13:-0.993791 14:-1 15:-0.993236 16:-0.991922 17:-1 18:-0.982664 20:-0.625 21:-0.974162 
0 0 0 0 0 0 0 0 0 512 0 0 1:-0.979925 2:-0.566343 3:-1 4:-0.998294 5:-1 6:-0.632543 7:-0.710407 8:-1 9:-0.680751 10:-1 11:-0.125581 12:-1 13:-1 14:-1 15:-1 16:-1 17:-1 18:-0.950355 20:-1 21:-0.846369 
0 2.564442556520485 2.057000799717744 0 0 5.459871857350465 0 39.98524107826019 396.9264915506274 152.8507264648304 88.5919050724912 0 1:-0.973791 2:-0.320388 3:-0.993095 4:-0.952232 5:-1 6:-0.854526 7:-0.0769231 8:-0.697479 9:-0.741784 10:-1 11:-0.488372 12:-1 13:-0.991463 14:-1 15:-0.980271 16:-0.999575 17:-1 18:-0.955083 20:-1 21:-0.974162 
0 0 0 0 0 0 0 0 512 512 512 0 1:-0.943399 2:-0.631068 3:-0.979678 4:-0.963605 5:-1 6:-0.639009 7:-0.99095 8:-0.966387 9:-0.962441 10:-1 11:-0.631008 12:-0.998229 13:-0.999224 14:-1 15:-0.976888 16:-0.990646 17:-1 18:-0.892041 20:-1 21:-0.921788 
0 0 0 0 0 0 0 0 0 103.5636430503853 512 0 1:-0.976021 2:-0.932039 3:-1 4:-0.985783 5:-1 6:-0.616379 7:-0.9819 8:-1 9:-1 10:-1 11:-0.736434 12:-1 13:-1 14:-1 15:-1 16:-1 17:-1 18:-0.974783 20:-1 21:-0.852304 
0 0 0 0 0 0 0 0 0 98.53685295173658 512 0 1:-0.960965 2:-0.87055 3:-1 4:-0.956213 5:-1 6:-0.802802 7:-0.972851 8:-1 9:-0.868545 10:-1 11:-0.860465 12:-1 13:-1 14:-1 15:-1 16:-0.987245 17:-1 18:-0.962963 20:-1 21:-0.960196 
0 0 0 0 0 0 0 0 263.2483645536404 377.776024897692 135.4423459032276 6.781592778369294 1:-0.973233 2:-0.530744 3:-0.99053 4:-0.935172 5:-1 6:-0.735991 7:-0.339367 8:-0.994398 9:-0.638498 10:-1 11:-0.283721 12:-1 13:-0.986418 14:-1 15:-0.998309 16:-0.941327 17:-1 18:-0.907013 20:-1 21:-0.912709 
0 0 0 0 0 0 0 0 14.28934135664508 512 428.0764926820464 0 1:-0.989962 2:-0.744337 3:-0.994673 4:-0.985215 5:-1 6:-0.758621 7:-0.457014 8:-0.904762 9:-0.938967 10:-1 11:-0.153488 12:-0.999889 13:-0.995343 14:-1 15:-0.987599 16:-1 17:-1 18:-0.992908 20:-1 21:-0.925978 
0 0 0 0 0 0 0 0 250.8766513359332 512 512 0 1:-0.989962 2:-0.744337 3:-0.994673 4:-0.985215 5:-1 6:-0.758621 7:-0.457014 8:-0.904762 9:-0.938967 10:-1 11:-0.153488 12:-0.999889 13:-0.995343 14:-1 15:-0.987599 16:-1 17:-1 18:-0.992908 20:-1 21:-0.925978 
0.2764936652066703 0 0.5331634663230018 0 0 0 0 0 0 0 0 0 1:-0.968214 2:-0.18123 3:-1 4:-0.969861 5:-0.938144 6:-0.822198 7:0.0950226 8:-1 9:-0.7277 10:-0.69697 11:-0.386047 12:-1 13:-1 14:-1 15:-1 16:-0.979167 17:-1 18:-0.975571 20:-0.725 21:-0.952514 
0 0 0 0 0 143.6611266759721 0 0 512 315.1647768180565 512 0 1:-0.961244 2:-0.967638 3:-0.993884 4:-0.945977 5:-1 6:-0.885776 7:-1 8:-1 9:-0.953052 10:-1 11:-0.91938 12:-0.999668 13:-0.989523 14:-1 15:-1 16:-0.977041 17:-1 18:-0.99212 20:-1 21:-0.964036 
0 0 0 0 0 0 0 0 0 0 512 0 1:-0.990799 2:-0.841424 3:-1 4:-1 5:-1 6:-0.742457 7:-0.800905 8:-1 9:-1 10:-1 11:-0.643411 12:-1 13:-1 14:-1 15:-1 16:-1 17:-1 18:-1 20:-1 21:-0.872905 
0 0 0 0 0 0 0 0 0 0 512 0 1:-0.990799 2:-0.841424 3:-1 4:-1 5:-1 6:-0.742457 7:-0.800905 8:-1 9:-1 10:-1 11:-0.643411 12:-1 13:-1 14:-1 15:-1 16:-1 17:-1 18:-1 20:-1 21:-0.872905 
0 0 0 0 0 0 0 0.3045198981152812 1.570547052830082 4.104163241039746 1.819955594518951 0 1:-0.982155 2:-0.857605 3:-0.953832 4:-0.935741 5:-0.979381 6:-0.948276 7:-1 8:-0.904762 9:-0.906103 10:-0.545455 11:-0.950388 12:-0.969335 13:-0.964688 14:-0.794872 15:-1 16:-0.997874 17:-0.823529 18:-0.949567 20:-1 21:-0.999302 
0 1.291071018437479 0 0 2.614834861454502 21.13886764732302 5.579141527622117 8.183891111783989 19.72969591955361 61.22305119019664 35.69436322383324 0 1:-0.982155 2:-0.857605 3:-0.953832 4:-0.935741 5:-0.979381 6:-0.948276 7:-1 8:-0.904762 9:-0.906103 10:-0.545455 11:-0.950388 12:-0.969335 13:-0.964688 14:-0.794872 15:-1 16:-0.997874 17:-0.823529 18:-0.949567 20:-1 21:-0.999302 
0 0 0 0 0 0 0 0 0 74.42230249913614 0 0 1:-0.972396 2:-0.990291 3:-1 4:-0.887404 5:-1 6:-0.570043 7:-1 8:-1 9:-0.929577 10:-1 11:-0.956589 12:-1 13:-1 14:-1 15:-1 16:-0.929847 17:-1 18:-0.947203 20:-1 21:-0.89595 
0 0 0 0 0 0 0 0 512 0 85.78162170607669 0 1:-0.955109 2:-0.592233 3:-0.998422 4:-0.968155 5:-1 6:-0.724138 7:-0.891403 8:-1 9:-0.938967 10:-1 11:-0.581395 12:-0.999889 13:-0.989135 14:-1 15:-0.978579 16:-0.998724 17:-1 18:-0.986604 20:-1 21:-0.951816 
0 0 0 0 0 0 0 0 159.3116313385667 512 0 0 1:-0.950648 2:-0.420712 3:-1 4:-0.981234 5:-1 6:-0.577586 7:-0.954751 8:-1 9:-0.971831 10:-1 11:-0.404651 12:-1 13:-1 14:-1 15:-1 16:-1 17:-1 18:-0.985816 20:-1 21:-0.853701 
0 0 0 0 0 0 0 0 275.5743414907252 512 0 0 1:-0.982155 2:-0.873786 3:-0.999803 4:-1 5:-1 6:-0.702586 7:-1 8:-1 9:-0.746479 10:-1 11:-0.885271 12:-1 13:-1 14:-1 15:-0.985344 16:-0.993622 17:-1 18:-0.93223 20:-1 21:-0.894553 
-0 0 8.937089169838558 0 0 0 0 0 0 0 0 0 1:-0.539941 2:-1 3:0.148861 4:-0.829969 5:-1 6:-0.224138 7:-1 8:-1 9:-1 10:-1 11:-1 12:0.396878 13:-0.836632 14:-1 15:-0.257046 16:-0.96216 17:-1 18:-0.651694 20:-1 21:-0.686802 
-1.448615065055628 3.182854527818833 0 11.46479952703299 12.55015215555482 2.123100186303149 5.067632843861413 2.692783634907101 1.754371875779232 1.790018391770752 1.887794652177782 3.15798961657348 1:-0.625819 2:-0.789644 3:-0.83723 4:-0.800398 5:-1 6:-0.455819 7:-0.701357 8:-1 9:-1 10:-1 11:-0.674419 12:-0.157312 13:-0.354676 14:-1 15:-0.59301 16:-0.862245 17:-1 18:-0.189913 20:-1 21:-0.545042 
-0 3.827048476709801 0 0 0 0 0 0 0 0 0 0 1:-0.486965 2:-1 3:-0.705041 4:-0.609895 5:-1 6:-0.425647 7:-1 8:-0.770308 9:-1 10:-1 11:-0.869767 12:-0.152884 13:-0.287932 14:-1 15:-0.341601 16:-0.464711 17:-1 18:-0.0338849 20:-1 21:-0.594972 
-0 1.0876916721319 0 0 7.120582887315516 0 0 0 0 0 0 0 1:-0.368186 2:-0.770227 3:-0.652165 4:-0.715098 5:-1 6:0.46444 7:-1 8:-1 9:-1 10:-1 11:-0.699225 12:-0.128861 13:-0.292588 14:-1 15:-0.460541 16:-0.631378 17:-1 18:-0.316785 20:-1 21:-0.40852 
-1.835130250907063 3.304199885830935 15.58280637899814 2.774520103429959 8.126519212409278 1.633326353856192 3.1831042438244 1.584281842388844 1.932134879597421 2.06744717787983 1.560578337810089 1.187015341144887 1:-0.518193 2:-1 3:-0.684719 4:-0.92323 5:-1 6:0.044181 7:-1 8:-1 9:-1 10:-1 11:-0.76124 12:0.0043175 13:-1 14:-1 15:-0.22097 16:-1 17:-1 18:-0.903073 20:-1 21:-0.0939246 
-0 0.00379281065125441 0.389231396055301 0 0 0 0 0 0 0 0 0.1889930197255017 1:-0.524049 2:-0.63754 3:0.113939 4:1 5:-1 6:-0.248922 7:-1 8:-1 9:-0.953052 10:-1 11:-0.646512 12:-0.0592273 13:1 14:-1 15:-0.884442 16:1 17:-1 18:0.0654058 20:-1 21:-0.358589 
-2.576874812531252 2.041161763803664 0 13.99392144225648 1.864442405206685 6.298483431824938 4.470750040482798 3.800578263792177 2.302851168343615 2.33286905063228 2.330345777656051 4.26621864199761 1:-0.850272 2:-1 3:-0.48249 4:-0.633779 5:-1 6:-0.65194 7:-1 8:-1 9:-1 10:-1 11:-1 12:-0.306985 13:-0.139309 14:-1 15:-0.691657 16:-0.331207 17:-1 18:-0.739953 20:-1 21:-0.906425 
-0 0 0 0 6.380430210295534 0 0 0 0 0 0 0 1:-0.657326 2:-0.825243 3:-0.393312 4:-0.348877 5:-1 6:-0.273707 7:-1 8:-1 9:-0.812207 10:-1 11:-0.813953 12:-0.26215 13:0.0706248 14:-1 15:-0.63867 16:-0.5625 17:-1 18:-0.636722 20:-1 21:-0.857891 
-0 0 14.20049654870103 0 0 0 0 0 0 0 0 0 1:0.0185418 2:-1 3:0.131696 4:-0.826557 5:-1 6:0.425647 7:-1 8:-1 9:-1 10:-1 11:-1 12:0.725894 13:-0.632518 14:-1 15:0.0231116 16:-0.701105 17:-1 18:-0.388495 20:-1 21:-0.265712 
-0 0 30.65389316000309 0 0 0 0 0 0 0 0 0 1:-0.164366 2:-0.705502 3:0.11828 4:-0.827694 5:-1 6:0.411638 7:-1 8:-1 9:-1 10:-1 11:-0.696124 12:0.253183 13:-0.547924 14:-1 15:-0.127396 16:-0.901361 17:-1 18:-0.687943 20:-1 21:-0.373603 
-0 1.606262910709268 1.607921739807507 0 2.284966576683091 0 0 0 0 0 0 0.2958073414003028 1:-0.0517217 2:-0.508091 3:-0.0515932 4:0.110037 5:-1 6:0.184267 7:-0.60181 8:-0.921569 9:-0.704225 10:-1 11:-0.581395 12:-0.200266 13:-0.00853706 14:-1 15:-0.602029 16:-0.516156 17:-1 18:1 20:-1 21:-0.523045 
-0 -0 0 0 15.72464192066106 2.857812044473106 0 1.971370509479911 0 0 0 0 1:-0.55695 2:-0.990291 3:-0.834862 4:-0.827694 5:-1 6:-0.996767 7:-1 8:-0.619048 9:-0.873239 10:-1 11:-0.913178 12:-0.831396 13:-0.740784 14:-1 15:-0.95885 16:-0.820153 17:-1 18:-0.941686 20:-1 21:-0.993366 
-7.166648569846443 -1.712938917102979 3.285508122427542 0 3.793184756763338 3.147782389586214 0 0 7.720988971152972 2.652844252021932 9.00225315591627 0 1:-0.513174 2:-1 3:-0.867811 4:-0.881717 5:-1 6:-1 7:-1 8:-1 9:-1 10:-1 11:-1 12:-0.780804 13:-0.762127 14:-1 15:-0.983089 16:-0.943452 17:-1 18:-0.899921 20:-1 21:-0.994413 
-2.507177520603651 -0 0 37.11967438298166 69.43540571686941 18.94776073846562 53.48758952465231 12.05593717870241 0 0 0 25.30918453464364 1:-0.582044 2:-0.967638 3:-0.905692 4:-0.832812 5:-1 6:-0.534483 7:-1 8:-1 9:-1 10:-1 11:-0.813953 12:-0.949297 13:-0.660846 14:-1 15:-0.925592 16:-0.760629 17:-1 18:-0.588652 20:-1 21:-0.850209 
-4.401567010473613 -0 0 0 0 9.413202789469929 3.572417481266521 3.65026837243142 7.590631360118341 7.500717818087009 6.041378307054107 0 1:-0.538269 2:-0.669903 3:-0.89346 4:-0.867501 5:-1 6:-0.807112 7:-0.520362 8:-0.366947 9:-0.882629 10:-1 11:-0.578295 12:-0.905458 13:-0.779589 14:-1 15:-0.899098 16:-0.959184 17:-1 18:-0.698976 20:-1 21:-0.890014 
-13.28303476085677 -0 0 0 3.643690703888885 1.482038919430654 0 3.087135875219785 11.61321863672206 4.7385403283432 0 0 1:-0.569776 2:-1 3:-0.899379 4:-0.862951 5:-1 6:-0.828664 7:-1 8:-1 9:-1 10:-1 11:-1 12:-0.875789 13:-0.764455 14:-1 15:-0.948703 16:-0.755952 17:-1 18:-0.708432 20:-1 21:-0.914455 
-0 -0 0 0 0 7.866384337300035 28.44082798543377 0 0.249677516591668 8.739338327698109 6.43608344310672 0 1:-0.545797 2:-1 3:-0.8978 4:-0.872619 5:-1 6:-0.756466 7:-1 8:-1 9:-0.920188 10:-1 11:-0.882171 12:-0.8697 13:-0.825378 14:-1 15:-0.894025 16:-0.891156 17:-1 18:-0.51773 20:-1 21:-0.863478 
-0 -3.190176649126021 6.526219984034713 0 3.68544013282356 0 0 0 0 0 0 0 1:0.243552 2:-0.935275 3:-0.527671 4:-0.735001 5:-1 6:-0.0517241 7:-1 8:-0.35014 9:-0.71831 10:-1 11:-0.0542636 12:-0.562382 13:-0.316259 14:-1 15:-0.00901917 16:-0.522109 17:-1 18:-0.457841 20:-1 21:-0.0848464 
-0 -2.466622477834752 2.411936829772175 15.1193101380299 14.40129298764663 0 0 0 0 0 0 0 1:0.102468 2:-0.802589 3:-0.719838 4:-0.284049 5:-1 6:0.329741 7:-0.773756 8:-0.831933 9:-0.619718 10:-1 11:-0.652713 12:-0.751467 13:-0.421032 14:-1 15:-0.556933 16:-0.639031 17:-1 18:-0.470449 20:-1 21:-0.257332 
-0 -0 0 1.8226358013102 0 0 9.281368135227289 0 0 2.033004471086476 0 17.29256585808918 1:-0.516799 2:-0.796117 3:-0.877281 4:-0.756042 5:-1 6:-0.469828 7:-1 8:-0.691877 9:-0.690141 10:-1 11:-0.848062 12:-0.944537 13:-0.927823 14:-1 15:-0.922773 16:-0.635629 17:-1 18:-0.437352 20:-1 21:-0.698673 
-0 -0 0 0 0 25.08587471107602 1.426042746234628 50.38725203196174 0 5.644544020407117 7.939225398697109 79.35110323303468 1:-0.609368 2:-1 3:-0.927197 4:-0.745237 5:-1 6:-0.917026 7:-1 8:-1 9:-1 10:-1 11:-1 12:-0.945976 13:-0.79123 14:-1 15:-0.952086 16:-0.466412 17:-1 18:-0.732072 20:-1 21:-0.978352 
-0 -0 0 0 0 0 0 0 0 0 0 23.46134979460304 1:-0.591524 2:-1 3:-0.928381 4:-0.79528 5:-1 6:-0.753233 7:-1 8:-1 9:-1 10:-1 11:-1 12:-0.966124 13:-0.812573 14:-1 15:-0.956032 16:-0.561224 17:-1 18:-0.512214 20:-1 21:-0.930168 
-0 -2.099556810483176 0 0 0 0 0 0 0 0 0 0 1:-0.115293 2:-1 3:-0.7226 4:-0.735001 5:-1 6:-0.655172 7:-1 8:-1 9:-1 10:-1 11:-1 12:-0.777261 13:-0.512224 14:-1 15:-0.555242 16:-0.738946 17:-1 18:-0.721828 20:-1 21:-0.849162 
-0 -0.3266371466856743 0 0 0 0 0 0 0 0 0 0 1:-0.147079 2:-0.76699 3:-0.827365 4:-0.532556 5:-1 6:-0.524784 7:-1 8:-0.803922 9:-0.802817 10:-1 11:-0.755039 12:-0.884424 13:-0.948002 14:-1 15:-0.879369 16:0.0318878 17:-1 18:0.793538 20:-1 21:-0.693087 
-0 -0 0 0.08859992347160756 0 0 0 0 0 0 0 0 1:-0.27255 2:-0.980583 3:-0.872152 4:-0.531987 5:-1 6:-0.572198 7:-1 8:-0.652661 9:-0.816901 10:-1 11:-0.925581 12:-0.89018 13:-0.822662 14:-1 15:-0.926719 16:0.0701531 17:-1 18:0.29472 20:-1 21:-0.503841 
-0 -0 0 34.5059892522756 0 0 0 0 0 0 0 0 1:-0.493936 2:-0.970874 3:-0.924435 4:-0.757748 5:-1 6:-0.549569 7:-1 8:-1 9:-0.849765 10:-1 11:-0.953488 12:-0.929149 13:-0.661234 14:-1 15:-0.937993 16:-0.781888 17:-1 18:-0.417652 20:-1 21:-0.592528 
-0 -0 0 0 6.102268122015755 0 5.566874980487825 0 0 0 0 0 1:-0.348947 2:-0.472492 3:-0.839006 4:-0.783338 5:-1 6:-0.517241 7:-1 8:-1 9:-0.633803 10:-1 11:-0.652713 12:-0.900476 13:-0.743112 14:-1 15:-0.796505 16:-0.903486 17:-1 18:-0.638298 20:-1 21:-0.450768 
-0 -5.028811158221103 0 11.78281882149845 39.78179014964643 0 0 0 0 0 0 0 1:-0.372647 2:-1 3:-0.86426 4:-0.816889 5:-1 6:-0.413793 7:-1 8:-1 9:-1 10:-1 11:-1 12:-0.870807 13:-0.764455 14:-1 15:-0.702931 16:-0.793367 17:-1 18:0.0583136 20:-1 21:-0.544693 
-0 -0.228268888201951 1.664052992984605 1.072765021968041 2.272753233100748 0 0 0 0 0 0 11.97985126462513 1:-0.508156 2:-0.0744337 3:-0.925027 4:-0.683253 5:-1 6:-0.65194 7:-0.248869 8:-0.406162 9:-0.882629 10:-1 11:-0.327132 12:-0.986051 13:-0.850213 14:-1 15:-0.918828 16:-0.589286 17:-1 18:-0.166273 20:-1 21:-0.808659 
-0 -0 0 12.19208599583493 0 0 0 0 0 0 0 0 1:-0.427576 2:-0.760518 3:-0.883792 4:-0.700881 5:-1 6:-0.304957 7:-1 8:-0.977591 9:-0.981221 10:-1 11:-0.708527 12:-0.956825 13:-0.951882 14:-1 15:-0.884442 16:-0.500425 17:-1 18:-0.0890465 20:-1 21:-0.690992 
-1.893262912579303 -0 -5.366677413850844 3.200854595217161 5.13425208071858 2.669843048716999 2.987251840453767 2.23276446011747 1.811445190713014 2.041218037094384 2.007257006939871 1.898228675069163 1:0.0135229 2:-0.805825 3:-0.338463 4:-0.891953 5:-1 6:-0.53556 7:-0.927602 8:-0.316527 9:-1 10:-1 11:-0.510078 12:0.0769401 13:-0.827707 14:-1 15:-0.310034 16:-1 17:-1 18:-0.940898 20:-1 21:-0.614176 
-0 -23.5829184984262 -0 1.173797776960948 2.401494734573939 0 0.3184016270470123 0 0 0 0 0.921374498911938 1:0.112226 2:-0.909385 3:0.221861 4:-0.879443 5:-1 6:0.259698 7:-1 8:-0.904762 9:-0.985915 10:-1 11:-0.792248 12:0.0406288 13:-0.744276 14:-1 15:-0.487599 16:-0.783163 17:-1 18:-0.440504 20:-1 21:-0.532821 
-0 -4.152470866094217 -0 0 0 0 0 0 0 0 0 0 1:0.0559041 2:-0.76699 3:0.308474 4:-0.819164 5:-1 6:0.0668103 7:-1 8:-0.703081 9:-0.934272 10:-1 11:-0.35814 12:0.206133 13:-0.70586 14:-1 15:-0.303833 16:-0.904337 17:-1 18:-0.618597 20:-1 21:-0.609288 
-0 -0 -0 0 0 0 0 0 0 0 0 0.147801980504347 1:0.410289 2:-0.711974 3:0.569103 4:-0.832812 5:-1 6:0.877155 7:-0.764706 8:-0.831933 9:-0.690141 10:-1 11:0.888372 12:0.299568 13:-0.729919 14:-1 15:0.655581 16:-1 17:-1 18:-0.497242 20:-1 21:1 
-1.886187562160685 -0.9598728735216776 -2.025354680232264 1.644823442169266 1.614503080429003 1.034225970495926 1.832724357679344 1.141883793548359 1.935744663486287 1.984002020104662 1.939864477471428 2.912644194912538 1:-0.260839 2:1 3:-0.900562 4:-0.908445 5:-1 6:-0.186422 7:0.266968 8:-0.159664 9:-0.605634 10:-1 11:-0.807752 12:-0.951511 13:-0.836244 14:-1 15:-0.763247 16:-0.882228 17:-1 18:-0.794326 20:-1 21:-0.67074 
-1.704449089355835 -0.9286706590624124 -1.597372056182385 1.524392244294384 1.545768472480759 1.390235440805118 2.114625038721708 3.739445527533078 1.339604730743629 1.409391781409201 1.41026949495287 1.86516045183454 1:-0.538269 2:-1 3:-0.906679 4:-0.82087 5:0.0309278 6:-0.525862 7:-1 8:-1 9:-1 10:-1 11:-1 12:-0.97642 13:-0.902988 14:-1 15:-0.905862 16:-0.877126 17:-1 18:-0.660362 20:1 21:-0.649441 
-0 -7.823901804319725 -0 0 0 0 0 0 0 0 0 0 1:-0.301826 2:-0.864078 3:0.299596 4:-0.756042 5:-1 6:0.155172 7:-1 8:-0.994398 9:-1 10:-1 11:-0.494574 12:0.684712 13:-0.887466 14:-1 15:0.476888 16:-0.923044 17:-1 18:-0.699764 20:-1 21:0.173184 
-0 -0 -4.237825180909758 0 1.086969431024815 0 0 0 0 0 0 0.02463165957486414 1:0.749338 2:-0.990291 3:-0.433363 4:-0.397782 5:-1 6:0.435345 7:-1 8:-0.680672 9:-1 10:-1 11:-0.820155 12:-0.0192627 13:-0.414047 14:-1 15:-0.197858 16:-0.540391 17:-1 18:-0.261623 20:-1 21:0.207751 
-0 -4.259312142707036 -0 0 0 0 0 0 0 0 0 0 1:0.296807 2:-0.200647 3:0.600474 4:-0.528007 5:-1 6:-0.244612 7:-1 8:-0.820728 9:-0.99061 10:-1 11:-0.40155 12:0.539245 13:-0.147846 14:-1 15:-0.119504 16:-0.730867 17:-1 18:-0.0338849 20:-1 21:-0.173184 
-0.0535491703498496 -29.66429154927235 -0 0.6422252282196735 1.120923778558647 0.3248724706921828 0.6473628877583195 0.1192797753257681 0.2478600437019572 0.1139966530898101 0.05704481808328644 0 1:-0.2416 2:-1 3:-0.101707 4:-0.956213 5:-1 6:0.176724 7:-1 8:-1 9:-1 10:-1 11:-1 12:0.162515 13:-0.998836 14:-1 15:0.078354 16:-1 17:-1 18:-0.911742 20:-1 21:-0.0384078 
-0 -0 -0 0 0.09427980736084852 0 0 0 0 0 0 0 1:-0.0104559 2:-0.970874 3:-0.0470553 4:-0.828831 5:-1 6:0.30819 7:-0.828054 8:-0.378151 9:-1 10:-1 11:-0.367442 12:0.135614 13:-0.939853 14:-1 15:0.0146561 16:-0.999575 17:-1 18:-0.289204 20:-1 21:-0.0174581 
-0 -0 -0.6604885980437826 0 0 0 0 0 0 0 0 0.2147502439178592 1:0.237139 2:-0.864078 3:0.651376 4:-0.844754 5:-1 6:0.0226293 7:-1 8:-0.271709 9:-1 10:-1 11:0.795349 12:0.266467 13:-0.679084 14:-1 15:0.27903 16:-0.864796 17:-1 18:0.391647 20:-1 21:0.327514 
-0 -0 -0 -0 185.610546074216 0 0 0 0 0 0 0 1:-0.854454 2:-0.886731 3:-0.639736 4:-0.753767 5:-1 6:-0.519397 7:-1 8:-0.988796 9:-0.995305 10:-1 11:-0.696124 12:-0.570132 13:-0.726038 14:-1 15:-0.883315 16:-0.872024 17:-1 18:-0.725768 20:-1 21:-0.70845 
-0 -0 -0 -0 283.420634156091 0 0 0 0 0 0 0 1:-0.807612 2:-1 3:-0.816908 4:-0.652545 5:-1 6:-0.520474 7:-1 8:-1 9:-1 10:-1 11:-1 12:-0.821654 13:-0.612728 14:-1 15:-0.666291 16:-0.635204 17:-1 18:-0.824271 20:-1 21:-0.77933 
-0 -0 -0 -0 44.07463911996006 0 0 0 0 0 0 0 1:-0.831312 2:-1 3:-0.734438 4:-0.893659 5:-1 6:0.15625 7:-1 8:-1 9:-1 10:-1 11:-1 12:-0.677626 13:-0.615056 14:-1 15:-0.626832 16:-0.811224 17:-1 18:-0.817967 20:-1 21:-0.515014 
-0 -8.446106631338274 -0 -0 0 0 0 0 0 0 0 0 1:-0.816534 2:-0.951456 3:-0.774687 4:-0.783907 5:-1 6:-0.662716 7:-1 8:-1 9:-1 10:-1 11:-0.810853 12:-0.670541 13:-0.312379 14:-1 15:-0.931229 16:-0.650935 17:-1 18:-0.883373 20:-1 21:-0.873603 
-0 -1.01733247810894 -0 -0 0 0 0 0 0 0 0 0 1:-0.726474 2:-0.433657 3:-0.835849 4:-0.562695 5:-1 6:0.193966 7:-1 8:-1 9:-1 10:-1 11:-0.531783 12:-0.785896 13:-0.263873 14:-1 15:-0.849493 16:-0.620748 17:-1 18:-0.276596 20:-1 21:-0.292598 
-0 -0 -0 -0 31.41720903563274 0 0 0 0 0 0 0 1:-0.591245 2:-0.94822 3:-0.813949 4:-0.483651 5:-1 6:-0.0355603 7:-1 8:-1 9:-0.793427 10:-1 11:-0.990698 12:-0.789771 13:-0.463718 14:-1 15:-0.871477 16:-0.346939 17:-1 18:-0.444444 20:-1 21:-0.681564 
-0 -4.344445785276618 -0 -0 161.1501857756175 0 0 0 0 0 0 0 1:-0.747944 2:-1 3:-0.808425 4:-0.574069 5:-1 6:-0.359914 7:-1 8:-1 9:-1 10:-1 11:-1 12:-0.761098 13:-0.447808 14:-1 15:-0.70575 16:-0.588435 17:-1 18:-0.070134 20:-1 21:-0.731494 
-12.87373315923611 -0 -0 -0 351.0576368648323 28.10616370632437 33.46477139761289 13.30961498351869 0 9.941214372161129 3.674449969308732 0 1:-0.846368 2:-1 3:-0.7445 4:-0.782769 5:-1 6:-0.505388 7:-1 8:-1 9:-1 10:-1 11:-1 12:-0.775711 13:-0.708964 14:-1 15:-0.933484 16:-0.756378 17:-1 18:-0.829787 20:-1 21:-0.75419 
-2.10519738181773 -0 -0 -0 0 0 45.04932116507283 0 0 0 0 0 1:-0.767461 2:-1 3:-0.88833 4:-0.881149 5:-1 6:0.203664 7:-1 8:-1 9:-1 10:-1 11:-1 12:-0.931916 13:-0.708964 14:-1 15:-0.721533 16:-0.892432 17:-1 18:-0.602049 20:-1 21:-0.479749 
-0 -0 -0 -0 391.187014749482 4.500998111625105 240.3247206034827 19.00461343487329 2.448099960724636 2.931703764726717 0 13.72470040740108 1:-0.809285 2:-0.737864 3:-0.908454 4:-0.766847 5:-1 6:-0.212284 7:-1 8:-1 9:-0.892019 10:-1 11:-0.714729 12:-0.842688 13:-0.866899 14:-1 15:-0.728861 16:-0.856718 17:-1 18:-0.27502 20:-1 21:-0.673184 
-0 -0 -22.77704236128805 -0 505.9794886240913 0 0 0 0 0 0 0 1:-0.609647 2:-0.614887 3:-0.7883 4:-0.578049 5:-1 6:-0.206897 7:-1 8:-0.820728 9:-0.633803 10:-1 11:-0.472868 12:-0.886195 13:-0.563834 14:-1 15:-0.733935 16:-0.862245 17:-1 18:-0.161545 20:-1 21:-0.645251 
-0 -0 -0 -0.1553991748972455 0 0 31.51027841432279 0 0 0 0 0 1:-0.59013 2:-0.944984 3:-0.833087 4:-0.535399 5:-1 6:0.327586 7:-1 8:-0.742297 9:-0.976526 10:-1 11:-0.764341 12:-0.897819 13:-0.781917 14:-1 15:-0.698422 16:-0.772109 17:-1 18:-0.49803 20:-1 21:-0.443436 
-0 -0 -4.153164491086631 -0 0 0 0 0 0 0 0 0 1:-0.645337 2:-1 3:-0.858735 4:-0.626386 5:-1 6:-0.0290948 7:-1 8:-1 9:-1 10:-1 11:-1 12:-0.889073 13:-0.68995 14:-1 15:-0.892334 16:-0.601616 17:-1 18:-0.171001 20:-1 21:-0.721718 
-0 -0 -0 -0 122.0703051784579 0 0 0 0 0 0 0 1:-0.834379 2:-0.721683 3:-0.839006 4:-0.448394 5:-1 6:-0.515086 7:-1 8:-0.887955 9:-0.943662 10:-1 11:-0.937984 12:-0.850105 13:-0.540939 14:-1 15:-0.724915 16:-0.649235 17:-1 18:-0.249803 20:-1 21:-0.84148 
-0 -0 -0 -0 22.6863279488161 0 0 0 0 0 0 0 1:-0.747665 2:-0.912621 3:-0.858735 4:-0.285755 5:-1 6:-0.559267 7:-1 8:-1 9:-0.962441 10:-1 11:-0.906977 12:-0.815454 13:-0.515328 14:-1 15:-0.908117 16:-0.505102 17:-1 18:0.0866824 20:-1 21:-0.808659 
-0 -0 -0 -0 343.4530720870479 0 0 0 0 0 0 0 1:-0.796459 2:-0.789644 3:-0.789681 4:-0.729883 5:-1 6:-0.387931 7:-0.963801 8:-1 9:-0.873239 10:-1 11:-0.497674 12:-0.70641 13:-0.569655 14:-1 15:-0.846674 16:-0.821854 17:-1 18:-0.576832 20:-1 21:-0.755936 
-0 -0 -21.03870437355463 -0 512 0 23.56547386470183 27.70918494921607 3.95702043398039 1.24588542856893 8.922009798489418 50.92666940391408 1:-0.772201 2:-1 3:-0.839598 4:-0.673585 5:-1 6:-0.876078 7:-1 8:-1 9:-1 10:-1 11:-1 12:-0.658696 13:-0.8052 14:-1 15:-0.945321 16:-0.840561 17:-1 18:-0.650118 20:-1 21:-0.914455 
-0 -0 -0.02414622963095531 -0 0.4283605070736203 0 0 0 0 0 0 0 1:-0.602119 2:-0.964401 3:-0.823814 4:-0.833949 5:-1 6:0.211207 7:-1 8:-1 9:-1 10:-1 11:-0.469767 12:-0.75346 13:-0.567326 14:-1 15:-0.674183 16:-0.804422 17:-1 18:-0.830575 20:-1 21:-0.219623 
-0 -0 -0 -0 512 0 0 0 0 0 0 0 1:-0.838004 2:-1 3:-0.739371 4:-0.753199 5:-1 6:-0.470905 7:-1 8:-1 9:-1 10:-1 11:-1 12:-0.694786 13:-0.591773 14:-1 15:-0.757046 16:-0.872449 17:-1 18:-0.525611 20:-1 21:-0.738827 
-17.06786005765127 -0 -0 -0 0 0 0 0 14.68851094766844 19.27325057497979 10.37684886142948 0 1:-0.880942 2:-1 3:-0.762652 4:-0.869775 5:-1 6:-0.543103 7:-1 8:-1 9:-1 10:-1 11:-1 12:-0.627477 13:-0.895615 14:-1 15:-0.868658 16:-0.892857 17:-1 18:-0.687943 20:-1 21:-0.828911 
-0 -7.133016527545673 -0 -0 0 0 0 0 0 0 0 0 1:-0.802314 2:-1 3:-0.750025 4:-0.589423 5:-1 6:-0.563578 7:-1 8:-1 9:-1 10:-1 11:-1 12:-0.580649 13:-0.493209 14:-1 15:-0.874859 16:-0.801871 17:-1 18:-0.579196 20:-1 21:-0.868715 
-0 -0 -0 -0 107.4187545645139 0 0 0 0 0 0 0 1:-0.766625 2:-1 3:-0.648219 4:-0.859539 5:-1 6:-0.301724 7:-1 8:-1 9:-1 10:-1 11:-1 12:-0.563379 13:-0.83896 14:-1 15:-0.864713 16:-0.933673 17:-1 18:-0.730496 20:-1 21:-0.740223 
-0 -0 -0 -0 87.60015909339468 0 35.59151401288332 0 0 0 0 0 1:-0.829639 2:-1 3:-0.846108 4:-0.611032 5:-1 6:-0.452586 7:-1 8:-1 9:-1 10:-1 11:-1 12:-0.867707 13:-0.461001 14:-1 15:-0.852875 16:-0.877126 17:-1 18:-0.565012 20:-1 21:-0.859288 
-0 -0 -0 -0 0 0 0 0 0 0 0 25.16704017435208 1:-0.708072 2:-0.970874 3:-0.925422 4:-0.422235 5:-1 6:-0.384698 7:-1 8:-1 9:-0.784038 10:-1 11:-1 12:-0.946862 13:-0.679472 14:-1 15:-0.888952 16:-0.327381 17:-1 18:-0.0598897 20:-1 21:-0.72486 
-0 -0 -0 -0 0 0 21.30710841846197 0 0 0 0 21.63197648627716 1:-0.81291 2:-0.877023 3:-0.895827 4:-0.700313 5:-1 6:-0.292026 7:-1 8:-1 9:-1 10:-1 11:-0.916279 12:-0.915089 13:-0.684905 14:-1 15:-0.777903 16:-0.790391 17:-1 18:-0.216706 20:-1 21:-0.706006 
-0 -0 -0 -1.739363155906595 0 0 0 0 0 0 0 0 1:-0.751568 2:-1 3:-0.787511 4:-0.698607 5:-1 6:-0.828664 7:-1 8:-1 9:-1 10:-1 11:-1 12:-0.458319 13:-0.790454 14:-1 15:-0.999436 16:-0.776786 17:-1 18:-0.765169 20:-1 21:-0.969623 
-0 -0 -4.375633094586584 -0 304.9439495253253 0 0 0 0 0 0 0 1:-0.795065 2:-1 3:-0.799941 4:-0.839636 5:-1 6:-0.724138 7:-1 8:-1 9:-1 10:-1 11:-1 12:-0.575446 13:-0.844005 14:-1 15:-0.873732 16:-0.915391 17:-1 18:-0.747045 20:-1 21:-0.903282 
-0 -0 -6.502159604462308 -1.320768597286169 155.2991013424875 0 0 0 0 0 0 0 1:-0.602119 2:-0.964401 3:-0.823814 4:-0.833949 5:-1 6:0.211207 7:-1 8:-1 9:-1 10:-1 11:-0.469767 12:-0.75346 13:-0.567326 14:-1 15:-0.674183 16:-0.804422 17:-1 18:-0.830575 20:-1 21:-0.219623 
-0 -0 -0 -0 512 0 0 0 0 0 0 0 1:-0.838004 2:-1 3:-0.739371 4:-0.753199 5:-1 6:-0.470905 7:-1 8:-1 9:-1 10:-1 11:-1 12:-0.694786 13:-0.591773 14:-1 15:-0.757046 16:-0.872449 17:-1 18:-0.525611 20:-1 21:-0.738827 
-0 -0 -0 -1.330957920667502 512 0 0 0 0 0 0 0 1:-0.766625 2:-1 3:-0.648219 4:-0.859539 5:-1 6:-0.301724 7:-1 8:-1 9:-1 10:-1 11:-1 12:-0.563379 13:-0.83896 14:-1 15:-0.864713 16:-0.933673 17:-1 18:-0.730496 20:-1 21:-0.740223 
-0 -0 -0 -0 512 93.29426515727911 0.3408944132157888 6.257562126962773 0 0 0 0 1:-0.87676 2:-1 3:-0.829535 4:-0.788456 5:-1 6:-0.601293 7:-1 8:-1 9:-1 10:-1 11:-1 12:-0.708403 13:-0.757858 14:-1 15:-0.661218 16:-0.789116 17:-1 18:-0.80063 20:-1 21:-0.802723 
-0 -0 -0 -0 0 0 120.9731709048883 0 0 0 0 0 1:-0.855291 2:-1 3:-0.760087 4:-0.723628 5:-1 6:-0.627155 7:-1 8:-1 9:-1 10:-1 11:-1 12:-0.673088 13:-0.785797 14:-1 15:-0.853439 16:-0.846514 17:-1 18:-0.761229 20:-1 21:-0.814944 
-0 -0 -0 -0 0 4.745278224244641 0 0 9.772585341574889 2.799154866566124 5.671388623925754 0 1:-0.826014 2:-0.87055 3:-0.887343 4:-0.869207 5:-1 6:-0.190733 7:-1 8:-1 9:-1 10:-1 11:-0.631008 12:-0.745378 13:-0.638727 14:-1 15:-0.816798 16:-0.872024 17:-1 18:-0.6974 20:-1 21:-0.640363 
-0 -0 -0 -0 0 14.08747747261514 0 18.61537355430412 0 0 0 27.41314490421705 1:-0.793671 2:-1 3:-0.892276 4:-0.501279 5:-1 6:-0.807112 7:-1 8:-1 9:-1 10:-1 11:-1 12:-0.818001 13:-0.528522 14:-1 15:-1 16:-0.372449 17:-1 18:-0.799054 20:-1 21:-0.961592 
-0 -3.835663878529913 -0 -0 512 0 0 0 0 0 0 0 1:-0.730657 2:-1 3:-0.706225 4:-0.635485 5:-1 6:-0.454741 7:-1 8:-1 9:-1 10:-1 11:-1 12:-0.682719 13:-0.642608 14:-1 15:-0.601466 16:-0.795493 17:-1 18:-0.55792 20:-1 21:-0.230447 
-0 -0 -52.68943339720722 -0 512 0 0 0 0 0 0 0 1:-0.56643 2:-1 3:-0.901549 4:-0.517771 5:-1 6:-0.307112 7:-1 8:-1 9:-1 10:-1 11:-1 12:-0.864497 13:-0.649981 14:-1 15:-0.803269 16:-0.619048 17:-1 18:-0.315997 20:-1 21:-0.529679 
-0 -0 -0.03692659794035585 -0 3.946181869366523 0 0 0 0 0 0 0.006064988559898178 1:-0.697477 2:-0.656958 3:-0.760481 4:-0.793574 5:-1 6:-0.294181 7:-0.257919 8:-0.568627 9:-0.915493 10:-1 11:-0.342636 12:-0.691907 13:-0.728754 14:-1 15:-0.651071 16:-0.885204 17:-1 18:-0.468873 20:-1 21:-0.40398 
-0 -0 -0 -0 336.1491537695908 0 0 0 0 0 0 0 1:-0.522097 2:-1 3:-0.894051 4:-0.439864 5:-1 6:-0.0840517 7:-1 8:-1 9:-1 10:-1 11:-1 12:-0.854755 13:-0.636011 14:-1 15:-0.796505 16:-0.582483 17:-1 18:-0.215918 20:-1 21:-0.478003 
-0 -3.456675771920017 -2.106669187613624 -3.63960443810392 24.90390229344689 1.50079733018795 5.098429644120136 0 0 0 0 2.173019611266063 1:-0.697477 2:-0.656958 3:-0.760481 4:-0.793574 5:-1 6:-0.294181 7:-0.257919 8:-0.568627 9:-0.915493 10:-1 11:-0.342636 12:-0.691907 13:-0.728754 14:-1 15:-0.651071 16:-0.885204 17:-1 18:-0.468873 20:-1 21:-0.40398 
-0 -0 -0 -0 -479.463545119057 0 0 0 0 0 0 0 1:-0.688554 2:-0.854369 3:-0.689652 4:-0.557577 5:-1 6:-0.181034 7:-1 8:-0.943978 9:-0.920188 10:-1 11:-0.702326 12:-0.622827 13:-0.799379 14:-1 15:-0.756483 16:-0.804847 17:-1 18:-0.388495 20:-1 21:-0.495461 
-0 -0 -0 -0 -512 0 0 0 0 0 0 0 1:-0.794786 2:-1 3:-0.706619 4:-0.617856 5:-1 6:-0.358836 7:-1 8:-1 9:-1 10:-1 11:-1 12:-0.594598 13:-0.664726 14:-1 15:-0.754791 16:-0.840136 17:-1 18:-0.582348 20:-1 21:-0.659567 
-0 -0 -0 -0 -512 0 0 0 0 0 0 0 1:-0.848878 2:-1 3:-0.618625 4:-0.793005 5:-1 6:-0.264009 7:-1 8:-1 9:-1 10:-1 11:-1 12:-0.585963 13:-0.700427 14:-1 15:-0.736753 16:-0.894983 17:-1 18:-0.602837 20:-1 21:-0.580656 
-0 -11.02213681421032 -0 -0 -512 0 0 0 0 0 0 0 1:-0.831312 2:-0.847896 3:-0.732663 4:-0.897071 5:-1 6:-0.358836 7:-1 8:-1 9:-1 10:-1 11:-0.965891 12:-0.533599 13:-0.795887 14:-1 15:-0.681511 16:-0.947279 17:-1 18:-0.676123 20:-1 21:-0.65817 
-0 -0 -35.61681160684383 -0 -61.00486475666681 0 0 0 0 0 0 0 1:-0.418096 2:-0.983819 3:-0.809411 4:-0.560421 5:-1 6:-0.515086 7:-1 8:-0.697479 9:-0.981221 10:-1 11:-0.693023 12:-0.668106 13:-0.502134 14:-1 15:-0.771702 16:-0.823554 17:-1 18:-0.281324 20:-1 21:-0.603701 
-6.243019444885465 -0 -36.27489917848605 -0 -128.1002748598526 21.14930165699478 155.3246239258732 28.20056859671957 5.775702723367333 11.68443953372805 3.776354323793322 99.13092471737747 1:-0.768298 2:-0.579288 3:-0.923449 4:-0.750924 5:-1 6:-0.601293 7:-1 8:-1 9:-1 10:-1 11:-0.928682 12:-0.929591 13:-0.797439 14:-1 15:-0.857384 16:-0.617347 17:-1 18:-0.345154 20:-1 21:-0.78352 
-0 -0 -0 -0 -512 7.890961078888878 138.8830664392524 4.446023416548066 0 0 0 0 1:-0.783354 2:-0.851133 3:-0.88833 4:-0.670742 5:-1 6:-0.570043 7:-1 8:-1 9:-0.948357 10:-1 11:-0.996899 12:-0.903354 13:-0.575475 14:-1 15:-0.767756 16:-0.697704 17:-1 18:-0.489362 20:-1 21:-0.817039 
-0 -0 -5.67819472589652 -1.042993606306486 -0 0 0 0 0 0 0 0 1:-0.290395 2:-1 3:-0.569695 4:-0.861245 5:-1 6:0.320043 7:-1 8:-1 9:-1 10:-1 11:-1 12:-0.586073 13:-0.718277 14:-1 15:-0.674746 16:-0.835884 17:-1 18:-0.388495 20:-1 21:-0.55412 
-0 -2.155216742663861 -5.419729196530034 -2.883496952876559 -30.77684828624541 0 0 0 0 0 0 0 1:-0.181096 2:-0.951456 3:-0.661241 4:-0.733864 5:-1 6:0.586207 7:-1 8:-0.943978 9:-1 10:-1 11:-0.807752 12:-0.66091 13:-0.596042 14:-1 15:-0.340474 16:-0.826531 17:-1 18:-0.884949 20:-1 21:-0.299232 
-0 -6.695456857041942 -0 -0 -0 0 0 0 0 0 0 0 1:-0.22738 2:-0.944984 3:-0.52412 4:-0.220927 5:-1 6:-0.018319 7:-1 8:-0.994398 9:-0.938967 10:-1 11:-0.764341 12:-0.61541 13:-0.429181 14:-1 15:-0.759301 16:-0.582058 17:-1 18:-0.154452 20:-1 21:-0.631983 
-0 -11.20307758548779 -0 -0 -0 0 0 0 0 0 0 0 1:-0.686045 2:-0.97411 3:-0.650784 4:-0.540517 5:-1 6:-0.101293 7:-1 8:-1 9:-1 10:-1 11:-0.789147 12:-0.588509 13:-0.131936 14:-1 15:-0.336528 16:-0.876276 17:-1 18:-0.269504 20:-1 21:-0.0876397 
-0 -1.993567039043699 -1.108250918472983 -2.913567934659526 -0 0 0 0 0 0 0 0.503957996504599 1:-0.458804 2:-0.883495 3:-0.521555 4:-0.859539 5:-1 6:-0.288793 7:-1 8:-0.294118 9:-0.70892 10:-1 11:-0.0821705 12:-0.55419 13:-0.750873 14:-1 15:-0.543968 16:-0.897959 17:-1 18:-0.663515 20:-1 21:-0.466131 
-0 -0 -0 -0 -162.102578207355 0 0 0 0 0 0 0 1:-0.51903 2:-0.961165 3:-0.801914 4:-0.257322 5:-1 6:-0.420259 7:-1 8:-1 9:-0.995305 10:-1 11:-0.83876 12:-0.781689 13:-0.545596 14:-1 15:-0.883315 16:-0.565901 17:-1 18:-0.27108 20:-1 21:-0.676327 
-0 -0 -0.7057624996035873 -0 -0 0 0 0 0 0 0 0 1:-0.448766 2:-0.925566 3:-0.769754 4:-0.39039 5:-1 6:0.0280172 7:-1 8:-1 9:-0.633803 10:-1 11:-0.420155 12:-0.727665 13:-0.687233 14:-1 15:-0.639797 16:-0.668367 17:-1 18:-0.0874704 20:-1 21:-0.451117 
-0 -0 -0 -2.387995586887517 -0 0 0 0 0 0 0 0 1:-0.281193 2:-0.148867 3:-0.712736 4:-0.730452 5:-1 6:-0.376078 7:-1 8:-0.960784 9:-1 10:-1 11:-0.497674 12:-0.653493 13:-0.638339 14:-1 15:-0.557497 16:-0.807398 17:-1 18:-0.416864 20:-1 21:-0.434008 
-0 -0 -15.99439503735943 -0 -0 0 0 0 0 0 0 0 1:-0.258609 2:-1 3:-0.770741 4:-0.624111 5:-1 6:-0.207974 7:-1 8:-1 9:-1 10:-1 11:-1 12:-0.62958 13:-0.680248 14:-1 15:-0.514092 16:-0.879252 17:-1 18:-0.236407 20:-1 21:-0.377793 
-0 -0 -2.63170269828292 -0 -512 0 0 0 0 0 0 0 1:-0.783354 2:-1 3:-0.844727 4:-0.876599 5:-1 6:-0.734914 7:-1 8:-1 9:-1 10:-1 11:-1 12:-0.746485 13:-0.672099 14:-1 15:-0.886133 16:-0.845663 17:-1 18:-0.787234 20:-1 21:-0.929469 
-48.31009353473103 -0 -0 -0.5799277680276799 -512 242.703244432091 204.2652266212137 126.7025916244346 41.71402494548446 44.92185754152305 48.76849430030059 27.364905340578 1:-0.841628 2:-1 3:-0.868206 4:-0.888541 5:-1 6:-0.831897 7:-1 8:-1 9:-1 10:-1 11:-1 12:-0.690025 13:-0.896391 14:-1 15:-0.88106 16:-0.991497 17:-1 18:-0.850276 20:-1 21:-0.898045 
-0 -0 -0 -0 -0 19.07016585237875 512 0 0 0 0 0 1:-0.815419 2:-0.964401 3:-0.81533 4:-0.881717 5:-1 6:-0.548491 7:-1 8:-1 9:-0.995305 10:-1 11:-0.677519 12:-0.767962 13:-0.869616 14:-1 15:-0.616122 16:-0.933248 17:-1 18:-0.643814 20:-1 21:-0.696927 
-0 -0 -0 -0 -0 0 344.9350446283481 0 0 0 0 0 1:-0.724523 2:-0.993528 3:-0.82046 4:-0.779357 5:-1 6:-0.375 7:-1 8:-1 9:-0.948357 10:-1 11:-0.851163 12:-0.820325 13:-0.796275 14:-1 15:-0.643179 16:-0.846939 17:-1 18:-0.71316 20:-1 21:-0.506634 
-0 -0 -0 -3.16317580494367 -0 0 0 0 0 0 0 0 1:-0.436777 2:-0.964401 3:-0.537141 4:-0.861245 5:-1 6:-0.283405 7:-1 8:-0.462185 9:-0.877934 10:-1 11:-0.603101 12:-0.592494 13:-0.754754 14:-1 15:-0.531003 16:-0.898384 17:-1 18:-0.635934 20:-1 21:-0.417598 
-0 -0 -0 -0 -512 0 0 0 0 0 0 14.96922049615455 1:-0.51903 2:-0.961165 3:-0.801914 4:-0.257322 5:-1 6:-0.420259 7:-1 8:-1 9:-0.995305 10:-1 11:-0.83876 12:-0.781689 13:-0.545596 14:-1 15:-0.883315 16:-0.565901 17:-1 18:-0.27108 20:-1 21:-0.676327 
-0 -0 -10.31105130450606 -0 -0 0 0 0 0 0 0 0 1:-0.448766 2:-0.925566 3:-0.769754 4:-0.39039 5:-1 6:0.0280172 7:-1 8:-1 9:-0.633803 10:-1 11:-0.420155 12:-0.727665 13:-0.687233 14:-1 15:-0.639797 16:-0.668367 17:-1 18:-0.0874704 20:-1 21:-0.451117 
-0 -0 -45.09967055743446 -0 -512 0 0 0 0 0 0 0 1:-0.783354 2:-1 3:-0.844727 4:-0.876599 5:-1 6:-0.734914 7:-1 8:-1 9:-1 10:-1 11:-1 12:-0.746485 13:-0.672099 14:-1 15:-0.886133 16:-0.845663 17:-1 18:-0.787234 20:-1 21:-0.929469 
-0 -0 -0 -0 -41.57564679904623 0 0 0 0 0 0 0 1:-0.709745 2:-0.993528 3:-0.817106 4:-0.771396 5:-1 6:-0.373922 7:-1 8:-0.938375 9:-0.995305 10:-1 11:-0.851163 12:-0.800731 13:-0.756306 14:-1 15:-0.635851 16:-0.861395 17:-1 18:-0.630418 20:-1 21:-0.533869 
-0 -0 -0 -0 -1.741710434255039 0 0.8757579792664377 0 0 0 0 0 1:-0.701659 2:-0.957929 3:-0.748841 4:-0.756042 5:-1 6:-0.59375 7:-1 8:-0.501401 9:-0.995305 10:-1 11:-0.668217 12:-0.703199 13:-0.476911 14:-1 15:-0.55186 16:-0.861395 17:-1 18:0.169425 20:-1 21:-0.374651 
-0 -0 -0 -0 -33.09990205268759 0 0 0 0 0 0 0 1:-0.797574 2:-0.880259 3:-0.796784 4:-0.881149 5:-1 6:-0.409483 7:-1 8:-0.714286 9:-0.661972 10:-1 11:0.156589 12:-0.738182 13:-0.901824 14:-1 15:-0.391206 16:-0.951956 17:-1 18:-0.756501 20:-1 21:-0.337989 
-0 -0 -0 -0 -512 0 0 0 0 0 0 0 1:-0.796459 2:-0.983819 3:-0.8102 4:-0.696332 5:-1 6:-0.266164 7:-1 8:-1 9:-1 10:-1 11:-0.83876 12:-0.836599 13:-0.716337 14:-1 15:-0.714769 16:-0.72534 17:-1 18:-0.471237 20:-1 21:-0.508729 
-0 -0 -0 -0 -1.05885407862323 0 0 0 0 0 0 0 1:-0.522933 2:-0.990291 3:-0.714314 4:-0.852147 5:-1 6:0.595905 7:-1 8:-1 9:-1 10:-1 11:-0.789147 12:-0.720248 13:-0.911525 14:-1 15:-0.560879 16:-0.860544 17:-1 18:-0.76911 20:-1 21:-0.0834497 
-0 -0 -0 -0 -29.03653149069749 0 0 0 0 0 0 0 1:-0.419769 2:-0.644013 3:-0.821643 4:-0.65027 5:-1 6:-0.335129 7:-1 8:-1 9:-0.995305 10:-1 11:-0.460465 12:-0.67663 13:-0.634071 14:-1 15:-0.710259 16:-0.772109 17:-1 18:-0.0614657 20:-1 21:-0.553771 
-0 -5.257638409017319 -0 -0.02703373144515364 -60.94135545369306 0 0 0 0 0 0 0 1:-0.533807 2:-0.262136 3:-0.569695 4:-0.598521 5:-1 6:0.15625 7:-0.493213 8:-0.971989 9:-0.657277 10:-1 11:-0.379845 12:-0.582641 13:-0.54482 14:-1 15:-0.63867 16:-0.905187 17:-1 18:-0.0961387 20:-1 21:-0.476606 
-0 -0 -0 -0 -294.0052331616252 0 40.81884880300076 0 0 0 0 0 1:-0.841907 2:-0.770227 3:-0.846898 4:-0.657094 5:-1 6:-0.247845 7:-1 8:-0.971989 9:-0.347418 10:-1 11:-0.643411 12:-0.854423 13:-0.322468 14:-1 15:-0.725479 16:-0.826956 17:-1 18:-0.265563 20:-1 21:-0.640363 
-0 -0 -0 -0 -512 0 0 0 0 0 0 0 1:-0.708908 2:-1 3:-0.746473 4:-0.691214 5:-1 6:-0.243534 7:-1 8:-1 9:-1 10:-1 11:-1 12:-0.821986 13:-0.629414 14:-1 15:-0.772266 16:-0.77466 17:-1 18:-0.542159 20:-1 21:-0.629539 
-0 -0 -0 -0 -60.93553988772936 0 20.26866389271069 0 0 0 0 0 1:-0.701659 2:-0.957929 3:-0.748841 4:-0.756042 5:-1 6:-0.59375 7:-1 8:-0.501401 9:-0.995305 10:-1 11:-0.668217 12:-0.703199 13:-0.476911 14:-1 15:-0.55186 16:-0.861395 17:-1 18:0.169425 20:-1 21:-0.374651 
-1.617815113823519 -0 -0 -0 -30.0943892778584 9.222865929659919 0 4.041587354422103 4.161530933411334 2.092056306709882 1.141854250055706 1.782858067010245 1:-0.797574 2:-0.880259 3:-0.796784 4:-0.881149 5:-1 6:-0.409483 7:-1 8:-0.714286 9:-0.661972 10:-1 11:0.156589 12:-0.738182 13:-0.901824 14:-1 15:-0.391206 16:-0.951956 17:-1 18:-0.756501 20:-1 21:-0.337989 
-0 -0 -0 -0 -512 0 0 0 0 0 0 0 1:-0.796459 2:-0.983819 3:-0.8102 4:-0.696332 5:-1 6:-0.266164 7:-1 8:-1 9:-1 10:-1 11:-0.83876 12:-0.836599 13:-0.716337 14:-1 15:-0.714769 16:-0.72534 17:-1 18:-0.471237 20:-1 21:-0.508729 
-0 -0 -0 -0 -0.8593487140523455 0 0 0 0 0 0 0 1:-0.522933 2:-0.990291 3:-0.714314 4:-0.852147 5:-1 6:0.595905 7:-1 8:-1 9:-1 10:-1 11:-0.789147 12:-0.720248 13:-0.911525 14:-1 15:-0.560879 16:-0.860544 17:-1 18:-0.76911 20:-1 21:-0.0834497 
-0 -0.1675796898041332 -0 -0 -0 -10.50572541629023 0 0 0 0 0 0 1:-0.961522 2:-0.961165 3:-0.815725 4:-0.793574 5:-1 6:-0.923491 7:-1 8:-0.921569 9:-0.830986 10:-1 11:-0.789147 12:-0.802723 13:-0.67986 14:-1 15:-0.936866 16:-0.827381 17:-1 18:-0.840032 20:-1 21:-0.946927 
-0 -0 -0 -0 -0 -0 0 512 0 0 0 0 1:-0.955388 2:-0.770227 3:-0.95403 4:-0.79528 5:-1 6:-0.842672 7:-1 8:-1 9:-1 10:-1 11:-0.84186 12:-0.964021 13:-0.828871 14:-1 15:-0.932356 16:-0.701956 17:-1 18:-0.808511 20:-1 21:-0.852304 
-0 -0 -0 -0 -0 -23.11259419191806 0 0 0 0 0 0 1:-0.949254 2:-0.909385 3:-0.905495 4:-0.665624 5:-1 6:-0.764009 7:-1 8:-0.865546 9:-1 10:-1 11:-0.807752 12:-0.931031 13:-0.634459 14:-1 15:-0.945321 16:-0.839286 17:-1 18:-0.646966 20:-1 21:-0.893855 
-0 -0 -21.4815527361881 -0 -0 -0 0 504.4059342139759 0 0 0 68.73139794723522 1:-0.909104 2:-0.893204 3:-0.940219 4:-0.818027 5:-1 6:-0.969828 7:-0.791855 8:-0.826331 9:-0.99061 10:-1 11:-0.711628 12:-0.970442 13:-0.820334 14:-1 15:-0.950395 16:-0.711735 17:-1 18:-0.765169 20:-1 21:-0.99162 
-0 -0 -0 -0.8389536953156035 -0 -0 64.97006063039603 512 30.24576205411788 106.7286400763603 35.41157414483776 0 1:-0.945629 2:-0.592233 3:-0.971589 4:-0.937447 5:-1 6:-0.907328 7:-0.511312 8:-0.77591 9:-0.647887 10:-1 11:-0.792248 12:-0.982951 13:-0.89057 14:-1 15:-0.947012 16:-0.892857 17:-1 18:-0.676123 20:-1 21:-0.922137 
-0 -0 -0 -0 -0 -0 512 0 0 0 0 0 1:-0.959571 2:-0.954693 3:-0.82776 4:-0.952232 5:-1 6:-0.65194 7:-1 8:-0.977591 9:-1 10:-1 11:-0.6 12:-0.852651 13:-0.853318 14:-1 15:-0.710259 16:-0.969388 17:-1 18:-0.983452 20:-1 21:-0.770601 
-0 -2.053597480203 -5.611347414215925 -0 -24.06328806487493 -0 0 0 0 0 0 0 1:-0.910498 2:-0.990291 3:-0.858341 4:-0.732727 5:-1 6:-0.800647 7:-1 8:-1 9:-1 10:-1 11:-0.857364 12:-0.910218 13:-0.665891 14:-1 15:-0.801578 16:-0.717262 17:-1 18:-0.791174 20:-1 21:-0.869413 
-0 -6.016403813930794 -0 -0 -66.00478321789818 -0 0 0 0 0 0 0 1:-0.922487 2:-0.938511 3:-0.876887 4:-0.876031 5:-1 6:-0.65194 7:-1 8:-1 9:-0.948357 10:-1 11:-0.941085 12:-0.92151 13:-0.703531 14:-1 15:-0.730552 16:-0.6875 17:-1 18:-0.826635 20:-1 21:-0.799232 
-0 -0 -12.87788343770539 -0 -44.65418274766308 -13.10353271251349 512 512 0 0 0 0 1:-0.827966 2:-1 3:-0.859722 4:-0.853284 5:-1 6:-0.567888 7:-1 8:-1 9:-1 10:-1 11:-1 12:-0.925717 13:-0.837796 14:-1 15:-0.748591 16:-0.993622 17:-1 18:-0.908589 20:-1 21:-0.736034 
-0 -0 -0 -0 -0 -0 82.17376494122362 0 0 0 0 0 1:-0.963753 2:-1 3:-0.939627 4:-0.861814 5:-1 6:-0.856681 7:-1 8:-1 9:-1 10:-1 11:-1 12:-0.932913 13:-0.875049 14:-1 15:-0.906426 16:-0.941327 17:-1 18:-0.79275 20:-1 21:-0.897696 
-0 -0 -0 -0 -0 -0 512 0 0 24.25641938125463 0 0 1:-0.979925 2:-0.967638 3:-0.954424 4:-0.956781 5:-1 6:-0.835129 7:-0.99095 8:-0.943978 9:-0.713615 10:-1 11:-0.736434 12:-0.901804 13:-0.946449 14:-1 15:-0.865276 16:-0.986395 17:-1 18:-0.893617 20:-1 21:-0.860335 
-59.65812942434979 -0 -0 -0 -0 -0 0 512 0 0 0 0 1:-0.946466 2:-0.97411 3:-0.956003 4:-0.968155 5:-1 6:-0.929957 7:-1 8:-1 9:-1 10:-1 11:-0.925581 12:-0.883206 13:-0.942181 14:-1 15:-0.934611 16:-0.985969 17:-1 18:-0.940898 20:-1 21:-0.962989 
-2.925701604006048 -0 -0 -0 -0 -0 0 512 0 0 0 0 1:-0.951764 2:-1 3:-0.937062 4:-0.993176 5:-1 6:-0.940733 7:-1 8:-1 9:-0.901408 10:-1 11:-0.931783 12:-0.88387 13:-0.975165 14:-1 15:-0.914882 16:-1 17:-1 18:-1 20:-1 21:-0.976257 
-0 -0 -0 -0 -0 -0 0 407.1402100747373 0 0 1.3776854038548 0 1:-0.973791 2:-0.957929 3:-0.982441 4:-0.922661 5:-1 6:-0.961207 7:-1 8:-1 9:-0.924883 10:-1 11:-0.987597 12:-0.932027 13:-0.910749 14:-1 15:-0.927847 16:-0.939626 17:-1 18:-0.884161 20:-1 21:-0.97067 
-0 -0 -0 -0 -0 -0 0 512 0 0 0 0 1:-0.943957 2:-1 3:-0.891092 4:-0.989195 5:-1 6:-0.882543 7:-1 8:-1 9:-1 10:-1 11:-1 12:-0.831396 13:-0.972061 14:-1 15:-0.899662 16:-1 17:-1 18:-0.981087 20:-1 21:-0.931913 
-0 -1.817328988046351 -1.36130610373476 -0.2577889407957971 -5.019355475485639 -0 59.93760119727774 0 0 0 0 92.18318991459013 1:-0.887077 2:-0.857605 3:-0.928973 4:-0.565539 5:-1 6:-0.633621 7:-0.882353 8:-1 9:-1 10:-1 11:-0.550388 12:-0.963799 13:-0.740396 14:-1 15:-0.81398 16:-0.640731 17:-1 18:-0.648542 20:-1 21:-0.746858 
-0 -0 -0 -0 -0 -0 70.05076240041082 214.8630480375319 0 0 0 0 1:-0.894326 2:-0.996764 3:-0.888724 4:-0.673017 5:-1 6:-0.769397 7:-1 8:-1 9:-0.765258 10:-1 11:-0.823256 12:-0.953282 13:-0.772992 14:-1 15:-0.908117 16:-0.752126 17:-1 18:-0.681639 20:-1 21:-0.906075 
-0 -0 -0 -0 -0 -0 0 53.82461470169454 0 0 0 0 1:-0.967099 2:-1 3:-0.937457 4:-0.924367 5:-1 6:-0.840517 7:-1 8:-1 9:-1 10:-1 11:-1 12:-0.925717 13:-0.798215 14:-1 15:-0.885006 16:-0.83631 17:-1 18:-0.814027 20:-1 21:-0.856494 
-0 -0 -0 -0 -0 -0 0 434.2906577576756 0 0 55.761226139529 0 1:-0.958734 2:-0.909385 3:-0.984019 4:-0.891385 5:-1 6:-0.818966 7:-0.791855 8:-1 9:-0.896714 10:-1 11:-0.75814 12:-0.999779 13:-0.899107 14:-1 15:-0.857384 16:-0.786565 17:-1 18:-0.843184 20:-1 21:-0.912709 
-85.19741646504119 -0 -0 -0 -0 -0 0 512 79.85234676136875 237.772300804359 220.6713235615581 11.34601108821531 1:-0.950091 2:-0.773463 3:-0.996843 4:-0.873756 5:-1 6:-0.814655 7:-0.954751 8:-0.994398 9:-0.539906 10:-1 11:-0.444961 12:-1 13:-0.993403 14:-1 15:-0.998873 16:-0.708333 17:-1 18:-0.728132 20:-1 21:-0.944832 
-0 -0 -0 -0 -0 -0 0 512 0.3808778468520237 350.6944208791894 512 0 1:-0.985222 2:-0.951456 3:-0.978692 4:-0.995451 5:-1 6:-0.908405 7:-1 8:-0.904762 9:-1 10:-1 11:-0.906977 12:-0.919185 13:-0.975165 14:-1 15:-0.916009 16:-1 17:-1 18:-0.947991 20:-1 21:-0.952863 
-0 -0 -0 -0 -0 -0 170.4719057001074 0 0 0 0 0 1:-0.9763 2:-1 3:-0.955805 4:-0.934035 5:-1 6:-0.846983 7:-1 8:-1 9:-1 10:-1 11:-0.869767 12:-0.943319 13:-0.86884 14:-1 15:-0.915445 16:-0.946854 17:-1 18:-0.785658 20:-1 21:-0.931913 
-0 -0 -0 -0 -0 -0 0 477.296866935196 0 0 0 0 1:-0.947302 2:-1 3:-0.931933 4:-0.984646 5:-1 6:-0.952586 7:-1 8:-0.815126 9:-1 10:-1 11:-0.848062 12:-0.862504 13:-0.989523 14:-1 15:-0.92841 16:-1 17:-1 18:-0.976359 20:-1 21:-0.984986 
-0 -0 -0 -0 -0 -0 0 512 0 0 31.79452733466947 0 1:-0.973791 2:-0.957929 3:-0.982441 4:-0.922661 5:-1 6:-0.961207 7:-1 8:-1 9:-0.924883 10:-1 11:-0.987597 12:-0.932027 13:-0.910749 14:-1 15:-0.927847 16:-0.939626 17:-1 18:-0.884161 20:-1 21:-0.97067 
-0 -0 -4.774736759136589 -0 -0 -0 503.9393892761067 512 0 0 0 0 1:-0.894326 2:-0.996764 3:-0.888724 4:-0.673017 5:-1 6:-0.769397 7:-1 8:-1 9:-0.765258 10:-1 11:-0.823256 12:-0.953282 13:-0.772992 14:-1 15:-0.908117 16:-0.752126 17:-1 18:-0.681639 20:-1 21:-0.906075 
-225.2273284324934 -0 -0 -0 -0 -0 0 512 390.5132882699077 512 512 0 1:-0.985222 2:-0.951456 3:-0.978692 4:-0.995451 5:-1 6:-0.908405 7:-1 8:-0.904762 9:-1 10:-1 11:-0.906977 12:-0.919185 13:-0.975165 14:-1 15:-0.916009 16:-1 17:-1 18:-0.947991 20:-1 21:-0.952863 
-0 -0 -19.07232297234777 -0 -0 -20.64542658029317 0 512 0 0 0 234.505558676658 1:-0.926948 2:-0.928803 3:-0.969222 4:-0.744669 5:-1 6:-0.787716 7:-1 8:-1 9:-0.910798 10:-1 11:-0.975194 12:-0.975645 13:-0.792782 14:-1 15:-0.998873 16:-0.739796 17:-1 18:-0.603625 20:-1 21:-0.890712 
-183.3874082047935 -0 -0 -0 -0 -0 0 512 160.6070863921513 0 0 0 1:-0.955946 2:-0.893204 3:-0.976916 4:-0.968155 5:-1 6:-0.713362 7:-1 8:-1 9:-0.985915 10:-1 11:-1 12:-0.970774 13:-0.851378 14:-1 15:-0.790304 16:-0.982143 17:-1 18:-0.946414 20:-1 21:-0.865922 
-0 -0 -0 -0 -0 -0 1.289576014851833 23.05127982389519 0 0 0 0 1:-0.899624 2:-1 3:-0.798757 4:-0.973273 5:-1 6:-0.84375 7:-1 8:-1 9:-1 10:-1 11:-1 12:-0.79431 13:-0.987971 14:-1 15:-0.834837 16:-1 17:-1 18:-0.933806 20:-1 21:-0.917249 
-0 -0 -0 -0 -0 -0 9.710498833452201 14.65930809571335 0 1.694804786758478 0 0 1:-0.959571 2:-0.990291 3:-0.940219 4:-0.769121 5:-1 6:-0.702586 7:-1 8:-0.876751 9:-1 10:-1 11:-0.733333 12:-0.962028 13:-0.88863 14:-1 15:-0.935175 16:-0.856293 17:-1 18:-0.787234 20:-1 21:-0.947975 
-0 -0 -0 -0 -0 -0 512 47.66744196681861 0 0 0 0 1:-0.886798 2:-0.838188 3:-0.853014 4:-0.973841 5:-1 6:-0.679957 7:-1 8:-0.759104 9:-1 10:-1 11:-0.779845 12:-0.871361 13:-0.82305 14:-1 15:-0.728298 16:-0.980017 17:-1 18:-0.85658 20:-1 21:-0.584148 
-0 -0 -0 -0 -0 -0 512 0 0 0 0 0 1:-0.901854 2:-1 3:-0.868403 4:-0.968155 5:-1 6:-0.578664 7:-1 8:-1 9:-1 10:-1 11:-0.823256 12:-0.866822 13:-0.913465 14:-1 15:-0.6646 16:-1 17:-1 18:-0.890465 20:-1 21:-0.597067 
-0 -0 -0 -0 -0 -0 23.5544738811768 0 0.5197179489328602 0 0 0 1:-0.936149 2:-0.825243 3:-0.906481 4:-0.985215 5:-1 6:-0.797414 7:-0.809955 8:-1 9:-1 10:-1 11:-0.668217 12:-0.924388 13:-0.884362 14:-1 15:-0.773957 16:-0.985544 17:-1 18:-0.940898 20:-1 21:-0.752095 
-0 -0 -0 -0 -0 -172.4526728548586 328.9907246150001 109.0759666598687 0 0 0 0 1:-0.899624 2:-1 3:-0.798757 4:-0.973273 5:-1 6:-0.84375 7:-1 8:-1 9:-1 10:-1 11:-1 12:-0.79431 13:-0.987971 14:-1 15:-0.834837 16:-1 17:-1 18:-0.933806 20:-1 21:-0.917249 
-71.42955733492163 -0 -0 -0 -0 -0 161.5674373071078 470.4612327176339 0 78.93410577600189 44.8096077889191 0 1:-0.959571 2:-0.990291 3:-0.940219 4:-0.769121 5:-1 6:-0.702586 7:-1 8:-0.876751 9:-1 10:-1 11:-0.733333 12:-0.962028 13:-0.88863 14:-1 15:-0.935175 16:-0.856293 17:-1 18:-0.787234 20:-1 21:-0.947975 
-0 -0 -0 -4.322434294598825 -0 -0 512 109.9964654812674 0 0 0 0 1:-0.886798 2:-0.838188 3:-0.853014 4:-0.973841 5:-1 6:-0.679957 7:-1 8:-0.759104 9:-1 10:-1 11:-0.779845 12:-0.871361 13:-0.82305 14:-1 15:-0.728298 16:-0.980017 17:-1 18:-0.85658 20:-1 21:-0.584148 
-0 -0 -0 -0 -0 -28.28470980605907 512 86.83666028587503 0 0 0 0 1:-0.901854 2:-1 3:-0.868403 4:-0.968155 5:-1 6:-0.578664 7:-1 8:-1 9:-1 10:-1 11:-0.823256 12:-0.866822 13:-0.913465 14:-1 15:-0.6646 16:-1 17:-1 18:-0.890465 20:-1 21:-0.597067 
-6.031732491509492 -0 -0 -0 -0 -0 8.042559014666999 0 92.31198330018277 0 0 0 1:-0.936149 2:-0.825243 3:-0.906481 4:-0.985215 5:-1 6:-0.797414 7:-0.809955 8:-1 9:-1 10:-1 11:-0.668217 12:-0.924388 13:-0.884362 14:-1 15:-0.773957 16:-0.985544 17:-1 18:-0.940898 20:-1 21:-0.752095 
-0 -0 -0 -0 -0 -0 130.6167000802087 0 0 0 0 0 1:-0.931409 2:-0.993528 3:-0.920687 4:-0.915837 5:-1 6:-0.875 7:-0.972851 8:-1 9:-0.887324 10:-1 11:-0.764341 12:-0.891398 13:-0.878929 14:-1 15:-0.8292 16:-0.98852 17:-1 18:-0.910165 20:-1 21:-0.901885 
-0 -0 -0 -0 -0 -0 234.8197059612741 0 0 0 0 0 1:-0.965426 2:-0.993528 3:-0.965473 4:-0.909582 5:-1 6:-0.913793 7:-1 8:-0.988796 9:-0.732394 10:-1 11:-0.891473 12:-0.916971 13:-0.831975 14:-1 15:-0.847238 16:-0.98852 17:-1 18:-0.853428 20:-1 21:-0.871858 
-0 -0 -3.621706506473048 -0 -6.493370496354515 -31.93187738808068 467.4251186537018 0 0 0 0 0 1:-0.920257 2:-0.747573 3:-0.868008 4:-0.647995 5:-1 6:-0.743534 7:-0.846154 8:-0.865546 9:-1 10:-1 11:-0.770543 12:-0.937784 13:-0.728366 14:-1 15:-0.857384 16:-0.772109 17:-1 18:-0.524823 20:-1 21:-0.90398 
-135.9742830791634 -0 -0 -0 -0 -0 -512 512 66.24974707470422 248.3359732505175 300.6071707894587 0 1:-0.974069 2:-0.951456 3:-0.9489 4:-0.936878 5:-1 6:-0.912716 7:-1 8:-0.921569 9:-1 10:-1 11:-0.978295 12:-0.919407 13:-0.934808 14:-1 15:-0.868658 16:-0.978316 17:-1 18:-0.855792 20:-1 21:-0.909916 
-0 -0 -0 -0 -0 -0 -0 0 0 0 0 4.894911578034651 1:-0.795065 2:-0.783172 3:-0.85913 4:-0.947114 5:-1 6:-0.724138 7:-1 8:-0.630252 9:-1 10:-1 11:-0.246512 12:-0.883095 13:-0.944121 14:-1 15:-0.779594 16:-0.989371 17:-1 18:-0.910954 20:-1 21:-0.790503 
-0 -0 -0 -2.195674570715391 -1.068219004120237 -0 -0 0 0 1.26828464384754 0 13.54569952191692 1:-0.778335 2:-0.572816 3:-0.818684 4:-0.860108 5:-1 6:-0.716595 7:-0.131222 8:-0.787115 9:-0.633803 10:-1 11:-0.804651 12:-0.912875 13:-0.890182 14:-1 15:-0.869222 16:-0.872024 17:-1 18:-0.846336 20:-1 21:-0.745461 
-0 -0 -2.010449463813556 -0 -0 -0 -0 0 0 0 0 0 1:-0.837725 2:-1 3:-0.852225 4:-0.869775 5:-1 6:-0.627155 7:-1 8:-0.887955 9:-1 10:-1 11:-0.885271 12:-0.940662 13:-0.885138 14:-1 15:-0.848365 16:-0.895833 17:-1 18:-0.475965 20:-1 21:-0.709148 
-0 -3.834923497201445 -15.97859787566835 -0 -44.9401463961821 -309.4812992473362 -0 0 0 0 0 14.26246790345821 1:-0.826851 2:-0.935275 3:-0.87156 4:-0.700313 5:-1 6:-0.752155 7:-1 8:-1 9:-1 10:-1 11:-0.72093 12:-0.898373 13:-0.67792 14:-1 15:-0.831454 16:-0.706633 17:-1 18:-0.408195 20:-1 21:-0.596718 
-0 -0 -0 -0 -0 -0 -512 0 0 0 0 0 1:-0.930852 2:-0.912621 3:-0.865246 4:-0.726471 5:-1 6:-0.705819 7:-0.945701 8:-1 9:-0.713615 10:-1 11:-0.776744 12:-0.852984 13:-0.72759 14:-1 15:-0.781849 16:-0.882653 17:-1 18:-0.717888 20:-1 21:-0.813198 
-0 -0 -0 -0 -64.29435244438254 -117.0897526826469 -0 0 0 0 0 0 1:-0.912728 2:-0.847896 3:-0.888922 4:-0.802104 5:-1 6:-0.586207 7:-1 8:-0.921569 9:-1 10:-1 11:-0.804651 12:-0.860179 13:-0.895615 14:-1 15:-0.765502 16:-0.839286 17:-1 18:-0.597321 20:-1 21:-0.723115 
-0 -0 -0 -0 -0 -0 -0 0 0 0 0 2.990436232564095 1:-0.870068 2:-0.76699 3:-0.858735 4:-0.745806 5:-1 6:-0.641164 7:-1 8:-0.742297 9:-0.943662 10:-1 11:-0.547287 12:-0.892505 13:-0.845169 14:-1 15:-0.816798 16:-0.932398 17:-1 18:-0.642238 20:-1 21:-0.875349 
-0 -0 -1.391349351924899 -0 -0 -0 -0 0 0 0 0 0 1:-0.731772 2:-0.68932 3:-0.855776 4:-0.860677 5:-1 6:-0.431034 7:-1 8:-0.943978 9:-0.525822 10:-1 11:-0.413953 12:-0.888409 13:-0.935584 14:-1 15:-0.807779 16:-0.906037 17:-1 18:-0.72104 20:-1 21:-0.831704 
-25.57629970901615 -0 -0 -0 -0 -0 -507.4607984643129 0 16.15774716822141 0 0 0 1:-0.851945 2:-0.954693 3:-0.856762 4:-0.921524 5:-1 6:-0.575431 7:-1 8:-1 9:-1 10:-1 11:-0.863566 12:-0.912986 13:-0.85099 14:-1 15:-0.807215 16:-0.982143 17:-1 18:-0.850276 20:-1 21:-0.876047 
-0 -0 -0 -0 -0 -0 -170.1562854880112 0 0 0 0 0 1:-0.960128 2:-0.909385 3:-0.87807 4:-0.967017 5:-1 6:-0.519397 7:-1 8:-0.994398 9:-0.887324 10:-1 11:-0.79845 12:-0.922506 13:-0.945673 14:-1 15:-0.617813 16:-0.987245 17:-1 18:-0.927502 20:-1 21:-0.676327 
-0 -0 -0 -0 -0 -0 -0 158.8453415290764 12.92616728504179 0 0 0 1:-0.859473 2:-0.673139 3:-0.935287 4:-0.869207 5:-1 6:-0.436422 7:-0.674208 8:-0.921569 9:-0.760563 10:-1 11:-0.522481 12:-0.948965 13:-0.882809 14:-1 15:-0.857948 16:-0.889031 17:-1 18:-0.726556 20:-1 21:-0.625698 
-0 -0 -0 -1.558335396944937 -0 -7.094246575742646 -0 0 0 0 0 0 1:-0.817371 2:-0.877023 3:-0.833481 4:-0.93176 5:-1 6:-0.114224 7:-1 8:-0.798319 9:-1 10:-1 11:-0.156589 12:-0.856194 13:-0.948778 14:-1 15:-0.636979 16:-0.998299 17:-1 18:-0.711584 20:-1 21:-0.561103 
-0 -1.869516459682214 -0 -0 -32.32520577836984 -67.59502390047506 -0 0 0 0 0 0 1:-0.806775 2:-0.967638 3:-0.872743 4:-0.861814 5:-1 6:0.0818966 7:-0.909502 8:-0.943978 9:-0.976526 10:-1 11:-0.736434 12:-0.896712 13:-0.758246 14:-1 15:-0.696731 16:-0.969813 17:-1 18:-0.794326 20:-1 21:-0.602654 
-0 -0 -0 -0 -0 -0 -512 0 0 0 0 0 1:-0.901854 2:-0.89644 3:-0.858341 4:-0.938584 5:-1 6:-0.799569 7:-1 8:-1 9:-1 10:-1 11:-0.64031 12:-0.844681 13:-0.732635 14:-1 15:-0.648816 16:-0.99915 17:-1 18:-0.8684 20:-1 21:-0.671089 
-0 -0 -0 -0 -0 -0 -218.7830948969811 0 0 0 0 0 1:-0.931409 2:-0.967638 3:-0.891684 4:-0.944271 5:-1 6:-0.72306 7:-1 8:-0.854342 9:-0.906103 10:-1 11:-0.39845 12:-0.845898 13:-0.859915 14:-1 15:-0.770011 16:-0.974065 17:-1 18:-0.887313 20:-1 21:-0.713338 
-0 -0 -0 -0 -0 -0 -0 0 0 0 0 16.79164705200846 1:-0.911892 2:-0.987055 3:-0.878662 4:-0.675291 5:-1 6:-0.642241 7:-1 8:-0.854342 9:-1 10:-1 11:-0.702326 12:-0.880217 13:-0.863407 14:-1 15:-0.77903 16:-0.703656 17:-1 18:-0.566588 20:-1 21:-0.701117 
-0 -0 -0 -0 -260.6319743060221 -88.22710063978263 -0 0 0 0 0 0 1:-0.818207 2:-0.97411 3:-0.872941 4:-0.625817 5:-1 6:-0.107759 7:-1 8:-0.994398 9:-0.967136 10:-1 11:-0.80155 12:-0.904461 13:-0.818393 14:-1 15:-0.822435 16:-0.873724 17:-1 18:-0.316785 20:-1 21:-0.698673 
-0 -4.826050874826278 -34.00530095104545 -1.462147744201463 -110.9784293609371 -504.6237334209091 -0 0 0 0 0 0 1:-0.70389 2:-0.915858 3:-0.738187 4:-0.88911 5:-1 6:-0.484914 7:-1 8:-0.983193 9:-0.887324 10:-1 11:-0.872868 12:-0.820215 13:-0.836244 14:-1 15:-0.677565 16:-0.923469 17:-1 18:-0.699764 20:-1 21:-0.73743 
-0 -0.763596544767441 -0.5852726641610435 -1.744694260618721 -2.489689450513033 -3.129441641844994 -0 12.46744901539543 0 0 0 1.777202576277144 1:-0.687439 2:-0.990291 3:-0.729703 4:-0.829969 5:1 6:-0.391164 7:-1 8:-0.837535 9:-0.892019 10:-1 11:-0.686822 12:-0.846563 13:-0.864183 14:-1 15:-0.636415 16:-0.881803 17:-0.117647 18:-0.643814 20:-0.9875 21:-0.745112 
-0 -0 -0 -0 -0 -0 -299.7806045979327 0 0 0 0 0 1:-0.897114 2:-0.996764 3:-0.848279 4:-0.923799 5:-1 6:-0.5625 7:-1 8:-0.742297 9:-1 10:-1 11:-0.956589 12:-0.881767 13:-0.886302 14:-1 15:-0.705186 16:-1 17:-1 18:-0.945626 20:-1 21:-0.729399 
-0 -0 -0 -0 -0 -47.64613229600804 -0 0 0 0 0 0 1:-0.891817 2:-0.932039 3:-0.862287 4:-0.839067 5:-1 6:-0.793103 7:-1 8:-1 9:-0.948357 10:-1 11:-0.934884 12:-0.879221 13:-0.746217 14:-1 15:-0.588501 16:-0.877976 17:-1 18:-0.587864 20:-1 21:-0.66236 
-0 -0 -0 -0 -40.49766609823563 -0 -0 0 0 0 0 0 1:-0.794228 2:-0.815534 3:-0.83506 4:-0.777651 5:-1 6:-0.68319 7:-0.864253 8:-1 9:-0.798122 10:-1 11:-1 12:-0.866157 13:-0.901436 14:-1 15:-0.844419 16:-0.937925 17:-1 18:-0.757289 20:-1 21:-0.777933 
-0 -0 -0 -0 -0 -0 -142.2266614110085 0 0 0 0 0 1:-0.793392 2:-0.699029 3:-0.780014 4:-0.847597 5:-1 6:-0.448276 7:-1 8:-0.871148 9:-0.943662 10:-1 11:-0.550388 12:-0.877781 13:-0.873108 14:-1 15:-0.803833 16:-0.970663 17:-1 18:-0.825847 20:-1 21:-0.743366 
-0 -0 -42.38516726637007 -0 -0 -0 -169.9540893182839 66.14037128470933 0 0 0 182.5436106541239 1:-0.837725 2:-0.964401 3:-0.929565 4:-0.652545 5:-1 6:-0.628233 7:-0.936652 8:-0.988796 9:-0.906103 10:-1 11:-0.786047 12:-0.951733 13:-0.806364 14:-1 15:-0.96956 16:-0.785714 17:-1 18:-0.590229 20:-1 21:-0.851257 
-0 -0 -5.418983280318994 -0 -0 -0 -0 0 0 0 0 0 1:-0.801199 2:-0.961165 3:-0.92917 4:-0.852715 5:-1 6:-0.5 7:-0.837104 8:-0.809524 9:-0.910798 10:-1 11:-0.872868 12:-0.962028 13:-0.753201 14:-1 15:-0.847802 16:-0.927296 17:-1 18:-0.814027 20:-1 21:-0.753492 
-0 -0 -0 -0 -0 -0 -22.69638644427832 159.1152141581136 0 0 0 0 1:-0.900181 2:-0.977346 3:-0.936273 4:-0.788456 5:-1 6:-0.801724 7:-1 8:-0.983193 9:-0.286385 10:-1 11:-0.83876 12:-0.959482 13:-0.676368 14:-1 15:-0.931229 16:-0.728741 17:-1 18:-0.572892 20:-1 21:-0.642807 
-48.5861603477844 -0 -0 -0 -0 -0 -512 512 0 0 0 0 1:-0.897951 2:-0.964401 3:-0.940811 4:-0.832812 5:-1 6:-0.705819 7:-1 8:-1 9:-1 10:-1 11:-0.922481 12:-0.975977 13:-0.859527 14:-1 15:-0.932356 16:-0.919643 17:-1 18:-0.733649 20:-1 21:-0.809008 
-23.2508178044005 -0 -0 -0 -0 -0 -0 512 64.29696367077321 209.2899242197074 0 29.52042948577339 1:-0.926948 2:-1 3:-0.985795 4:-0.902189 5:-1 6:-0.540948 7:-1 8:-1 9:-1 10:-1 11:-1 12:-0.994908 13:-0.980986 14:-1 15:-0.937993 16:-0.935374 17:-1 18:-0.598897 20:-1 21:-0.758031 
-0 -0.420229335078353 -0 -0 -0 -0 -0 0 0 0 0 3.002220111442341 1:-0.8815 2:-0.805825 3:-0.803295 4:-0.790731 5:-1 6:-0.561422 7:-0.647059 8:-0.787115 9:-1 10:-1 11:-0.262016 12:-0.86184 13:-0.822274 14:-1 15:-0.656708 16:-0.886054 17:-1 18:-0.243499 20:-1 21:-0.692039 
-0 -0 -0 -0 -0 -0 -47.65497339564867 0 0 0 0 0 1:-0.93364 2:-0.919094 3:-0.892868 4:-0.895365 5:-1 6:-0.756466 7:-0.954751 8:-0.837535 9:-0.896714 10:-1 11:-0.91938 12:-0.906897 13:-0.733799 14:-1 15:-0.853439 16:-0.875 17:-1 18:-0.628054 20:-1 21:-0.696229 
-0 -0 -0 -0 -0 -0 -0 0 0.06322108122104297 0 0 0 1:-0.919141 2:-0.932039 3:-0.890106 4:-0.994882 5:-1 6:-0.404095 7:-1 8:-1 9:-1 10:-1 11:-0.875969 12:-0.899037 13:-0.994179 14:-1 15:-0.665727 16:-1 17:-1 18:-0.958235 20:-1 21:-0.622905 
-0 -0 -0 -0 -0 -165.6565165976482 -0 0 0 0 0 0 1:-0.886798 2:-0.915858 3:-0.813949 4:-0.853284 5:-1 6:-0.740302 7:-1 8:-1 9:-1 10:-1 11:-0.925581 12:-0.833278 13:-0.85875 14:-1 15:-0.61274 16:-0.982143 17:-1 18:-0.706856 20:-1 21:-0.791899 
-0 -0 -0 -0 -0 -3.620861904652475 -0 0 0 0 0 0 1:-0.793671 2:-1 3:-0.875308 4:-0.960762 5:-1 6:-0.59806 7:-1 8:-1 9:-1 10:-1 11:-1 12:-0.849994 13:-0.972837 14:-1 15:-0.68602 16:-0.997449 17:-1 18:-0.93617 20:-1 21:-0.688198 
-0 -0 -0 -0 -0 -0 -73.94423628049161 0 0 0 0 0 1:-0.93364 2:-0.919094 3:-0.892868 4:-0.895365 5:-1 6:-0.756466 7:-0.954751 8:-0.837535 9:-0.896714 10:-1 11:-0.91938 12:-0.906897 13:-0.733799 14:-1 15:-0.853439 16:-0.875 17:-1 18:-0.628054 20:-1 21:-0.696229 
-9.730909149690889 -0 -0 -0 -0 -0 -0 0 78.59127372029204 0 0 0 1:-0.919141 2:-0.932039 3:-0.890106 4:-0.994882 5:-1 6:-0.404095 7:-1 8:-1 9:-1 10:-1 11:-0.875969 12:-0.899037 13:-0.994179 14:-1 15:-0.665727 16:-1 17:-1 18:-0.958235 20:-1 21:-0.622905 
-0 -0 -0 -0 -0 -64.76489642713339 -0 0 0 0 0 0 1:-0.793671 2:-1 3:-0.875308 4:-0.960762 5:-1 6:-0.59806 7:-1 8:-1 9:-1 10:-1 11:-1 12:-0.849994 13:-0.972837 14:-1 15:-0.68602 16:-0.997449 17:-1 18:-0.93617 20:-1 21:-0.688198 
-0 -0 -0 -0 -0 -4.623061044958171 -0 0 0 0 0 0 1:-0.861146 2:-0.899676 3:-0.881819 4:-0.913563 5:-1 6:-0.678879 7:-0.909502 8:-0.798319 9:-1 10:-1 11:-0.43876 12:-0.810141 13:-0.702367 14:-1 15:-0.70575 16:-0.922194 17:-1 18:-0.767533 20:-1 21:-0.530377 
-0 -0 -0 -0 -0 -0 -342.8831450676328 0 0 0 0 0 1:-0.886798 2:-1 3:-0.845319 4:-0.934603 5:-1 6:-0.716595 7:-1 8:-1 9:-1 10:-1 11:-1 12:-0.855419 13:-0.967016 14:-1 15:-0.669109 16:-1 17:-1 18:-0.938534 20:-1 21:-0.626047 
-0 -0 -0 -0 -0 -0 -0 22.49412208570846 0 0 0 0 1:-0.887355 2:-0.990291 3:-0.920292 4:-0.912425 5:-1 6:-0.503233 7:-1 8:-0.803922 9:-0.995305 10:-1 11:-0.516279 12:-0.95129 13:-0.927823 14:-1 15:-0.813416 16:-0.961735 17:-1 18:-0.867612 20:-1 21:-0.717179 
-0 -0 -0 -0 -0 -0 -0 23.95608569486338 0 0 0 0 1:-0.863098 2:-0.97411 3:-0.896419 4:-0.869775 5:-1 6:-0.540948 7:-1 8:-1 9:-1 10:-1 11:-0.84186 12:-0.939112 13:-0.958479 14:-1 15:-0.859076 16:-0.920068 17:-1 18:-0.71316 20:-1 21:-0.797486 
-0 -0 -0 -0 -0 -0 -380.3360633053414 0 0 0 0 0 1:-0.8815 2:-0.79288 3:-0.865049 4:-0.773102 5:-1 6:-0.867457 7:-0.764706 8:-0.647059 9:-0.873239 10:-1 11:-0.544186 12:-0.937452 13:-0.696934 14:-1 15:-0.888388 16:-0.846088 17:-1 18:-0.680851 20:-1 21:-0.742668 
-47.73048093874845 -0 -0 -0 -0 -0 -406.4738172501033 512 110.4093772297757 65.644553587823 75.95092185261309 0 1:-0.933919 2:-0.970874 3:-0.909243 4:-0.972135 5:-1 6:-0.8125 7:-0.9819 8:-0.826331 9:-0.812207 10:-1 11:-0.534884 12:-0.957711 13:-0.986806 14:-1 15:-0.855693 16:-0.988095 17:-1 18:-0.858156 20:-1 21:-0.886522 
-0 -0 -0 -0 -0 -0 -0 2.175925631857017 0 0 0 0 1:-0.944235 2:-0.873786 3:-0.962711 4:-0.869775 5:-1 6:-0.794181 7:-0.692308 8:-1 9:-0.769953 10:-1 11:-0.68062 12:-0.976973 13:-0.837796 14:-1 15:-0.87655 16:-0.910714 17:-1 18:-0.488574 20:-1 21:-0.597765 
-0 -0 -0 -0 -0 -0 -0 274.7207063698717 0 0 0 0 1:-0.935592 2:-0.92233 3:-0.923251 4:-0.815183 5:-1 6:-0.784483 7:-1 8:-1 9:-1 10:-1 11:-0.937984 12:-0.936123 13:-0.853706 14:-1 15:-0.899662 16:-0.924745 17:-1 18:-0.539795 20:-1 21:-0.817039 
-0 -0 -0 -0 -0 -0 -0 512 0 0 0 0 1:-0.937544 2:-0.996764 3:-0.915951 4:-0.923799 5:-1 6:-0.641164 7:-1 8:-0.910364 9:-0.896714 10:-1 11:-0.962791 12:-0.92306 13:-0.958867 14:-1 15:-0.861894 16:-0.957058 17:-1 18:-0.744681 20:-1 21:-0.701816 
-0 -0.2633088812290347 -0 -0 -0 -33.81916591052767 -0 0 0 0 0 0 1:-0.861146 2:-0.899676 3:-0.881819 4:-0.913563 5:-1 6:-0.678879 7:-0.909502 8:-0.798319 9:-1 10:-1 11:-0.43876 12:-0.810141 13:-0.702367 14:-1 15:-0.70575 16:-0.922194 17:-1 18:-0.767533 20:-1 21:-0.530377 
-0 -0 -0 -0 -0 -0 -512 0 0 0 0 0 1:-0.886798 2:-1 3:-0.845319 4:-0.934603 5:-1 6:-0.716595 7:-1 8:-1 9:-1 10:-1 11:-1 12:-0.855419 13:-0.967016 14:-1 15:-0.669109 16:-1 17:-1 18:-0.938534 20:-1 21:-0.626047 
-0 -0 -0 -0 -0 -0 -47.21012258693628 0 0 0 0 0 1:-0.893211 2:-1 3:-0.867416 4:-1 5:-1 6:-0.721983 7:-1 8:-1 9:-1 10:-1 11:-1 12:-0.888741 13:-0.963912 14:-1 15:-0.700676 16:-0.980867 17:-1 18:-0.907801 20:-1 21:-0.632332 
-0 -0 -0 -0.6701672251806776 -0 -0 -0 0 0 0 0 0 1:-0.798968 2:-0.838188 3:-0.826181 4:-0.873756 5:-1 6:-0.552802 7:-0.746606 8:-0.417367 9:-0.71831 10:-1 11:-0.665116 12:-0.852873 13:-0.883974 14:-1 15:-0.800451 16:-0.917092 17:-1 18:-0.677699 20:-1 21:-0.650838 
-0 -0 -0 -0 -0 -0 -0 0 0 70.56359704126344 0 0 1:-0.885961 2:-0.809061 3:-0.859722 4:-0.882286 5:-1 6:-0.451509 7:-0.963801 8:-0.551821 9:-0.793427 10:-1 11:-0.44186 12:-0.89793 13:-0.928599 14:-1 15:-0.891206 16:-0.907313 17:-1 18:-0.869976 20:-1 21:-0.917598 
-0 -0 -0 -0 -0 -0 -0 88.77017242966961 0 0 0 0 1:-0.887355 2:-0.990291 3:-0.920292 4:-0.912425 5:-1 6:-0.503233 7:-1 8:-0.803922 9:-0.995305 10:-1 11:-0.516279 12:-0.95129 13:-0.927823 14:-1 15:-0.813416 16:-0.961735 17:-1 18:-0.867612 20:-1 21:-0.717179 
-0 -0 -0 -0 -0 -0 -0 322.0595723110352 0 0 0 0 1:-0.863098 2:-0.97411 3:-0.896419 4:-0.869775 5:-1 6:-0.540948 7:-1 8:-1 9:-1 10:-1 11:-0.84186 12:-0.939112 13:-0.958479 14:-1 15:-0.859076 16:-0.920068 17:-1 18:-0.71316 20:-1 21:-0.797486 
-0 -0.7438615353838446 -0 -0.2693465539989613 -0 -0 -0 0 0 0 0 0 1:-0.860867 2:-0.760518 3:-0.868995 4:-0.86352 5:-1 6:-0.247845 7:-0.429864 8:-0.568627 9:-0.981221 10:-1 11:-0.534884 12:-0.909886 13:-0.8052 14:-1 15:-0.666855 16:-0.852891 17:-1 18:-0.601261 20:-1 21:-0.503492 
-0 -0 -0 -0 -0 -0 -0 304.2167806826664 0 0 0 0 1:-0.944235 2:-0.873786 3:-0.962711 4:-0.869775 5:-1 6:-0.794181 7:-0.692308 8:-1 9:-0.769953 10:-1 11:-0.68062 12:-0.976973 13:-0.837796 14:-1 15:-0.87655 16:-0.910714 17:-1 18:-0.488574 20:-1 21:-0.597765 
-0 -0 -0 -0 -0 -0 -0 512 0 0 0 0 1:-0.935592 2:-0.92233 3:-0.923251 4:-0.815183 5:-1 6:-0.784483 7:-1 8:-1 9:-1 10:-1 11:-0.937984 12:-0.936123 13:-0.853706 14:-1 15:-0.899662 16:-0.924745 17:-1 18:-0.539795 20:-1 21:-0.817039 
-0 -0 -0 -0 -0 -0 -0 512 0 0 0 0 1:-0.937544 2:-0.996764 3:-0.915951 4:-0.923799 5:-1 6:-0.641164 7:-1 8:-0.910364 9:-0.896714 10:-1 11:-0.962791 12:-0.92306 13:-0.958867 14:-1 15:-0.861894 16:-0.957058 17:-1 18:-0.744681 20:-1 21:-0.701816 
-0 -0 -0 -0 -0 -0 -512 0 0 0 0 0 1:-0.967656 2:-1 3:-0.858538 4:-0.916406 5:-1 6:-0.556034 7:-1 8:-1 9:-0.943662 10:-1 11:-0.872868 12:-0.878999 13:-0.87078 14:-1 15:-0.749154 16:-0.859694 17:-1 18:-0.846336 20:-1 21:-0.719623 
-0.05668326015416355 -0 -0 -0 -0 -0 -0 -0 0 0 0 0 1:-0.933082 2:-1 3:-0.985203 4:-0.958487 5:-0.793814 6:-0.670259 7:-1 8:-1 9:-1 10:-1 11:-1 12:-0.99535 13:-0.958479 14:0.230769 15:-0.976325 16:-0.880952 17:-1 18:-0.829787 20:-1 21:-0.725559 
-0 -0 -0 -4.212664801493117 -0 -0 -0 -0 0 1.327345922993606 0.9613409502248585 0 1:-0.956225 2:-0.990291 3:-0.997041 4:-0.93176 5:0.0309278 6:-0.614224 7:-1 8:-1 9:-1 10:-1 11:-0.888372 12:-1 13:-0.997672 14:-1 15:-0.988726 16:-0.953656 17:-1 18:-0.610717 20:-0.3125 21:-0.706006 
-268.2830016462922 -0 -0 -0 -0 -0 -0 -0 283.3940151716193 512 512 0 1:-0.947302 2:-0.89644 3:-0.982243 4:-0.884561 5:-1 6:-0.707974 7:-0.927602 8:-0.89916 9:-0.892019 10:-1 11:-0.891473 12:-0.992472 13:-0.993015 14:-1 15:-0.988162 16:-0.875 17:-1 18:-0.828211 20:-1 21:-0.840433 
-0 -1.305571060916516 -0 -0 -0 -0 -0 -0 0 0 0 0 1:-0.957898 2:-0.938511 3:-0.982835 4:-0.944839 5:-1 6:-0.294181 7:-1 8:-1 9:-0.995305 10:-1 11:-0.745736 12:-1 13:-0.999224 14:-1 15:-0.922773 16:-0.954507 17:-1 18:-0.72104 20:-1 21:-0.116271 
-41.4278135717026 -0 -0 -0 -0 -0 -0 -0 0 24.50066230039089 0 0 1:-0.937544 2:-0.987055 3:-0.99487 4:-0.884561 5:-1 6:-0.442888 7:-1 8:-1 9:-1 10:-1 11:-0.87907 12:-0.999557 13:-0.982926 14:-1 15:-1 16:-0.897109 17:-1 18:-0.702916 20:-1 21:-0.725908 
-2.461111092718317 -0 -0 -0 -0 -0 -0 -0 120.6194847344366 348.03548977912 56.11903079489905 0 1:-0.958455 2:-0.980583 3:-0.982243 4:-0.993745 5:-1 6:-0.41056 7:-1 8:-0.882353 9:-1 10:-1 11:-0.683721 12:-0.991365 13:-1 14:-1 15:-0.988162 16:-0.988095 17:-1 18:-0.904649 20:-1 21:-0.476955 
-0 -0 -0 -0 -18.97640985274536 -0 -0 -0 0 0 0 78.45803403006079 1:-0.918305 2:-0.954693 3:-0.978495 4:-0.726471 5:-1 6:-0.392241 7:-1 8:-0.915966 9:-0.976526 10:-1 11:-0.649612 12:-0.989262 13:-1 14:-1 15:-0.968997 16:-0.837585 17:-1 18:-0.631994 20:-1 21:-0.77898 
-0 -0 -0 -0 -0 -0 -0 -512 0 0 0 0 1:-0.950927 2:-0.880259 3:-0.967446 4:-0.753199 5:-1 6:-0.665948 7:-1 8:-0.910364 9:-1 10:-1 11:-0.882171 12:-0.996568 13:-0.987194 14:-1 15:-0.970688 16:-0.856718 17:-1 18:-0.57368 20:-1 21:-0.811802 
-0 -0 -0 -0 -0 -0 -0 -49.87542226484475 0 0 0 0 1:-0.939495 2:-0.977346 3:-0.957778 4:-0.84646 5:-1 6:-0.802802 7:-1 8:-1 9:-0.995305 10:-1 11:-0.84186 12:-0.995793 13:-0.916958 14:-1 15:-0.932356 16:-0.814626 17:-1 18:-0.381403 20:-1 21:-0.828911 
-0 -0.4915924825173473 -0.6795230288475815 -0.4530575870381147 -1.078023749502157 -1.119891131924703 -0 -0 0 0 0 3.617271713708364 1:-0.907709 2:-0.815534 3:-0.95916 4:-0.624111 5:-0.42268 6:-0.632543 7:-0.972851 8:-1 9:-0.910798 10:-1 11:-0.677519 12:-0.994022 13:-0.96624 14:0.333333 15:-0.968433 16:-0.794643 17:0.647059 18:-0.401891 20:-1 21:-0.788408 
-166.9685175561268 -0 -0 -0 -0 -0 -443.4554753823425 -0 163.946226677221 282.187258704888 42.00333782954189 0 1:-0.971281 2:-0.569579 3:-0.996843 4:-0.773102 5:-1 6:-0.696121 7:-0.728507 8:-1 9:-0.530516 10:-1 11:-0.792248 12:-1 13:-0.988747 14:-1 15:-0.947576 16:-0.895833 17:-1 18:-0.725768 20:-1 21:-0.884777 
-0 -0 -0 -1.266518975625223 -0 -0 -0 -20.42544080906602 0 0 0 0 1:-0.955667 2:-0.967638 3:-0.93943 4:-0.911288 5:-1 6:-0.679957 7:-0.782805 8:-0.0980392 9:-0.938967 10:-1 11:-0.330233 12:-0.973652 13:-0.962359 14:-1 15:-0.861894 16:-0.97449 17:-1 18:-0.555556 20:-1 21:-0.681913 
-0 -0 -0 -0 -0 -0 -0 -183.9348935039257 0 0 0 0 1:-0.907431 2:-0.851133 3:-0.971787 4:-0.841342 5:-1 6:-0.4375 7:-1 8:-0.882353 9:-0.929577 10:-1 11:-0.745736 12:-0.994575 13:-0.973225 14:-1 15:-0.980834 16:-0.96131 17:-1 18:-0.672971 20:-1 21:-0.673184 
-0 -0.9923469394907839 -0 -0 -12.74124013685975 -10.90736367805122 -0 -442.7836754587618 0 0 0 0 1:-0.969887 2:-1 3:-0.968038 4:-0.902758 5:-1 6:-0.77694 7:-1 8:-1 9:-1 10:-1 11:-1 12:-0.989372 13:-0.861855 14:-1 15:-0.841037 16:-0.792092 17:-1 18:-0.35461 20:-1 21:-0.496858 
-0 -0.2002564834715094 -0 -0.6129650909218548 -0 -0 -0 -0 0 0 0.8611655171179777 0 1:-0.9526 2:-0.951456 3:-0.977508 4:-0.789025 5:-0.938144 6:-0.636853 7:-1 8:-1 9:-0.971831 10:-1 11:-0.587597 12:-1 13:-0.965076 14:1 15:-1 16:-0.912415 17:-1 18:-0.618597 20:-0.7875 21:-0.663408 
-98.05855843417129 -0 -0 -0 -0 -0 -0 -54.19747166232749 284.1842453006948 0 0 0 1:-0.89572 2:-0.906149 3:-0.973562 4:-0.900483 5:-1 6:-0.385776 7:-0.9819 8:-0.994398 9:-0.934272 10:-1 11:-0.553488 12:-0.995904 13:-0.981762 14:-1 15:-0.892897 16:-0.999575 17:-1 18:-0.897557 20:-1 21:-0.651187 
-0 -0 -0 -0 -0 -0 -0 -15.65809877776284 0 0 0 0 1:-0.936986 2:-0.951456 3:-0.939233 4:-0.856696 5:0.0515464 6:-0.734914 7:-0.945701 8:-0.546218 9:-0.816901 10:-1 11:-0.79845 12:-0.995904 13:-0.931315 14:-1 15:-0.901353 16:-0.899235 17:-1 18:-0.707644 20:-1 21:-0.645601 
-14.85468992003296 -0 -0 -0 -0 -0 -512 -0 3.237378705372764 0 0 0 1:-0.94786 2:-1 3:-0.94377 4:-0.967586 5:-1 6:-0.887931 7:-1 8:-1 9:-1 10:-1 11:-1 12:-0.940219 13:-0.912301 14:-1 15:-0.919391 16:-0.994898 17:-1 18:-0.970843 20:-1 21:-0.9375 
-512 -0 -0 -0 -0 -0 -512 -0 512 512 512 0 1:-0.93364 2:-0.996764 3:-0.956397 4:-0.956781 5:-1 6:-0.846983 7:-1 8:-1 9:-1 10:-1 11:-0.860465 12:-0.94199 13:-0.934808 14:-1 15:-0.917136 16:-1 17:-1 18:-0.944838 20:-1 21:-0.946578 
-0 -0 -0 -0.6881671014463642 -0 -0 -407.7236620749129 -0 0 0 0 0 1:-0.953436 2:-0.524272 3:-0.973759 4:-0.820301 5:-1 6:-0.926724 7:-0.556561 8:-0.568627 9:-0.86385 10:-1 11:-0.75814 12:-0.994908 13:-0.948778 14:-1 15:-0.944758 16:-0.724915 17:-1 18:-0.680851 20:-1 21:-0.936802 
-0 -0 -0 -0 -0 -0 -512 -185.7457638817515 0 0 0 0 1:-0.940332 2:-1 3:-0.917924 4:-0.996019 5:-1 6:-0.772629 7:-1 8:-1 9:-1 10:-1 11:-1 12:-0.896601 13:-0.993403 14:-1 15:-0.777339 16:-0.987245 17:-1 18:-0.963751 20:-1 21:-0.877095 
-0 -0 -0 -0 -0 -0 -0 -512 0 0 0 0 1:-0.945908 2:-1 3:-0.960935 4:-0.936878 5:-1 6:-0.615302 7:-1 8:-1 9:-1 10:-1 11:-1 12:-0.973984 13:-0.82111 14:-1 15:-0.825817 16:-0.928997 17:-1 18:-0.783294 20:-1 21:-0.715084 
-0 -0 -0 -0 -0 -0 -0 -195.6916009553887 0 0 0 0 1:-0.950927 2:-0.983819 3:-0.984019 4:-0.853853 5:-1 6:-0.65625 7:-0.638009 8:-1 9:-0.596244 10:-1 11:-0.72093 12:-0.992472 13:-0.925883 14:-1 15:-0.950395 16:-0.803571 17:-1 18:-0.643814 20:-1 21:-0.828911 
-0 -0 -0 -0 -0 -0 -440.6276940031913 -512 0 0 0 0 1:-0.943399 2:-0.932039 3:-0.979087 4:-0.9147 5:-1 6:-0.804957 7:-0.963801 8:-1 9:-0.652582 10:-1 11:-0.835659 12:-0.980294 13:-0.831199 14:-1 15:-0.911499 16:-0.951956 17:-1 18:-0.646178 20:-1 21:-0.704609 
-0 -0 -0 -0 -0 -0 -512 -0 0 0 0 0 1:-0.946466 2:-0.906149 3:-0.972773 4:-0.812909 5:-1 6:-0.991379 7:-1 8:-0.893557 9:-0.971831 10:-1 11:-0.885271 12:-0.976198 13:-0.855258 14:-1 15:-0.983089 16:-0.752551 17:-1 18:-0.863672 20:-1 21:-0.978003 
-0 -0 -10.75781239162791 -0 -0 -0 -512 -0 0 0 0 1.18790954239827 1:-0.894326 2:-0.873786 3:-0.953832 4:-0.843048 5:-1 6:-0.880388 7:-1 8:-0.837535 9:-1 10:-1 11:-0.764341 12:-0.946862 13:-0.783081 14:-1 15:-0.960541 16:-0.762755 17:-1 18:-0.876281 20:-1 21:-0.936103 
-0 -0 -0 -0 -0 -0 -0 -0 0 33.74335510202295 0 0 1:-0.96208 2:-0.980583 3:-0.978692 4:-0.909582 5:-1 6:-0.712284 7:-1 8:-1 9:-1 10:-1 11:-0.894574 12:-0.991365 13:-0.909585 14:-1 15:-0.970124 16:-0.926446 17:-1 18:-0.703704 20:-1 21:-0.86243 
-0 -0 -0 -0 -0 -0 -42.02385129793503 -216.5158872721357 0 0 0 0 1:-0.936707 2:-0.97411 3:-0.960541 4:-0.909582 5:-1 6:-0.514009 7:-1 8:-1 9:-1 10:-1 11:-0.72093 12:-0.964132 13:-0.861079 14:-1 15:-0.892334 16:-0.969813 17:-1 18:-0.870764 20:-1 21:-0.798184 
-0 -0 -0 -0 -0 -0 -0 -0 0 0 0 78.82764337289025 1:-0.95734 2:-1 3:-0.966657 4:-0.820301 5:-1 6:-0.753233 7:-1 8:-1 9:-1 10:-1 11:-1 12:-0.997454 13:-0.959643 14:-1 15:-0.967869 16:-0.816752 17:-1 18:-0.228526 20:-1 21:-0.783869 
-0 -1.325376605864824 -1.392655894486716 -0 -0.1996980431940492 -10.48562879906515 -0 -512 0 0 0 0 1:-0.87202 2:-0.880259 3:-0.930749 4:-0.836793 5:-1 6:-0.576509 7:-0.918552 8:-0.770308 9:-0.755869 10:-1 11:-0.541085 12:-0.955607 13:-0.900272 14:-1 15:-0.864149 16:-1 17:-1 18:-0.492514 20:-1 21:-0.697626 
-0 -0 -0 -0 -0 -0 -219.154579071426 -0 0 0 0 0 1:-0.958176 2:-0.951456 3:-0.979678 4:-0.793574 5:-1 6:-0.84806 7:-0.855204 8:-0.871148 9:-0.399061 10:-1 11:-0.603101 12:-0.995793 13:-0.844393 14:-1 15:-0.976888 16:-0.698554 17:-1 18:-0.412136 20:-1 21:-0.934358 
-0 -0 -0 -0 -0 -0 -0 -0 0 70.68217120677748 0 0 1:-0.969329 2:-0.76699 3:-0.981849 4:-0.868069 5:-1 6:-0.62069 7:-0.9819 8:-0.927171 9:-0.892019 10:-1 11:-0.572093 12:-1 13:-0.906092 14:-1 15:-0.993799 16:-0.889031 17:-1 18:-0.360914 20:-1 21:-0.844623 
-0 -0 -0 -0 -0 -0 -0 -64.82264905036239 0 0 0 25.87584887004793 1:-0.927506 2:-0.928803 3:-0.975141 4:-0.792437 5:-1 6:-0.552802 7:-0.773756 8:-0.697479 9:-0.934272 10:-1 11:-0.444961 12:-0.992029 13:-0.904152 14:-1 15:-0.976888 16:-0.901361 17:-1 18:-0.568952 20:-1 21:-0.816341 
-125.4575106193839 -0 -0 -0 -0 -0 -0 -0 0 313.824555813335 183.3949033696376 0 1:-0.954831 2:-1 3:-0.981454 4:-0.927211 5:-1 6:-0.773707 7:-1 8:-1 9:-1 10:-1 11:-1 12:-0.993911 13:-0.953434 14:-1 15:-0.956032 16:-0.893282 17:-1 18:-0.798266 20:-1 21:-0.872207 
-162.9601615719138 -0 -0 -0 -0 -0 -512 -0 114.6893678033513 22.34587565258282 0 0 1:-0.94786 2:-1 3:-0.94377 4:-0.967586 5:-1 6:-0.887931 7:-1 8:-1 9:-1 10:-1 11:-1 12:-0.940219 13:-0.912301 14:-1 15:-0.919391 16:-0.994898 17:-1 18:-0.970843 20:-1 21:-0.9375 
-0 -0 -0 -0 -0 -0 -512 -0 0 0 0 0 1:-0.918305 2:-1 3:-0.933314 4:-0.978391 5:-1 6:-0.823276 7:-1 8:-1 9:-1 10:-1 11:-1 12:-0.885531 13:-0.964688 14:-1 15:-0.832582 16:-0.987245 17:-1 18:-0.939322 20:-1 21:-0.915503 
-0 -0 -0 -0 -0 -0 -498.768007994951 -0 0 0 0 0 1:-0.944514 2:-0.932039 3:-0.989149 4:-0.860108 5:-1 6:-0.827586 7:-1 8:-0.943978 9:-0.892019 10:-1 11:-0.454264 12:-0.984612 13:-0.88475 14:-1 15:-0.918828 16:-0.757228 17:-1 18:-0.393223 20:-1 21:-0.817039 
-0 -0 -0 -0 -0 -0 -287.0124632880703 -0 0 0 0 0 1:-0.903527 2:-1 3:-0.896616 4:-0.945977 5:-1 6:-0.817888 7:-1 8:-1 9:-1 10:-1 11:-1 12:-0.923281 13:-0.909197 14:-1 15:-0.834273 16:-0.968537 17:-1 18:-1 20:-1 21:-0.909218 
-0 -0 -0 -0 -0 -0 -512 -0 0 0 0 0 1:-0.904921 2:-0.938511 3:-0.915951 4:-1 5:-1 6:-0.809267 7:-1 8:-0.871148 9:-1 10:-1 11:-0.820155 12:-0.852541 13:-1 14:-1 15:-0.897971 16:-1 17:-1 18:-1 20:-1 21:-0.903631 
-0 -0 -0 -0 -0 -0 -512 -31.47549004130638 0 0 0 0 1:-0.916911 2:-0.996764 3:-0.930946 4:-0.939153 5:-1 6:-0.883621 7:-1 8:-1 9:-1 10:-1 11:-0.848062 12:-0.909997 13:-0.927047 14:-1 15:-0.916573 16:-0.990646 17:-1 18:-0.838455 20:-1 21:-0.954609 
-0 -0 -0 -0 -0 -0 -0 -512 0 0 0 0 1:-0.902412 2:-1 3:-0.909243 4:-0.936309 5:-1 6:-0.775862 7:-1 8:-1 9:-1 10:-1 11:-1 12:-0.898594 13:-0.977105 14:-1 15:-0.890079 16:-0.982143 17:-1 18:-0.838455 20:-1 21:-0.898394 
-0 -0 -0 -0 -0 -0 -512 -0 0 0 0 0 1:-0.935313 2:-0.967638 3:-0.933708 4:-0.923799 5:-1 6:-0.834052 7:-0.782805 8:-1 9:-0.816901 10:-1 11:-0.897674 12:-0.97332 13:-0.897943 14:-1 15:-0.920519 16:-0.724915 17:-1 18:-0.967691 20:-1 21:-0.971369 
-0 -0 -0 -0 -0 -0 -512 -0 0 0 0 5.266140567137987 1:-0.899902 2:-0.89644 3:-0.964684 4:-0.695195 5:-1 6:-0.807112 7:-1 8:-1 9:-0.901408 10:-1 11:-1 12:-0.969224 13:-0.742336 14:-1 15:-0.923337 16:-0.720663 17:-1 18:-0.794326 20:-1 21:-0.94588 
-0 -0 -0 -0 -0 -0 -0 -0 0 0 0 0.1180565360802352 1:-0.921372 2:-1 3:-0.972773 4:-0.824282 5:-1 6:-0.832974 7:-1 8:-1 9:-1 10:-1 11:-1 12:-0.999557 13:-0.914241 14:-1 15:-0.921646 16:-0.490646 17:-1 18:-0.720252 20:-1 21:-0.950768 
-0 -0 -0 -0 -0 -0 -0 -0 0 0 27.74051184828469 0 1:-0.919699 2:-0.757282 3:-0.970405 4:-0.926073 5:-1 6:-0.720905 7:-0.972851 8:-0.971989 9:-0.784038 10:-1 11:-0.311628 12:-0.989372 13:-0.977881 14:-1 15:-0.984216 16:-0.872874 17:-1 18:-0.548463 20:-1 21:-0.603352 
-0 -0 -0 -0 -0 -0 -102.8039536390552 -0 0 0 0 0 1:-0.903527 2:-1 3:-0.896616 4:-0.945977 5:-1 6:-0.817888 7:-1 8:-1 9:-1 10:-1 11:-1 12:-0.923281 13:-0.909197 14:-1 15:-0.834273 16:-0.968537 17:-1 18:-1 20:-1 21:-0.909218 
-0 -0 -0 -0 -0 -11.99289027541342 -512 -191.0992927888211 0 0 0 0 1:-0.904921 2:-0.938511 3:-0.915951 4:-1 5:-1 6:-0.809267 7:-1 8:-0.871148 9:-1 10:-1 11:-0.820155 12:-0.852541 13:-1 14:-1 15:-0.897971 16:-1 17:-1 18:-1 20:-1 21:-0.903631 
-0 -0 -0 -0 -0 -0 -512 -188.4766819992784 0 0 0 0 1:-0.916911 2:-0.996764 3:-0.930946 4:-0.939153 5:-1 6:-0.883621 7:-1 8:-1 9:-1 10:-1 11:-0.848062 12:-0.909997 13:-0.927047 14:-1 15:-0.916573 16:-0.990646 17:-1 18:-0.838455 20:-1 21:-0.954609 
-0 -0 -0 -0 -0 -93.44471107815403 -0 -512 0 0 0 0 1:-0.902412 2:-1 3:-0.909243 4:-0.936309 5:-1 6:-0.775862 7:-1 8:-1 9:-1 10:-1 11:-1 12:-0.898594 13:-0.977105 14:-1 15:-0.890079 16:-0.982143 17:-1 18:-0.838455 20:-1 21:-0.898394 
-0 -3.762500168827142 -22.13643009698657 -0 -51.90097726657362 -35.44028602951578 -512 -106.2593727272343 0 0 0 197.6204672882284 1:-0.899902 2:-0.89644 3:-0.964684 4:-0.695195 5:-1 6:-0.807112 7:-1 8:-1 9:-0.901408 10:-1 11:-1 12:-0.969224 13:-0.742336 14:-1 15:-0.923337 16:-0.720663 17:-1 18:-0.794326 20:-1 21:-0.94588 
-0 -0 -36.18554255584647 -0 -0 -0 -0 -0 0 0 0 232.8649886751292 1:-0.921372 2:-1 3:-0.972773 4:-0.824282 5:-1 6:-0.832974 7:-1 8:-1 9:-1 10:-1 11:-1 12:-0.999557 13:-0.914241 14:-1 15:-0.921646 16:-0.490646 17:-1 18:-0.720252 20:-1 21:-0.950768 
-27.1241792083299 -0 -1.012952835773779 -0 -0 -0 -0 -0 -23.54744756668157 511.3262048825621 182.9841022165353 0 1:-0.979646 2:-0.71521 3:-0.980665 4:-0.983509 5:-1 6:-0.742457 7:-0.457014 8:-0.988796 9:-1 10:-1 11:0.262016 12:-1 13:-0.957703 14:-1 15:-0.935175 16:-0.981718 17:-1 18:-0.963751 20:-1 21:-0.734986 
-512 -0 -0 -0 -0 -0 -0 -0 -0 512 512 0 1:-0.965147 2:-0.618123 3:-0.990727 4:-0.976685 5:-1 6:-0.653017 7:-0.447964 8:-1 9:-1 10:-1 11:-0.423256 12:-0.997675 13:-0.985254 14:-1 15:-0.970124 16:-0.969813 17:-1 18:-0.956659 20:-1 21:-0.868715 
-512 -0 -0 -0 -0 -0 -0 -0 -166.0372569757862 512 512 0 1:-0.965147 2:-0.957929 3:-0.997435 4:-0.925505 5:-1 6:-0.639009 7:-1 8:-1 9:-0.882629 10:-1 11:-0.751938 12:-1 13:-0.98409 14:-1 15:-0.994363 16:-0.974915 17:-1 18:-0.931442 20:-1 21:-0.84183 
-512 -0 -0 -0 -0 -0 -0 -0 -0 512 512 0 1:-0.9763 2:-0.834951 3:-0.998224 4:-0.939721 5:-1 6:-0.700431 7:-1 8:-1 9:-0.868545 10:-1 11:-0.581395 12:-0.999668 13:-0.985642 14:-1 15:-1 16:-0.97534 17:-1 18:-0.950355 20:-1 21:-0.913757 
-512 -0 -0 -0 -0 -0 -0 -0 -0 512 512 0 1:-0.968772 2:-0.789644 3:-0.997238 4:-0.963605 5:-1 6:-0.761853 7:-0.837104 8:-1 9:-0.910798 10:-1 11:-0.826357 12:-1 13:-0.999612 14:-1 15:-0.988162 16:-0.996173 17:-1 18:-0.91647 20:-1 21:-0.925628 
-512 -0 -0 -0 -0 -0 -0 -0 -0 512 512 0 1:-0.969051 2:-0.928803 3:-0.994278 4:-0.985215 5:-1 6:-0.701509 7:-0.900452 8:-1 9:-1 10:-1 11:-0.823256 12:-0.998893 13:-1 14:-1 15:-0.971251 16:-0.996599 17:-1 18:-0.970055 20:-1 21:-0.886173 
-210.9630361119282 -0 -1.080271360896256 -0 -0 -0 -0 -0 -0 512 512 5.170292786553708 1:-0.982434 2:-0.838188 3:-0.992503 4:-0.924936 5:-1 6:-0.786638 7:-1 8:-1 9:-0.976526 10:-1 11:-0.618605 12:-1 13:-0.979045 14:-1 15:-0.979707 16:-0.977466 17:-1 18:-0.828999 20:-1 21:-0.903631 
-512 -0 -0 -0 -0 -0 -0 -0 -0 512 512 0 1:-0.956782 2:-0.588997 3:-1 4:-0.891385 5:-1 6:-0.614224 7:-0.574661 8:-1 9:-0.84507 10:-1 11:-0.11938 12:-1 13:-1 14:-1 15:-1 16:-0.967262 17:-1 18:-0.92041 20:-1 21:-0.814595 
-207.9541942662548 -0 -0 -0 -0 -0 -0 -0 -394.9065915835095 238.3618577150463 320.9113932667376 0 1:-0.973233 2:-0.902913 3:-0.988754 4:-0.965311 5:-1 6:-0.719828 7:-1 8:-1 9:-1 10:-1 11:-0.820155 12:-1 13:-0.986418 14:-1 15:-0.941375 16:-0.995748 17:-1 18:-0.973207 20:-1 21:-0.77514 
-512 -0 -0 -0 -0 -0 -0 -0 -0 512 512 0 1:-0.961522 2:-0.686084 3:-1 4:-0.938584 5:-1 6:-0.544181 7:-1 8:-1 9:-0.953052 10:-1 11:-0.696124 12:-1 13:-1 14:-1 15:-1 16:-1 17:-1 18:-0.888101 20:-1 21:-0.868366 
-512 -0 -0 -0 -0 -0 -0 -0 -0 512 512 0 1:-0.975464 2:-0.893204 3:-0.993686 4:-0.945408 5:-1 6:-0.701509 7:-1 8:-1 9:-0.910798 10:-1 11:-0.962791 12:-0.998339 13:-0.99612 14:-1 15:-0.978579 16:-0.980867 17:-1 18:-0.930654 20:-1 21:-0.848813 
-512 -0 -0 -0 -0 -0 -220.293671456173 -0 -0 512 512 0 1:-0.979088 2:-0.84466 3:-0.982638 4:-0.977822 5:-1 6:-0.884698 7:-1 8:-0.988796 9:-0.896714 10:-1 11:-0.665116 12:-0.996457 13:-0.995731 14:-1 15:-0.948703 16:-0.991497 17:-1 18:-0.927502 20:-1 21:-0.949372 
-512 -0 -0 -0 -0 -0 -0 -0 -0 512 420.1212997548325 0 1:-0.96682 2:-0.799353 3:-0.992108 4:-0.968723 5:-1 6:-0.578664 7:-1 8:-1 9:-0.938967 10:-1 11:-0.832558 12:-1 13:-0.992239 14:-1 15:-0.975197 16:-0.991497 17:-1 18:-0.903861 20:-1 21:-0.79993 
-455.8508786902102 -0 -0 -0 -0.6196337185285303 -0 -0 -0 -0 0 0 0 1:-0.959571 2:-0.621359 3:-0.987176 4:-0.95735 5:-1 6:-0.712284 7:-0.638009 8:-1 9:-0.971831 10:-1 11:-0.866667 12:-0.994022 13:-0.965076 14:-1 15:-0.96336 16:-0.99915 17:-1 18:-0.925138 20:-1 21:-0.925628 
-512 -0 -0 -0 -0 -0 -0 -0 -0 287.7016617145418 327.6446963068934 0 1:-0.974069 2:-0.508091 3:-0.979678 4:-0.973273 5:-1 6:-0.741379 7:-0.040724 8:-0.848739 9:-0.892019 10:-1 11:-0.336434 12:-0.99214 13:-0.993791 14:-1 15:-0.956032 16:-1 17:-1 18:-0.98424 20:-1 21:-0.896299 
-0 -2.476274914516554 -5.660902224804521 -0 -27.80045051206211 -11.62006777544289 -0 -132.2857652417221 -512 512 435.3611624008454 26.05346390526212 1:-0.965705 2:-0.951456 3:-0.972576 4:-0.911288 5:-1 6:-0.515086 7:-1 8:-1 9:-0.85446 10:-1 11:-0.717829 12:-0.994575 13:-1 14:-1 15:-0.94363 16:-0.995323 17:-1 18:-0.79275 20:-1 21:-0.820531 
-0 -0 -19.1147309752695 -1.392803438763973 -0 -11.62366376505909 -264.5888812263198 -37.66618653225751 -272.5476289293059 289.1454010629598 327.9760216593547 0 1:-0.962638 2:-0.783172 3:-0.979087 4:-0.932897 5:-1 6:-0.90625 7:-0.819005 8:-0.893557 9:-0.924883 10:-1 11:-1 12:-1 13:-0.967404 14:-1 15:-0.966742 16:-0.974915 17:-1 18:-0.93223 20:-1 21:-0.973115 
-0 -0 -0 -0 -0 -14.49464452913054 -0 -0 -0 512 512 0 1:-0.979925 2:-0.857605 3:-0.981059 4:-0.951663 5:-1 6:-0.802802 7:-1 8:-1 9:-1 10:-1 11:-0.897674 12:-0.996679 13:-0.994179 14:-1 15:-0.953213 16:-0.977891 17:-1 18:-0.910165 20:-1 21:-0.926327 
-315.7560205839757 -0 -0.3056590878409782 -0 -0 -0 -0 -0 -34.08259905230136 512 512 8.779068118569098 1:-0.984386 2:-0.838188 3:-0.985005 4:-0.943702 5:-1 6:-0.934267 7:-0.466063 8:-0.910364 9:-0.816901 10:-1 11:-0.869767 12:-0.998893 13:-0.973225 14:-1 15:-0.985908 16:-0.928146 17:-1 18:-0.858156 20:-1 21:-0.946229 
-512 -0 -0 -0 -0 -0 -0 -0 -0 512 512 0 1:-0.991356 2:-0.932039 3:-0.990332 4:-0.954507 5:-1 6:-0.821121 7:-1 8:-1 9:-0.938967 10:-1 11:-0.652713 12:-0.999779 13:-0.985254 14:-1 15:-0.975761 16:-0.973214 17:-1 18:-0.918834 20:-1 21:-0.912011 
-0 -1.297375909878442 -0 -0 -2.446132453357719 -13.91288253263062 -269.5485098910204 -159.5414115184443 -78.94919428511125 0 0 0 1:-0.983271 2:-0.977346 3:-0.973168 4:-0.994882 5:-1 6:-0.657328 7:-1 8:-1 9:-1 10:-1 11:-0.829457 12:-0.992693 13:-0.992239 14:-1 15:-0.829763 16:-0.991922 17:-1 18:-0.955083 20:-1 21:-0.840782 
-0 -0 -0 -0 -0 -0 -0 -19.20113393760547 -0 0 0 0 1:-0.969887 2:-0.851133 3:-0.949887 4:-1 5:-1 6:-0.633621 7:-0.628959 8:-0.787115 9:-1 10:-1 11:-0.491473 12:-0.972102 13:-1 14:-1 15:-0.827508 16:-1 17:-1 18:-1 20:-1 21:-0.807263 
-320.6524523894785 -1.445703690960217 -0 -1.623614955557834 -0 -0 -0 -0 -0 76.27837457182324 0 0 1:-0.965426 2:-0.94822 3:-0.962908 4:-0.985783 5:-1 6:-0.40625 7:-1 8:-1 9:-1 10:-1 11:-0.677519 12:-0.987047 13:-0.996896 14:-1 15:-0.895152 16:-1 17:-1 18:-0.983452 20:-1 21:-0.77095 
-0 -0 -0 -0 -0 -0 -0 -0 -0 512 512 0 1:-0.971002 2:-0.61165 3:-0.974549 4:-0.981234 5:-1 6:-0.618534 7:-0.420814 8:-1 9:-0.976526 10:-1 11:-0.134884 12:-0.98904 13:-0.998836 14:-1 15:-0.942503 16:-1 17:-1 18:-0.923562 20:-1 21:-0.793645 
-420.0808125719118 -0 -0 -0.112279331111007 -0 -0 -0 -0 -0 512 203.687158076111 0 1:-0.967378 2:-0.411003 3:-0.973365 4:-0.976685 5:-1 6:-0.653017 7:-0.674208 8:-0.686275 9:-0.788732 10:-1 11:0.00465116 12:-0.989704 13:-0.994567 14:-1 15:-0.97407 16:-0.998724 17:-1 18:-0.970055 20:-1 21:-0.848464 
-0 -0.7700034083650549 -0 -2.205956903212074 -0 -0 -0 -0 -0 77.8937169592317 0 5.397148600055029 1:-0.950927 2:-0.139159 3:-0.977903 4:-0.969861 5:-1 6:-0.516164 7:0.384615 8:-1 9:-0.793427 10:-1 11:0.0573643 12:-0.983837 13:-0.994955 14:-1 15:-0.943067 16:-0.997449 17:-1 18:-0.960599 20:-1 21:-0.821927 
-512 -0 -0 -0 -0 -0 -0 -0 -0 512 512 0 1:-0.985222 2:-0.81877 3:-0.996054 4:-0.984646 5:-1 6:-0.891164 7:-0.936652 8:-0.977591 9:-1 10:-1 11:-0.894574 12:-1 13:-1 14:-1 15:-0.997745 16:-0.996173 17:-1 18:-0.978723 20:-1 21:-0.979749 
-512 -0 -0 -0 -0 -0 -0 -0 -0 512 512 0 1:-0.988847 2:-0.656958 3:-0.982441 4:-0.959625 5:-1 6:-0.952586 7:-0.520362 8:-0.988796 9:-0.840376 10:-1 11:-0.454264 12:-0.997897 13:-0.976329 14:-1 15:-0.990417 16:-0.976616 17:-1 18:-0.927502 20:-1 21:-0.995112 
-0 -0 -0 -0 -0 -1.067319763562642 -0 -0 -0 -512 512 0 1:-0.963195 2:-0.521036 3:-0.998027 4:-0.869207 5:-1 6:-0.713362 7:-0.339367 8:-1 9:-1 10:-1 11:-0.522481 12:-0.998893 13:-0.976717 14:-1 15:-1 16:-0.887755 17:-1 18:-0.886525 20:-1 21:-0.918296 
-0 -0.1081309054696868 -1.278979636226722 -1.668901779214011 -0 -0.02240488965805701 -30.65481121664507 -0 -0 -0 44.81984586640433 0 1:-0.977136 2:-0.2589 3:-0.988359 4:-0.912425 5:-1 6:-0.767241 7:0.18552 8:-0.859944 9:-0.746479 10:-1 11:-0.255814 12:-1 13:-0.98603 14:-1 15:-0.988726 16:-0.868622 17:-1 18:-0.829787 20:-1 21:-0.958799 
-119.9996058465756 -0 -0 -0 -0 -0 -0 -0 -0 -90.68057819546088 0 0 1:-0.967099 2:-0.478964 3:-1 4:-0.986921 5:-1 6:-0.752155 7:-0.927602 8:-1 9:-0.976526 10:-1 11:-0.435659 12:-1 13:-1 14:-1 15:-1 16:-1 17:-1 18:-0.921198 20:-1 21:-0.815642 
-512 -0 -0 -0 -0 -0 -0 -0 -0 -512 512 0 1:-0.976858 2:-0.941748 3:-1 4:-0.996019 5:-1 6:-0.626078 7:-1 8:-1 9:-1 10:-1 11:-0.894574 12:-1 13:-1 14:-1 15:-1 16:-0.997874 17:-1 18:-0.959811 20:-1 21:-0.868366 
-512 -0 -0 -0 -0 -0 -0 -0 -0 -512 512 0 1:-0.967099 2:-0.857605 3:-1 4:-0.944839 5:-1 6:-0.552802 7:-1 8:-1 9:-0.920188 10:-1 11:-0.832558 12:-1 13:-1 14:-1 15:-1 16:-0.995323 17:-1 18:-0.937746 20:-1 21:-0.830307 
-512 -0 -0 -0 -0 -0 -0 -0 -0 -0 512 0 1:-0.968772 2:-0.666667 3:-1 4:-1 5:-1 6:-0.40625 7:-0.782805 8:-1 9:-1 10:-1 11:-0.0852713 12:-1 13:-1 14:-1 15:-1 16:-1 17:-1 18:-1 20:-1 21:-0.791201 
-0 -0 -0 -0 -0 -0 -0 -0 -0 -28.06616105902005 51.41074093972576 0 1:-0.995539 2:-0.987055 3:-0.995857 4:-0.976685 5:-0.958763 6:-0.881466 7:-0.846154 8:-0.983193 9:-1 10:-1 11:-0.810853 12:-1 13:-0.98409 14:-1 15:-0.972379 16:-0.987245 17:-0.823529 18:-0.871552 20:-0.7875 21:-0.891061 
-259.2520891815207 -0 -0 -0 -0 -0 -0 -0 -0 -512 512 0 1:-0.983549 2:-0.854369 3:-0.981059 4:-0.985215 5:-1 6:-0.867457 7:-1 8:-0.865546 9:-1 10:-1 11:-0.95969 12:-0.997122 13:-0.98409 14:-1 15:-0.973506 16:-0.996173 17:-1 18:-0.964539 20:-1 21:-0.938198 
-0 -0 -0 -0 -0 -0 -512 -0 -4.504037990111225 -0 512 0 1:-0.981319 2:-0.857605 3:-0.985005 4:-0.93176 5:-1 6:-0.887931 7:-1 8:-1 9:-0.798122 10:-1 11:-0.748837 12:-0.98738 13:-0.987971 14:-1 15:-0.961105 16:-0.929847 17:-1 18:-0.801418 20:-1 21:-0.968925 
-0 -0 -0 -0 -0 -0 -0 -0 -24.56432331647178 -0 512 0 1:-0.981598 2:-0.97411 3:-0.999014 4:-0.944839 5:-1 6:-0.806034 7:-0.846154 8:-0.831933 9:-0.887324 10:-1 11:-0.820155 12:-0.99845 13:-0.976329 14:-1 15:-0.988726 16:-0.994898 17:-1 18:-0.894405 20:-1 21:-0.860684 
-512 -0 -0 -0 -0 -0 -0 -0 -0 -0 0 0 1:-0.971839 2:-0.94822 3:-1 4:-0.954507 5:-1 6:-0.387931 7:-1 8:-1 9:-0.826291 10:-1 11:-0.823256 12:-1 13:-1 14:-1 15:-1 16:-0.995748 17:-1 18:-0.884161 20:-1 21:-0.774791 
-0 -0 -0 -0 -0.3121355861348435 -0 -0 -0 -0 -0 0 16.48483480580305 1:-0.923881 2:-0.524272 3:-0.996843 4:-0.924367 5:-1 6:-0.340517 7:-0.19457 8:-1 9:-0.892019 10:-1 11:-0.522481 12:-1 13:-1 14:-1 15:-0.979143 16:-0.967262 17:-1 18:-0.77305 20:-1 21:-0.839036 
-147.6449278320986 -0 -0 -0 -0 -0 -0 -0 -194.7873247572118 -144.0866574073367 512 0 1:-0.963753 2:-0.912621 3:-0.993292 4:-0.918112 5:-1 6:-0.807112 7:-0.800905 8:-1 9:-0.769953 10:-1 11:-0.795349 12:-0.997232 13:-0.97012 14:-1 15:-0.997745 16:-0.971514 17:-1 18:-0.818755 20:-1 21:-0.932263 
-512 -0 -0 -0 -0 -0 -0 -0 -0 -0 512 0 1:-0.988289 2:-0.760518 3:-0.999211 4:-0.978391 5:-1 6:-0.780172 7:-0.746606 8:-1 9:-0.882629 10:-1 11:-0.469767 12:-1 13:-0.993791 14:-1 15:-0.997745 16:-0.988946 17:-1 18:-0.906225 20:-1 21:-0.880237 
-238.2729612158111 -0 -0 -0 -0 -0 -2.149031238786518 -0 -0 -0 512 0 1:-0.977136 2:-0.724919 3:-1 4:-0.941996 5:-1 6:-0.757543 7:-0.357466 8:-1 9:-0.86385 10:-1 11:0.243411 12:-1 13:-1 14:-1 15:-1 16:-0.92602 17:-1 18:-0.895193 20:-1 21:-0.910615 
-0 -0 -0 -0 -0 -0 -0 -0 -93.38089319235256 -0 0 1.85019357497559 1:-0.978531 2:-0.919094 3:-1 4:-0.933466 5:-1 6:-0.273707 7:-0.99095 8:-1 9:-1 10:-1 11:-0.308527 12:-1 13:-1 14:-1 15:-1 16:-0.972789 17:-1 18:-0.865248 20:-1 21:-0.553771 
-0 -0.118182161209128 -0 -0 -0 -0 -0 -0 -0 -0 0 3.214540320933418 1:-0.970724 2:-0.411003 3:-0.997435 4:-0.882855 5:-1 6:-0.595905 7:-0.19457 8:-1 9:-0.704225 10:-1 11:0.553488 12:-1 13:-0.992239 14:-1 15:-0.999436 16:-0.971088 17:-1 18:-0.874704 20:-1 21:-0.859637 
-2.060060232254751 -0 -0 -0 -0 -0 -0 -0 -0 -0 127.4072190523187 0 1:-0.949254 2:-0.783172 3:-1 4:-1 5:-1 6:-0.100216 7:-0.963801 8:-1 9:-1 10:-1 11:-0.606202 12:-1 13:-1 14:-1 15:-1 16:-1 17:-1 18:-1 20:-1 21:-0.617318 
-0 -0 -0 -0 -0 -0 -0 -0 -0 -0 512 0 1:-0.982992 2:-0.802589 3:-0.993489 4:-0.957919 5:-1 6:-0.788793 7:-1 8:-0.994398 9:-0.920188 10:-1 11:-0.32093 12:-0.999114 13:-1 14:-1 15:-0.977452 16:-0.998724 17:-1 18:-0.84476 20:-1 21:-0.861732 
-133.9283372855059 -0 -0 -0 -0 -0 -0 -0 -0 -0 512 0 1:-0.987174 2:-0.809061 3:-1 4:-0.969861 5:-1 6:-0.771552 7:-1 8:-1 9:-0.976526 10:-1 11:-0.386047 12:-1 13:-1 14:-1 15:-1 16:-1 17:-1 18:-0.895981 20:-1 21:-0.85824 
-0 -0 -0 -0 -0 -0 -0 -0 -0 -372.4896142314966 0 0 1:-0.962359 2:-0.669903 3:-0.999605 4:-0.953938 5:-1 6:-0.544181 7:-0.945701 8:-1 9:-1 10:-1 11:-0.727132 12:-1 13:-1 14:-1 15:-0.981962 16:-0.999575 17:-1 18:-0.835303 20:-1 21:-0.823324 
-0 -0 -0 -0 -0 -0 -7.126727784366413 -4.287825586223053 -0 -0 0 0 1:-0.982713 2:-0.763754 3:-0.993884 4:-0.912994 5:-1 6:-0.867457 7:-0.60181 8:-0.742297 9:-0.892019 10:-1 11:-0.342636 12:-0.998782 13:-0.995731 14:-1 15:-0.988726 16:-0.966837 17:-1 18:-0.828999 20:-1 21:-0.936453 
-512 -0 -0 -0 -0 -0 -0 -0 -0 -512 512 0 1:-0.994981 2:-0.851133 3:-0.994673 4:-0.984646 5:-1 6:-0.924569 7:-0.864253 8:-1 9:-0.887324 10:-1 11:-0.55969 12:-0.997343 13:-1 14:-1 15:-0.987035 16:-0.993622 17:-1 18:-0.985028 20:-1 21:-0.947975 
-512 -0 -0 -0 -0 -0 -0 -0 -0 -512 240.3334790702244 0 1:-0.977136 2:-0.365696 3:-0.991319 4:-0.955075 5:-1 6:-0.798491 7:-0.303167 8:-0.882353 9:-0.821596 10:-1 11:-0.203101 12:-0.994022 13:-0.969344 14:-1 15:-0.983089 16:-0.987245 17:-1 18:-0.952719 20:-1 21:-0.932961 
-512 -0 -0 -0 -0 -0 -0 -0 -0 -320.4360484016615 512 0 1:-0.987453 2:-0.763754 3:-1 4:-0.909582 5:-1 6:-0.849138 7:-0.248869 8:-1 9:-0.868545 10:-1 11:-0.234109 12:-1 13:-1 14:-1 15:-1 16:-0.916241 17:-1 18:-0.895193 20:-1 21:-0.934008 
-0 -0 -0 -0.9486740419663986 -0 -0 -0 -0 -0 -0 0 0 1:-0.973791 2:-0.430421 3:-0.988951 4:-0.926642 5:-1 6:-0.337284 7:-0.538462 8:-0.781513 9:-0.859155 10:-1 11:-0.525581 12:-0.997122 13:-0.961195 14:-1 15:-0.986471 16:-0.980867 17:-1 18:-0.921198 20:-1 21:-0.60824 
-0 -2.396574768618426 -0 -0.3774399754619812 -6.474263250456898 -0 -0 -0 -168.3881059079004 -0 0 0 1:-0.980482 2:-0.928803 3:-1 4:-0.969292 5:-1 6:-0.189655 7:-1 8:-1 9:-1 10:-1 11:-0.782946 12:-1 13:-1 14:-1 15:-1 16:-0.989796 17:-1 18:-0.941686 20:-1 21:-0.536313 
-0 -0 -4.155606245484027 -0 -0 -0 -0 -5.520558535162485 -0 -0 174.1692813120661 0 1:-0.965426 2:-0.932039 3:-0.996251 4:-0.896503 5:-1 6:-0.482759 7:-0.58371 8:-1 9:-0.995305 10:-1 11:-0.534884 12:-1 13:-0.98409 14:-1 15:-0.978579 16:-0.960459 17:-1 18:-0.748621 20:-1 21:-0.842179 
-512 -0 -0 -0 -0 -0 -0 -0 -0 -224.3215494823139 512 0 1:-0.982713 2:-0.747573 3:-1 4:-0.977822 5:-1 6:-0.705819 7:-0.683258 8:-1 9:-0.962441 10:-1 11:-0.649612 12:-1 13:-1 14:-1 15:-1 16:-1 17:-1 18:-0.878645 20:-1 21:-0.907123 
-0 -0 -0 -0 -0 -0 -0 -0 -0 -0 512 0 1:-0.983549 2:-0.699029 3:-0.989149 4:-0.928348 5:-1 6:-0.767241 7:-0.457014 8:-0.994398 9:-0.915493 10:-1 11:-0.0666667 12:-1 13:-0.989135 14:-1 15:-0.980271 16:-0.92517 17:-1 18:-0.900709 20:-1 21:-0.879539 
-73.48684737920645 -0 -0 -0 -0 -0 -0 -0 -0 -405.0389228359667 512 0 1:-0.985501 2:-0.932039 3:-1 4:-0.936878 5:-1 6:-0.849138 7:-1 8:-1 9:-0.849765 10:-1 11:-0.742636 12:-1 13:-1 14:-1 15:-1 16:-0.96216 17:-1 18:-0.877857 20:-1 21:-0.928771 
-512 -0 -0 -0 -0 -0 -0 -0 -0 -478.134942699257 512 0 1:-0.979367 2:-0.61165 3:-1 4:-0.986921 5:-1 6:-0.630388 7:-0.502262 8:-1 9:-0.985915 10:-1 11:-0.265116 12:-1 13:-1 14:-1 15:-1 16:-0.99915 17:-1 18:-0.952719 20:-1 21:-0.885126 
-0 -0 -0 -0 -0 -0.08508411236078221 -6.349026136967021 -13.96567318300201 -0 -86.37459799117121 0 0 1:-0.982992 2:-0.631068 3:-1 4:-0.96588 5:-1 6:-0.709052 7:-0.846154 8:-1 9:-0.873239 10:-1 11:0.696124 12:-1 13:-1 14:-1 15:-1 16:-0.992772 17:-1 18:-0.910165 20:-1 21:-0.82507 
-0 -0 -0 -0 -0 -0 -0 -0 -0 -0 512 0 1:-0.969051 2:-0.851133 3:-1 4:-0.90617 5:-1 6:-0.466595 7:-1 8:-1 9:-0.920188 10:-1 11:-0.593798 12:-1 13:-1 14:-1 15:-1 16:-0.940476 17:-1 18:-0.859732 20:-1 21:-0.805866 
-512 -0 -0 -0 -0 -0 -0 -0 -0 -0 0 0 1:-0.962359 2:-0.692557 3:-1 4:-0.947114 5:-1 6:-0.502155 7:-0.61086 8:-1 9:-0.910798 10:-1 11:-0.0232558 12:-1 13:-1 14:-1 15:-1 16:-0.991922 17:-1 18:-0.918046 20:-1 21:-0.868017 
-209.6049148098795 -0 -0 -0 -0 -0 -0 -0 -0 -0 512 0 1:-0.986895 2:-0.812298 3:-0.997632 4:-0.932329 5:-1 6:-0.677802 7:-0.891403 8:-1 9:-0.915493 10:-1 11:-0.68062 12:-1 13:-0.993403 14:-1 15:-1 16:-0.928571 17:-1 18:-0.888889 20:-1 21:-0.850559 
-112.7952283979149 -0 -0 -0 -0 -0 -0 -0 -0 -240.3535559483621 512 0 1:-0.975742 2:-0.669903 3:-0.992305 4:-0.99147 5:-1 6:-0.575431 7:-0.954751 8:-0.927171 9:-1 10:-1 11:-0.265116 12:-1 13:-1 14:-1 15:-0.989853 16:-1 17:-1 18:-0.98818 20:-1 21:-0.746159 
-47.46641132411363 -0 -0 -0.6488590729993621 -0 -1.325573653878842 -0 -0 -7.179965715862505 -16.86719915547247 20.25268319995657 0 1:-0.956225 2:-0.737864 3:-0.990727 4:-0.830537 5:-0.979381 6:-0.740302 7:-1 8:-0.994398 9:-0.901408 10:-0.545455 11:-0.80155 12:-0.998893 13:-0.999612 14:-1 15:-0.974634 16:-0.922619 17:-1 18:-0.821907 20:-0.825 21:-0.95845 
-512 -0 -0 -0 -0 -0 -0 -0 -0 -0 512 0 1:-0.965147 2:-0.705502 3:-0.991516 4:-0.954507 5:-1 6:-0.653017 7:-0.61991 8:-0.955182 9:-0.85446 10:-1 11:-0.2 12:-1 13:-0.995731 14:-1 15:-0.997745 16:-0.998724 17:-1 18:-0.946414 20:-1 21:-0.868017 
-512 -0 -0 -0 -0 -0 -0 -0 -0 -495.6382269056766 512 0 1:-0.982713 2:-0.699029 3:-1 4:-0.981803 5:-1 6:-0.66056 7:-0.819005 8:-1 9:-0.962441 10:-1 11:-0.389147 12:-1 13:-1 14:-1 15:-1 16:-0.995748 17:-1 18:-0.955871 20:-1 21:-0.770601 
-6.148647343852305 -0.3769392862180798 -0.9641756733599758 -0.9416562459450628 -0 -0.1051349121357964 -4.787527660799899 -3.617615051081555 -0.7801112701592279 -0 0 0 1:-0.964032 2:-0.799353 3:-0.971787 4:-0.940859 5:-0.814433 6:-0.769397 7:-0.538462 8:-0.439776 9:-0.821596 10:-1 11:-0.553488 12:-0.9969 13:-0.980598 14:-1 15:-0.895716 16:-0.992347 17:0.117647 18:-0.91253 20:-1 21:-0.930866 
-512 -0 -0 -0 -0 -5.665132542350669 -328.8573940940755 -0 -0 -512 512 0 1:-0.992472 2:-0.967638 3:-0.985203 4:-0.940859 5:-1 6:-0.955819 7:-1 8:-0.994398 9:-0.906103 10:-1 11:-0.956589 12:-0.992804 13:-0.975553 14:-1 15:-0.973506 16:-0.984694 17:-1 18:-0.949567 20:-1 21:-0.993715 
-512 -0 -0 -0 -0 -0 -0 -0 -353.8531888354161 -512 512 0 1:-0.988011 2:-0.94822 3:-0.993095 4:-0.957919 5:-1 6:-0.792026 7:-1 8:-1 9:-0.929577 10:-1 11:-0.981395 12:-0.998782 13:-0.999224 14:-1 15:-0.980271 16:-0.984694 17:-1 18:-0.92829 20:-1 21:-0.821578 
