svm_type c_svc
kernel_type rbf
gamma 0.03125
nr_class 26
total_sv 372
rho 0.795332 -9.1302 0.351995 -0.291071 2.06809 0.857973 1.47908 -0.487544 1.13224 0.366319 0.551414 0.261017 0.236121 0.240709 0.508453 0.157913 0.17964 0.343679 0.153474 -0.708438 -0.43091 0.197953 0.299496 1.79995 7.25483 -1.43497 0.114685 0.463442 1.92589 -0.790907 2.26866 0.275895 -0.43067 0.291125 -0.888355 0.121811 0.279128 0.278141 -0.857569 -0.206469 0.173839 -0.341988 -0.00369987 -1.09128 -0.994036 -0.38233 -0.922558 1.06188 0.902522 0.183169 0.00218722 0.96206 1.06542 0.48158 0.283607 0.025889 -0.370411 0.427159 0.282086 -0.14727 -0.0735406 -0.421548 0.406867 -0.391544 -0.578248 -0.499235 -1.62789 -1.79266 -2.41427 -2.70366 -0.931414 2.95723 0.216941 2.50795 -0.150649 -1.17862 -1.41568 0.330429 -0.556733 -0.308295 -0.365965 -0.527033 -0.673186 -0.463501 -0.676713 -0.29915 -0.407585 -0.351012 -0.333294 -0.370353 -0.382583 -0.350446 0.127952 -0.00437686 1.97573 0.975833 -2.3176 -2.32563 -0.0520466 -0.884067 0.132685 -0.55478 -0.461085 -0.53533 -0.760393 0.0809957 -0.242605 -0.42229 -0.494353 -0.439324 -0.376426 -0.580695 -0.172907 -0.356735 0.338605 -1.73515 -2.77983 -2.20612 -1.7774 -1.2867 -1.55314 -1.21386 -1.37838 -1.47282 -1.72644 -1.39734 -1.0767 -1.02082 -1.08607 -1.21619 -1.62722 -1.20095 -0.915731 -0.45548 -1.31378 -25.7219 -9.07849 37.4867 -0.472799 -2.4579 -0.292148 -0.674805 0.303875 -1.13388 -1.0048 0.0363016 -0.49575 -0.266489 -0.418779 -0.1916 -0.228561 -0.342716 0.97127 -0.140528 2.07808 18.6497 0.197957 -1.69963 -0.0800989 -0.645899 -0.348514 0.0852633 0.297244 -0.204161 -0.316647 -0.103632 -0.530512 0.100791 -0.155813 -0.36415 2.01911 1.05879 3.3963 -0.028511 -0.859236 -0.736769 -0.340556 -0.754406 -1.30374 -0.422666 0.0628854 -0.370869 -0.232648 -0.63208 -0.256274 -0.285709 -0.426291 0.956565 0.829624 -1.64218 -1.55102 -0.620987 -1.3417 -0.978817 -1.87982 -0.842923 -0.921696 -0.476381 -0.406354 -0.549566 -0.564066 -0.492402 -0.213756 -0.987798 -0.295769 -20.5157 6.14956 -0.48704 -52.435 1.23427 -1.50068 -18.0091 -4.31755 -2.11885 -1.39687 -1.23212 -3.80291 2.41281 2.44963 4.70226 5.28705 -21.4578 -22.2052 -13.3243 9.69998 -0.0133683 -3.58365 -2.55995 -3.02251 -1.66254 -3.37835 -2.34107 2.4694 2.05026 -0.300789 -14.0441 -2.09716 -9.81502 -14.5071 -3.93451 -5.22885 -0.406743 -0.874125 -2.97894 -4.64693 1.3376 -1.2479 -10.5526 -4.40981 -30.404 -0.423651 -0.953851 -0.635462 -0.402836 0.313901 -0.59487 -0.395935 1.58448 1.82139 21.0389 2.29927 -2.82265 1.02683 1.4201 -0.0871634 -0.120561 -0.562022 1.16048 1.18427 4.25664 3.22941 -0.54035 -0.891839 -0.883482 0.460442 1.2321 -0.23237 0.188966 0.835015 4.45821 0.109279 -0.351821 -0.22917 -0.177906 0.815998 -0.242689 0.131283 1.60715 0.0358449 -0.0841077 0.281035 -0.0258674 -0.22664 -0.100698 0.857933 1.40862 0.214925 38.032 3.69925 -11.5613 -76.1509 21.3352 -0.0265198 2.31143 4.22972 -51.4276 -75.0604 -5.22935 0.25037 2.30041 -0.749078 5.27418 -29.0315 0.0244491 2.99364 -3.12054 7.17917 0.170358 3.53986 45.4698 0.332119 2.95969 0.0266555 1.44203 -2.17698
label 10 11 12 20 21 22 30 31 32 33 40 41 42 43 44 45 46 47 50 51 52 53 54 55 60 61
nr_sv 16 15 15 11 19 11 25 20 6 6 18 22 16 7 7 11 10 7 28 10 11 10 14 36 9 12
SV
0 2000.384896777927 0 0 0 0 0 0 0 0 0 0 0 0 0 0 0 0 0 0 0 0 0 0 0 1:-0.760581 2:-0.737864 3:-0.98027 4:-0.773671 5:-1 6:-0.164871 7:-0.991736 8:-0.826331 9:-0.967136 10:-1 11:-0.6 12:-0.987269 13:-0.932092 14:-1 15:-0.981962 16:-0.984269 17:-1 18:-0.791962 20:-1 21:-0.561802 
90.39139486193187 5765.494961889378 0 0 0 0 0 0 0 0 0 0 0 0 0 0 0 0 0 0 0 0 0 0 0 1:-0.73907 2:-0.944984 3:-0.960935 4:-0.968155 5:-1 6:0.307112 7:-1 8:-1 9:-1 10:-1 11:-0.786047 12:-0.98594 13:-0.970508 14:-1 15:-0.95885 16:-0.992347 17:-1 18:-0.862096 20:-1 21:-0.448673 
0 0 23.01048515033696 82.80461259701779 0 391.9490012880465 177.8855396373878 209.4358183394252 218.171256211754 0 86.78309242601667 7.82459922546652 13.90065816749178 0 42.69751804876294 82.56729644184044 0 0 0 0 0 0 0 36.14795794986157 164.5146693491975 1:-0.833496 2:-0.987055 3:-0.963105 4:-0.683253 5:-1 6:-0.252155 7:-1 8:-0.994398 9:-0.877934 10:-1 11:-0.903876 12:-0.990369 13:-0.887854 14:-1 15:-0.885569 16:-0.745323 17:-1 18:-0.431048 20:-1 21:-0.640363 
141.7114162665004 329.2688312212759 0 0 0 0 0 0 0 0 0 0 0 0 0 0 0 0 0 0 0 0 0 0 0 1:-0.717558 2:-0.666667 3:-0.993292 4:-0.947683 5:-1 6:0.466595 7:-0.966942 8:-0.619048 9:-1 10:-1 11:-0.262016 12:-0.993247 13:-0.969732 14:-1 15:-0.910372 16:-0.985119 17:-1 18:-0.85264 20:-1 21:-0.421788 
0 7023.258101609911 0 0 0 0 0 0 0 62.8635859258541 102.7688557732337 38.28455367162638 168.4485525622659 36.25638989699598 64.78623576158454 193.310120573647 3.078719381397248 177.3387035214583 147.9586792033809 359.9726215765739 385.3876336986247 61.21296985171401 98.80851627370919 0 0 1:-0.782372 2:-0.847896 3:-0.943573 4:-0.887973 5:-1 6:-0.260776 7:-1 8:-1 9:-0.985915 10:-1 11:-0.83876 12:-0.981623 13:-0.957315 14:-1 15:-0.989853 16:-0.991497 17:-1 18:-0.862884 20:-1 21:-0.676676 
47.54923161909525 3417.081125253225 5.152131287054582 0 0 54.92047607982288 0 9.409504349998755 5.189971767912949 0 0 0 0 0 0 0 0 0 0 0 0 0 0 0 0 1:-0.746333 2:-0.524272 3:-0.936076 4:-0.909582 5:-1 6:0.0840517 7:-0.702479 8:-1 9:-0.957746 10:-1 11:-0.212403 12:-0.985498 13:-0.998448 14:-1 15:-0.818489 16:-0.999575 17:-1 18:-0.738377 20:-1 21:-0.614525 
0 8192 0 0 0 0 0 0 0 0 0 38.43670892119754 0 0 50.77984391575127 0 0 62.11063753163742 24.18677812923738 104.9552014575731 0 128.4314060391949 202.5182549834058 0 0 1:-0.756111 2:-0.711974 3:-0.995265 4:-0.85499 5:-1 6:-0.230603 7:-0.768595 8:-1 9:-0.976526 10:-1 11:-0.417054 12:-1 13:-0.989911 14:-1 15:-0.97407 16:-0.983844 17:-1 18:-0.785658 20:-1 21:-0.683659 
289.06965464836 718.9176816686909 0 108.8918859087473 0 0 0 0 0 96.11124856891492 161.4844366379164 174.9741747165938 0 117.6063426146027 201.0276200924005 0 101.9047120429592 28.27197999665391 35.10352253626306 0 0 0 56.33723510391791 72.96768188494104 125.7463085774296 1:-0.764213 2:-0.880259 3:-0.989543 4:-0.764003 5:-1 6:-0.330819 7:-1 8:-0.871148 9:-1 10:-1 11:-0.872868 12:-0.999446 13:-0.945285 14:-1 15:-0.94814 16:-0.872874 17:-1 18:-0.696612 20:-1 21:-0.875 
0 3036.016479379598 0 0 0 0 0 0 0 0 0 0 0 0 0 0 0 0 0 73.04476956432302 0 1.270562952389007 0 0 0 1:-0.80528 2:-0.210356 3:-1 4:-0.880011 5:-1 6:-0.0829741 7:-1 8:-1 9:-0.892019 10:-1 11:-0.333333 12:-0.998339 13:-0.996896 14:-1 15:-0.94814 16:-0.935799 17:-1 18:-0.821907 20:-1 21:-0.498254 
0 0 0 0 0 0 0 0 0 0 0 0 0 0 0 0 0 0 0 0 71.0985752760196 13.63744635373587 0 0 0 1:-0.810029 2:-0.7411 3:-0.952254 4:-0.880011 5:-1 6:0.00969828 7:-0.809917 8:-0.843137 9:-0.99061 10:-1 11:-0.311628 12:-0.972988 13:-0.946449 14:-1 15:-1 16:-0.97619 17:-1 18:-0.781718 20:-1 21:-0.509777 
0 0 0 0 0 0 0 8.470914008524815 0 0 0 0 0 0 0 0 0 0 0 0 79.6934850881151 0 0 0 0 1:-0.766168 2:-0.996764 3:-0.951465 4:-0.958487 5:-1 6:0.163793 7:-1 8:-1 9:-0.896714 10:-1 11:-0.767442 12:-0.980294 13:-0.976717 14:-1 15:-0.972943 16:-1 17:-1 18:-0.919622 20:-1 21:-0.267458 
0 0 0 0 0 0 0 0 0 0 0 0 0 0 0 11.57779852118557 0 0 0 0 0 0 0 0 0 1:-0.867579 2:-1 3:-0.971787 4:-0.707705 5:-1 6:-0.216595 7:-1 8:-1 9:-1 10:-1 11:-0.835659 12:-0.997122 13:-0.971284 14:-1 15:-0.939684 16:-0.886905 17:-1 18:-0.536643 20:-1 21:-0.549232 
0 95.35627553845013 0 0 17.15150828867364 0 0 0 0 0 0 0 0 0 0 0 0 0 0 0 0 0 0 0 0 1:-0.758067 2:-1 3:-0.983822 4:-0.853284 5:-1 6:0.0603448 7:-1 8:-1 9:-1 10:-1 11:-1 12:-0.995018 13:-0.976717 14:-1 15:-0.945885 16:-0.951956 17:-1 18:-0.654846 20:-0.4 21:-0.568436 
0 0 0 0 1.539692586721088 67.39589034370064 78.71944169422754 0 0 0 0 0 0 0 0 0 0 0 0 0 0 46.09053469989753 0 0 35.38456535911926 1:-0.7874 2:-0.466019 3:-0.965473 4:-0.899346 5:-1 6:-0.201509 7:-1 8:-0.843137 9:-0.995305 10:-1 11:-0.813953 12:-1 13:-0.948778 14:-1 15:-0.913191 16:-0.94898 17:-1 18:-0.799842 20:-1 21:-0.700419 
93.555648046383 0 0 6.27424905522721 14.98441537513746 0 2.229467027906726 0 0 0 5.660947026360331 0 0 0 0 0 0 0 0 0 0 0 0 0 0 1:-0.675094 2:0.0744337 3:-0.99487 4:-0.605914 5:-0.755396 6:-0.217672 7:-0.173554 8:-1 9:-0.0657277 10:-1 11:-0.658915 12:-0.993358 13:-0.946061 14:-1 15:-0.976888 16:-0.83801 17:-0.941176 18:-0.48227 20:-0.6625 21:-0.823673 
85.15592335774929 0 0 3.196350174760842 0 0 0 -0 0 0 0 0 0 0 0 -0 0 0 0 0 0 0 -0 104.5846304509525 330.8324394989144 1:-0.734879 2:-0.466019 3:-0.98323 4:-0.725334 5:-1 6:-0.158405 7:-0.504132 8:-0.781513 9:-0.694836 10:-1 11:-0.122481 12:-1 13:-0.987971 14:-1 15:-0.958286 16:-0.855867 17:-1 18:-0.576832 20:-1 21:-0.762919 
-174.4290992336773 31.09535814712622 0 0 6.296597012053888 0 0 0 0 0 4.107667838277334 0 0 0 49.01679760909674 0 0 0.9288537180006518 8.564992002451406 7.474151694709175 25.37580072736612 34.55749786865702 6.403888696282082 2.634339116517097 120.1107774602852 1:-0.589049 2:-0.656958 3:-0.907665 4:-0.834518 5:-1 6:-0.255388 7:-0.727273 8:-0.551821 9:-1 10:-1 11:-0.792248 12:-0.965792 13:-0.880093 14:-1 15:-0.961105 16:-0.908163 17:-1 18:-0.771474 20:-1 21:-0.821229 
-36.07513453610748 0 0 0 0 0 0 0 0 0 0 0 0 0 0 0 0 0 0 0 0 0 0 0 0 1:-0.514737 2:0.647249 3:-0.992503 4:-0.675291 5:-1 6:0.618534 7:0.355372 8:-0.731092 9:-0.305164 10:-1 11:0.0945736 12:-1 13:-0.977881 14:-1 15:-0.981398 16:-0.917942 17:-1 18:-0.314421 20:-1 21:-0.423883 
-234.8632401811389 194.491372095638 0 0 0 0 0 0 0 0 0 0 0 0 0 7.971494681671077 0 15.8218918644524 0 68.22652308847587 21.69463871344121 24.10036110290679 17.02885612730513 0 0 1:-0.539321 2:-0.970874 3:-0.915557 4:-0.970429 5:-1 6:0.242457 7:-1 8:-1 9:-0.99061 10:-1 11:-0.488372 12:-0.959593 13:-0.981762 14:-1 15:-0.978579 16:-0.985544 17:-1 18:-0.878645 20:-1 21:-0.660615 
-0 0 0 0 9.186018838607428 0 0 0 0 0 0 0 0 0 0 0 0 0 0 0 0 0 0 0 0 1:-0.404386 2:0.184466 3:-0.829733 4:-0.567813 5:-1 6:0.0075431 7:-0.214876 8:-0.277311 9:-0.502347 10:-1 11:-0.125581 12:-0.973209 13:-0.787738 14:-1 15:-0.841601 16:-0.741922 17:-1 18:-0.461781 20:-1 21:-0.650838 
-116.7411171872976 80.62891017061034 0 30.73200919081711 11.01813109760124 0 0 0 0 0 101.870430486019 0 0 0 0 0 2.682863952194919 0 5.281427337003344 1.417742869285146 0.7131135914101079 0 0 34.55882714692552 26.34270669160857 1:-0.569772 2:-0.355987 3:-0.872941 4:-0.669036 5:-1 6:-0.475216 7:-0.826446 8:-0.988796 9:-0.530516 10:-1 11:-0.829457 12:-0.94509 13:-0.932868 14:-1 15:-0.911499 16:-0.847364 17:-1 18:-0.690307 20:-1 21:-0.864874 
-0 0 0 0 0 5.32663423271315 0 0 0 0 0 0 0 0 0 0 0 0 0 0 0 0 0 0 0 1:-0.457745 2:-0.964401 3:-0.918911 4:-0.735001 5:-1 6:0.398707 7:-1 8:-0.915966 9:-1 10:-1 11:-0.658915 12:-0.954722 13:-0.942569 14:-1 15:-0.950395 16:-0.940901 17:-1 18:-0.405043 20:-1 21:-0.663408 
-0 19.30825202883152 5.628164052557534 0 0 16.39223022429234 0 15.95480191210687 6.416414843687355 0 0 0 0 0 0 0 0 0 0 0 0 0 0 0 0 1:-0.509987 2:-0.533981 3:-0.844333 4:-0.709411 5:-1 6:0.310345 7:-1 8:-1 9:-1 10:-1 11:-0.435659 12:-0.895384 13:-0.902212 14:-1 15:-0.893461 16:-0.994473 17:-1 18:-0.602049 20:-1 21:-0.324022 
-0 0 5.343352428660896 107.308502326132 0 52.27613807557366 18.84439272278584 4.113369929907441 50.25252165589163 0 0.7397494951910792 0 0 0 17.22325653307731 0 0 0 0 0 0 0 0 33.39578969225999 82.04817909286032 1:-0.559994 2:-0.608414 3:-0.831706 4:-0.462042 5:-1 6:-0.103448 7:-0.289256 8:-0.204482 9:-0.624413 10:-1 11:-0.407752 12:-0.943762 13:-0.735351 14:-1 15:-0.793123 16:-0.812075 17:-1 18:0.0386131 20:-1 21:-0.706006 
-47.01544653715071 13.35861862711645 0.04446162898829176 0 0 118.7617063535357 7.64352764557623 34.8412251725 17.78645438765986 0 0 0 0 0 0 4.674404208955169 0 0 0 0 0 0 0 0 34.85762177190381 1:-0.51306 2:-0.941748 3:-0.918911 4:-0.499005 5:-1 6:0.0862069 7:-1 8:-1 9:-0.704225 10:-1 11:-0.482171 12:-0.95915 13:-0.898331 14:-1 15:-0.878805 16:-0.932823 17:-1 18:-0.329393 20:-1 21:-0.518855 
-0 81.1793495880538 0 0 0 0 0 0 0 0 0 0 0 0 0 0 0 0 0 1.909484881344315 0 0 0 0 0 1:-0.501886 2:-0.223301 3:-0.934103 4:-0.868069 5:-1 6:0.461207 7:-0.198347 8:-0.787115 9:-1 10:-1 11:-0.106977 12:-0.963799 13:-0.958479 14:-1 15:-0.856257 16:-0.994898 17:-1 18:-0.670607 20:-1 21:-0.274441 
-0 0 4.413652492514269 0 0 17.86145928193731 15.37172551417873 32.4919296408035 0 0 0 0 0.6421256708868471 0 0 30.4009548529711 0 0 0 0 0 0 0 0 0 1:-0.534292 2:-0.938511 3:-0.842754 4:-0.862951 5:-1 6:0.0980603 7:-1 8:-1 9:-0.788732 10:-1 11:-0.848062 12:-0.932913 13:-0.897555 14:-1 15:-0.914318 16:-0.98682 17:-1 18:-0.72104 20:-1 21:-0.59986 
-27.24911046526654 92.85237318562571 0 0 0 0 0 0 0 0 30.57609836401106 0.5985999730379677 0 0 13.37527390101824 0 0 2.429217297582258 0 0 11.23077106618363 0 9.890874595196903 10.09017030511315 0 1:-0.534292 2:-0.744337 3:-0.9343 4:-0.749218 5:-1 6:0.216595 7:-0.107438 8:-0.764706 9:-0.699531 10:-1 11:0.249612 12:-0.996568 13:-0.953046 14:-1 15:-0.931229 16:-0.918793 17:-1 18:-0.681639 20:-1 21:-0.644902 
-0 0 0 0 8.745789257318641 0 0 0 0 0 0 0 0 0 0 0 0 0 0 1.736762652360041 2.562504019013619 0 0 0 0 1:-0.473949 2:0.323625 3:-0.939233 4:-0.800967 5:-1 6:0.186422 7:1 8:-0.557423 9:-0.99061 10:-1 11:0.162791 12:-0.979852 13:-0.927823 14:-1 15:-0.978016 16:-0.979592 17:-1 18:-0.772262 20:-1 21:-0.597765 
-38.3011825379399 0 0 0 9.41446352081562 0 0 0 0 0 0 0 0 0 0 0 0 0 0 0 0 0 0 0 23.229349305669 1:-0.423663 2:-0.168285 3:-0.956792 4:-0.688371 5:-0.71223 6:0.310345 7:-0.900826 8:-0.501401 9:-0.760563 10:-1 11:-0.429457 12:-0.99535 13:-0.958867 14:-1 15:-0.921646 16:-0.82483 17:-0.941176 18:-0.130812 20:-0.55 21:-0.535964 
-72.75893812144122 58.09657876081552 14.68875980590857 178.3518296635976 0 114.1500250782888 174.2313108836131 41.76870949010064 90.37286439396941 157.9203954396475 75.40997457656802 131.6663970699293 117.0741995996421 110.4089358550285 110.5076157832252 108.4543274264936 88.5402671375102 94.72869891300674 89.60552762998215 51.18847517844416 60.55598272788742 48.26805325687666 83.65532853747649 58.85903590953082 74.60189831795194 1:-0.58849 2:-0.786408 3:-0.891684 4:-0.745237 5:-1 6:-0.354526 7:-1 8:-1 9:-0.99061 10:-1 11:-0.882171 12:-0.982176 13:-0.857974 14:-1 15:-0.831454 16:-0.88648 17:-1 18:-0.873916 20:-1 21:-0.850209 
-20.14839613472248 -0.8428174199479045 0.5114149607477533 1.809290269415997 0 0.5719143928989728 2.559785697265877 0 1.689962939465915 4.074049064441533 5.854116541073775 3.029322935540101 2.933134042978598 2.84433295160315 5.256363278474094 3.037494724228112 2.802491491777767 4.086173238055072 4.855359239866569 2.418982357833576 3.682284894677617 2.345659031473973 1.52888689198309 3.274079348846885 4.28988262556094 1:-0.77427 2:-0.514563 3:-0.962514 4:-0.817458 5:0.0503597 6:-0.668103 7:-0.46281 8:-0.983193 9:-0.840376 10:-1 11:-0.696124 12:-0.992583 13:-0.93636 14:1 15:-0.925028 16:-0.912415 17:-1 18:-0.929078 20:-0.9375 21:-0.899092 
-42.16210765407769 -1.943487874766588 0.009907895661875155 0.2626718759860219 4.831955999855231 0 2.579022506458922 0 1.178411810703415 3.122531737839298 4.884786645218228 0 2.508441304010267 0 1.845226343324003 0 0.4405440419456754 3.234707397368611 5.351726065221059 2.413151752670121 3.674029398965763 2.326663957716975 0 3.834325349793233 72.19176673088046 1:-0.790474 2:-0.433657 3:-0.956792 4:-0.836793 5:-0.942446 6:-0.41056 7:-0.471074 8:-0.815126 9:-0.755869 10:-1 11:-0.820155 12:-0.991365 13:-0.965076 14:-1 15:-0.993236 16:-0.959184 17:0.529412 18:-0.836879 20:-0.6875 21:-0.803422 
-8192 -152.7528512178553 5.129253973571346 0 10.96253306753506 0 14.46809896109437 0 0 0 0 0 0 0 0 0 0 0 0 0.5697809764784263 0 0 0 0 0 1:-0.711692 2:-0.614887 3:-0.941205 4:-0.930623 5:-1 6:-0.238147 7:-0.768595 8:-0.994398 9:-1 10:-1 11:-0.553488 12:-0.971217 13:-0.984866 14:-1 15:-0.944758 16:-0.989371 17:-1 18:-0.828999 20:-1 21:-0.707053 
-1819.292766494232 -0 0 75.59823759272051 0 0 7.415488854098593 0 0 92.58434108097738 194.5894534476051 388.6845985940149 85.19629135017239 144.7297777410281 240.7804801429442 87.93272225523862 73.98417419177773 380.2470062464271 265.3155343977695 0 0 181.8389059774983 396.7895230814509 80.7211407146474 97.25827276862675 1:-0.754156 2:-0.851133 3:-0.971589 4:-0.876599 5:-1 6:-0.386853 7:-1 8:-1 9:-0.995305 10:-1 11:-0.724031 12:-1 13:-0.95033 14:-1 15:-0.971815 16:-0.999575 17:-1 18:-0.756501 20:-1 21:-0.819832 
-4621.815236616212 -0 0 0 0 0 0 0 0 0 0 0 0 0 0 0 0 0 0 0 0 0 0 0 0 1:-0.79215 2:-0.61165 3:-1 4:-0.860677 5:-1 6:0.106681 7:-1 8:-1 9:-0.995305 10:-1 11:-0.35814 12:-1 13:-1 14:-1 15:-1 16:-0.955782 17:-1 18:-0.773838 20:-1 21:-0.402584 
-4603.153069868654 -177.1291197862244 0 0 0 68.17124538522573 0 51.20446705634056 0 0 0 0 0 0 0 0 0 0 0 0 0 0 0 0 0 1:-0.770918 2:-0.841424 3:-0.999408 4:-0.821439 5:-1 6:0.0797414 7:-1 8:-1 9:-0.901408 10:-1 11:-0.894574 12:-1 13:-1 14:-1 15:-0.945321 16:-0.970663 17:-1 18:-0.639874 20:-1 21:-0.501397 
-0 -11.63975828116172 0 0 0 0 0 0 0 0 0 0 0 0 0 0 0 0 0 0 0 0 0 0 0 1:-0.720073 2:-0.598706 3:-0.999605 4:-0.805516 5:-1 6:0.0431034 7:-0.966942 8:-1 9:-0.953052 10:-1 11:-0.206202 12:-1 13:-0.992239 14:-1 15:-0.967869 16:-0.968112 17:-1 18:-0.711584 20:-1 21:-0.672137 
-0 -127.7616085932782 0 0 0 0 0 11.81202914719847 0 0 0 0 0 0 0 0 0 0 0 0 0 0 0 0 0 1:-0.69018 2:-0.880259 3:-0.983427 4:-0.748649 5:-1 6:0.126078 7:-0.752066 8:-1 9:-0.624413 10:-1 11:-0.100775 12:-1 13:-1 14:-1 15:-0.970124 16:-0.998299 17:-1 18:-0.605201 20:-1 21:-0.488827 
-1364.522472104418 -0 0 0 0 0 0 0 0 0 0 0 0 0 0 0 0 0 0 0 0 0 0 0 0 1:-0.72566 2:-0.779935 3:-0.969024 4:-0.976116 5:-1 6:-0.00969828 7:-1 8:-0.971989 9:-0.910798 10:-1 11:-0.485271 12:-1 13:-0.988747 14:-1 15:-0.93292 16:-1 17:-1 18:-0.87234 20:-1 21:-0.585196 
-7.575568434211873 -0 0 0 0 0 0 0 0 0 0 0 0 0 0 0 0 0 0 52.65775415975562 73.85978783082682 0 0 0 0 1:-0.780696 2:-0.935275 3:-1 4:-0.958487 5:-1 6:-0.0334052 7:-0.966942 8:-1 9:-1 10:-1 11:-0.686822 12:-1 13:-1 14:-1 15:-1 16:-0.989796 17:-1 18:-0.846336 20:-1 21:-0.698673 
-936.5560005826142 -98.74492163540897 0 0 0 0 0 0 0 0 0 0 0 0 0 0 0 0 0 15.86410342664311 13.39733272976404 57.86468348394028 30.17962803768469 10.22902779851077 39.55090162228042 1:-0.678726 2:-0.294498 3:-0.976916 4:-1 5:-1 6:0.123922 7:-0.0413223 8:-0.535014 9:-1 10:-1 11:0.429457 12:-1 13:-1 14:-1 15:-0.933484 16:-1 17:-1 18:-1 20:-1 21:-0.580656 
-9.08817274290471 -0.1962477951743936 0.4361545601385439 0 10.65210647744257 0 0 0.3834543821991199 0 0 0 0 0 0 0 0 0 0 0 0 0 0 0 0 0 1:-0.719793 2:-0.673139 3:-0.957187 4:-0.969292 5:1 6:0.0571121 7:-0.991736 8:-1 9:-1 10:-1 11:-0.40155 12:-0.995129 13:-0.971284 14:-0.935484 15:-0.953213 16:-0.994898 17:-1 18:-0.899133 20:0.3875 21:-0.474162 
-437.7464544620216 -0 14.61775220801633 64.86584365856896 3.326998136658097 143.2344980429199 132.4888921986714 39.13452152387862 87.84738706064857 67.17456180911086 275.4046610691432 4.191358757543762 88.34361130888004 34.41817097563967 202.2272368578955 222.7728089992054 33.88411745308741 0 0 0 188.2308642386862 0 0 0 0 1:-0.783769 2:-0.987055 3:-0.984216 4:-0.865226 5:-1 6:-0.315733 7:-1 8:-0.994398 9:-1 10:-1 11:-0.903876 12:-1 13:-0.98021 14:-1 15:-0.968433 16:-0.953231 17:-1 18:-0.669031 20:-1 21:-0.718925 
-8192 -0 0 0 0 0 0 0 0 0 0 0 0 0 0 0 0 0 0 472.4863572056362 145.2048337401385 34.99699393169912 33.62917392902733 0 0 1:-0.770918 2:-0.822006 3:-0.991122 4:-0.881717 5:-1 6:-0.0603448 7:-1 8:-1 9:-1 10:-1 11:-0.606202 12:-0.991697 13:-0.968568 14:-1 15:-0.962796 16:-1 17:-1 18:-0.91253 20:-1 21:-0.630587 
-331.7181082443775 -0 3.853977538613972 0 2.044723606957283 13.76596835654399 0 0 17.35091408790396 0 0 0 0 0 0 0 0 0 0 0 0 0 0 10.09212851791584 74.22059699795906 1:-0.773991 2:-0.737864 3:-0.974943 4:-0.811203 5:-1 6:0.00862069 7:-0.669421 8:-0.988796 9:-0.422535 10:-1 11:-0.587597 12:-1 13:-0.96818 14:-1 15:-0.956595 16:-0.965136 17:-1 18:-0.391647 20:-1 21:-0.52095 
-0 -0 -0 0 31.32837055572133 0 0 0 0 0 0 0 0 0 0 0 0 0 0 0 0 0 0 0 0 1:-0.542953 2:-1 3:0.148861 4:-0.829969 5:-1 6:-0.224138 7:-1 8:-1 9:-1 10:-1 11:-1 12:0.396878 13:-0.836632 14:-1 15:-0.257046 16:-0.96216 17:-1 18:-0.651694 20:-1 21:-0.686802 
-13.06276178371413 -12.20180207682161 -10.542522013184 11.653339099896 0 37.25295580275791 19.18316545393645 15.70936002202779 20.20443323415661 5.703291474070918 24.29100481572817 10.30793626103166 9.51199119748933 5.510867846217152 15.09645728293289 8.567640188600413 5.554450386522882 4.400840221444105 4.520990632132688 6.710605828513523 5.822021513927933 4.577051927469324 5.441819720234296 13.16762632744607 14.94533720433143 1:-0.628998 2:-0.789644 3:-0.83723 4:-0.800398 5:-1 6:-0.455819 7:-0.727273 8:-1 9:-1 10:-1 11:-0.674419 12:-0.157312 13:-0.354676 14:-1 15:-0.59301 16:-0.862245 17:-1 18:-0.189913 20:-1 21:-0.545042 
-0 -0 -0 22.54890317265535 0 0 0 13.63125566234176 0 0 0 0 0 0 0 0 0 0 0 0 0 0 0 0 0 1:-0.489873 2:-1 3:-0.705041 4:-0.609895 5:-1 6:-0.425647 7:-1 8:-0.770308 9:-1 10:-1 11:-0.869767 12:-0.152884 13:-0.287932 14:-1 15:-0.341601 16:-0.464711 17:-1 18:-0.0338849 20:-1 21:-0.594972 
-0 -2.040954860439271 -0 0.9590994681460464 0 0 17.04767614563883 8.70659202887061 0 0 0 0 0 0 0 0 0 0 0 0 0 0 0 0 0 1:-0.370862 2:-0.770227 3:-0.652165 4:-0.715098 5:-1 6:0.46444 7:-1 8:-1 9:-1 10:-1 11:-0.699225 12:-0.128861 13:-0.292588 14:-1 15:-0.460541 16:-0.631378 17:-1 18:-0.316785 20:-1 21:-0.40852 
-7.403863520050381 -8.769510846538841 -8.00204410231124 13.53361436696046 73.53053716271651 0.8676894982768644 37.19328748809711 39.11586835757149 0 6.192005326837982 1.848539561048697 5.364287363878346 7.532790901329067 13.17133039333763 10.66723755629997 14.29914816208018 1.906165362899004 7.58806353876436 5.609134393466714 6.667950010014171 8.275779324066255 7.825861980264666 5.973975352639262 0 2.231077068134739 1:-0.521162 2:-1 3:-0.684719 4:-0.92323 5:-1 6:0.044181 7:-1 8:-1 9:-1 10:-1 11:-0.76124 12:0.0043175 13:-1 14:-1 15:-0.22097 16:-1 17:-1 18:-0.903073 20:-1 21:-0.0939246 
-0 -0 -0 0 0 0 0 0 0 0 0 0 0 0 0 0 0 0 0 0.1314667876450345 0 0 0 0 0 1:-0.618103 2:-0.886731 3:-0.732071 4:-0.932329 5:-1 6:-0.109914 7:-1 8:-1 9:-1 10:-1 11:-0.581395 12:0.124322 13:-0.978269 14:-1 15:-0.26832 16:-1 17:-1 18:-0.737589 20:-1 21:-0.190642 
-7.695991133627039 -5.224844601876914 -6.013895021254586 1.476357858768663 0 62.91357141568041 30.66721487784436 10.80918023342551 65.79557881967079 25.82095706839333 15.07873043633466 11.45398490522371 14.85712144612768 13.09877132474272 10.64766963481985 11.72966517817849 19.86870979252755 8.945839792693441 8.952029686064426 6.1914361501512 6.794831407565879 7.588662861778753 8.481399109831802 16.89652791153692 13.10225351036665 1:-0.85389 2:-1 3:-0.48249 4:-0.633779 5:-1 6:-0.65194 7:-1 8:-1 9:-1 10:-1 11:-1 12:-0.306985 13:-0.139309 14:-1 15:-0.691657 16:-0.331207 17:-1 18:-0.739953 20:-1 21:-0.906425 
-0 -1.881278022952919 -0 0 0 0 3.11902967345195 0 0 0 0 0 0 0 0 0 0 0 0 0 0 0 0 0 0 1:-0.660567 2:-0.825243 3:-0.393312 4:-0.348877 5:-1 6:-0.273707 7:-1 8:-1 9:-0.812207 10:-1 11:-0.813953 12:-0.26215 13:0.0706248 14:-1 15:-0.63867 16:-0.5625 17:-1 18:-0.636722 20:-1 21:-0.857891 
-0 -0 -0 0 68.89002542593175 0 0 0 0 0 0 0 0 0 0 0 0 0 0 0 0 0 0 0 0 1:0.0166224 2:-1 3:0.131696 4:-0.826557 5:-1 6:0.425647 7:-1 8:-1 9:-1 10:-1 11:-1 12:0.725894 13:-0.632518 14:-1 15:0.0231116 16:-0.701105 17:-1 18:-0.388495 20:-1 21:-0.265712 
-0 -0 -0 0 119.8713673566583 0 0 0 0 0 0 0 0 0 0 0 0 0 0 0 0 0 0 0 0 1:-0.166643 2:-0.705502 3:0.11828 4:-0.827694 5:-1 6:0.411638 7:-1 8:-1 9:-1 10:-1 11:-0.696124 12:0.253183 13:-0.547924 14:-1 15:-0.127396 16:-0.901361 17:-1 18:-0.687943 20:-1 21:-0.373603 
-0 -0 -0 4.148033963465585 0 0 3.423290161274994 1.869335121181887 0 0 0 0 0 0 0 0 0 0 0 0 0 0 0 0 0 1:-0.0537785 2:-0.508091 3:-0.0515932 4:0.110037 5:-1 6:0.184267 7:-0.636364 8:-0.921569 9:-0.704225 10:-1 11:-0.581395 12:-0.200266 13:-0.00853706 14:-1 15:-0.602029 16:-0.516156 17:-1 18:1 20:-1 21:-0.523045 
-0 -0 -0 -0 0 0 86.22935306243374 31.15572268535408 0 21.92810610901229 7.97854923585205 25.56066440773298 26.73583220729343 44.32139529059609 11.40658332995852 0 0 0 0 0 0 0 0 0 0 1:-0.559994 2:-0.990291 3:-0.834862 4:-0.827694 5:-1 6:-0.996767 7:-1 8:-0.619048 9:-0.873239 10:-1 11:-0.913178 12:-0.831396 13:-0.740784 14:-1 15:-0.95885 16:-0.820153 17:-1 18:-0.941686 20:-1 21:-0.993366 
-0 -0 -0 -4.332673473709441 10.36554451107923 0 0 0 0 23.93123852826166 0 0 0 6.055256536256961 0 0 0 29.86361828919379 30.78255079217184 12.62342203230238 24.05633397114732 27.98186450652182 34.9707958110532 0 0 1:-0.516134 2:-1 3:-0.867811 4:-0.881717 5:-1 6:-1 7:-1 8:-1 9:-1 10:-1 11:-1 12:-0.780804 13:-0.762127 14:-1 15:-0.983089 16:-0.943452 17:-1 18:-0.899921 20:-1 21:-0.994413 
-119.0689750973236 -94.70821317838296 -97.61344066831285 -0 0 238.058120488413 286.3125507053074 0 110.8975930936027 71.3964675268371 182.954763744014 46.53169595399194 42.4148926761987 74.64809885114487 27.89378406101848 39.90923963957813 36.92714109988748 0 0 30.51797638286635 21.70151185780406 6.756523503297934 0 73.98007424786572 69.0423529385538 1:-0.585138 2:-0.967638 3:-0.905692 4:-0.832812 5:-1 6:-0.534483 7:-1 8:-1 9:-1 10:-1 11:-0.813953 12:-0.949297 13:-0.660846 14:-1 15:-0.925592 16:-0.760629 17:-1 18:-0.588652 20:-1 21:-0.850209 
-0 -58.24846119873994 -6.55822422014162 -0 0 0 0 0 0 43.96814072369023 21.79700621536658 33.73808939382728 19.12117651243338 16.39410098419673 70.45783242038597 24.84247789857587 1.785224920980208 27.20667997066491 27.64215301411145 36.31313097160363 17.80349702259497 23.94172392805877 21.11142376635436 0 0 1:-0.541277 2:-0.669903 3:-0.89346 4:-0.867501 5:-1 6:-0.807112 7:-0.561983 8:-0.366947 9:-0.882629 10:-1 11:-0.578295 12:-0.905458 13:-0.779589 14:-1 15:-0.899098 16:-0.959184 17:-1 18:-0.698976 20:-1 21:-0.890014 
-0 -0 -0 -0 0 0 0 0 0 0 0 0 0 0 0 0 13.96791782510326 48.38386660686625 20.24746991484643 0 0 0 0 0 0 1:-0.572845 2:-1 3:-0.899379 4:-0.862951 5:-1 6:-0.828664 7:-1 8:-1 9:-1 10:-1 11:-1 12:-0.875789 13:-0.764455 14:-1 15:-0.948703 16:-0.755952 17:-1 18:-0.708432 20:-1 21:-0.914455 
-0 -0 -1.108202785509203 -0 0 0 0 0 0 13.48505678697507 113.4235543869244 47.81105003353754 81.90552206540103 17.88794477639124 14.33563821151341 136.5304999707421 0 0 18.4220269016675 0.293468640459957 24.12643787939253 22.50079634976351 25.10219722288184 0 0 1:-0.54882 2:-1 3:-0.8978 4:-0.872619 5:-1 6:-0.756466 7:-1 8:-1 9:-0.920188 10:-1 11:-0.882171 12:-0.8697 13:-0.825378 14:-1 15:-0.894025 16:-0.891156 17:-1 18:-0.51773 20:-1 21:-0.863478 
-0 -0 -0 -14.97791958287402 24.00696537215349 0 13.71441879722744 34.7458350952446 0 0 0 0 0 0 0 0 0 0 0 0 0 0 0 0 0 1:0.242073 2:-0.935275 3:-0.527671 4:-0.735001 5:-1 6:-0.0517241 7:-1 8:-0.35014 9:-0.71831 10:-1 11:-0.0542636 12:-0.562382 13:-0.316259 14:-1 15:-0.00901917 16:-0.522109 17:-1 18:-0.457841 20:-1 21:-0.0848464 
-0 -51.88207987408774 -0 -4.706641294934252 13.74349753261767 42.79484474568687 57.29215197221112 0 57.28513964965428 0 0 0 0 0 0 0 0 0 0 0 0 0 0 0 0 1:0.100712 2:-0.802589 3:-0.719838 4:-0.284049 5:-1 6:0.329741 7:-0.793388 8:-0.831933 9:-0.619718 10:-1 11:-0.652713 12:-0.751467 13:-0.421032 14:-1 15:-0.556933 16:-0.639031 17:-1 18:-0.470449 20:-1 21:-0.257332 
-0 -0 -0 -0 0 0 0 0 21.3493439571223 0 0 0 0 0 0 0 0 0 0 0 0 0 0 0 0 1:-0.377846 2:-1 3:-0.90806 4:-0.584873 5:-1 6:-0.588362 7:-1 8:-1 9:-1 10:-1 11:-1 12:-0.91365 13:-0.939464 14:-1 15:-0.939121 16:-0.419218 17:-1 18:-0.0141844 20:-1 21:-0.778631 
-74.40493264616809 -68.83145741524271 -8.50885253018774 -0 0 30.9205244718349 0 0 0 0 0 0 1.237341064693482 0 56.1678902360738 0 4.664096497017669 0 0 0 0 0 0 7.261261315546232 26.11683381460822 1:-0.519765 2:-0.796117 3:-0.877281 4:-0.756042 5:-1 6:-0.469828 7:-1 8:-0.691877 9:-0.690141 10:-1 11:-0.848062 12:-0.944537 13:-0.927823 14:-1 15:-0.922773 16:-0.635629 17:-1 18:-0.437352 20:-1 21:-0.698673 
-0 -0 -0 -0 0 0 0 0 27.20768737022609 86.14061883460501 0 80.80305187738861 0 0 0 0.02652989691229671 219.0050141348443 0 5.203610060333908 0 2.09999542705589 8.803261210782576 31.2074080340792 418.0040096907603 265.8063228861011 1:-0.612516 2:-1 3:-0.927197 4:-0.745237 5:-1 6:-0.917026 7:-1 8:-1 9:-1 10:-1 11:-1 12:-0.945976 13:-0.79123 14:-1 15:-0.952086 16:-0.466412 17:-1 18:-0.732072 20:-1 21:-0.978352 
-0 -0 -0 -0 0 0 0 0 0 0 0 0 0 0 0 0 0 0 0 0 0 0 0 0 233.7274793146493 1:-0.594636 2:-1 3:-0.928381 4:-0.79528 5:-1 6:-0.753233 7:-1 8:-1 9:-1 10:-1 11:-1 12:-0.966124 13:-0.812573 14:-1 15:-0.956032 16:-0.561224 17:-1 18:-0.512214 20:-1 21:-0.930168 
-0 -0 -0 -4.917321889488605 1.6652184093069 0 0 0 0 0 0 0 0 0 0 0 0 0 0 0 0 0 0 0 0 1:-0.117475 2:-1 3:-0.7226 4:-0.735001 5:-1 6:-0.655172 7:-1 8:-1 9:-1 10:-1 11:-1 12:-0.777261 13:-0.512224 14:-1 15:-0.555242 16:-0.738946 17:-1 18:-0.721828 20:-1 21:-0.849162 
-0 -0 -0 -0 0 0 0 0 37.81170182851547 0 0 0 0 0 0 0 0 0 0 0 0 0 0 0 0 1:-0.496857 2:-0.970874 3:-0.924435 4:-0.757748 5:-1 6:-0.549569 7:-1 8:-1 9:-0.849765 10:-1 11:-0.953488 12:-0.929149 13:-0.661234 14:-1 15:-0.937993 16:-0.781888 17:-1 18:-0.417652 20:-1 21:-0.592528 
-0 -0 -28.17216916681193 -0 0 0 0 52.46538757734007 0 0 0 0 0 0 26.2902479050079 0 0 0 0 0 0 0 0 0 0 1:-0.377846 2:-1 3:-0.862484 4:-0.814615 5:-1 6:-0.477371 7:-1 8:-1 9:-1 10:-1 11:-0.829457 12:-0.905236 13:-0.799767 14:-1 15:-0.828072 16:-0.882653 17:-1 18:-0.542159 20:-1 21:-0.522696 
-0 -0 -0.5751540257281635 -0 0 0 15.47650297238166 0 0 0 27.30764444884327 0 9.216286810125638 0 0 0 0 0 0 2.264116081080932 0 0.9687553142144726 0 0 0 1:-0.351585 2:-0.472492 3:-0.839006 4:-0.783338 5:-1 6:-0.517241 7:-1 8:-1 9:-0.633803 10:-1 11:-0.652713 12:-0.900476 13:-0.743112 14:-1 15:-0.796505 16:-0.903486 17:-1 18:-0.638298 20:-1 21:-0.450768 
-0 -0 -0 -25.38479168888577 0 36.12338704634707 149.1981337644571 134.8301086970274 31.39706119739776 0 0 0 0 0 0 0 0 0 0 0 0 0 0 0 0 1:-0.375332 2:-1 3:-0.86426 4:-0.816889 5:-1 6:-0.413793 7:-1 8:-1 9:-1 10:-1 11:-1 12:-0.870807 13:-0.764455 14:-1 15:-0.702931 16:-0.793367 17:-1 18:0.0583136 20:-1 21:-0.544693 
-0 -42.72212951409335 -0 -0 3.481039192561034 0 13.63314800353917 0 0 0 0 0 0 0 0 0 0 0 0 1.123138162391212 0 0 0 34.46178446084728 0 1:-0.511105 2:-0.0744337 3:-0.925027 4:-0.683253 5:-1 6:-0.65194 7:-0.31405 8:-0.406162 9:-0.882629 10:-1 11:-0.327132 12:-0.986051 13:-0.850213 14:-1 15:-0.918828 16:-0.589286 17:-1 18:-0.166273 20:-1 21:-0.808659 
-7.693189992261421 -0 -0 -0 0 3.16965680882205 0 0 0 0 0 0 0 0 0 0 0 0 0 0 0 0 0 0 0 1:-0.430367 2:-0.760518 3:-0.883792 4:-0.700881 5:-1 6:-0.304957 7:-1 8:-0.977591 9:-0.981221 10:-1 11:-0.708527 12:-0.956825 13:-0.951882 14:-1 15:-0.884442 16:-0.500425 17:-1 18:-0.0890465 20:-1 21:-0.690992 
-0 -1.933705942246049 -2.667554808542047 -0 -17.5673078142909 5.374229126253178 17.36473522791558 4.107662849771501 13.05619073338401 7.731429476567467 11.44543555750002 8.742067557791302 7.789718204916985 10.07169167645735 12.02686253969085 9.966603970605298 8.921344509205399 6.375237888630217 5.807948578808176 6.135873563211143 4.871418177915948 6.510523460530982 6.507286410931882 6.366636473432113 5.247820967846801 1:0.0115938 2:-0.805825 3:-0.338463 4:-0.891953 5:-1 6:-0.53556 7:-0.933884 8:-0.316527 9:-1 10:-1 11:-0.510078 12:0.0769401 13:-0.827707 14:-1 15:-0.310034 16:-1 17:-1 18:-0.940898 20:-1 21:-0.614176 
-4.718810852416358 -5.742719267195821 -1.373675146465655 -111.1764847861491 -0 7.20312143688443 6.935065023210842 3.948680909015855 1.389519833589343 0 0 0 0 0 0 0 0 0 0 0 0 0 0 1.363866585859893 3.899230897378187 1:0.11049 2:-0.909385 3:0.221861 4:-0.879443 5:-1 6:0.259698 7:-1 8:-0.904762 9:-0.985915 10:-1 11:-0.792248 12:0.0406288 13:-0.744276 14:-1 15:-0.487599 16:-0.783163 17:-1 18:-0.440504 20:-1 21:-0.532821 
-12.38547131038286 -24.49269930645998 -8.186832392439253 -4.12498598841093 -7.72371520810978 4.212089537933172 5.535388944140631 4.66926220319687 8.364201774916031 3.815095497421905 7.827348103794811 3.46727305934848 2.672484020586599 3.671045027379937 6.598570051734928 3.688227700285605 2.389593932279641 6.877229168485281 6.8954456096932 5.001517206328434 8.726270186417354 4.845322493319991 6.244516464832452 8.724560625631574 8.913939095958723 1:-0.263305 2:1 3:-0.900562 4:-0.908445 5:-1 6:-0.186422 7:0.157025 8:-0.159664 9:-0.605634 10:-1 11:-0.807752 12:-0.951511 13:-0.836244 14:-1 15:-0.763247 16:-0.882228 17:-1 18:-0.794326 20:-1 21:-0.67074 
-13.6042850370939 -8.643366792926944 -15.51692817705446 -3.217921214770434 -7.169825505749919 7.286220217033097 8.247223080594466 8.422807563059107 6.368631239916967 6.269061854515946 6.306453434158018 6.163167127831638 6.347164808836101 6.2907156128975 6.420659316037889 6.362994843470321 5.700211665118644 5.320279221310375 5.325371910338728 5.405430968669222 5.320090223969192 5.378828828158451 5.366586038998093 5.960526655431321 6.511501450663342 1:-0.541277 2:-1 3:-0.906679 4:-0.82087 5:-0.280576 6:-0.525862 7:-1 8:-1 9:-1 10:-1 11:-1 12:-0.97642 13:-0.902988 14:-1 15:-0.905862 16:-0.877126 17:-1 18:-0.660362 20:1 21:-0.649441 
-0 -0 -0 -18.29268382128081 -0 0 0 0 0 0 0 0 0 0 0 0 0 0 0 0 0 0 0 0 0 1:-0.250454 2:-1 3:0.0638256 4:-0.891385 5:-1 6:-0.0334052 7:-1 8:-0.792717 9:-0.971831 10:-1 11:-0.184496 12:1 13:-0.876989 14:-1 15:0.588501 16:-1 17:-1 18:-0.828211 20:-1 21:0.253142 
-0 -0 -0 -23.0447050533531 -0 0 0 0 0 0 0 0 0 0 0 0 0 0 0 0 0 0 0 0 0 1:-0.304372 2:-0.864078 3:0.299596 4:-0.756042 5:-1 6:0.155172 7:-1 8:-0.994398 9:-1 10:-1 11:-0.494574 12:0.684712 13:-0.887466 14:-1 15:0.476888 16:-0.923044 17:-1 18:-0.699764 20:-1 21:0.173184 
-0 -0 -0 -0 -19.23324209145968 0 4.621671843036909 2.488684902238802 0 0 0 0 0 0 0 0 0 0 0 0 0 0 0 0 0 1:0.748848 2:-0.990291 3:-0.433363 4:-0.397782 5:-1 6:0.435345 7:-1 8:-0.680672 9:-1 10:-1 11:-0.820155 12:-0.0192627 13:-0.414047 14:-1 15:-0.197858 16:-0.540391 17:-1 18:-0.261623 20:-1 21:0.207751 
-0 -0 -0 -9.876812059349474 -0 0 0 0 0 0 0 0 0 0 0 0 0 0 0 0 0 0 0 0 0 1:0.295432 2:-0.200647 3:0.600474 4:-0.528007 5:-1 6:-0.244612 7:-1 8:-0.820728 9:-0.99061 10:-1 11:-0.40155 12:0.539245 13:-0.147846 14:-1 15:-0.119504 16:-0.730867 17:-1 18:-0.0338849 20:-1 21:-0.173184 
-2.967049050639072 -0 -4.073326763946818 -123.8867075777141 -0 5.113521851617937 7.910136386302614 15.07478808809405 0 1.713107874677383 0 0.5750938519920302 3.989690560861297 1.837359372831926 1.368135280969554 1.967031546773185 0 0 0 0.7503682939747289 1.904834402151309 1.274536396421023 0 0 0 1:-0.244028 2:-1 3:-0.101707 4:-0.956213 5:-1 6:0.176724 7:-1 8:-1 9:-1 10:-1 11:-1 12:0.162515 13:-0.998836 14:-1 15:0.078354 16:-1 17:-1 18:-0.911742 20:-1 21:-0.0384078 
-0 -3.848508417568021 -0 -0 -0 0 2.99355761304676 0 2.396508745415756 0 0 0 0 0 0 0 0 0 0 0 0 0 0 0 0 1:-0.0124319 2:-0.970874 3:-0.0470553 4:-0.828831 5:-1 6:0.30819 7:-0.842975 8:-0.378151 9:-1 10:-1 11:-0.367442 12:0.135614 13:-0.939853 14:-1 15:0.0146561 16:-0.999575 17:-1 18:-0.289204 20:-1 21:-0.0174581 
-0 -0 -0 -0 -1.568174398108053 0 0 0 0 0 0 0 0 0 0 0 0 0 0 0 0 0 0 0 0 1:0.235647 2:-0.864078 3:0.651376 4:-0.844754 5:-1 6:0.0226293 7:-1 8:-0.271709 9:-1 10:-1 11:0.795349 12:0.266467 13:-0.679084 14:-1 15:0.27903 16:-0.864796 17:-1 18:0.391647 20:-1 21:0.327514 
-0 -0 -0 -0.920668714767042 -0 -0 0 0 0 0 0 0 0 0 0 0 0 0 0 0 0 0 0 0 0 1:-0.858081 2:-0.886731 3:-0.639736 4:-0.753767 5:-1 6:-0.519397 7:-1 8:-0.988796 9:-0.995305 10:-1 11:-0.696124 12:-0.570132 13:-0.726038 14:-1 15:-0.883315 16:-0.872024 17:-1 18:-0.725768 20:-1 21:-0.70845 
-0 -0 -0 -0 -0 -0 0 0 1309.999312635328 0 0 0 0 0 0 0 0 0 0 0 0 0 0 0 0 1:-0.848023 2:-0.990291 3:-0.725363 4:-0.667899 5:-1 6:-0.639009 7:-1 8:-1 9:-1 10:-1 11:-0.829457 12:-0.683162 13:-0.465658 14:-1 15:-0.993799 16:-0.80102 17:-1 18:-0.684003 20:-1 21:-0.821229 
-0 -0 -0 -0 -29.48817445551747 -0 4851.180851999316 138.4316310004696 0 200.1055024978774 78.48426583856256 0 18.17062343795282 0 0 0 9.177031093480032 0 0 0 0 0 0 0 0 1:-0.811147 2:-1 3:-0.816908 4:-0.652545 5:-1 6:-0.520474 7:-1 8:-1 9:-1 10:-1 11:-1 12:-0.821654 13:-0.612728 14:-1 15:-0.666291 16:-0.635204 17:-1 18:-0.824271 20:-1 21:-0.77933 
-0 -0 -0 -57.25524649303733 -34.46357753599348 -0 0 0 0 0 0 0 0 0 0 0 0 0 0 0 0 0 0 0 0 1:-0.820087 2:-0.951456 3:-0.774687 4:-0.783907 5:-1 6:-0.662716 7:-1 8:-1 9:-1 10:-1 11:-0.810853 12:-0.670541 13:-0.312379 14:-1 15:-0.931229 16:-0.650935 17:-1 18:-0.883373 20:-1 21:-0.873603 
-0 -0 -0 -2.558863005764434 -0 -0 0 0 356.5223887677674 0 0 0 0 0 0 0 0 0 0 0 0 0 0 0 0 1:-0.729851 2:-0.433657 3:-0.835849 4:-0.562695 5:-1 6:0.193966 7:-1 8:-1 9:-1 10:-1 11:-0.531783 12:-0.785896 13:-0.263873 14:-1 15:-0.849493 16:-0.620748 17:-1 18:-0.276596 20:-1 21:-0.292598 
-0 -0 -0 -36.92599104550494 -0 -0 502.4993111614544 212.5224801488123 1512.380506057802 0 0 0 0 0 0 0 0 0 0 0 0 0 0 0 0 1:-0.751362 2:-1 3:-0.808425 4:-0.574069 5:-1 6:-0.359914 7:-1 8:-1 9:-1 10:-1 11:-1 12:-0.761098 13:-0.447808 14:-1 15:-0.70575 16:-0.588435 17:-1 18:-0.070134 20:-1 21:-0.731494 
-0 -0 -0 -0 -0 -0 0 0 7555.363270019655 0 0 0 0 0 0 0 0 0 0 0 0 0 0 0 0 1:-0.794664 2:-1 3:-0.782184 4:-0.567813 5:-1 6:-0.532328 7:-1 8:-1 9:-1 10:-1 11:-1 12:-0.729879 13:-0.486612 14:-1 15:-0.921646 16:-0.543793 17:-1 18:-0.885737 20:-1 21:-0.852654 
-137.7549500526137 -0 -33.6453702166409 -0 -0 -0 0 0 0 110.5095625605932 82.06009091885458 72.8049079946652 64.68534429972252 41.1589725847458 105.8191706675735 89.57095879739487 62.22613088880885 37.28278052083596 38.52799808654958 23.32518572324575 50.04632526858173 20.91790081837325 40.29391115280798 0 49.84565834798234 1:-0.849979 2:-1 3:-0.7445 4:-0.782769 5:-1 6:-0.505388 7:-1 8:-1 9:-1 10:-1 11:-1 12:-0.775711 13:-0.708964 14:-1 15:-0.933484 16:-0.756378 17:-1 18:-0.829787 20:-1 21:-0.75419 
-0 -0 -0 -0 -0 -0 0 0 572.2156257710697 0 0 0 0 0 0 0 0 0 0 0 0 0 0 0 0 1:-0.855008 2:-1 3:-0.819868 4:-0.719079 5:-1 6:-0.617457 7:-1 8:-1 9:-1 10:-1 11:-1 12:-0.731208 13:-0.470702 14:-1 15:-0.947576 16:-0.661565 17:-1 18:-0.861308 20:-1 21:-0.890363 
-0 -0 -0 -0 -0 -0 0 0 0 0 0 0 0 0 0 0 0 0 0 0 0 0 0 31.07995109314725 0 1:-0.830703 2:-0.831715 3:-0.780014 4:-0.383566 5:-1 6:-0.679957 7:-1 8:-1 9:-0.957746 10:-1 11:-0.742636 12:-0.706631 13:-0.636399 14:-1 15:-0.9177 16:-0.617347 17:-1 18:-0.70528 20:-1 21:-0.863128 
-49.73438311427317 -0 -88.7455909894995 -0 -0 -0 0 106.0765315398979 836.4473485490716 0 0 0 12.27876590809305 0 2.317809600599973 24.65341773265342 0 0 0 0 4.570748062892572 0 0 0 0 1:-0.770918 2:-1 3:-0.88833 4:-0.881149 5:-1 6:0.203664 7:-1 8:-1 9:-1 10:-1 11:-1 12:-0.931916 13:-0.708964 14:-1 15:-0.721533 16:-0.892432 17:-1 18:-0.602049 20:-1 21:-0.479749 
-278.2395075971534 -36.40707430214893 -68.50764106161432 -0 -0 -0 795.2030694591008 205.8017086699003 0 13.15593863199543 157.495195876869 59.88470105059017 32.43897498789765 0 104.2972377457287 109.010756205288 0 33.29846499220595 13.71344612636124 28.94242737808581 20.72729177422604 12.20246419533784 14.56412838849281 47.99820886698523 72.67337129545206 1:-0.812823 2:-0.737864 3:-0.908454 4:-0.766847 5:-1 6:-0.212284 7:-1 8:-1 9:-0.892019 10:-1 11:-0.714729 12:-0.842688 13:-0.866899 14:-1 15:-0.728861 16:-0.856718 17:-1 18:-0.27502 20:-1 21:-0.673184 
-0 -100.6015254438868 -0 -0 -79.1170843340158 -4.938531700319395 1184.512301613664 0 0 0 0 0 0 0 0 0 0 0 0 0 0 0 0 0 0 1:-0.612795 2:-0.614887 3:-0.7883 4:-0.578049 5:-1 6:-0.206897 7:-1 8:-0.820728 9:-0.633803 10:-1 11:-0.472868 12:-0.886195 13:-0.563834 14:-1 15:-0.733935 16:-0.862245 17:-1 18:-0.161545 20:-1 21:-0.645251 
-43.68162310979445 -129.2988493464051 -0 -0 -0 -0 0 103.3924752555454 76.68997344391143 0 0 0 0 0 0 0 0 0 0 0 0 0 0 0 0 1:-0.593239 2:-0.944984 3:-0.833087 4:-0.535399 5:-1 6:0.327586 7:-1 8:-0.742297 9:-0.976526 10:-1 11:-0.764341 12:-0.897819 13:-0.781917 14:-1 15:-0.698422 16:-0.772109 17:-1 18:-0.49803 20:-1 21:-0.443436 
-4.854903837735182 -0 -0 -0 -105.1488753570611 -0 0 0 0 0 0 0 0 0 0 0 0 0 0 0 0 0 0 0 35.85302720100355 1:-0.648554 2:-1 3:-0.858735 4:-0.626386 5:-1 6:-0.0290948 7:-1 8:-1 9:-1 10:-1 11:-1 12:-0.889073 13:-0.68995 14:-1 15:-0.892334 16:-0.601616 17:-1 18:-0.171001 20:-1 21:-0.721718 
-0 -0 -0 -0 -0 -0 0 0 0 0 0 0 0 0 0 0 0 0 0 0 0 0 0 0 64.5586978494332 1:-0.837966 2:-0.721683 3:-0.839006 4:-0.448394 5:-1 6:-0.515086 7:-1 8:-0.887955 9:-0.943662 10:-1 11:-0.937984 12:-0.850105 13:-0.540939 14:-1 15:-0.724915 16:-0.649235 17:-1 18:-0.249803 20:-1 21:-0.84148 
-0 -0 -0 -0 -0 -0 0 0 0 0 0 0 0 0 0 0 0 0 0 0 0 0 0 70.47615034688629 0 1:-0.772594 2:-0.789644 3:-0.826379 4:-0.429628 5:-1 6:-0.454741 7:-1 8:-1 9:-0.99061 10:-1 11:-0.537984 12:-0.780582 13:-0.466434 14:-1 15:-0.994927 16:-0.471939 17:-1 18:-0.56186 20:-1 21:-0.821229 
-0 -0 -0 -0 -0 -0 195.4055711988455 0 2393.91301095448 0 0 0 0 0 0 0 0 0 0 0 0 0 0 5.701317117725329 32.77510600918355 1:-0.751083 2:-0.912621 3:-0.858735 4:-0.285755 5:-1 6:-0.559267 7:-1 8:-1 9:-0.962441 10:-1 11:-0.906977 12:-0.815454 13:-0.515328 14:-1 15:-0.908117 16:-0.505102 17:-1 18:0.0866824 20:-1 21:-0.808659 
-0 -2.363587319455595 -0 -0 -0 -0 0 0 0 0 45.41925531877829 0 0 0 0 0 0 0 0 7.340010097800172 0 13.73168279856917 0 0 0 1:-0.799972 2:-0.789644 3:-0.789681 4:-0.729883 5:-1 6:-0.387931 7:-0.966942 8:-1 9:-0.873239 10:-1 11:-0.497674 12:-0.70641 13:-0.569655 14:-1 15:-0.846674 16:-0.821854 17:-1 18:-0.576832 20:-1 21:-0.755936 
-0 -0 -0 -3.373447457641428 -0 -0 0 0 2543.494483167341 0 0 0 0 0 0 0 0 0 0 0 0 0 0 0 0 1:-0.754994 2:-1 3:-0.787511 4:-0.698607 5:-1 6:-0.828664 7:-1 8:-1 9:-1 10:-1 11:-1 12:-0.458319 13:-0.790454 14:-1 15:-0.999436 16:-0.776786 17:-1 18:-0.765169 20:-1 21:-0.969623 
-0 -56.09715683444445 -34.84502390983391 -0 -85.12563238949325 -0 7294.0380093071 0 0 130.6458504107604 184.352215653563 94.58807771787809 138.2968038248676 153.46685014707 99.88654548954997 93.41497519423585 147.8819974231051 45.02860772597068 44.86028971129191 26.10495385761866 17.2221354007247 40.85339294337711 54.04891145355349 46.34832939910896 54.14206153814089 1:-0.798575 2:-1 3:-0.799941 4:-0.839636 5:-1 6:-0.724138 7:-1 8:-1 9:-1 10:-1 11:-1 12:-0.575446 13:-0.844005 14:-1 15:-0.873732 16:-0.915391 17:-1 18:-0.747045 20:-1 21:-0.903282 
-0 -0 -0 -0 -17.72318948902288 -8.068622491385279 1233.117344648534 276.90618302613 0 0 0 0 0 0 0 0 0 0 0 0 5.703882947639908 0 0 0 0 1:-0.605252 2:-0.964401 3:-0.823814 4:-0.833949 5:-1 6:0.211207 7:-1 8:-1 9:-1 10:-1 11:-0.469767 12:-0.75346 13:-0.567326 14:-1 15:-0.674183 16:-0.804422 17:-1 18:-0.830575 20:-1 21:-0.219623 
-0 -0 -0 -0 -0 -0 8192 0 0 0 0 0 0 0 0 0 0 0 0 0 0 0 0 0 0 1:-0.841598 2:-1 3:-0.739371 4:-0.753199 5:-1 6:-0.470905 7:-1 8:-1 9:-1 10:-1 11:-1 12:-0.694786 13:-0.591773 14:-1 15:-0.757046 16:-0.872449 17:-1 18:-0.525611 20:-1 21:-0.738827 
-0 -0 -0 -0 -0 -0 0 114.2776643175307 70.06937704334891 0 0 0 0 39.20638752416831 0 41.50088774660313 0 0 0 0 0 0 0 0 0 1:-0.886856 2:-1 3:-0.72043 4:-0.856127 5:-1 6:-0.676724 7:-1 8:-1 9:-1 10:-1 11:-1 12:-0.577106 13:-0.899884 14:-1 15:-0.844983 16:-0.922619 17:-1 18:-0.682427 20:-1 21:-0.883729 
-0 -0 -0 -0 -0 -16.18202797801714 1531.421590068336 0 0 0 0 0 0 0 0 0 0 0 0 0 0 0 0 0 0 1:-0.77008 2:-1 3:-0.648219 4:-0.859539 5:-1 6:-0.301724 7:-1 8:-1 9:-1 10:-1 11:-1 12:-0.563379 13:-0.83896 14:-1 15:-0.864713 16:-0.933673 17:-1 18:-0.730496 20:-1 21:-0.740223 
-0 -0 -0 -0 -0 -0 -7532.508514888689 0 907.8440972855421 0 0 0 0 0 0 0 0 0 0 0 0 0 0 0 0 1:-0.798296 2:-1 3:-0.706619 4:-0.617856 5:-1 6:-0.358836 7:-1 8:-1 9:-1 10:-1 11:-1 12:-0.594598 13:-0.664726 14:-1 15:-0.754791 16:-0.840136 17:-1 18:-0.582348 20:-1 21:-0.659567 
-0 -0 -0 -0 -0 -0 -2097.890176480087 0 0 0 0 0 0 0 0 0 0 0 0 0 0 0 0 0 0 1:-0.852493 2:-1 3:-0.618625 4:-0.793005 5:-1 6:-0.264009 7:-1 8:-1 9:-1 10:-1 11:-1 12:-0.585963 13:-0.700427 14:-1 15:-0.736753 16:-0.894983 17:-1 18:-0.602837 20:-1 21:-0.580656 
-93.328269942823 -0 -61.65372572170208 -0 -0 -0 -0 0 55.33333397921885 0 0 0 114.6769373461899 49.53950907432094 48.908421585069 61.8321290274468 0 12.24472944605382 0 19.87331228701046 15.69442394140989 0 0 0 0 1:-0.835452 2:-0.864078 3:-0.783171 4:-0.926642 5:-1 6:-0.295259 7:-1 8:-1 9:-1 10:-1 11:-0.962791 12:-0.653271 13:-0.901048 14:-1 15:-0.720406 16:-0.980867 17:-1 18:-0.744681 20:-1 21:-0.481494 
-0 -0 -0 -54.40436616331515 -0 -0 -1111.790138571488 0 0 0 0 0 0 0 0 0 0 0 0 0 0 0 0 0 0 1:-0.834893 2:-0.847896 3:-0.732663 4:-0.897071 5:-1 6:-0.358836 7:-1 8:-1 9:-1 10:-1 11:-0.965891 12:-0.533599 13:-0.795887 14:-1 15:-0.681511 16:-0.947279 17:-1 18:-0.676123 20:-1 21:-0.65817 
-0 -0 -0 -0 -169.4005378180606 -0 -0 0 0 0 0 0 0 0 0 0 0 0 0 0 0 0 0 0 0 1:-0.420869 2:-0.983819 3:-0.809411 4:-0.560421 5:-1 6:-0.515086 7:-1 8:-0.697479 9:-0.981221 10:-1 11:-0.693023 12:-0.668106 13:-0.502134 14:-1 15:-0.771702 16:-0.823554 17:-1 18:-0.281324 20:-1 21:-0.603701 
-0 -0 -0 -0 -52.99471379669192 -0 -0 0 0 0 0 0 0 0 0 0 0 0 0 0 0 0 0 0 0 1:-0.414164 2:-0.983819 3:-0.781395 4:-0.749787 5:-1 6:-0.354526 7:-1 8:-0.731092 9:-0.985915 10:-1 11:-0.910078 12:-0.672977 13:-0.620101 14:-1 15:-0.621195 16:-0.878827 17:-1 18:-0.733649 20:-1 21:-0.489176 
-114.3147148398919 -74.86928844478832 -39.3762392790003 -0 -153.3674182079766 -0 -0 235.2191989774537 267.2225451135574 30.05185254530594 258.3616588934034 48.67476044710368 0.2388322665903872 0 11.84951327687214 63.73524878510065 53.18099235205255 0 3.252114196349854 25.49713622460179 2.991927381398973 0 10.85349924345926 306.2056778625621 234.4604646541883 1:-0.771756 2:-0.579288 3:-0.923449 4:-0.750924 5:-1 6:-0.601293 7:-1 8:-1 9:-1 10:-1 11:-0.928682 12:-0.929591 13:-0.797439 14:-1 15:-0.857384 16:-0.617347 17:-1 18:-0.345154 20:-1 21:-0.78352 
-7.813041738004508 -0 -0 -0 -0 -0 -3356.551183375906 0 0 13.26335860734609 52.1637329217982 0 0 0 0 0 0 0 0 0 0 0 0 0 0 1:-0.786842 2:-0.851133 3:-0.88833 4:-0.670742 5:-1 6:-0.570043 7:-1 8:-1 9:-0.948357 10:-1 11:-0.996899 12:-0.903354 13:-0.575475 14:-1 15:-0.767756 16:-0.697704 17:-1 18:-0.489362 20:-1 21:-0.817039 
-0 -0 -0 -0 -41.62721012516008 -2.999924667249526 -0 0 0 0 0 0 0 0 0 0 0 0 0 0 0 0 0 0 0 1:-0.292918 2:-1 3:-0.569695 4:-0.861245 5:-1 6:0.320043 7:-1 8:-1 9:-1 10:-1 11:-1 12:-0.586073 13:-0.718277 14:-1 15:-0.674746 16:-0.835884 17:-1 18:-0.388495 20:-1 21:-0.55412 
-0 -38.66492297622276 -0 -17.76750057713358 -10.3191070795493 -12.03765242471433 -0 0 114.0167258915726 0 0 0 0 0 0 0 0 0 0 0 0 0 0 0 0 1:-0.183406 2:-0.951456 3:-0.661241 4:-0.733864 5:-1 6:0.586207 7:-1 8:-0.943978 9:-1 10:-1 11:-0.807752 12:-0.66091 13:-0.596042 14:-1 15:-0.340474 16:-0.826531 17:-1 18:-0.884949 20:-1 21:-0.299232 
-0 -0 -0 -27.85743741795791 -0 -0.3281181484111289 -0 0 0 0 0 0 0 0 0 0 0 0 0 0 0 0 0 0 0 1:-0.229781 2:-0.944984 3:-0.52412 4:-0.220927 5:-1 6:-0.018319 7:-1 8:-0.994398 9:-0.938967 10:-1 11:-0.764341 12:-0.61541 13:-0.429181 14:-1 15:-0.759301 16:-0.582058 17:-1 18:-0.154452 20:-1 21:-0.631983 
-11.38015796883428 -16.87756130733234 -0 -0 -0 -0 -294.4864322311063 93.82403510937613 0 0 0 0 0 0 0 0 0 0 0 0 0 0 0 0 0 1:-0.463053 2:-0.964401 3:-0.524317 4:-0.797555 5:-1 6:0.418103 7:-1 8:-0.736695 9:-0.962441 10:-1 11:-0.671318 12:-0.674084 13:-0.828483 14:-1 15:-0.36584 16:-0.871173 17:-1 18:-0.714736 20:-1 21:-0.319134 
-0 -0 -0 -10.60435964183706 -0 -38.24208287787283 -0 0 0 0 0 0 0 0 0 0 0 0 0 0 0 0 0 0 0 1:-0.439587 2:-0.964401 3:-0.537141 4:-0.861245 5:-1 6:-0.283405 7:-1 8:-0.462185 9:-0.877934 10:-1 11:-0.603101 12:-0.592494 13:-0.754754 14:-1 15:-0.531003 16:-0.898384 17:-1 18:-0.635934 20:-1 21:-0.417598 
-0 -0 -0 -0 -0 -0 -0 1714.002490588318 0 0 0 0 0 0 0 0 0 0 0 0 0 0 0 0 0 1:-0.559156 2:-1 3:-0.613101 4:-0.73557 5:-1 6:-0.282328 7:-1 8:-1 9:-1 10:-1 11:-1 12:-0.613417 13:-0.800543 14:-1 15:-0.547914 16:-0.829507 17:-1 18:-0.386131 20:-1 21:-0.531774 
-0 -0 -9.808205300613631 -0 -0 -0 -0 145.61697905055 0 0 0 0 0 0 0 0 0 0 0 0 0 0 0 0 0 1:-0.4692 2:-0.935275 3:-0.597119 4:-0.934035 5:-1 6:0.435345 7:-1 8:-1 9:-1 10:-1 11:-0.782946 12:-0.629027 13:-0.860691 14:-1 15:-0.449267 16:-0.963861 17:-1 18:-0.707644 20:-1 21:-0.256983 
-0 -0 -0 -0 -0 -0 -0 0 1249.793114547857 0 0 0 0 0 0 0 0 0 0 0 0 0 0 0 45.57147123425629 1:-0.522 2:-0.961165 3:-0.801914 4:-0.257322 5:-1 6:-0.420259 7:-1 8:-1 9:-0.995305 10:-1 11:-0.83876 12:-0.781689 13:-0.545596 14:-1 15:-0.883315 16:-0.565901 17:-1 18:-0.27108 20:-1 21:-0.676327 
-25.27992277768427 -0 -0 -0 -44.92210215116469 -0 -807.948942764135 575.590775161942 0 0 0 0 0 0 0 0 0 0 0 0 0 0 0 0 0 1:-0.451599 2:-0.925566 3:-0.769754 4:-0.39039 5:-1 6:0.0280172 7:-1 8:-1 9:-0.633803 10:-1 11:-0.420155 12:-0.727665 13:-0.687233 14:-1 15:-0.639797 16:-0.668367 17:-1 18:-0.0874704 20:-1 21:-0.451117 
-0 -75.07196232002472 -36.75246063070346 -0 -149.2251700989544 -0 -8192 0 1408.940839371339 471.2702764889975 328.5568795820915 203.7573568565804 237.6359812865824 136.4967147136989 155.9061424850721 29.68886445898671 285.3009702366386 63.39646399242258 80.44030875355763 25.56213191620491 48.38067439806156 46.15036850303419 84.40232808426208 43.88558107710633 162.7529506805134 1:-0.786842 2:-1 3:-0.844727 4:-0.876599 5:-1 6:-0.734914 7:-1 8:-1 9:-1 10:-1 11:-1 12:-0.746485 13:-0.672099 14:-1 15:-0.886133 16:-0.845663 17:-1 18:-0.787234 20:-1 21:-0.929469 
-0 -10.60722171778572 -11.92065728556969 -0 -0 -0 -2386.20266114494 0 0 135.1490478946157 613.3230776798634 88.33776847485036 114.5368542146665 177.9557021158869 319.7115535946392 472.1297531488487 0 59.03102594221222 27.28687234546002 24.70909300360013 38.46166654985729 58.63241821216457 30.89981516517717 0 0 1:-0.808912 2:-0.964401 3:-0.800335 4:-0.880011 5:-1 6:-0.543103 7:-1 8:-1 9:-0.995305 10:-1 11:-0.671318 12:-0.747039 13:-0.867676 14:-1 15:-0.604848 16:-0.932398 17:-1 18:-0.638298 20:-1 21:-0.690992 
-6.718341092284144 -0 -0 -0 -0 -0 -0 3080.776177056985 0 0 0 0 0 0 0 0 0 0 0 0 0 0 0 0 0 1:-0.713088 2:-0.993528 3:-0.817106 4:-0.771396 5:-1 6:-0.373922 7:-1 8:-0.938375 9:-0.995305 10:-1 11:-0.851163 12:-0.800731 13:-0.756306 14:-1 15:-0.635851 16:-0.861395 17:-1 18:-0.630418 20:-1 21:-0.533869 
-0 -0 -0 -9.647265577545452 -84.65798978701486 -0 -0 -225.6295052041716 29.8279500938714 0 26.35564253772401 0 0 0 2.363734320793211 0 0 0 0 0 0 0 0 9.798923808623679 21.75924570536433 1:-0.704987 2:-0.957929 3:-0.748841 4:-0.756042 5:-1 6:-0.59375 7:-1 8:-0.501401 9:-0.995305 10:-1 11:-0.668217 12:-0.703199 13:-0.476911 14:-1 15:-0.55186 16:-0.861395 17:-1 18:0.169425 20:-1 21:-0.374651 
-0 -14.12237479281102 -5.067013395728148 -1.23231720909818 -0 -2.797846894533912 -22.83015533545341 -249.7433711962187 0 2.742982342922428 36.29155753023772 27.64947899398518 23.35319237741198 17.80744476862473 61.08181353815671 26.59122379564795 0 13.46626796003044 12.55916687171852 26.50398866940769 11.58838311705298 23.51848103370759 15.12277806291661 0.3765714774361069 0 1:-0.80109 2:-0.880259 3:-0.796784 4:-0.881149 5:-1 6:-0.409483 7:-1 8:-0.714286 9:-0.661972 10:-1 11:0.156589 12:-0.738182 13:-0.901824 14:-1 15:-0.391206 16:-0.951956 17:-1 18:-0.756501 20:-1 21:-0.337989 
-227.3162366979487 -79.23988144440672 -78.18901283826703 -0 -24.65434930885351 -0 -975.3125822185033 -2858.008883311909 421.3072090815098 70.42951710524451 106.5583042329099 68.8055046755058 76.67972905734655 45.85843621497683 99.8586915212535 147.307599849977 44.67776415239877 43.57294323692103 30.61620740914885 36.2588951327217 48.3199466988731 32.03133474525424 36.38599193097111 74.21426329186718 106.529107219033 1:-0.799972 2:-0.983819 3:-0.8102 4:-0.696332 5:-1 6:-0.266164 7:-1 8:-1 9:-1 10:-1 11:-0.83876 12:-0.836599 13:-0.716337 14:-1 15:-0.714769 16:-0.72534 17:-1 18:-0.471237 20:-1 21:-0.508729 
-0 -26.96284474547516 -19.27844587562161 -0 -0 -11.71871179075375 -100.6851802321591 -0 0 0 0 0 0 0 0 0 0 0 0 0 0 0 0 0 0 1:-0.525911 2:-0.990291 3:-0.714314 4:-0.852147 5:-1 6:0.595905 7:-1 8:-1 9:-1 10:-1 11:-0.789147 12:-0.720248 13:-0.911525 14:-1 15:-0.560879 16:-0.860544 17:-1 18:-0.76911 20:-1 21:-0.0834497 
-0 -8.844935162725589 -0 -23.22543077588279 -143.8847149590979 -24.19532783008853 -0 -2172.126744363874 25.27627174922027 5.760531548559259 0 0 1.587746141116355 18.25204477564312 0 12.90453357400355 0.9818405479295164 0 0 0 0 0 0 0 0 1:-0.409415 2:-1 3:-0.743711 4:-0.754336 5:-1 6:-0.326509 7:-1 8:-1 9:-1 10:-1 11:-1 12:-0.634451 13:-0.917734 14:-1 15:-0.473506 16:-0.830357 17:-1 18:-0.538219 20:-1 21:-0.539804 
-0 -0 -0 -55.73657786289264 -0 -0 -58.58075617217069 -339.5211518684517 0 0 0 0 0 0 0 0 0 0 0 0 0 0 0 0 0 1:-0.640732 2:-0.990291 3:-0.646049 4:-0.741825 5:-1 6:0.0959052 7:-1 8:-0.971989 9:-1 10:-1 11:-0.770543 12:-0.642754 13:-0.741172 14:-1 15:-0.360767 16:-0.861395 17:-1 18:-0.524823 20:-1 21:-0.392109 
-74.37206928702835 -35.15388575815072 -59.25211285168591 -5.080545909535157 -15.96322631149212 -0 -1937.256563548049 -816.7669933728602 -153.4227729623322 112.2097439722469 161.4465805736337 75.96850634364368 73.55775726969929 62.81192693476105 79.92049288343129 100.2895353538199 56.58600812604609 51.70595255903926 37.15119034160427 44.80230158443486 43.47723649693348 34.87443136691507 40.36220249791252 40.28773926525847 61.81537039189698 1:-0.883783 2:-0.799353 3:-0.827562 4:-0.876031 5:-1 6:-0.301724 7:-0.801653 8:-1 9:-1 10:-1 11:-0.727132 12:-0.739843 13:-0.690338 14:-1 15:-0.749154 16:-0.822279 17:-1 18:-0.420016 20:-1 21:-0.794693 
-0 -0 -0 -59.0032136896282 -0 -0 -5492.971045362774 -0 -0 0 0 0 0 0 0 0 0 0 0 0 0 0 0 24.16444743495575 0 1:-0.86283 2:-1 3:-0.77153 4:-0.437589 5:-1 6:-0.578664 7:-1 8:-1 9:-1 10:-1 11:-1 12:-0.777372 13:-0.21071 14:-1 15:-0.934047 16:-0.385629 17:-1 18:-0.695035 20:-1 21:-0.914106 
-17.08982257745355 -20.21409553789928 -15.97983845623027 -10.82410593658268 -73.1620234833923 -7.575705970619501 -5070.662122957758 -1648.555744900551 -43.10255022585498 201.9705986565607 118.0955728778648 77.78673705652345 74.62148241472613 87.52506415484562 25.28107221285052 60.91067518759566 123.3849324084254 35.0161172973712 39.21870174671572 26.07336236622875 24.53360633809707 36.50194487688743 44.96354393860493 82.06891136643732 71.98900125381003 1:-0.806118 2:-1 3:-0.752392 4:-0.624111 5:-1 6:-0.939655 7:-1 8:-1 9:-1 10:-1 11:-1 12:-0.589394 13:-0.63213 14:-1 15:-0.987035 16:-0.796344 17:-1 18:-0.967691 20:-1 21:-0.996858 
-131.8993361151851 -0 -32.83472459080568 -0 -0 -0 -3559.987835442971 -0 -122.7560755492169 0 0 0 3.546762064639156 0 0 17.52065575251966 0 0 0 0 0 0 0 0 48.71397609534037 1:-0.679564 2:-1 3:-0.853803 4:-0.59056 5:-1 6:-0.128233 7:-1 8:-1 9:-1 10:-1 11:-1 12:-0.72844 13:-0.799379 14:-1 15:-0.880496 16:-0.63818 17:-1 18:-0.237983 20:-1 21:-0.52095 
-0 -51.68752176217462 -0 -0 -164.5087971370529 -0 -1166.217729098228 -1537.827917915676 -125.5863007081006 0 0 0 0 0 0 0 0 0 0 0 0 0 0 6.21161029787012 14.34616602468315 1:-0.525073 2:-1 3:-0.894051 4:-0.439864 5:-1 6:-0.0840517 7:-1 8:-1 9:-1 10:-1 11:-1 12:-0.854755 13:-0.636011 14:-1 15:-0.796505 16:-0.582483 17:-1 18:-0.215918 20:-1 21:-0.478003 
-0 -57.77275222298364 -0 -11.09214651808138 -32.31448016458124 -23.9993463566026 -0 -0 -31.54373147909686 0 65.33862322999543 0 8.50284612186284 2.872045855407126 180.1097729276179 -0 0 0 1.171875361803775 2.397998329383015 12.86115878395663 2.344693326454379 0 0 0 1:-0.700796 2:-0.656958 3:-0.760481 4:-0.793574 5:-1 6:-0.294181 7:-0.322314 8:-0.568627 9:-0.915493 10:-1 11:-0.342636 12:-0.691907 13:-0.728754 14:-1 15:-0.651071 16:-0.885204 17:-1 18:-0.468873 20:-1 21:-0.40398 
-0 -0 -0 -0 -0 -0 -0 -8.579893177515952 -0 -97.09066986131072 0 0 0 0 0 0 0 0 0 0 0 0 0 0 0 1:-0.965358 2:-0.961165 3:-0.815725 4:-0.793574 5:-1 6:-0.923491 7:-1 8:-0.921569 9:-0.830986 10:-1 11:-0.789147 12:-0.802723 13:-0.67986 14:-1 15:-0.936866 16:-0.827381 17:-1 18:-0.840032 20:-1 21:-0.946927 
-0 -13.65347809219269 -0 -0 -0 -0 -0 -0 -0 -0 0 4154.231455244596 0 2314.026297449814 0 0 1961.365016463649 130.1006770345176 240.4607401776154 21.17536726806696 145.8622623709269 157.7043686901411 0 100.4530982098082 306.4427003613098 1:-0.959212 2:-0.770227 3:-0.95403 4:-0.79528 5:-1 6:-0.842672 7:-1 8:-1 9:-1 10:-1 11:-0.84186 12:-0.964021 13:-0.828871 14:-1 15:-0.932356 16:-0.701956 17:-1 18:-0.808511 20:-1 21:-0.852304 
-26.28413464523109 -0 -15.78509270916735 -0 -13.69126149857493 -0 -14.7798265021637 -146.2667873637103 -12.31232604411318 -54.35396400524942 1777.822787829524 0 0 0 0 86.90406854473261 0 0 0 0 0 0 0 0 48.18297471033848 1:-0.953066 2:-0.909385 3:-0.905495 4:-0.665624 5:-1 6:-0.764009 7:-1 8:-0.865546 9:-1 10:-1 11:-0.807752 12:-0.931031 13:-0.634459 14:-1 15:-0.945321 16:-0.839286 17:-1 18:-0.646966 20:-1 21:-0.893855 
-0 -0 -0 -0 -120.7957818775341 -0 -0 -0 -0 -0 0 2990.374850118348 0 0 0 0 51.11101370416617 0 0 0 11.10596445184299 0 90.66370032133487 158.2006122251169 179.4584542369638 1:-0.912837 2:-0.893204 3:-0.940219 4:-0.818027 5:-1 6:-0.969828 7:-0.809917 8:-0.826331 9:-0.99061 10:-1 11:-0.711628 12:-0.970442 13:-0.820334 14:-1 15:-0.950395 16:-0.711735 17:-1 18:-0.765169 20:-1 21:-0.99162 
-12.69473763229014 -2.968947032438081 -19.58040154769811 -0 -0 -5.44108680338609 -0 -0 -0 -0 5792.860368542872 0 86.76598455383208 2065.971731087409 86.07610202509466 58.40871310980464 0 445.5275611138187 392.6849066430115 113.5964529724191 17.05459502560955 274.6153574767089 470.3180936158094 0 0 1:-0.949434 2:-0.592233 3:-0.971589 4:-0.937447 5:-1 6:-0.907328 7:-0.553719 8:-0.77591 9:-0.647887 10:-1 11:-0.792248 12:-0.982951 13:-0.89057 14:-1 15:-0.947012 16:-0.892857 17:-1 18:-0.676123 20:-1 21:-0.922137 
-0 -0 -8.54330684831814 -0 -0 -3.980911778257407 -0 -0 -0 -0 2757.167250674644 0 26.11665155030783 8192 403.1601328447228 0 0 0 0 118.1032319859111 0 0 0 0 0 1:-0.963403 2:-0.954693 3:-0.82776 4:-0.952232 5:-1 6:-0.65194 7:-1 8:-0.977591 9:-1 10:-1 11:-0.6 12:-0.852651 13:-0.853318 14:-1 15:-0.710259 16:-0.969388 17:-1 18:-0.983452 20:-1 21:-0.770601 
-0 -0 -0 -14.65740685994774 -8.151901043151103 -0 -133.8121891539614 -68.25742437533667 -0 -104.3766364621648 0 0 0 0 0 0 0 0 0 0 0 0 0 0 0 1:-0.914234 2:-0.990291 3:-0.858341 4:-0.732727 5:-1 6:-0.800647 7:-1 8:-1 9:-1 10:-1 11:-0.857364 12:-0.910218 13:-0.665891 14:-1 15:-0.801578 16:-0.717262 17:-1 18:-0.791174 20:-1 21:-0.869413 
-0 -0 -0 -23.05884700935448 -0 -0 -152.5731616302636 -164.0863646238543 -35.88192384982378 -0 0 608.1764612777788 50.35915561368729 0 0 0 0 0 0 0 0 0 0 0 13.58526854166693 1:-0.926247 2:-0.938511 3:-0.876887 4:-0.876031 5:-1 6:-0.65194 7:-1 8:-1 9:-0.948357 10:-1 11:-0.941085 12:-0.92151 13:-0.703531 14:-1 15:-0.730552 16:-0.6875 17:-1 18:-0.826635 20:-1 21:-0.799232 
-119.9959622172478 -129.6754324820391 -118.7774767949364 -0 -60.93180592167516 -10.1066961215392 -153.2516768148377 -119.0864199801005 -30.73878110278924 -45.50783637726325 8192 6717.614031076561 1065.02553317592 2838.45847059312 993.6807093507907 317.9318425710283 3647.978953013951 143.9196008531803 0 0 0 0 0 0 0 1:-0.831541 2:-1 3:-0.859722 4:-0.853284 5:-1 6:-0.567888 7:-1 8:-1 9:-1 10:-1 11:-1 12:-0.925717 13:-0.837796 14:-1 15:-0.748591 16:-0.993622 17:-1 18:-0.908589 20:-1 21:-0.736034 
-0 -0 -0 -0 -0 -0 -0 -0 -0 -0 3093.858919927865 0 0 27.27690763255409 0 212.0926471049989 0 0 0 0 0 0 0 0 0 1:-0.967593 2:-1 3:-0.939627 4:-0.861814 5:-1 6:-0.856681 7:-1 8:-1 9:-1 10:-1 11:-1 12:-0.932913 13:-0.875049 14:-1 15:-0.906426 16:-0.941327 17:-1 18:-0.79275 20:-1 21:-0.897696 
-0 -0 -0 -0 -0 -0 -0 -0 -0 -0 200.6520788842692 0 64.28677142050471 4078.360115926598 136.1589828451412 56.14448196237059 0 0 234.2178899989851 77.85089226389171 507.1784141232366 326.0758579880424 0 0 0 1:-0.983797 2:-0.967638 3:-0.954424 4:-0.956781 5:-1 6:-0.835129 7:-0.991736 8:-0.943978 9:-0.713615 10:-1 11:-0.736434 12:-0.901804 13:-0.946449 14:-1 15:-0.865276 16:-0.986395 17:-1 18:-0.893617 20:-1 21:-0.860335 
-0 -0 -0 -0 -0 -0 -0 -0 -0 -0 0 0 96.27927213265939 0 0 0 0 0 0 0 0 0 0 0 0 1:-0.950552 2:-0.993528 3:-0.876689 4:-0.885698 5:-1 6:-0.877155 7:-1 8:-0.848739 9:-1 10:-1 11:-0.941085 12:-0.85874 13:-0.837796 14:-1 15:-0.824126 16:-0.948554 17:-1 18:-0.857368 20:-1 21:-0.883031 
-0 -0 -0 -0 -0 -0 -0 -0 -0 -0 0 6978.00462626929 0 5497.630192592201 56.32568644710915 0 3354.522727361719 0 0 0 0 0 0 0 0 1:-0.95111 2:-1 3:-0.931933 4:-0.984646 5:-1 6:-0.952586 7:-1 8:-0.815126 9:-1 10:-1 11:-0.848062 12:-0.862504 13:-0.989523 14:-1 15:-0.92841 16:-1 17:-1 18:-0.976359 20:-1 21:-0.984986 
-0 -0 -0 -0 -0 -0 -0 -0 -0 -0 0 8040.262918175385 0 0 0 0 2618.660301903361 0 0 0 0 0 0 0 0 1:-0.977651 2:-0.957929 3:-0.982441 4:-0.922661 5:-1 6:-0.961207 7:-1 8:-1 9:-0.924883 10:-1 11:-0.987597 12:-0.932027 13:-0.910749 14:-1 15:-0.927847 16:-0.939626 17:-1 18:-0.884161 20:-1 21:-0.97067 
-0 -0 -0 -0 -0 -0 -0 -143.4576460157475 -0 -12.85123592281935 2956.268161015932 0 10.1132866004147 8192 0 0 2510.734289872299 0 0 0 0 0 0 0 0 1:-0.927644 2:-1 3:-0.821052 4:-0.962468 5:-1 6:-0.83944 7:-1 8:-1 9:-1 10:-1 11:-1 12:-0.803941 13:-0.946837 14:-1 15:-0.84611 16:-1 17:-1 18:-0.914894 20:-1 21:-0.925978 
-0 -11.62253783297762 -4.269205792249134 -0 -57.27887816844597 -0 -0 -0 -0 -0 2255.519792641318 1361.605712189198 0 0 0 21.02195337159764 903.1587741856753 0 0 0 0 0 0 289.9365503670805 333.6651575533726 1:-0.89803 2:-0.996764 3:-0.888724 4:-0.673017 5:-1 6:-0.769397 7:-1 8:-1 9:-0.765258 10:-1 11:-0.823256 12:-0.953282 13:-0.772992 14:-1 15:-0.908117 16:-0.752126 17:-1 18:-0.681639 20:-1 21:-0.906075 
-0 -0 -0 -0 -0 -0 -0 -0 -0 -0 0 0 63.74702572320528 0 0 0 0 0 0 0 0 0 0 0 0 1:-0.98212 2:-0.925566 3:-0.948308 4:-0.972704 5:-1 6:-0.899784 7:-1 8:-1 9:-1 10:-1 11:-0.941085 12:-0.904683 13:-0.907256 14:-1 15:-0.776212 16:-0.99915 17:-1 18:-0.939322 20:-1 21:-0.850559 
-0 -0 -0 -0 -0 -0 -0 -0 -0 -0 0 8192 0 2360.246805433711 0 0 2747.878792464032 1594.194496518016 2023.966220109182 7.621240791114567 268.590319906211 356.6443316711682 2483.672397643193 0 0 1:-0.989105 2:-0.951456 3:-0.978692 4:-0.995451 5:-1 6:-0.908405 7:-1 8:-0.904762 9:-1 10:-1 11:-0.906977 12:-0.919185 13:-0.975165 14:-1 15:-0.916009 16:-1 17:-1 18:-0.947991 20:-1 21:-0.952863 
-0 -0 -0 -0 -0 -0 -0 -0 -0 -0 -8192 8192 2034.374598437489 3766.228138696847 0 1665.791528077417 2902.46065338321 772.143571282577 786.1844034512948 83.88702718532367 309.4997392305619 320.6171199794738 753.4158620706888 0 0 1:-0.97793 2:-0.951456 3:-0.9489 4:-0.936878 5:-1 6:-0.912716 7:-1 8:-0.921569 9:-1 10:-1 11:-0.978295 12:-0.919407 13:-0.934808 14:-1 15:-0.868658 16:-0.978316 17:-1 18:-0.855792 20:-1 21:-0.909916 
-0 -0 -1.603117207397232 -0 -0 -8.637987962799132 -0 -0 -0 -0 -142.6849568165009 2245.723149118199 150.0506933462212 1675.627468914588 758.2355388582225 0 0 0 49.8419311904275 75.43893635307207 31.58635869771463 59.31045046104154 123.7843447698761 0 0 1:-0.798575 2:-0.783172 3:-0.85913 4:-0.947114 5:-1 6:-0.724138 7:-1 8:-0.630252 9:-1 10:-1 11:-0.246512 12:-0.883095 13:-0.944121 14:-1 15:-0.779594 16:-0.989371 17:-1 18:-0.910954 20:-1 21:-0.790503 
-0 -0 -0 -0 -0 -0 -0 -0 -0 -0 -0 4283.699443923812 118.0574447445352 0 0 1099.140340851436 0 0 0 0 0 0 0 0 0 1:-0.905294 2:-0.919094 3:-0.899379 4:-0.881717 5:-1 6:-0.658405 7:-0.975207 8:-0.843137 9:-0.793427 10:-1 11:-0.631008 12:-0.905347 13:-0.916182 14:-1 15:-0.763247 16:-0.928997 17:-1 18:-0.681639 20:-1 21:-0.76676 
-0 -56.30712797177595 -0 -0 -12.59000124558052 -13.74131913421644 -0 -0 -0 -53.86632652534605 -3044.961938960619 0 94.15860229566279 154.4268135744876 70.86556133040868 0 0 143.5882254972811 39.32771083334492 34.40602522990503 0 45.71167144240467 0 7.480506441458783 42.71343258620195 1:-0.781813 2:-0.572816 3:-0.818684 4:-0.860108 5:-1 6:-0.716595 7:-0.206612 8:-0.787115 9:-0.633803 10:-1 11:-0.804651 12:-0.912875 13:-0.890182 14:-1 15:-0.869222 16:-0.872024 17:-1 18:-0.846336 20:-1 21:-0.745461 
-0 -0 -0 -0 -69.24919440452589 -0 -0 -0 -0 -0 -0 0 1448.930635571494 0 0 951.1031214464218 0 0 0 0 0 0 0 0 0 1:-0.841319 2:-1 3:-0.852225 4:-0.869775 5:-1 6:-0.627155 7:-1 8:-0.887955 9:-1 10:-1 11:-0.885271 12:-0.940662 13:-0.885138 14:-1 15:-0.848365 16:-0.895833 17:-1 18:-0.475965 20:-1 21:-0.709148 
-0 -0 -0 -26.43441368098919 -97.48267259624689 -0 -49.65033256205658 -345.4079104534464 -56.94847674274621 -52.3048336647992 -0 193.4848353998271 0 0 0 0 0 0 0 0 0 0 0 158.3024730959024 245.8610936724682 1:-0.830423 2:-0.935275 3:-0.87156 4:-0.700313 5:-1 6:-0.752155 7:-1 8:-1 9:-1 10:-1 11:-0.72093 12:-0.898373 13:-0.67792 14:-1 15:-0.831454 16:-0.706633 17:-1 18:-0.408195 20:-1 21:-0.596718 
-0 -0 -0 -0 -0 -0 -0 -0 -0 -0 -0 0 877.7221129431032 0 0 5354.047641680098 0 0 0 0 0 0 0 0 0 1:-0.821483 2:-0.919094 3:-0.811976 4:-0.783907 5:-1 6:-0.793103 7:-1 8:-0.910364 9:-0.953052 10:-1 11:-0.748837 12:-0.883649 13:-0.764455 14:-1 15:-0.773393 16:-0.923469 17:-1 18:-0.744681 20:-1 21:-0.680517 
-0 -0 -0 -5.667861049348793 -0 -0 -0 -0 -0 -0 -4747.294217580749 0 0 1389.002527176247 0 0 0 0 0 0 0 0 0 0 0 1:-0.934628 2:-0.912621 3:-0.865246 4:-0.726471 5:-1 6:-0.705819 7:-0.950413 8:-1 9:-0.713615 10:-1 11:-0.776744 12:-0.852984 13:-0.72759 14:-1 15:-0.781849 16:-0.882653 17:-1 18:-0.717888 20:-1 21:-0.813198 
-0 -0 -0 -0 -0 -0 -300.5724667591394 -354.1966122500042 -14.00293106649345 -53.22776858487354 -0 0 0 169.182938492967 630.5859627831348 0 0 0 0 0 0 0 0 0 0 1:-0.916469 2:-0.847896 3:-0.888922 4:-0.802104 5:-1 6:-0.586207 7:-1 8:-0.921569 9:-1 10:-1 11:-0.804651 12:-0.860179 13:-0.895615 14:-1 15:-0.765502 16:-0.839286 17:-1 18:-0.597321 20:-1 21:-0.723115 
-10.36140876131058 -0 -0 -0 -0 -0 -0 -0 -0 -0 -0 0 0 0 564.2187502187784 0 0 0 0 0 0 0 0 0 0 1:-0.847465 2:-0.915858 3:-0.828943 4:-0.698607 5:-1 6:-0.59806 7:-1 8:-0.680672 9:-0.85446 10:-1 11:-0.556589 12:-0.857522 13:-0.855646 14:-1 15:-0.859076 16:-0.928997 17:-1 18:-0.618597 20:-1 21:-0.813547 
-0 -0 -0 -0 -0 -0 -0 -0 -0 -0 -0 0 0 0 0 0 0 0 0 0 0 0 0 68.01951477274604 182.8882946575212 1:-0.873725 2:-0.76699 3:-0.858735 4:-0.745806 5:-1 6:-0.641164 7:-1 8:-0.742297 9:-0.943662 10:-1 11:-0.547287 12:-0.892505 13:-0.845169 14:-1 15:-0.816798 16:-0.932398 17:-1 18:-0.642238 20:-1 21:-0.875349 
-0 -0 -0 -0 -0 -0 -0 -0 -0 -55.39671408374374 -0 0 0 0 0 0 0 0 0 0 0 0 0 0 0 1:-0.860874 2:-0.944984 3:-0.828746 4:-0.790162 5:-1 6:-0.62069 7:-1 8:-0.988796 9:-1 10:-1 11:-0.705426 12:-0.876342 13:-0.780753 14:-1 15:-0.807779 16:-0.99915 17:-1 18:-0.684791 20:-1 21:-0.815293 
-92.03359895818035 -122.6510973658448 -102.3036274334985 -0 -21.51407356112009 -2.312039795058983 -0 -12.02293996996968 -17.20216607701163 -0 -0 0 0 0 435.1897755206668 0 60.69905506485105 71.74453135290295 57.58780372973591 65.38970028890627 116.3682901920254 120.078546891868 0 8.345423327157549 26.21759693172431 1:-0.735159 2:-0.68932 3:-0.855776 4:-0.860677 5:-1 6:-0.431034 7:-1 8:-0.943978 9:-0.525822 10:-1 11:-0.413953 12:-0.888409 13:-0.935584 14:-1 15:-0.807779 16:-0.906037 17:-1 18:-0.72104 20:-1 21:-0.831704 
-0 -0 -0 -0 -152.6255762235269 -0 -197.5882242854314 -0 -0 -76.74661811451946 -0 201.8901423935148 0 0 0 0 0 0 0 0 0 0 0 0 0 1:-0.810867 2:-0.990291 3:-0.834665 4:-0.862383 5:-1 6:-0.587284 7:-1 8:-1 9:-0.873239 10:-1 11:-0.820155 12:-0.929924 13:-0.725262 14:-1 15:-0.822999 16:-0.940051 17:-1 18:-0.799054 20:-1 21:-0.855447 
-0 -0 -54.91187250890295 -0 -0 -0 -0 -410.386002560543 -0 -0 -6268.219145542588 0 0 2426.766881321039 2561.03590072039 0 1011.55241342903 0 0 0 0 0 0 0 0 1:-0.855566 2:-0.954693 3:-0.856762 4:-0.921524 5:-1 6:-0.575431 7:-1 8:-1 9:-1 10:-1 11:-0.863566 12:-0.912986 13:-0.85099 14:-1 15:-0.807215 16:-0.982143 17:-1 18:-0.850276 20:-1 21:-0.876047 
-0 -0 -0 -2.146010603894457 -0 -0 -0 -0 -23.38057105805191 -0 -1039.923386275388 0 2536.154548664209 0 0 0 0 0 0 0 0 0 0 0 0 1:-0.891046 2:-0.932039 3:-0.881819 4:-0.87205 5:-1 6:-0.731681 7:-1 8:-0.798319 9:-0.868545 10:-1 11:-0.916279 12:-0.958707 13:-0.608847 14:-1 15:-0.718715 16:-0.847789 17:-1 18:-0.670607 20:-1 21:-0.628492 
-0 -0 -0 -0 -0 -0 -0 -0 -0 -0 -0 1587.237749224884 667.4134296894161 0 0 557.2630980257196 0 0 0 0 0 0 0 4.587349343153543 0 1:-0.903897 2:-0.977346 3:-0.936273 4:-0.788456 5:-1 6:-0.801724 7:-1 8:-0.983193 9:-0.286385 10:-1 11:-0.83876 12:-0.959482 13:-0.676368 14:-1 15:-0.931229 16:-0.728741 17:-1 18:-0.572892 20:-1 21:-0.642807 
-0 -0 -0 -0 -0 -0 -0 -0 -0 -0 -3591.065714340576 3991.352542255651 0 10.31660014831857 0 0 545.1340242996787 0 0 0 0 0 0 0 0 1:-0.901662 2:-0.964401 3:-0.940811 4:-0.832812 5:-1 6:-0.705819 7:-1 8:-1 9:-1 10:-1 11:-0.922481 12:-0.975977 13:-0.859527 14:-1 15:-0.932356 16:-0.919643 17:-1 18:-0.733649 20:-1 21:-0.809008 
-0 -0 -0 -0 -0 -0 -0 -0 -7.285632808729647 -0 -0 0 1321.195393160762 0 518.1222973786764 3338.938120549598 0 0 0 0 0 0 0 0 0 1:-0.917866 2:-0.851133 3:-0.927789 4:-0.893091 5:-1 6:-0.560345 7:-1 8:-0.658263 9:-1 10:-1 11:-0.544186 12:-0.919407 13:-0.921614 14:-1 15:-0.761556 16:-0.940476 17:-1 18:-0.610717 20:-1 21:-0.684707 
-254.3023241440362 -33.74569542244573 -321.9144005532415 -0 -0 -0 -0 -0 -0 -0 -0 8192 0 0 2306.778357948393 6611.658898356858 0 84.34423420435162 0 112.8341573865598 55.38371173816579 55.30853013527037 178.8017091293067 27.4782514230337 217.7890748233253 1:-0.930717 2:-1 3:-0.985795 4:-0.902189 5:-1 6:-0.540948 7:-1 8:-1 9:-1 10:-1 11:-1 12:-0.994908 13:-0.980986 14:-1 15:-0.937993 16:-0.935374 17:-1 18:-0.598897 20:-1 21:-0.758031 
-0 -0 -0 -6.96998947887908 -0 -0.8878902033782916 -0 -7.636969868939452 -50.38572654783884 -53.33851570821192 -0 1356.11547946918 247.6067956296739 0 0 164.7499891071292 0 0 0 0 0 0 0 0 0 1:-0.885179 2:-0.805825 3:-0.803295 4:-0.790731 5:-1 6:-0.561422 7:-0.677686 8:-0.787115 9:-1 10:-1 11:-0.262016 12:-0.86184 13:-0.822274 14:-1 15:-0.656708 16:-0.886054 17:-1 18:-0.243499 20:-1 21:-0.692039 
-0 -0 -0 -0 -0 -0 -0 -122.7549139742537 -0 -0 -0 0 0 0 0 0 0 0 0 0 0 0 0 0 0 1:-0.851376 2:-0.983819 3:-0.8029 4:-0.766847 5:-1 6:-0.637931 7:-1 8:-0.854342 9:-0.830986 10:-1 11:-0.848062 12:-0.865604 13:-0.871944 14:-1 15:-0.677001 16:-0.930272 17:-1 18:-0.65721 20:-1 21:-0.825419 
-0 -0 -0 -0 -0 -0 -0 -0 -0 -0 -8192 -747.5166832833172 0 0 0 0 0 0 0 0 0 0 73.96908783912519 0 0 1:-0.950272 2:-0.906149 3:-0.972773 4:-0.812909 5:-1 6:-0.991379 7:-1 8:-0.893557 9:-0.971831 10:-1 11:-0.885271 12:-0.976198 13:-0.855258 14:-1 15:-0.983089 16:-0.752551 17:-1 18:-0.863672 20:-1 21:-0.978003 
-0 -0 -0 -0 -147.0679749113364 -0 -0 -44.83655862309312 -0 -53.05447979837783 -5022.342438661615 -2304.104952245073 0 1871.355914540329 0 0 6650.905922240747 0 0 0 0 0 0 70.52140343009258 111.587926680592 1:-0.89803 2:-0.873786 3:-0.953832 4:-0.843048 5:-1 6:-0.880388 7:-1 8:-0.837535 9:-1 10:-1 11:-0.764341 12:-0.946862 13:-0.783081 14:-1 15:-0.960541 16:-0.762755 17:-1 18:-0.876281 20:-1 21:-0.936103 
-0 -0 -0 -0 -0 -0 -0 -0 -0 -0 -0 -0 0 0 0 0 8192 0 0 0 0 0 0 135.9446357852556 302.0167343318496 1:-0.95558 2:-1 3:-0.978495 4:-0.802104 5:-1 6:-0.884698 7:-1 8:-1 9:-1 10:-1 11:-1 12:-0.994133 13:-0.89057 14:-1 15:-0.96336 16:-0.710884 17:-1 18:-0.79275 20:-1 21:-0.958799 
-127.7654500965164 -94.91008137035587 -311.1522461603055 -0 -0 -0 -51.48300245950189 -0 -23.65808353860533 -24.77139547060218 -0 -3019.165389271938 0 886.9884909122396 1092.76016065302 0 916.8356664311772 973.3186268316842 0 253.020781620993 407.2486204642597 425.2139616247591 0 0 0 1:-0.940494 2:-0.97411 3:-0.960541 4:-0.909582 5:-1 6:-0.514009 7:-1 8:-1 9:-1 10:-1 11:-0.72093 12:-0.964132 13:-0.861079 14:-1 15:-0.892334 16:-0.969813 17:-1 18:-0.870764 20:-1 21:-0.798184 
-0 -0 -0 -0 -34.04624037959422 -0 -32.25401189840466 -27.29321295001561 -0 -18.54656755517066 -0 -4311.699330759243 0 0 0 372.9425384945948 0 0 0 0 0 0 0 133.3517860450434 226.8709577553555 1:-0.961168 2:-1 3:-0.966657 4:-0.820301 5:-1 6:-0.753233 7:-1 8:-1 9:-1 10:-1 11:-1 12:-0.997454 13:-0.959643 14:-1 15:-0.967869 16:-0.816752 17:-1 18:-0.228526 20:-1 21:-0.783869 
-20.3458958127114 -2.958924983680144 -12.64796995095761 -11.85203549976933 -7.362593948303138 -13.65007975652291 -37.89146823821066 -54.89119756056152 -67.63752970253866 -16.16001623729003 -2865.429423630469 -8192 611.7947144303822 323.8066382030379 535.0611811084756 2377.974531795059 0 0 0 0 0 0 0 0 0 1:-0.875681 2:-0.880259 3:-0.930749 4:-0.836793 5:-1 6:-0.576509 7:-0.92562 8:-0.770308 9:-0.755869 10:-1 11:-0.541085 12:-0.955607 13:-0.900272 14:-1 15:-0.864149 16:-1 17:-1 18:-0.492514 20:-1 21:-0.697626 
-0 -0 -0 -0 -12.95413669840937 -0 -0 -0 -0 -0 -0 -0 0 0 0 0 683.5300844880342 0 66.19910957966206 0 70.76130522645489 90.55116950127595 0 67.74798865342065 29.94064495972539 1:-0.962006 2:-0.951456 3:-0.979678 4:-0.793574 5:-1 6:-0.84806 7:-0.867769 8:-0.871148 9:-0.399061 10:-1 11:-0.603101 12:-0.995793 13:-0.844393 14:-1 15:-0.976888 16:-0.698554 17:-1 18:-0.412136 20:-1 21:-0.934358 
-0 -0 -72.10506417583564 -0 -0 -0 -0 -0 -0 -0 -0 -0 0 0 0 0 0 90.99284997100578 40.64950342013847 111.972880612198 41.57723969542206 0 159.253493189845 0 44.06152216442904 1:-0.973181 2:-0.76699 3:-0.981849 4:-0.868069 5:-1 6:-0.62069 7:-0.983471 8:-0.927171 9:-0.892019 10:-1 11:-0.572093 12:-1 13:-0.906092 14:-1 15:-0.993799 16:-0.889031 17:-1 18:-0.360914 20:-1 21:-0.844623 
-46.23571316784816 -0 -0 -0 -0 -0 -0 -0 -0 -0 -644.2998729930982 -0 0 963.2810292262185 0 0 0 40.87495771059807 276.4418636603313 54.47299091534995 82.76672315929365 113.5382122980235 190.7853182174291 0 53.21332091185008 1:-0.931275 2:-0.928803 3:-0.975141 4:-0.792437 5:-1 6:-0.552802 7:-0.793388 8:-0.697479 9:-0.934272 10:-1 11:-0.444961 12:-0.992029 13:-0.904152 14:-1 15:-0.976888 16:-0.901361 17:-1 18:-0.568952 20:-1 21:-0.816341 
-0 -0 -0 -0 -0 -0 -0 -0 -5.159370428346991 -0 -0 -0 0 0 0 1149.526160831471 0 0 0 0 0 0 0 0 0 1:-0.974577 2:-0.935275 3:-0.987768 4:-0.940859 5:-1 6:-0.609914 7:-0.933884 8:-1 9:-1 10:-1 11:-0.80155 12:-0.993801 13:-0.927823 14:-1 15:-0.93743 16:-0.881803 17:-1 18:-0.538219 20:-1 21:-0.649791 
-0 -0 -0 -0 -0 -0 -0 -0 -0 -0 -0 -0 0 0 0 0 0 73.42900869842921 0 0 0 0 676.7460442413222 0 0 1:-0.958653 2:-1 3:-0.981454 4:-0.927211 5:-1 6:-0.773707 7:-1 8:-1 9:-1 10:-1 11:-1 12:-0.993911 13:-0.953434 14:-1 15:-0.956032 16:-0.893282 17:-1 18:-0.798266 20:-1 21:-0.872207 
-65.17297745780827 -34.3959906889313 -0 -0 -33.01360572883521 -0 -26.84075461575078 -0 -0 -0 -0 -294.7304531565651 0 0 534.7617180185405 0 0 0 0 0 0 0 0 0 243.8716121737258 1:-0.911161 2:-1 3:-0.977114 4:-0.856127 5:-1 6:-0.667026 7:-1 8:-1 9:-1 10:-1 11:-1 12:-0.99059 13:-0.967792 14:-1 15:-0.911499 16:-0.809949 17:-1 18:-0.695035 20:-1 21:-0.84602 
-0 -0 -0 -0 -0 -0 -0 -0 -0 -0 -8192 -0 0 0 0 0 3865.667552857182 15.97225547920392 969.0752369843746 0 279.2643288217812 124.6019781536537 1263.75829284474 0 0 1:-0.951669 2:-1 3:-0.94377 4:-0.967586 5:-1 6:-0.887931 7:-1 8:-1 9:-1 10:-1 11:-1 12:-0.940219 13:-0.912301 14:-1 15:-0.919391 16:-0.994898 17:-1 18:-0.970843 20:-1 21:-0.9375 
-0 -0 -0 -0 -0 -5.297521840440543 -0 -0 -0 -0 -5934.198319065971 -7740.31342221757 41.16097228779032 2677.315383044418 149.9780814342391 1328.15304528242 5961.55764420121 981.3877259302878 12.81998998628077 34.81699360075272 0 89.17956501712794 0 0 0 1:-0.916469 2:-1 3:-0.934892 4:-1 5:-1 6:-0.823276 7:-1 8:-1 9:-1 10:-1 11:-1 12:-0.883206 13:-1 14:-1 15:-0.78805 16:-1 17:-1 18:-1 20:-1 21:-0.863827 
-0 -0 -0 -0 -0 -0 -0 -0 -0 -0 -8192 -0 0 0 0 0 8192 0 0 0 0 0 0 0 0 1:-0.922056 2:-1 3:-0.933314 4:-0.978391 5:-1 6:-0.823276 7:-1 8:-1 9:-1 10:-1 11:-1 12:-0.885531 13:-0.964688 14:-1 15:-0.832582 16:-0.987245 17:-1 18:-0.939322 20:-1 21:-0.915503 
-0 -0 -0 -15.27417303036439 -0 -0 -78.80844955126545 -213.7489166448642 -0 -41.22278433872643 -0 -3633.973110851372 852.2668549559197 0 0 1446.583464297332 0 0 0 0 0 0 0 0 0 1:-0.938818 2:-1 3:-0.948703 4:-0.962468 5:-1 6:-0.730603 7:-1 8:-1 9:-1 10:-1 11:-1 12:-0.942433 13:-0.848273 14:-1 15:-0.834837 16:-0.864371 17:-1 18:-0.827423 20:-1 21:-0.818087 
-0.1580241079348977 -0 -21.66745824157593 -0 -43.26566320447704 -0.4626944891452417 -0 -11.01821773467823 -50.87251807078737 -5.250219984991663 -0 -2943.348379522105 -422.6212337268516 1225.612477220539 3350.806177745475 4336.655260527524 0 93.5289495648221 28.01691800576751 81.98595313523812 57.71971585860955 107.0286880927113 51.27412866499742 46.8101537322556 98.66072080874571 1:-0.953066 2:-0.89644 3:-0.872546 4:-0.883992 5:-1 6:-0.818966 7:-1 8:-0.753501 9:-0.849765 10:-1 11:-0.534884 12:-0.931473 13:-0.788902 14:-1 15:-0.824126 16:-0.878827 17:-1 18:-0.536643 20:-1 21:-0.701466 
-36.66925259124668 -28.83353041897293 -43.63973571283719 -21.53269667000933 -95.79971057331832 -0 -143.011348977071 -205.5308294578307 -0 -123.5687553164751 -503.9991925478678 -4527.763133192661 -574.1788296922515 0 871.3582870663862 0 150.6599737441094 0 60.9513414832787 0 11.80846597068231 0 40.1638828168684 84.05786510521261 104.911603313694 1:-0.937421 2:-0.919094 3:-0.892868 4:-0.895365 5:-1 6:-0.756466 7:-0.958678 8:-0.837535 9:-0.896714 10:-1 11:-0.91938 12:-0.906897 13:-0.733799 14:-1 15:-0.853439 16:-0.875 17:-1 18:-0.628054 20:-1 21:-0.696229 
-0 -0 -0 -9.267078621776831 -0 -0 -0 -0 -39.4880049551378 -0 -0 -0 -0 111.7990102960663 0 3348.248899190699 0 0 0 0 0 0 0 0 0 1:-0.941053 2:-1 3:-0.899181 4:-0.981234 5:-1 6:-0.448276 7:-1 8:-1 9:-1 10:-1 11:-1 12:-0.912654 13:-0.897943 14:-1 15:-0.62345 16:-1 17:-1 18:-0.902285 20:-1 21:-0.570531 
-0 -0 -0 -0 -0 -0 -0 -0 -0 -0 -0 -0 -41.66363304467858 0 0 0 0 0 0 0 0 0 0 0 0 1:-0.922894 2:-0.932039 3:-0.890106 4:-0.994882 5:-1 6:-0.404095 7:-1 8:-1 9:-1 10:-1 11:-0.875969 12:-0.899037 13:-0.994179 14:-1 15:-0.665727 16:-1 17:-1 18:-0.958235 20:-1 21:-0.622905 
-145.5219340305761 -50.30558152171184 -113.6742840516282 -0 -0 -0 -0 -0 -11.26014454994972 -0 -25.84484535565684 -0 -177.2451264511984 1284.345606246466 2354.638466803231 3055.088413830166 0 246.0855949607932 95.57029326751365 100.5098241704684 180.8491532684558 171.9710336098979 143.7791001083285 0 10.2747333993128 1:-0.922894 2:-0.932039 3:-0.890106 4:-0.994882 5:-1 6:-0.404095 7:-1 8:-1 9:-1 10:-1 11:-0.875969 12:-0.899037 13:-0.994179 14:-1 15:-0.665727 16:-1 17:-1 18:-0.958235 20:-1 21:-0.622905 
-0 -38.57721332984413 -0 -1.102128253159925 -41.56567755835027 -12.11059935755649 -122.8591634814626 -250.5395579215203 -0 -31.40987256946067 -932.8496428670068 -2024.552741767802 -289.5137187591122 1711.508283266205 6447.317088405117 896.0144480173627 183.2501613289861 12.22870590334897 20.31109706651338 0 0 0 0 0 2.466134011759412 1:-0.797178 2:-1 3:-0.875308 4:-0.960762 5:-1 6:-0.59806 7:-1 8:-1 9:-1 10:-1 11:-1 12:-0.849994 13:-0.972837 14:-1 15:-0.68602 16:-0.997449 17:-1 18:-0.93617 20:-1 21:-0.688198 
-0 -0 -0 -0 -0 -8.225763748499253 -0 -0 -0 -0 -0 -0 -0 0 0 0 0 0 0 0 0 0 0 0 0 1:-0.943847 2:-0.993528 3:-0.895038 4:-0.947114 5:-1 6:-0.697198 7:-1 8:-0.770308 9:-0.873239 10:-1 11:-0.813953 12:-0.878003 13:-0.926271 14:-1 15:-0.467306 16:-0.97534 17:-1 18:-0.802994 20:-1 21:-0.59602 
-0 -0 -0 -0 -0 -0 -137.7361275374999 -0 -0 -4.868113907115276 -5787.671891677614 -273.1356713959794 -619.8856234152701 -0 974.6860354569911 0 2965.910031360714 0 0 0 0 0 0 0 0 1:-0.903338 2:-1 3:-0.798757 4:-0.973273 5:-1 6:-0.84375 7:-1 8:-1 9:-1 10:-1 11:-1 12:-0.79431 13:-0.987971 14:-1 15:-0.834837 16:-1 17:-1 18:-0.933806 20:-1 21:-0.917249 
-0 -0 -0 -0 -15.95392487672326 -0 -12.41198409270422 -46.8822477347066 -0 -50.94476086095196 -8168.359905029807 -2724.219655055704 -0 -283.397118189164 0 0 0 0 2.034307782353889 0 47.16673793725709 0 0 0 0 1:-0.92932 2:-0.906149 3:-0.828352 4:-0.955644 5:-1 6:-0.800647 7:-1 8:-0.983193 9:-0.840376 10:-1 11:-0.869767 12:-0.793646 13:-0.924719 14:-1 15:-0.85513 16:-1 17:-1 18:-0.903861 20:-1 21:-0.944134 
-101.3294806064098 -54.89633544349891 -102.8321239246542 -0 -101.9375229218466 -0 -52.81421123860771 -80.14063947716969 -0.3382085708217782 -76.25715907874941 -5353.765457918326 -3202.199240214695 -2988.575395862997 -577.2734945255836 2176.570924836349 226.8615294253415 1533.236117673251 268.2722770169165 219.2077698374191 133.7506664789695 199.8488276598846 211.6748405751025 387.3698889936256 180.1430716215617 347.8735243286733 1:-0.963403 2:-0.990291 3:-0.940219 4:-0.769121 5:-1 6:-0.702586 7:-1 8:-0.876751 9:-1 10:-1 11:-0.733333 12:-0.962028 13:-0.88863 14:-1 15:-0.935175 16:-0.856293 17:-1 18:-0.787234 20:-1 21:-0.947975 
-0 -0 -0 -5.88644448335151 -41.41534864001605 -21.87081168956671 -0 -22.52306506582119 -18.80900939977831 -21.13900309819719 -1247.405503264322 -2018.398988556814 -657.3657656829365 -738.927799898357 2853.038711603449 107.0119707029673 0 0 0 0 0 0 0 0 0 1:-0.890487 2:-0.838188 3:-0.853014 4:-0.973841 5:-1 6:-0.679957 7:-1 8:-0.759104 9:-1 10:-1 11:-0.779845 12:-0.871361 13:-0.82305 14:-1 15:-0.728298 16:-0.980017 17:-1 18:-0.85658 20:-1 21:-0.584148 
-52.53325190518887 -55.51260041152958 -79.16015774361679 -25.89452508094599 -0 -0 -30.86988738717234 -214.4459736262092 -62.77070778864461 -0 -2103.710165947329 -0 -321.823824290574 -2733.666964416171 7898.975044515146 2512.954762254296 0 0 0 0 0 0 0 0 0 1:-0.905573 2:-1 3:-0.868403 4:-0.968155 5:-1 6:-0.578664 7:-1 8:-1 9:-1 10:-1 11:-0.823256 12:-0.866822 13:-0.913465 14:-1 15:-0.6646 16:-1 17:-1 18:-0.890465 20:-1 21:-0.597067 
-0 -0 -0 -0 -0 -0 -0 -0 -0 -0 -8192 -238.3180020542574 -1425.526037762167 -0 0 0 3577.194062920835 749.507233728636 769.8750515054662 0 335.114909385531 178.2033643877706 1068.885705710311 0 0 1:-0.971784 2:-0.954693 3:-0.955805 4:-0.978391 5:-1 6:-0.907328 7:-1 8:-0.887955 9:-0.943662 10:-1 11:-0.79845 12:-0.922838 13:-0.949554 14:-1 15:-0.868095 16:-0.986395 17:-1 18:-0.974783 20:-1 21:-0.902933 
-0 -0 -0 -0 -0 -0 -0 -0 -0 -0 -4713.057596877989 -1135.279811047043 -709.5708089122965 -0 69.65419268292855 0 44.52417690678957 398.682992522124 25.00722408407571 194.7044906830475 23.91394766723625 445.8986697149184 0 0 0 1:-0.939936 2:-0.825243 3:-0.906481 4:-0.985215 5:-1 6:-0.797414 7:-0.826446 8:-1 9:-1 10:-1 11:-0.668217 12:-0.924388 13:-0.884362 14:-1 15:-0.773957 16:-0.985544 17:-1 18:-0.940898 20:-1 21:-0.752095 
-0 -0 -0 -18.74176912386493 -0 -0 -4.211693402033912 -148.5258080332667 -70.77772159767383 -60.32126172055005 -40.8955426826729 -617.1533933624293 -134.9930250741549 -1335.273561757971 -2009.335268532711 786.8496842079135 0 0 0 0 0 0 0 0 0 1:-0.864786 2:-0.899676 3:-0.881819 4:-0.913563 5:-1 6:-0.678879 7:-0.917355 8:-0.798319 9:-1 10:-1 11:-0.43876 12:-0.810141 13:-0.702367 14:-1 15:-0.70575 16:-0.922194 17:-1 18:-0.767533 20:-1 21:-0.530377 
-0 -0 -0 -8.527065586101205 -0 -0 -0 -92.14714331867653 -0 -0 -926.8763412338651 -0 -0 -1030.883080358726 -4346.602252843632 0 0 0 0 0 0 0 0 0 0 1:-0.890487 2:-1 3:-0.845319 4:-0.934603 5:-1 6:-0.716595 7:-1 8:-1 9:-1 10:-1 11:-1 12:-0.855419 13:-0.967016 14:-1 15:-0.669109 16:-1 17:-1 18:-0.938534 20:-1 21:-0.626047 
-0 -0 -0 -0 -0 -0 -0 -0 -0 -0 -0 -306.1211310326865 -67.31508175376952 -5788.449071778114 -3278.70029682684 1148.653807130189 208.9598250253601 89.56772532758249 95.6752356242264 0 12.4207695229979 59.73817718268198 17.66040200937475 0 0 1:-0.896913 2:-1 3:-0.867416 4:-1 5:-1 6:-0.721983 7:-1 8:-1 9:-1 10:-1 11:-1 12:-0.888741 13:-0.963912 14:-1 15:-0.700676 16:-0.980867 17:-1 18:-0.907801 20:-1 21:-0.632332 
-0 -0 -0 -0 -121.2543443567636 -14.92044157393409 -7.094320446899888 -0 -0 -0 -0 -299.8470449602628 -0 -641.4406091218044 -0 134.6794826327254 0 0 0 0 0 0 0 0 0.9709380083542666 1:-0.802486 2:-0.838188 3:-0.826181 4:-0.873756 5:-1 6:-0.552802 7:-0.768595 8:-0.417367 9:-0.71831 10:-1 11:-0.665116 12:-0.852873 13:-0.883974 14:-1 15:-0.800451 16:-0.917092 17:-1 18:-0.677699 20:-1 21:-0.650838 
-28.94290653822554 -38.66650568372174 -18.07074984540752 -0 -0 -0 -0 -0 -0 -0 -232.8152107138152 -927.2478768278196 -204.9160349789022 -364.1652337556663 -490.0761316945567 0 0 77.13577275299056 84.62681320102456 29.07119976824357 15.52459687927428 83.44808894390246 75.69638856370779 21.32699585480293 71.80049061286456 1:-0.889649 2:-0.809061 3:-0.859722 4:-0.882286 5:-1 6:-0.451509 7:-0.966942 8:-0.551821 9:-0.793427 10:-1 11:-0.44186 12:-0.89793 13:-0.928599 14:-1 15:-0.891206 16:-0.907313 17:-1 18:-0.869976 20:-1 21:-0.917598 
-0 -0 -0 -0 -0 -0 -0 -0 -0 -0 -0 -0 -173.5299323848996 -0 -1964.877218314721 0 0 161.186019474615 0 155.2878968039805 133.2892477224664 286.7284620660261 112.2812508296938 0 0 1:-0.891046 2:-0.990291 3:-0.920292 4:-0.912425 5:-1 6:-0.503233 7:-1 8:-0.803922 9:-0.995305 10:-1 11:-0.516279 12:-0.95129 13:-0.927823 14:-1 15:-0.813416 16:-0.961735 17:-1 18:-0.867612 20:-1 21:-0.717179 
-0 -0 -0 -0 -0 -0 -0 -0 -0 -0 -0 -414.7017858207805 -40.63354284165866 -259.0302947900664 -769.2404700410896 0 0 0 0.05654766741349911 0 0 0 0 0 0 1:-0.866741 2:-0.97411 3:-0.896419 4:-0.869775 5:-1 6:-0.540948 7:-1 8:-1 9:-1 10:-1 11:-0.84186 12:-0.939112 13:-0.958479 14:-1 15:-0.859076 16:-0.920068 17:-1 18:-0.71316 20:-1 21:-0.797486 
-281.6565774906858 -87.20780762605312 -406.56052626874 -0 -85.29763180719445 -0 -279.3838830223416 -295.7026795897094 -0 -0 -474.8145188825048 -5279.960912754692 -1691.17352418089 -2737.10792619014 -1026.479853709924 2389.077523851513 209.2481849422835 309.0788900275111 146.4442631466939 91.26667990531833 226.7159459518493 113.5409238924956 230.338383667701 76.48837743496003 174.6343224536841 1:-0.866741 2:-0.97411 3:-0.896419 4:-0.869775 5:-1 6:-0.540948 7:-1 8:-1 9:-1 10:-1 11:-0.84186 12:-0.939112 13:-0.958479 14:-1 15:-0.859076 16:-0.920068 17:-1 18:-0.71316 20:-1 21:-0.797486 
-0 -0 -0 -0 -0 -3.302276045602341 -0 -0 -0 -0 -0 -0 -0 -0 -0 0 0 0 0 0 0 0 0 0 0 1:-0.827071 2:-0.993528 3:-0.849265 4:-0.987489 5:-1 6:-0.515086 7:-1 8:-0.798319 9:-1 10:-1 11:-0.913178 12:-0.884756 13:-0.967404 14:-1 15:-0.728298 16:-0.997874 17:-1 18:-0.951143 20:-1 21:-0.574721 
-48.6917337895879 -64.24863051664263 -25.47803050849024 -9.142529764086586 -0 -8.191509568896791 -21.63086663217681 -0 -30.73710146924053 -224.9900763033497 -0 -0 -0 -0 -0 56.83162790798423 0 0 0 0 0 0 0 25.89081904190509 56.81184159849659 1:-0.864506 2:-0.760518 3:-0.868995 4:-0.86352 5:-1 6:-0.247845 7:-0.479339 8:-0.568627 9:-0.981221 10:-1 11:-0.534884 12:-0.909886 13:-0.8052 14:-1 15:-0.666855 16:-0.852891 17:-1 18:-0.601261 20:-1 21:-0.503492 
-0 -0 -0 -0 -0 -0 -0 -0 -61.78941631328905 -0 -0 -0 -0 -867.7702422677211 -87.61341713138462 928.6211521025294 0 0 0 0 0 0 0 0 0 1:-0.877078 2:-0.964401 3:-0.883595 4:-0.827125 5:-1 6:-0.386853 7:-1 8:-0.663866 9:-0.971831 10:-1 11:-0.618605 12:-0.920292 13:-0.894839 14:-1 15:-0.726607 16:-0.970663 17:-1 18:-0.715524 20:-1 21:-0.711941 
-0 -0 -0 -0 -0 -0 -0 -0 -0 -0 -0 -0 -780.7413229504745 -0 -0 -0 0 0 0 54.85943269352742 0 0 0 0 0 1:-0.948037 2:-0.873786 3:-0.962711 4:-0.869775 5:-1 6:-0.794181 7:-0.719008 8:-1 9:-0.769953 10:-1 11:-0.68062 12:-0.976973 13:-0.837796 14:-1 15:-0.87655 16:-0.910714 17:-1 18:-0.488574 20:-1 21:-0.597765 
-0 -0 -0 -0 -11.139045115521 -0 -0 -131.1623952889593 -55.19358863253441 -16.57260715399405 -0 -922.6548767242182 -0 -0 -0 -0 0 0 0 0 0 0 0 109.5121827823376 132.1980152400796 1:-0.930437 2:-0.993528 3:-0.935878 4:-0.749218 5:-1 6:-0.840517 7:-1 8:-1 9:-1 10:-1 11:-0.782946 12:-0.948301 13:-0.807528 14:-1 15:-0.861894 16:-0.854167 17:-1 18:-0.321513 20:-1 21:-0.669344 
-0 -0 -0 -0 -0 -0 -0 -0 -0 -0 -52.38160603794246 -0 -0 -2468.477419863153 -986.0014131260343 -1294.654525479074 0 0 0 0 56.51525447667886 49.61326493916978 0 0 0 1:-0.889929 2:-0.94822 3:-0.898589 4:-0.956213 5:-1 6:-0.376078 7:-1 8:-0.943978 9:-1 10:-1 11:-0.782946 12:-0.91365 13:-0.923166 14:-1 15:-0.689966 16:-0.975765 17:-1 18:-0.878645 20:-1 21:-0.565992 
-202.8530995308512 -127.519055974572 -181.9462303026502 -25.77383097922309 -12.46304117307023 -9.584842696228048 -171.1144336223482 -134.4182531359058 -131.6097685870942 -65.16323100677458 -0 -2937.981075328821 -0 -0 -0 -691.2814429122786 0 0 0 0 0 0 0 0 19.28655470761915 1:-0.850817 2:-0.996764 3:-0.871954 4:-0.931191 5:-1 6:-0.274784 7:-1 8:-1 9:-1 10:-1 11:-0.770543 12:-0.912543 13:-0.905704 14:-1 15:-0.665727 16:-0.982143 17:-1 18:-0.791174 20:-1 21:-0.590433 
-60.5927976375948 -23.98212519551894 -96.27613115158478 -0 -137.7034795329273 -0 -187.036562053827 -0 -0 -96.98502813316654 -308.4636331422064 -8192 -1835.627331173556 -155.7006622425441 -172.0348025127851 -1364.707644428434 201.6994303824748 0 0.7935386960524924 0 0 0 63.38712821447008 100.6876438052367 220.2263015656914 1:-0.939377 2:-0.92233 3:-0.923251 4:-0.815183 5:-1 6:-0.784483 7:-1 8:-1 9:-1 10:-1 11:-0.937984 12:-0.936123 13:-0.853706 14:-1 15:-0.899662 16:-0.924745 17:-1 18:-0.539795 20:-1 21:-0.817039 
-0 -0 -0 -0 -0 -0 -0 -305.8792840595482 -0 -0 -0 -0 -915.7559457863404 -1661.522008329018 -0 -505.6599668784236 0 179.1442794411942 0 104.1695317573434 32.94572751049883 84.4623002775411 9.758823575521001 0 0 1:-0.903338 2:-0.919094 3:-0.891487 4:-0.944839 5:-1 6:-0.480603 7:-1 8:-1 9:-1 10:-1 11:-0.655814 12:-0.889516 13:-0.943345 14:-1 15:-0.674183 16:-1 17:-1 18:-0.720252 20:-1 21:-0.715782 
-0 -0 -0 -0 -40.00318158428987 -12.40001536490636 -0 -0 -0 -0 -3.452508471946248 -3773.062984797027 -829.0033120909528 -825.3513053194653 -0 -908.1321169338071 0 7.029101368114879 46.69576314582213 48.42600529714753 22.46056359737594 90.73906862399139 22.68610647699831 0 32.39432768982912 1:-0.829026 2:-0.831715 3:-0.876492 4:-0.950526 5:-1 6:-0.701509 7:-1 8:-0.579832 9:-0.859155 10:-1 11:-0.444961 12:-0.937119 13:-0.914241 14:-1 15:-0.824126 16:-0.975765 17:-1 18:-0.768322 20:-1 21:-0.623254 
-24.00931836822704 -0 -35.52066452443714 -0 -0 -0 -0 -0 -0 -0 -355.5401717720266 -3916.99380124461 -2314.051828699555 -1493.996682253904 -316.7423867257253 -680.2775812008374 259.1592068217069 284.1029919170019 254.8635905227868 21.59523859379501 188.4140157052191 94.97341982884737 232.1591637292412 0 0 1:-0.941333 2:-0.996764 3:-0.915951 4:-0.923799 5:-1 6:-0.641164 7:-1 8:-0.910364 9:-0.896714 10:-1 11:-0.962791 12:-0.92306 13:-0.958867 14:-1 15:-0.861894 16:-0.957058 17:-1 18:-0.744681 20:-1 21:-0.701816 
-0 -0 -0 -8.822622549635991 -0 -0 -0 -55.92606293596943 -0 -0 -0 -0 -0 -3135.723956410387 -0 -0 0 0 0 0 0 0 0 0 0 1:-0.921777 2:-0.935275 3:-0.899181 4:-0.89764 5:-1 6:-0.686422 7:-1 8:-0.865546 9:-0.882629 10:-1 11:-0.87907 12:-0.909332 13:-0.801707 14:-1 15:-0.744081 16:-0.934524 17:-1 18:-0.673759 20:-1 21:-0.585545 
-0 -0 -0 -0 -0 -0 -0 -0 -0 -0 -32.66578724041121 -0 -0 -1895.234987147279 -1372.049660018059 -0 0 0 0 0 0 0 0 0 0 1:-0.960888 2:-0.990291 3:-0.922265 4:-0.978391 5:-1 6:-0.66056 7:-1 8:-1 9:-1 10:-1 11:-0.789147 12:-0.91841 13:-0.986806 14:-1 15:-0.594701 16:-1 17:-1 18:-0.842396 20:-1 21:-0.575419 
-0 -0 -0 -0 -0 -0 -0 -0 -0 -0 -3865.106847043761 -57.50523726896603 -5773.823033717866 -0 -1116.372282933681 -0 -0 0 0 0 0 0 0 0 0 1:-0.90725 2:-1 3:-0.896616 4:-0.945977 5:-1 6:-0.817888 7:-1 8:-1 9:-1 10:-1 11:-1 12:-0.923281 13:-0.909197 14:-1 15:-0.834273 16:-0.968537 17:-1 18:-1 20:-1 21:-0.909218 
-5.187780495527718 -20.36946342657611 -16.7151303286692 -0 -0 -16.09890175438543 -0 -0 -0 -38.9048576600452 -5032.160419001021 -821.0755955452462 -7496.588495499629 -27.18015767819939 -3766.147191355193 -9.536784458292773 -0 511.7460315812971 514.1949156823636 95.44155281481885 126.866894470459 163.8672387785956 292.6978559882638 0 0 1:-0.908646 2:-0.938511 3:-0.915951 4:-1 5:-1 6:-0.809267 7:-1 8:-0.871148 9:-1 10:-1 11:-0.820155 12:-0.852541 13:-1 14:-1 15:-0.897971 16:-1 17:-1 18:-1 20:-1 21:-0.903631 
-0 -0 -0 -0 -0 -0 -0 -0 -0 -0 -2889.781963438014 -820.9359665494584 -5193.386023548063 -0 -2628.704427719563 -0 -0 0 76.74191878623333 52.97979211620169 306.0427071680525 159.0965333169698 376.4118856234418 0 0 1:-0.920659 2:-0.996764 3:-0.930946 4:-0.939153 5:-1 6:-0.883621 7:-1 8:-1 9:-1 10:-1 11:-0.848062 12:-0.909997 13:-0.927047 14:-1 15:-0.916573 16:-0.990646 17:-1 18:-0.838455 20:-1 21:-0.954609 
-54.12986408779179 -21.04231691710514 -74.92608011077952 -0 -0 -0 -142.2779017730672 -135.2232662856212 -13.53799291427922 -0.8367297783007531 -2691.319915864638 -2133.897141035589 -0 -259.6843160452918 -0 -408.6712255093509 -353.2980768637353 241.2537037049813 0 0 0 0 0 0 54.81441266758756 1:-0.906132 2:-1 3:-0.909243 4:-0.936309 5:-1 6:-0.775862 7:-1 8:-1 9:-1 10:-1 11:-1 12:-0.898594 13:-0.977105 14:-1 15:-0.890079 16:-0.982143 17:-1 18:-0.838455 20:-1 21:-0.898394 
-0 -0 -0 -0 -0 -0 -0 -0 -0 -0 -0 -0 -8192 -0 -0 -0 -0 244.5409573074742 366.5947268749825 0 0 0 610.0342013029822 0 0 1:-0.946082 2:-1 3:-0.965868 4:-0.935172 5:-1 6:-0.893319 7:-1 8:-1 9:-1 10:-1 11:-1 12:-0.974981 13:-0.922002 14:-1 15:-0.900789 16:-0.83801 17:-1 18:-0.882585 20:-1 21:-0.952165 
-45.66578684103689 -49.81135074602388 -19.47011673913989 -27.32932554194943 -106.7497013728244 -0.9122483522182581 -77.00725763232678 -203.2586963030699 -29.3629935481025 -140.2293530961255 -3317.040723621417 -686.4322057775096 -5046.622279629876 -47.04566134960421 -502.3727530966203 -0 -107.5605603404463 45.53521021064336 10.02148477431951 20.28348927418802 37.6776898468061 50.06649611536692 0 319.1478886802934 860.766975259963 1:-0.903618 2:-0.89644 3:-0.964684 4:-0.695195 5:-1 6:-0.807112 7:-1 8:-1 9:-0.901408 10:-1 11:-1 12:-0.969224 13:-0.742336 14:-1 15:-0.923337 16:-0.720663 17:-1 18:-0.794326 20:-1 21:-0.94588 
-0 -0 -0 -0 -169.5996931050085 -0 -0 -0 -2.75861823794656 -0 -0 -0 -2760.07703782291 -0 -107.2677337565311 -0 -0 0 0 0 1.248259872487012 0 0 286.6095548127435 922.340126183477 1:-0.925129 2:-1 3:-0.972773 4:-0.824282 5:-1 6:-0.832974 7:-1 8:-1 9:-1 10:-1 11:-1 12:-0.999557 13:-0.914241 14:-1 15:-0.921646 16:-0.490646 17:-1 18:-0.720252 20:-1 21:-0.950768 
-0 -0 -0 -0 -0 -0 -0 -0 -2.684635186159998 -0 -0 -0 -0 -0 -0 -0 -0 -0 855.4643794151167 59.76653892016678 99.06189169722464 2847.188546364961 0 0 0 1:-0.983517 2:-0.71521 3:-0.980665 4:-0.983509 5:-1 6:-0.742457 7:-0.504132 8:-0.988796 9:-1 10:-1 11:0.262016 12:-1 13:-0.957703 14:-1 15:-0.935175 16:-0.981718 17:-1 18:-0.963751 20:-1 21:-0.734986 
-0 -0 -0 -0 -0 -0 -0 -0 -0 -0 -0 -0 -0 -0 -0 -0 -0 -0 4103.108399488237 0 6009.443087978239 0 8192 0 0 1:-0.96899 2:-0.618123 3:-0.990727 4:-0.976685 5:-1 6:-0.653017 7:-0.495868 8:-1 9:-1 10:-1 11:-0.423256 12:-0.997675 13:-0.985254 14:-1 15:-0.970124 16:-0.969813 17:-1 18:-0.956659 20:-1 21:-0.868715 
-0 -0 -0 -0 -0 -0 -0 -0 -0 -0 -0 -0 -0 -0 -0 -0 -0 -0 5509.993421233446 0 890.493956287376 0 8192 0 0 1:-0.96899 2:-0.957929 3:-0.997435 4:-0.925505 5:-1 6:-0.639009 7:-1 8:-1 9:-0.882629 10:-1 11:-0.751938 12:-1 13:-0.98409 14:-1 15:-0.994363 16:-0.974915 17:-1 18:-0.931442 20:-1 21:-0.84183 
-0 -0 -0 -0 -0 -0 -0 -0 -0 -0 -0 -0 -0 -0 -0 -0 -0 -0 0 0 732.3233504059893 732.3873846668326 8192 0 0 1:-0.980165 2:-0.834951 3:-0.998224 4:-0.939721 5:-1 6:-0.700431 7:-1 8:-1 9:-0.868545 10:-1 11:-0.581395 12:-0.999668 13:-0.985642 14:-1 15:-1 16:-0.97534 17:-1 18:-0.950355 20:-1 21:-0.913757 
-0 -0 -0 -0 -0 -0 -0 -0 -0 -0 -0 -0 -0 -0 -0 -0 -0 -0 0 0 0 0 8192 0 0 1:-0.972622 2:-0.789644 3:-0.997238 4:-0.963605 5:-1 6:-0.761853 7:-0.85124 8:-1 9:-0.910798 10:-1 11:-0.826357 12:-1 13:-0.999612 14:-1 15:-0.988162 16:-0.996173 17:-1 18:-0.91647 20:-1 21:-0.925628 
-0 -0 -0 -0 -0 -0 -0 -0 -0 -0 -0 -0 -0 -0 -0 -0 -0 -0 2248.023272781806 0 0 0 8192 0 0 1:-0.972901 2:-0.928803 3:-0.994278 4:-0.985215 5:-1 6:-0.701509 7:-0.909091 8:-1 9:-1 10:-1 11:-0.823256 12:-0.998893 13:-1 14:-1 15:-0.971251 16:-0.996599 17:-1 18:-0.970055 20:-1 21:-0.886173 
-0 -0 -0 -0 -12.68840000047109 -0 -0 -0 -0 -0 -0 -0 -0 -0 -0 -0 -0 -0 8192 8192 2510.092004239102 8192 8192 0 23.0308099932274 1:-0.986311 2:-0.838188 3:-0.992503 4:-0.924936 5:-1 6:-0.786638 7:-1 8:-1 9:-0.976526 10:-1 11:-0.618605 12:-1 13:-0.979045 14:-1 15:-0.979707 16:-0.977466 17:-1 18:-0.828999 20:-1 21:-0.903631 
-0 -0 -0 -0 -0 -0 -0 -0 -0 -0 -0 -0 -0 -0 -0 -0 -0 -0 0 1619.486897992321 8050.715042833185 8192 8192 5.920240556585958 0 1:-0.960609 2:-0.588997 3:-1 4:-0.891385 5:-1 6:-0.614224 7:-0.61157 8:-1 9:-0.84507 10:-1 11:-0.11938 12:-1 13:-1 14:-1 15:-1 16:-0.967262 17:-1 18:-0.92041 20:-1 21:-0.814595 
-0 -0 -0 -0 -0 -0 -0 -0 -0 -0 -0 -0 -0 -0 -0 -0 -0 -0 2070.771628791467 0 0 0 0 0 0 1:-0.977092 2:-0.902913 3:-0.988754 4:-0.965311 5:-1 6:-0.719828 7:-1 8:-1 9:-1 10:-1 11:-0.820155 12:-1 13:-0.986418 14:-1 15:-0.941375 16:-0.995748 17:-1 18:-0.973207 20:-1 21:-0.77514 
-44.29726003371849 -22.94577646471974 -124.5926752040147 -0 -0 -0 -0 -0 -0 -0 -0 -0 -0 -0 -0 -0 -0 -0 7869.239097304515 8192 3135.442889725668 0 8192 39.52276424504873 0 1:-0.965358 2:-0.686084 3:-1 4:-0.938584 5:-1 6:-0.544181 7:-1 8:-1 9:-0.953052 10:-1 11:-0.696124 12:-1 13:-1 14:-1 15:-1 16:-1 17:-1 18:-0.888101 20:-1 21:-0.868366 
-0 -0 -0 -0 -0 -0 -4.665426187322102 -0 -0 -0 -0 -0 -0 -0 -0 -0 -0 -0 1986.785914269734 0 0 0 8192 0 0 1:-0.979327 2:-0.893204 3:-0.993686 4:-0.945408 5:-1 6:-0.701509 7:-1 8:-1 9:-0.910798 10:-1 11:-0.962791 12:-0.998339 13:-0.99612 14:-1 15:-0.978579 16:-0.980867 17:-1 18:-0.930654 20:-1 21:-0.848813 
-0 -0 -0 -0 -0 -0 -0 -0 -0 -0 -269.4586876816033 -0 -0 -0 -235.9431272643457 -0 -0 -0 0 0 0 2168.991176798782 6724.202416869527 0 0 1:-0.982959 2:-0.84466 3:-0.982638 4:-0.977822 5:-1 6:-0.884698 7:-1 8:-0.988796 9:-0.896714 10:-1 11:-0.665116 12:-0.996457 13:-0.995731 14:-1 15:-0.948703 16:-0.991497 17:-1 18:-0.927502 20:-1 21:-0.949372 
-0 -0 -0 -0 -0 -5.749634254461266 -0 -0 -0 -0 -0 -0 -0 -0 -0 -0 -0 -0 8192 0 0 7242.40096384756 246.9715746637009 0 0 1:-0.970666 2:-0.799353 3:-0.992108 4:-0.968723 5:-1 6:-0.578664 7:-1 8:-1 9:-0.938967 10:-1 11:-0.832558 12:-1 13:-0.992239 14:-1 15:-0.975197 16:-0.991497 17:-1 18:-0.903861 20:-1 21:-0.79993 
-0 -2.883592687258987 -0 -0 -0 -0 -0 -0 -0 -17.88657827500662 -0 -0 -0 -0 -0 -0 -0 -0 0 0 0 0 0 0 0 1:-0.963403 2:-0.621359 3:-0.987176 4:-0.95735 5:-1 6:-0.712284 7:-0.669421 8:-1 9:-0.971831 10:-1 11:-0.866667 12:-0.994022 13:-0.965076 14:-1 15:-0.96336 16:-0.99915 17:-1 18:-0.925138 20:-1 21:-0.925628 
-0 -0 -0 -0 -0 -0 -0 -0 -0 -0 -0 -0 -0 -0 -0 -0 -0 -0 0 0 2783.655360542211 0 3162.394214509613 0 0 1:-0.97793 2:-0.508091 3:-0.979678 4:-0.973273 5:-1 6:-0.741379 7:-0.123967 8:-0.848739 9:-0.892019 10:-1 11:-0.336434 12:-0.99214 13:-0.993791 14:-1 15:-0.956032 16:-1 17:-1 18:-0.98424 20:-1 21:-0.896299 
-60.27852679221424 -21.74840639567103 -193.4813900385001 -7.894485382957318 -19.14009944332102 -0 -98.65187401128681 -60.08676989794857 -48.73696634252558 -60.80483407070193 -0 -195.5962464322643 -310.4022440620542 -73.03976977709061 -0 -371.5829502448194 -273.9714529601012 -0 0 192.0745743920309 0 5708.822437658655 17.57475357312834 25.98203943601278 109.9755029071732 1:-0.969549 2:-0.951456 3:-0.972576 4:-0.911288 5:-1 6:-0.515086 7:-1 8:-1 9:-0.85446 10:-1 11:-0.717829 12:-0.994575 13:-1 14:-1 15:-0.94363 16:-0.995323 17:-1 18:-0.79275 20:-1 21:-0.820531 
-0 -0 -0 -0 -70.15586633521482 -4.236861176341367 -12.29255304040369 -2.441670830979446 -0 -5.331328788740191 -1296.511568950825 -554.1800434250027 -163.4209928762833 -0 -269.1449749274017 -0 -0 -246.1784111371657 0 0 0 0 6466.508772100063 0 0 1:-0.966476 2:-0.783172 3:-0.979087 4:-0.932897 5:-1 6:-0.90625 7:-0.834711 8:-0.893557 9:-0.924883 10:-1 11:-1 12:-1 13:-0.967404 14:-1 15:-0.966742 16:-0.974915 17:-1 18:-0.93223 20:-1 21:-0.973115 
-0 -0 -0 -0 -0 -0 -0 -0 -0 -0 -0 -0 -75.5250884610676 -0 -0 -0 -0 -378.8537492082552 0 0 0 0 0 0 0 1:-0.983797 2:-0.857605 3:-0.981059 4:-0.951663 5:-1 6:-0.802802 7:-1 8:-1 9:-1 10:-1 11:-0.897674 12:-0.996679 13:-0.994179 14:-1 15:-0.953213 16:-0.977891 17:-1 18:-0.910165 20:-1 21:-0.926327 
-0 -0 -0 -0 -3.469799087718018 -0 -0 -0 -0 -2.699328721961739 -54.5926024299898 -80.25324739623181 -0 -0 -0 -0 -0 -0 4712.127177078622 0 4551.119335947024 8192 8192 35.24898845358585 31.57765121030442 1:-0.988267 2:-0.838188 3:-0.985005 4:-0.943702 5:-1 6:-0.934267 7:-0.512397 8:-0.910364 9:-0.816901 10:-1 11:-0.869767 12:-0.998893 13:-0.973225 14:-1 15:-0.985908 16:-0.928146 17:-1 18:-0.858156 20:-1 21:-0.946229 
-0 -0 -0 -0 -0 -0 -0 -0 -0 -0 -275.0737954954668 -0 -0 -0 -327.3445607878024 -0 -0 -1.871715558874918 486.40976673376 0 8192 8192 8192 0 0 1:-0.995251 2:-0.932039 3:-0.990332 4:-0.954507 5:-1 6:-0.821121 7:-1 8:-1 9:-0.938967 10:-1 11:-0.652713 12:-0.999779 13:-0.985254 14:-1 15:-0.975761 16:-0.973214 17:-1 18:-0.918834 20:-1 21:-0.912011 
